~o
<STREAMINFO> 1 39
<VECSIZE> 39<NULLD><MFCC_D_A_0><DIAGC>
~s "silst"
<MEAN> 39
 -7.225021e+00 4.158167e+00 2.814822e+00 3.857008e+00 2.187659e-01 -3.418100e-01 2.233012e+00 3.484257e-01 7.941432e-01 2.351755e+00 2.025668e+00 4.496875e+00 4.234344e+01 -4.775603e-02 1.129986e-01 -4.171187e-02 1.562087e-02 6.800447e-02 -9.518144e-02 -5.049384e-02 -5.815548e-02 7.150376e-03 -4.050809e-02 -1.150807e-01 -5.715838e-02 1.425125e-01 -2.165974e-02 -1.789711e-02 2.081474e-02 -2.795448e-02 -4.522254e-02 -6.348213e-03 3.056106e-02 -9.127977e-03 -4.866821e-02 -1.283175e-02 -3.062685e-03 -5.174085e-02 6.458077e-02
<VARIANCE> 39
 1.502878e+01 2.213994e+01 1.598195e+01 1.347583e+01 1.869644e+01 2.441517e+01 2.535027e+01 2.635205e+01 2.104004e+01 2.054531e+01 2.190493e+01 1.704004e+01 1.513181e+01 1.136827e+00 1.666391e+00 1.680089e+00 1.379684e+00 1.720678e+00 2.515183e+00 2.412622e+00 2.039392e+00 2.020348e+00 1.882389e+00 2.229359e+00 1.671671e+00 9.824430e-01 2.276188e-01 3.120290e-01 3.399529e-01 2.864541e-01 3.423240e-01 5.032279e-01 4.802486e-01 3.981318e-01 3.974485e-01 3.552691e-01 4.516482e-01 3.418266e-01 2.083007e-01
<GCONST> 1.035829e+02
~h "b"
<BEGINHMM>
<NUMSTATES> 5
<STATE> 2
<MEAN> 39
 -4.993143e+00 4.071322e+00 3.979322e+00 1.799754e+00 -7.197215e-01 9.468392e-01 1.900703e+00 -2.261821e+00 -1.851491e+00 4.871579e-02 3.651209e-01 4.587217e+00 4.269303e+01 -2.804295e-01 -5.407371e-02 -2.982352e-02 -4.578395e-02 2.050094e-01 -4.435080e-02 2.025637e-02 2.465937e-01 1.093398e-01 8.882703e-02 4.150356e-01 5.698612e-02 8.896481e-02 -1.959619e-01 -1.574932e-01 1.225029e-02 -3.833776e-03 -9.833314e-02 -1.873639e-01 7.993776e-02 2.579167e-04 -5.177389e-02 6.483532e-02 -4.278916e-02 -4.818527e-02 5.346651e-01
<VARIANCE> 39
 2.971004e+01 3.054968e+01 7.955202e+00 1.387560e+01 1.824251e+01 2.307846e+01 2.573453e+01 1.678129e+01 2.091433e+01 2.208239e+01 4.973336e+01 2.196701e+01 2.335485e+01 2.113147e+00 1.196709e+00 7.327545e-01 9.465266e-01 1.407332e+00 1.470886e+00 1.841658e+00 1.849533e+00 1.602750e+00 1.920154e+00 2.856138e+00 1.872670e+00 1.352531e+00 5.280218e-01 2.906876e-01 1.721498e-01 2.367396e-01 2.812376e-01 3.306293e-01 3.521811e-01 4.035520e-01 3.576952e-01 3.996821e-01 4.850275e-01 4.055382e-01 8.783982e-01
<GCONST> 1.041014e+02
<STATE> 3
<MEAN> 39
 -7.237875e+00 2.329887e+00 3.611926e+00 6.189623e-01 -3.025498e+00 -5.794718e+00 3.794186e+00 -5.022036e-01 -3.367243e+00 8.440034e-01 -1.917893e+00 1.914239e+00 5.616558e+01 -1.526849e+00 -1.345113e+00 7.979006e-01 -9.658518e-01 -1.561836e+00 -1.558676e+00 3.216214e-01 6.753422e-02 -5.795475e-01 2.377824e-01 -3.674145e-01 -3.607371e-01 5.996512e+00 2.440733e-01 1.156815e-01 1.675245e-01 -7.112832e-01 -6.824431e-01 -1.956180e-03 -3.366090e-01 -2.704197e-01 -1.443872e-01 -2.975420e-01 -6.279747e-01 -1.993939e-01 2.311285e-01
<VARIANCE> 39
 4.681942e+01 4.378214e+01 2.169069e+01 5.559985e+01 2.120674e+01 5.724293e+01 3.429447e+01 3.631725e+01 2.907095e+01 3.482521e+01 3.296737e+01 1.865189e+01 1.871040e+02 5.905977e+00 4.471569e+00 5.229400e+00 6.145858e+00 4.465256e+00 5.190122e+00 3.259188e+00 4.294134e+00 3.659304e+00 3.195390e+00 5.221609e+00 2.586505e+00 1.034621e+01 1.322691e+00 8.182822e-01 8.611420e-01 1.047147e+00 6.448856e-01 1.243431e+00 8.516971e-01 6.102532e-01 6.638307e-01 7.339671e-01 6.288362e-01 4.065614e-01 3.211442e+00
<GCONST> 1.373085e+02
<STATE> 4
<MEAN> 39
 -8.482163e+00 4.822753e+00 7.795884e+00 -3.637534e+00 -7.509957e+00 -1.350906e+00 1.460227e+00 -2.280643e+00 -4.200944e+00 8.591052e-01 -4.070979e+00 3.745799e-01 5.859252e+01 -4.214954e-01 4.857966e-01 2.348099e-01 -1.914674e+00 -9.436694e-01 -2.061623e-01 -1.542851e+00 -5.936794e-01 -7.461617e-01 -7.378980e-01 -1.243356e+00 -8.590730e-01 9.351687e-01 9.737661e-02 4.925328e-02 -3.838297e-01 1.783228e-01 3.429914e-01 -3.790442e-02 -4.410461e-02 1.476451e-01 3.491140e-02 -1.858166e-01 1.530112e-02 -7.843010e-02 -6.458759e-01
<VARIANCE> 39
 1.941464e+01 2.911578e+01 7.971846e+01 8.317039e+01 5.718885e+01 6.191691e+01 7.913204e+01 6.546993e+01 2.965292e+01 3.608389e+01 4.844996e+01 3.697684e+01 2.925621e+02 3.166473e+00 2.096586e+00 5.745276e+00 5.676806e+00 3.701285e+00 4.000607e+00 5.245909e+00 3.545403e+00 3.363177e+00 3.395964e+00 2.619679e+00 2.215111e+00 5.734558e+00 4.703824e-01 3.539530e-01 1.073023e+00 7.326663e-01 5.856901e-01 6.772583e-01 7.825240e-01 6.504769e-01 3.523558e-01 5.288559e-01 4.318393e-01 4.537190e-01 1.576434e+00
<GCONST> 1.341316e+02
<TRANSP> 5
 0.000000e+00 1.000000e+00 0.000000e+00 0.000000e+00 0.000000e+00
 0.000000e+00 8.185283e-01 1.814717e-01 0.000000e+00 0.000000e+00
 0.000000e+00 0.000000e+00 7.245476e-01 2.754524e-01 0.000000e+00
 0.000000e+00 0.000000e+00 0.000000e+00 8.016109e-01 1.983890e-01
 0.000000e+00 0.000000e+00 0.000000e+00 0.000000e+00 0.000000e+00
<ENDHMM>
~h "d"
<BEGINHMM>
<NUMSTATES> 5
<STATE> 2
<MEAN> 39
 -8.423006e+00 5.198656e+00 3.442782e+00 -9.755966e-01 -4.140325e+00 -1.673752e+00 1.949984e+00 -3.412162e+00 -2.329713e+00 9.604138e-01 -2.045082e+00 -1.012104e-01 5.084447e+01 -8.209339e-01 -5.365494e-01 -4.734418e-02 -3.474087e-03 -7.899697e-01 -4.660723e-01 5.569135e-01 -3.532268e-01 -6.025350e-01 2.470341e-01 -1.721747e-01 -2.266336e-01 2.268051e+00 1.895753e-01 2.092947e-01 3.171623e-01 -2.188823e-01 -1.869445e-01 -1.329761e-02 -2.768328e-01 -1.066945e-01 -1.994842e-01 -1.369161e-01 -1.842820e-01 -6.129510e-02 -1.128227e-01
<VARIANCE> 39
 3.987122e+01 3.123709e+01 3.631768e+01 3.903271e+01 2.875357e+01 2.785620e+01 5.160559e+01 3.933961e+01 3.065294e+01 3.764212e+01 3.719151e+01 3.133723e+01 1.115839e+02 3.634590e+00 3.637804e+00 5.747455e+00 4.990063e+00 3.801471e+00 3.315333e+00 9.266961e+00 3.757884e+00 3.213477e+00 3.326732e+00 4.264602e+00 3.307126e+00 1.092671e+01 6.989760e-01 5.876068e-01 8.675208e-01 6.097730e-01 6.548957e-01 5.657667e-01 1.325916e+00 7.393610e-01 5.353473e-01 5.943103e-01 6.395417e-01 6.847599e-01 2.636903e+00
<GCONST> 1.350780e+02
<STATE> 3
<MEAN> 39
 -7.753762e+00 3.503500e+00 5.893296e+00 3.776691e-01 -5.804897e+00 -4.518399e+00 3.443674e+00 -2.616838e+00 -3.288774e+00 1.639298e+00 -2.404930e-01 8.783988e-01 4.844505e+01 5.011750e-01 6.981179e-02 3.895050e-01 -9.433049e-02 3.454379e-01 9.972315e-02 -8.130112e-01 1.874540e-01 3.682000e-01 -1.691865e-01 1.016504e-01 4.261087e-01 -1.248643e+00 -2.729834e-02 4.668096e-02 -2.624045e-01 -7.161777e-02 1.498547e-01 2.154930e-01 -3.623226e-02 1.260984e-01 1.664439e-01 1.586192e-01 1.062155e-01 -5.172759e-03 -1.296601e-01
<VARIANCE> 39
 2.869966e+01 2.402352e+01 3.605336e+01 5.560178e+01 3.455349e+01 2.933251e+01 4.677596e+01 3.180183e+01 2.934187e+01 2.475391e+01 2.205537e+01 1.910733e+01 6.391597e+01 2.969766e+00 2.246809e+00 3.361554e+00 3.153567e+00 2.104658e+00 3.172551e+00 3.303958e+00 2.442845e+00 2.392401e+00 2.415908e+00 1.932763e+00 1.489429e+00 3.479323e+00 6.341963e-01 5.181476e-01 6.148692e-01 5.073448e-01 5.659011e-01 7.008669e-01 7.191769e-01 4.456389e-01 5.184448e-01 4.696815e-01 3.463532e-01 3.164432e-01 7.884628e-01
<GCONST> 1.209344e+02
<STATE> 4
<MEAN> 39
 -6.714926e+00 4.940220e+00 3.863075e+00 2.336137e+00 -1.409438e+00 -3.608320e-01 2.076855e+00 1.301934e-01 6.461097e-02 3.698550e+00 2.885890e+00 3.718295e+00 4.045021e+01 6.370862e-02 1.909898e-01 -3.830228e-02 -6.393295e-02 8.661460e-03 3.285732e-02 -1.266453e-01 -6.643832e-03 -9.052826e-02 -4.857431e-02 -6.221957e-02 -7.428366e-02 -1.113649e-01 8.860650e-03 -1.239548e-02 3.364231e-03 -2.205361e-03 -2.039279e-02 -3.729388e-02 1.862579e-02 -6.247286e-02 -6.216361e-02 -7.778365e-02 -7.922550e-02 -3.701608e-02 8.449744e-02
<VARIANCE> 39
 8.074257e+00 1.571939e+01 1.183218e+01 1.593071e+01 1.864177e+01 1.885430e+01 2.805608e+01 2.702106e+01 2.028602e+01 2.073803e+01 1.833538e+01 1.623346e+01 2.440442e+01 5.943341e-01 7.144186e-01 6.947871e-01 9.926170e-01 1.480721e+00 1.595547e+00 1.723487e+00 1.541571e+00 1.876637e+00 2.189713e+00 1.685298e+00 1.559669e+00 5.591411e-01 1.310273e-01 1.193791e-01 1.659343e-01 1.816995e-01 3.071713e-01 2.863377e-01 3.437622e-01 2.933319e-01 3.287013e-01 4.066672e-01 3.487378e-01 3.089384e-01 1.097747e-01
<GCONST> 9.275816e+01
<TRANSP> 5
 0.000000e+00 1.000000e+00 0.000000e+00 0.000000e+00 0.000000e+00
 0.000000e+00 8.314984e-01 1.685016e-01 0.000000e+00 0.000000e+00
 0.000000e+00 0.000000e+00 7.851003e-01 2.148996e-01 0.000000e+00
 0.000000e+00 0.000000e+00 0.000000e+00 9.451814e-01 5.481850e-02
 0.000000e+00 0.000000e+00 0.000000e+00 0.000000e+00 0.000000e+00
<ENDHMM>
~h "f"
<BEGINHMM>
<NUMSTATES> 5
<STATE> 2
<MEAN> 39
 -1.201978e+01 3.556037e+00 -1.156510e+00 5.184382e+00 -8.824708e-01 2.772230e-01 3.180267e+00 8.622576e-01 -7.490708e-01 2.572839e+00 1.197639e+00 3.009574e+00 5.055593e+01 -4.289435e-01 -3.453057e-02 -1.213552e-01 8.300088e-02 -9.412461e-02 1.949151e-02 6.850620e-02 1.695573e-02 -5.857147e-02 9.961845e-02 -5.649000e-02 8.486211e-03 5.090659e-01 4.004925e-02 -1.161818e-02 7.818732e-03 -3.070635e-02 -2.667137e-03 -1.382928e-02 -1.461373e-02 -1.327253e-02 -7.900843e-03 -2.367620e-02 -5.757515e-03 -1.043613e-02 1.440283e-02
<VARIANCE> 39
 4.460920e+01 1.451827e+01 1.730455e+01 1.588447e+01 1.733213e+01 2.052793e+01 1.964882e+01 2.143047e+01 1.834364e+01 1.877202e+01 2.347239e+01 1.587779e+01 9.936355e+01 1.996897e+00 1.228853e+00 1.204425e+00 1.482780e+00 1.512217e+00 1.819272e+00 1.764100e+00 1.850679e+00 1.647918e+00 1.791793e+00 1.752619e+00 1.493744e+00 2.428204e+00 3.222504e-01 2.507260e-01 2.266887e-01 3.049309e-01 2.996382e-01 3.565239e-01 3.480175e-01 3.788032e-01 3.330477e-01 3.634742e-01 3.467412e-01 3.019608e-01 2.880459e-01
<GCONST> 1.035871e+02
<STATE> 3
<MEAN> 39
 -1.652460e+01 2.936357e+00 -3.550067e+00 4.371392e+00 -3.425607e+00 -9.569830e-01 3.760314e+00 3.281687e-01 -3.178876e+00 2.320058e+00 -8.682463e-01 2.083094e+00 6.305879e+01 2.976344e+00 -1.181681e-01 -7.522789e-01 -2.680400e+00 -4.381229e-01 -2.172245e-01 -5.714021e-01 -6.737721e-01 -6.871237e-01 -1.149974e+00 -8.509141e-01 -7.185650e-01 1.478733e+00 7.969630e-01 -1.957126e-01 -4.784287e-01 -1.171735e+00 -3.001834e-01 6.071818e-02 -2.427235e-01 -2.746052e-01 -1.880872e-01 -3.883580e-01 -2.759195e-01 -2.457937e-01 2.713864e-01
<VARIANCE> 39
 3.422101e+01 1.590733e+01 1.526227e+01 1.538667e+01 1.389035e+01 1.537388e+01 1.539769e+01 1.468765e+01 1.537997e+01 1.435917e+01 1.524857e+01 1.276194e+01 3.255312e+01 4.945178e+00 2.047932e+00 2.303306e+00 7.761295e+00 2.400441e+00 1.866297e+00 2.000494e+00 2.110312e+00 1.802240e+00 2.009228e+00 1.709361e+00 1.961000e+00 1.980319e+00 5.302736e-01 4.169271e-01 3.230157e-01 6.436614e-01 4.203658e-01 3.823518e-01 3.599347e-01 3.743196e-01 3.075224e-01 3.022066e-01 2.546978e-01 3.293811e-01 2.484641e-01
<GCONST> 1.065314e+02
<STATE> 4
<MEAN> 39
 -3.124780e-01 -7.771294e-01 -1.077232e+01 -1.658573e+01 -8.971641e+00 -2.018897e+00 -1.242206e-01 -4.360645e+00 -7.127366e+00 -5.821084e+00 -6.450623e+00 -2.780451e+00 7.057892e+01 1.208804e+00 -1.194068e+00 -1.449126e+00 -2.702121e+00 -6.716219e-01 -7.276271e-02 -7.895531e-01 -9.282667e-01 -6.047332e-01 -1.160874e+00 -9.381392e-01 -9.700773e-01 1.375650e+00 -9.148757e-01 9.788974e-02 3.834233e-01 1.143608e+00 2.942637e-01 -2.957050e-02 8.484895e-02 1.381389e-01 1.336425e-01 3.677424e-01 1.716206e-01 1.434585e-01 -4.110947e-01
<VARIANCE> 39
 1.468124e+01 6.584794e+01 3.637119e+01 5.625611e+01 4.330569e+01 4.633141e+01 2.341648e+01 2.746788e+01 2.248675e+01 2.269485e+01 2.077010e+01 2.249307e+01 4.926921e+01 4.473012e+00 3.900411e+00 2.089795e+00 9.540020e+00 3.100078e+00 2.981349e+00 2.041588e+00 2.505119e+00 2.098844e+00 2.511359e+00 1.680843e+00 1.869195e+00 2.966473e+00 5.143555e-01 5.089778e-01 3.012920e-01 8.872199e-01 3.066704e-01 4.008335e-01 3.545543e-01 3.776700e-01 3.680426e-01 3.837557e-01 2.671632e-01 3.760127e-01 3.012864e-01
<GCONST> 1.179051e+02
<TRANSP> 5
 0.000000e+00 1.000000e+00 0.000000e+00 0.000000e+00 0.000000e+00
 0.000000e+00 9.597281e-01 4.027195e-02 0.000000e+00 0.000000e+00
 0.000000e+00 0.000000e+00 7.483819e-01 2.516181e-01 0.000000e+00
 0.000000e+00 0.000000e+00 0.000000e+00 7.653357e-01 2.346643e-01
 0.000000e+00 0.000000e+00 0.000000e+00 0.000000e+00 0.000000e+00
<ENDHMM>
~h "k"
<BEGINHMM>
<NUMSTATES> 5
<STATE> 2
<MEAN> 39
 -1.044064e+01 -2.466699e-01 1.450692e+00 2.947261e+00 -5.708940e+00 -2.747702e+00 5.541807e+00 -2.077799e-01 -1.014998e+00 1.524636e+00 1.428287e+00 3.513990e+00 4.986600e+01 -5.613461e-01 -4.720526e-01 2.711000e-01 2.446098e-01 -5.403758e-02 -5.161558e-01 2.091921e-01 3.627468e-01 2.921205e-01 2.366882e-01 -6.900805e-02 1.239110e-01 8.905083e-01 -1.051935e-01 2.448577e-01 -5.134327e-02 -8.887725e-02 -9.187609e-03 8.517164e-02 -5.708615e-02 -3.617488e-02 -1.581007e-02 1.093423e-02 1.505218e-02 -5.665658e-02 1.369511e-01
<VARIANCE> 39
 3.628894e+01 4.959322e+01 3.467387e+01 5.378176e+01 4.179155e+01 4.736756e+01 4.714212e+01 4.220187e+01 2.855640e+01 3.378470e+01 2.945773e+01 2.131368e+01 8.628195e+01 5.179793e+00 4.229219e+00 3.053954e+00 4.914557e+00 3.828134e+00 5.225919e+00 4.375038e+00 3.163813e+00 2.807166e+00 2.978900e+00 2.925450e+00 2.166224e+00 1.185848e+01 7.547380e-01 9.275138e-01 5.036803e-01 8.232706e-01 7.241319e-01 1.166495e+00 8.802295e-01 6.107687e-01 5.529310e-01 6.223627e-01 6.320623e-01 4.197879e-01 1.614820e+00
<GCONST> 1.335833e+02
<STATE> 3
<MEAN> 39
 -1.513032e+01 2.515512e+00 1.434992e+00 3.594319e+00 -6.002530e+00 -3.743795e+00 4.901609e+00 7.067572e-01 -9.444340e-01 1.098612e+00 1.367186e+00 3.335599e+00 5.514645e+01 5.520846e-01 7.388585e-01 4.444610e-01 -8.389868e-02 4.163553e-01 5.806769e-01 -4.248666e-01 -1.289347e-01 1.473084e-01 4.754825e-02 2.852399e-01 2.737298e-02 -1.060197e+00 8.938465e-02 2.659940e-02 -1.340263e-01 -6.566670e-02 5.300015e-02 1.497492e-01 -6.266552e-02 -1.369179e-01 -6.210758e-02 4.049215e-02 -1.384103e-02 -1.165189e-02 -1.887392e-01
<VARIANCE> 39
 4.607391e+01 1.750386e+01 4.121300e+01 5.679075e+01 2.951228e+01 2.474675e+01 2.760705e+01 3.826892e+01 3.223398e+01 2.354813e+01 2.668204e+01 1.615799e+01 1.290095e+02 2.446639e+00 2.687638e+00 1.949860e+00 1.439083e+00 1.496688e+00 2.167260e+00 2.417362e+00 2.182608e+00 2.273722e+00 2.441689e+00 2.329915e+00 1.399220e+00 2.384151e+00 4.143305e-01 5.131397e-01 3.913609e-01 2.998486e-01 3.235822e-01 4.486651e-01 4.822422e-01 4.844266e-01 5.354614e-01 4.830473e-01 4.725012e-01 3.050676e-01 4.757684e-01
<GCONST> 1.156555e+02
<STATE> 4
<MEAN> 39
 -7.425680e+00 4.198638e+00 3.038192e+00 3.965887e+00 -1.069550e+00 1.744165e-01 3.376961e+00 -1.446301e-02 -1.536808e-01 2.966574e+00 3.370331e+00 4.450505e+00 4.083108e+01 6.584722e-02 1.167037e-01 8.425253e-03 -1.114354e-01 4.848875e-02 1.311216e-01 -9.098808e-02 -1.023457e-01 1.089011e-02 4.367657e-02 -2.921167e-02 -9.928716e-03 -1.260658e-01 -4.107489e-02 -3.557009e-02 -8.893378e-03 7.223522e-03 -2.850248e-02 -4.231159e-02 1.450556e-02 1.787573e-02 -1.730625e-02 -2.608268e-02 -3.022426e-02 -1.220973e-02 7.750479e-02
<VARIANCE> 39
 1.140096e+01 1.098736e+01 1.047477e+01 1.360581e+01 1.295014e+01 2.131922e+01 2.221691e+01 1.929361e+01 1.868899e+01 1.727435e+01 1.740740e+01 1.427361e+01 2.794393e+01 5.652362e-01 6.853293e-01 7.160049e-01 9.262887e-01 1.056206e+00 1.643565e+00 1.777092e+00 1.488061e+00 1.675020e+00 1.622394e+00 1.576949e+00 1.391617e+00 7.624237e-01 1.131166e-01 1.406696e-01 1.419805e-01 1.766551e-01 2.123562e-01 3.192451e-01 3.553715e-01 2.848818e-01 3.239818e-01 3.256780e-01 3.219453e-01 2.790370e-01 1.226362e-01
<GCONST> 8.988544e+01
<TRANSP> 5
 0.000000e+00 1.000000e+00 0.000000e+00 0.000000e+00 0.000000e+00
 0.000000e+00 7.896835e-01 2.103166e-01 0.000000e+00 0.000000e+00
 0.000000e+00 0.000000e+00 7.672433e-01 2.327567e-01 0.000000e+00
 0.000000e+00 0.000000e+00 0.000000e+00 9.440480e-01 5.595190e-02
 0.000000e+00 0.000000e+00 0.000000e+00 0.000000e+00 0.000000e+00
<ENDHMM>
~h "l"
<BEGINHMM>
<NUMSTATES> 5
<STATE> 2
<MEAN> 39
 -2.078773e+00 5.170505e-01 3.586297e+00 -5.421542e+00 -7.824844e+00 -6.695883e+00 2.819334e+00 -2.288437e+00 -2.942178e+00 -3.124732e-01 -6.456124e+00 -2.222334e-01 6.102408e+01 -9.041792e-01 5.860150e-03 1.124744e+00 -1.019683e+00 -2.381797e+00 -6.259229e-01 9.324983e-01 -1.125368e+00 -1.923866e+00 4.179006e-01 -1.638772e-01 -2.750767e-01 3.217032e+00 -2.124755e-01 -1.318497e-01 1.666519e-01 -3.557599e-01 -4.046767e-01 5.392241e-02 -2.273679e-01 -5.134923e-01 -1.051705e-01 -1.457410e-02 -1.876243e-01 -2.718601e-01 2.865967e-01
<VARIANCE> 39
 2.237103e+01 2.585441e+01 4.678110e+01 1.108026e+02 6.022510e+01 3.851368e+01 3.596242e+01 2.458912e+01 3.939105e+01 3.917690e+01 4.985628e+01 2.065238e+01 1.285032e+02 1.252733e+00 3.059318e+00 5.847573e+00 1.365196e+01 5.351305e+00 2.801822e+00 3.894344e+00 3.803198e+00 3.423745e+00 2.612409e+00 6.779060e+00 3.035467e+00 1.136786e+01 1.899852e-01 4.249124e-01 7.302002e-01 2.186037e+00 9.721892e-01 5.428662e-01 9.313096e-01 7.122366e-01 5.225946e-01 4.779931e-01 1.308533e+00 5.514290e-01 2.565585e+00
<GCONST> 1.351616e+02
<STATE> 3
<MEAN> 39
 -6.218967e+00 -3.267838e+00 5.296022e+00 -1.380231e+01 -2.020489e+01 -7.834997e+00 6.422182e+00 -8.727824e+00 -6.050892e+00 -4.980876e+00 -9.933663e+00 -6.478459e+00 7.438694e+01 -2.167114e-01 -3.787382e-02 3.585011e-02 -2.243532e-01 1.622389e-01 3.896773e-01 -2.816922e-01 -8.631101e-01 2.244052e-02 -2.874551e-01 -3.195451e-01 -1.649266e-01 -4.367974e-02 5.923815e-02 7.241332e-02 -1.570324e-01 -4.347362e-03 3.090133e-01 1.379014e-01 -8.528759e-02 5.742751e-02 2.331476e-01 2.455099e-02 -7.922077e-02 8.629142e-02 -2.660753e-01
<VARIANCE> 39
 1.089634e+01 2.040174e+01 5.382541e+01 5.943162e+01 6.155965e+01 1.755074e+01 3.534722e+01 2.412300e+01 2.764797e+01 4.296468e+01 3.533891e+01 2.837065e+01 1.784237e+01 1.126816e+00 7.023956e-01 2.008339e+00 2.530228e+00 4.440528e+00 1.323804e+00 2.223862e+00 3.941010e+00 1.435151e+00 2.501639e+00 3.179714e+00 1.495808e+00 4.008867e-01 6.735685e-02 1.000626e-01 2.456690e-01 3.147636e-01 4.221471e-01 2.032282e-01 3.593946e-01 4.061261e-01 3.318824e-01 3.353270e-01 4.840904e-01 1.878757e-01 2.758981e-01
<GCONST> 1.051940e+02
<STATE> 4
<MEAN> 39
 -2.394827e+00 1.706100e+00 -3.242010e+00 -6.160355e+00 1.193288e+00 1.478474e+00 4.809720e+00 -7.403943e+00 -2.312806e+00 -1.847820e+00 -2.503347e+00 4.146206e-01 5.237460e+01 -4.119056e-02 3.170504e-01 1.895257e-01 2.007527e-01 6.919414e-02 1.876674e-01 -9.666299e-02 6.019823e-02 -1.200015e-02 2.786679e-01 1.002180e-01 7.093719e-02 -6.530732e-01 -1.401281e-03 5.124544e-03 2.231079e-02 3.297495e-02 -2.269567e-02 -3.086646e-02 3.104033e-03 6.588492e-02 -2.683508e-03 -2.990786e-02 1.178155e-02 1.769447e-02 8.655484e-04
<VARIANCE> 39
 1.943258e+01 4.207564e+01 4.594508e+01 7.591488e+01 4.817414e+01 2.587926e+01 2.556166e+01 5.640267e+01 3.404601e+01 4.674191e+01 4.686036e+01 2.731538e+01 1.834640e+02 6.415243e-01 8.748645e-01 8.705031e-01 1.535419e+00 1.616348e+00 1.495461e+00 1.592306e+00 2.135052e+00 1.847101e+00 1.622359e+00 1.815199e+00 1.555516e+00 5.898090e-01 1.062824e-01 1.024962e-01 1.544774e-01 2.131348e-01 2.716308e-01 2.549673e-01 2.731865e-01 3.593166e-01 3.038474e-01 3.025244e-01 2.899776e-01 2.857709e-01 6.800374e-02
<GCONST> 1.036182e+02
<TRANSP> 5
 0.000000e+00 1.000000e+00 0.000000e+00 0.000000e+00 0.000000e+00
 0.000000e+00 7.509874e-01 2.490125e-01 0.000000e+00 0.000000e+00
 0.000000e+00 0.000000e+00 8.357413e-01 1.642587e-01 0.000000e+00
 0.000000e+00 0.000000e+00 0.000000e+00 9.472221e-01 5.277792e-02
 0.000000e+00 0.000000e+00 0.000000e+00 0.000000e+00 0.000000e+00
<ENDHMM>
~h "m"
<BEGINHMM>
<NUMSTATES> 5
<STATE> 2
<MEAN> 39
 -1.400729e+00 -1.153194e+01 -8.529101e-01 -4.504191e+00 -9.211987e+00 -4.375170e+00 7.455826e-01 -5.491061e+00 -1.177399e+01 -1.433365e+01 -8.647248e+00 -1.038728e+00 6.976434e+01 3.102944e-01 7.173522e-01 1.735727e-01 3.245329e-01 4.500812e-01 -3.747936e-01 -5.727966e-01 -6.578773e-03 5.663287e-01 1.601737e-01 4.193381e-01 -1.159657e-01 -7.189366e-01 -7.289665e-02 2.281319e-03 -4.669555e-03 1.202250e-02 8.935671e-03 1.103566e-02 6.185188e-02 -2.660477e-02 -4.441910e-03 7.925059e-02 -1.118354e-03 1.084611e-01 1.926923e-02
<VARIANCE> 39
 9.525550e+00 2.035212e+01 5.086359e+00 6.200563e+00 1.829346e+01 2.442593e+01 2.689053e+01 3.132497e+01 5.097137e+01 9.547966e+00 2.603442e+01 2.046655e+01 2.998724e+01 4.036905e-01 1.026598e+00 3.628596e-01 5.516065e-01 8.523954e-01 8.026128e-01 1.916775e+00 1.969169e+00 1.185290e+00 9.306759e-01 1.979628e+00 1.398186e+00 7.631068e-01 8.329958e-02 8.931873e-02 7.729811e-02 8.544052e-02 1.162706e-01 1.817594e-01 3.217843e-01 2.703401e-01 1.925191e-01 2.074057e-01 4.128260e-01 3.135025e-01 8.646250e-02
<GCONST> 8.447245e+01
<STATE> 3
<MEAN> 39
 1.227279e+00 4.671483e+00 2.196562e+00 3.165394e+00 2.801590e-01 -6.390293e+00 -5.714399e+00 -1.122535e+01 -3.281985e+00 -1.022473e+01 -4.189865e+00 -1.036965e+00 5.260771e+01 -1.630818e-01 5.623568e-01 1.764757e-01 3.419660e-01 2.131548e-01 5.648242e-01 1.779586e-01 1.035931e-01 -2.984902e-01 3.454842e-01 -2.505239e-01 2.757541e-01 -9.036990e-01 -4.322260e-02 -1.013641e-01 -3.765000e-02 -6.395668e-02 -4.746165e-02 7.071540e-02 1.193103e-01 1.421080e-01 5.198668e-02 4.458073e-02 3.057073e-02 2.442341e-02 1.518892e-02
<VARIANCE> 39
 4.484579e+00 1.459402e+01 1.162950e+01 1.076855e+01 1.539973e+01 2.946424e+01 2.100042e+01 2.476397e+01 1.961825e+01 1.240647e+01 2.591256e+01 2.291274e+01 3.794155e+01 3.722066e-01 3.903752e-01 5.009590e-01 5.763359e-01 6.507993e-01 1.063676e+00 1.298218e+00 1.479433e+00 1.232570e+00 1.498793e+00 1.300533e+00 1.487510e+00 1.945044e-01 5.808312e-02 6.476142e-02 9.390466e-02 1.081927e-01 1.284919e-01 2.129900e-01 2.533542e-01 1.634556e-01 2.355763e-01 2.589682e-01 2.252586e-01 2.427258e-01 3.222185e-02
<GCONST> 7.923415e+01
<STATE> 4
<MEAN> 39
 -5.869501e+00 4.730806e+00 1.129627e+00 3.200419e+00 1.046120e+00 1.824619e+00 2.266555e+00 6.663844e-01 1.796367e-01 1.406556e+00 1.989869e+00 4.551233e+00 3.956805e+01 -1.428044e-01 -1.009187e-01 -6.736966e-02 -8.327225e-02 -6.920558e-02 4.995782e-02 1.477998e-01 1.695585e-01 1.848743e-01 3.033096e-01 2.773641e-01 1.698224e-01 -1.169255e-01 4.255997e-02 2.717513e-02 2.520798e-02 1.101115e-02 -4.475497e-03 -5.208855e-02 -5.017576e-02 -4.394290e-02 -4.331559e-02 -6.379546e-02 -5.091794e-02 -3.775689e-02 3.203263e-02
<VARIANCE> 39
 5.401468e+00 8.952484e+00 1.069556e+01 9.830715e+00 9.522655e+00 1.666802e+01 1.575091e+01 2.370643e+01 1.624939e+01 1.750480e+01 1.951859e+01 1.685550e+01 9.408488e+00 3.515711e-01 5.580268e-01 7.599090e-01 7.671857e-01 9.193324e-01 1.431787e+00 1.446564e+00 1.738826e+00 1.781966e+00 1.706339e+00 1.796771e+00 1.682057e+00 3.272583e-01 6.847956e-02 1.028998e-01 1.447184e-01 1.396620e-01 1.744747e-01 3.061449e-01 2.929907e-01 3.281533e-01 3.537833e-01 2.857685e-01 3.492332e-01 3.234042e-01 6.483527e-02
<GCONST> 8.368246e+01
<TRANSP> 5
 0.000000e+00 1.000000e+00 0.000000e+00 0.000000e+00 0.000000e+00
 0.000000e+00 8.809390e-01 1.190609e-01 0.000000e+00 0.000000e+00
 0.000000e+00 0.000000e+00 9.483552e-01 5.164478e-02 0.000000e+00
 0.000000e+00 0.000000e+00 0.000000e+00 9.642094e-01 3.579064e-02
 0.000000e+00 0.000000e+00 0.000000e+00 0.000000e+00 0.000000e+00
<ENDHMM>
~h "n"
<BEGINHMM>
<NUMSTATES> 5
<STATE> 2
<MEAN> 39
 -3.168381e+00 1.602163e+00 1.109663e+00 -8.368361e+00 -5.438786e+00 -1.366992e+01 -5.351059e+00 -2.933218e+00 -1.295366e+01 -1.420020e+01 -1.361438e+01 -1.347679e+00 6.352955e+01 2.602967e-01 3.932440e-01 3.483018e-01 4.713788e-01 1.380859e-01 -1.480264e-01 -1.038717e-01 -1.718176e-01 -4.205270e-01 -4.093721e-01 -8.194167e-02 -6.657461e-02 -7.561005e-01 -1.404473e-02 1.291155e-02 -1.125659e-02 1.013133e-01 2.975762e-02 8.914623e-02 -9.164236e-03 -2.535254e-02 6.027131e-02 1.084980e-01 7.023899e-02 -1.253134e-03 -1.035502e-01
<VARIANCE> 39
 9.331723e+00 3.382071e+01 4.284903e+01 4.974600e+01 3.030768e+01 5.593310e+01 5.425789e+01 4.642242e+01 7.159964e+01 4.309692e+01 5.427858e+01 2.423224e+01 7.409685e+01 5.676768e-01 6.855502e-01 7.806941e-01 1.439227e+00 1.571099e+00 1.521279e+00 1.606211e+00 1.857946e+00 2.139404e+00 1.730466e+00 1.603770e+00 1.228645e+00 1.470212e+00 7.754105e-02 1.076861e-01 1.208694e-01 1.909126e-01 2.492608e-01 2.280660e-01 2.467087e-01 3.030343e-01 3.228172e-01 2.442108e-01 2.474025e-01 2.245110e-01 9.729395e-02
<GCONST> 1.016189e+02
<STATE> 3
<MEAN> 39
 -1.424305e+00 5.352922e+00 5.019989e+00 -1.365588e+00 -4.863419e+00 -9.593231e+00 -4.845521e+00 -5.427915e+00 -9.091618e+00 -1.304579e+01 -1.039311e+01 -1.374269e+00 5.290871e+01 -3.338035e-01 -8.720826e-01 -7.290599e-01 1.363282e-01 5.794156e-01 6.187789e-01 6.811308e-01 8.619835e-01 3.974442e-01 6.305791e-01 6.320232e-01 4.006278e-01 2.295196e-02 -1.945816e-01 -2.259530e-01 -1.365275e-01 -1.150995e-01 1.564195e-01 2.267498e-01 1.875870e-01 1.230392e-01 5.901787e-02 2.293388e-01 2.114696e-01 1.210028e-01 8.549313e-02
<VARIANCE> 39
 9.324621e+00 2.590672e+01 2.480250e+01 2.212838e+01 3.235381e+01 6.416860e+01 4.785538e+01 3.983976e+01 4.926071e+01 3.723586e+01 3.374255e+01 2.404002e+01 8.834338e+01 1.042296e+00 2.693838e+00 1.635139e+00 2.423527e+00 3.094450e+00 3.578971e+00 3.472475e+00 2.861607e+00 5.799540e+00 4.053196e+00 4.042185e+00 2.379600e+00 5.196155e+00 1.688370e-01 3.342816e-01 2.422661e-01 3.308406e-01 4.380851e-01 4.881967e-01 5.198405e-01 5.965192e-01 8.495830e-01 4.798448e-01 4.247208e-01 3.782946e-01 2.835882e-01
<GCONST> 1.194392e+02
<STATE> 4
<MEAN> 39
 -6.505765e+00 2.519023e+00 3.209148e+00 2.175634e+00 -1.256245e+00 -3.586351e-01 1.842409e+00 -9.278282e-01 -2.002487e+00 1.179542e+00 1.703668e+00 3.453102e+00 4.313910e+01 -7.594356e-02 -2.522784e-02 -8.828571e-02 4.925762e-02 5.179547e-02 9.852650e-02 1.030909e-01 6.670663e-02 1.673585e-01 1.970100e-01 1.945789e-01 7.405561e-02 -5.106739e-02 1.980705e-02 3.053558e-02 2.565920e-02 -8.614398e-03 -3.303693e-02 -5.005851e-02 -4.684617e-02 -4.788376e-02 -3.821526e-02 -7.061633e-02 -7.526904e-02 -4.137514e-02 5.087438e-02
<VARIANCE> 39
 9.854695e+00 2.716745e+01 1.366023e+01 1.808974e+01 1.735076e+01 2.388191e+01 2.279159e+01 2.719503e+01 2.802438e+01 3.217710e+01 2.580142e+01 1.710504e+01 3.931369e+01 7.881190e-01 1.212746e+00 8.490039e-01 1.181158e+00 1.299382e+00 1.796956e+00 1.902907e+00 1.877258e+00 2.059536e+00 2.192802e+00 1.820075e+00 1.560193e+00 9.922948e-01 1.591949e-01 1.998996e-01 1.665702e-01 2.406669e-01 2.621928e-01 3.509952e-01 3.819498e-01 3.769551e-01 4.277673e-01 4.006103e-01 3.441233e-01 3.200094e-01 1.933400e-01
<GCONST> 9.981986e+01
<TRANSP> 5
 0.000000e+00 1.000000e+00 0.000000e+00 0.000000e+00 0.000000e+00
 0.000000e+00 8.630610e-01 1.369390e-01 0.000000e+00 0.000000e+00
 0.000000e+00 0.000000e+00 8.179841e-01 1.820159e-01 0.000000e+00
 0.000000e+00 0.000000e+00 0.000000e+00 9.506074e-01 4.939261e-02
 0.000000e+00 0.000000e+00 0.000000e+00 0.000000e+00 0.000000e+00
<ENDHMM>
~h "p"
<BEGINHMM>
<NUMSTATES> 5
<STATE> 2
<MEAN> 39
 -1.095887e+01 6.913329e+00 4.997597e+00 -3.161212e-01 -6.378939e-01 1.954360e-01 2.997376e+00 -1.453881e+00 4.247127e-01 3.806598e+00 -3.748961e-01 2.006174e+00 5.787362e+01 -4.717827e-01 2.668685e-01 2.266507e-02 -6.155536e-01 -1.132516e-01 -3.402275e-01 -2.817682e-01 -3.626536e-01 -3.636463e-01 -3.573329e-01 -4.948722e-01 -3.031160e-01 1.449903e+00 8.376691e-02 4.633517e-02 1.011736e-01 -1.302609e-01 -2.163601e-01 -7.371508e-03 -2.433126e-01 -1.429863e-01 -1.838574e-01 -5.420320e-02 -1.612969e-01 -7.951190e-02 -3.016132e-02
<VARIANCE> 39
 5.891599e+01 1.217661e+01 2.371945e+01 3.214273e+01 1.961704e+01 2.048788e+01 1.805709e+01 1.834995e+01 1.618300e+01 1.627494e+01 2.040565e+01 1.529068e+01 2.623512e+02 3.130539e+00 1.458954e+00 3.968649e+00 2.161282e+00 3.467355e+00 2.045599e+00 3.071300e+00 2.752900e+00 2.570854e+00 2.211464e+00 3.248625e+00 1.805969e+00 1.621719e+01 5.481498e-01 2.533261e-01 9.303117e-01 4.543226e-01 8.654933e-01 4.358029e-01 5.841899e-01 5.673331e-01 4.815951e-01 3.870452e-01 7.606522e-01 4.055289e-01 2.830220e+00
<GCONST> 1.208997e+02
<STATE> 3
<MEAN> 39
 -1.306130e+01 1.247434e+01 8.338523e+00 -1.422336e+01 -1.055001e+01 -4.220951e+00 -1.180872e+01 -9.122522e+00 -1.377531e+01 -2.311927e+00 -1.354756e+01 -4.764286e+00 6.887850e+01 4.149006e-01 -9.504151e-02 1.831540e+00 -2.546638e+00 -3.040996e+00 8.699831e-01 -3.754393e+00 -7.690978e-01 -2.913674e+00 4.707700e-01 -2.677194e+00 -1.351964e+00 8.418665e-01 -6.308960e-01 -2.778520e-01 -3.494133e-01 2.334803e-01 7.531770e-01 2.248386e-01 7.037104e-01 5.694457e-01 6.868028e-01 4.317648e-01 6.309278e-01 1.775710e-01 2.051432e-01
<VARIANCE> 39
 3.030748e+00 6.657819e+00 1.282732e+01 2.214300e+01 3.270998e+01 2.048231e+01 3.715017e+01 9.704045e+00 2.057715e+01 1.738539e+01 1.698708e+01 6.818138e+00 1.780968e+01 1.877991e+00 7.443216e-01 1.081128e+00 8.551010e-01 4.178614e+00 1.492342e+00 3.425892e+00 1.957924e+00 2.586873e+00 1.683112e+00 2.519830e+00 4.731231e-01 3.182046e-01 9.235056e-02 1.614702e-01 2.607417e-01 3.872403e-01 7.871347e-01 2.424409e-01 7.012758e-01 2.414852e-01 5.007770e-01 4.443692e-01 3.128299e-01 1.140904e-01 1.899410e-01
<GCONST> 9.430177e+01
<STATE> 4
<MEAN> 39
 -1.601435e+01 1.134335e+01 1.002266e+01 -1.934076e+01 -1.266595e+01 -7.563052e-01 -1.711317e+01 -9.281675e+00 -1.787391e+01 3.080392e-02 -1.762533e+01 -8.168247e+00 7.237139e+01 -6.586114e-01 4.959910e-01 -1.006922e-01 -2.765374e-01 4.406497e-01 2.045442e-01 1.413181e-03 1.817124e-01 1.419377e-01 -3.861093e-01 -4.660360e-01 -7.600338e-01 5.630184e-02 2.257052e-01 2.565867e-01 -2.561378e-01 4.401348e-01 4.053774e-01 -2.537096e-01 8.327217e-01 7.717467e-02 6.412605e-01 -4.199156e-01 3.364686e-01 1.787720e-01 -3.045056e-01
<VARIANCE> 39
 5.060985e+00 4.911887e+00 2.544864e+00 2.012549e+01 9.448997e+00 9.618388e+00 1.394585e+01 2.862114e+00 4.412724e+00 5.993619e+00 6.308635e+00 5.458572e+00 1.933945e+01 6.492422e-01 2.974733e-01 1.876107e-01 3.160934e-01 5.033921e-01 4.149553e-01 5.863978e-01 4.669794e-01 6.541966e-01 8.336972e-01 5.209239e-01 4.124480e-01 1.942499e-01 1.006674e-01 8.581992e-02 8.425978e-02 1.056650e-01 2.562222e-01 2.151934e-01 2.509252e-01 1.163131e-01 8.880886e-02 1.224048e-01 1.589639e-01 6.975254e-02 2.495251e-02
<GCONST> 5.706682e+01
<TRANSP> 5
 0.000000e+00 1.000000e+00 0.000000e+00 0.000000e+00 0.000000e+00
 0.000000e+00 9.428580e-01 5.714191e-02 0.000000e+00 0.000000e+00
 0.000000e+00 0.000000e+00 7.219437e-01 2.780564e-01 0.000000e+00
 0.000000e+00 0.000000e+00 0.000000e+00 5.527142e-01 4.472857e-01
 0.000000e+00 0.000000e+00 0.000000e+00 0.000000e+00 0.000000e+00
<ENDHMM>
~h "r"
<BEGINHMM>
<NUMSTATES> 5
<STATE> 2
<MEAN> 39
 -5.100465e+00 -4.120897e+00 3.847493e+00 -4.628731e+00 -1.901316e+01 -1.638924e+01 -4.595627e+00 -7.374503e+00 -1.088028e+01 -8.441004e-01 -5.604905e+00 -6.241715e+00 6.965480e+01 -7.120067e-01 4.539465e-01 1.725817e+00 -1.843223e+00 -4.963943e-01 7.067127e-01 -3.338543e-01 -1.321232e+00 6.670763e-02 8.541502e-01 -8.937892e-01 -1.382998e-02 2.208052e-01 -5.920237e-02 1.929978e-01 -1.588819e-01 9.533336e-03 3.735819e-01 1.561642e-01 -3.691141e-01 6.877020e-02 2.125435e-01 -1.377209e-01 -1.224445e-01 1.364085e-01 -1.057189e-01
<VARIANCE> 39
 2.371120e+01 2.729736e+01 9.408690e+01 6.755016e+01 9.062610e+01 8.582780e+01 3.629084e+01 3.991776e+01 3.319392e+01 4.462939e+01 2.816252e+01 1.878137e+01 3.123874e+01 9.169698e-01 1.564375e+00 1.928711e+00 2.823848e+00 2.202761e+00 2.906786e+00 2.184889e+00 3.246017e+00 2.077881e+00 1.806726e+00 2.198694e+00 1.334795e+00 2.928230e-01 8.616088e-02 1.008031e-01 4.085584e-01 2.702155e-01 3.893757e-01 3.225314e-01 3.865825e-01 5.133786e-01 3.428062e-01 3.933465e-01 2.669019e-01 2.817015e-01 3.274754e-02
<GCONST> 1.085485e+02
<STATE> 3
<MEAN> 39
 -8.808810e+00 -4.614513e-01 1.353121e+01 -1.136018e+01 -1.988189e+01 -1.434382e+01 -5.556581e+00 -1.314024e+01 -1.007382e+01 2.693918e+00 -1.000607e+01 -4.838377e+00 6.911214e+01 3.469542e-02 3.489925e-01 -4.635774e-01 -2.889774e-01 7.585331e-01 1.638879e-01 -7.675561e-01 2.395994e-01 6.968085e-01 -2.696107e-01 -2.558032e-01 2.026403e-01 -1.947096e-01 9.939373e-02 -1.602622e-02 -2.744772e-01 2.478381e-01 7.384116e-02 -9.365064e-02 1.540530e-03 2.521772e-01 -9.736203e-02 -6.115614e-02 1.693964e-01 -1.116418e-02 -3.530311e-02
<VARIANCE> 39
 1.876478e+01 1.993495e+01 4.660523e+01 5.273302e+01 3.512239e+01 5.500218e+01 3.903297e+01 3.892398e+01 3.360837e+01 2.720918e+01 2.411679e+01 1.520951e+01 1.870448e+01 9.211974e-01 1.572782e+00 1.921294e+00 2.218210e+00 1.781548e+00 2.280819e+00 2.184237e+00 2.325646e+00 2.094870e+00 1.952990e+00 2.222697e+00 1.235717e+00 1.387399e-01 6.206066e-02 9.455483e-02 1.565831e-01 2.709000e-01 2.548886e-01 2.702968e-01 2.508618e-01 4.556479e-01 4.177427e-01 3.918819e-01 3.163407e-01 2.209866e-01 1.910341e-02
<GCONST> 9.967400e+01
<STATE> 4
<MEAN> 39
 -7.198251e+00 2.659424e+00 6.553161e+00 -1.182131e+01 -1.416166e+01 -1.188353e+01 -1.109159e+01 -9.826934e+00 -6.157562e+00 1.082254e+00 -9.895834e+00 -3.855399e+00 6.697821e+01 -9.644091e-02 8.378801e-01 -4.689815e-01 -2.228159e-01 8.585907e-01 4.406298e-01 -7.687751e-01 2.980930e-01 -3.305442e-01 1.852754e-01 1.212137e-01 1.314701e-01 -3.502911e-01 6.772374e-02 -1.581896e-01 3.254622e-02 3.814215e-02 -1.123456e-01 -8.787049e-02 2.681475e-01 9.030955e-02 -2.001491e-01 2.371184e-02 1.655004e-01 -9.957279e-02 1.878861e-02
<VARIANCE> 39
 4.207319e+01 3.005840e+01 9.149512e+01 9.062582e+01 6.669956e+01 6.080107e+01 3.827617e+01 2.868209e+01 3.945778e+01 3.254982e+01 4.114434e+01 1.924647e+01 4.497488e+01 2.730296e-01 4.488931e-01 8.465841e-01 7.755150e-01 7.494439e-01 9.310042e-01 1.021088e+00 1.242319e+00 1.264951e+00 1.244331e+00 1.389649e+00 9.906794e-01 1.726763e-01 4.864087e-02 6.089937e-02 7.770870e-02 1.748696e-01 1.406554e-01 1.687171e-01 1.527458e-01 1.813478e-01 2.077014e-01 1.875139e-01 2.151553e-01 1.345920e-01 1.842033e-02
<GCONST> 8.893583e+01
<TRANSP> 5
 0.000000e+00 1.000000e+00 0.000000e+00 0.000000e+00 0.000000e+00
 0.000000e+00 6.937684e-01 3.062316e-01 0.000000e+00 0.000000e+00
 0.000000e+00 0.000000e+00 8.479614e-01 1.520386e-01 0.000000e+00
 0.000000e+00 0.000000e+00 0.000000e+00 6.066704e-01 3.933296e-01
 0.000000e+00 0.000000e+00 0.000000e+00 0.000000e+00 0.000000e+00
<ENDHMM>
~h "s"
<BEGINHMM>
<NUMSTATES> 5
<STATE> 2
<MEAN> 39
 -8.862408e+00 3.812852e+00 2.002905e+00 3.972944e+00 -2.209657e+00 -1.201189e+00 4.684404e+00 7.383176e-01 -9.312686e-01 2.603797e+00 3.695681e+00 4.214750e+00 4.358362e+01 -3.896291e-01 -6.820342e-03 -2.886946e-01 9.391466e-02 -2.233779e-01 -1.325354e-02 3.172611e-01 4.187044e-02 -5.027213e-02 -1.901137e-03 6.307641e-03 -4.487988e-02 5.126866e-01 -1.413148e-01 3.121338e-02 -8.517820e-02 1.012059e-02 -9.573370e-03 8.880639e-03 -2.423148e-02 -6.791497e-03 8.773180e-04 -5.832930e-03 -2.738532e-02 -1.750883e-02 1.380036e-01
<VARIANCE> 39
 2.472485e+01 1.799386e+01 1.832299e+01 1.321426e+01 2.079142e+01 2.428302e+01 3.015211e+01 2.243785e+01 2.166057e+01 1.900615e+01 1.727703e+01 1.520818e+01 4.277924e+01 2.447210e+00 1.509985e+00 1.395186e+00 1.315538e+00 1.847741e+00 2.053332e+00 2.664124e+00 1.813671e+00 1.922404e+00 1.840293e+00 1.554077e+00 1.427783e+00 2.736773e+00 3.653002e-01 2.773414e-01 2.361375e-01 2.521970e-01 3.291343e-01 3.870559e-01 4.729310e-01 3.597227e-01 3.593355e-01 3.617367e-01 3.067495e-01 2.806210e-01 2.557559e-01
<GCONST> 1.044451e+02
<STATE> 3
<MEAN> 39
 -2.057511e+01 4.167082e+00 -7.544547e+00 6.613946e+00 -7.266028e+00 9.930856e-02 5.818629e+00 1.084434e+00 -3.050055e+00 2.741069e+00 1.673613e+00 2.580685e+00 5.895740e+01 -2.386495e-01 1.131235e-02 -1.656953e-01 4.596554e-02 1.970593e-03 9.045563e-02 -1.628992e-01 3.758568e-02 -9.138779e-02 5.643656e-02 -8.639451e-02 -6.342979e-02 3.856823e-01 3.085321e-01 -3.578710e-02 2.219960e-01 -1.293614e-01 -2.931466e-02 -1.201310e-01 -4.161242e-02 -6.319626e-02 -5.381868e-02 -4.191666e-02 -4.865298e-02 -4.165485e-02 -8.792152e-02
<VARIANCE> 39
 1.726076e+01 8.326869e+00 1.537415e+01 1.253819e+01 1.620935e+01 2.061193e+01 2.019463e+01 1.894131e+01 1.755870e+01 1.747116e+01 1.626661e+01 1.290432e+01 2.275458e+01 1.468623e+00 7.532594e-01 1.627518e+00 1.110847e+00 1.227801e+00 1.496156e+00 1.658392e+00 1.648082e+00 1.691364e+00 1.643946e+00 1.620818e+00 1.337402e+00 8.735187e-01 1.469223e-01 1.530550e-01 2.017620e-01 2.453511e-01 2.833249e-01 3.216916e-01 3.491590e-01 3.709149e-01 3.668873e-01 3.340580e-01 3.586017e-01 2.734236e-01 1.427612e-01
<GCONST> 9.422228e+01
<STATE> 4
<MEAN> 39
 -1.120422e+01 3.905911e+00 -6.728436e-01 7.956358e-01 -7.650864e+00 -3.516238e+00 2.491175e+00 -1.473642e+00 -4.773709e+00 1.300747e+00 -1.381677e+00 4.851351e-01 5.823886e+01 1.987508e+00 -3.510815e-01 1.256029e+00 -2.270236e+00 -1.532585e+00 -1.721086e+00 -1.095007e+00 -1.030108e+00 -9.941748e-01 -5.661566e-01 -1.376294e+00 -5.853798e-01 1.450445e+00 8.341271e-03 -2.775384e-01 1.233100e-02 -4.176953e-01 -2.611105e-01 -6.207812e-02 -2.185463e-01 -8.496055e-02 -8.886570e-02 -8.230558e-03 -1.733382e-01 4.791684e-02 2.246469e-01
<VARIANCE> 39
 4.952189e+01 2.520815e+01 3.223803e+01 6.786560e+01 7.043047e+01 5.553651e+01 4.408586e+01 4.067334e+01 4.299520e+01 3.201837e+01 3.677537e+01 2.083869e+01 1.197841e+02 5.070335e+00 3.063179e+00 3.359740e+00 5.553248e+00 4.679974e+00 6.303533e+00 3.728951e+00 3.731036e+00 3.649799e+00 3.033768e+00 2.974595e+00 1.693603e+00 3.741971e+00 7.110227e-01 5.844111e-01 5.105357e-01 8.368499e-01 9.233513e-01 1.032703e+00 7.551618e-01 6.424263e-01 6.270807e-01 5.006552e-01 5.182430e-01 3.353786e-01 5.924724e-01
<GCONST> 1.320116e+02
<TRANSP> 5
 0.000000e+00 1.000000e+00 0.000000e+00 0.000000e+00 0.000000e+00
 0.000000e+00 9.106031e-01 8.939686e-02 0.000000e+00 0.000000e+00
 0.000000e+00 0.000000e+00 9.052812e-01 9.471881e-02 0.000000e+00
 0.000000e+00 0.000000e+00 0.000000e+00 7.100903e-01 2.899097e-01
 0.000000e+00 0.000000e+00 0.000000e+00 0.000000e+00 0.000000e+00
<ENDHMM>
~h "t"
<BEGINHMM>
<NUMSTATES> 5
<STATE> 2
<MEAN> 39
 -8.425139e+00 4.683240e+00 3.209855e+00 1.831351e+00 -1.465884e+00 -6.707319e-01 3.024827e+00 9.904563e-03 -8.937629e-02 4.030799e+00 4.084375e+00 3.623564e+00 4.282119e+01 -1.263321e-01 -3.502147e-02 -1.107787e-01 1.118281e-01 9.659976e-02 3.635251e-02 1.496562e-01 9.181838e-02 -5.511125e-03 -7.121004e-03 1.678095e-02 -1.321868e-03 9.474260e-02 -8.913374e-02 -2.038544e-02 8.724768e-03 -6.111811e-02 -4.673751e-02 -5.399770e-03 1.218516e-02 -2.593634e-02 -3.924242e-02 -1.650184e-02 -4.956890e-02 -3.751388e-02 2.304928e-01
<VARIANCE> 39
 2.073236e+01 1.566309e+01 1.521745e+01 2.157083e+01 1.806569e+01 2.512672e+01 3.404627e+01 2.128017e+01 2.244667e+01 1.821813e+01 1.936456e+01 1.994429e+01 5.834570e+01 1.765400e+00 1.175401e+00 1.481368e+00 1.430986e+00 1.415847e+00 1.950849e+00 2.695767e+00 1.565339e+00 1.968662e+00 1.752288e+00 1.688743e+00 1.727528e+00 3.652866e+00 3.403950e-01 2.334801e-01 2.591675e-01 2.874932e-01 2.900617e-01 4.075055e-01 4.803657e-01 3.167498e-01 3.944900e-01 3.494628e-01 3.356633e-01 3.520339e-01 8.273887e-01
<GCONST> 1.060813e+02
<STATE> 3
<MEAN> 39
 -1.710449e+01 4.622033e+00 2.973150e+00 -2.292592e+00 -5.949725e+00 1.038997e+00 4.603627e+00 -1.367138e+00 -1.996959e+00 4.628667e+00 6.379724e-01 1.024002e+00 6.310416e+01 -1.204580e+00 6.368656e-02 1.742724e-01 4.255772e-02 -7.416164e-01 -2.541141e-01 9.762069e-01 -1.871547e-01 -7.186041e-01 2.564057e-02 -1.554289e-01 -5.056773e-01 2.700041e+00 4.065963e-01 6.307918e-02 1.511089e-01 1.637727e-01 -2.595172e-02 -1.944833e-01 -1.216866e-01 -5.414872e-02 -6.044447e-02 -1.094940e-01 4.258961e-02 2.149295e-02 -6.735536e-01
<VARIANCE> 39
 4.164022e+01 2.455910e+01 3.285323e+01 3.368673e+01 3.948408e+01 3.239542e+01 3.770963e+01 2.526576e+01 2.466739e+01 2.117233e+01 2.306275e+01 1.963262e+01 1.557530e+02 4.643948e+00 2.990514e+00 3.337335e+00 4.008532e+00 3.411596e+00 3.032692e+00 4.361940e+00 2.420867e+00 2.633111e+00 2.450979e+00 2.494615e+00 2.217287e+00 1.783999e+01 6.257976e-01 6.063532e-01 5.364836e-01 5.657258e-01 5.380761e-01 5.262601e-01 7.789196e-01 4.499441e-01 5.294770e-01 5.122348e-01 4.293738e-01 4.180712e-01 2.165374e+00
<GCONST> 1.267051e+02
<STATE> 4
<MEAN> 39
 -1.182157e+01 4.607277e+00 6.720450e+00 -1.209968e-01 -1.244613e+01 -7.450198e+00 3.831510e+00 -6.002906e+00 -8.332991e+00 -1.761369e-01 -1.481396e+00 -1.894923e+00 6.553429e+01 1.501223e+00 -3.913530e-01 2.364660e-01 -9.085873e-01 -9.198598e-01 -1.670692e+00 -1.535832e+00 -1.034118e+00 -1.013831e+00 -7.156518e-01 -5.401100e-01 -6.047828e-01 -2.580718e-01 -6.441726e-02 -9.362548e-02 -1.147195e-01 -2.494396e-01 7.972532e-02 2.172876e-01 -1.765399e-01 5.946883e-02 1.381324e-01 1.664334e-01 -2.456602e-02 8.341676e-02 6.359890e-02
<VARIANCE> 39
 4.999689e+01 2.701233e+01 3.583165e+01 8.270724e+01 6.914132e+01 5.637821e+01 8.128361e+01 4.991285e+01 4.159470e+01 3.116284e+01 3.597747e+01 2.680084e+01 1.114325e+02 2.676903e+00 2.032774e+00 1.959942e+00 4.884678e+00 3.024410e+00 4.571344e+00 5.695361e+00 3.445241e+00 3.466719e+00 2.749346e+00 2.485668e+00 2.107996e+00 2.833412e+00 5.552184e-01 3.676548e-01 2.800701e-01 8.455191e-01 5.995449e-01 6.740974e-01 1.107165e+00 7.045414e-01 5.938669e-01 4.684893e-01 4.262422e-01 4.000193e-01 3.151929e-01
<GCONST> 1.283298e+02
<TRANSP> 5
 0.000000e+00 1.000000e+00 0.000000e+00 0.000000e+00 0.000000e+00
 0.000000e+00 9.435247e-01 5.647530e-02 0.000000e+00 0.000000e+00
 0.000000e+00 0.000000e+00 8.615934e-01 1.384066e-01 0.000000e+00
 0.000000e+00 0.000000e+00 0.000000e+00 8.125994e-01 1.874007e-01
 0.000000e+00 0.000000e+00 0.000000e+00 0.000000e+00 0.000000e+00
<ENDHMM>
~h "v"
<BEGINHMM>
<NUMSTATES> 5
<STATE> 2
<MEAN> 39
 -5.948702e+00 1.486874e+00 4.269803e+00 -1.089171e+01 -1.360116e+01 -9.509951e+00 -4.123563e+00 -1.100065e+01 -7.806591e+00 -2.015001e+00 -1.138754e+01 -3.343840e+00 6.528927e+01 2.551535e-01 6.254469e-01 -2.723356e-01 1.670722e+00 8.010038e-01 7.229750e-02 -4.439144e-01 2.816084e-01 -1.135683e-01 7.064663e-02 4.770831e-01 7.748253e-02 -1.231822e+00 -1.393545e-01 6.348097e-02 -2.614576e-01 1.339298e-01 2.484817e-01 2.741044e-01 3.981876e-02 3.158249e-01 8.092688e-02 -1.919849e-01 1.385372e-01 -6.611295e-03 -8.153529e-02
<VARIANCE> 39
 2.194121e+01 3.524803e+01 5.962832e+01 5.777818e+01 6.087287e+01 3.738216e+01 3.283322e+01 5.053045e+01 4.393908e+01 4.452694e+01 3.613507e+01 2.218959e+01 4.401500e+01 8.862758e-01 1.393209e+00 1.811775e+00 5.343776e+00 2.035480e+00 2.469721e+00 2.298131e+00 3.520763e+00 2.046866e+00 2.951040e+00 2.336540e+00 1.525282e+00 1.559563e+00 1.492638e-01 1.696159e-01 2.116267e-01 4.627440e-01 3.672116e-01 4.517732e-01 3.864331e-01 4.350262e-01 5.204116e-01 3.832674e-01 4.048162e-01 3.102109e-01 1.351139e-01
<GCONST> 1.140996e+02
<STATE> 3
<MEAN> 39
 -6.002005e+00 3.989139e+00 -1.050671e+00 -1.599305e+00 -7.850919e+00 -6.159203e+00 -6.052952e+00 -7.388578e+00 -5.600857e+00 -3.114798e+00 -9.022867e+00 -3.726552e+00 6.022715e+01 -4.911886e-01 1.023009e-01 -2.512534e-01 -4.284034e-02 4.854973e-01 3.861197e-01 2.653071e-02 6.719011e-01 5.551288e-01 3.479069e-01 1.892984e-01 4.509776e-01 -2.029947e-01 3.956033e-02 -3.137798e-01 1.055112e-01 -5.456880e-01 -2.386745e-01 -2.090681e-01 2.673740e-01 1.157991e-01 8.619423e-02 3.923619e-02 -5.288850e-02 1.678010e-01 2.604106e-01
<VARIANCE> 39
 1.542525e+01 1.634958e+01 3.594653e+01 3.282740e+01 3.093322e+01 2.518290e+01 2.584799e+01 2.163927e+01 2.361314e+01 2.218444e+01 2.350826e+01 2.056177e+01 5.200982e+01 1.141334e+00 1.785032e+00 1.890444e+00 4.110040e+00 2.433263e+00 3.223526e+00 2.175275e+00 2.804170e+00 2.299682e+00 2.525114e+00 2.195802e+00 1.790166e+00 2.785640e+00 2.134050e-01 2.129800e-01 2.678907e-01 4.875556e-01 3.104735e-01 4.403889e-01 3.883396e-01 4.925911e-01 3.674006e-01 5.864635e-01 3.705964e-01 2.743414e-01 1.872583e-01
<GCONST> 1.101745e+02
<STATE> 4
<MEAN> 39
 -7.100074e+00 3.399769e+00 8.406270e-01 2.343790e+00 -2.443652e+00 -1.218400e+00 -4.698082e-02 -2.132761e+00 -2.816655e-01 2.608253e+00 4.591266e-01 2.393706e+00 4.677761e+01 2.557675e-02 -2.431813e-02 9.684752e-02 -1.122173e-01 7.693797e-02 -1.872763e-02 2.123519e-03 1.429001e-01 5.191850e-02 -3.032842e-02 9.040286e-02 7.048885e-02 -2.435654e-02 6.187397e-03 2.440049e-02 2.345785e-02 -1.334590e-02 -3.782517e-02 -3.022105e-02 -2.050375e-02 -2.831763e-02 -6.871226e-02 -6.606196e-02 -4.205383e-02 -4.372549e-02 3.376715e-02
<VARIANCE> 39
 1.989982e+01 2.315223e+01 2.407743e+01 3.425639e+01 3.298234e+01 2.947520e+01 2.506995e+01 3.183384e+01 2.510130e+01 2.543553e+01 2.900077e+01 1.874410e+01 7.777975e+01 1.790531e+00 1.472999e+00 1.585419e+00 2.520938e+00 1.960739e+00 2.175843e+00 2.266617e+00 2.345795e+00 2.001001e+00 2.306028e+00 1.978064e+00 1.597224e+00 2.351826e+00 3.378912e-01 2.588385e-01 2.941336e-01 4.319916e-01 3.377174e-01 4.166838e-01 4.221683e-01 4.273424e-01 3.931429e-01 4.365078e-01 3.637831e-01 3.162210e-01 3.447518e-01
<GCONST> 1.110466e+02
<TRANSP> 5
 0.000000e+00 1.000000e+00 0.000000e+00 0.000000e+00 0.000000e+00
 0.000000e+00 7.563717e-01 2.436282e-01 0.000000e+00 0.000000e+00
 0.000000e+00 0.000000e+00 7.895542e-01 2.104458e-01 0.000000e+00
 0.000000e+00 0.000000e+00 0.000000e+00 9.375391e-01 6.246086e-02
 0.000000e+00 0.000000e+00 0.000000e+00 0.000000e+00 0.000000e+00
<ENDHMM>
~h "w"
<BEGINHMM>
<NUMSTATES> 5
<STATE> 2
<MEAN> 39
 -5.741261e-01 9.283337e+00 -2.406235e-01 -2.611115e+00 -4.645969e+00 -3.586831e+00 -2.403866e+00 -4.364532e+00 -2.955841e+00 -8.539742e-01 -4.281537e+00 -1.668947e-01 4.563443e+01 1.163925e+00 4.455717e-01 -4.748133e-01 -1.647793e+00 -9.235563e-01 -1.170353e+00 -6.259384e-01 -3.106165e-01 -6.384692e-01 -3.606999e-01 -1.086348e+00 -5.118120e-01 1.343864e+00 -1.211066e-01 -8.443160e-02 -1.239387e-01 -1.463484e-01 -3.847494e-02 3.707420e-02 1.034971e-01 1.968240e-01 1.688334e-02 4.885067e-02 1.356110e-01 4.753958e-02 2.211528e-01
<VARIANCE> 39
 6.045554e+01 2.081076e+01 1.925233e+01 8.308476e+01 3.626094e+01 4.419648e+01 3.111686e+01 3.052342e+01 2.976222e+01 3.000108e+01 5.672636e+01 2.699902e+01 3.808888e+01 3.350929e+00 1.614408e+00 1.950635e+00 5.321603e+00 3.542729e+00 3.545198e+00 2.839562e+00 3.334681e+00 2.513113e+00 3.133807e+00 4.234152e+00 2.752747e+00 2.825028e+00 6.611916e-01 3.439692e-01 3.503835e-01 9.808884e-01 6.744075e-01 5.518914e-01 4.825807e-01 5.902445e-01 4.728753e-01 6.208013e-01 7.595739e-01 5.087577e-01 3.231323e-01
<GCONST> 1.244616e+02
<STATE> 3
<MEAN> 39
 1.604932e+00 2.293634e+00 -1.013144e+01 -1.879250e+01 -1.084645e+01 -5.483390e+00 -3.197206e+00 -4.113719e+00 -7.789706e+00 -5.803871e+00 -7.869465e+00 -5.847857e+00 6.904774e+01 -7.023364e-01 -1.589547e+00 -8.972955e-01 -3.098068e-01 6.262469e-01 1.075999e+00 2.248746e-01 -3.058648e-01 1.673635e-01 -4.524853e-01 -3.795927e-02 -5.100219e-01 1.653280e+00 1.017714e-02 -4.668400e-02 1.018912e-01 2.519819e-01 2.228656e-01 3.491470e-02 -3.259966e-02 -6.481763e-02 6.157662e-02 -6.804349e-02 -1.176452e-01 7.750015e-02 -2.424387e-01
<VARIANCE> 39
 1.630236e+01 8.232265e+01 2.609932e+01 3.100996e+01 3.058951e+01 6.131363e+01 2.568383e+01 2.418066e+01 1.641077e+01 1.982225e+01 2.028210e+01 2.586659e+01 7.899202e+01 5.236271e-01 2.964909e+00 1.098584e+00 2.867644e+00 3.580161e+00 2.986249e+00 2.319783e+00 2.656044e+00 1.875727e+00 2.300092e+00 2.844466e+00 2.185561e+00 1.866504e+00 1.263235e-01 5.378500e-01 1.890420e-01 4.509279e-01 5.313622e-01 6.539117e-01 4.493941e-01 4.972332e-01 3.886133e-01 5.027893e-01 5.105542e-01 5.093312e-01 1.511714e-01
<GCONST> 1.130727e+02
<STATE> 4
<MEAN> 39
 -2.557003e+00 -4.974176e+00 -5.191208e+00 -9.766510e+00 -1.204003e+00 -8.752138e+00 -4.577881e+00 -3.048175e+00 -1.401191e+01 -1.596308e+01 -1.602196e+01 -3.412759e+00 6.913879e+01 1.373621e-02 4.129834e-01 6.920674e-01 5.429125e-01 8.329034e-02 -6.331300e-01 -8.884723e-02 1.229711e-01 -5.357966e-01 -2.888998e-01 -1.794425e-01 2.873566e-01 -6.045287e-01 2.241522e-02 5.699527e-02 1.456910e-02 5.526608e-04 -6.271454e-02 1.291942e-02 1.193678e-02 -3.088947e-02 4.042772e-03 5.645128e-02 7.398404e-02 -2.833792e-02 -5.216890e-02
<VARIANCE> 39
 4.569327e+00 4.965208e+01 5.917896e+01 2.373768e+01 2.088919e+01 6.352337e+01 2.434117e+01 3.053888e+01 4.732540e+01 2.298238e+01 1.721814e+01 2.262163e+01 3.983404e+01 2.537827e-01 9.174039e-01 6.212973e-01 9.405937e-01 1.325239e+00 1.447579e+00 1.296309e+00 1.601614e+00 1.215632e+00 1.604706e+00 1.154949e+00 1.288326e+00 3.016169e-01 4.192555e-02 9.574459e-02 9.967381e-02 1.559374e-01 2.105985e-01 2.196461e-01 2.341778e-01 2.396396e-01 2.253070e-01 2.344631e-01 2.033244e-01 2.032037e-01 3.859778e-02
<GCONST> 8.902905e+01
<TRANSP> 5
 0.000000e+00 1.000000e+00 0.000000e+00 0.000000e+00 0.000000e+00
 0.000000e+00 8.953171e-01 1.046828e-01 0.000000e+00 0.000000e+00
 0.000000e+00 0.000000e+00 9.114913e-01 8.850863e-02 0.000000e+00
 0.000000e+00 0.000000e+00 0.000000e+00 9.541016e-01 4.589840e-02
 0.000000e+00 0.000000e+00 0.000000e+00 0.000000e+00 0.000000e+00
<ENDHMM>
~h "y"
<BEGINHMM>
<NUMSTATES> 5
<STATE> 2
<MEAN> 39
 -1.289435e+01 7.177060e+00 1.510812e+01 -1.257286e+01 -1.623758e+01 -1.504883e+00 -6.673694e+00 -1.462802e+01 -9.269624e+00 -9.378672e-01 -1.452438e+01 -4.929513e+00 6.856719e+01 8.349131e-02 -1.324243e-01 3.097698e-01 8.262888e-03 -7.454205e-01 -2.917386e-01 -9.139890e-02 -5.161746e-01 -7.152546e-01 1.081236e-01 -4.310215e-01 -4.850685e-01 4.956741e-01 3.032496e-02 -6.922224e-02 -1.297367e-01 1.827477e-01 5.011420e-02 -8.971821e-02 1.661151e-01 1.397349e-01 3.823703e-03 2.596595e-02 2.076897e-01 6.891413e-02 -6.556808e-02
<VARIANCE> 39
 1.268711e+01 1.330223e+01 1.847787e+01 2.348993e+01 5.150904e+01 2.033455e+01 2.809194e+01 3.083868e+01 2.933291e+01 2.965012e+01 3.721329e+01 2.961899e+01 3.591150e+01 9.619876e-01 8.074515e-01 1.064520e+00 2.036398e+00 2.064595e+00 1.221391e+00 2.182971e+00 1.467850e+00 1.795987e+00 1.714178e+00 2.116803e+00 1.097671e+00 1.747135e+00 1.488632e-01 1.322990e-01 1.395733e-01 1.991807e-01 3.093173e-01 1.984725e-01 2.682351e-01 2.256053e-01 2.829744e-01 2.860420e-01 2.520603e-01 1.819532e-01 1.327662e-01
<GCONST> 9.836681e+01
<STATE> 3
<MEAN> 39
 -8.344584e+00 4.181314e+00 8.758572e+00 -2.609061e+00 -1.649491e+01 -1.503658e+01 -6.129900e+00 -1.178633e+01 -1.238763e+01 4.634835e-01 -1.082541e+01 -1.185701e+00 6.921619e+01 5.951970e-01 9.950370e-02 -1.198008e+00 3.689879e-01 1.193448e+00 -6.200703e-01 -6.264123e-01 4.354764e-01 8.670709e-01 -5.736119e-02 2.079815e-01 4.533638e-01 -3.204590e-01 3.895491e-02 5.221260e-02 -5.170498e-02 -1.238394e-01 1.369934e-01 1.784630e-01 -5.151833e-02 -1.627286e-01 9.915578e-02 6.019898e-02 -8.428751e-03 -5.036999e-02 -4.751015e-02
<VARIANCE> 39
 1.244393e+01 7.925293e+00 5.083799e+01 2.554711e+01 4.871736e+01 3.562799e+01 4.636985e+01 4.022439e+01 4.775092e+01 2.480487e+01 1.953454e+01 3.614336e+01 1.369450e+01 1.975581e-01 2.263868e-01 5.553982e-01 9.904884e-01 1.254927e+00 1.964014e+00 1.485203e+00 2.678692e+00 2.688653e+00 1.889982e+00 1.796826e+00 1.985412e+00 1.145675e-01 2.258867e-02 2.430474e-02 5.674679e-02 7.681265e-02 1.136666e-01 1.540818e-01 2.158500e-01 2.680639e-01 3.944968e-01 2.696249e-01 2.945286e-01 3.091472e-01 1.063446e-02
<GCONST> 8.497238e+01
<STATE> 4
<MEAN> 39
 1.284722e+00 9.808304e+00 -4.954904e+00 -7.208630e+00 -1.114470e-01 -8.078497e+00 -3.952491e+00 -1.975018e+01 -5.497312e+00 4.276538e-01 -3.590267e+00 1.400938e+00 5.915488e+01 5.020018e-01 3.447391e-01 6.621431e-02 -8.130325e-02 2.197268e-01 8.287415e-01 9.707970e-01 -1.484213e-01 -3.794402e-01 -5.009674e-01 4.119067e-01 1.999737e-01 -1.110816e+00 -7.843645e-02 -5.262958e-02 1.545404e-01 1.313597e-01 -1.287433e-01 -5.475555e-02 -4.101666e-02 1.974876e-01 -2.123065e-02 -1.072171e-01 -1.334655e-01 4.897894e-03 -3.562510e-02
<VARIANCE> 39
 1.067527e+01 1.384262e+01 1.904398e+01 3.568897e+01 1.993981e+01 3.750352e+01 6.657808e+01 3.935256e+01 2.334892e+01 3.376963e+01 2.361958e+01 1.845802e+01 3.805218e+01 3.946012e-01 4.875792e-01 1.120525e+00 1.625005e+00 1.840649e+00 1.295028e+00 1.858543e+00 2.934219e+00 1.431685e+00 1.572122e+00 1.965745e+00 1.232763e+00 3.684320e-01 6.318376e-02 7.024127e-02 1.021438e-01 1.683091e-01 2.948494e-01 2.183160e-01 3.038470e-01 3.749249e-01 2.574921e-01 2.567101e-01 2.469002e-01 2.288953e-01 5.400584e-02
<GCONST> 9.337842e+01
<TRANSP> 5
 0.000000e+00 1.000000e+00 0.000000e+00 0.000000e+00 0.000000e+00
 0.000000e+00 9.321352e-01 6.786478e-02 0.000000e+00 0.000000e+00
 0.000000e+00 0.000000e+00 9.286378e-01 7.136220e-02 0.000000e+00
 0.000000e+00 0.000000e+00 0.000000e+00 8.992717e-01 1.007283e-01
 0.000000e+00 0.000000e+00 0.000000e+00 0.000000e+00 0.000000e+00
<ENDHMM>
~h "z"
<BEGINHMM>
<NUMSTATES> 5
<STATE> 2
<MEAN> 39
 -3.470947e+00 7.937473e+00 4.037873e+00 2.104236e+00 -5.210667e+00 -1.072327e+01 6.593549e-02 -1.503606e+00 -7.477636e+00 -1.927196e+00 -4.995264e+00 3.238775e+00 4.603075e+01 4.115168e-01 -1.724929e-02 -7.917950e-02 -1.588424e-01 -7.930481e-01 -1.307880e+00 1.514996e-01 7.780412e-02 -1.094262e+00 -9.063944e-01 -1.510828e+00 -2.222808e-01 1.539632e+00 -1.925105e-01 -6.498403e-03 -1.580351e-01 1.038747e-01 2.780440e-02 2.371091e-01 7.354852e-02 7.519469e-02 2.200594e-01 6.870245e-02 1.637942e-01 2.406691e-02 6.720407e-02
<VARIANCE> 39
 2.170374e+01 1.215829e+01 1.285649e+01 1.988946e+01 3.559668e+01 7.847972e+01 3.308599e+01 2.932402e+01 5.574397e+01 4.263242e+01 8.346638e+01 3.257994e+01 4.224736e+01 2.366826e+00 1.168244e+00 1.437983e+00 1.589089e+00 3.398821e+00 5.509971e+00 3.040012e+00 2.693000e+00 3.744659e+00 2.864971e+00 4.705417e+00 2.125432e+00 1.978074e+00 4.495996e-01 2.427101e-01 2.292016e-01 3.681244e-01 6.517469e-01 9.853529e-01 6.202447e-01 5.032297e-01 6.978973e-01 5.298837e-01 8.895811e-01 4.196999e-01 3.192724e-01
<GCONST> 1.198514e+02
<STATE> 3
<MEAN> 39
 -9.086900e+00 9.737685e+00 -1.048766e+00 7.567222e+00 -1.150103e+01 -1.081874e+01 3.060443e-01 -1.314561e+00 -9.388292e+00 -5.076150e+00 -7.553458e+00 8.279204e-01 5.946992e+01 -1.183130e+00 7.038885e-02 -1.642915e-01 6.705384e-01 -4.175990e-01 6.872423e-01 -1.298733e-01 -4.360086e-01 1.385497e-01 4.075378e-01 7.815897e-01 -4.112647e-01 9.373074e-01 1.392166e-01 -1.665970e-01 2.821098e-01 -2.477196e-01 -2.670148e-02 -1.053221e-01 1.630731e-02 -1.367896e-01 -1.806203e-01 1.436335e-01 -1.106736e-01 -6.536564e-02 -1.842506e-02
<VARIANCE> 39
 2.341980e+01 8.805578e+00 1.095982e+01 1.897587e+01 1.582669e+01 2.462024e+01 1.426109e+01 1.478059e+01 1.869364e+01 1.326741e+01 2.722751e+01 1.447495e+01 1.088446e+01 1.011160e+00 1.242176e+00 1.697843e+00 2.125809e+00 1.755419e+00 1.713223e+00 1.411565e+00 1.326766e+00 2.099269e+00 1.017904e+00 2.129825e+00 1.173944e+00 4.065017e-01 1.799885e-01 1.919334e-01 1.767528e-01 2.848040e-01 3.456357e-01 2.991101e-01 2.988344e-01 2.439477e-01 3.026532e-01 1.890316e-01 4.251321e-01 1.989737e-01 9.267217e-02
<GCONST> 9.260072e+01
<STATE> 4
<MEAN> 39
 -1.125711e+01 5.496710e+00 6.094073e+00 -1.712253e+00 -1.703948e+01 -8.056281e+00 -4.665475e-01 -9.339630e+00 -1.217473e+01 7.095476e-01 -9.697702e+00 -3.607208e+00 6.842516e+01 -1.018076e-01 -4.531942e-01 1.321076e+00 -2.215851e+00 -1.235414e+00 1.215803e-01 -9.911938e-01 -1.403055e+00 -1.624826e-01 7.148542e-01 -1.268873e+00 -5.928113e-01 1.057208e+00 6.901954e-02 2.050536e-01 -1.426798e-01 -1.567770e-01 6.255025e-02 8.967540e-02 -2.432346e-01 2.021062e-01 3.270592e-01 -2.709458e-01 1.654645e-02 1.302841e-01 -1.944521e-01
<VARIANCE> 39
 2.131480e+01 1.270657e+01 4.605302e+01 1.137424e+02 4.668078e+01 3.837220e+01 2.209152e+01 3.733231e+01 3.713776e+01 1.530825e+01 2.910361e+01 1.307669e+01 4.263609e+01 8.350992e-01 1.250596e+00 2.192885e+00 3.071961e+00 1.457968e+00 2.704562e+00 2.015826e+00 2.924407e+00 2.701231e+00 1.625178e+00 2.308290e+00 1.274076e+00 5.038945e-01 2.480306e-01 1.347758e-01 3.445535e-01 3.371873e-01 6.106195e-01 5.680603e-01 3.402460e-01 6.317583e-01 5.726079e-01 2.860264e-01 3.165782e-01 2.711719e-01 7.950155e-02
<GCONST> 1.081118e+02
<TRANSP> 5
 0.000000e+00 1.000000e+00 0.000000e+00 0.000000e+00 0.000000e+00
 0.000000e+00 8.947354e-01 1.052646e-01 0.000000e+00 0.000000e+00
 0.000000e+00 0.000000e+00 8.848054e-01 1.151946e-01 0.000000e+00
 0.000000e+00 0.000000e+00 0.000000e+00 5.924961e-01 4.075039e-01
 0.000000e+00 0.000000e+00 0.000000e+00 0.000000e+00 0.000000e+00
<ENDHMM>
~h "aa"
<BEGINHMM>
<NUMSTATES> 5
<STATE> 2
<MEAN> 39
 -5.159629e+00 -5.784734e+00 -3.242670e+00 -4.620990e+00 -5.928735e-01 5.065881e+00 -1.224075e-01 -5.887514e+00 -5.215653e+00 2.277858e+00 -1.167318e+00 2.910185e-01 5.408951e+01 3.596165e-01 -1.893719e+00 -1.609081e+00 -1.228793e+00 -1.304000e-01 6.715230e-01 -3.449001e-01 -1.347209e+00 -1.157599e+00 -6.535726e-01 -7.388440e-01 -8.675541e-01 3.113982e+00 -5.023315e-02 1.567163e-01 4.454810e-02 7.284741e-02 -1.220475e-01 -1.011054e-01 -7.716265e-02 4.517435e-02 1.094116e-02 -1.242391e-01 -7.495318e-02 -8.318822e-02 9.250939e-04
<VARIANCE> 39
 1.396951e+01 1.051163e+02 7.245934e+01 4.975426e+01 2.580466e+01 4.924516e+01 3.471557e+01 6.036710e+01 5.043278e+01 3.386862e+01 2.785799e+01 2.782697e+01 1.756652e+02 1.445460e+00 8.781880e+00 4.423951e+00 4.556552e+00 2.230123e+00 4.020575e+00 2.840025e+00 4.166913e+00 3.200471e+00 3.420998e+00 2.892874e+00 2.811617e+00 1.408126e+01 2.671943e-01 1.638426e+00 9.270884e-01 8.304713e-01 3.428738e-01 7.796331e-01 4.207086e-01 7.538832e-01 5.132008e-01 5.354825e-01 5.118517e-01 4.650075e-01 2.812617e+00
<GCONST> 1.333142e+02
<STATE> 3
<MEAN> 39
 -1.952780e+00 -1.364838e+01 -1.655881e+01 -7.172212e+00 -2.249710e+00 6.141437e+00 -1.236294e+00 -1.215782e+01 -1.241822e+01 -6.650177e+00 -5.810034e+00 -7.401826e+00 7.438977e+01 1.501257e-01 8.378235e-02 -2.136513e-01 3.225788e-01 3.996194e-02 -3.480865e-01 1.078951e-01 4.854442e-01 4.453588e-02 -1.693004e-01 2.339740e-01 -2.923387e-02 -6.948218e-02 2.579143e-02 9.010974e-04 -1.839047e-03 1.542322e-02 5.313046e-02 -6.947722e-04 -3.187497e-03 9.632095e-02 4.059251e-02 2.524978e-02 6.571023e-02 4.930256e-02 -7.325312e-02
<VARIANCE> 39
 5.941494e+00 8.553308e+00 1.134461e+01 1.625050e+01 2.249068e+01 2.327482e+01 2.769362e+01 2.543091e+01 2.277397e+01 2.808639e+01 2.383475e+01 1.388265e+01 1.595168e+01 1.222071e-01 2.410493e-01 3.198084e-01 4.766190e-01 6.159112e-01 5.715779e-01 8.489178e-01 1.143247e+00 8.259774e-01 8.946750e-01 9.298406e-01 5.989187e-01 1.452474e-01 2.316120e-02 4.104635e-02 5.242743e-02 8.608533e-02 9.732076e-02 8.941648e-02 1.349959e-01 1.589955e-01 1.255955e-01 1.398201e-01 1.369838e-01 1.133299e-01 5.501035e-02
<GCONST> 6.732296e+01
<STATE> 4
<MEAN> 39
 1.137848e+00 -4.006561e+00 -1.277205e+01 8.908615e-01 3.630377e+00 -7.033421e-01 -3.744526e+00 3.050609e+00 -4.012128e+00 -6.632802e+00 -1.901630e+00 -2.684251e+00 5.451418e+01 -6.857195e-02 3.509979e-01 3.901962e-01 1.495950e-01 1.216792e-01 3.313313e-02 -2.449032e-03 6.962051e-02 2.318763e-01 1.603353e-01 -1.602948e-02 1.795207e-01 -7.180005e-01 -3.115208e-02 6.402853e-03 2.846684e-02 -2.114733e-02 -2.162979e-02 2.629159e-02 1.984753e-02 -5.532610e-02 9.695520e-04 3.288394e-02 -8.941251e-03 7.981669e-03 2.732212e-04
<VARIANCE> 39
 2.614096e+01 4.420693e+01 8.822850e+01 2.665494e+01 1.519386e+01 2.747749e+01 4.205382e+01 3.141439e+01 3.716644e+01 5.392913e+01 3.685294e+01 3.708318e+01 1.554289e+02 5.673395e-01 4.284275e-01 7.890570e-01 8.330685e-01 7.589233e-01 1.176455e+00 1.740353e+00 2.122649e+00 1.322596e+00 1.589719e+00 1.490331e+00 1.404273e+00 4.065652e-01 6.804836e-02 6.814472e-02 9.544843e-02 1.305859e-01 1.150527e-01 1.852407e-01 2.616402e-01 3.107374e-01 2.301946e-01 2.402323e-01 2.547518e-01 2.379763e-01 3.583181e-02
<GCONST> 9.437986e+01
<TRANSP> 5
 0.000000e+00 1.000000e+00 0.000000e+00 0.000000e+00 0.000000e+00
 0.000000e+00 9.078098e-01 9.219021e-02 0.000000e+00 0.000000e+00
 0.000000e+00 0.000000e+00 9.566728e-01 4.332719e-02 0.000000e+00
 0.000000e+00 0.000000e+00 0.000000e+00 9.726844e-01 2.731561e-02
 0.000000e+00 0.000000e+00 0.000000e+00 0.000000e+00 0.000000e+00
<ENDHMM>
~h "ae"
<BEGINHMM>
<NUMSTATES> 5
<STATE> 2
<MEAN> 39
 -1.417752e+01 1.000082e+01 1.330612e+01 -1.848297e+01 -1.697576e+01 -1.911193e+00 -1.217878e+01 -1.158139e+01 -1.030308e+01 -1.432265e+00 -1.634597e+01 -5.187926e+00 7.119952e+01 -2.274521e-01 6.521473e-01 -5.304516e-02 -1.051142e+00 1.078219e+00 2.606325e-01 -5.164885e-01 7.332887e-01 3.694217e-01 -6.179537e-01 -7.721473e-02 -6.004716e-02 -2.838406e-01 5.783768e-02 -3.048918e-02 -6.512129e-02 2.155573e-01 6.887706e-02 -1.935243e-01 2.222203e-01 5.475429e-02 -8.487061e-02 7.062931e-02 1.071975e-01 2.491435e-02 -5.252627e-02
<VARIANCE> 39
 2.819599e+00 7.850945e+00 1.599837e+01 4.642521e+01 2.706618e+01 1.560672e+01 1.842156e+01 1.773920e+01 8.021025e+00 1.703942e+01 9.848573e+00 1.498655e+01 6.938723e+00 8.322801e-02 1.193833e-01 3.274526e-01 1.235953e+00 6.302220e-01 1.426781e+00 1.539013e+00 1.029645e+00 1.051053e+00 7.998859e-01 7.308913e-01 6.872826e-01 5.481419e-02 9.313594e-03 1.728009e-02 5.795011e-02 9.219948e-02 1.502281e-01 1.356193e-01 1.517167e-01 2.643829e-01 1.903636e-01 1.310768e-01 1.793702e-01 1.100930e-01 1.272360e-02
<GCONST> 6.308550e+01
<STATE> 3
<MEAN> 39
 -1.246964e+01 1.546735e+01 1.314393e+01 -2.139275e+01 -6.838147e+00 -3.701196e+00 -1.040992e+01 -8.376143e+00 -7.873469e+00 -7.725787e-01 -1.438237e+01 -3.042315e+00 6.451537e+01 3.698257e-01 8.255484e-02 1.611640e-01 2.947884e-01 2.840591e-01 6.123072e-02 4.586061e-02 -2.165762e-02 2.103326e-01 3.300700e-01 2.871158e-01 2.716930e-01 -6.166668e-01 4.580285e-02 -9.159511e-02 2.632852e-02 9.026475e-02 -1.250705e-01 8.783995e-02 -1.030316e-02 -4.795956e-02 -2.333878e-03 8.847742e-03 1.263002e-02 3.446232e-03 -2.417121e-02
<VARIANCE> 39
 6.158587e+00 4.625515e+00 8.403625e+00 2.083511e+01 1.157753e+01 8.179143e+00 1.043317e+01 6.595470e+00 8.909112e+00 1.189609e+01 1.151877e+01 1.547369e+01 1.435486e+01 2.091020e-01 3.164617e-01 2.244336e-01 4.695117e-01 6.094846e-01 5.984309e-01 6.770235e-01 5.151316e-01 5.088826e-01 4.403500e-01 4.715697e-01 4.614756e-01 1.295836e-01 3.556462e-02 4.110354e-02 4.104827e-02 8.275670e-02 8.573112e-02 1.267065e-01 1.279097e-01 1.017060e-01 9.050698e-02 7.754903e-02 8.203702e-02 7.098230e-02 2.254964e-02
<GCONST> 5.441805e+01
<STATE> 4
<MEAN> 39
 -5.176460e+00 1.216402e+01 1.353727e+01 -1.148162e+01 -7.383905e+00 -9.079483e-01 -9.370688e+00 -7.626272e+00 -4.586012e+00 -7.444744e-01 -1.013392e+01 -2.224582e+00 5.250646e+01 5.220925e-01 -6.150001e-01 -6.847190e-01 1.674299e+00 4.417521e-01 5.652523e-02 6.168535e-01 5.667054e-01 5.933665e-01 -4.426064e-01 9.419421e-01 -3.591104e-02 -1.854260e+00 -2.551644e-01 -5.614022e-02 -2.472659e-01 -1.641827e-03 2.937530e-01 -1.489170e-01 1.522006e-01 1.250573e-01 9.058013e-02 6.680561e-02 2.249868e-01 1.528398e-01 7.321210e-02
<VARIANCE> 39
 1.150323e+01 1.508767e+01 1.573454e+01 3.749454e+01 2.366391e+01 1.423312e+01 1.726916e+01 2.057029e+01 1.488514e+01 3.101458e+01 2.324829e+01 1.140925e+01 3.644232e+01 1.809652e+00 9.371809e-01 1.358077e+00 1.517240e+00 3.154473e+00 1.981666e+00 1.643933e+00 2.836679e+00 1.223364e+00 3.130599e+00 2.311897e+00 1.867698e+00 1.392227e+00 3.323043e-01 2.051254e-01 2.620623e-01 2.816390e-01 4.748551e-01 3.551494e-01 4.038903e-01 5.337520e-01 1.966740e-01 6.825942e-01 3.179238e-01 3.967645e-01 5.435507e-01
<GCONST> 1.046829e+02
<TRANSP> 5
 0.000000e+00 1.000000e+00 0.000000e+00 0.000000e+00 0.000000e+00
 0.000000e+00 9.096927e-01 9.030735e-02 0.000000e+00 0.000000e+00
 0.000000e+00 0.000000e+00 9.356583e-01 6.434178e-02 0.000000e+00
 0.000000e+00 0.000000e+00 0.000000e+00 8.700638e-01 1.299362e-01
 0.000000e+00 0.000000e+00 0.000000e+00 0.000000e+00 0.000000e+00
<ENDHMM>
~h "ah"
<BEGINHMM>
<NUMSTATES> 5
<STATE> 2
<MEAN> 39
 -2.527691e+00 -3.431149e-01 -8.800765e-01 -7.693304e+00 -7.704799e+00 -1.328750e+01 -6.850470e-01 -3.374272e+00 -7.668143e+00 -1.066131e+01 -1.325434e+01 -2.764243e+00 6.420859e+01 8.487036e-01 1.530990e-01 2.768958e-02 9.380218e-02 -2.765613e-01 -2.471648e-01 -4.333737e-01 -8.566102e-01 1.849335e-01 -1.020267e-01 -7.159946e-01 -3.918892e-01 -1.726311e-01 7.624306e-03 7.614145e-02 9.999919e-02 1.599778e-01 2.212775e-01 2.142669e-01 2.439912e-02 5.647178e-02 1.673991e-01 3.555820e-01 3.296385e-01 2.589288e-01 -2.938205e-01
<VARIANCE> 39
 1.305302e+01 5.586048e+01 4.387824e+01 5.147005e+01 3.615733e+01 5.212232e+01 3.994562e+01 4.126298e+01 8.534348e+01 3.275425e+01 3.396106e+01 2.704461e+01 1.732466e+02 6.709239e-01 1.591566e+00 1.937219e+00 1.929026e+00 1.976038e+00 2.912458e+00 1.926491e+00 2.903013e+00 2.908867e+00 3.825591e+00 4.887291e+00 2.277343e+00 2.940387e+00 1.315161e-01 2.060771e-01 2.386590e-01 2.789229e-01 4.367127e-01 5.361407e-01 3.995593e-01 5.157222e-01 3.611777e-01 5.016280e-01 4.606116e-01 4.071076e-01 2.892046e-01
<GCONST> 1.176348e+02
<STATE> 3
<MEAN> 39
 6.951384e-01 5.469013e+00 4.435009e+00 -9.361620e-01 -2.620060e+00 -1.183534e+01 -4.604552e+00 -7.198105e+00 -1.230090e+01 -1.164783e+01 -1.199397e+01 -6.928377e-01 5.238817e+01 1.787743e-01 1.813598e-01 -3.066330e-02 7.770792e-01 3.894655e-01 1.042836e+00 3.560494e-01 3.767880e-01 1.187269e+00 1.036994e+00 1.067618e+00 5.776830e-01 -1.710785e+00 -2.533845e-01 -1.087594e-01 -1.089213e-01 -8.639547e-02 2.725509e-02 1.729255e-01 1.889522e-01 2.977761e-01 1.965270e-01 1.528828e-01 1.876059e-01 8.269006e-02 7.387534e-02
<VARIANCE> 39
 7.093864e+00 2.196392e+01 1.472870e+01 2.279632e+01 2.303510e+01 2.991879e+01 3.755286e+01 2.509877e+01 9.778359e+01 4.155244e+01 2.871551e+01 2.655890e+01 6.510831e+01 1.037431e+00 9.747138e-01 1.291013e+00 1.323110e+00 1.503720e+00 2.261798e+00 1.810218e+00 2.214921e+00 2.639489e+00 2.479010e+00 2.264128e+00 1.711981e+00 1.433478e+00 1.510274e-01 1.403514e-01 1.231799e-01 2.164446e-01 2.546338e-01 3.931349e-01 3.246503e-01 3.486382e-01 4.092456e-01 4.025296e-01 4.417006e-01 2.734931e-01 2.234019e-01
<GCONST> 1.044271e+02
<STATE> 4
<MEAN> 39
 -6.078574e+00 4.102078e+00 3.886083e+00 9.452730e-01 -6.744287e-01 -4.091087e+00 7.403135e-01 -1.554392e+00 -5.378386e+00 -1.441776e+00 -9.827538e-01 3.039830e+00 4.568950e+01 -4.821448e-01 -2.346923e-01 1.981754e-01 -2.372056e-01 -1.612702e-01 2.236530e-01 6.081429e-01 3.747145e-01 1.955980e-01 6.675986e-01 5.633627e-01 1.589965e-01 2.177843e-01 6.921326e-02 1.099411e-02 3.801971e-02 4.047868e-03 -4.975909e-02 -1.065289e-01 -5.774542e-02 -1.215845e-01 -2.132909e-01 -1.688747e-01 -1.420025e-01 -9.174240e-02 8.232190e-02
<VARIANCE> 39
 3.658801e+01 2.456023e+01 2.009828e+01 2.979516e+01 2.285248e+01 3.088164e+01 3.305890e+01 2.969854e+01 3.655844e+01 3.300807e+01 4.514838e+01 2.223121e+01 4.767139e+01 3.105127e+00 2.070672e+00 2.099420e+00 3.005916e+00 2.304954e+00 3.111209e+00 2.468183e+00 3.021337e+00 3.928868e+00 2.702546e+00 2.696531e+00 2.137695e+00 3.362441e+00 6.552706e-01 3.871084e-01 4.474167e-01 6.753653e-01 4.973156e-01 6.341800e-01 5.052305e-01 6.261342e-01 7.699657e-01 5.100441e-01 5.070557e-01 4.393960e-01 7.734714e-01
<GCONST> 1.216360e+02
<TRANSP> 5
 0.000000e+00 1.000000e+00 0.000000e+00 0.000000e+00 0.000000e+00
 0.000000e+00 6.691620e-01 3.308381e-01 0.000000e+00 0.000000e+00
 0.000000e+00 0.000000e+00 7.653446e-01 2.346554e-01 0.000000e+00
 0.000000e+00 0.000000e+00 0.000000e+00 8.292773e-01 1.707227e-01
 0.000000e+00 0.000000e+00 0.000000e+00 0.000000e+00 0.000000e+00
<ENDHMM>
~h "ao"
<BEGINHMM>
<NUMSTATES> 5
<STATE> 2
<MEAN> 39
 1.230823e+00 5.457125e+00 -1.310247e+01 -2.389509e+01 -1.408004e+01 -7.149724e+00 -1.529169e+00 -2.211159e+00 -9.928720e+00 -5.594601e+00 -9.196274e+00 -4.959170e+00 7.032106e+01 -4.601386e-02 1.109604e-01 -1.094775e-02 -1.469567e-01 9.850731e-02 5.278319e-02 -2.971003e-02 3.926371e-02 -8.435543e-02 -3.615220e-02 -8.236692e-02 3.423095e-02 -1.247054e-01 -8.538309e-04 -1.290733e-03 2.222790e-02 1.976838e-02 4.799331e-02 3.640289e-02 1.973566e-02 9.276062e-03 -9.343755e-03 -7.185427e-03 4.780824e-02 5.649042e-02 -1.990096e-02
<VARIANCE> 39
 2.159037e+00 3.942278e+01 7.498581e+00 3.983679e+01 2.231598e+01 3.088565e+01 1.897515e+01 1.894751e+01 2.615401e+01 1.823662e+01 2.184896e+01 2.133349e+01 1.728424e+01 6.088822e-02 3.248424e-01 2.455109e-01 5.454396e-01 6.997899e-01 7.016260e-01 8.272668e-01 8.016744e-01 1.047489e+00 1.036738e+00 9.324996e-01 8.279855e-01 7.461455e-02 1.176312e-02 5.733895e-02 5.171474e-02 1.086569e-01 1.016843e-01 1.118000e-01 1.465694e-01 1.464485e-01 1.730287e-01 1.753300e-01 1.629775e-01 1.283431e-01 1.275998e-02
<GCONST> 6.705007e+01
<STATE> 3
<MEAN> 39
 2.316782e+00 7.708327e+00 -1.266666e+01 -2.571823e+01 -4.452049e+00 -2.140549e+00 -2.004102e+00 -4.609765e+00 -1.310158e+01 -8.641148e+00 -5.619098e+00 -1.741246e+00 6.127419e+01 1.980916e-01 8.553532e-02 2.869440e-01 7.934825e-01 7.301831e-01 4.121411e-01 6.654659e-02 -3.314644e-01 1.208490e-02 -1.398402e-01 4.131055e-01 4.306324e-04 -1.311737e+00 -6.593635e-02 -6.829467e-02 7.005562e-02 1.941661e-01 -7.042053e-02 1.752821e-02 7.083014e-02 8.192524e-02 1.354949e-01 1.554422e-01 3.406755e-02 5.790228e-02 -9.668553e-02
<VARIANCE> 39
 8.089656e+00 1.790624e+01 1.027977e+01 3.548532e+01 4.570410e+01 2.684425e+01 3.016963e+01 4.394309e+01 2.481834e+01 4.009290e+01 3.536335e+01 2.857037e+01 4.720699e+01 4.317853e-01 1.020229e+00 7.263251e-01 3.019396e+00 1.681746e+00 1.354494e+00 1.250629e+00 1.311809e+00 1.728696e+00 1.954922e+00 1.429237e+00 1.282218e+00 7.680207e-01 9.014966e-02 1.663881e-01 1.168659e-01 3.219342e-01 3.049128e-01 2.508512e-01 2.151990e-01 2.638274e-01 2.967772e-01 3.891290e-01 2.709979e-01 2.595374e-01 6.662974e-02
<GCONST> 9.693206e+01
<STATE> 4
<MEAN> 39
 -4.025951e+00 2.555771e+00 -1.933329e+00 -1.168944e+00 5.255494e-01 1.385059e+00 1.354252e+00 4.914674e-01 -1.318771e+00 6.249549e-01 2.623778e+00 4.503794e+00 4.249829e+01 -2.587492e-01 -7.048570e-02 3.231765e-01 4.716461e-01 2.367684e-03 1.342495e-02 7.111992e-02 1.903416e-01 3.088796e-01 3.359779e-01 1.372548e-01 1.727579e-01 -2.606086e-01 2.542781e-02 3.253729e-02 -2.180469e-02 -6.783845e-02 -3.385078e-04 -2.966936e-02 -3.302757e-02 -3.909318e-02 -5.466762e-02 -5.198085e-02 -3.846125e-02 -4.543150e-02 6.752453e-02
<VARIANCE> 39
 1.240572e+01 2.031471e+01 2.197083e+01 3.389086e+01 2.431402e+01 2.177030e+01 2.220140e+01 3.224482e+01 2.527217e+01 2.745390e+01 2.146958e+01 2.108911e+01 1.718993e+01 5.408288e-01 1.224719e+00 8.048412e-01 1.325987e+00 1.837795e+00 1.616003e+00 1.850657e+00 1.892646e+00 2.006554e+00 2.241082e+00 1.806359e+00 1.858912e+00 5.687555e-01 9.587733e-02 2.045045e-01 1.470282e-01 2.269007e-01 3.336440e-01 3.009320e-01 3.505017e-01 3.221429e-01 3.522394e-01 4.024813e-01 3.317366e-01 3.366179e-01 8.849086e-02
<GCONST> 9.792959e+01
<TRANSP> 5
 0.000000e+00 1.000000e+00 0.000000e+00 0.000000e+00 0.000000e+00
 0.000000e+00 9.567520e-01 4.324798e-02 0.000000e+00 0.000000e+00
 0.000000e+00 0.000000e+00 9.264653e-01 7.353474e-02 0.000000e+00
 0.000000e+00 0.000000e+00 0.000000e+00 9.703776e-01 2.962238e-02
 0.000000e+00 0.000000e+00 0.000000e+00 0.000000e+00 0.000000e+00
<ENDHMM>
~h "ay"
<BEGINHMM>
<NUMSTATES> 5
<STATE> 2
<MEAN> 39
 -3.223606e+00 -1.413336e+01 -1.071159e+01 -8.187576e+00 2.192279e+00 -1.804806e-01 -6.603481e+00 -8.077806e+00 -8.592201e+00 -1.380516e+01 -1.217915e+01 -4.521697e+00 7.360750e+01 -2.654141e-02 -3.046576e-01 1.733644e-01 3.680427e-01 -2.534091e-04 -4.451154e-02 -1.567719e-01 -2.247366e-02 4.695420e-02 -1.595660e-01 -1.532269e-01 9.590675e-02 -5.463992e-02 3.342107e-04 1.294404e-01 7.787830e-02 2.921820e-03 -1.203232e-01 -1.026005e-01 1.181437e-01 1.080380e-01 -4.784746e-03 1.445950e-02 3.524821e-02 5.088950e-02 -5.617952e-02
<VARIANCE> 39
 6.198677e+00 1.316109e+01 1.850288e+01 1.989738e+01 2.220907e+01 3.397073e+01 2.220387e+01 3.174608e+01 2.137871e+01 4.618495e+01 1.905103e+01 1.885781e+01 1.188237e+01 2.087682e-01 3.827796e-01 4.110933e-01 5.987392e-01 8.250400e-01 1.039108e+00 1.282315e+00 1.185541e+00 1.064667e+00 8.085660e-01 7.933063e-01 8.018318e-01 2.217912e-01 3.874695e-02 1.116398e-01 7.085706e-02 1.174806e-01 1.417529e-01 1.410881e-01 1.999518e-01 1.751647e-01 2.349036e-01 1.578445e-01 1.531007e-01 1.378133e-01 8.885228e-02
<GCONST> 7.758395e+01
<STATE> 3
<MEAN> 39
 -5.678956e+00 -1.365040e+01 -3.656903e+00 -7.887722e+00 -5.383462e+00 -2.524846e+00 1.718568e+00 -6.079459e+00 -1.398309e+01 -1.618600e+01 -1.143125e+01 -2.548651e+00 7.327518e+01 -3.461015e-01 7.241555e-01 8.952702e-01 -7.020344e-01 -1.262650e+00 8.514370e-02 1.111026e+00 -4.465426e-01 -3.080950e-01 4.067013e-01 2.039897e-01 -5.668561e-01 -1.260906e-01 -6.262990e-03 1.610688e-01 8.343066e-02 -1.045399e-01 -1.867354e-02 5.916984e-02 -1.987322e-01 -1.341168e-01 1.798516e-01 1.659482e-01 -7.949683e-02 -1.243494e-01 -6.583664e-02
<VARIANCE> 39
 7.557104e+00 2.038132e+01 2.104115e+01 2.114484e+01 4.324215e+01 2.594567e+01 5.755629e+01 2.436903e+01 3.602349e+01 2.862757e+01 2.412725e+01 2.981050e+01 1.080923e+01 1.799863e-01 6.525427e-01 5.632464e-01 9.249212e-01 1.312332e+00 1.114617e+00 2.140370e+00 1.119356e+00 1.455485e+00 1.440889e+00 1.267997e+00 1.433152e+00 1.350348e-01 2.447822e-02 4.984309e-02 5.870964e-02 1.054152e-01 1.710067e-01 1.519451e-01 3.816199e-01 1.523049e-01 2.040186e-01 2.073461e-01 1.812848e-01 2.124095e-01 1.405653e-02
<GCONST> 8.180029e+01
<STATE> 4
<MEAN> 39
 -8.513709e+00 1.978474e+00 7.499958e+00 -1.417835e+01 -1.254734e+01 -1.306178e+00 -4.223857e+00 -1.288604e+01 -8.797964e+00 -7.537565e+00 -1.282347e+01 -6.142102e+00 6.651790e+01 9.903573e-02 1.021228e+00 5.860780e-01 1.853759e-01 2.386006e-01 -7.821596e-02 -1.213688e+00 -2.925590e-01 2.896342e-01 2.989529e-01 -2.120724e-01 3.531647e-01 -9.320122e-01 8.461901e-02 -1.248740e-01 -1.194759e-01 2.093777e-01 1.021604e-01 -3.114634e-02 9.196571e-02 1.045337e-01 -1.071996e-01 -1.184009e-01 8.415260e-02 9.831747e-02 -8.250057e-02
<VARIANCE> 39
 8.654648e+00 3.968674e+01 1.599600e+01 2.681720e+01 4.658453e+01 3.532912e+01 7.670099e+01 2.600570e+01 6.385154e+01 4.202723e+01 5.968412e+01 2.644509e+01 3.666317e+01 4.107814e-01 7.199132e-01 7.148139e-01 1.090203e+00 1.304943e+00 1.000176e+00 1.902316e+00 1.370861e+00 1.329784e+00 1.628302e+00 1.203767e+00 1.273671e+00 2.923932e-01 5.541152e-02 6.024390e-02 7.968194e-02 1.375790e-01 1.762371e-01 1.818119e-01 3.082149e-01 2.209647e-01 2.064092e-01 2.264003e-01 1.978743e-01 2.399855e-01 3.156138e-02
<GCONST> 9.126067e+01
<TRANSP> 5
 0.000000e+00 1.000000e+00 0.000000e+00 0.000000e+00 0.000000e+00
 0.000000e+00 9.260383e-01 7.396165e-02 0.000000e+00 0.000000e+00
 0.000000e+00 0.000000e+00 9.006472e-01 9.935275e-02 0.000000e+00
 0.000000e+00 0.000000e+00 0.000000e+00 9.153346e-01 8.466533e-02
 0.000000e+00 0.000000e+00 0.000000e+00 0.000000e+00 0.000000e+00
<ENDHMM>
~h "ch"
<BEGINHMM>
<NUMSTATES> 5
<STATE> 2
<MEAN> 39
 -1.185637e+01 4.240252e+00 9.102073e+00 -8.935836e+00 -7.712602e+00 -1.743143e-01 -5.800788e+00 -3.490225e+00 7.908201e-01 9.263983e-01 2.012677e-01 2.244743e+00 5.119810e+01 -3.430673e+00 -5.279000e-01 -2.231888e+00 7.403696e-01 9.181529e-01 1.472580e-01 6.961150e-01 8.903319e-01 7.867268e-02 -4.508148e-01 1.483935e+00 -1.671441e-01 2.846219e+00 -5.022449e-01 3.889255e-01 -1.643986e-01 -3.692502e-02 -1.876824e-02 1.402008e-01 2.334815e-02 -3.732977e-02 -1.731458e-01 -1.511573e-01 -1.899372e-01 -2.432075e-01 7.061741e-01
<VARIANCE> 39
 8.554160e+01 2.628636e+01 4.104965e+01 2.180082e+01 3.175771e+01 1.982685e+01 1.716720e+01 1.942927e+01 1.002291e+01 2.392237e+01 3.127665e+01 1.694949e+01 1.013322e+02 7.537983e+00 3.121408e+00 2.700871e+00 1.736430e+00 3.129175e+00 1.651265e+00 1.457803e+00 2.002249e+00 1.502889e+00 3.025121e+00 2.352676e+00 2.591300e+00 1.231437e+01 1.337057e+00 8.526984e-01 5.136889e-01 3.501683e-01 5.956393e-01 2.891334e-01 3.053364e-01 4.363284e-01 3.039263e-01 6.875175e-01 5.528138e-01 4.603503e-01 2.002284e+00
<GCONST> 1.204692e+02
<STATE> 3
<MEAN> 39
 -3.072866e+01 9.770158e+00 3.260038e+00 -4.756498e+00 -6.437474e+00 3.112412e+00 -3.297091e-01 -2.401084e+00 -7.176265e-01 -1.186616e+00 3.225961e+00 -1.510730e+00 6.901569e+01 2.753397e-01 1.141184e-01 6.288428e-01 2.596431e-01 -2.982899e-01 6.940004e-02 3.194865e-01 -2.546315e-01 1.133847e-02 9.628361e-02 -5.651972e-02 -2.711969e-02 -2.826066e-01 3.529154e-01 -1.918239e-01 1.758240e-01 4.946628e-02 2.122720e-02 -4.786401e-02 4.139401e-02 1.571877e-02 4.219482e-02 1.633797e-02 1.197060e-03 6.667782e-02 -3.413987e-01
<VARIANCE> 39
 1.159497e+01 8.101748e+00 2.274763e+01 7.208465e+00 1.916295e+01 1.686478e+01 1.589791e+01 1.669966e+01 1.398237e+01 1.168731e+01 1.365130e+01 1.126098e+01 1.322639e+01 1.619058e+00 2.119265e+00 1.077060e+00 8.609502e-01 1.381976e+00 1.015622e+00 1.190007e+00 1.314564e+00 1.329074e+00 1.094590e+00 1.168252e+00 1.071835e+00 8.941452e-01 2.648521e-01 1.854710e-01 3.108106e-01 1.528856e-01 2.885569e-01 2.108402e-01 2.541848e-01 3.156140e-01 2.771302e-01 2.353339e-01 2.246045e-01 2.091464e-01 2.213094e-01
<GCONST> 8.914594e+01
<STATE> 4
<MEAN> 39
 -1.160219e+01 3.420494e+00 6.306530e+00 1.961989e+00 -3.069467e+00 2.453863e+00 4.229535e+00 -1.473569e+00 1.148688e+00 1.560489e+00 3.200727e+00 3.668908e+00 4.616658e+01 5.092630e-01 -2.850218e-02 -1.024072e-01 8.704558e-02 2.672893e-01 5.069908e-02 -3.676944e-02 -1.109846e-02 1.525714e-02 4.571746e-02 -6.370576e-02 1.122424e-01 -5.831371e-01 -5.267787e-02 4.220081e-02 -4.171291e-02 -5.195650e-02 -8.010272e-03 -8.778517e-03 -5.551040e-02 -3.267993e-02 -3.847700e-02 -1.120228e-02 -1.715447e-02 -2.612716e-02 7.465101e-02
<VARIANCE> 39
 2.338948e+01 2.877176e+01 3.748874e+01 2.298640e+01 2.142285e+01 2.580403e+01 3.189601e+01 2.371383e+01 2.695430e+01 3.052905e+01 1.794015e+01 1.846185e+01 4.810809e+01 1.413740e+00 1.765356e+00 1.583443e+00 2.232107e+00 1.672183e+00 2.232949e+00 2.784302e+00 2.403007e+00 2.497351e+00 2.368889e+00 1.998138e+00 1.514969e+00 2.244570e+00 1.973708e-01 3.397004e-01 2.890539e-01 3.999316e-01 3.318257e-01 4.415156e-01 4.907963e-01 4.595318e-01 4.946885e-01 5.056425e-01 4.021381e-01 3.063869e-01 2.040381e-01
<GCONST> 1.100305e+02
<TRANSP> 5
 0.000000e+00 1.000000e+00 0.000000e+00 0.000000e+00 0.000000e+00
 0.000000e+00 8.579854e-01 1.420146e-01 0.000000e+00 0.000000e+00
 0.000000e+00 0.000000e+00 9.393022e-01 6.069781e-02 0.000000e+00
 0.000000e+00 0.000000e+00 0.000000e+00 9.666113e-01 3.338870e-02
 0.000000e+00 0.000000e+00 0.000000e+00 0.000000e+00 0.000000e+00
<ENDHMM>
~h "eh"
<BEGINHMM>
<NUMSTATES> 5
<STATE> 2
<MEAN> 39
 -8.207172e+00 -4.512452e+00 1.293406e+00 -5.919861e+00 -7.783734e+00 -1.712298e+00 6.698609e+00 -2.543871e+00 -6.107607e+00 -2.198716e+00 -2.090791e+00 4.922366e-01 5.933856e+01 -1.891886e-01 -2.464062e+00 -5.907547e-01 -2.091605e+00 -1.497446e+00 -9.862278e-03 7.958345e-01 -9.725046e-01 -1.773139e+00 -1.646551e+00 -1.424105e+00 -1.255466e+00 4.278001e+00 -1.105324e-01 2.105594e-01 -1.495109e-01 2.861446e-01 1.028955e-01 2.724649e-01 -1.549664e-01 -9.820328e-02 1.412505e-02 -6.665257e-02 2.742645e-02 -1.627086e-01 -1.620139e-01
<VARIANCE> 39
 2.060322e+01 9.296363e+01 2.927026e+01 9.619015e+01 6.090237e+01 5.517628e+01 4.460226e+01 2.996036e+01 5.270351e+01 5.012912e+01 4.198334e+01 3.176012e+01 2.693739e+02 2.087638e+00 6.510647e+00 2.356576e+00 6.048905e+00 3.711873e+00 2.662388e+00 5.290428e+00 2.689178e+00 4.075959e+00 3.965341e+00 2.867318e+00 2.576252e+00 1.673870e+01 5.952415e-01 1.555018e+00 4.219741e-01 1.413675e+00 9.018919e-01 6.288677e-01 1.142405e+00 4.621387e-01 9.236717e-01 7.774647e-01 6.137359e-01 4.860882e-01 4.339656e+00
<GCONST> 1.391060e+02
<STATE> 3
<MEAN> 39
 -6.091940e+00 -1.200684e+01 -3.463577e+00 -1.101272e+01 -1.269031e+01 -5.761135e-01 6.846848e+00 -6.815034e+00 -1.177912e+01 -1.321369e+01 -7.733501e+00 -6.570708e+00 7.476463e+01 2.697388e-01 1.863695e-01 -1.166151e-01 2.915126e-01 2.195463e-01 -2.266187e-01 -2.353903e-01 1.539887e-01 5.360593e-01 -2.195312e-01 -3.547006e-02 9.024143e-04 -3.532428e-01 2.005566e-02 1.538829e-01 7.418026e-02 1.182636e-01 1.023975e-01 -9.084588e-02 -8.923560e-02 4.838265e-03 1.304915e-01 1.777139e-01 7.217908e-02 1.064030e-01 -1.951954e-01
<VARIANCE> 39
 1.054522e+01 2.183749e+01 2.706815e+01 2.251402e+01 3.175761e+01 5.511641e+01 2.891043e+01 2.951066e+01 3.555297e+01 2.262802e+01 2.399391e+01 1.974016e+01 1.484406e+01 3.967464e-01 6.605702e-01 5.317284e-01 6.503857e-01 1.007712e+00 1.554893e+00 1.491347e+00 1.071816e+00 1.401550e+00 1.174497e+00 9.232961e-01 1.017702e+00 4.966729e-01 7.020064e-02 1.054944e-01 8.126054e-02 1.569751e-01 1.600818e-01 2.387632e-01 2.478361e-01 1.965883e-01 2.242531e-01 2.007679e-01 1.735189e-01 1.895058e-01 1.203341e-01
<GCONST> 8.736122e+01
<STATE> 4
<MEAN> 39
 -3.745685e+00 -3.371179e+00 -7.488049e-01 -3.644332e+00 -6.590487e+00 -4.029243e+00 3.063530e+00 -3.610367e+00 -2.949102e+00 -5.272377e+00 -3.000394e+00 -1.088015e+00 5.749134e+01 -1.290849e-01 1.087190e+00 3.833365e-02 1.040079e+00 6.629423e-01 2.294511e-01 -9.514379e-01 -7.274689e-02 2.057104e-01 9.590760e-01 3.488000e-01 3.468273e-01 -1.207530e+00 -3.180197e-01 3.787394e-02 -4.036657e-02 5.322426e-02 1.499417e-02 1.946030e-01 1.629521e-01 -4.289658e-02 -1.868334e-01 9.779344e-02 5.732474e-02 5.943960e-03 1.728459e-01
<VARIANCE> 39
 1.624568e+01 4.768119e+01 2.887713e+01 3.849160e+01 4.160949e+01 4.840125e+01 3.273740e+01 2.467848e+01 3.026154e+01 6.507770e+01 4.467748e+01 2.866794e+01 1.487549e+02 1.624971e+00 2.522750e+00 8.484628e-01 1.972797e+00 1.815305e+00 3.068254e+00 2.813298e+00 2.249451e+00 2.491906e+00 2.432792e+00 2.065481e+00 2.339543e+00 1.474727e+00 2.311492e-01 2.578228e-01 1.623119e-01 2.560081e-01 2.684156e-01 5.544643e-01 3.646592e-01 3.926174e-01 4.364540e-01 3.566362e-01 3.703036e-01 3.386502e-01 1.970195e-01
<GCONST> 1.132322e+02
<TRANSP> 5
 0.000000e+00 1.000000e+00 0.000000e+00 0.000000e+00 0.000000e+00
 0.000000e+00 8.011388e-01 1.988612e-01 0.000000e+00 0.000000e+00
 0.000000e+00 0.000000e+00 9.228948e-01 7.710519e-02 0.000000e+00
 0.000000e+00 0.000000e+00 0.000000e+00 6.698580e-01 3.301420e-01
 0.000000e+00 0.000000e+00 0.000000e+00 0.000000e+00 0.000000e+00
<ENDHMM>
~h "ey"
<BEGINHMM>
<NUMSTATES> 5
<STATE> 2
<MEAN> 39
 -6.990428e+00 5.757687e+00 3.403329e+00 2.887282e+00 -7.420086e-01 1.460765e+00 1.848660e+00 -3.561343e-01 3.728996e-01 4.419638e+00 3.570365e+00 3.942406e+00 3.932140e+01 1.342446e-02 2.410857e-02 1.673494e-02 2.459247e-02 3.801861e-02 3.181466e-02 -3.951001e-02 -8.532756e-03 6.363881e-02 2.168161e-02 9.259120e-03 8.044668e-03 -8.751240e-02 -3.153924e-02 -6.235825e-02 2.703475e-02 -1.046782e-01 -8.948385e-02 -5.496644e-02 4.882069e-02 -1.846226e-02 -2.053874e-02 -1.066350e-03 -6.396390e-02 -1.618131e-02 1.601689e-01
<VARIANCE> 39
 7.241089e+00 1.061088e+01 1.027660e+01 1.005221e+01 1.351205e+01 1.423965e+01 1.973205e+01 1.903065e+01 1.564744e+01 1.653301e+01 1.596126e+01 1.389346e+01 1.153872e+01 5.354736e-01 5.870140e-01 6.612845e-01 8.547015e-01 1.115747e+00 1.328024e+00 1.601493e+00 1.412163e+00 1.511239e+00 1.538678e+00 1.514267e+00 1.284911e+00 3.708995e-01 1.195284e-01 1.457009e-01 1.391491e-01 3.010004e-01 3.227935e-01 3.046690e-01 3.324272e-01 3.002216e-01 3.136937e-01 3.057188e-01 3.621668e-01 2.707960e-01 2.963051e-01
<GCONST> 8.751652e+01
<STATE> 3
<MEAN> 39
 -8.811755e+00 -7.806481e-01 5.980490e+00 -1.733114e+01 -1.915761e+01 -5.488347e+00 1.781745e+00 -8.401904e+00 -4.403865e+00 1.281542e+00 -9.832200e+00 -3.393156e+00 6.920300e+01 -1.012294e-01 -1.737438e-01 3.206136e-01 -1.344026e+00 -1.231056e+00 -4.937259e-01 -4.807414e-01 -7.099808e-01 -4.419337e-01 -3.103637e-01 -9.276115e-01 -3.631939e-01 1.822642e+00 -2.858430e-03 1.204851e-01 1.570634e-03 1.402947e-01 1.492341e-01 4.841197e-02 -1.154985e-01 3.104132e-02 1.245781e-02 3.104188e-03 8.518820e-02 7.376941e-02 -1.981020e-01
<VARIANCE> 39
 1.197851e+01 2.097845e+01 1.457571e+01 7.945700e+01 8.116710e+01 2.709339e+01 4.337696e+01 3.299961e+01 2.249568e+01 2.679076e+01 4.336164e+01 2.771263e+01 1.442330e+02 9.371822e-01 2.378464e+00 1.432768e+00 7.009066e+00 5.969273e+00 2.395246e+00 2.687882e+00 1.602447e+00 1.518229e+00 1.852940e+00 3.314719e+00 2.206450e+00 1.344073e+01 1.552933e-01 3.185996e-01 2.437950e-01 1.010697e+00 8.381948e-01 4.188046e-01 4.182757e-01 2.920107e-01 2.611871e-01 3.257514e-01 5.303875e-01 3.108292e-01 1.842135e+00
<GCONST> 1.193237e+02
<STATE> 4
<MEAN> 39
 -8.539799e+00 7.718381e+00 1.335236e+01 -1.601300e+01 -1.415111e+01 -4.159473e+00 -1.061075e+01 -1.001611e+01 -4.964796e+00 4.406223e-01 -9.280814e+00 5.383102e-01 6.026215e+01 1.881694e-01 1.547143e-01 6.860636e-03 5.984346e-01 5.961069e-01 2.720619e-01 -3.410864e-02 3.420143e-01 3.601663e-01 1.844251e-01 4.910603e-01 2.650413e-01 -1.211502e+00 -8.330440e-03 -5.292936e-02 -9.527969e-02 4.749424e-02 9.839007e-03 1.161508e-03 1.020102e-01 2.911684e-02 1.922631e-02 8.236791e-03 4.359628e-02 -1.544475e-02 2.209144e-02
<VARIANCE> 39
 1.796718e+01 1.978560e+01 1.489133e+01 4.653524e+01 4.076143e+01 2.499473e+01 3.204166e+01 2.149444e+01 3.687867e+01 2.411428e+01 3.294455e+01 1.758591e+01 1.242661e+02 1.103903e+00 8.810517e-01 1.099843e+00 1.224880e+00 9.481167e-01 1.281650e+00 1.888030e+00 1.347806e+00 1.985051e+00 1.637009e+00 1.727764e+00 1.220303e+00 1.442965e+00 1.996452e-01 1.176479e-01 1.533509e-01 2.079147e-01 1.853862e-01 2.360465e-01 2.781914e-01 2.524663e-01 2.996493e-01 3.030534e-01 2.929452e-01 2.118807e-01 2.429241e-01
<GCONST> 9.964258e+01
<TRANSP> 5
 0.000000e+00 1.000000e+00 0.000000e+00 0.000000e+00 0.000000e+00
 0.000000e+00 9.426243e-01 5.737574e-02 0.000000e+00 0.000000e+00
 0.000000e+00 0.000000e+00 9.234381e-01 7.656194e-02 0.000000e+00
 0.000000e+00 0.000000e+00 0.000000e+00 9.464391e-01 5.356091e-02
 0.000000e+00 0.000000e+00 0.000000e+00 0.000000e+00 0.000000e+00
<ENDHMM>
~h "ia"
<BEGINHMM>
<NUMSTATES> 5
<STATE> 2
<MEAN> 39
 -7.381522e+00 3.330936e+00 2.047153e+00 -3.046288e+00 -4.874629e+00 -2.964739e+00 -5.433913e-01 -3.441086e+00 -4.156183e+00 -7.898898e-01 -2.925678e+00 8.747759e-01 5.354753e+01 4.188114e-03 7.886445e-03 8.638212e-04 -3.319199e-05 4.583947e-03 2.944113e-03 -4.185917e-03 -2.407409e-03 4.110487e-03 -9.366490e-04 -2.847919e-03 -1.119324e-03 -3.485081e-03 -2.780182e-04 4.271456e-06 2.111308e-05 2.157945e-05 -1.623377e-04 6.947975e-04 6.310043e-04 2.858052e-04 2.109315e-04 1.335133e-04 3.614691e-04 -5.897314e-04 -3.645968e-04
<VARIANCE> 39
 3.956010e+01 5.039151e+01 5.962346e+01 1.002791e+02 6.064148e+01 5.444832e+01 5.840739e+01 4.790145e+01 4.806982e+01 5.399290e+01 6.658193e+01 3.143701e+01 1.841879e+02 1.501115e+00 1.479264e+00 1.419895e+00 2.272107e+00 1.880642e+00 2.105628e+00 2.280031e+00 1.936650e+00 2.018196e+00 1.963827e+00 1.997587e+00 1.559135e+00 2.571761e+00 2.319898e-01 2.408473e-01 2.210669e-01 3.404900e-01 3.085047e-01 3.687871e-01 3.892777e-01 3.406794e-01 3.576038e-01 3.468189e-01 3.398416e-01 2.856025e-01 3.133720e-01
<GCONST> 1.177766e+02
<STATE> 3
<MEAN> 39
 -7.381522e+00 3.330936e+00 2.047153e+00 -3.046288e+00 -4.874629e+00 -2.964739e+00 -5.433913e-01 -3.441086e+00 -4.156183e+00 -7.898898e-01 -2.925678e+00 8.747759e-01 5.354753e+01 4.188114e-03 7.886445e-03 8.638212e-04 -3.319199e-05 4.583947e-03 2.944113e-03 -4.185917e-03 -2.407409e-03 4.110487e-03 -9.366490e-04 -2.847919e-03 -1.119324e-03 -3.485081e-03 -2.780182e-04 4.271456e-06 2.111308e-05 2.157945e-05 -1.623377e-04 6.947975e-04 6.310043e-04 2.858052e-04 2.109315e-04 1.335133e-04 3.614691e-04 -5.897314e-04 -3.645968e-04
<VARIANCE> 39
 3.956010e+01 5.039151e+01 5.962346e+01 1.002791e+02 6.064148e+01 5.444832e+01 5.840739e+01 4.790145e+01 4.806982e+01 5.399290e+01 6.658193e+01 3.143701e+01 1.841879e+02 1.501115e+00 1.479264e+00 1.419895e+00 2.272107e+00 1.880642e+00 2.105628e+00 2.280031e+00 1.936650e+00 2.018196e+00 1.963827e+00 1.997587e+00 1.559135e+00 2.571761e+00 2.319898e-01 2.408473e-01 2.210669e-01 3.404900e-01 3.085047e-01 3.687871e-01 3.892777e-01 3.406794e-01 3.576038e-01 3.468189e-01 3.398416e-01 2.856025e-01 3.133720e-01
<GCONST> 1.177766e+02
<STATE> 4
<MEAN> 39
 -7.381522e+00 3.330936e+00 2.047153e+00 -3.046288e+00 -4.874629e+00 -2.964739e+00 -5.433913e-01 -3.441086e+00 -4.156183e+00 -7.898898e-01 -2.925678e+00 8.747759e-01 5.354753e+01 4.188114e-03 7.886445e-03 8.638212e-04 -3.319199e-05 4.583947e-03 2.944113e-03 -4.185917e-03 -2.407409e-03 4.110487e-03 -9.366490e-04 -2.847919e-03 -1.119324e-03 -3.485081e-03 -2.780182e-04 4.271456e-06 2.111308e-05 2.157945e-05 -1.623377e-04 6.947975e-04 6.310043e-04 2.858052e-04 2.109315e-04 1.335133e-04 3.614691e-04 -5.897314e-04 -3.645968e-04
<VARIANCE> 39
 3.956010e+01 5.039151e+01 5.962346e+01 1.002791e+02 6.064148e+01 5.444832e+01 5.840739e+01 4.790145e+01 4.806982e+01 5.399290e+01 6.658193e+01 3.143701e+01 1.841879e+02 1.501115e+00 1.479264e+00 1.419895e+00 2.272107e+00 1.880642e+00 2.105628e+00 2.280031e+00 1.936650e+00 2.018196e+00 1.963827e+00 1.997587e+00 1.559135e+00 2.571761e+00 2.319898e-01 2.408473e-01 2.210669e-01 3.404900e-01 3.085047e-01 3.687871e-01 3.892777e-01 3.406794e-01 3.576038e-01 3.468189e-01 3.398416e-01 2.856025e-01 3.133720e-01
<GCONST> 1.177766e+02
<TRANSP> 5
 0.000000e+00 1.000000e+00 0.000000e+00 0.000000e+00 0.000000e+00
 0.000000e+00 6.000000e-01 4.000000e-01 0.000000e+00 0.000000e+00
 0.000000e+00 0.000000e+00 6.000000e-01 4.000000e-01 0.000000e+00
 0.000000e+00 0.000000e+00 0.000000e+00 7.000000e-01 3.000000e-01
 0.000000e+00 0.000000e+00 0.000000e+00 0.000000e+00 0.000000e+00
<ENDHMM>
~h "ih"
<BEGINHMM>
<NUMSTATES> 5
<STATE> 2
<MEAN> 39
 -8.825019e+00 1.857925e+00 9.174032e+00 -1.638383e+01 -2.094124e+01 -1.058715e+01 -7.640649e+00 -1.218129e+01 -1.069003e+01 5.350946e+00 -9.589305e+00 -8.187842e-02 7.162930e+01 -4.656705e-02 4.104984e-02 1.024635e+00 -1.375606e+00 -1.793596e-01 9.230357e-02 -9.712638e-01 -5.839460e-01 -2.186663e-02 1.039324e-01 -9.047430e-01 2.691837e-01 2.378356e-01 -1.790220e-01 9.202981e-02 -1.974385e-01 3.140310e-01 2.969351e-01 2.999689e-01 2.364227e-01 1.934448e-01 1.631132e-01 -8.742635e-02 2.698902e-02 6.390232e-02 -2.620871e-01
<VARIANCE> 39
 1.680762e+01 1.603915e+01 5.111803e+01 7.187938e+01 4.739649e+01 3.039034e+01 3.969549e+01 3.538218e+01 1.878227e+01 2.749456e+01 2.664805e+01 1.466313e+01 2.183688e+01 1.502380e+00 1.163083e+00 1.871974e+00 3.235306e+00 3.961947e+00 2.572623e+00 2.196331e+00 1.920521e+00 1.743311e+00 2.037624e+00 1.517536e+00 1.057673e+00 1.245893e+00 3.378974e-01 1.397548e-01 2.365315e-01 2.906002e-01 5.140773e-01 4.998119e-01 2.759199e-01 2.359405e-01 3.741114e-01 3.558848e-01 2.707187e-01 1.903618e-01 9.011865e-02
<GCONST> 1.061731e+02
<STATE> 3
<MEAN> 39
 -9.295454e+00 2.234475e+00 9.816919e+00 -9.480947e+00 -1.520394e+01 -4.544468e+00 -4.695062e+00 -9.130237e+00 -4.295096e+00 4.994636e+00 -7.727022e+00 3.889630e+00 5.832734e+01 -3.662975e-01 -3.402252e-01 -1.358302e+00 1.788369e+00 2.022055e-01 1.133240e-01 1.390739e+00 8.451986e-01 3.117982e-01 -7.230034e-02 1.131980e+00 -6.643542e-02 -2.435836e-01 -1.613956e-01 1.348237e-01 -7.517093e-02 2.097125e-02 -4.395721e-02 5.274050e-03 -1.697940e-02 5.041894e-02 -4.579191e-02 -1.196088e-02 1.104971e-01 -6.113221e-02 1.478338e-01
<VARIANCE> 39
 2.422170e+01 3.855835e+01 8.520455e+01 1.138352e+02 2.108219e+01 2.829247e+01 8.103091e+01 4.462167e+01 3.528782e+01 2.934136e+01 7.687068e+01 2.208052e+01 7.920964e+01 3.455398e+00 4.218235e+00 5.446733e+00 4.487527e+00 1.913595e+00 3.048386e+00 5.291537e+00 2.742586e+00 3.425186e+00 3.420576e+00 3.750121e+00 2.320081e+00 9.001992e+00 3.617911e-01 8.917422e-01 9.149367e-01 8.166046e-01 3.377874e-01 6.067248e-01 1.127279e+00 5.236204e-01 5.897559e-01 7.017278e-01 7.043164e-01 4.657958e-01 1.108147e+00
<GCONST> 1.327390e+02
<STATE> 4
<MEAN> 39
 -2.115035e+01 4.107576e+00 -7.178332e+00 7.311193e+00 -1.019734e+01 -2.095301e+00 5.565235e+00 1.374539e+00 -3.906714e+00 1.761941e+00 2.485726e+00 2.798733e+00 6.127600e+01 1.891683e-01 1.498872e-01 2.647021e-01 -1.287270e-01 3.546649e-01 -2.656465e-02 -9.950741e-02 2.358266e-02 1.159495e-01 -1.824982e-01 -2.907049e-02 6.763127e-02 -5.913501e-01 2.222167e-01 -1.611594e-01 1.488654e-01 -3.105309e-02 1.992759e-02 -9.298675e-02 -2.274751e-02 -4.949583e-02 2.339683e-02 1.829627e-02 -3.685616e-02 2.512716e-02 -1.595146e-01
<VARIANCE> 39
 1.334018e+01 5.615974e+00 1.397379e+01 1.415164e+01 1.845703e+01 1.785281e+01 1.538551e+01 2.400096e+01 1.842360e+01 1.534961e+01 1.702111e+01 1.472614e+01 1.859341e+01 1.157707e+00 1.101939e+00 1.252771e+00 1.043502e+00 1.250089e+00 1.706605e+00 1.511337e+00 1.574701e+00 1.607198e+00 1.638774e+00 1.484545e+00 1.345721e+00 5.643896e-01 1.372912e-01 1.658232e-01 1.665230e-01 2.079330e-01 2.243345e-01 2.968959e-01 3.017178e-01 3.188608e-01 3.345099e-01 3.172045e-01 2.996969e-01 2.770158e-01 1.545939e-01
<GCONST> 9.151125e+01
<TRANSP> 5
 0.000000e+00 1.000000e+00 0.000000e+00 0.000000e+00 0.000000e+00
 0.000000e+00 8.894908e-01 1.105092e-01 0.000000e+00 0.000000e+00
 0.000000e+00 0.000000e+00 8.952532e-01 1.047468e-01 0.000000e+00
 0.000000e+00 0.000000e+00 0.000000e+00 9.157567e-01 8.424328e-02
 0.000000e+00 0.000000e+00 0.000000e+00 0.000000e+00 0.000000e+00
<ENDHMM>
~h "iy"
<BEGINHMM>
<NUMSTATES> 5
<STATE> 2
<MEAN> 39
 -1.263589e+01 1.351017e+01 1.307548e+01 -1.852789e+01 -9.506802e+00 -4.885442e+00 -1.280989e+01 -9.473177e+00 -1.015340e+01 -1.682732e+00 -1.469911e+01 -2.939063e+00 6.527595e+01 1.994166e-01 2.524163e-01 -3.061960e-02 1.329755e-01 3.969068e-01 1.927464e-02 4.522450e-02 5.115621e-02 1.669471e-01 -1.647325e-01 7.415612e-02 1.279499e-01 -5.404831e-01 4.411834e-02 -4.257905e-02 -8.360078e-03 9.244150e-02 -4.406779e-03 -1.196888e-02 4.449267e-02 -1.916546e-02 2.417487e-02 1.207356e-02 4.812399e-02 6.688462e-03 -5.005412e-02
<VARIANCE> 39
 9.323906e+00 1.762052e+01 9.522805e+00 1.861802e+01 3.278663e+01 1.848900e+01 3.814465e+01 1.333722e+01 2.193978e+01 1.768396e+01 1.866257e+01 2.249226e+01 2.722963e+01 2.344915e-01 3.106304e-01 3.392985e-01 6.127381e-01 6.111155e-01 5.964996e-01 8.205642e-01 7.376625e-01 7.216691e-01 7.575843e-01 7.593464e-01 6.844643e-01 3.083675e-01 2.954479e-02 5.274475e-02 6.518251e-02 1.125439e-01 1.047493e-01 1.100982e-01 1.400418e-01 1.210072e-01 1.238141e-01 1.221529e-01 1.324565e-01 1.156075e-01 2.656527e-02
<GCONST> 6.984669e+01
<STATE> 3
<MEAN> 39
 -6.344260e+00 1.081801e+01 1.156873e+01 -3.754679e+00 -2.846203e+00 -4.445645e+00 -8.274933e+00 -7.602917e+00 -5.147525e+00 -3.558402e+00 -7.224673e+00 -1.162508e+00 4.902379e+01 5.651238e-02 -9.867789e-01 -3.513502e-01 1.483925e+00 2.316178e-01 1.038956e-01 9.616810e-01 6.067876e-01 5.305349e-01 2.844108e-01 1.017412e+00 2.197451e-01 -1.028080e+00 -4.255281e-02 5.636588e-03 -8.564463e-02 -1.511158e-01 -3.325826e-02 1.225532e-01 6.538843e-02 7.020975e-02 5.152354e-02 1.426957e-01 7.557776e-02 8.754745e-02 3.036572e-02
<VARIANCE> 39
 1.883884e+01 5.123530e+01 1.848412e+01 7.030009e+01 2.841122e+01 3.422080e+01 5.827792e+01 2.554448e+01 2.653688e+01 2.309967e+01 3.034147e+01 2.002040e+01 3.303924e+01 2.055434e+00 2.983377e+00 1.723686e+00 3.597211e+00 1.977823e+00 3.858806e+00 3.553808e+00 2.075738e+00 2.451091e+00 2.478325e+00 2.150920e+00 2.065076e+00 1.653369e+00 4.203367e-01 6.685695e-01 3.584275e-01 7.185207e-01 3.740160e-01 8.224756e-01 6.782435e-01 3.938053e-01 4.383932e-01 4.064380e-01 3.725887e-01 3.533153e-01 3.081177e-01
<GCONST> 1.176418e+02
<STATE> 4
<MEAN> 39
 -7.280949e+00 4.643742e+00 4.153552e+00 2.371322e+00 -2.079170e+00 6.624589e-01 1.727358e+00 -1.290586e+00 -2.827174e-01 3.241477e+00 2.669277e+00 3.522830e+00 4.127392e+01 2.638506e-02 6.083769e-02 -1.964031e-01 -4.159003e-03 6.736992e-02 1.452297e-01 1.302123e-01 8.076011e-02 9.547185e-03 7.659110e-02 7.425903e-02 4.180697e-02 -8.562694e-02 -1.286705e-02 1.190932e-03 3.418941e-02 1.513451e-03 -1.066742e-02 -5.734697e-02 -2.016080e-02 -3.398224e-02 -4.348392e-02 -6.004685e-02 -6.641885e-02 -4.262684e-02 7.290573e-02
<VARIANCE> 39
 1.360304e+01 1.771633e+01 1.722007e+01 2.004174e+01 1.808959e+01 2.147658e+01 2.682337e+01 2.426936e+01 1.981907e+01 2.271838e+01 1.868489e+01 1.616564e+01 1.525879e+01 1.204089e+00 1.225216e+00 1.273978e+00 1.630708e+00 1.377855e+00 2.140329e+00 2.073308e+00 1.817342e+00 1.832466e+00 1.940676e+00 1.753298e+00 1.600724e+00 1.037797e+00 2.312005e-01 2.157198e-01 2.240514e-01 3.005394e-01 2.686966e-01 4.014340e-01 3.949112e-01 3.661739e-01 3.652056e-01 3.791392e-01 3.319928e-01 3.229944e-01 1.777436e-01
<GCONST> 1.000638e+02
<TRANSP> 5
 0.000000e+00 1.000000e+00 0.000000e+00 0.000000e+00 0.000000e+00
 0.000000e+00 9.621891e-01 3.781094e-02 0.000000e+00 0.000000e+00
 0.000000e+00 0.000000e+00 9.089379e-01 9.106215e-02 0.000000e+00
 0.000000e+00 0.000000e+00 0.000000e+00 9.615109e-01 3.848904e-02
 0.000000e+00 0.000000e+00 0.000000e+00 0.000000e+00 0.000000e+00
<ENDHMM>
~h "jh"
<BEGINHMM>
<NUMSTATES> 5
<STATE> 2
<MEAN> 39
 -1.168584e+01 7.581680e+00 7.258981e+00 -1.425743e+00 -7.924659e+00 -4.716938e+00 1.394918e+00 -6.866220e+00 -7.068778e+00 -3.202503e+00 -3.923728e+00 -2.916175e+00 5.740485e+01 -4.220065e-01 -2.272143e-02 3.565094e-01 -6.949889e-01 -9.174668e-01 -6.728650e-01 -2.562405e-01 -4.287264e-01 -3.822273e-01 -2.122335e-01 -2.674741e-01 -3.474782e-01 1.730478e+00 6.165753e-02 -1.018735e-01 -1.670612e-03 -8.976573e-02 -4.971139e-02 2.202486e-02 5.539081e-02 1.302137e-02 8.115434e-02 1.044012e-01 -1.926355e-02 5.706522e-02 -5.578145e-02
<VARIANCE> 39
 1.673862e+02 4.074524e+01 2.907533e+01 3.530347e+01 5.644296e+01 3.967609e+01 3.124770e+01 2.933629e+01 3.074454e+01 2.371716e+01 3.216837e+01 2.349029e+01 1.531396e+02 1.408893e+01 5.618611e+00 3.870436e+00 2.056634e+00 6.349998e+00 3.107940e+00 3.165925e+00 3.154080e+00 3.231232e+00 2.734131e+00 3.342259e+00 2.022741e+00 3.990014e+00 2.087860e+00 1.079469e+00 7.753504e-01 3.486962e-01 9.880099e-01 5.168550e-01 5.958540e-01 4.686476e-01 4.916941e-01 4.859551e-01 4.906206e-01 3.759100e-01 7.087108e-01
<GCONST> 1.315179e+02
<STATE> 3
<MEAN> 39
 -1.033990e+01 1.801518e-01 9.244465e+00 -1.768107e+01 -2.332523e+01 -1.066635e+01 1.591633e+00 -1.054002e+01 -4.828705e+00 -1.636444e+00 -1.183906e+01 -6.645580e+00 7.414968e+01 9.301408e-02 2.105319e-02 1.885424e-01 -5.713432e-01 -1.892020e-02 3.428252e-01 -2.465842e-01 -2.835021e-01 1.742562e-01 2.285965e-01 -4.710774e-01 1.925727e-01 -7.576246e-02 -1.325349e-01 1.711142e-01 -3.045017e-02 8.335928e-02 1.741058e-01 8.401154e-02 -7.195837e-02 8.933617e-02 2.016974e-02 1.462096e-03 1.201757e-01 4.533369e-02 -4.653355e-02
<VARIANCE> 39
 2.436475e+01 2.509126e+01 1.772037e+01 2.690550e+01 2.090522e+01 1.727280e+01 2.860364e+01 2.501771e+01 3.289880e+01 1.285860e+01 1.873120e+01 1.726890e+01 7.655522e+00 3.260790e-01 5.947247e-01 8.313643e-01 8.314914e-01 6.907979e-01 5.853242e-01 1.367137e+00 1.120385e+00 8.480795e-01 8.083225e-01 1.414533e+00 1.355569e+00 1.375003e-01 9.294654e-02 7.408611e-02 1.083332e-01 8.721057e-02 1.420178e-01 1.131327e-01 1.670975e-01 1.914953e-01 1.255526e-01 1.522030e-01 1.413236e-01 2.124364e-01 1.249679e-02
<GCONST> 7.732591e+01
<STATE> 4
<MEAN> 39
 -1.045362e+01 1.026031e+01 1.445768e+01 -1.527823e+01 -1.520398e+01 -4.664970e+00 -7.919024e+00 -1.158653e+01 -1.978185e+00 -1.018579e+00 -7.851480e+00 3.564742e-02 6.468028e+01 1.123975e-01 6.149548e-01 1.797712e-01 5.067309e-01 8.328563e-01 3.799195e-01 -3.686139e-01 8.107505e-02 -7.785346e-03 -2.394876e-01 6.227439e-02 -9.810442e-02 -9.188611e-01 3.432999e-02 -5.542802e-02 -5.134749e-02 4.162599e-02 1.429262e-02 -3.082279e-03 6.474704e-02 4.697333e-02 -4.209088e-03 -2.802778e-02 6.051406e-04 -7.546729e-02 -4.870590e-02
<VARIANCE> 39
 1.277217e+01 2.048387e+01 1.106046e+01 2.402127e+01 3.883665e+01 2.037959e+01 1.819314e+01 1.674735e+01 2.373433e+01 1.470218e+01 1.771005e+01 1.116859e+01 4.630320e+01 3.107394e-01 3.339905e-01 4.262195e-01 1.002704e+00 6.938246e-01 7.559278e-01 8.876587e-01 6.682600e-01 7.708135e-01 6.184006e-01 6.189641e-01 6.865316e-01 2.726664e-01 5.376064e-02 5.281927e-02 6.405722e-02 1.449891e-01 1.183937e-01 1.415992e-01 1.380773e-01 1.207581e-01 1.313464e-01 1.067966e-01 9.358013e-02 1.065081e-01 2.717826e-02
<GCONST> 7.181147e+01
<TRANSP> 5
 0.000000e+00 1.000000e+00 0.000000e+00 0.000000e+00 0.000000e+00
 0.000000e+00 9.434198e-01 5.658022e-02 0.000000e+00 0.000000e+00
 0.000000e+00 0.000000e+00 9.219070e-01 7.809296e-02 0.000000e+00
 0.000000e+00 0.000000e+00 0.000000e+00 9.170118e-01 8.298820e-02
 0.000000e+00 0.000000e+00 0.000000e+00 0.000000e+00 0.000000e+00
<ENDHMM>
~h "ow"
