~o
<STREAMINFO> 1 39
<VECSIZE> 39<NULLD><MFCC_D_A_0><DIAGC>
~s "silst"
<MEAN> 39
 -7.483071e+00 4.345738e+00 2.454421e+00 3.597674e+00 4.736705e-02 5.923823e-02 2.212755e+00 4.695925e-01 5.043489e-01 2.385302e+00 2.724990e+00 4.229475e+00 4.161144e+01 1.317536e-02 9.077801e-02 -2.559559e-02 -5.550370e-03 4.482159e-02 -5.205087e-03 -1.841320e-02 -3.875016e-02 4.506491e-03 2.290938e-03 -7.033395e-02 -2.984286e-02 2.372287e-02 -1.312593e-02 -2.491739e-02 4.815085e-03 -2.806385e-02 -5.149836e-02 -2.878693e-02 1.812016e-02 -2.473040e-02 -5.490244e-02 -2.019577e-02 -3.079922e-02 -4.304319e-02 1.017761e-01
<VARIANCE> 39
 1.505341e+01 2.101276e+01 1.620933e+01 1.712791e+01 1.728310e+01 2.554058e+01 2.679873e+01 2.636354e+01 2.046961e+01 2.193982e+01 2.125896e+01 1.758876e+01 1.727783e+01 1.272266e+00 1.550435e+00 1.421256e+00 1.607300e+00 1.635157e+00 2.436252e+00 2.404296e+00 2.050324e+00 2.025859e+00 2.039205e+00 2.059439e+00 1.744523e+00 1.281376e+00 2.568647e-01 2.942799e-01 2.776038e-01 3.225089e-01 3.330564e-01 4.804823e-01 4.777140e-01 3.986099e-01 3.970061e-01 3.896234e-01 4.013969e-01 3.521980e-01 2.478454e-01
<GCONST> 1.043153e+02
~h "b"
<BEGINHMM>
<NUMSTATES> 5
<STATE> 2
<MEAN> 39
 -5.807248e+00 6.412224e+00 2.665115e+00 3.263459e+00 4.701403e-01 1.580545e+00 1.510096e+00 -3.558738e-01 8.542819e-01 2.162052e+00 2.478645e+00 3.638211e+00 3.900839e+01 -1.328114e-01 5.087722e-02 2.100698e-02 2.183966e-02 4.094950e-02 2.026222e-02 -2.171917e-02 2.613369e-02 1.890712e-02 5.910215e-02 1.321365e-01 4.700538e-03 -2.932592e-02 -3.744970e-02 -4.571273e-02 2.128526e-02 -8.026084e-03 -4.481748e-02 -6.943341e-02 1.958219e-02 -1.282046e-02 -7.151970e-03 1.625607e-02 -2.980149e-02 -1.065343e-02 1.930892e-01
<VARIANCE> 39
 1.056755e+01 9.612453e+00 7.113168e+00 9.396441e+00 1.076758e+01 1.405821e+01 1.518237e+01 2.057763e+01 1.697695e+01 2.045640e+01 2.115033e+01 1.666214e+01 9.881216e+00 9.712646e-01 6.343994e-01 6.769038e-01 8.127640e-01 1.002321e+00 1.267862e+00 1.518182e+00 1.458938e+00 1.449046e+00 1.373885e+00 1.694090e+00 1.503479e+00 4.887441e-01 2.177649e-01 1.513012e-01 1.581715e-01 1.864925e-01 2.076771e-01 2.872898e-01 2.940410e-01 2.956195e-01 2.975338e-01 2.749245e-01 3.396632e-01 3.291309e-01 3.606763e-01
<GCONST> 8.821828e+01
<STATE> 3
<MEAN> 39
 -5.928065e+00 3.985375e+00 3.387349e+00 -6.156550e-02 -3.216222e+00 -5.484832e+00 2.490375e+00 -1.815580e+00 -2.867181e+00 5.598125e-01 -2.433836e+00 1.549915e+00 5.665425e+01 -1.347677e+00 -1.222916e+00 1.089936e+00 -1.262094e+00 -1.879734e+00 -1.629158e+00 -4.351670e-02 -1.543421e-01 -6.082791e-01 3.208529e-01 -6.996720e-01 -5.752088e-01 6.777689e+00 1.531003e-01 5.671609e-02 2.792764e-01 -8.199348e-01 -7.696226e-01 -7.893346e-02 -4.317627e-01 -2.818814e-01 -2.593990e-01 -2.766871e-01 -7.432302e-01 -2.100064e-01 3.881972e-01
<VARIANCE> 39
 3.371098e+01 2.955928e+01 1.904222e+01 4.504064e+01 1.893158e+01 4.880046e+01 2.362268e+01 2.947864e+01 3.035856e+01 3.144760e+01 2.925330e+01 1.664253e+01 1.871029e+02 5.796681e+00 3.752196e+00 6.255831e+00 5.650791e+00 4.222661e+00 4.049313e+00 3.711681e+00 4.590814e+00 3.501712e+00 3.448875e+00 5.652536e+00 2.520475e+00 5.687159e+00 1.237944e+00 5.817396e-01 9.014612e-01 8.332108e-01 5.431581e-01 8.776299e-01 8.466362e-01 6.277383e-01 6.431658e-01 8.093647e-01 5.065656e-01 4.076872e-01 3.477000e+00
<GCONST> 1.332251e+02
<STATE> 4
<MEAN> 39
 -1.120606e+01 6.015540e+00 1.338832e+01 -1.127198e+01 -1.376238e+01 -5.183653e+00 -6.481137e+00 -7.243740e+00 -8.987117e+00 1.213750e+00 -1.012191e+01 -3.509836e+00 7.253771e+01 -9.787268e-01 7.215887e-01 -1.859389e-01 -3.273064e+00 -1.203566e+00 -5.799470e-01 -2.503868e+00 -5.164763e-01 -1.579019e+00 -1.691387e+00 -2.101860e+00 -1.695615e+00 8.847218e-01 3.631419e-01 4.412396e-02 -9.060760e-01 6.369596e-01 8.570628e-01 9.484304e-02 2.180764e-01 3.404632e-01 2.807301e-01 -2.884474e-01 2.052801e-01 -4.153176e-02 -1.344106e+00
<VARIANCE> 39
 1.853311e+01 3.776767e+01 6.595671e+01 5.290903e+01 1.363526e+01 7.615178e+01 6.841854e+01 3.520875e+01 3.085107e+01 5.314305e+01 1.650449e+01 4.002016e+01 3.678936e+01 3.474926e+00 1.752591e+00 6.398365e+00 4.581352e+00 4.420121e+00 3.479602e+00 4.716787e+00 3.931377e+00 4.484820e+00 3.517688e+00 1.615120e+00 1.749215e+00 3.918342e+00 3.570910e-01 3.204872e-01 7.510085e-01 8.649108e-01 3.455546e-01 7.235951e-01 8.488483e-01 6.662111e-01 4.298018e-01 7.284989e-01 3.312950e-01 5.712796e-01 1.148372e+00
<GCONST> 1.273764e+02
<TRANSP> 5
 0.000000e+00 1.000000e+00 0.000000e+00 0.000000e+00 0.000000e+00
 0.000000e+00 9.383476e-01 6.165244e-02 0.000000e+00 0.000000e+00
 0.000000e+00 0.000000e+00 7.210386e-01 2.789614e-01 0.000000e+00
 0.000000e+00 0.000000e+00 0.000000e+00 6.640779e-01 3.359221e-01
 0.000000e+00 0.000000e+00 0.000000e+00 0.000000e+00 0.000000e+00
<ENDHMM>
~h "d"
<BEGINHMM>
<NUMSTATES> 5
<STATE> 2
<MEAN> 39
 -9.174494e+00 4.815706e+00 3.638434e+00 -1.558786e+00 -4.462047e+00 -2.083959e+00 1.984649e+00 -3.595840e+00 -2.439105e+00 1.340038e+00 -1.996501e+00 1.011988e-01 5.222524e+01 -8.291955e-01 -5.785534e-01 -3.770796e-02 -5.841134e-02 -8.969247e-01 -4.051386e-01 6.126936e-01 -3.209116e-01 -6.959232e-01 2.008155e-01 -1.657562e-01 -3.452117e-01 2.315351e+00 2.203198e-01 2.561163e-01 2.903489e-01 -1.983651e-01 -1.426595e-01 -4.674760e-03 -2.402714e-01 -1.177038e-01 -2.054701e-01 -1.500001e-01 -1.665993e-01 -1.027062e-01 -1.990499e-01
<VARIANCE> 39
 4.192845e+01 3.143912e+01 3.949296e+01 4.085754e+01 2.978083e+01 2.786644e+01 5.522758e+01 3.982820e+01 3.058548e+01 3.770985e+01 3.741692e+01 3.181984e+01 1.206939e+02 3.449750e+00 3.956014e+00 5.939768e+00 4.994933e+00 3.609247e+00 3.590803e+00 9.588293e+00 3.551295e+00 3.129430e+00 3.180978e+00 4.216324e+00 3.217627e+00 1.047961e+01 6.578975e-01 5.948613e-01 9.545372e-01 5.974929e-01 6.987672e-01 5.750069e-01 1.294465e+00 7.072036e-01 5.373886e-01 5.559472e-01 6.381568e-01 6.914559e-01 2.663248e+00
<GCONST> 1.353926e+02
<STATE> 3
<MEAN> 39
 -8.258101e+00 3.405658e+00 6.121511e+00 1.874964e-02 -5.612683e+00 -4.453847e+00 3.857628e+00 -2.593812e+00 -3.392908e+00 1.954463e+00 2.241420e-01 1.101176e+00 4.848354e+01 5.353901e-01 1.061685e-01 2.840369e-01 1.698440e-02 4.382640e-01 1.130261e-01 -7.980607e-01 1.801479e-01 3.923836e-01 -8.944384e-02 9.591511e-02 3.907540e-01 -1.390231e+00 -2.967915e-02 4.874190e-02 -2.576298e-01 -5.116906e-02 1.469148e-01 2.008397e-01 -4.912557e-02 9.132890e-02 1.605250e-01 1.662060e-01 7.982824e-02 -2.201989e-03 -6.431144e-02
<VARIANCE> 39
 3.011611e+01 2.200226e+01 2.935606e+01 5.091380e+01 2.859434e+01 2.747363e+01 4.948046e+01 2.803252e+01 2.951616e+01 2.426419e+01 2.394330e+01 2.087065e+01 6.256188e+01 2.859609e+00 2.090065e+00 3.157991e+00 2.549080e+00 1.979110e+00 2.988940e+00 2.666406e+00 2.361082e+00 2.420153e+00 2.372886e+00 1.691003e+00 1.691049e+00 3.424823e+00 5.898618e-01 5.116993e-01 5.806599e-01 4.563546e-01 5.096472e-01 6.955804e-01 7.229822e-01 4.370953e-01 4.970760e-01 4.335341e-01 3.487570e-01 3.022542e-01 7.311168e-01
<GCONST> 1.190164e+02
<STATE> 4
<MEAN> 39
 -6.695242e+00 4.686206e+00 4.031878e+00 2.425276e+00 -1.582777e+00 -4.287908e-01 2.025547e+00 4.372567e-03 2.648555e-03 3.654972e+00 3.005370e+00 3.601458e+00 4.053156e+01 6.704317e-02 1.647152e-01 -7.141616e-02 6.919850e-03 6.024320e-02 5.449582e-02 -6.813881e-02 8.042174e-03 -4.686769e-02 -5.067429e-02 -5.923785e-03 -5.069732e-02 -1.372687e-01 -2.942048e-04 -8.457039e-03 8.185165e-03 1.069807e-02 -1.396722e-02 -4.138183e-02 1.116695e-02 -4.528893e-02 -4.344722e-02 -6.529899e-02 -6.416795e-02 -2.760747e-02 6.828567e-02
<VARIANCE> 39
 7.684279e+00 1.592102e+01 1.141478e+01 1.510869e+01 1.701365e+01 1.786098e+01 2.735254e+01 2.738144e+01 1.977424e+01 2.039119e+01 1.720257e+01 1.623296e+01 2.298746e+01 4.298769e-01 6.369664e-01 6.089334e-01 7.981575e-01 1.265638e+00 1.467735e+00 1.511068e+00 1.420370e+00 1.658921e+00 1.970333e+00 1.486229e+00 1.390723e+00 3.037710e-01 1.059068e-01 1.065287e-01 1.416848e-01 1.504340e-01 2.590267e-01 2.662380e-01 3.040121e-01 2.864929e-01 3.131724e-01 3.713376e-01 3.184247e-01 2.819702e-01 6.486221e-02
<GCONST> 8.807595e+01
<TRANSP> 5
 0.000000e+00 1.000000e+00 0.000000e+00 0.000000e+00 0.000000e+00
 0.000000e+00 8.283293e-01 1.716707e-01 0.000000e+00 0.000000e+00
 0.000000e+00 0.000000e+00 8.140499e-01 1.859501e-01 0.000000e+00
 0.000000e+00 0.000000e+00 0.000000e+00 9.460714e-01 5.392854e-02
 0.000000e+00 0.000000e+00 0.000000e+00 0.000000e+00 0.000000e+00
<ENDHMM>
~h "f"
<BEGINHMM>
<NUMSTATES> 5
<STATE> 2
<MEAN> 39
 -1.504175e+01 2.912905e+00 -2.561160e+00 5.843994e+00 -1.692802e+00 2.383462e-01 3.570524e+00 8.009612e-01 -1.629223e+00 2.632004e+00 -2.568094e-01 2.386285e+00 5.636656e+01 -7.144848e-01 -9.244467e-02 -1.776937e-01 9.684283e-02 -1.651334e-01 -4.214317e-02 8.885583e-02 3.819073e-02 -1.108751e-01 1.258748e-01 -3.978236e-02 1.586083e-02 8.405045e-01 1.091337e-01 2.756044e-02 3.306833e-02 -5.989572e-02 1.595781e-02 -1.044470e-02 -2.834105e-02 -2.052355e-02 8.193907e-03 -3.776146e-02 1.442151e-02 -7.947078e-04 -5.607606e-02
<VARIANCE> 39
 4.179490e+01 1.333141e+01 1.419179e+01 1.250261e+01 1.530933e+01 1.675747e+01 1.553404e+01 1.894180e+01 1.803745e+01 1.765738e+01 1.889505e+01 1.456802e+01 6.300557e+01 1.885252e+00 1.081400e+00 1.148840e+00 1.266113e+00 1.376328e+00 1.542827e+00 1.527765e+00 1.703485e+00 1.651013e+00 1.645181e+00 1.545955e+00 1.364238e+00 2.304811e+00 3.111870e-01 2.267407e-01 2.146828e-01 2.648642e-01 2.756804e-01 3.045276e-01 3.006161e-01 3.519042e-01 3.453137e-01 3.427899e-01 3.084080e-01 2.799186e-01 2.552965e-01
<GCONST> 9.912088e+01
<STATE> 3
<MEAN> 39
 -1.609804e+01 2.675001e+00 -3.492061e+00 4.334082e+00 -2.940569e+00 -9.115198e-01 3.675289e+00 4.473981e-01 -3.046762e+00 2.400939e+00 -7.401088e-01 2.307366e+00 6.343126e+01 3.417540e+00 -7.487673e-02 -8.836385e-01 -3.026180e+00 -4.658000e-01 -1.939276e-01 -6.117685e-01 -7.309229e-01 -7.127844e-01 -1.237754e+00 -9.341671e-01 -8.057007e-01 1.491775e+00 8.426393e-01 -2.458454e-01 -5.877740e-01 -1.351842e+00 -3.535501e-01 8.056908e-02 -2.616928e-01 -3.067616e-01 -1.866813e-01 -4.346779e-01 -3.206345e-01 -3.157035e-01 2.812311e-01
<VARIANCE> 39
 3.132709e+01 1.611344e+01 1.205297e+01 1.340242e+01 1.269982e+01 1.518095e+01 1.510371e+01 1.471688e+01 1.497091e+01 1.389740e+01 1.371929e+01 1.288771e+01 2.558094e+01 4.397956e+00 1.933820e+00 2.273314e+00 7.522340e+00 2.368103e+00 1.703900e+00 1.976269e+00 2.136695e+00 1.800066e+00 1.970679e+00 1.649084e+00 1.971536e+00 2.193524e+00 5.692356e-01 4.372629e-01 2.971340e-01 5.022641e-01 4.025376e-01 3.938204e-01 3.736783e-01 3.896556e-01 3.089241e-01 3.032986e-01 2.472378e-01 3.346740e-01 2.271473e-01
<GCONST> 1.050490e+02
<STATE> 4
<MEAN> 39
 -4.107866e-01 -1.016612e+00 -1.203746e+01 -1.711607e+01 -8.269330e+00 -1.219682e+00 -3.988045e-01 -4.560036e+00 -6.986065e+00 -5.454744e+00 -6.543660e+00 -2.981462e+00 7.157298e+01 1.283439e+00 -1.229573e+00 -1.459198e+00 -2.851801e+00 -6.174777e-01 -5.257560e-02 -9.544381e-01 -1.051373e+00 -6.231446e-01 -1.227080e+00 -1.015051e+00 -1.045870e+00 1.276709e+00 -9.480058e-01 1.068866e-01 4.297771e-01 1.215300e+00 3.034342e-01 -6.947273e-02 7.114912e-02 1.599929e-01 1.332306e-01 3.745418e-01 1.864408e-01 1.786991e-01 -4.357339e-01
<VARIANCE> 39
 1.243228e+01 6.406994e+01 2.273457e+01 5.048613e+01 3.726064e+01 4.453489e+01 2.281261e+01 2.826829e+01 2.210458e+01 2.085183e+01 1.813837e+01 2.316318e+01 3.375322e+01 4.755879e+00 3.719383e+00 2.299107e+00 9.637972e+00 2.833458e+00 2.957660e+00 2.075913e+00 2.245186e+00 1.943670e+00 2.455227e+00 1.585456e+00 1.919037e+00 2.554807e+00 5.246013e-01 4.880322e-01 2.958837e-01 7.901063e-01 2.586156e-01 3.858594e-01 3.622822e-01 3.511611e-01 3.609031e-01 3.772924e-01 2.851183e-01 3.873163e-01 2.549579e-01
<GCONST> 1.154826e+02
<TRANSP> 5
 0.000000e+00 1.000000e+00 0.000000e+00 0.000000e+00 0.000000e+00
 0.000000e+00 9.391810e-01 6.081897e-02 0.000000e+00 0.000000e+00
 0.000000e+00 0.000000e+00 7.080873e-01 2.919127e-01 0.000000e+00
 0.000000e+00 0.000000e+00 0.000000e+00 7.621689e-01 2.378311e-01
 0.000000e+00 0.000000e+00 0.000000e+00 0.000000e+00 0.000000e+00
<ENDHMM>
~h "k"
<BEGINHMM>
<NUMSTATES> 5
<STATE> 2
<MEAN> 39
 -1.168949e+01 -3.003463e-01 9.501469e-01 4.083755e+00 -5.566415e+00 -3.569683e+00 6.042719e+00 1.881680e-01 -9.620615e-01 1.102381e+00 1.675548e+00 3.978906e+00 5.050523e+01 -3.349966e-01 -4.096215e-01 4.597359e-01 1.190477e-01 -7.458163e-02 -5.394343e-01 1.423682e-01 2.285497e-01 2.565097e-01 8.670430e-02 -1.178247e-02 1.820272e-01 6.061302e-01 -2.555165e-02 2.648813e-01 -8.924495e-02 -9.759258e-02 2.140287e-02 1.459330e-01 -1.376775e-01 -8.675547e-03 4.618900e-03 1.212260e-03 3.759078e-02 -4.829884e-02 1.590125e-02
<VARIANCE> 39
 3.293979e+01 4.415625e+01 3.128538e+01 5.139309e+01 3.683738e+01 4.655581e+01 4.206117e+01 3.883788e+01 3.246304e+01 3.197427e+01 2.909948e+01 1.875414e+01 8.016582e+01 5.482789e+00 4.218764e+00 2.805951e+00 5.051780e+00 3.532525e+00 5.109482e+00 4.358814e+00 3.187626e+00 2.788069e+00 2.890367e+00 3.026194e+00 2.216872e+00 1.056598e+01 6.990802e-01 8.460678e-01 4.539469e-01 8.280927e-01 6.710955e-01 1.165114e+00 9.232077e-01 6.584247e-01 5.657885e-01 6.179592e-01 6.258047e-01 4.593943e-01 1.368927e+00
<GCONST> 1.322534e+02
<STATE> 3
<MEAN> 39
 -1.441405e+01 2.954906e+00 1.954155e+00 2.775367e+00 -5.802280e+00 -3.523430e+00 4.347414e+00 -1.432298e-01 -5.605814e-01 6.285247e-01 1.393615e+00 3.815223e+00 5.493296e+01 5.964705e-01 5.932046e-01 3.848502e-01 -1.322019e-01 3.938723e-01 4.837617e-01 -4.071503e-01 -8.754548e-02 1.503464e-01 1.408161e-01 3.069606e-01 5.833090e-03 -1.036546e+00 1.104296e-02 -1.432807e-02 -1.204096e-01 -4.910382e-02 1.743346e-02 6.756624e-02 -3.701941e-02 -8.025145e-02 -6.562532e-02 5.572815e-02 -4.103322e-02 -4.202360e-02 -6.338216e-02
<VARIANCE> 39
 4.599857e+01 1.516051e+01 3.534648e+01 6.448949e+01 2.433410e+01 2.326457e+01 2.795363e+01 3.505000e+01 3.030700e+01 2.056176e+01 2.701382e+01 1.525447e+01 1.411476e+02 1.777426e+00 2.063783e+00 1.682863e+00 1.356004e+00 1.394107e+00 2.219016e+00 2.274202e+00 1.945122e+00 2.437357e+00 2.270846e+00 2.081926e+00 1.343778e+00 2.306023e+00 2.991684e-01 4.021493e-01 3.211056e-01 2.891506e-01 3.060214e-01 4.482649e-01 4.669653e-01 4.135785e-01 5.387591e-01 4.589036e-01 4.528992e-01 2.949159e-01 3.573284e-01
<GCONST> 1.123396e+02
<STATE> 4
<MEAN> 39
 -7.139485e+00 4.156976e+00 3.006525e+00 4.204358e+00 -1.133837e+00 -2.629857e-01 3.924911e+00 3.694024e-01 -6.594392e-01 2.814344e+00 3.797721e+00 4.672605e+00 4.030201e+01 9.572951e-02 1.309778e-01 -1.769490e-02 -1.003537e-01 7.021315e-02 1.638587e-01 -1.391040e-01 -9.096608e-02 1.941095e-02 4.494130e-02 -6.154018e-02 -4.432000e-02 -1.574551e-01 -3.119417e-02 -2.497038e-02 -2.528672e-03 1.612612e-02 -2.792603e-02 -3.688768e-02 1.113308e-02 1.810233e-02 -9.213297e-03 -2.558058e-02 -2.513173e-02 -6.124130e-03 6.379759e-02
<VARIANCE> 39
 8.780158e+00 1.150038e+01 9.768946e+00 1.074899e+01 1.101105e+01 2.228392e+01 2.536677e+01 1.890837e+01 1.920607e+01 1.633963e+01 1.584095e+01 1.447260e+01 1.842427e+01 4.517643e-01 5.833291e-01 6.311561e-01 7.884331e-01 9.732921e-01 1.422610e+00 1.741190e+00 1.480345e+00 1.674672e+00 1.603968e+00 1.463655e+00 1.367093e+00 3.143593e-01 9.354889e-02 1.141157e-01 1.259603e-01 1.578717e-01 2.055646e-01 2.733999e-01 3.373320e-01 2.861968e-01 3.195279e-01 3.276170e-01 2.943601e-01 2.712101e-01 7.075299e-02
<GCONST> 8.537716e+01
<TRANSP> 5
 0.000000e+00 1.000000e+00 0.000000e+00 0.000000e+00 0.000000e+00
 0.000000e+00 8.053924e-01 1.946076e-01 0.000000e+00 0.000000e+00
 0.000000e+00 0.000000e+00 8.203481e-01 1.796518e-01 0.000000e+00
 0.000000e+00 0.000000e+00 0.000000e+00 9.382581e-01 6.174193e-02
 0.000000e+00 0.000000e+00 0.000000e+00 0.000000e+00 0.000000e+00
<ENDHMM>
~h "l"
<BEGINHMM>
<NUMSTATES> 5
<STATE> 2
<MEAN> 39
 -1.046546e+00 9.537472e-01 4.446784e+00 -5.067997e+00 -8.662647e+00 -8.155486e+00 1.996903e+00 -3.307225e+00 -5.254179e+00 -2.164660e+00 -7.837431e+00 -3.013868e-01 6.625957e+01 -1.328680e+00 4.256071e-01 1.781729e+00 2.161511e-01 -1.870034e+00 1.539787e-01 5.304034e-01 -1.422446e+00 -2.067570e+00 8.222449e-01 5.717655e-01 -8.934993e-02 1.433833e+00 -1.952542e-01 -5.791806e-02 1.296309e-01 -4.595675e-01 -3.012334e-01 7.935081e-02 -2.555456e-01 -6.152183e-01 4.792302e-02 1.237082e-01 -3.140244e-01 -2.148878e-01 5.681442e-02
<VARIANCE> 39
 1.621480e+01 2.349677e+01 8.245309e+01 9.418716e+01 5.475949e+01 3.466798e+01 2.589680e+01 3.232778e+01 5.533154e+01 3.380196e+01 2.722866e+01 2.162049e+01 4.535723e+01 1.037754e+00 1.691176e+00 4.418697e+00 5.972495e+00 4.984098e+00 2.650919e+00 3.075053e+00 6.101525e+00 3.084800e+00 2.904448e+00 3.913868e+00 2.377262e+00 2.798513e+00 1.404760e-01 2.215863e-01 6.937703e-01 1.046058e+00 7.428937e-01 5.839357e-01 6.886751e-01 6.621761e-01 8.075120e-01 5.158243e-01 1.121636e+00 4.442381e-01 1.068205e+00
<GCONST> 1.264664e+02
<STATE> 3
<MEAN> 39
 -6.074754e+00 -3.919080e+00 3.884432e+00 -1.426023e+01 -1.912400e+01 -6.124207e+00 6.680452e+00 -9.461827e+00 -5.323821e+00 -5.598484e+00 -1.027386e+01 -6.561203e+00 7.342064e+01 -6.094813e-03 -1.348418e-01 -4.103738e-01 2.956313e-02 8.841879e-01 3.889271e-01 -1.857181e-01 -4.925259e-01 3.700739e-01 -1.958549e-01 -2.650791e-01 1.453371e-01 -2.038386e-01 7.368331e-02 2.066349e-02 -1.407622e-01 2.925780e-02 2.425513e-01 4.691216e-02 -1.279612e-02 7.724325e-02 1.508576e-01 -2.697244e-02 6.037774e-02 8.612837e-02 -6.646176e-02
<VARIANCE> 39
 1.000727e+01 2.573986e+01 5.754276e+01 3.593081e+01 7.954581e+01 2.449347e+01 3.188639e+01 2.546688e+01 3.008201e+01 4.670912e+01 3.570929e+01 2.241650e+01 2.255412e+01 6.843277e-01 7.341139e-01 1.045656e+00 2.305854e+00 2.733132e+00 1.180125e+00 2.071473e+00 2.797290e+00 1.356500e+00 1.716853e+00 3.215460e+00 1.206848e+00 1.764823e-01 6.973425e-02 9.114108e-02 1.883245e-01 2.055340e-01 4.029533e-01 1.770646e-01 2.520946e-01 4.269873e-01 2.375427e-01 2.845725e-01 3.553811e-01 1.901733e-01 4.278556e-02
<GCONST> 9.805312e+01
<STATE> 4
<MEAN> 39
 -8.872215e-01 2.280421e-01 -6.734053e+00 -1.005322e+01 2.908739e+00 2.414938e+00 6.748199e+00 -1.013383e+01 -3.335738e+00 -4.744873e+00 -5.426952e+00 -1.097612e+00 5.731760e+01 -8.109730e-02 5.076599e-01 2.851414e-01 2.962575e-01 1.945758e-02 2.391757e-01 -4.632834e-02 2.070348e-01 -4.547523e-02 4.140811e-01 2.073961e-01 1.710777e-01 -1.015411e+00 -1.745468e-02 -6.212359e-03 5.156185e-02 6.219110e-02 -4.923486e-02 -6.378885e-02 -6.355165e-03 1.146753e-01 1.058213e-02 -3.575327e-02 2.962102e-02 3.521672e-02 1.134811e-03
<VARIANCE> 39
 1.919402e+01 4.297285e+01 3.974422e+01 4.606548e+01 4.096215e+01 2.718691e+01 2.277689e+01 4.958228e+01 3.710487e+01 2.932874e+01 3.302512e+01 2.194358e+01 1.263754e+02 6.954424e-01 8.792732e-01 9.929752e-01 1.811155e+00 1.589708e+00 1.176557e+00 1.793779e+00 2.050536e+00 2.210552e+00 1.541108e+00 2.114181e+00 1.540550e+00 4.197081e-01 9.846113e-02 9.934824e-02 1.694926e-01 2.285754e-01 2.767128e-01 1.687087e-01 2.982100e-01 3.464335e-01 3.539327e-01 3.057028e-01 3.592827e-01 2.842451e-01 6.516289e-02
<GCONST> 1.014803e+02
<TRANSP> 5
 0.000000e+00 1.000000e+00 0.000000e+00 0.000000e+00 0.000000e+00
 0.000000e+00 7.449834e-01 2.550166e-01 0.000000e+00 0.000000e+00
 0.000000e+00 0.000000e+00 8.173528e-01 1.826472e-01 0.000000e+00
 0.000000e+00 0.000000e+00 0.000000e+00 9.253538e-01 7.464613e-02
 0.000000e+00 0.000000e+00 0.000000e+00 0.000000e+00 0.000000e+00
<ENDHMM>
~h "m"
<BEGINHMM>
<NUMSTATES> 5
<STATE> 2
<MEAN> 39
 -1.755966e+00 -1.201791e+01 -1.001133e+00 -4.642905e+00 -9.628311e+00 -3.912457e+00 1.135931e+00 -5.724948e+00 -1.267127e+01 -1.434704e+01 -9.119816e+00 -6.853823e-01 7.052963e+01 3.069407e-01 5.677368e-01 1.574497e-01 2.398833e-01 4.096816e-01 -3.088981e-01 -4.760680e-01 1.704310e-01 5.490703e-01 1.231614e-01 2.966747e-01 -5.070915e-02 -6.261784e-01 -5.272453e-02 8.700353e-03 1.548895e-02 -1.604818e-03 3.005375e-02 -9.871965e-03 2.900859e-02 -1.779114e-02 5.809287e-03 5.580564e-02 2.330597e-02 5.042117e-02 -8.905090e-03
<VARIANCE> 39
 8.253712e+00 1.740233e+01 4.952045e+00 6.366189e+00 1.784490e+01 2.443301e+01 2.676736e+01 3.297153e+01 4.669469e+01 8.994769e+00 2.366426e+01 1.884648e+01 2.433855e+01 3.677254e-01 7.737539e-01 3.154353e-01 4.604075e-01 8.320073e-01 7.180939e-01 1.718160e+00 1.702279e+00 1.170962e+00 8.897160e-01 1.822947e+00 1.341615e+00 6.999491e-01 6.789160e-02 7.750779e-02 7.555935e-02 8.919678e-02 1.141495e-01 1.753413e-01 3.162203e-01 2.537387e-01 1.894262e-01 1.932222e-01 3.919257e-01 2.779198e-01 7.181988e-02
<GCONST> 8.139935e+01
<STATE> 3
<MEAN> 39
 1.226729e+00 4.610165e+00 2.218276e+00 3.138324e+00 2.452810e-01 -6.324429e+00 -5.668440e+00 -1.109659e+01 -3.293138e+00 -1.022273e+01 -4.162008e+00 -1.101467e+00 5.258028e+01 -1.708584e-01 5.540020e-01 1.635274e-01 3.442595e-01 2.004519e-01 5.464302e-01 1.748025e-01 9.102598e-02 -2.837575e-01 3.662546e-01 -2.162280e-01 2.783080e-01 -8.994028e-01 -4.497515e-02 -1.047602e-01 -4.236873e-02 -6.514099e-02 -4.840671e-02 7.042313e-02 1.237684e-01 1.428044e-01 5.358201e-02 5.147840e-02 2.436128e-02 3.677306e-02 2.158419e-02
<VARIANCE> 39
 4.531461e+00 1.538382e+01 1.153471e+01 1.102697e+01 1.537323e+01 2.975176e+01 2.087266e+01 2.549263e+01 1.958595e+01 1.266216e+01 2.601050e+01 2.307932e+01 3.843367e+01 3.722714e-01 4.069928e-01 5.183175e-01 5.965942e-01 6.598747e-01 1.097568e+00 1.319762e+00 1.520634e+00 1.263321e+00 1.510071e+00 1.344538e+00 1.504616e+00 2.044867e-01 5.808209e-02 6.450874e-02 9.444434e-02 1.094400e-01 1.300744e-01 2.102201e-01 2.526600e-01 1.680262e-01 2.374815e-01 2.577203e-01 2.324666e-01 2.520703e-01 3.424831e-02
<GCONST> 7.988358e+01
<STATE> 4
<MEAN> 39
 -5.725350e+00 4.817905e+00 1.038077e+00 2.975527e+00 1.200058e+00 1.950567e+00 2.314568e+00 6.913220e-01 1.530018e-01 1.407287e+00 2.063944e+00 4.365525e+00 3.952856e+01 -1.492890e-01 -1.208047e-01 -6.650434e-02 -8.373810e-02 -8.284573e-02 5.394862e-02 1.519078e-01 1.629594e-01 1.961953e-01 3.185150e-01 2.931380e-01 1.963210e-01 -1.090071e-01 4.010882e-02 2.386807e-02 3.320565e-02 1.663939e-02 -2.031500e-03 -4.723084e-02 -5.448453e-02 -5.493245e-02 -4.191700e-02 -6.626306e-02 -4.833592e-02 -4.300126e-02 2.737897e-02
<VARIANCE> 39
 4.765147e+00 8.343205e+00 1.038609e+01 8.810866e+00 9.177466e+00 1.549116e+01 1.484175e+01 2.231359e+01 1.650347e+01 1.574843e+01 1.999233e+01 1.604111e+01 9.275296e+00 3.032299e-01 5.238277e-01 6.989739e-01 6.611881e-01 8.618624e-01 1.373717e+00 1.356578e+00 1.661477e+00 1.830323e+00 1.530960e+00 1.780106e+00 1.641666e+00 2.751454e-01 5.752022e-02 9.350365e-02 1.315263e-01 1.211307e-01 1.653660e-01 2.978655e-01 2.647580e-01 3.060710e-01 3.636196e-01 2.498550e-01 3.395261e-01 3.120443e-01 4.737146e-02
<GCONST> 8.079492e+01
<TRANSP> 5
 0.000000e+00 1.000000e+00 0.000000e+00 0.000000e+00 0.000000e+00
 0.000000e+00 8.722982e-01 1.277018e-01 0.000000e+00 0.000000e+00
 0.000000e+00 0.000000e+00 9.496089e-01 5.039110e-02 0.000000e+00
 0.000000e+00 0.000000e+00 0.000000e+00 9.599487e-01 4.005131e-02
 0.000000e+00 0.000000e+00 0.000000e+00 0.000000e+00 0.000000e+00
<ENDHMM>
~h "n"
<BEGINHMM>
<NUMSTATES> 5
<STATE> 2
<MEAN> 39
 -3.277867e+00 1.130805e+00 1.464042e+00 -7.322295e+00 -4.774609e+00 -1.340234e+01 -4.941751e+00 -2.593194e+00 -1.236142e+01 -1.410842e+01 -1.297767e+01 -1.167702e+00 6.269180e+01 2.705463e-01 4.094643e-01 3.701420e-01 4.725439e-01 1.280177e-01 -1.183880e-01 -1.004610e-01 -1.935768e-01 -4.339479e-01 -3.864518e-01 -6.058605e-02 -8.339530e-02 -7.908672e-01 -1.192672e-02 1.870813e-02 -1.606486e-02 7.736073e-02 1.575018e-02 8.933787e-02 -2.061448e-02 -3.865164e-02 4.596382e-02 9.007105e-02 5.911439e-02 -7.443946e-03 -8.393082e-02
<VARIANCE> 39
 8.516313e+00 3.428408e+01 4.065945e+01 4.279264e+01 2.924773e+01 5.957378e+01 5.439836e+01 4.606293e+01 7.043829e+01 3.840367e+01 5.781174e+01 2.626363e+01 8.503620e+01 5.481400e-01 6.898543e-01 7.710896e-01 1.399040e+00 1.584232e+00 1.610743e+00 1.676768e+00 1.909211e+00 2.220824e+00 1.820859e+00 1.668479e+00 1.260015e+00 1.360885e+00 7.824653e-02 9.867396e-02 1.180495e-01 1.980902e-01 2.477429e-01 2.510025e-01 2.556984e-01 2.889304e-01 3.363997e-01 2.473878e-01 2.577202e-01 2.356050e-01 1.089007e-01
<GCONST> 1.019207e+02
<STATE> 3
<MEAN> 39
 -1.929191e+00 4.218284e+00 4.227262e+00 -2.066363e+00 -4.674238e+00 -9.684716e+00 -4.372633e+00 -5.001631e+00 -9.182044e+00 -1.316365e+01 -1.048383e+01 -1.164169e+00 5.444239e+01 -2.935212e-01 -1.047441e+00 -7.586048e-01 -1.011660e-01 4.862457e-01 5.057247e-01 6.165189e-01 6.931096e-01 2.053169e-01 3.643607e-01 4.887463e-01 3.528770e-01 4.416756e-01 -1.651806e-01 -1.891155e-01 -1.113797e-01 -4.836063e-02 1.244157e-01 2.156292e-01 1.379409e-01 9.250203e-02 1.534486e-01 2.278439e-01 2.016289e-01 1.061105e-01 1.470434e-02
<VARIANCE> 39
 1.266973e+01 4.102376e+01 3.079070e+01 2.477177e+01 3.688179e+01 6.243427e+01 5.145731e+01 4.465948e+01 5.011265e+01 4.386490e+01 3.630174e+01 2.458857e+01 1.057184e+02 1.395806e+00 2.922564e+00 1.858399e+00 2.613801e+00 3.564380e+00 4.272978e+00 3.732618e+00 3.459658e+00 6.005958e+00 4.739403e+00 4.427024e+00 2.563868e+00 5.500462e+00 2.434660e-01 4.304731e-01 3.220840e-01 4.091898e-01 5.275808e-01 5.445110e-01 6.166369e-01 6.848370e-01 9.802648e-01 5.167850e-01 4.554666e-01 4.211259e-01 3.725091e-01
<GCONST> 1.252399e+02
<STATE> 4
<MEAN> 39
 -6.263812e+00 2.664602e+00 3.312667e+00 1.938250e+00 -1.300571e+00 -1.183638e-01 1.926245e+00 -1.025431e+00 -2.114269e+00 1.310287e+00 1.754545e+00 3.401690e+00 4.271570e+01 -6.835142e-02 8.839602e-05 -9.137602e-02 8.672748e-02 3.761471e-02 1.449746e-01 9.491933e-02 8.097392e-02 2.464266e-01 2.570813e-01 2.416634e-01 9.214342e-02 -1.470634e-01 8.584525e-03 3.473002e-02 2.364908e-02 -2.167080e-03 -1.684658e-02 -4.823538e-02 -4.162757e-02 -3.240604e-02 -3.723485e-02 -6.018993e-02 -6.767550e-02 -3.396528e-02 4.512705e-02
<VARIANCE> 39
 7.758224e+00 2.569164e+01 1.228735e+01 1.507683e+01 1.571093e+01 2.111676e+01 2.230208e+01 2.357382e+01 2.716206e+01 3.151697e+01 2.586294e+01 1.726454e+01 3.549243e+01 5.283765e-01 8.545433e-01 6.896666e-01 9.395308e-01 1.093629e+00 1.560915e+00 1.716648e+00 1.657999e+00 1.888363e+00 1.906849e+00 1.670207e+00 1.479450e+00 6.467592e-01 1.040904e-01 1.488361e-01 1.315528e-01 1.873482e-01 2.196332e-01 3.062061e-01 3.287769e-01 3.307508e-01 3.852054e-01 3.593492e-01 3.239742e-01 3.007586e-01 1.269235e-01
<GCONST> 9.362917e+01
<TRANSP> 5
 0.000000e+00 1.000000e+00 0.000000e+00 0.000000e+00 0.000000e+00
 0.000000e+00 8.743826e-01 1.256175e-01 0.000000e+00 0.000000e+00
 0.000000e+00 0.000000e+00 8.252487e-01 1.747513e-01 0.000000e+00
 0.000000e+00 0.000000e+00 0.000000e+00 9.468666e-01 5.313342e-02
 0.000000e+00 0.000000e+00 0.000000e+00 0.000000e+00 0.000000e+00
<ENDHMM>
~h "p"
<BEGINHMM>
<NUMSTATES> 5
<STATE> 2
<MEAN> 39
 -1.326752e+01 6.905225e+00 5.246666e+00 -1.861942e+00 -1.286865e+00 -2.001500e-01 3.086105e+00 -1.816210e+00 1.609155e-01 3.716163e+00 -9.502127e-01 1.785030e+00 6.435417e+01 -7.024289e-01 4.642959e-01 5.424138e-02 -8.521285e-01 -1.325260e-01 -5.268038e-01 -2.881682e-01 -5.168300e-01 -5.299723e-01 -4.963158e-01 -7.141130e-01 -4.204262e-01 2.141610e+00 1.057116e-01 1.019707e-01 1.390572e-01 -1.814043e-01 -2.437610e-01 8.013612e-03 -3.007382e-01 -1.488858e-01 -2.473344e-01 -8.823498e-02 -2.328851e-01 -1.077574e-01 -1.147802e-01
<VARIANCE> 39
 5.439871e+01 1.207455e+01 2.847344e+01 3.142719e+01 2.203165e+01 2.393835e+01 1.669175e+01 2.117177e+01 1.672766e+01 1.336691e+01 2.119579e+01 1.515693e+01 2.097057e+02 3.590741e+00 1.146146e+00 4.932294e+00 2.463665e+00 4.118688e+00 2.627562e+00 2.911932e+00 3.211900e+00 2.637557e+00 1.714013e+00 3.595285e+00 1.801615e+00 2.116127e+01 6.071198e-01 1.969016e-01 1.158540e+00 5.230636e-01 1.037350e+00 5.731862e-01 5.178601e-01 6.993452e-01 4.849161e-01 2.678832e-01 8.764443e-01 3.940357e-01 3.816671e+00
<GCONST> 1.226580e+02
<STATE> 3
<MEAN> 39
 -1.277430e+01 1.286225e+01 7.764340e+00 -1.342868e+01 -1.011790e+01 -4.571937e+00 -1.097321e+01 -9.271144e+00 -1.333187e+01 -3.075324e+00 -1.329855e+01 -4.785821e+00 6.852538e+01 6.860868e-01 -3.441148e-02 2.049489e+00 -2.751792e+00 -3.583264e+00 9.609439e-01 -4.146485e+00 -9.401871e-01 -3.284597e+00 4.567475e-01 -3.019111e+00 -1.407310e+00 8.880892e-01 -6.937765e-01 -3.672792e-01 -2.786556e-01 1.420000e-01 6.807992e-01 3.043565e-01 5.865998e-01 5.992262e-01 6.034601e-01 5.759088e-01 6.071566e-01 1.774275e-01 2.954717e-01
<VARIANCE> 39
 2.893246e+00 5.859257e+00 1.111916e+01 2.051904e+01 3.483652e+01 2.070875e+01 3.369241e+01 1.071075e+01 2.133071e+01 1.576948e+01 1.710580e+01 7.026256e+00 1.882519e+01 1.643978e+00 8.066871e-01 9.385856e-01 6.581359e-01 2.719649e+00 1.526141e+00 2.770652e+00 1.923451e+00 2.094400e+00 1.865577e+00 2.140545e+00 4.932756e-01 3.419318e-01 6.693406e-02 1.246310e-01 2.475635e-01 3.866431e-01 8.365158e-01 2.259235e-01 6.929361e-01 2.413761e-01 5.168140e-01 3.493981e-01 3.343535e-01 1.225912e-01 1.595306e-01
<GCONST> 9.186229e+01
<STATE> 4
<MEAN> 39
 -1.638961e+01 1.206086e+01 1.018379e+01 -2.026763e+01 -1.263650e+01 -6.327949e-01 -1.667913e+01 -8.788284e+00 -1.721657e+01 2.442749e-02 -1.760200e+01 -8.399518e+00 7.287722e+01 -5.046684e-01 3.431915e-01 1.645517e-02 -3.669404e-01 3.776768e-01 1.779634e-01 1.318503e-01 3.078223e-01 2.614233e-01 -3.741345e-01 -4.657586e-01 -6.544046e-01 4.102638e-02 1.497432e-01 1.085649e-01 -2.212428e-01 3.283124e-01 3.966388e-01 -1.942349e-01 6.790676e-01 2.384041e-02 5.355237e-01 -2.881278e-01 2.649716e-01 1.898935e-01 -2.370071e-01
<VARIANCE> 39
 3.916394e+00 5.621712e+00 3.092563e+00 1.480266e+01 9.686108e+00 9.345799e+00 1.219764e+01 4.043728e+00 6.169178e+00 5.812175e+00 7.672890e+00 9.492611e+00 1.376110e+01 5.853864e-01 3.993074e-01 1.919018e-01 4.153224e-01 4.100745e-01 5.030980e-01 1.023395e+00 4.791054e-01 6.711982e-01 8.806641e-01 4.628702e-01 4.254844e-01 2.156392e-01 9.635109e-02 1.014168e-01 1.246736e-01 1.443655e-01 2.824534e-01 1.603097e-01 3.233933e-01 1.433655e-01 1.922782e-01 1.555993e-01 2.035771e-01 5.666237e-02 2.771808e-02
<GCONST> 6.115840e+01
<TRANSP> 5
 0.000000e+00 1.000000e+00 0.000000e+00 0.000000e+00 0.000000e+00
 0.000000e+00 9.248585e-01 7.514159e-02 0.000000e+00 0.000000e+00
 0.000000e+00 0.000000e+00 6.728514e-01 3.271486e-01 0.000000e+00
 0.000000e+00 0.000000e+00 0.000000e+00 7.679657e-01 2.320343e-01
 0.000000e+00 0.000000e+00 0.000000e+00 0.000000e+00 0.000000e+00
<ENDHMM>
~h "r"
<BEGINHMM>
<NUMSTATES> 5
<STATE> 2
<MEAN> 39
 -6.680063e+00 -3.670178e+00 9.780499e+00 -7.070635e+00 -2.344464e+01 -1.635993e+01 -2.843254e+00 -8.804100e+00 -1.418440e+01 2.218449e+00 -5.721442e+00 -5.435562e+00 7.051083e+01 -1.268730e+00 8.859341e-01 2.832645e+00 -3.007159e+00 -7.007593e-01 1.685368e+00 -9.302327e-02 -2.449176e+00 -1.545728e-01 1.625325e+00 -1.264406e+00 -5.506011e-02 2.244266e-01 -2.683726e-02 4.439003e-01 -4.987168e-01 -8.985759e-02 7.743289e-01 3.072893e-01 -7.446925e-01 -6.758134e-02 6.189133e-01 -1.748438e-01 -3.789651e-01 1.090510e-01 -1.723275e-01
<VARIANCE> 39
 1.050828e+01 1.844858e+01 3.401952e+01 4.428867e+01 5.049644e+01 4.206185e+01 2.237194e+01 3.802133e+01 2.525292e+01 1.990279e+01 2.265429e+01 1.326132e+01 3.412049e+01 1.113449e+00 1.448039e+00 1.618982e+00 1.504969e+00 2.362784e+00 2.776485e+00 2.816519e+00 2.060096e+00 2.643333e+00 1.679652e+00 2.349470e+00 1.160116e+00 2.186104e-01 8.886937e-02 9.571672e-02 3.285608e-01 3.253581e-01 3.065133e-01 3.996368e-01 3.461595e-01 6.927280e-01 3.695964e-01 4.658450e-01 3.693503e-01 2.950194e-01 2.058811e-02
<GCONST> 1.017148e+02
<STATE> 3
<MEAN> 39
 -9.715513e+00 1.503974e-03 1.510381e+01 -1.276409e+01 -2.078146e+01 -1.317657e+01 -5.555793e+00 -1.407125e+01 -1.093245e+01 3.519968e+00 -1.018233e+01 -4.850894e+00 6.954038e+01 -6.388899e-02 3.731930e-01 -2.676648e-01 -3.777600e-01 6.871319e-01 1.437318e-01 -6.930029e-01 3.594228e-01 6.816021e-01 -4.160608e-01 -3.573269e-01 3.355772e-01 -1.855337e-01 1.448737e-01 -3.559946e-02 -3.375004e-01 3.465609e-01 1.251430e-01 -1.807826e-01 -3.401863e-02 3.055671e-01 -4.999265e-02 -1.411907e-01 1.438719e-01 2.544051e-02 -5.811670e-02
<VARIANCE> 39
 1.289105e+01 1.870576e+01 2.970258e+01 4.266621e+01 3.015564e+01 4.772713e+01 3.638469e+01 3.364664e+01 2.219235e+01 2.241951e+01 2.536324e+01 1.543746e+01 1.908009e+01 9.783650e-01 1.823228e+00 1.668746e+00 2.393474e+00 1.828471e+00 2.487173e+00 2.352090e+00 2.365413e+00 2.130803e+00 1.791336e+00 2.405217e+00 1.227431e+00 1.382447e-01 5.801390e-02 9.980012e-02 1.534445e-01 2.163448e-01 2.610169e-01 2.481207e-01 2.683651e-01 4.782616e-01 3.808146e-01 3.788076e-01 3.278935e-01 2.167004e-01 1.575213e-02
<GCONST> 9.737709e+01
<STATE> 4
<MEAN> 39
 -7.033830e+00 1.302206e+00 7.032501e+00 -1.124232e+01 -1.497910e+01 -1.390184e+01 -1.036076e+01 -9.376286e+00 -5.909935e+00 3.561623e-01 -1.056714e+01 -3.599047e+00 6.774255e+01 2.767891e-02 8.080487e-01 -8.042334e-01 -3.957500e-02 1.004211e+00 3.555905e-01 -9.779918e-01 1.955097e-01 1.096754e-02 1.619691e-01 1.045492e-01 6.222953e-02 -3.515434e-01 2.497972e-02 -1.058940e-01 3.499062e-02 -4.316879e-02 -1.604045e-01 3.120869e-02 2.238990e-01 4.230709e-02 -2.698386e-01 1.389152e-01 2.544993e-01 -1.694407e-01 4.869983e-02
<VARIANCE> 39
 3.781210e+01 3.330213e+01 7.128390e+01 1.000788e+02 5.671803e+01 7.080285e+01 5.191423e+01 2.713805e+01 4.268050e+01 2.499308e+01 3.092727e+01 1.577493e+01 3.343295e+01 3.731896e-01 3.658307e-01 1.297957e+00 7.656228e-01 8.738793e-01 8.508014e-01 9.364426e-01 1.420276e+00 1.532151e+00 1.257911e+00 1.270208e+00 9.250445e-01 1.123727e-01 4.872337e-02 7.305285e-02 6.311039e-02 2.179846e-01 1.284190e-01 2.054643e-01 1.492212e-01 2.011089e-01 2.725858e-01 1.918796e-01 1.915281e-01 1.395084e-01 1.659377e-02
<GCONST> 8.879398e+01
<TRANSP> 5
 0.000000e+00 1.000000e+00 0.000000e+00 0.000000e+00 0.000000e+00
 0.000000e+00 6.682205e-01 3.317796e-01 0.000000e+00 0.000000e+00
 0.000000e+00 0.000000e+00 8.306816e-01 1.693183e-01 0.000000e+00
 0.000000e+00 0.000000e+00 0.000000e+00 6.975533e-01 3.024466e-01
 0.000000e+00 0.000000e+00 0.000000e+00 0.000000e+00 0.000000e+00
<ENDHMM>
~h "s"
<BEGINHMM>
<NUMSTATES> 5
<STATE> 2
<MEAN> 39
 -9.613086e+00 3.563003e+00 1.783121e+00 3.824064e+00 -3.754496e+00 -2.083376e+00 6.062001e+00 1.742943e-01 -1.559043e+00 2.601738e+00 3.804176e+00 3.771712e+00 4.595072e+01 -1.069118e+00 -1.009607e-01 -6.928625e-01 2.162873e-01 -4.924366e-01 -9.544377e-02 6.283509e-01 7.609097e-02 -1.373390e-01 -1.122300e-01 -6.927632e-02 -8.652326e-02 1.403256e+00 -2.134680e-01 1.126336e-01 -1.625521e-01 4.332718e-03 4.562084e-02 7.550168e-02 -1.134775e-01 -2.254871e-02 2.553720e-02 1.578915e-02 -2.973919e-02 -2.148653e-02 1.356759e-01
<VARIANCE> 39
 2.784575e+01 1.905346e+01 1.839176e+01 1.675198e+01 2.616914e+01 2.632187e+01 3.208026e+01 2.306255e+01 2.020606e+01 2.066472e+01 1.831148e+01 1.606711e+01 4.310227e+01 3.905605e+00 1.974936e+00 2.044353e+00 1.781137e+00 2.526809e+00 2.327394e+00 3.154452e+00 2.023428e+00 2.086056e+00 2.050424e+00 1.680851e+00 1.519940e+00 3.753964e+00 5.946159e-01 3.750950e-01 3.111548e-01 3.575869e-01 4.519048e-01 4.198970e-01 5.514420e-01 4.052830e-01 4.003069e-01 3.966419e-01 3.285806e-01 2.841498e-01 4.431235e-01
<GCONST> 1.110979e+02
<STATE> 3
<MEAN> 39
 -2.129805e+01 4.330626e+00 -8.200592e+00 6.706018e+00 -7.521159e+00 1.294920e-01 5.780187e+00 1.101351e+00 -3.187474e+00 2.668234e+00 1.677353e+00 2.620704e+00 5.966893e+01 -1.425572e-01 -2.746836e-02 -8.514427e-02 2.785859e-02 -8.665390e-03 6.115107e-02 -1.779689e-01 2.596420e-02 -1.098081e-01 5.974830e-02 -9.257696e-02 -6.735669e-02 3.125401e-01 3.302777e-01 -5.099919e-02 2.558400e-01 -1.368047e-01 -4.584875e-02 -1.491965e-01 -2.350033e-02 -7.117239e-02 -5.393371e-02 -4.331242e-02 -5.094646e-02 -4.173779e-02 -7.879794e-02
<VARIANCE> 39
 1.191123e+01 7.428719e+00 1.185891e+01 1.188939e+01 1.373171e+01 1.950006e+01 1.924237e+01 1.792507e+01 1.670416e+01 1.740728e+01 1.611244e+01 1.322703e+01 1.575735e+01 1.087664e+00 6.746753e-01 1.397820e+00 1.058499e+00 1.096809e+00 1.427498e+00 1.606697e+00 1.606504e+00 1.657293e+00 1.636841e+00 1.562289e+00 1.337288e+00 5.710890e-01 1.441805e-01 1.355009e-01 1.853188e-01 2.322912e-01 2.618625e-01 3.125503e-01 3.382055e-01 3.519023e-01 3.635577e-01 3.337870e-01 3.521383e-01 2.771001e-01 1.272792e-01
<GCONST> 9.077742e+01
<STATE> 4
<MEAN> 39
 -1.065578e+01 3.821643e+00 -9.283771e-01 -1.569445e+00 -1.032814e+01 -5.549435e+00 2.097545e+00 -2.167651e+00 -7.160280e+00 1.417187e+00 -2.450986e+00 -3.504845e-02 6.159373e+01 2.358411e+00 -4.966051e-01 1.780928e+00 -2.669538e+00 -1.915335e+00 -2.113748e+00 -1.489016e+00 -1.263165e+00 -1.101049e+00 -3.100709e-01 -1.394690e+00 -4.625824e-01 1.403828e+00 -1.257964e-01 -2.869695e-01 -6.567308e-02 -3.495581e-01 -1.541091e-01 1.264903e-01 -2.008839e-01 2.606159e-02 6.680492e-02 3.880058e-02 -1.244967e-01 8.989367e-02 1.230069e-01
<VARIANCE> 39
 5.468314e+01 1.934653e+01 4.017468e+01 9.927066e+01 8.048696e+01 5.911365e+01 4.619450e+01 4.582576e+01 4.147360e+01 2.931300e+01 3.605810e+01 1.819931e+01 8.367709e+01 4.405071e+00 2.539247e+00 3.144130e+00 5.426561e+00 5.134692e+00 5.422567e+00 3.974681e+00 3.786291e+00 3.551054e+00 3.021645e+00 2.757198e+00 1.561672e+00 2.437078e+00 8.141950e-01 4.608403e-01 5.090320e-01 7.467657e-01 9.628052e-01 1.133006e+00 7.579536e-01 6.005976e-01 6.816280e-01 4.331811e-01 4.794086e-01 2.892113e-01 3.274997e-01
<GCONST> 1.301280e+02
<TRANSP> 5
 0.000000e+00 1.000000e+00 0.000000e+00 0.000000e+00 0.000000e+00
 0.000000e+00 8.506895e-01 1.493105e-01 0.000000e+00 0.000000e+00
 0.000000e+00 0.000000e+00 9.049240e-01 9.507601e-02 0.000000e+00
 0.000000e+00 0.000000e+00 0.000000e+00 7.242894e-01 2.757106e-01
 0.000000e+00 0.000000e+00 0.000000e+00 0.000000e+00 0.000000e+00
<ENDHMM>
~h "t"
<BEGINHMM>
<NUMSTATES> 5
<STATE> 2
<MEAN> 39
 -7.004980e+00 5.525782e+00 4.397722e+00 6.032842e-01 -2.563461e+00 3.488614e-01 7.399013e-01 -3.658760e-01 8.774419e-01 4.597828e+00 3.782979e+00 4.065338e+00 4.112101e+01 -1.407286e-01 -1.240014e-02 -2.177091e-01 1.914645e-01 1.601257e-01 9.303505e-02 2.067973e-01 1.210992e-01 9.213433e-02 3.191326e-03 6.856635e-02 6.107894e-02 2.793248e-02 -2.307651e-01 -7.002380e-02 -4.674637e-02 -1.135651e-01 -4.767815e-02 -2.063320e-02 9.331562e-02 -5.309056e-02 -8.405837e-02 -3.911071e-02 -1.098312e-01 -9.491407e-02 5.505849e-01
<VARIANCE> 39
 1.371868e+01 1.310112e+01 1.649288e+01 2.601548e+01 2.209519e+01 1.969371e+01 3.639926e+01 2.373826e+01 2.038962e+01 1.747890e+01 2.008351e+01 1.518933e+01 2.802114e+01 1.402452e+00 9.021881e-01 1.120088e+00 1.227044e+00 1.410209e+00 1.483443e+00 2.030489e+00 1.553135e+00 1.775493e+00 1.625535e+00 1.572328e+00 1.313427e+00 2.332006e+00 3.797730e-01 2.020537e-01 2.485399e-01 2.620577e-01 3.111693e-01 3.484084e-01 4.396414e-01 3.430740e-01 3.626842e-01 3.470209e-01 3.195282e-01 2.943895e-01 1.039474e+00
<GCONST> 1.019591e+02
<STATE> 3
<MEAN> 39
 -1.648537e+01 4.823419e+00 2.958112e+00 -2.911259e+00 -5.879131e+00 -1.787879e-01 4.725759e+00 -1.694251e+00 -2.060248e+00 4.740017e+00 1.215607e+00 1.007788e+00 6.169276e+01 -1.136510e+00 -5.956587e-02 2.175021e-02 1.479695e-01 -5.266572e-01 -2.541443e-01 1.082538e+00 -1.725219e-02 -7.049689e-01 1.842402e-02 2.089174e-02 -5.359402e-01 2.376291e+00 3.248574e-01 4.330914e-02 1.619120e-01 1.064538e-01 -5.154454e-02 -1.245138e-01 -1.168962e-01 -4.112106e-02 -4.890503e-02 -7.783575e-02 2.853205e-02 1.563713e-02 -5.289927e-01
<VARIANCE> 39
 4.348559e+01 2.126734e+01 2.832108e+01 3.006415e+01 3.413454e+01 3.639024e+01 4.597110e+01 2.584166e+01 2.570460e+01 1.999877e+01 2.413810e+01 2.169298e+01 1.549765e+02 4.937031e+00 2.648051e+00 3.862341e+00 3.661549e+00 3.413769e+00 2.796396e+00 4.793187e+00 2.292912e+00 2.578510e+00 2.320074e+00 2.517491e+00 2.343133e+00 1.846585e+01 7.072603e-01 5.243531e-01 5.668619e-01 5.617530e-01 5.184385e-01 5.164992e-01 8.553632e-01 4.122094e-01 5.233354e-01 4.758035e-01 4.299651e-01 4.587431e-01 2.458899e+00
<GCONST> 1.267469e+02
<STATE> 4
<MEAN> 39
 -1.232300e+01 4.529046e+00 8.092511e+00 -4.388296e-01 -1.472491e+01 -8.496318e+00 3.897280e+00 -6.809112e+00 -1.029607e+01 -4.424128e-02 -8.751838e-01 -3.215770e+00 6.802735e+01 1.574457e+00 -5.585653e-01 2.205041e-01 -7.927225e-01 -7.440720e-01 -1.665910e+00 -1.581267e+00 -8.947581e-01 -1.017691e+00 -6.561344e-01 -4.555337e-01 -5.146400e-01 -6.422653e-01 -1.503072e-01 -2.899102e-02 -1.231019e-01 -1.647871e-01 1.803211e-01 2.187656e-01 -1.348529e-01 8.807797e-02 1.813197e-01 1.496587e-01 -4.597249e-02 1.165937e-01 6.540392e-02
<VARIANCE> 39
 4.282001e+01 1.802326e+01 1.901252e+01 6.109863e+01 5.230473e+01 6.028109e+01 9.120670e+01 4.604351e+01 3.189856e+01 2.543935e+01 3.373527e+01 2.064037e+01 5.704206e+01 2.070803e+00 1.371520e+00 1.429768e+00 4.299911e+00 2.550876e+00 3.731347e+00 5.549803e+00 3.183588e+00 2.805514e+00 2.244380e+00 2.166867e+00 1.889649e+00 2.136217e+00 4.683480e-01 3.004971e-01 2.109943e-01 8.263457e-01 4.972334e-01 5.756271e-01 1.119928e+00 6.311457e-01 4.515130e-01 3.936006e-01 3.858351e-01 3.361383e-01 2.194460e-01
<GCONST> 1.204722e+02
<TRANSP> 5
 0.000000e+00 1.000000e+00 0.000000e+00 0.000000e+00 0.000000e+00
 0.000000e+00 8.496550e-01 1.503450e-01 0.000000e+00 0.000000e+00
 0.000000e+00 0.000000e+00 8.913521e-01 1.086479e-01 0.000000e+00
 0.000000e+00 0.000000e+00 0.000000e+00 8.037937e-01 1.962063e-01
 0.000000e+00 0.000000e+00 0.000000e+00 0.000000e+00 0.000000e+00
<ENDHMM>
~h "v"
<BEGINHMM>
<NUMSTATES> 5
<STATE> 2
<MEAN> 39
 -6.353392e+00 2.731705e+00 6.042614e+00 -1.054963e+01 -1.499249e+01 -9.031179e+00 -3.302333e+00 -1.325936e+01 -8.510291e+00 -1.007865e+00 -1.113840e+01 -2.579167e+00 6.334348e+01 4.043158e-01 4.732398e-01 -5.648057e-01 2.342042e+00 7.344989e-01 -1.307957e-01 -1.969253e-01 7.140794e-01 -4.005725e-01 -1.651585e-01 6.690698e-01 1.034568e-01 -1.342976e+00 -1.180424e-01 -1.761439e-02 -3.539181e-01 2.655169e-01 3.367540e-01 2.734319e-01 1.667713e-02 4.921407e-01 2.172234e-01 -2.970950e-01 1.911733e-01 -2.776074e-02 -1.101333e-01
<VARIANCE> 39
 1.848137e+01 2.763919e+01 4.231871e+01 4.872631e+01 5.894483e+01 2.945281e+01 2.970016e+01 4.416533e+01 3.644791e+01 3.636319e+01 3.302721e+01 1.822886e+01 4.095393e+01 8.832080e-01 1.083530e+00 1.453561e+00 4.661335e+00 2.152143e+00 2.474522e+00 2.005021e+00 3.701735e+00 1.854787e+00 2.660390e+00 2.413262e+00 1.314121e+00 1.543057e+00 1.647135e-01 1.407963e-01 1.928550e-01 5.435269e-01 3.817166e-01 5.083829e-01 4.253003e-01 4.158323e-01 4.595669e-01 4.092268e-01 4.402877e-01 3.237582e-01 1.292100e-01
<GCONST> 1.111590e+02
<STATE> 3
<MEAN> 39
 -6.035393e+00 3.885097e+00 -1.134690e+00 -1.423597e+00 -8.017477e+00 -6.056273e+00 -5.804888e+00 -7.556801e+00 -5.579676e+00 -2.717989e+00 -9.011556e+00 -3.660415e+00 6.055838e+01 -4.966654e-01 1.214967e-01 -1.450842e-01 -4.512586e-02 4.101655e-01 3.818152e-01 -2.848495e-02 6.764373e-01 5.324827e-01 2.565526e-01 1.237389e-01 4.049959e-01 -1.370378e-01 3.653487e-02 -2.973180e-01 1.031639e-01 -5.548652e-01 -2.225909e-01 -2.222492e-01 2.536424e-01 1.252121e-01 1.087281e-01 3.939281e-02 -5.152910e-02 1.708965e-01 2.360664e-01
<VARIANCE> 39
 1.689401e+01 1.478668e+01 3.465314e+01 2.979239e+01 3.242590e+01 2.485999e+01 2.338954e+01 2.123874e+01 2.332094e+01 2.113331e+01 2.191018e+01 1.998171e+01 4.852811e+01 1.087927e+00 1.695667e+00 2.002830e+00 4.307793e+00 2.587902e+00 3.149235e+00 2.109366e+00 2.804774e+00 2.339643e+00 2.460076e+00 2.230252e+00 1.759025e+00 2.637607e+00 2.135047e-01 2.311841e-01 2.821915e-01 4.922877e-01 3.592737e-01 4.299464e-01 3.764609e-01 5.101562e-01 3.689165e-01 5.713453e-01 3.873346e-01 2.609956e-01 1.886856e-01
<GCONST> 1.099154e+02
<STATE> 4
<MEAN> 39
 -7.335105e+00 2.650179e+00 3.542481e-01 1.950526e+00 -3.661636e+00 -1.946924e+00 -1.736749e-01 -2.911060e+00 -6.841913e-01 2.893207e+00 -3.353723e-01 2.055163e+00 4.910263e+01 4.692093e-02 -1.803597e-01 7.965241e-02 -1.184502e-01 1.953470e-01 -8.123350e-02 1.832307e-03 2.430904e-01 1.208877e-01 -6.062638e-02 1.510144e-01 1.186839e-01 -4.048947e-02 2.199187e-02 4.432957e-02 3.011135e-02 -4.436487e-03 -3.333177e-02 -2.177059e-02 -2.658986e-02 -3.308699e-02 -8.412025e-02 -8.984964e-02 -3.943843e-02 -4.901634e-02 4.258903e-03
<VARIANCE> 39
 2.189168e+01 2.348196e+01 2.636684e+01 4.107251e+01 3.596077e+01 3.080500e+01 2.742483e+01 3.237773e+01 2.742628e+01 2.938555e+01 3.200669e+01 1.927377e+01 8.342902e+01 2.075134e+00 1.573932e+00 1.679533e+00 2.906357e+00 2.200509e+00 2.382064e+00 2.328034e+00 2.511311e+00 2.060432e+00 2.491531e+00 2.131242e+00 1.641719e+00 3.046124e+00 3.903351e-01 2.828110e-01 3.086572e-01 4.846421e-01 3.642907e-01 4.421517e-01 4.243284e-01 4.545262e-01 4.069237e-01 4.721653e-01 3.967647e-01 3.132010e-01 4.447725e-01
<GCONST> 1.143200e+02
<TRANSP> 5
 0.000000e+00 1.000000e+00 0.000000e+00 0.000000e+00 0.000000e+00
 0.000000e+00 6.643537e-01 3.356463e-01 0.000000e+00 0.000000e+00
 0.000000e+00 0.000000e+00 8.115410e-01 1.884590e-01 0.000000e+00
 0.000000e+00 0.000000e+00 0.000000e+00 9.134572e-01 8.654275e-02
 0.000000e+00 0.000000e+00 0.000000e+00 0.000000e+00 0.000000e+00
<ENDHMM>
~h "w"
<BEGINHMM>
<NUMSTATES> 5
<STATE> 2
<MEAN> 39
 1.535424e+00 9.901437e+00 -1.130726e+00 -5.535468e+00 -5.903587e+00 -5.286247e+00 -3.330554e+00 -4.978562e+00 -4.706176e+00 -1.633430e+00 -6.312427e+00 -1.332424e+00 4.801127e+01 1.150007e+00 4.588038e-01 -5.826818e-01 -1.915006e+00 -1.061689e+00 -1.229168e+00 -6.897784e-01 -1.855705e-01 -7.225612e-01 -3.866334e-01 -9.790874e-01 -5.471516e-01 1.671762e+00 -1.943071e-01 -1.291975e-01 -1.261500e-01 -1.320924e-01 -4.600474e-02 1.305136e-01 1.527273e-01 2.278164e-01 9.450031e-02 6.600627e-02 2.193773e-01 8.967344e-02 2.102866e-01
<VARIANCE> 39
 6.178486e+01 2.124490e+01 2.041942e+01 7.978434e+01 3.663798e+01 4.188205e+01 2.813918e+01 2.417741e+01 2.418815e+01 2.984846e+01 5.130923e+01 2.388518e+01 3.931164e+01 3.552479e+00 1.739936e+00 1.912237e+00 4.665841e+00 3.595114e+00 3.492931e+00 2.713421e+00 3.095720e+00 2.262229e+00 2.960042e+00 4.523521e+00 2.771401e+00 2.543661e+00 6.448404e-01 3.605537e-01 3.351038e-01 9.738289e-01 7.112200e-01 5.566965e-01 4.842148e-01 5.084843e-01 4.151479e-01 5.872489e-01 7.571805e-01 5.105436e-01 3.432618e-01
<GCONST> 1.231705e+02
<STATE> 3
<MEAN> 39
 1.029302e+00 1.172727e+00 -1.098332e+01 -1.946586e+01 -1.044477e+01 -4.502018e+00 -3.063885e+00 -4.310808e+00 -7.548055e+00 -6.239073e+00 -7.504941e+00 -6.069512e+00 7.040821e+01 -6.879675e-01 -1.701586e+00 -8.847582e-01 -1.965482e-01 7.938032e-01 1.167870e+00 2.291335e-01 -4.664401e-01 2.296741e-01 -4.702017e-01 -1.549927e-01 -4.754466e-01 1.560060e+00 6.167437e-02 -3.004175e-02 1.109723e-01 2.680160e-01 2.416881e-01 -2.357581e-02 -4.777204e-02 -4.790480e-02 3.712770e-02 -6.055090e-02 -1.686550e-01 8.611497e-02 -2.773154e-01
<VARIANCE> 39
 1.353319e+01 7.938728e+01 2.268037e+01 2.809141e+01 3.457947e+01 6.423311e+01 2.361552e+01 2.640455e+01 1.697699e+01 1.813660e+01 1.845885e+01 2.532859e+01 6.516084e+01 5.052794e-01 2.848264e+00 1.136121e+00 2.779873e+00 3.507197e+00 2.856603e+00 2.385160e+00 2.640410e+00 1.827317e+00 2.315616e+00 2.714045e+00 2.286010e+00 1.931300e+00 8.914573e-02 5.502123e-01 1.885686e-01 4.305089e-01 5.222042e-01 6.457648e-01 4.447570e-01 5.375773e-01 3.838728e-01 4.980524e-01 4.578310e-01 5.228477e-01 1.239589e-01
<GCONST> 1.116777e+02
<STATE> 4
<MEAN> 39
 -2.768851e+00 -6.791628e+00 -7.402474e+00 -1.067820e+01 -5.674646e-01 -6.927872e+00 -4.168001e+00 -2.666199e+00 -1.276666e+01 -1.611771e+01 -1.599099e+01 -3.381822e+00 7.103812e+01 -4.391725e-02 3.589654e-01 7.049685e-01 5.760126e-01 2.045796e-02 -7.924391e-01 -6.788574e-02 3.294262e-01 -6.092581e-01 -3.725079e-01 -2.664939e-01 3.171510e-01 -4.966074e-01 1.753443e-02 7.392315e-02 4.454726e-02 -1.379307e-03 -7.370155e-02 -2.562230e-03 7.254468e-03 -5.313738e-02 -1.116060e-02 8.079208e-02 7.057857e-02 -3.757542e-02 -4.519476e-02
<VARIANCE> 39
 4.388535e+00 4.048042e+01 4.329383e+01 1.985233e+01 1.958479e+01 5.894031e+01 2.125075e+01 3.064912e+01 4.064517e+01 2.277737e+01 1.716866e+01 2.269401e+01 2.031482e+01 1.968870e-01 9.598873e-01 5.220559e-01 8.666582e-01 1.338887e+00 1.157558e+00 1.265737e+00 1.474159e+00 1.180981e+00 1.585922e+00 1.074840e+00 1.282640e+00 1.875149e-01 3.251645e-02 9.019063e-02 8.784769e-02 1.433143e-01 2.175800e-01 1.913936e-01 2.470450e-01 2.261684e-01 2.112878e-01 2.184218e-01 1.869054e-01 2.000364e-01 2.814549e-02
<GCONST> 8.462566e+01
<TRANSP> 5
 0.000000e+00 1.000000e+00 0.000000e+00 0.000000e+00 0.000000e+00
 0.000000e+00 8.919224e-01 1.080777e-01 0.000000e+00 0.000000e+00
 0.000000e+00 0.000000e+00 9.093298e-01 9.067024e-02 0.000000e+00
 0.000000e+00 0.000000e+00 0.000000e+00 9.440452e-01 5.595470e-02
 0.000000e+00 0.000000e+00 0.000000e+00 0.000000e+00 0.000000e+00
<ENDHMM>
~h "y"
<BEGINHMM>
<NUMSTATES> 5
<STATE> 2
<MEAN> 39
 -1.221733e+01 7.130176e+00 1.613241e+01 -1.245641e+01 -1.740607e+01 -2.075596e+00 -7.090367e+00 -1.589451e+01 -1.057245e+01 -6.574768e-01 -1.567781e+01 -5.225437e+00 6.843691e+01 5.116003e-02 -2.001797e-01 2.209933e-01 5.421139e-02 -8.184834e-01 -3.720264e-01 -4.609998e-03 -4.674481e-01 -6.836704e-01 1.802854e-01 -3.159816e-01 -4.400057e-01 5.012085e-01 5.754633e-03 -8.466593e-02 -1.445477e-01 1.922922e-01 7.231305e-02 -9.375143e-02 1.955191e-01 1.759692e-01 1.717591e-02 3.576634e-02 2.351135e-01 6.946501e-02 -4.281254e-02
<VARIANCE> 39
 8.819016e+00 1.337244e+01 1.248876e+01 2.444306e+01 4.121689e+01 2.230646e+01 2.629053e+01 2.560510e+01 1.770730e+01 2.989277e+01 2.260377e+01 2.819845e+01 2.965651e+01 8.392867e-01 6.817591e-01 9.859425e-01 1.907123e+00 1.839957e+00 1.089111e+00 2.085526e+00 1.375666e+00 1.499210e+00 1.502134e+00 1.967999e+00 1.097916e+00 1.419165e+00 1.279558e-01 1.105524e-01 1.249678e-01 1.763105e-01 2.558172e-01 1.613417e-01 2.340091e-01 1.838222e-01 2.305032e-01 2.576986e-01 2.115295e-01 1.714304e-01 1.036742e-01
<GCONST> 9.256323e+01
<STATE> 3
<MEAN> 39
 -8.515753e+00 3.796095e+00 8.654647e+00 -2.087826e+00 -1.721902e+01 -1.590540e+01 -5.829235e+00 -1.074392e+01 -1.317234e+01 5.466297e-03 -1.045506e+01 -1.129743e+00 6.949279e+01 6.299356e-01 8.363938e-02 -1.304462e+00 4.798698e-01 1.313974e+00 -7.905763e-01 -7.862506e-01 6.490607e-01 1.063605e+00 -2.224213e-01 7.442130e-02 5.994948e-01 -3.185968e-01 4.058609e-02 6.712511e-02 -5.945842e-02 -1.513563e-01 1.766998e-01 2.248707e-01 -1.081253e-01 -2.108962e-01 1.761718e-01 1.006567e-01 -7.265583e-02 -8.710922e-02 -5.625895e-02
<VARIANCE> 39
 1.141647e+01 6.565641e+00 3.848771e+01 2.638409e+01 4.252773e+01 3.183728e+01 4.397980e+01 3.606770e+01 4.420168e+01 2.413663e+01 1.983689e+01 3.874026e+01 1.415050e+01 1.765771e-01 2.167710e-01 4.746636e-01 8.801090e-01 1.144525e+00 1.757752e+00 1.435684e+00 2.483360e+00 2.820102e+00 1.862574e+00 1.840428e+00 2.049311e+00 9.934387e-02 2.285775e-02 2.279051e-02 5.565092e-02 7.354472e-02 1.056053e-01 1.475368e-01 2.030121e-01 2.765684e-01 3.907048e-01 2.648402e-01 2.922589e-01 3.237515e-01 9.592884e-03
<GCONST> 8.290241e+01
<STATE> 4
<MEAN> 39
 5.150017e-01 9.152925e+00 -4.820022e+00 -6.839273e+00 -6.417292e-01 -9.135444e+00 -5.790873e+00 -1.915871e+01 -4.895294e+00 1.357508e+00 -4.298796e+00 9.599134e-01 6.048526e+01 5.959249e-01 4.001109e-01 -2.129662e-01 -3.631802e-01 4.637011e-01 9.501647e-01 1.042706e+00 -4.180576e-01 -3.670489e-01 -3.188000e-01 6.056573e-01 1.968322e-01 -1.017500e+00 -6.583252e-02 -4.342438e-02 1.573676e-01 1.106058e-01 -1.580328e-01 -6.231457e-02 4.061952e-02 1.783737e-01 -7.198642e-02 -1.566344e-01 -8.792952e-02 5.172782e-02 -2.233880e-02
<VARIANCE> 39
 1.186931e+01 1.440493e+01 1.856815e+01 3.537052e+01 1.977658e+01 4.092164e+01 6.893316e+01 4.269523e+01 2.368223e+01 2.867804e+01 2.847301e+01 1.835345e+01 3.684380e+01 3.227853e-01 4.596561e-01 1.018880e+00 1.377632e+00 1.676396e+00 1.307266e+00 1.727716e+00 2.987406e+00 1.284522e+00 1.707462e+00 1.920941e+00 1.219582e+00 2.898521e-01 5.574666e-02 6.211160e-02 8.188522e-02 1.415929e-01 2.264056e-01 2.116403e-01 3.200139e-01 3.424616e-01 2.610005e-01 2.226186e-01 2.656926e-01 2.223053e-01 4.433701e-02
<GCONST> 9.146808e+01
<TRANSP> 5
 0.000000e+00 1.000000e+00 0.000000e+00 0.000000e+00 0.000000e+00
 0.000000e+00 9.300563e-01 6.994370e-02 0.000000e+00 0.000000e+00
 0.000000e+00 0.000000e+00 9.158191e-01 8.418083e-02 0.000000e+00
 0.000000e+00 0.000000e+00 0.000000e+00 8.913505e-01 1.086495e-01
 0.000000e+00 0.000000e+00 0.000000e+00 0.000000e+00 0.000000e+00
<ENDHMM>
~h "z"
<BEGINHMM>
<NUMSTATES> 5
<STATE> 2
<MEAN> 39
 -3.079768e+00 7.990827e+00 3.936418e+00 1.918426e+00 -6.123455e+00 -1.269304e+01 6.073079e-02 -2.015913e+00 -8.997222e+00 -2.819674e+00 -6.780709e+00 2.641703e+00 4.794892e+01 3.648771e-01 -2.982248e-02 -1.452538e-01 -6.350881e-02 -9.194751e-01 -1.280527e+00 1.527687e-01 1.278873e-01 -1.043784e+00 -9.252948e-01 -1.518811e+00 -2.300431e-01 1.726443e+00 -2.528094e-01 -4.251483e-03 -1.790544e-01 1.747215e-01 6.007251e-02 3.554710e-01 6.532084e-02 1.080504e-01 3.135035e-01 1.319549e-01 2.730835e-01 7.070051e-02 9.051867e-03
<VARIANCE> 39
 2.219979e+01 1.467011e+01 1.315670e+01 2.089270e+01 3.432574e+01 6.039603e+01 3.321901e+01 3.137907e+01 4.853254e+01 4.450795e+01 7.700309e+01 3.388910e+01 4.048372e+01 2.642544e+00 1.230389e+00 1.463844e+00 1.836514e+00 3.585085e+00 5.769689e+00 3.081957e+00 2.833009e+00 4.308462e+00 2.984671e+00 4.902114e+00 2.031574e+00 1.764155e+00 4.428934e-01 2.603669e-01 2.181179e-01 4.292269e-01 6.741241e-01 8.535851e-01 6.341649e-01 5.335836e-01 6.762574e-01 5.097252e-01 8.411149e-01 3.946160e-01 3.359106e-01
<GCONST> 1.202721e+02
<STATE> 3
<MEAN> 39
 -9.572516e+00 1.009103e+01 -1.572457e+00 8.118551e+00 -1.144637e+01 -1.048855e+01 1.028240e-03 -1.136571e+00 -8.954581e+00 -5.101196e+00 -7.228331e+00 9.053078e-01 5.941752e+01 -1.291994e+00 1.798049e-01 -3.213106e-01 8.896242e-01 -1.986874e-01 8.129517e-01 -1.795156e-01 -3.286420e-01 2.198391e-01 4.201347e-01 9.031622e-01 -3.818930e-01 8.194749e-01 1.901327e-01 -2.254696e-01 2.947832e-01 -2.847933e-01 -3.255614e-03 -1.657052e-01 8.226331e-02 -1.084009e-01 -2.211261e-01 1.145928e-01 -1.433183e-01 -6.548636e-02 -8.780875e-03
<VARIANCE> 39
 2.037399e+01 7.843627e+00 9.435205e+00 1.499421e+01 1.328021e+01 2.134441e+01 1.379456e+01 1.318556e+01 1.767684e+01 1.294475e+01 2.494016e+01 1.308932e+01 7.170570e+00 8.170008e-01 1.107287e+00 1.157375e+00 1.396746e+00 1.384007e+00 1.482448e+00 1.392807e+00 1.157086e+00 1.770239e+00 9.488060e-01 1.930676e+00 1.124145e+00 3.012537e-01 1.660002e-01 1.660293e-01 1.679536e-01 1.989042e-01 3.448537e-01 2.861814e-01 2.664047e-01 2.161357e-01 2.727586e-01 1.882068e-01 3.766033e-01 1.999385e-01 9.664664e-02
<GCONST> 8.736149e+01
<STATE> 4
<MEAN> 39
 -1.215005e+01 6.029496e+00 5.663107e+00 3.144035e+00 -1.688211e+01 -9.419391e+00 -2.787883e-02 -8.460935e+00 -1.302517e+01 1.296749e-01 -8.149509e+00 -3.268988e+00 6.715873e+01 3.142973e-01 -7.525284e-01 1.998626e+00 -2.519618e+00 -1.695376e+00 -4.510669e-01 -6.500256e-01 -1.791039e+00 -6.413590e-01 8.306483e-01 -1.356069e+00 -4.942892e-01 1.333822e+00 6.454495e-02 2.231958e-01 5.323105e-04 -3.112177e-01 3.927536e-02 8.475162e-02 -2.971774e-01 3.313315e-02 2.450245e-01 -1.409140e-01 -1.345751e-01 1.055776e-01 -1.732880e-01
<VARIANCE> 39
 8.239901e+00 5.804211e+00 3.808180e+01 5.214280e+01 4.051973e+01 3.669744e+01 1.828247e+01 3.897171e+01 2.413164e+01 1.689827e+01 2.151870e+01 1.852631e+01 1.623347e+01 1.017391e+00 1.164874e+00 1.461671e+00 1.904728e+00 1.706938e+00 3.411416e+00 2.221664e+00 2.354988e+00 2.783050e+00 1.546553e+00 1.741965e+00 1.578608e+00 4.630183e-01 2.383438e-01 1.184143e-01 3.579358e-01 2.765625e-01 6.447800e-01 6.122850e-01 3.264525e-01 6.214089e-01 4.964006e-01 3.360966e-01 3.058451e-01 3.140690e-01 7.129706e-02
<GCONST> 1.029298e+02
<TRANSP> 5
 0.000000e+00 1.000000e+00 0.000000e+00 0.000000e+00 0.000000e+00
 0.000000e+00 8.911574e-01 1.088426e-01 0.000000e+00 0.000000e+00
 0.000000e+00 0.000000e+00 8.736745e-01 1.263256e-01 0.000000e+00
 0.000000e+00 0.000000e+00 0.000000e+00 7.048682e-01 2.951318e-01
 0.000000e+00 0.000000e+00 0.000000e+00 0.000000e+00 0.000000e+00
<ENDHMM>
~h "aa"
<BEGINHMM>
<NUMSTATES> 5
<STATE> 2
<MEAN> 39
 -5.068025e+00 -6.370341e+00 -3.762332e+00 -5.263168e+00 -7.469739e-01 5.238963e+00 -4.518414e-01 -6.428141e+00 -5.792163e+00 1.898305e+00 -1.687045e+00 3.534607e-02 5.537401e+01 3.614258e-01 -1.890664e+00 -1.597802e+00 -1.106805e+00 -1.053728e-01 6.420587e-01 -3.572725e-01 -1.295473e+00 -1.158641e+00 -7.269550e-01 -7.841642e-01 -8.852519e-01 3.065640e+00 -4.785800e-02 2.055247e-01 8.505096e-02 1.256432e-01 -1.138328e-01 -1.291450e-01 -5.785971e-02 9.021327e-02 4.137222e-02 -8.768043e-02 -3.206618e-02 -5.230271e-02 -9.312369e-02
<VARIANCE> 39
 1.372870e+01 1.043808e+02 7.540841e+01 4.871075e+01 2.639650e+01 4.886924e+01 3.943221e+01 6.215467e+01 5.098366e+01 3.731331e+01 3.026935e+01 2.882388e+01 1.804799e+02 1.432512e+00 8.681190e+00 4.382243e+00 5.086516e+00 2.333210e+00 3.987276e+00 2.757804e+00 4.220181e+00 3.112369e+00 3.324238e+00 2.801490e+00 2.706244e+00 1.400283e+01 2.620751e-01 1.541497e+00 8.754521e-01 8.008410e-01 3.388098e-01 7.347989e-01 4.155028e-01 7.244701e-01 5.136858e-01 5.512566e-01 5.233200e-01 4.729570e-01 2.705340e+00
<GCONST> 1.334337e+02
<STATE> 3
<MEAN> 39
 -1.756708e+00 -1.357455e+01 -1.678532e+01 -6.887371e+00 -2.232944e+00 5.695175e+00 -1.187924e+00 -1.154900e+01 -1.245083e+01 -6.743406e+00 -5.524907e+00 -7.442460e+00 7.425242e+01 1.592353e-01 7.256237e-02 -2.101904e-01 3.020103e-01 6.871988e-02 -3.453237e-01 6.663097e-02 5.495698e-01 7.385629e-02 -1.920755e-01 2.587734e-01 -1.222775e-02 -9.033009e-02 2.280756e-02 -6.028156e-03 -4.498965e-03 -3.891027e-03 5.086350e-02 -2.437213e-03 -1.753502e-02 7.978380e-02 3.493645e-02 7.517461e-03 4.294790e-02 4.059352e-02 -5.484615e-02
<VARIANCE> 39
 6.155396e+00 8.579449e+00 1.207172e+01 1.713116e+01 2.264060e+01 2.638826e+01 2.746510e+01 3.148611e+01 2.371940e+01 2.880894e+01 2.535318e+01 1.332436e+01 1.579213e+01 1.205774e-01 2.366463e-01 3.254555e-01 4.815952e-01 6.227450e-01 5.904471e-01 8.855317e-01 1.205101e+00 8.507203e-01 9.246779e-01 8.948517e-01 5.960146e-01 1.380856e-01 2.248953e-02 3.404905e-02 5.242806e-02 8.128316e-02 9.695402e-02 8.922093e-02 1.351328e-01 1.574087e-01 1.242204e-01 1.404658e-01 1.414274e-01 1.065102e-01 3.034906e-02
<GCONST> 6.707368e+01
<STATE> 4
<MEAN> 39
 3.539463e+00 -6.381632e+00 -1.691935e+01 1.436615e-01 4.270287e+00 -1.722283e+00 -6.049781e+00 3.480576e+00 -5.540123e+00 -9.670133e+00 -3.516378e+00 -4.898913e+00 5.932570e+01 -1.025858e-01 4.533436e-01 4.865479e-01 1.728655e-01 2.055292e-01 6.541797e-02 2.466329e-02 3.891322e-02 3.282548e-01 2.608226e-01 -8.003715e-02 2.148257e-01 -9.449013e-01 -5.201197e-02 1.090505e-02 4.460704e-02 -2.579096e-02 -3.396581e-02 3.906822e-02 4.250417e-02 -6.552206e-02 -6.603430e-03 7.034660e-02 2.317548e-03 2.441634e-02 1.781841e-05
<VARIANCE> 39
 1.295415e+01 2.690585e+01 4.079652e+01 3.002664e+01 1.643344e+01 2.847773e+01 3.424493e+01 3.297421e+01 2.989089e+01 3.153538e+01 3.585301e+01 2.340525e+01 8.886415e+01 7.926781e-01 4.482618e-01 9.126009e-01 9.062887e-01 8.236573e-01 1.241009e+00 1.902370e+00 2.300622e+00 1.479609e+00 1.850943e+00 1.531824e+00 1.455674e+00 3.415767e-01 8.184919e-02 7.399881e-02 1.068357e-01 1.447558e-01 1.228870e-01 1.901005e-01 2.605937e-01 3.249111e-01 2.512620e-01 2.685986e-01 2.358297e-01 2.229775e-01 4.480658e-02
<GCONST> 9.264839e+01
<TRANSP> 5
 0.000000e+00 1.000000e+00 0.000000e+00 0.000000e+00 0.000000e+00
 0.000000e+00 9.094011e-01 9.059893e-02 0.000000e+00 0.000000e+00
 0.000000e+00 0.000000e+00 9.580071e-01 4.199295e-02 0.000000e+00
 0.000000e+00 0.000000e+00 0.000000e+00 9.622675e-01 3.773247e-02
 0.000000e+00 0.000000e+00 0.000000e+00 0.000000e+00 0.000000e+00
<ENDHMM>
~h "ae"
<BEGINHMM>
<NUMSTATES> 5
<STATE> 2
<MEAN> 39
 -1.415178e+01 1.018095e+01 1.395942e+01 -1.796209e+01 -1.681590e+01 -2.058494e+00 -1.271151e+01 -1.115472e+01 -1.055940e+01 -2.337462e+00 -1.734621e+01 -6.176500e+00 7.094965e+01 -2.417800e-01 6.005285e-01 -8.021804e-02 -1.192739e+00 1.174879e+00 2.499757e-01 -5.803663e-01 7.944383e-01 4.656823e-01 -6.868284e-01 -1.759283e-01 -1.543162e-01 -2.513801e-01 6.113969e-02 -2.848209e-02 -7.205006e-02 2.504486e-01 7.334927e-02 -2.094392e-01 2.450337e-01 6.242055e-02 -1.125231e-01 8.395591e-02 1.389049e-01 3.498600e-02 -5.565419e-02
<VARIANCE> 39
 2.889860e+00 4.869018e+00 1.092288e+01 4.544542e+01 2.821841e+01 1.587516e+01 1.468321e+01 1.690307e+01 7.728300e+00 1.528592e+01 1.317448e+01 1.195819e+01 4.421848e+00 7.955037e-02 1.584442e-01 3.363932e-01 1.162792e+00 5.922968e-01 1.514328e+00 1.664378e+00 1.114763e+00 1.134485e+00 1.002580e+00 7.840316e-01 7.161440e-01 4.524808e-02 8.702735e-03 1.956789e-02 6.159136e-02 9.838816e-02 1.688560e-01 1.449942e-01 1.623850e-01 2.944769e-01 1.937400e-01 1.610255e-01 1.830738e-01 1.165340e-01 1.332958e-02
<GCONST> 6.295180e+01
<STATE> 3
<MEAN> 39
 -1.277294e+01 1.518214e+01 1.317920e+01 -2.155823e+01 -6.671310e+00 -3.768577e+00 -1.040472e+01 -8.149726e+00 -8.022104e+00 -7.873076e-01 -1.469993e+01 -3.673748e+00 6.497368e+01 3.379411e-01 9.848951e-02 1.382195e-01 2.725170e-01 3.605538e-01 4.044366e-02 1.107648e-01 -9.970387e-03 2.460092e-01 3.662377e-01 3.247155e-01 2.590569e-01 -5.985240e-01 4.704968e-02 -8.612335e-02 3.076523e-02 8.735865e-02 -1.382995e-01 9.797293e-02 -2.620199e-02 -6.451175e-02 5.456656e-03 8.523170e-03 7.886944e-03 6.725822e-03 -2.109973e-02
<VARIANCE> 39
 5.097088e+00 5.825142e+00 8.200177e+00 2.004117e+01 1.102977e+01 7.120313e+00 1.020786e+01 6.188468e+00 8.548618e+00 1.240303e+01 1.056850e+01 1.679696e+01 1.290540e+01 2.037252e-01 2.898681e-01 1.964330e-01 4.646170e-01 5.809511e-01 6.112286e-01 6.724278e-01 4.873440e-01 5.136440e-01 4.302511e-01 5.097129e-01 4.415445e-01 1.149093e-01 3.294266e-02 3.860421e-02 3.475802e-02 7.261135e-02 9.134263e-02 1.213050e-01 1.133223e-01 9.946094e-02 8.899739e-02 7.504611e-02 8.373519e-02 7.196366e-02 1.685224e-02
<GCONST> 5.269971e+01
<STATE> 4
<MEAN> 39
 -5.562089e+00 1.217835e+01 1.338140e+01 -1.177948e+01 -7.134153e+00 -1.491160e+00 -8.523205e+00 -7.931896e+00 -3.714867e+00 8.184159e-02 -9.764293e+00 -2.599807e+00 5.276394e+01 4.358272e-01 -5.509002e-01 -6.405597e-01 1.594629e+00 3.193420e-01 -2.693430e-03 5.349831e-01 4.235082e-01 5.767884e-01 -2.447450e-01 1.011721e+00 2.609445e-01 -1.762378e+00 -2.259490e-01 -9.766535e-02 -2.293642e-01 1.273552e-02 2.496826e-01 -1.367075e-01 1.713485e-01 1.240071e-01 5.338405e-02 5.463902e-02 2.010065e-01 1.554124e-01 1.061353e-01
<VARIANCE> 39
 1.217622e+01 1.674702e+01 1.644093e+01 3.805051e+01 2.409692e+01 1.788311e+01 1.975121e+01 2.051254e+01 1.344164e+01 2.438054e+01 2.337746e+01 1.265365e+01 3.988112e+01 1.935916e+00 1.179891e+00 1.410906e+00 1.400127e+00 3.307818e+00 2.263232e+00 1.728197e+00 2.930279e+00 1.185598e+00 2.998932e+00 2.133983e+00 2.107858e+00 1.404709e+00 3.312627e-01 2.547233e-01 2.731330e-01 2.733220e-01 4.836864e-01 4.243847e-01 4.599609e-01 5.044546e-01 2.008087e-01 6.564425e-01 2.903585e-01 3.907930e-01 5.654871e-01
<GCONST> 1.060414e+02
<TRANSP> 5
 0.000000e+00 1.000000e+00 0.000000e+00 0.000000e+00 0.000000e+00
 0.000000e+00 9.049103e-01 9.508973e-02 0.000000e+00 0.000000e+00
 0.000000e+00 0.000000e+00 9.339224e-01 6.607761e-02 0.000000e+00
 0.000000e+00 0.000000e+00 0.000000e+00 8.842232e-01 1.157768e-01
 0.000000e+00 0.000000e+00 0.000000e+00 0.000000e+00 0.000000e+00
<ENDHMM>
~h "ah"
<BEGINHMM>
<NUMSTATES> 5
<STATE> 2
<MEAN> 39
 -2.055986e+00 -1.205706e+00 -1.544005e+00 -8.018631e+00 -7.184170e+00 -1.361772e+01 -1.891584e+00 -2.747994e+00 -8.332655e+00 -1.100053e+01 -1.399664e+01 -2.748542e+00 6.525749e+01 7.532455e-01 4.734843e-01 5.727543e-01 3.543624e-01 -6.776895e-02 -3.487526e-01 -4.942135e-01 -9.241301e-01 1.729181e-01 4.137532e-02 -4.720840e-01 -8.998857e-02 -5.008225e-01 -3.361520e-02 5.872061e-02 1.075603e-01 1.116367e-01 1.630144e-01 2.374243e-01 1.030947e-01 5.889403e-02 9.070563e-02 1.137948e-01 2.436174e-01 2.021709e-01 -1.977091e-01
<VARIANCE> 39
 1.344816e+01 4.414948e+01 3.269287e+01 3.992319e+01 2.936926e+01 4.626333e+01 4.247334e+01 4.005959e+01 9.126220e+01 3.379688e+01 3.806522e+01 2.878543e+01 1.260775e+02 7.717662e-01 1.643626e+00 2.285589e+00 2.030412e+00 2.190549e+00 3.157184e+00 2.031106e+00 2.666223e+00 2.620878e+00 3.741503e+00 4.111359e+00 2.269571e+00 2.882194e+00 1.295528e-01 2.016646e-01 2.194071e-01 2.631625e-01 3.741785e-01 4.936708e-01 4.308572e-01 5.275328e-01 3.920190e-01 6.262293e-01 4.949284e-01 3.756870e-01 2.756630e-01
<GCONST> 1.166897e+02
<STATE> 3
<MEAN> 39
 -2.413047e-01 5.670581e+00 5.318253e+00 -1.317294e+00 -2.210751e+00 -1.325581e+01 -5.136529e+00 -6.786439e+00 -1.572349e+01 -1.391357e+01 -1.325230e+01 -1.466803e+00 5.350184e+01 8.705410e-02 2.413111e-01 1.274311e-02 5.817382e-01 2.499742e-01 8.323328e-01 2.916796e-01 1.564979e-01 7.037720e-01 6.424745e-01 7.741526e-01 2.970800e-01 -1.451352e+00 -1.193099e-01 -8.322404e-02 -1.200210e-01 -6.441844e-02 -3.396256e-03 1.072245e-01 8.430685e-02 1.643077e-01 1.545313e-01 1.738260e-01 1.397561e-01 4.048051e-02 2.353392e-02
<VARIANCE> 39
 6.322538e+00 1.199762e+01 8.839900e+00 2.258503e+01 1.933455e+01 3.282667e+01 2.947675e+01 2.201904e+01 7.129462e+01 3.430991e+01 3.113294e+01 2.212488e+01 5.464481e+01 7.008671e-01 7.010133e-01 9.013035e-01 1.061525e+00 1.073714e+00 1.911218e+00 1.335318e+00 1.851827e+00 2.538782e+00 2.174281e+00 1.972784e+00 1.401291e+00 9.696969e-01 1.361901e-01 1.170045e-01 1.127637e-01 2.059675e-01 1.996065e-01 3.154609e-01 2.593454e-01 3.012413e-01 3.380704e-01 3.117473e-01 3.555902e-01 2.358706e-01 1.329319e-01
<GCONST> 9.617036e+01
<STATE> 4
<MEAN> 39
 -6.291782e+00 4.000807e+00 3.687801e+00 1.536941e-01 -6.373598e-01 -4.485779e+00 2.506830e-01 -1.698310e+00 -5.453816e+00 -1.094825e+00 -1.709160e+00 2.586098e+00 4.685917e+01 -5.820267e-01 -3.737999e-01 2.222840e-01 -3.683751e-01 -1.825005e-01 1.271738e-01 7.665882e-01 4.757506e-01 6.616837e-02 8.664034e-01 6.246128e-01 1.604828e-01 4.366039e-01 8.001672e-02 -1.909267e-03 6.385936e-02 1.554905e-02 -4.864702e-02 -1.222404e-01 -3.585728e-02 -1.166847e-01 -2.414479e-01 -2.081881e-01 -1.559004e-01 -8.845776e-02 6.531845e-02
<VARIANCE> 39
 4.439365e+01 2.543661e+01 2.400660e+01 3.427655e+01 2.771789e+01 2.613965e+01 2.839764e+01 3.059725e+01 3.589923e+01 3.450167e+01 4.083209e+01 2.064120e+01 5.243563e+01 3.542467e+00 2.206174e+00 2.361873e+00 3.075320e+00 2.603653e+00 2.771020e+00 2.304476e+00 3.410361e+00 4.056322e+00 3.031429e+00 3.134664e+00 2.025209e+00 4.251907e+00 7.660177e-01 4.295264e-01 5.082311e-01 7.069794e-01 5.980556e-01 6.206351e-01 4.908626e-01 7.227342e-01 8.129824e-01 6.021447e-01 5.719774e-01 3.931716e-01 1.005758e+00
<GCONST> 1.241084e+02
<TRANSP> 5
 0.000000e+00 1.000000e+00 0.000000e+00 0.000000e+00 0.000000e+00
 0.000000e+00 7.464066e-01 2.535935e-01 0.000000e+00 0.000000e+00
 0.000000e+00 0.000000e+00 8.736519e-01 1.263481e-01 0.000000e+00
 0.000000e+00 0.000000e+00 0.000000e+00 7.991557e-01 2.008444e-01
 0.000000e+00 0.000000e+00 0.000000e+00 0.000000e+00 0.000000e+00
<ENDHMM>
~h "ao"
<BEGINHMM>
<NUMSTATES> 5
<STATE> 2
<MEAN> 39
 1.201854e+00 5.542778e+00 -1.311336e+01 -2.407640e+01 -1.384286e+01 -7.049322e+00 -1.590871e+00 -2.246844e+00 -1.000915e+01 -5.672544e+00 -9.182169e+00 -4.814745e+00 7.017879e+01 -4.275788e-02 9.291691e-02 -7.359554e-03 -1.259613e-01 1.215194e-01 5.086532e-02 -3.355026e-02 3.529005e-02 -9.110270e-02 -6.035116e-02 -5.644310e-02 3.507733e-02 -1.289846e-01 1.116426e-03 -2.490635e-03 2.042965e-02 2.144763e-02 4.520838e-02 3.345389e-02 2.035552e-02 7.430849e-03 -1.551776e-02 -8.020421e-03 4.981560e-02 5.100391e-02 -2.083467e-02
<VARIANCE> 39
 2.240972e+00 3.909180e+01 7.757916e+00 4.082269e+01 2.430754e+01 3.021703e+01 1.980128e+01 1.937407e+01 2.565962e+01 1.906171e+01 2.300513e+01 2.248611e+01 1.805092e+01 5.827735e-02 3.100786e-01 2.399451e-01 5.326369e-01 6.972900e-01 7.157711e-01 8.214310e-01 8.148348e-01 1.024239e+00 1.027883e+00 9.554481e-01 8.132719e-01 7.030917e-02 1.050507e-02 5.213675e-02 5.139967e-02 1.015456e-01 1.014061e-01 1.131103e-01 1.478696e-01 1.453551e-01 1.718638e-01 1.706577e-01 1.605448e-01 1.266048e-01 1.159286e-02
<GCONST> 6.681288e+01
<STATE> 3
<MEAN> 39
 2.463581e+00 7.580522e+00 -1.218225e+01 -2.407065e+01 -4.312561e+00 -2.195344e+00 -2.014340e+00 -4.731563e+00 -1.265594e+01 -8.630866e+00 -5.246529e+00 -1.881890e+00 5.998007e+01 9.954447e-02 2.153495e-02 3.437171e-01 9.120458e-01 6.004670e-01 4.416690e-01 1.651427e-01 -1.943609e-01 1.932603e-01 1.014693e-01 4.608389e-01 1.354083e-01 -1.360909e+00 -6.682304e-02 -5.300713e-02 4.368280e-02 1.162140e-01 -7.807057e-02 3.111765e-02 7.431146e-02 1.124907e-01 1.561549e-01 1.755160e-01 3.872323e-02 8.653439e-02 -7.213067e-02
<VARIANCE> 39
 7.772935e+00 2.175251e+01 1.280355e+01 5.636160e+01 4.798508e+01 2.966875e+01 2.945515e+01 4.304398e+01 2.649864e+01 3.702944e+01 3.742513e+01 2.916475e+01 5.699815e+01 6.105074e-01 1.325700e+00 8.573831e-01 3.369762e+00 1.872910e+00 1.556509e+00 1.402134e+00 1.683711e+00 2.111270e+00 2.398635e+00 1.630812e+00 1.609306e+00 7.905285e-01 9.563158e-02 2.009445e-01 1.412705e-01 4.079178e-01 3.161612e-01 2.878366e-01 2.357543e-01 2.852399e-01 3.109357e-01 3.861697e-01 2.884713e-01 2.737956e-01 8.307122e-02
<GCONST> 1.018045e+02
<STATE> 4
<MEAN> 39
 -4.087541e+00 2.296559e+00 -1.895069e+00 -1.012302e+00 4.035076e-01 1.296673e+00 1.290076e+00 7.488500e-01 -1.089337e+00 8.159053e-01 2.713327e+00 4.713683e+00 4.246691e+01 -2.414123e-01 -4.600783e-02 3.045328e-01 4.499738e-01 3.555828e-02 3.904467e-03 4.466896e-02 1.636179e-01 2.676995e-01 2.853498e-01 1.117735e-01 1.326299e-01 -2.275489e-01 2.609339e-02 2.909398e-02 -1.451766e-02 -4.462687e-02 1.241011e-02 -3.013100e-02 -3.832736e-02 -5.383706e-02 -6.435429e-02 -6.460737e-02 -3.730095e-02 -5.811530e-02 5.621053e-02
<VARIANCE> 39
 1.066380e+01 1.921560e+01 2.060566e+01 3.058841e+01 2.412110e+01 2.149242e+01 2.000582e+01 3.163012e+01 2.202725e+01 2.491916e+01 1.940980e+01 1.964192e+01 1.596290e+01 4.395508e-01 1.055312e+00 7.152747e-01 1.066554e+00 1.809065e+00 1.551509e+00 1.779457e+00 1.781987e+00 1.875669e+00 2.013647e+00 1.620660e+00 1.730113e+00 4.316111e-01 7.898522e-02 1.793548e-01 1.303643e-01 1.923630e-01 3.237612e-01 2.893517e-01 3.366694e-01 3.010115e-01 3.382368e-01 3.770599e-01 3.053713e-01 3.237881e-01 7.080122e-02
<GCONST> 9.421455e+01
<TRANSP> 5
 0.000000e+00 1.000000e+00 0.000000e+00 0.000000e+00 0.000000e+00
 0.000000e+00 9.570974e-01 4.290267e-02 0.000000e+00 0.000000e+00
 0.000000e+00 0.000000e+00 9.309942e-01 6.900579e-02 0.000000e+00
 0.000000e+00 0.000000e+00 0.000000e+00 9.664281e-01 3.357191e-02
 0.000000e+00 0.000000e+00 0.000000e+00 0.000000e+00 0.000000e+00
<ENDHMM>
~h "ay"
<BEGINHMM>
<NUMSTATES> 5
<STATE> 2
<MEAN> 39
 -3.310205e+00 -1.458156e+01 -1.023328e+01 -7.762077e+00 1.951125e+00 -3.972234e-01 -6.611272e+00 -7.877052e+00 -8.762674e+00 -1.416269e+01 -1.236768e+01 -4.018826e+00 7.356963e+01 -4.881553e-02 -2.108246e-01 2.260377e-01 3.215181e-01 -9.280957e-02 -1.532315e-01 1.080586e-02 7.577598e-02 -3.847725e-02 -1.262511e-01 -9.292330e-02 1.636143e-01 -5.791891e-02 -1.504540e-02 8.768870e-02 5.779120e-02 -3.551294e-02 -1.064285e-01 -7.116431e-02 1.579865e-01 8.559094e-02 -5.938543e-02 -9.104468e-03 5.209091e-02 4.242551e-02 -1.602741e-02
<VARIANCE> 39
 5.999173e+00 1.275979e+01 2.181007e+01 1.878728e+01 2.162254e+01 3.169052e+01 2.197031e+01 2.990536e+01 2.468720e+01 4.458289e+01 1.942855e+01 2.143141e+01 1.021276e+01 1.717861e-01 2.491889e-01 3.545153e-01 5.370698e-01 7.783309e-01 8.972051e-01 1.226848e+00 9.356028e-01 9.568054e-01 7.555780e-01 7.605736e-01 7.371583e-01 1.405752e-01 2.737206e-02 6.274335e-02 5.726521e-02 8.643638e-02 1.159431e-01 1.289917e-01 1.547351e-01 1.469060e-01 1.617102e-01 1.379041e-01 1.357021e-01 1.195813e-01 4.154208e-02
<GCONST> 7.174384e+01
<STATE> 3
<MEAN> 39
 -6.243504e+00 -1.318646e+01 -3.365325e+00 -8.538075e+00 -7.086931e+00 -2.314928e+00 4.027313e+00 -6.724934e+00 -1.447263e+01 -1.549126e+01 -1.036867e+01 -3.314278e+00 7.346350e+01 -3.953768e-01 9.738965e-01 1.083657e+00 -9.560719e-01 -1.607252e+00 2.147754e-01 1.324965e+00 -6.100227e-01 -2.874058e-01 5.638092e-01 2.462012e-01 -8.882095e-01 -1.881942e-01 4.088197e-03 1.867874e-01 1.000531e-01 -1.290095e-01 1.436220e-02 7.586740e-02 -3.248387e-01 -1.688551e-01 2.709214e-01 2.317931e-01 -1.431259e-01 -1.648042e-01 -8.654287e-02
<VARIANCE> 39
 7.840725e+00 1.761156e+01 2.170813e+01 2.146432e+01 3.642139e+01 2.462552e+01 4.488360e+01 2.369300e+01 3.592755e+01 2.685005e+01 2.253157e+01 2.886032e+01 9.510409e+00 2.086642e-01 5.631124e-01 5.496178e-01 8.924893e-01 1.161031e+00 1.145752e+00 2.158563e+00 1.109728e+00 1.599492e+00 1.599470e+00 1.376833e+00 1.321486e+00 1.466045e-01 3.090233e-02 5.095423e-02 6.322493e-02 1.196419e-01 1.904220e-01 1.660150e-01 3.923844e-01 1.617423e-01 1.932358e-01 2.231756e-01 1.878683e-01 2.446870e-01 1.556882e-02
<GCONST> 8.210670e+01
<STATE> 4
<MEAN> 39
 -8.456463e+00 1.661041e+00 7.051733e+00 -1.448713e+01 -1.240216e+01 -1.327798e+00 -3.721484e+00 -1.321216e+01 -9.142400e+00 -7.778504e+00 -1.279682e+01 -6.550021e+00 6.665876e+01 7.969157e-02 1.098814e+00 6.345171e-01 1.470325e-01 2.481904e-01 -1.258963e-01 -1.313435e+00 -3.463084e-01 3.194874e-01 3.483420e-01 -2.605871e-01 4.095320e-01 -9.408347e-01 8.155765e-02 -1.274085e-01 -1.238207e-01 2.142368e-01 1.137825e-01 -2.315239e-02 9.486683e-02 9.977811e-02 -1.127329e-01 -1.235310e-01 8.146612e-02 1.129705e-01 -7.619521e-02
<VARIANCE> 39
 7.698427e+00 4.170898e+01 1.464129e+01 2.641113e+01 4.237434e+01 3.389921e+01 7.601859e+01 2.464905e+01 6.723347e+01 4.241356e+01 5.902235e+01 2.634149e+01 3.363084e+01 3.975525e-01 6.498062e-01 7.407268e-01 1.033191e+00 1.306040e+00 1.024974e+00 1.850448e+00 1.381699e+00 1.337756e+00 1.629027e+00 1.187886e+00 1.301770e+00 2.707906e-01 5.115663e-02 5.725173e-02 8.325709e-02 1.289568e-01 1.804131e-01 1.818942e-01 3.205793e-01 2.148461e-01 2.061716e-01 2.216021e-01 1.887881e-01 2.532738e-01 2.896042e-02
<GCONST> 9.042252e+01
<TRANSP> 5
 0.000000e+00 1.000000e+00 0.000000e+00 0.000000e+00 0.000000e+00
 0.000000e+00 9.367126e-01 6.328744e-02 0.000000e+00 0.000000e+00
 0.000000e+00 0.000000e+00 8.739271e-01 1.260729e-01 0.000000e+00
 0.000000e+00 0.000000e+00 0.000000e+00 9.128179e-01 8.718205e-02
 0.000000e+00 0.000000e+00 0.000000e+00 0.000000e+00 0.000000e+00
<ENDHMM>
~h "ch"
<BEGINHMM>
<NUMSTATES> 5
<STATE> 2
<MEAN> 39
 -1.460676e+01 4.175969e+00 7.099895e+00 -8.195866e+00 -7.386444e+00 1.752291e-01 -5.307066e+00 -3.109699e+00 6.934662e-01 6.649945e-01 1.327050e+00 2.010977e+00 5.362171e+01 -3.460003e+00 4.036938e-02 -2.188545e+00 7.437470e-01 6.974005e-01 2.465228e-01 5.493003e-01 7.935800e-01 -3.741819e-02 -3.897191e-01 1.156390e+00 -2.505212e-01 2.977647e+00 -2.220763e-01 4.181475e-01 2.959759e-02 -1.986102e-02 1.588543e-02 1.414579e-01 -1.435234e-02 -9.648328e-02 -1.433339e-01 -1.257950e-01 -2.995953e-01 -2.219954e-01 3.867243e-01
<VARIANCE> 39
 1.099540e+02 2.594920e+01 5.325169e+01 2.012664e+01 3.192088e+01 2.146981e+01 1.725941e+01 1.892594e+01 9.457781e+00 2.336934e+01 2.414423e+01 1.709666e+01 1.299559e+02 6.420345e+00 4.920912e+00 2.546342e+00 1.799441e+00 3.368174e+00 1.628117e+00 1.608178e+00 1.880033e+00 1.265183e+00 2.625189e+00 2.776246e+00 2.357308e+00 9.794742e+00 1.627043e+00 8.001097e-01 7.621408e-01 3.585384e-01 6.106611e-01 2.788557e-01 3.276946e-01 3.906108e-01 2.941245e-01 6.628061e-01 4.268942e-01 4.509057e-01 2.487438e+00
<GCONST> 1.211308e+02
<STATE> 3
<MEAN> 39
 -3.053320e+01 9.901460e+00 3.851626e+00 -4.560891e+00 -6.603907e+00 3.082565e+00 -7.907849e-02 -2.558469e+00 -7.807220e-01 -1.113385e+00 3.181679e+00 -1.522828e+00 6.878825e+01 5.024930e-01 -1.495045e-01 7.660627e-01 2.680900e-01 -2.457103e-01 2.825516e-02 4.048856e-01 -2.275378e-01 4.821552e-02 6.221265e-02 -5.582836e-03 2.411617e-02 -4.684696e-01 2.837973e-01 -2.242495e-01 1.035828e-01 4.600002e-02 2.863619e-02 -3.308748e-02 6.982770e-02 4.859188e-02 3.892341e-02 -2.455502e-02 1.388367e-02 5.100275e-02 -2.559304e-01
<VARIANCE> 39
 1.318165e+01 6.523137e+00 1.989810e+01 6.769865e+00 1.949474e+01 1.655418e+01 1.648213e+01 1.746128e+01 1.455358e+01 1.199930e+01 1.383168e+01 1.131737e+01 1.389039e+01 1.264757e+00 1.305747e+00 7.846598e-01 8.239768e-01 1.331481e+00 9.934059e-01 1.292307e+00 1.432775e+00 1.383126e+00 1.103473e+00 1.117994e+00 1.091447e+00 7.248257e-01 1.901253e-01 1.505247e-01 2.189082e-01 1.399707e-01 2.657056e-01 2.123830e-01 2.611572e-01 3.228779e-01 2.903984e-01 2.256969e-01 2.199358e-01 2.012765e-01 1.029827e-01
<GCONST> 8.607928e+01
<STATE> 4
<MEAN> 39
 -1.199037e+01 2.403710e+00 7.639825e+00 1.832845e+00 -3.703119e+00 3.122687e+00 5.189179e+00 -1.461444e+00 8.445783e-01 6.013277e-01 3.261113e+00 3.272881e+00 4.778620e+01 6.598732e-01 -7.225685e-02 -1.756251e-01 1.520748e-01 3.566666e-01 9.716807e-02 -2.567899e-02 -6.944157e-03 -6.651187e-03 1.138009e-01 -4.752824e-02 1.781551e-01 -7.871934e-01 -7.541780e-02 5.676370e-02 -6.805272e-02 -5.965973e-02 -6.065744e-03 -2.175433e-02 -8.731745e-02 -3.677652e-02 -3.713407e-02 7.075836e-03 8.249120e-03 -2.906128e-02 8.342084e-02
<VARIANCE> 39
 2.421552e+01 2.665820e+01 4.125913e+01 2.921482e+01 2.067439e+01 2.743538e+01 3.382113e+01 2.764683e+01 2.408174e+01 3.208633e+01 1.860801e+01 1.865497e+01 4.677230e+01 1.291919e+00 1.940967e+00 1.471621e+00 2.682155e+00 1.562692e+00 2.336272e+00 2.999312e+00 2.592942e+00 2.317192e+00 2.528849e+00 1.818280e+00 1.508723e+00 2.589104e+00 1.725392e-01 3.858539e-01 2.586751e-01 4.922161e-01 2.844670e-01 4.513119e-01 4.989521e-01 4.763783e-01 4.755478e-01 5.376000e-01 3.629304e-01 3.104225e-01 2.163935e-01
<GCONST> 1.107972e+02
<TRANSP> 5
 0.000000e+00 1.000000e+00 0.000000e+00 0.000000e+00 0.000000e+00
 0.000000e+00 8.700027e-01 1.299973e-01 0.000000e+00 0.000000e+00
 0.000000e+00 0.000000e+00 9.375917e-01 6.240834e-02 0.000000e+00
 0.000000e+00 0.000000e+00 0.000000e+00 9.530963e-01 4.690362e-02
 0.000000e+00 0.000000e+00 0.000000e+00 0.000000e+00 0.000000e+00
<ENDHMM>
~h "eh"
<BEGINHMM>
<NUMSTATES> 5
<STATE> 2
<MEAN> 39
 -8.018650e+00 -5.822974e+00 1.285601e+00 -7.266308e+00 -9.225595e+00 -2.504195e+00 7.269311e+00 -2.954898e+00 -6.643042e+00 -2.704792e+00 -2.831341e+00 3.436056e-02 6.161377e+01 -2.385795e-01 -2.656087e+00 -5.842624e-01 -2.303752e+00 -1.659001e+00 8.093588e-03 9.150492e-01 -1.060201e+00 -1.853607e+00 -1.800000e+00 -1.595816e+00 -1.405630e+00 4.569417e+00 -1.335203e-01 2.934511e-01 -1.879358e-01 3.506802e-01 1.891965e-01 3.223295e-01 -1.953072e-01 -8.263735e-02 4.821322e-02 -8.982351e-02 5.405616e-02 -1.531243e-01 -2.548673e-01
<VARIANCE> 39
 1.911723e+01 8.300391e+01 2.684916e+01 9.205855e+01 6.737350e+01 6.126136e+01 4.064726e+01 2.863503e+01 5.163678e+01 5.034256e+01 4.169157e+01 3.068696e+01 2.581546e+02 1.723772e+00 6.132615e+00 2.082494e+00 5.774659e+00 3.963130e+00 2.870070e+00 5.402349e+00 2.530329e+00 3.636837e+00 3.416026e+00 2.707783e+00 2.283768e+00 1.588223e+01 5.486630e-01 1.513668e+00 3.708428e-01 1.410625e+00 9.272297e-01 6.480311e-01 1.135857e+00 4.500847e-01 8.673797e-01 7.461717e-01 6.504192e-01 4.713646e-01 4.454581e+00
<GCONST> 1.376761e+02
<STATE> 3
<MEAN> 39
 -6.378648e+00 -1.223786e+01 -3.120336e+00 -1.120057e+01 -1.304403e+01 -8.528863e-02 7.048482e+00 -6.777936e+00 -1.254412e+01 -1.325261e+01 -7.799882e+00 -6.617393e+00 7.524004e+01 2.213013e-01 7.948478e-02 -1.731969e-01 2.554258e-01 1.983038e-01 -1.292184e-01 -1.524015e-01 2.123119e-01 4.784686e-01 -3.543621e-01 -5.889913e-02 1.584585e-03 -2.306189e-01 4.135881e-02 1.338361e-01 7.421011e-02 8.871843e-02 7.528704e-02 -1.523139e-01 -8.068589e-02 1.594809e-02 1.803458e-01 1.606152e-01 4.847494e-02 9.797185e-02 -1.754145e-01
<VARIANCE> 39
 9.728774e+00 2.047327e+01 2.368961e+01 2.366929e+01 3.072967e+01 5.126463e+01 2.650849e+01 2.904927e+01 2.860550e+01 2.106427e+01 2.430487e+01 1.955103e+01 1.088740e+01 3.099188e-01 4.854355e-01 4.666111e-01 6.013288e-01 8.568085e-01 1.259484e+00 1.330645e+00 1.001820e+00 1.210509e+00 9.781851e-01 8.853106e-01 9.856109e-01 2.373016e-01 5.466777e-02 8.778698e-02 6.919370e-02 1.269738e-01 1.367983e-01 1.631058e-01 2.319418e-01 1.866475e-01 1.885949e-01 1.763088e-01 1.546317e-01 1.728265e-01 9.806171e-02
<GCONST> 8.169032e+01
<STATE> 4
<MEAN> 39
 -2.448013e+00 -7.596694e+00 -3.858063e+00 -8.115782e+00 -1.089502e+01 -7.529352e+00 3.188050e+00 -4.042926e+00 -3.346533e+00 -1.033596e+01 -7.581129e+00 -4.543484e+00 6.776734e+01 8.746713e-02 1.619263e+00 4.722790e-02 1.362862e+00 1.137674e+00 1.919903e-02 -1.478329e+00 -4.689245e-01 7.590400e-01 1.425902e+00 3.161956e-01 2.916483e-01 -1.799135e+00 -3.503617e-01 1.647725e-01 -3.924767e-02 1.842754e-01 1.189750e-01 3.936728e-01 1.239415e-01 -3.835690e-02 -3.843037e-01 2.203909e-01 1.653981e-01 8.800641e-02 2.798760e-02
<VARIANCE> 39
 1.179535e+01 2.635250e+01 1.947785e+01 2.171623e+01 2.887221e+01 4.389416e+01 5.704097e+01 2.194023e+01 3.209679e+01 3.570690e+01 3.614504e+01 2.245080e+01 4.520976e+01 2.012096e+00 1.916963e+00 1.112517e+00 1.618983e+00 1.874560e+00 4.000077e+00 2.717995e+00 2.153145e+00 2.782350e+00 2.202542e+00 1.962375e+00 2.223247e+00 1.024861e+00 2.257304e-01 3.052413e-01 1.867511e-01 2.713450e-01 3.191462e-01 5.602943e-01 4.383982e-01 3.433679e-01 4.181697e-01 3.952092e-01 3.506705e-01 3.386277e-01 2.608551e-01
<GCONST> 1.097781e+02
<TRANSP> 5
 0.000000e+00 1.000000e+00 0.000000e+00 0.000000e+00 0.000000e+00
 0.000000e+00 8.001012e-01 1.998989e-01 0.000000e+00 0.000000e+00
 0.000000e+00 0.000000e+00 9.160042e-01 8.399578e-02 0.000000e+00
 0.000000e+00 0.000000e+00 0.000000e+00 7.422821e-01 2.577179e-01
 0.000000e+00 0.000000e+00 0.000000e+00 0.000000e+00 0.000000e+00
<ENDHMM>
~h "ey"
<BEGINHMM>
<NUMSTATES> 5
<STATE> 2
<MEAN> 39
 -6.722734e+00 5.862555e+00 3.331934e+00 2.941796e+00 -6.778160e-01 1.658367e+00 1.792178e+00 -2.499471e-01 4.433088e-01 4.448854e+00 3.733645e+00 4.017758e+00 3.881989e+01 2.274321e-02 5.293854e-02 -1.482184e-02 3.041925e-02 4.919297e-02 3.505432e-02 -4.429496e-02 1.002133e-02 7.372295e-02 2.821894e-02 2.597562e-02 6.445005e-03 -9.744298e-02 -4.873725e-02 -5.779285e-02 3.086538e-02 -7.675562e-02 -7.749631e-02 -5.098631e-02 5.392906e-02 -9.235365e-03 -2.121817e-02 4.405668e-05 -5.496195e-02 -4.501156e-03 1.403143e-01
<VARIANCE> 39
 4.786425e+00 8.996922e+00 9.500583e+00 8.373077e+00 1.194913e+01 1.312193e+01 1.819934e+01 1.812078e+01 1.445376e+01 1.584010e+01 1.542441e+01 1.356797e+01 5.746991e+00 3.680123e-01 4.760743e-01 5.813010e-01 7.352296e-01 9.595965e-01 1.134475e+00 1.474603e+00 1.346523e+00 1.404085e+00 1.431237e+00 1.494765e+00 1.245278e+00 2.051500e-01 9.135494e-02 1.230157e-01 1.258840e-01 2.482050e-01 2.594230e-01 2.579081e-01 3.108517e-01 2.841623e-01 2.920407e-01 2.948756e-01 3.496205e-01 2.589960e-01 2.205041e-01
<GCONST> 8.165845e+01
<STATE> 3
<MEAN> 39
 -9.585069e+00 -1.569260e-01 5.548766e+00 -1.181608e+01 -1.356796e+01 -3.576049e+00 4.853318e+00 -4.946126e+00 -2.314424e+00 3.288642e+00 -6.671916e+00 -1.154596e+00 6.352991e+01 -2.007048e-01 -8.161802e-01 2.261338e-01 -2.355181e+00 -2.248397e+00 -8.656015e-01 2.490833e-02 -9.544580e-01 -7.040567e-01 -2.892982e-01 -1.604098e+00 -9.245120e-01 3.450560e+00 7.845326e-02 1.430131e-01 -5.331503e-02 1.685719e-01 1.166946e-01 1.090493e-01 -1.967849e-01 -1.993845e-02 -1.525441e-02 -9.665648e-02 9.311443e-02 9.864040e-03 -2.349771e-01
<VARIANCE> 39
 1.619871e+01 3.388822e+01 1.964543e+01 1.237088e+02 1.058972e+02 4.100750e+01 3.477171e+01 3.119022e+01 2.397183e+01 2.967387e+01 5.818371e+01 3.676978e+01 2.331853e+02 1.725400e+00 3.272124e+00 2.214008e+00 8.229519e+00 6.787438e+00 3.317049e+00 3.732931e+00 2.121855e+00 1.924330e+00 2.706740e+00 3.743348e+00 2.295407e+00 1.618073e+01 3.307566e-01 6.313390e-01 3.938349e-01 1.658627e+00 1.415523e+00 6.521038e-01 6.025573e-01 4.201925e-01 3.567490e-01 4.734459e-01 7.970260e-01 4.423941e-01 3.311627e+00
<GCONST> 1.321663e+02
<STATE> 4
<MEAN> 39
 -8.588305e+00 5.817020e+00 1.167621e+01 -1.825900e+01 -1.716867e+01 -4.699785e+00 -8.745465e+00 -1.083636e+01 -5.816764e+00 5.274116e-02 -1.095192e+01 -8.975675e-01 6.506346e+01 1.493287e-01 3.048998e-01 1.985575e-01 4.424894e-01 4.925122e-01 2.270424e-01 -3.347259e-01 1.514540e-01 2.393324e-01 4.260264e-02 3.307731e-01 2.816262e-01 -1.005574e+00 -2.287939e-02 -3.633658e-02 -4.425907e-02 3.679102e-02 2.988679e-02 -1.616995e-02 7.874928e-02 4.652605e-02 3.765863e-02 4.967146e-02 4.860075e-02 2.800954e-02 -1.722835e-02
<VARIANCE> 39
 1.534366e+01 3.015303e+01 2.236412e+01 3.201657e+01 4.503263e+01 2.307551e+01 4.499509e+01 1.803610e+01 2.830648e+01 2.117096e+01 2.590762e+01 2.030431e+01 1.135386e+02 8.831208e-01 6.696762e-01 8.541105e-01 1.086797e+00 8.341073e-01 1.069991e+00 1.568651e+00 1.219792e+00 1.655496e+00 1.396231e+00 1.509957e+00 1.007883e+00 1.229030e+00 1.470611e-01 9.026289e-02 1.208002e-01 1.718137e-01 1.537684e-01 1.940252e-01 2.078022e-01 2.148555e-01 2.502288e-01 2.444639e-01 2.402367e-01 1.732244e-01 1.504143e-01
<GCONST> 9.414005e+01
<TRANSP> 5
 0.000000e+00 1.000000e+00 0.000000e+00 0.000000e+00 0.000000e+00
 0.000000e+00 9.457570e-01 5.424298e-02 0.000000e+00 0.000000e+00
 0.000000e+00 0.000000e+00 8.887869e-01 1.112131e-01 0.000000e+00
 0.000000e+00 0.000000e+00 0.000000e+00 9.624029e-01 3.759714e-02
 0.000000e+00 0.000000e+00 0.000000e+00 0.000000e+00 0.000000e+00
<ENDHMM>
~h "ia"
<BEGINHMM>
<NUMSTATES> 5
<STATE> 2
<MEAN> 39
 -7.381522e+00 3.330936e+00 2.047153e+00 -3.046288e+00 -4.874629e+00 -2.964739e+00 -5.433913e-01 -3.441086e+00 -4.156183e+00 -7.898898e-01 -2.925678e+00 8.747759e-01 5.354753e+01 4.188114e-03 7.886445e-03 8.638212e-04 -3.319199e-05 4.583947e-03 2.944113e-03 -4.185917e-03 -2.407409e-03 4.110487e-03 -9.366490e-04 -2.847919e-03 -1.119324e-03 -3.485081e-03 -2.780182e-04 4.271456e-06 2.111308e-05 2.157945e-05 -1.623377e-04 6.947975e-04 6.310043e-04 2.858052e-04 2.109315e-04 1.335133e-04 3.614691e-04 -5.897314e-04 -3.645968e-04
<VARIANCE> 39
 3.956010e+01 5.039151e+01 5.962346e+01 1.002791e+02 6.064148e+01 5.444832e+01 5.840739e+01 4.790145e+01 4.806982e+01 5.399290e+01 6.658193e+01 3.143701e+01 1.841879e+02 1.501115e+00 1.479264e+00 1.419895e+00 2.272107e+00 1.880642e+00 2.105628e+00 2.280031e+00 1.936650e+00 2.018196e+00 1.963827e+00 1.997587e+00 1.559135e+00 2.571761e+00 2.319898e-01 2.408473e-01 2.210669e-01 3.404900e-01 3.085047e-01 3.687871e-01 3.892777e-01 3.406794e-01 3.576038e-01 3.468189e-01 3.398416e-01 2.856025e-01 3.133720e-01
<GCONST> 1.177766e+02
<STATE> 3
<MEAN> 39
 -7.381522e+00 3.330936e+00 2.047153e+00 -3.046288e+00 -4.874629e+00 -2.964739e+00 -5.433913e-01 -3.441086e+00 -4.156183e+00 -7.898898e-01 -2.925678e+00 8.747759e-01 5.354753e+01 4.188114e-03 7.886445e-03 8.638212e-04 -3.319199e-05 4.583947e-03 2.944113e-03 -4.185917e-03 -2.407409e-03 4.110487e-03 -9.366490e-04 -2.847919e-03 -1.119324e-03 -3.485081e-03 -2.780182e-04 4.271456e-06 2.111308e-05 2.157945e-05 -1.623377e-04 6.947975e-04 6.310043e-04 2.858052e-04 2.109315e-04 1.335133e-04 3.614691e-04 -5.897314e-04 -3.645968e-04
<VARIANCE> 39
 3.956010e+01 5.039151e+01 5.962346e+01 1.002791e+02 6.064148e+01 5.444832e+01 5.840739e+01 4.790145e+01 4.806982e+01 5.399290e+01 6.658193e+01 3.143701e+01 1.841879e+02 1.501115e+00 1.479264e+00 1.419895e+00 2.272107e+00 1.880642e+00 2.105628e+00 2.280031e+00 1.936650e+00 2.018196e+00 1.963827e+00 1.997587e+00 1.559135e+00 2.571761e+00 2.319898e-01 2.408473e-01 2.210669e-01 3.404900e-01 3.085047e-01 3.687871e-01 3.892777e-01 3.406794e-01 3.576038e-01 3.468189e-01 3.398416e-01 2.856025e-01 3.133720e-01
<GCONST> 1.177766e+02
<STATE> 4
<MEAN> 39
 -7.381522e+00 3.330936e+00 2.047153e+00 -3.046288e+00 -4.874629e+00 -2.964739e+00 -5.433913e-01 -3.441086e+00 -4.156183e+00 -7.898898e-01 -2.925678e+00 8.747759e-01 5.354753e+01 4.188114e-03 7.886445e-03 8.638212e-04 -3.319199e-05 4.583947e-03 2.944113e-03 -4.185917e-03 -2.407409e-03 4.110487e-03 -9.366490e-04 -2.847919e-03 -1.119324e-03 -3.485081e-03 -2.780182e-04 4.271456e-06 2.111308e-05 2.157945e-05 -1.623377e-04 6.947975e-04 6.310043e-04 2.858052e-04 2.109315e-04 1.335133e-04 3.614691e-04 -5.897314e-04 -3.645968e-04
<VARIANCE> 39
 3.956010e+01 5.039151e+01 5.962346e+01 1.002791e+02 6.064148e+01 5.444832e+01 5.840739e+01 4.790145e+01 4.806982e+01 5.399290e+01 6.658193e+01 3.143701e+01 1.841879e+02 1.501115e+00 1.479264e+00 1.419895e+00 2.272107e+00 1.880642e+00 2.105628e+00 2.280031e+00 1.936650e+00 2.018196e+00 1.963827e+00 1.997587e+00 1.559135e+00 2.571761e+00 2.319898e-01 2.408473e-01 2.210669e-01 3.404900e-01 3.085047e-01 3.687871e-01 3.892777e-01 3.406794e-01 3.576038e-01 3.468189e-01 3.398416e-01 2.856025e-01 3.133720e-01
<GCONST> 1.177766e+02
<TRANSP> 5
 0.000000e+00 1.000000e+00 0.000000e+00 0.000000e+00 0.000000e+00
 0.000000e+00 6.000000e-01 4.000000e-01 0.000000e+00 0.000000e+00
 0.000000e+00 0.000000e+00 6.000000e-01 4.000000e-01 0.000000e+00
 0.000000e+00 0.000000e+00 0.000000e+00 7.000000e-01 3.000000e-01
 0.000000e+00 0.000000e+00 0.000000e+00 0.000000e+00 0.000000e+00
<ENDHMM>
~h "ih"
<BEGINHMM>
<NUMSTATES> 5
<STATE> 2
<MEAN> 39
 -1.014839e+01 1.880443e+00 1.186519e+01 -1.800484e+01 -2.134624e+01 -9.741704e+00 -9.892336e+00 -1.350694e+01 -1.028883e+01 6.202525e+00 -1.127036e+01 8.265933e-01 7.200008e+01 -3.023005e-01 2.629248e-01 7.124373e-01 -7.757159e-01 3.447993e-01 6.690250e-01 -4.661316e-01 -2.901614e-01 2.926613e-01 -6.918107e-02 -9.810272e-01 3.984184e-01 -2.901961e-01 1.093967e-02 1.019564e-01 -1.954066e-01 3.728456e-01 2.301826e-01 1.688661e-01 2.805212e-01 1.576541e-01 1.231519e-01 -1.082389e-01 1.012487e-01 3.286849e-02 -3.347796e-01
<VARIANCE> 39
 1.134014e+01 1.398342e+01 2.660498e+01 4.714912e+01 2.859288e+01 2.614902e+01 3.245092e+01 1.756056e+01 1.705405e+01 2.205221e+01 3.228457e+01 1.410216e+01 1.437919e+01 6.340882e-01 7.762875e-01 1.041413e+00 2.320932e+00 1.906298e+00 1.382924e+00 1.809975e+00 1.191813e+00 1.454666e+00 2.019654e+00 1.523581e+00 1.057495e+00 1.173620e+00 2.501785e-01 1.346790e-01 2.159773e-01 2.765536e-01 4.946507e-01 3.730762e-01 2.669337e-01 2.253567e-01 3.543085e-01 3.671959e-01 3.819206e-01 1.882108e-01 8.767080e-02
<GCONST> 9.736794e+01
<STATE> 3
<MEAN> 39
 -9.119157e+00 1.587191e+00 8.505316e+00 -7.258990e+00 -1.466489e+01 -4.444092e+00 -3.412374e+00 -8.316780e+00 -3.456337e+00 5.335491e+00 -6.337969e+00 4.191335e+00 5.704220e+01 -5.722845e-01 -3.999457e-01 -1.610999e+00 1.965417e+00 1.033690e-01 -6.172212e-02 1.460892e+00 1.021961e+00 1.787203e-01 -9.683060e-02 1.531273e+00 -2.256853e-01 7.416879e-02 -2.482152e-01 1.685249e-01 -2.977690e-02 -5.153323e-02 -5.955462e-02 2.326347e-02 -8.332231e-02 4.469037e-02 -1.145419e-01 -3.416588e-02 5.199427e-02 -7.169180e-02 2.489387e-01
<VARIANCE> 39
 2.666968e+01 4.082420e+01 9.291506e+01 1.069442e+02 2.136689e+01 2.962669e+01 8.151329e+01 4.738721e+01 3.133148e+01 3.005846e+01 7.164705e+01 2.331529e+01 7.039896e+01 3.878904e+00 5.007565e+00 5.831933e+00 4.837090e+00 2.191322e+00 3.206544e+00 5.968132e+00 2.908363e+00 3.941346e+00 3.564446e+00 3.134545e+00 2.343040e+00 9.940396e+00 3.460550e-01 1.017307e+00 1.078014e+00 9.197869e-01 3.799384e-01 6.768519e-01 1.256223e+00 6.034542e-01 6.456549e-01 7.629991e-01 6.853418e-01 5.006993e-01 1.237400e+00
<GCONST> 1.348974e+02
<STATE> 4
<MEAN> 39
 -2.148907e+01 4.169315e+00 -7.445947e+00 7.368178e+00 -1.027513e+01 -1.976567e+00 5.612167e+00 1.279836e+00 -4.043625e+00 1.857542e+00 2.519379e+00 2.759745e+00 6.165529e+01 1.398359e-01 1.705869e-01 2.170068e-01 -1.704839e-01 3.708736e-01 -7.103564e-03 -1.114161e-01 -6.734348e-03 8.602141e-02 -1.936174e-01 -3.632019e-02 4.773755e-02 -5.507947e-01 2.267540e-01 -1.713263e-01 1.476343e-01 -3.175579e-02 1.376631e-02 -1.080948e-01 -6.237666e-03 -5.249005e-02 1.352969e-02 1.183922e-02 -4.600093e-02 2.375467e-02 -1.378998e-01
<VARIANCE> 39
 1.028015e+01 5.446696e+00 1.360192e+01 1.227606e+01 1.749244e+01 1.745418e+01 1.552326e+01 2.445938e+01 1.786320e+01 1.489837e+01 1.692133e+01 1.483053e+01 1.619494e+01 9.347385e-01 9.391448e-01 1.144374e+00 9.720476e-01 1.225865e+00 1.656346e+00 1.503976e+00 1.559192e+00 1.575942e+00 1.611144e+00 1.459224e+00 1.309203e+00 4.025980e-01 1.303034e-01 1.641094e-01 1.565655e-01 1.960734e-01 2.220631e-01 2.880830e-01 3.043111e-01 3.113345e-01 3.348257e-01 3.094870e-01 3.013886e-01 2.795079e-01 1.352820e-01
<GCONST> 8.940504e+01
<TRANSP> 5
 0.000000e+00 1.000000e+00 0.000000e+00 0.000000e+00 0.000000e+00
 0.000000e+00 8.889655e-01 1.110344e-01 0.000000e+00 0.000000e+00
 0.000000e+00 0.000000e+00 8.860627e-01 1.139373e-01 0.000000e+00
 0.000000e+00 0.000000e+00 0.000000e+00 9.183164e-01 8.168366e-02
 0.000000e+00 0.000000e+00 0.000000e+00 0.000000e+00 0.000000e+00
<ENDHMM>
~h "iy"
<BEGINHMM>
<NUMSTATES> 5
<STATE> 2
<MEAN> 39
 -1.274088e+01 1.354628e+01 1.309270e+01 -1.862258e+01 -9.493086e+00 -4.948636e+00 -1.281140e+01 -9.440452e+00 -1.024831e+01 -1.724895e+00 -1.477868e+01 -2.968380e+00 6.542280e+01 1.942275e-01 2.425223e-01 -2.355655e-02 1.215957e-01 3.928945e-01 2.169397e-02 7.474798e-02 5.007234e-02 1.776992e-01 -1.496320e-01 7.776521e-02 1.488728e-01 -5.275846e-01 4.193581e-02 -3.652048e-02 -2.628396e-03 7.732292e-02 -1.169851e-02 -6.754518e-03 3.496399e-02 -2.496087e-02 2.308866e-02 1.275096e-02 4.006924e-02 6.781976e-03 -4.618821e-02
<VARIANCE> 39
 8.842155e+00 1.673435e+01 9.391922e+00 1.861028e+01 3.207830e+01 1.796801e+01 3.782536e+01 1.305052e+01 2.139660e+01 1.731790e+01 1.849222e+01 2.233791e+01 2.441673e+01 2.101303e-01 2.858084e-01 3.159773e-01 5.400544e-01 5.850290e-01 5.573970e-01 7.728091e-01 7.097070e-01 6.795120e-01 7.313794e-01 7.142701e-01 6.503967e-01 2.528363e-01 2.632230e-02 4.821325e-02 5.913493e-02 9.707959e-02 9.649710e-02 1.016708e-01 1.286815e-01 1.168872e-01 1.152204e-01 1.174962e-01 1.244475e-01 1.097882e-01 2.203252e-02
<GCONST> 6.732609e+01
<STATE> 3
<MEAN> 39
 -6.532991e+00 1.086746e+01 1.161112e+01 -4.438499e+00 -3.112363e+00 -4.400289e+00 -8.274996e+00 -7.667848e+00 -5.090636e+00 -3.316051e+00 -7.402314e+00 -9.787306e-01 4.939654e+01 1.105677e-01 -8.869298e-01 -3.500549e-01 1.417869e+00 2.212391e-01 1.010956e-01 8.714680e-01 5.446818e-01 5.068154e-01 2.465829e-01 9.599585e-01 2.080063e-01 -1.029237e+00 -2.694781e-02 9.653863e-03 -8.557977e-02 -1.224200e-01 -2.147358e-02 1.079703e-01 4.892515e-02 6.310037e-02 3.489645e-02 1.173264e-01 7.208472e-02 7.238987e-02 1.812401e-02
<VARIANCE> 39
 1.825049e+01 5.171493e+01 1.840931e+01 7.699230e+01 2.910000e+01 3.276108e+01 5.954381e+01 2.573463e+01 2.714053e+01 2.255414e+01 3.281895e+01 1.990404e+01 3.636897e+01 1.998250e+00 3.017047e+00 1.697386e+00 3.626774e+00 1.960664e+00 3.653569e+00 3.534227e+00 2.054928e+00 2.370459e+00 2.394069e+00 2.183832e+00 1.995626e+00 1.731805e+00 4.016480e-01 6.491308e-01 3.439184e-01 7.149381e-01 3.713658e-01 7.809147e-01 6.589333e-01 3.830957e-01 4.248500e-01 4.034952e-01 3.776757e-01 3.435402e-01 3.065546e-01
<GCONST> 1.174440e+02
<STATE> 4
<MEAN> 39
 -6.884665e+00 4.616072e+00 4.401494e+00 2.060225e+00 -2.428007e+00 8.192540e-01 1.649368e+00 -1.554635e+00 -3.477152e-01 3.497111e+00 2.615847e+00 3.423414e+00 4.107711e+01 1.402798e-02 6.090914e-02 -2.111371e-01 1.816226e-02 7.681441e-02 1.764657e-01 1.581747e-01 1.029147e-01 1.570168e-02 1.044997e-01 1.194241e-01 5.774159e-02 -1.217091e-01 -2.799737e-02 3.644631e-03 3.996911e-02 1.829528e-02 -2.488695e-03 -6.458804e-02 -1.478159e-02 -2.715360e-02 -3.778177e-02 -6.637020e-02 -6.493917e-02 -3.716923e-02 6.566893e-02
<VARIANCE> 39
 1.006476e+01 1.602345e+01 1.539543e+01 1.818878e+01 1.697882e+01 1.884180e+01 2.474164e+01 2.300459e+01 1.933189e+01 2.123705e+01 1.797700e+01 1.515449e+01 1.347318e+01 9.310751e-01 9.977910e-01 1.097070e+00 1.350805e+00 1.177247e+00 1.792126e+00 1.823596e+00 1.652846e+00 1.735492e+00 1.809529e+00 1.615860e+00 1.510035e+00 6.912490e-01 1.767221e-01 1.677860e-01 1.891408e-01 2.461797e-01 2.252744e-01 3.305138e-01 3.358873e-01 3.354567e-01 3.488671e-01 3.572981e-01 3.086065e-01 3.031392e-01 1.167225e-01
<GCONST> 9.460427e+01
<TRANSP> 5
 0.000000e+00 1.000000e+00 0.000000e+00 0.000000e+00 0.000000e+00
 0.000000e+00 9.603161e-01 3.968388e-02 0.000000e+00 0.000000e+00
 0.000000e+00 0.000000e+00 9.167281e-01 8.327190e-02 0.000000e+00
 0.000000e+00 0.000000e+00 0.000000e+00 9.535132e-01 4.648682e-02
 0.000000e+00 0.000000e+00 0.000000e+00 0.000000e+00 0.000000e+00
<ENDHMM>
~h "jh"
<BEGINHMM>
<NUMSTATES> 5
<STATE> 2
<MEAN> 39
 -1.206928e+01 7.575063e+00 7.713966e+00 -2.060401e+00 -8.762601e+00 -5.408144e+00 1.068832e+00 -7.329794e+00 -7.386752e+00 -3.279985e+00 -4.313931e+00 -3.299249e+00 5.881601e+01 -3.389869e-01 -1.127890e-01 3.892473e-01 -7.681483e-01 -9.543172e-01 -6.458830e-01 -2.231767e-01 -4.901711e-01 -3.688946e-01 -1.529602e-01 -3.435144e-01 -3.227963e-01 1.678926e+00 2.915636e-02 -6.290075e-02 -3.744245e-02 -7.739397e-02 1.325901e-02 6.891368e-02 5.335144e-02 3.538820e-02 8.681305e-02 1.045681e-01 2.277989e-03 5.094063e-02 -7.952562e-02
<VARIANCE> 39
 1.651600e+02 4.115324e+01 2.960168e+01 3.796462e+01 6.074343e+01 4.194705e+01 3.160895e+01 2.910971e+01 2.918106e+01 2.238603e+01 3.137280e+01 2.375710e+01 1.514703e+02 1.378506e+01 5.463746e+00 3.802200e+00 1.974351e+00 6.120122e+00 3.052978e+00 3.068089e+00 3.217714e+00 3.072386e+00 2.631009e+00 3.376357e+00 2.032849e+00 3.953246e+00 2.053006e+00 1.061668e+00 7.478791e-01 3.405235e-01 9.844795e-01 5.077708e-01 5.847950e-01 4.779451e-01 4.768251e-01 4.554047e-01 4.743961e-01 3.858337e-01 6.680005e-01
<GCONST> 1.310697e+02
<STATE> 3
<MEAN> 39
 -9.825313e+00 -3.905874e-01 8.968086e+00 -1.904936e+01 -2.376204e+01 -1.011105e+01 1.775138e+00 -1.070656e+01 -4.294119e+00 -1.540835e+00 -1.242275e+01 -6.375343e+00 7.445382e+01 -2.070178e-02 1.947516e-01 1.387113e-01 -4.196142e-01 7.270627e-02 3.678563e-01 -2.853222e-01 -1.886590e-01 2.183875e-01 1.805123e-01 -2.642032e-01 2.362054e-01 -1.165539e-01 -8.204268e-02 1.359859e-01 4.229165e-03 8.956067e-02 1.079670e-01 3.631189e-02 -7.607790e-02 7.289135e-02 7.019757e-03 6.626561e-03 1.096388e-01 6.721941e-02 -4.758607e-02
<VARIANCE> 39
 1.781359e+01 1.996364e+01 1.496724e+01 2.086712e+01 1.626761e+01 1.599998e+01 2.564714e+01 2.444532e+01 3.118259e+01 1.252351e+01 1.566280e+01 1.723887e+01 8.667738e+00 1.997274e-01 4.320271e-01 6.354167e-01 7.955958e-01 5.896831e-01 5.199229e-01 1.218754e+00 8.530375e-01 7.400697e-01 8.600659e-01 1.195809e+00 1.289928e+00 1.297062e-01 4.799255e-02 5.594091e-02 8.481943e-02 7.557172e-02 9.806462e-02 8.382498e-02 1.351182e-01 1.532390e-01 1.077232e-01 1.494326e-01 1.246382e-01 1.694571e-01 1.213590e-02
<GCONST> 7.064012e+01
<STATE> 4
<MEAN> 39
 -1.069890e+01 1.046547e+01 1.490118e+01 -1.514848e+01 -1.497539e+01 -4.741576e+00 -8.362867e+00 -1.184537e+01 -2.397853e+00 -9.689029e-01 -7.843995e+00 1.383183e-01 6.471542e+01 1.410007e-01 6.034638e-01 1.667320e-01 4.695794e-01 8.305123e-01 3.811837e-01 -3.833538e-01 9.242269e-02 -3.825872e-02 -2.322168e-01 -1.020406e-02 -1.331434e-01 -9.380006e-01 2.514974e-02 -4.074031e-02 -6.600173e-02 4.036749e-02 2.892852e-02 7.570897e-03 6.688710e-02 5.594152e-02 2.876673e-03 -2.346545e-02 -6.270352e-03 -9.548468e-02 -5.004293e-02
<VARIANCE> 39
 1.339740e+01 1.771657e+01 1.029978e+01 2.224704e+01 3.425949e+01 2.025539e+01 1.673980e+01 1.752788e+01 2.495591e+01 1.410419e+01 1.811419e+01 1.071045e+01 4.197469e+01 3.193952e-01 3.136108e-01 4.210823e-01 1.095855e+00 6.879706e-01 7.107966e-01 8.626670e-01 6.771924e-01 8.128139e-01 6.027601e-01 6.270794e-01 6.564375e-01 2.758769e-01 5.439851e-02 4.809071e-02 6.614404e-02 1.459503e-01 1.206215e-01 1.297571e-01 1.261326e-01 1.259837e-01 1.325480e-01 1.076174e-01 9.038738e-02 9.871811e-02 2.679788e-02
<GCONST> 7.098326e+01
<TRANSP> 5
 0.000000e+00 1.000000e+00 0.000000e+00 0.000000e+00 0.000000e+00
 0.000000e+00 9.451024e-01 5.489758e-02 0.000000e+00 0.000000e+00
 0.000000e+00 0.000000e+00 9.214612e-01 7.853881e-02 0.000000e+00
 0.000000e+00 0.000000e+00 0.000000e+00 9.112136e-01 8.878636e-02
 0.000000e+00 0.000000e+00 0.000000e+00 0.000000e+00 0.000000e+00
<ENDHMM>
~h "ow"
<BEGINHMM>
