~o
<STREAMINFO> 1 39
<VECSIZE> 39<NULLD><MFCC_D_A_0><DIAGC>
~s "silst"
<MEAN> 39
 -7.488401e+00 4.373178e+00 2.338368e+00 3.501006e+00 -1.321747e-01 5.311086e-02 2.206063e+00 4.241558e-01 3.288840e-01 2.432439e+00 2.953713e+00 4.124337e+00 4.159597e+01 2.077822e-02 8.611546e-02 -1.751347e-02 -8.602597e-03 4.240047e-02 2.146899e-02 -9.138163e-03 -1.378445e-02 8.326480e-03 8.992234e-03 -5.802791e-02 -2.385472e-02 3.737617e-03 -1.416262e-02 -2.189318e-02 4.100095e-03 -2.424749e-02 -4.597056e-02 -3.343561e-02 1.330911e-02 -2.813645e-02 -4.942092e-02 -2.451602e-02 -3.884308e-02 -3.512185e-02 1.006560e-01
<VARIANCE> 39
 1.524438e+01 2.047601e+01 1.630452e+01 1.888096e+01 1.767149e+01 2.586558e+01 2.690636e+01 2.612468e+01 2.122622e+01 2.231502e+01 2.128622e+01 1.794058e+01 1.775515e+01 1.332048e+00 1.474450e+00 1.349331e+00 1.664464e+00 1.589365e+00 2.353437e+00 2.318202e+00 2.018403e+00 2.016918e+00 2.055006e+00 2.033636e+00 1.719522e+00 1.348959e+00 2.722266e-01 2.797588e-01 2.617037e-01 3.305952e-01 3.216386e-01 4.613548e-01 4.564432e-01 3.931922e-01 3.942071e-01 3.982100e-01 3.940167e-01 3.464375e-01 2.576860e-01
<GCONST> 1.042851e+02
~h "b"
<BEGINHMM>
<NUMSTATES> 5
<STATE> 2
<MEAN> 39
 -5.838470e+00 6.678199e+00 2.514114e+00 3.221823e+00 4.732080e-01 1.562226e+00 1.683357e+00 -1.186903e-01 1.106951e+00 2.497930e+00 2.595999e+00 3.529634e+00 3.866508e+01 -1.058414e-01 5.087440e-02 2.256531e-03 1.861479e-02 3.229026e-02 6.283820e-02 -2.950689e-02 1.682378e-02 2.857565e-02 4.338109e-02 1.104442e-01 1.342650e-03 -7.027435e-02 -3.614191e-02 -3.575746e-02 2.007850e-02 -1.188516e-02 -3.261117e-02 -6.955343e-02 1.467092e-02 -2.142538e-02 -1.199773e-02 1.277614e-02 -2.363835e-02 -2.067626e-02 1.936725e-01
<VARIANCE> 39
 9.365399e+00 6.609500e+00 7.305495e+00 8.991861e+00 1.005337e+01 1.410175e+01 1.553255e+01 2.066501e+01 1.612863e+01 1.809818e+01 2.002260e+01 1.440195e+01 9.162372e+00 7.158849e-01 5.505101e-01 6.309039e-01 7.342448e-01 9.376370e-01 1.244093e+00 1.432862e+00 1.384192e+00 1.393600e+00 1.331443e+00 1.463649e+00 1.328895e+00 3.121872e-01 1.965732e-01 1.289778e-01 1.505750e-01 1.868124e-01 1.840365e-01 2.655574e-01 2.858052e-01 2.814940e-01 2.843329e-01 2.600572e-01 2.896217e-01 2.878559e-01 2.966013e-01
<GCONST> 8.443771e+01
<STATE> 3
<MEAN> 39
 -5.525607e+00 4.209467e+00 3.320942e+00 -1.907571e-01 -3.241927e+00 -5.180014e+00 2.365318e+00 -1.970953e+00 -2.968006e+00 6.850700e-01 -2.425114e+00 1.555200e+00 5.607929e+01 -1.376401e+00 -1.139305e+00 1.060499e+00 -1.226965e+00 -1.736711e+00 -1.539659e+00 -2.261724e-02 -1.284807e-01 -5.798541e-01 2.989409e-01 -6.211003e-01 -5.461401e-01 6.443674e+00 9.157807e-02 1.725384e-02 2.753601e-01 -7.649139e-01 -7.413493e-01 -1.351482e-01 -3.942718e-01 -2.632880e-01 -2.640930e-01 -2.677389e-01 -7.111229e-01 -2.046172e-01 4.844525e-01
<VARIANCE> 39
 3.623868e+01 2.919048e+01 1.962569e+01 4.344006e+01 1.887486e+01 4.833668e+01 2.355553e+01 3.066200e+01 3.057698e+01 3.176586e+01 3.117584e+01 1.631633e+01 1.897068e+02 5.686114e+00 3.601733e+00 5.993369e+00 5.521247e+00 4.561898e+00 4.011634e+00 3.649155e+00 4.520347e+00 3.515738e+00 3.463799e+00 5.710395e+00 2.440833e+00 6.607899e+00 1.249450e+00 6.086736e-01 8.546189e-01 8.304780e-01 5.363410e-01 8.946937e-01 8.291331e-01 6.184855e-01 6.141446e-01 7.924303e-01 5.177580e-01 3.938612e-01 3.604542e+00
<GCONST> 1.333482e+02
<STATE> 4
<MEAN> 39
 -1.127133e+01 5.954387e+00 1.320688e+01 -1.159093e+01 -1.395239e+01 -5.415485e+00 -6.507205e+00 -7.116804e+00 -9.024228e+00 9.364412e-01 -1.038349e+01 -3.633183e+00 7.255516e+01 -9.339197e-01 6.973817e-01 -2.833007e-01 -3.202147e+00 -1.124018e+00 -6.072677e-01 -2.466457e+00 -4.716431e-01 -1.513843e+00 -1.759395e+00 -2.106198e+00 -1.707034e+00 8.016534e-01 3.743072e-01 3.918020e-02 -8.949998e-01 6.770602e-01 8.750661e-01 1.153046e-01 2.345014e-01 3.358099e-01 2.900725e-01 -2.600089e-01 2.303197e-01 -3.330749e-02 -1.312978e+00
<VARIANCE> 39
 1.838150e+01 3.949073e+01 6.747861e+01 5.104489e+01 1.292115e+01 7.873892e+01 7.196645e+01 3.639049e+01 3.151795e+01 5.371827e+01 1.569578e+01 3.976947e+01 3.644438e+01 3.503288e+00 1.783446e+00 6.123678e+00 4.681188e+00 4.282178e+00 3.359266e+00 4.798243e+00 3.861514e+00 4.435501e+00 3.340995e+00 1.654077e+00 1.750313e+00 3.598785e+00 3.197076e-01 2.952368e-01 7.537307e-01 8.096290e-01 3.428350e-01 7.408544e-01 8.497661e-01 6.636842e-01 4.167651e-01 7.289922e-01 3.142457e-01 5.669717e-01 1.131424e+00
<GCONST> 1.268939e+02
<TRANSP> 5
 0.000000e+00 1.000000e+00 0.000000e+00 0.000000e+00 0.000000e+00
 0.000000e+00 9.292315e-01 7.076856e-02 0.000000e+00 0.000000e+00
 0.000000e+00 0.000000e+00 7.442489e-01 2.557512e-01 0.000000e+00
 0.000000e+00 0.000000e+00 0.000000e+00 6.661417e-01 3.338583e-01
 0.000000e+00 0.000000e+00 0.000000e+00 0.000000e+00 0.000000e+00
<ENDHMM>
~h "d"
<BEGINHMM>
<NUMSTATES> 5
<STATE> 2
<MEAN> 39
 -9.294924e+00 4.873477e+00 3.888188e+00 -1.684485e+00 -4.773827e+00 -2.001050e+00 2.083645e+00 -3.674104e+00 -2.636862e+00 1.368475e+00 -2.160107e+00 1.379662e-01 5.265152e+01 -7.983715e-01 -5.168031e-01 1.020204e-02 -2.148124e-01 -9.558067e-01 -3.440618e-01 5.050517e-01 -3.256009e-01 -7.552280e-01 1.818585e-01 -2.383658e-01 -3.631352e-01 2.402555e+00 2.285212e-01 2.655321e-01 2.879571e-01 -2.145250e-01 -1.315190e-01 4.370307e-03 -2.705063e-01 -1.094385e-01 -1.908269e-01 -1.572576e-01 -1.616389e-01 -1.027923e-01 -2.355345e-01
<VARIANCE> 39
 4.082053e+01 3.136856e+01 4.169987e+01 4.324124e+01 3.292976e+01 2.861175e+01 5.745961e+01 4.068485e+01 3.150073e+01 3.734890e+01 3.731625e+01 3.192837e+01 1.268650e+02 3.389176e+00 3.946800e+00 6.189060e+00 5.232219e+00 3.646508e+00 3.549305e+00 1.035515e+01 3.586604e+00 3.178312e+00 3.231103e+00 4.200449e+00 3.174933e+00 1.083486e+01 6.418315e-01 5.975174e-01 1.008927e+00 5.866610e-01 7.386923e-01 5.642236e-01 1.361743e+00 7.386798e-01 5.513483e-01 5.525570e-01 6.217238e-01 6.780944e-01 2.753152e+00
<GCONST> 1.360880e+02
<STATE> 3
<MEAN> 39
 -8.133679e+00 3.805112e+00 6.026440e+00 3.294799e-02 -5.293409e+00 -4.268960e+00 3.509954e+00 -2.615231e+00 -3.051779e+00 2.055632e+00 2.989026e-01 1.267958e+00 4.788517e+01 4.628627e-01 7.788512e-02 2.746252e-01 2.669806e-02 3.779548e-01 6.512769e-02 -7.646130e-01 2.041413e-01 3.385471e-01 -5.827756e-02 9.851659e-02 3.767903e-01 -1.290907e+00 -3.668773e-02 -1.041133e-03 -2.388184e-01 -2.201690e-02 1.239304e-01 1.612799e-01 1.176176e-02 6.513488e-02 1.180692e-01 1.434806e-01 7.868622e-02 -1.435813e-02 -2.594835e-02
<VARIANCE> 39
 2.742316e+01 2.111306e+01 2.885766e+01 4.919004e+01 3.084698e+01 2.670065e+01 5.014097e+01 2.642234e+01 3.068036e+01 2.447724e+01 2.500377e+01 2.089021e+01 6.184600e+01 2.792402e+00 2.009547e+00 3.063343e+00 2.368763e+00 2.174789e+00 2.741737e+00 2.759103e+00 2.359514e+00 2.520280e+00 2.420312e+00 1.742718e+00 1.670629e+00 3.261008e+00 5.766482e-01 4.669817e-01 5.774540e-01 4.343835e-01 5.268248e-01 6.676607e-01 7.290346e-01 4.365034e-01 5.192394e-01 4.344066e-01 3.474577e-01 2.948511e-01 6.787894e-01
<GCONST> 1.185884e+02
<STATE> 4
<MEAN> 39
 -6.593475e+00 4.671632e+00 3.825215e+00 2.467711e+00 -1.569111e+00 -4.416735e-01 1.922135e+00 -5.762953e-02 1.569061e-01 3.733610e+00 2.898436e+00 3.636770e+00 4.052734e+01 6.528921e-02 1.713571e-01 -1.004414e-01 -2.387447e-03 8.194867e-02 8.770235e-02 -6.625013e-02 9.417828e-03 -4.183020e-02 -7.945597e-02 -1.548578e-02 -8.150449e-02 -1.285367e-01 5.930167e-05 -6.163009e-04 1.086764e-02 9.578686e-03 -9.348474e-03 -3.627358e-02 -2.889507e-03 -4.378145e-02 -3.829540e-02 -6.821322e-02 -6.669226e-02 -2.433710e-02 6.482606e-02
<VARIANCE> 39
 7.437522e+00 1.559358e+01 1.109428e+01 1.657553e+01 1.699397e+01 1.708989e+01 2.728819e+01 2.808582e+01 2.077397e+01 2.093709e+01 1.820466e+01 1.656624e+01 2.522756e+01 3.908028e-01 5.829930e-01 5.810704e-01 7.798058e-01 1.197763e+00 1.393808e+00 1.426619e+00 1.361443e+00 1.643940e+00 1.992288e+00 1.523241e+00 1.431408e+00 2.701908e-01 9.929021e-02 1.003717e-01 1.357346e-01 1.476815e-01 2.521154e-01 2.526942e-01 2.940009e-01 2.796288e-01 3.161337e-01 3.745950e-01 3.408924e-01 2.860153e-01 5.738039e-02
<GCONST> 8.744341e+01
<TRANSP> 5
 0.000000e+00 1.000000e+00 0.000000e+00 0.000000e+00 0.000000e+00
 0.000000e+00 8.309844e-01 1.690156e-01 0.000000e+00 0.000000e+00
 0.000000e+00 0.000000e+00 8.236847e-01 1.763153e-01 0.000000e+00
 0.000000e+00 0.000000e+00 0.000000e+00 9.412585e-01 5.874144e-02
 0.000000e+00 0.000000e+00 0.000000e+00 0.000000e+00 0.000000e+00
<ENDHMM>
~h "f"
<BEGINHMM>
<NUMSTATES> 5
<STATE> 2
<MEAN> 39
 -1.612582e+01 2.724387e+00 -3.163037e+00 5.851046e+00 -2.069405e+00 3.251439e-01 3.791836e+00 5.946282e-01 -2.051747e+00 2.919950e+00 -6.708757e-01 2.292714e+00 5.852204e+01 -8.726788e-01 -6.534082e-02 -1.910888e-01 1.191025e-01 -1.926579e-01 -8.394621e-02 8.210022e-02 4.457179e-02 -1.204373e-01 1.228909e-01 -1.659527e-02 3.718591e-02 9.366139e-01 1.651431e-01 3.952583e-02 4.429387e-02 -8.043523e-02 2.917584e-02 -3.967240e-03 -3.766670e-02 -1.874075e-02 1.398714e-02 -5.132779e-02 2.062117e-02 -3.226072e-03 -1.015215e-01
<VARIANCE> 39
 3.664393e+01 1.247296e+01 1.185678e+01 1.057453e+01 1.350906e+01 1.448460e+01 1.468954e+01 1.702411e+01 1.624277e+01 1.601815e+01 1.662566e+01 1.370464e+01 3.444157e+01 1.555888e+00 9.224358e-01 1.065544e+00 1.126364e+00 1.287846e+00 1.292987e+00 1.471696e+00 1.613462e+00 1.602115e+00 1.524914e+00 1.433287e+00 1.316888e+00 2.090815e+00 2.415701e-01 1.962513e-01 1.970364e-01 2.356747e-01 2.574523e-01 2.616163e-01 2.951431e-01 3.374660e-01 3.362500e-01 3.152807e-01 2.885084e-01 2.755498e-01 2.012023e-01
<GCONST> 9.464281e+01
<STATE> 3
<MEAN> 39
 -1.615223e+01 2.604810e+00 -3.544789e+00 4.301682e+00 -2.907202e+00 -1.007211e+00 3.697847e+00 4.123708e-01 -3.045182e+00 2.355824e+00 -8.116407e-01 2.191519e+00 6.386013e+01 3.598812e+00 -4.896970e-02 -9.018759e-01 -3.184574e+00 -5.043594e-01 -1.738279e-01 -6.186630e-01 -7.028801e-01 -7.512541e-01 -1.307895e+00 -9.718227e-01 -8.361897e-01 1.435340e+00 8.528703e-01 -2.535523e-01 -6.170952e-01 -1.402647e+00 -3.731711e-01 9.944355e-02 -2.707526e-01 -3.032974e-01 -2.003145e-01 -4.518580e-01 -3.230535e-01 -3.087083e-01 2.675297e-01
<VARIANCE> 39
 2.964944e+01 1.687522e+01 1.188866e+01 1.362575e+01 1.289775e+01 1.511137e+01 1.442297e+01 1.515559e+01 1.484555e+01 1.425961e+01 1.336815e+01 1.295135e+01 1.776267e+01 4.109814e+00 1.776337e+00 2.247498e+00 7.513029e+00 2.329991e+00 1.727567e+00 1.994286e+00 2.107750e+00 1.740041e+00 1.972961e+00 1.548124e+00 2.027041e+00 1.684912e+00 5.884640e-01 4.327955e-01 2.543444e-01 4.892970e-01 4.020991e-01 4.040288e-01 3.711307e-01 3.893774e-01 3.101724e-01 3.103980e-01 2.468417e-01 3.398689e-01 1.786661e-01
<GCONST> 1.038234e+02
<STATE> 4
<MEAN> 39
 -3.715716e-01 -1.263192e+00 -1.228275e+01 -1.714244e+01 -8.070189e+00 -1.150234e+00 -4.566336e-01 -4.534749e+00 -7.039412e+00 -5.637628e+00 -6.650848e+00 -3.023597e+00 7.178143e+01 1.327634e+00 -1.221295e+00 -1.457613e+00 -2.843416e+00 -5.648424e-01 -4.684016e-02 -9.575537e-01 -1.067462e+00 -6.478342e-01 -1.228613e+00 -1.020198e+00 -1.000559e+00 1.201875e+00 -9.664772e-01 1.085374e-01 4.273105e-01 1.234574e+00 2.960171e-01 -8.140926e-02 8.137082e-02 1.411913e-01 1.353590e-01 3.915353e-01 1.892238e-01 1.809702e-01 -4.144254e-01
<VARIANCE> 39
 1.136511e+01 6.500616e+01 1.690499e+01 4.743475e+01 3.566271e+01 4.458367e+01 2.247353e+01 2.893979e+01 2.164749e+01 1.942253e+01 1.763743e+01 2.371279e+01 2.975606e+01 4.814779e+00 3.590161e+00 2.031544e+00 9.791276e+00 2.807270e+00 2.953592e+00 1.927439e+00 2.150866e+00 1.885494e+00 2.397545e+00 1.513519e+00 1.973098e+00 2.035432e+00 5.116942e-01 4.664351e-01 2.414791e-01 7.388675e-01 2.408614e-01 3.878618e-01 3.433383e-01 3.380935e-01 3.494354e-01 3.680317e-01 2.655063e-01 3.922448e-01 1.829839e-01
<GCONST> 1.132877e+02
<TRANSP> 5
 0.000000e+00 1.000000e+00 0.000000e+00 0.000000e+00 0.000000e+00
 0.000000e+00 9.318745e-01 6.812546e-02 0.000000e+00 0.000000e+00
 0.000000e+00 0.000000e+00 6.984997e-01 3.015004e-01 0.000000e+00
 0.000000e+00 0.000000e+00 0.000000e+00 7.654927e-01 2.345073e-01
 0.000000e+00 0.000000e+00 0.000000e+00 0.000000e+00 0.000000e+00
<ENDHMM>
~h "k"
<BEGINHMM>
<NUMSTATES> 5
<STATE> 2
<MEAN> 39
 -1.175330e+01 -7.407503e-01 7.364131e-01 4.091780e+00 -5.744328e+00 -3.497476e+00 6.235650e+00 5.146340e-01 -1.106989e+00 9.637977e-01 1.708992e+00 3.908564e+00 5.088842e+01 -2.884533e-01 -3.249001e-01 4.352179e-01 1.389592e-01 -3.719069e-03 -5.094884e-01 1.221339e-01 2.165248e-01 2.279421e-01 5.109000e-02 -1.000110e-02 2.129579e-01 4.624322e-01 -1.647873e-02 2.753621e-01 -8.265898e-02 -8.474251e-02 4.247461e-02 1.360086e-01 -1.551215e-01 -1.945542e-02 8.804891e-03 -1.038955e-02 3.946681e-02 -6.068956e-02 -1.742901e-02
<VARIANCE> 39
 3.355874e+01 4.324770e+01 3.154035e+01 5.028649e+01 3.700504e+01 4.646000e+01 4.015759e+01 3.861961e+01 3.222836e+01 3.159457e+01 2.769651e+01 1.858928e+01 8.008743e+01 5.313271e+00 4.412553e+00 2.833239e+00 4.759848e+00 3.521849e+00 5.060139e+00 4.089839e+00 3.215256e+00 2.697458e+00 2.931155e+00 2.962503e+00 2.229678e+00 1.017811e+01 6.526076e-01 8.352765e-01 4.460901e-01 7.722015e-01 6.758744e-01 1.150521e+00 8.478919e-01 6.602752e-01 5.637590e-01 6.234256e-01 6.242068e-01 4.753835e-01 1.335849e+00
<GCONST> 1.316893e+02
<STATE> 3
<MEAN> 39
 -1.431508e+01 3.245152e+00 2.095611e+00 2.472841e+00 -5.671916e+00 -3.285644e+00 4.111566e+00 -2.948452e-01 -5.777415e-01 5.238475e-01 1.455727e+00 3.859441e+00 5.467806e+01 6.221820e-01 5.248922e-01 3.874781e-01 -1.245821e-01 3.910015e-01 4.417982e-01 -4.293701e-01 -1.167701e-01 1.316751e-01 1.209481e-01 2.874993e-01 4.645541e-03 -1.052797e+00 -1.319329e-03 -3.504094e-02 -1.108229e-01 -3.626262e-02 -1.553790e-02 3.306094e-02 -1.779040e-02 -8.012138e-02 -8.113194e-02 5.515076e-02 -6.729475e-02 -5.084736e-02 -1.366320e-02
<VARIANCE> 39
 4.562941e+01 1.448875e+01 3.445739e+01 6.340427e+01 2.376612e+01 2.255237e+01 2.669616e+01 3.360233e+01 2.946209e+01 2.023236e+01 2.619212e+01 1.521285e+01 1.423274e+02 1.615240e+00 1.842711e+00 1.652337e+00 1.239352e+00 1.362187e+00 2.171862e+00 2.153323e+00 1.880664e+00 2.502603e+00 2.174200e+00 2.128072e+00 1.344239e+00 2.208433e+00 2.850413e-01 3.796642e-01 3.168954e-01 2.688662e-01 3.028706e-01 4.451551e-01 4.508399e-01 3.915011e-01 5.318393e-01 4.470501e-01 4.615552e-01 2.890425e-01 3.244658e-01
<GCONST> 1.111069e+02
<STATE> 4
<MEAN> 39
 -7.221413e+00 4.119749e+00 3.009324e+00 4.332511e+00 -1.035965e+00 -2.881951e-01 4.193081e+00 4.914899e-01 -6.491638e-01 2.871093e+00 3.929777e+00 4.829812e+00 4.015086e+01 1.084146e-01 1.358217e-01 -2.450052e-02 -1.007310e-01 4.769648e-02 1.594185e-01 -1.518521e-01 -9.049124e-02 1.151668e-02 2.581022e-02 -8.510239e-02 -4.909359e-02 -1.475866e-01 -3.475543e-02 -2.028692e-02 -4.074502e-03 1.758504e-02 -3.131820e-02 -3.107470e-02 1.268107e-02 1.931043e-02 -5.261067e-03 -2.179557e-02 -2.400274e-02 -6.047012e-03 6.444026e-02
<VARIANCE> 39
 8.139541e+00 1.128942e+01 9.155496e+00 1.062112e+01 1.089985e+01 2.255457e+01 2.543987e+01 1.926152e+01 1.949696e+01 1.633901e+01 1.537325e+01 1.426409e+01 1.749808e+01 4.225340e-01 5.759078e-01 6.122997e-01 7.752832e-01 9.942626e-01 1.460341e+00 1.807187e+00 1.465605e+00 1.701444e+00 1.582743e+00 1.431328e+00 1.370731e+00 2.785606e-01 8.364453e-02 1.100245e-01 1.228409e-01 1.523765e-01 2.054249e-01 2.764202e-01 3.462217e-01 2.792240e-01 3.204643e-01 3.160369e-01 2.839523e-01 2.682360e-01 6.147852e-02
<GCONST> 8.454027e+01
<TRANSP> 5
 0.000000e+00 1.000000e+00 0.000000e+00 0.000000e+00 0.000000e+00
 0.000000e+00 8.096307e-01 1.903693e-01 0.000000e+00 0.000000e+00
 0.000000e+00 0.000000e+00 8.217892e-01 1.782108e-01 0.000000e+00
 0.000000e+00 0.000000e+00 0.000000e+00 9.369362e-01 6.306375e-02
 0.000000e+00 0.000000e+00 0.000000e+00 0.000000e+00 0.000000e+00
<ENDHMM>
~h "l"
<BEGINHMM>
<NUMSTATES> 5
<STATE> 2
<MEAN> 39
 -1.471450e+00 1.026334e+00 4.859159e+00 -5.030272e+00 -9.166125e+00 -8.047812e+00 2.182416e+00 -3.714513e+00 -5.799528e+00 -1.985061e+00 -7.608996e+00 -2.767357e-01 6.667870e+01 -1.363551e+00 4.054987e-01 1.788914e+00 1.139173e-01 -1.862052e+00 1.807853e-01 4.383184e-01 -1.588830e+00 -1.995111e+00 8.495307e-01 4.534981e-01 -1.618851e-01 1.454176e+00 -1.567802e-01 -5.113954e-02 9.296130e-02 -4.830230e-01 -2.282903e-01 1.050047e-01 -2.725486e-01 -5.833719e-01 9.930302e-02 1.111382e-01 -3.600374e-01 -2.100029e-01 -1.308789e-02
<VARIANCE> 39
 1.663555e+01 2.422423e+01 8.945087e+01 9.417889e+01 5.510826e+01 3.626299e+01 2.545026e+01 3.481924e+01 5.375541e+01 3.566612e+01 2.714222e+01 2.185891e+01 4.401256e+01 1.022200e+00 1.672048e+00 4.317048e+00 6.369172e+00 5.047711e+00 2.698276e+00 3.256824e+00 6.069293e+00 3.193957e+00 2.858705e+00 4.465130e+00 2.425660e+00 2.550758e+00 1.363915e-01 2.185004e-01 7.237625e-01 9.969486e-01 7.894216e-01 5.757089e-01 6.683541e-01 7.261435e-01 8.201984e-01 5.272978e-01 1.079361e+00 4.461741e-01 9.796129e-01
<GCONST> 1.268662e+02
<STATE> 3
<MEAN> 39
 -6.079746e+00 -4.070987e+00 3.709822e+00 -1.447113e+01 -1.916894e+01 -6.090881e+00 6.708775e+00 -9.425474e+00 -5.107112e+00 -5.776133e+00 -1.040345e+01 -6.668507e+00 7.348339e+01 3.397012e-02 -1.419927e-01 -4.410717e-01 7.708573e-02 9.481216e-01 3.731616e-01 -1.583564e-01 -4.059385e-01 3.775910e-01 -2.162589e-01 -1.819889e-01 1.950848e-01 -2.056288e-01 6.784314e-02 1.796540e-02 -1.236231e-01 3.875978e-02 2.215015e-01 3.557280e-02 -6.426480e-04 7.322139e-02 1.256149e-01 -1.642672e-02 8.770741e-02 8.246267e-02 -5.460177e-02
<VARIANCE> 39
 1.021915e+01 2.573910e+01 5.370563e+01 3.386765e+01 7.984081e+01 2.361909e+01 3.231937e+01 2.587263e+01 2.944569e+01 4.574292e+01 3.495530e+01 2.202822e+01 2.227767e+01 6.058933e-01 7.317748e-01 1.017921e+00 2.091774e+00 2.609903e+00 1.152042e+00 2.035344e+00 2.522195e+00 1.364519e+00 1.709391e+00 2.935947e+00 1.111174e+00 1.754645e-01 6.966357e-02 8.840743e-02 1.693435e-01 2.048829e-01 3.905299e-01 1.727020e-01 2.500771e-01 4.235730e-01 2.225163e-01 2.740954e-01 3.412381e-01 1.846402e-01 3.476203e-02
<GCONST> 9.663686e+01
<STATE> 4
<MEAN> 39
 -4.490131e-01 -2.285381e-01 -7.217976e+00 -1.113039e+01 2.862190e+00 1.959140e+00 7.003661e+00 -1.137005e+01 -3.651451e+00 -5.489327e+00 -6.380967e+00 -1.537731e+00 5.934254e+01 -5.521215e-02 5.795316e-01 2.707072e-01 2.673370e-01 6.575770e-02 3.116811e-01 3.323996e-02 2.297630e-01 -1.361204e-01 3.921946e-01 1.861647e-01 1.945375e-01 -1.079199e+00 -2.770973e-02 -9.178016e-03 6.850985e-02 7.597508e-02 -7.279794e-02 -6.607743e-02 -1.685769e-02 1.384097e-01 2.153502e-02 -3.650877e-02 5.883273e-02 3.512339e-02 -5.484292e-03
<VARIANCE> 39
 1.868100e+01 4.549513e+01 4.071950e+01 3.979211e+01 4.625301e+01 2.734007e+01 2.267490e+01 3.797141e+01 3.861563e+01 2.489743e+01 2.534957e+01 2.118332e+01 1.036026e+02 7.164320e-01 8.976384e-01 9.739965e-01 1.909633e+00 1.625443e+00 1.165813e+00 1.800225e+00 2.144468e+00 2.163939e+00 1.506930e+00 2.152878e+00 1.560637e+00 3.973177e-01 9.827601e-02 1.006631e-01 1.633835e-01 2.407110e-01 2.816505e-01 1.678253e-01 3.033082e-01 3.532995e-01 3.484257e-01 3.016948e-01 3.480378e-01 2.824097e-01 6.744400e-02
<GCONST> 1.007421e+02
<TRANSP> 5
 0.000000e+00 1.000000e+00 0.000000e+00 0.000000e+00 0.000000e+00
 0.000000e+00 7.482166e-01 2.517834e-01 0.000000e+00 0.000000e+00
 0.000000e+00 0.000000e+00 8.134101e-01 1.865899e-01 0.000000e+00
 0.000000e+00 0.000000e+00 0.000000e+00 9.170994e-01 8.290068e-02
 0.000000e+00 0.000000e+00 0.000000e+00 0.000000e+00 0.000000e+00
<ENDHMM>
~h "m"
<BEGINHMM>
<NUMSTATES> 5
<STATE> 2
<MEAN> 39
 -1.845273e+00 -1.214680e+01 -1.052501e+00 -4.681628e+00 -9.725399e+00 -3.828013e+00 1.250698e+00 -5.834833e+00 -1.283421e+01 -1.436730e+01 -9.152117e+00 -6.441569e-01 7.070290e+01 3.160595e-01 5.517724e-01 1.483542e-01 2.177315e-01 4.054894e-01 -2.835621e-01 -4.658918e-01 1.800463e-01 5.354386e-01 1.108664e-01 2.779810e-01 -3.646557e-02 -6.143755e-01 -5.187082e-02 8.808535e-03 1.905466e-02 -8.201097e-03 2.897028e-02 -1.326547e-02 2.261613e-02 -1.141838e-02 2.800798e-03 5.325927e-02 2.666329e-02 4.220273e-02 -1.175312e-02
<VARIANCE> 39
 7.907893e+00 1.637428e+01 4.723933e+00 6.443138e+00 1.748442e+01 2.445702e+01 2.624960e+01 3.344438e+01 4.544000e+01 8.886147e+00 2.399357e+01 1.836841e+01 2.278604e+01 3.641486e-01 7.461527e-01 3.157167e-01 4.187879e-01 8.267701e-01 6.867544e-01 1.711576e+00 1.697321e+00 1.165875e+00 8.759336e-01 1.788397e+00 1.305148e+00 6.961006e-01 6.660532e-02 7.751767e-02 7.467645e-02 9.130943e-02 1.172150e-01 1.756591e-01 3.131256e-01 2.569351e-01 1.911165e-01 1.902621e-01 3.916923e-01 2.713949e-01 7.100628e-02
<GCONST> 8.083017e+01
<STATE> 3
<MEAN> 39
 1.235374e+00 4.560476e+00 2.221251e+00 3.105064e+00 2.345177e-01 -6.334873e+00 -5.657928e+00 -1.104861e+01 -3.287448e+00 -1.025104e+01 -4.155877e+00 -1.135859e+00 5.261896e+01 -1.738257e-01 5.549416e-01 1.614957e-01 3.486162e-01 2.015239e-01 5.318241e-01 1.698069e-01 8.667313e-02 -2.755888e-01 3.702303e-01 -2.065828e-01 2.723053e-01 -8.989897e-01 -4.662449e-02 -1.062288e-01 -4.365625e-02 -6.446485e-02 -4.875346e-02 7.123326e-02 1.245038e-01 1.426600e-01 5.293040e-02 5.455405e-02 2.091867e-02 4.190299e-02 2.441672e-02
<VARIANCE> 39
 4.599159e+00 1.585032e+01 1.150436e+01 1.121763e+01 1.530539e+01 2.966696e+01 2.090404e+01 2.574904e+01 1.967829e+01 1.279545e+01 2.611367e+01 2.331818e+01 3.867889e+01 3.708131e-01 4.165007e-01 5.217733e-01 6.084375e-01 6.641309e-01 1.129497e+00 1.321478e+00 1.534813e+00 1.278435e+00 1.508676e+00 1.354477e+00 1.510536e+00 2.062615e-01 5.904393e-02 6.437197e-02 9.482025e-02 1.094824e-01 1.300411e-01 2.093614e-01 2.523520e-01 1.687304e-01 2.384027e-01 2.588131e-01 2.355738e-01 2.551796e-01 3.529198e-02
<GCONST> 8.018577e+01
<STATE> 4
<MEAN> 39
 -5.715591e+00 4.830773e+00 1.032264e+00 2.966949e+00 1.215537e+00 1.959533e+00 2.310251e+00 7.274348e-01 1.584404e-01 1.393962e+00 2.093657e+00 4.374768e+00 3.950205e+01 -1.503985e-01 -1.159758e-01 -6.771532e-02 -8.560894e-02 -7.956529e-02 5.490745e-02 1.521561e-01 1.677938e-01 1.899849e-01 3.148706e-01 2.932816e-01 1.992417e-01 -1.105171e-01 3.695349e-02 2.359243e-02 3.238514e-02 1.566691e-02 -9.050407e-05 -4.166127e-02 -4.933796e-02 -5.444058e-02 -3.924763e-02 -6.321123e-02 -5.015983e-02 -4.397140e-02 2.665417e-02
<VARIANCE> 39
 4.754204e+00 8.308475e+00 1.030692e+01 8.670021e+00 9.181831e+00 1.548956e+01 1.478627e+01 2.190245e+01 1.646330e+01 1.551590e+01 1.969333e+01 1.589923e+01 9.086321e+00 3.016028e-01 5.156138e-01 6.918319e-01 6.589994e-01 8.651036e-01 1.381751e+00 1.361718e+00 1.650497e+00 1.819220e+00 1.513476e+00 1.782517e+00 1.624410e+00 2.723628e-01 5.554295e-02 9.324113e-02 1.306822e-01 1.206766e-01 1.656137e-01 2.919181e-01 2.617394e-01 3.045431e-01 3.587279e-01 2.458433e-01 3.380427e-01 3.107853e-01 4.521632e-02
<GCONST> 8.044804e+01
<TRANSP> 5
 0.000000e+00 1.000000e+00 0.000000e+00 0.000000e+00 0.000000e+00
 0.000000e+00 8.714538e-01 1.285463e-01 0.000000e+00 0.000000e+00
 0.000000e+00 0.000000e+00 9.500352e-01 4.996483e-02 0.000000e+00
 0.000000e+00 0.000000e+00 0.000000e+00 9.599060e-01 4.009400e-02
 0.000000e+00 0.000000e+00 0.000000e+00 0.000000e+00 0.000000e+00
<ENDHMM>
~h "n"
<BEGINHMM>
<NUMSTATES> 5
<STATE> 2
<MEAN> 39
 -3.389535e+00 1.050336e+00 1.267328e+00 -7.339750e+00 -4.580214e+00 -1.321113e+01 -5.137999e+00 -2.482238e+00 -1.264454e+01 -1.415465e+01 -1.299903e+01 -1.268373e+00 6.278339e+01 2.821773e-01 4.050862e-01 3.830442e-01 4.993954e-01 1.233734e-01 -1.344282e-01 -8.454365e-02 -2.108209e-01 -4.511390e-01 -3.946669e-01 -5.720207e-02 -6.247082e-02 -8.019947e-01 -1.167770e-02 1.964130e-02 -1.462408e-02 7.524917e-02 1.327227e-02 8.808370e-02 -1.558346e-02 -4.513964e-02 5.517841e-02 9.336981e-02 5.993779e-02 -2.507026e-03 -8.447591e-02
<VARIANCE> 39
 8.392929e+00 3.426814e+01 4.032241e+01 4.385754e+01 2.919792e+01 6.204804e+01 5.348364e+01 4.740940e+01 7.186314e+01 3.948427e+01 5.803504e+01 2.703827e+01 8.724469e+01 5.690081e-01 7.067550e-01 7.717844e-01 1.390458e+00 1.646166e+00 1.689132e+00 1.722623e+00 1.963762e+00 2.306219e+00 1.876410e+00 1.728258e+00 1.288491e+00 1.383446e+00 7.968103e-02 1.002005e-01 1.203546e-01 1.985084e-01 2.506644e-01 2.627158e-01 2.631245e-01 2.985850e-01 3.396100e-01 2.477897e-01 2.591018e-01 2.400120e-01 1.123318e-01
<GCONST> 1.026580e+02
<STATE> 3
<MEAN> 39
 -2.028098e+00 3.810282e+00 3.926278e+00 -2.243879e+00 -4.604927e+00 -9.829308e+00 -4.170985e+00 -4.868063e+00 -9.051048e+00 -1.303989e+01 -1.026816e+01 -9.285005e-01 5.487970e+01 -2.858329e-01 -1.068635e+00 -7.396308e-01 -1.487159e-01 4.344114e-01 4.645006e-01 5.959382e-01 6.168595e-01 1.860441e-01 2.822785e-01 4.094197e-01 3.222528e-01 5.546165e-01 -1.519317e-01 -1.679994e-01 -1.054001e-01 -2.410841e-02 1.205413e-01 2.137516e-01 1.181270e-01 8.938961e-02 1.614633e-01 2.188676e-01 1.836260e-01 8.931778e-02 -8.287291e-03
<VARIANCE> 39
 1.376788e+01 4.563366e+01 3.249861e+01 2.532938e+01 3.918911e+01 6.066121e+01 5.131016e+01 4.443852e+01 5.068301e+01 4.717861e+01 3.801389e+01 2.528337e+01 1.093268e+02 1.442554e+00 2.987049e+00 1.898342e+00 2.597478e+00 3.647566e+00 4.405365e+00 3.773842e+00 3.591488e+00 5.933344e+00 4.772660e+00 4.455861e+00 2.556896e+00 5.618511e+00 2.606618e-01 4.671747e-01 3.337545e-01 4.232918e-01 5.431617e-01 5.569537e-01 6.261338e-01 6.906729e-01 9.974915e-01 5.322734e-01 4.739369e-01 4.246417e-01 4.194970e-01
<GCONST> 1.264219e+02
<STATE> 4
<MEAN> 39
 -5.987986e+00 2.302789e+00 3.500388e+00 1.772682e+00 -1.420906e+00 -7.359010e-02 1.739879e+00 -1.359924e+00 -2.307636e+00 1.020122e+00 1.359656e+00 3.248275e+00 4.301286e+01 -7.274360e-02 -2.853966e-04 -1.124251e-01 1.125222e-01 4.346503e-02 1.645777e-01 8.874124e-02 9.087671e-02 3.064109e-01 3.058167e-01 2.839137e-01 1.071540e-01 -1.855502e-01 7.803067e-03 4.458153e-02 2.596238e-02 -8.402405e-03 -1.639941e-02 -5.337016e-02 -4.550927e-02 -3.076950e-02 -4.326934e-02 -6.001953e-02 -7.020146e-02 -3.842543e-02 4.873562e-02
<VARIANCE> 39
 6.726943e+00 2.709632e+01 1.233523e+01 1.370000e+01 1.584084e+01 2.030015e+01 2.188578e+01 2.344466e+01 2.687142e+01 3.349400e+01 2.671578e+01 1.704187e+01 3.931598e+01 3.947564e-01 7.922791e-01 6.316208e-01 8.216698e-01 1.043525e+00 1.436773e+00 1.590014e+00 1.609307e+00 1.847200e+00 1.828803e+00 1.615983e+00 1.450055e+00 5.164202e-01 7.553923e-02 1.367394e-01 1.154447e-01 1.596941e-01 2.049649e-01 2.763343e-01 3.012503e-01 3.159361e-01 3.682600e-01 3.347889e-01 3.103804e-01 2.936742e-01 9.322896e-02
<GCONST> 9.090516e+01
<TRANSP> 5
 0.000000e+00 1.000000e+00 0.000000e+00 0.000000e+00 0.000000e+00
 0.000000e+00 8.731582e-01 1.268418e-01 0.000000e+00 0.000000e+00
 0.000000e+00 0.000000e+00 8.292314e-01 1.707686e-01 0.000000e+00
 0.000000e+00 0.000000e+00 0.000000e+00 9.358515e-01 6.414852e-02
 0.000000e+00 0.000000e+00 0.000000e+00 0.000000e+00 0.000000e+00
<ENDHMM>
~h "p"
<BEGINHMM>
<NUMSTATES> 5
<STATE> 2
<MEAN> 39
 -1.347825e+01 6.982265e+00 5.320890e+00 -2.002762e+00 -1.309007e+00 -2.954305e-01 3.143185e+00 -1.884357e+00 1.636767e-01 3.677028e+00 -1.079040e+00 1.722816e+00 6.507728e+01 -7.205662e-01 4.817063e-01 6.170619e-02 -8.882169e-01 -1.451400e-01 -5.355998e-01 -2.981814e-01 -5.231197e-01 -5.375076e-01 -5.136667e-01 -7.423388e-01 -4.318791e-01 2.192470e+00 1.076740e-01 9.971289e-02 1.254858e-01 -1.939502e-01 -2.436009e-01 2.265762e-02 -3.151248e-01 -1.423542e-01 -2.548469e-01 -8.832260e-02 -2.242694e-01 -1.037895e-01 -1.735524e-01
<VARIANCE> 39
 5.424399e+01 1.176883e+01 2.874203e+01 3.164725e+01 2.213133e+01 2.405676e+01 1.670451e+01 2.138924e+01 1.679743e+01 1.340253e+01 2.103056e+01 1.479555e+01 1.968834e+02 3.679086e+00 1.152159e+00 5.058628e+00 2.472372e+00 4.206671e+00 2.678411e+00 2.945698e+00 3.288584e+00 2.675363e+00 1.730206e+00 3.648814e+00 1.773121e+00 2.161723e+01 6.181252e-01 1.949195e-01 1.167112e+00 5.273603e-01 1.055324e+00 5.742399e-01 5.178953e-01 7.110015e-01 4.872723e-01 2.717020e-01 8.868466e-01 3.856435e-01 3.774410e+00
<GCONST> 1.228128e+02
<STATE> 3
<MEAN> 39
 -1.269566e+01 1.292061e+01 7.746703e+00 -1.336331e+01 -1.004777e+01 -4.694770e+00 -1.105050e+01 -9.290794e+00 -1.323432e+01 -3.142070e+00 -1.318305e+01 -4.815518e+00 6.853967e+01 7.235659e-01 -3.199849e-02 2.077734e+00 -2.778697e+00 -3.659556e+00 9.531448e-01 -4.219848e+00 -9.700651e-01 -3.352012e+00 4.564293e-01 -3.068775e+00 -1.410805e+00 8.885844e-01 -7.012354e-01 -3.823644e-01 -2.690303e-01 1.259845e-01 6.666946e-01 3.200659e-01 5.815105e-01 6.046320e-01 5.981973e-01 5.986602e-01 6.008226e-01 1.885522e-01 3.069420e-01
<VARIANCE> 39
 2.765735e+00 5.888389e+00 1.071426e+01 2.071975e+01 3.484723e+01 2.065380e+01 3.424473e+01 1.102304e+01 2.078028e+01 1.595646e+01 1.543520e+01 7.158151e+00 1.916582e+01 1.598918e+00 8.269660e-01 9.339406e-01 6.304084e-01 2.509390e+00 1.560855e+00 2.613476e+00 1.860558e+00 1.998929e+00 1.918178e+00 2.092568e+00 5.040982e-01 3.493032e-01 6.613416e-02 1.202663e-01 2.397914e-01 3.819159e-01 8.259373e-01 2.188147e-01 7.070025e-01 2.478337e-01 5.212123e-01 3.383750e-01 3.332975e-01 1.215376e-01 1.539801e-01
<GCONST> 9.139693e+01
<STATE> 4
<MEAN> 39
 -1.637927e+01 1.212247e+01 1.021542e+01 -2.037229e+01 -1.258563e+01 -5.595105e-01 -1.635475e+01 -8.710120e+00 -1.705256e+01 -2.274136e-01 -1.776927e+01 -8.568695e+00 7.285919e+01 -4.467269e-01 3.175522e-01 4.603199e-02 -3.822718e-01 3.855879e-01 1.819145e-01 1.772691e-01 2.825258e-01 3.079346e-01 -3.635467e-01 -4.874949e-01 -6.295099e-01 1.029244e-02 1.366743e-01 1.011775e-01 -2.148535e-01 3.225103e-01 3.918823e-01 -1.821197e-01 6.291096e-01 1.318871e-02 5.006006e-01 -2.442831e-01 2.764971e-01 1.907954e-01 -2.259455e-01
<VARIANCE> 39
 3.721121e+00 5.356786e+00 2.918231e+00 1.461255e+01 9.576481e+00 9.026804e+00 1.265059e+01 3.872005e+00 6.344612e+00 6.337492e+00 8.338260e+00 1.017204e+01 1.336179e+01 6.090612e-01 3.781685e-01 1.997772e-01 4.081405e-01 4.084851e-01 5.117145e-01 1.028584e+00 5.094316e-01 7.078225e-01 8.362132e-01 4.541676e-01 4.343137e-01 2.484900e-01 9.630758e-02 9.492086e-02 1.267477e-01 1.422066e-01 2.904305e-01 1.595265e-01 3.385128e-01 1.380792e-01 2.047936e-01 1.729356e-01 1.989340e-01 5.792323e-02 2.827132e-02
<GCONST> 6.155791e+01
<TRANSP> 5
 0.000000e+00 1.000000e+00 0.000000e+00 0.000000e+00 0.000000e+00
 0.000000e+00 9.227681e-01 7.723197e-02 0.000000e+00 0.000000e+00
 0.000000e+00 0.000000e+00 6.632723e-01 3.367278e-01 0.000000e+00
 0.000000e+00 0.000000e+00 0.000000e+00 7.886130e-01 2.113871e-01
 0.000000e+00 0.000000e+00 0.000000e+00 0.000000e+00 0.000000e+00
<ENDHMM>
~h "r"
<BEGINHMM>
<NUMSTATES> 5
<STATE> 2
<MEAN> 39
 -6.233959e+00 -4.172509e+00 9.640818e+00 -7.035921e+00 -2.351922e+01 -1.666848e+01 -3.215584e+00 -8.467809e+00 -1.443371e+01 2.040675e+00 -5.525928e+00 -5.295130e+00 7.059780e+01 -1.407583e+00 9.090587e-01 2.914518e+00 -3.030564e+00 -7.831705e-01 1.858245e+00 1.395621e-01 -2.417408e+00 -2.237732e-01 1.674816e+00 -1.163654e+00 -3.082898e-02 2.303073e-01 -2.701099e-02 4.717528e-01 -4.914246e-01 -1.537590e-01 7.950004e-01 3.442991e-01 -7.482015e-01 -1.283334e-01 6.450472e-01 -1.305322e-01 -4.122351e-01 6.331220e-02 -1.654829e-01
<VARIANCE> 39
 1.118960e+01 1.772680e+01 3.584069e+01 4.112983e+01 5.003597e+01 3.873630e+01 2.149453e+01 4.054378e+01 2.364973e+01 2.130595e+01 2.276218e+01 1.316894e+01 3.278534e+01 9.644481e-01 1.338738e+00 1.721396e+00 1.401354e+00 2.548301e+00 2.138233e+00 3.144566e+00 2.090982e+00 2.833688e+00 1.554584e+00 2.528335e+00 1.132952e+00 2.103190e-01 8.549659e-02 9.683137e-02 3.206068e-01 3.611019e-01 2.941119e-01 4.058011e-01 3.747203e-01 7.519168e-01 3.540795e-01 5.257652e-01 3.570987e-01 3.042062e-01 1.940477e-02
<GCONST> 1.015232e+02
<STATE> 3
<MEAN> 39
 -1.003556e+01 3.222567e-01 1.545788e+01 -1.326144e+01 -2.090982e+01 -1.258208e+01 -5.857391e+00 -1.437875e+01 -1.109303e+01 3.794502e+00 -1.040035e+01 -4.892121e+00 6.964692e+01 -1.402192e-01 4.285168e-01 -1.990869e-01 -4.423387e-01 6.538934e-01 1.934587e-01 -6.902774e-01 3.895721e-01 6.155208e-01 -4.427528e-01 -3.652980e-01 3.375811e-01 -1.697450e-01 1.612835e-01 -5.743228e-02 -3.502537e-01 3.725326e-01 1.242383e-01 -2.216305e-01 -2.555579e-02 3.447627e-01 -5.074305e-02 -1.769501e-01 1.493013e-01 4.090689e-02 -5.848182e-02
<VARIANCE> 39
 1.182764e+01 1.780342e+01 2.769253e+01 4.020547e+01 2.999362e+01 4.171954e+01 3.621737e+01 3.098196e+01 2.004570e+01 2.115734e+01 2.525054e+01 1.553301e+01 1.862652e+01 9.735689e-01 1.941184e+00 1.521140e+00 2.364933e+00 1.747248e+00 2.515920e+00 2.432162e+00 2.335109e+00 2.027871e+00 1.731948e+00 2.473914e+00 1.224039e+00 1.297340e-01 5.688987e-02 9.694224e-02 1.552746e-01 2.041671e-01 2.687314e-01 2.198856e-01 2.788353e-01 4.585333e-01 3.789414e-01 3.578567e-01 3.262345e-01 2.116924e-01 1.574560e-02
<GCONST> 9.624049e+01
<STATE> 4
<MEAN> 39
 -6.313281e+00 5.431051e-01 6.335094e+00 -9.865685e+00 -1.443231e+01 -1.520354e+01 -9.622257e+00 -8.960998e+00 -5.540654e+00 -4.165035e-02 -9.883273e+00 -3.741016e+00 6.732610e+01 1.393902e-01 7.496054e-01 -1.002711e+00 3.891386e-02 1.089495e+00 3.041982e-01 -9.792482e-01 1.722424e-01 2.080656e-01 1.728173e-01 6.098891e-02 4.495288e-02 -3.728963e-01 1.291845e-02 -7.236095e-02 3.538275e-02 -8.023317e-02 -1.580098e-01 7.567171e-02 1.946613e-01 3.584687e-03 -2.966921e-01 1.856002e-01 2.584635e-01 -1.861991e-01 4.911713e-02
<VARIANCE> 39
 3.948211e+01 3.790536e+01 7.098109e+01 1.014007e+02 5.757141e+01 7.777539e+01 5.596890e+01 2.905467e+01 4.339450e+01 2.474125e+01 2.923866e+01 1.632029e+01 3.140512e+01 4.372778e-01 3.858509e-01 1.374981e+00 9.338278e-01 1.061030e+00 9.578764e-01 1.018198e+00 1.497925e+00 1.895371e+00 1.309449e+00 1.321694e+00 1.051295e+00 1.198485e-01 5.091983e-02 8.835080e-02 6.541092e-02 2.231315e-01 1.367456e-01 2.313794e-01 1.660670e-01 2.260570e-01 2.727773e-01 2.113391e-01 1.971043e-01 1.512414e-01 1.727680e-02
<GCONST> 9.149805e+01
<TRANSP> 5
 0.000000e+00 1.000000e+00 0.000000e+00 0.000000e+00 0.000000e+00
 0.000000e+00 6.664638e-01 3.335362e-01 0.000000e+00 0.000000e+00
 0.000000e+00 0.000000e+00 8.277577e-01 1.722424e-01 0.000000e+00
 0.000000e+00 0.000000e+00 0.000000e+00 6.861888e-01 3.138112e-01
 0.000000e+00 0.000000e+00 0.000000e+00 0.000000e+00 0.000000e+00
<ENDHMM>
~h "s"
<BEGINHMM>
<NUMSTATES> 5
<STATE> 2
<MEAN> 39
 -1.033429e+01 3.511836e+00 7.184399e-01 4.260067e+00 -4.516540e+00 -2.124509e+00 6.425169e+00 2.027055e-01 -1.741418e+00 2.144204e+00 3.055712e+00 3.366404e+00 4.767043e+01 -1.555524e+00 -8.884466e-02 -9.991597e-01 2.918351e-01 -6.687418e-01 -1.445478e-01 7.582408e-01 8.076477e-02 -1.865267e-01 -1.661127e-01 -1.120941e-01 -1.567695e-01 1.965888e+00 -2.172207e-01 1.540879e-01 -1.907944e-01 -6.728769e-03 1.078988e-01 1.230837e-01 -1.901354e-01 -1.733991e-02 4.378061e-02 3.588719e-02 -2.374358e-02 -8.181564e-03 8.227330e-02
<VARIANCE> 39
 3.433271e+01 2.048676e+01 1.834000e+01 1.742852e+01 2.899006e+01 2.752223e+01 3.281876e+01 2.319098e+01 2.221218e+01 2.130300e+01 1.895350e+01 1.611880e+01 4.910524e+01 3.815237e+00 2.431363e+00 2.204586e+00 1.941851e+00 2.909156e+00 2.621427e+00 3.398832e+00 2.185896e+00 2.267234e+00 2.161856e+00 1.685491e+00 1.574622e+00 3.114667e+00 6.692392e-01 4.420283e-01 3.326685e-01 3.884950e-01 5.228212e-01 4.457637e-01 5.901230e-01 4.548785e-01 4.499656e-01 4.230825e-01 3.267791e-01 2.962334e-01 5.175847e-01
<GCONST> 1.138247e+02
<STATE> 3
<MEAN> 39
 -2.140624e+01 4.335516e+00 -8.379440e+00 6.796196e+00 -7.655359e+00 2.379501e-01 5.658981e+00 1.127701e+00 -3.249028e+00 2.630807e+00 1.682229e+00 2.619925e+00 5.976389e+01 -9.480230e-02 -5.011553e-02 -3.428838e-02 2.194271e-02 -7.909263e-03 4.519023e-02 -1.746787e-01 1.450124e-02 -1.055131e-01 7.565817e-02 -8.237603e-02 -6.464174e-02 2.761789e-01 3.327482e-01 -5.283662e-02 2.650761e-01 -1.441050e-01 -5.900113e-02 -1.633806e-01 -1.697662e-02 -7.848893e-02 -5.333702e-02 -4.295662e-02 -5.431010e-02 -4.916449e-02 -6.567782e-02
<VARIANCE> 39
 1.078172e+01 7.072749e+00 1.086357e+01 1.162118e+01 1.296983e+01 1.911348e+01 1.844498e+01 1.759883e+01 1.673555e+01 1.752818e+01 1.598433e+01 1.329442e+01 1.552606e+01 9.604553e-01 6.443406e-01 1.282083e+00 1.047255e+00 1.081197e+00 1.389722e+00 1.591112e+00 1.597574e+00 1.650237e+00 1.651556e+00 1.586743e+00 1.351447e+00 4.578600e-01 1.442703e-01 1.350925e-01 1.823461e-01 2.288000e-01 2.550736e-01 3.067159e-01 3.321722e-01 3.494282e-01 3.632934e-01 3.411715e-01 3.542420e-01 2.748556e-01 1.099478e-01
<GCONST> 8.962603e+01
<STATE> 4
<MEAN> 39
 -1.127363e+01 3.528023e+00 -1.495192e-01 -1.099019e+00 -1.207586e+01 -6.094102e+00 2.144892e+00 -3.335590e+00 -7.565332e+00 2.020356e+00 -2.342864e+00 4.049883e-02 6.302268e+01 2.649315e+00 -6.100752e-01 2.041836e+00 -3.153504e+00 -2.185251e+00 -2.397108e+00 -1.732613e+00 -1.425113e+00 -1.274186e+00 -2.757365e-01 -1.573542e+00 -4.574092e-01 1.605091e+00 -1.960060e-01 -3.390917e-01 -1.244477e-01 -3.447348e-01 -9.797820e-02 2.078405e-01 -1.800747e-01 7.643068e-02 1.281888e-01 4.643012e-02 -1.113676e-01 9.089508e-02 1.007271e-01
<VARIANCE> 39
 4.627061e+01 1.619530e+01 3.655906e+01 6.891525e+01 7.577637e+01 6.189924e+01 4.778335e+01 4.112656e+01 3.780191e+01 2.827007e+01 3.534427e+01 1.631735e+01 7.739256e+01 3.673924e+00 2.466308e+00 2.686114e+00 3.889137e+00 4.839910e+00 4.743854e+00 3.669842e+00 3.716702e+00 3.216482e+00 3.319049e+00 2.526252e+00 1.563190e+00 1.906255e+00 8.859094e-01 3.879518e-01 5.508416e-01 7.726955e-01 1.079121e+00 1.225147e+00 7.757407e-01 5.960420e-01 6.876369e-01 4.159158e-01 4.810923e-01 2.840632e-01 2.918593e-01
<GCONST> 1.276410e+02
<TRANSP> 5
 0.000000e+00 1.000000e+00 0.000000e+00 0.000000e+00 0.000000e+00
 0.000000e+00 8.110643e-01 1.889357e-01 0.000000e+00 0.000000e+00
 0.000000e+00 0.000000e+00 9.010808e-01 9.891915e-02 0.000000e+00
 0.000000e+00 0.000000e+00 0.000000e+00 6.908144e-01 3.091856e-01
 0.000000e+00 0.000000e+00 0.000000e+00 0.000000e+00 0.000000e+00
<ENDHMM>
~h "t"
<BEGINHMM>
<NUMSTATES> 5
<STATE> 2
<MEAN> 39
 -5.760938e+00 6.225576e+00 6.193849e+00 -1.441854e+00 -4.024529e+00 2.438257e-01 -2.777991e+00 -1.816671e+00 1.783779e+00 4.683462e+00 2.260419e+00 4.124515e+00 4.089887e+01 -2.591897e-01 -8.565645e-02 -3.596246e-01 3.428283e-01 2.512172e-01 1.205614e-01 3.882101e-01 1.672966e-01 1.646310e-01 9.986445e-02 1.991535e-01 1.212435e-01 8.662884e-02 -3.751346e-01 -1.040673e-01 -1.002652e-01 -1.668898e-01 -3.439938e-02 -5.694323e-02 1.862454e-01 -9.111428e-02 -1.794871e-01 -8.333956e-02 -1.811204e-01 -1.808983e-01 8.877994e-01
<VARIANCE> 39
 6.167610e+00 1.015127e+01 1.921503e+01 4.146864e+01 2.801159e+01 1.560799e+01 3.049195e+01 1.983471e+01 1.679505e+01 1.981089e+01 2.022262e+01 1.448580e+01 1.433613e+01 9.727806e-01 7.978736e-01 1.032230e+00 1.379393e+00 1.271001e+00 1.171381e+00 1.867387e+00 1.576534e+00 1.645011e+00 1.527790e+00 1.684896e+00 1.376123e+00 2.127348e+00 3.109916e-01 1.871464e-01 2.658059e-01 2.761893e-01 2.920819e-01 2.941410e-01 4.394486e-01 3.551111e-01 3.310629e-01 3.365847e-01 3.221086e-01 3.007432e-01 1.088004e+00
<GCONST> 9.901340e+01
<STATE> 3
<MEAN> 39
 -1.658605e+01 4.889841e+00 2.588790e+00 -3.413692e+00 -5.578215e+00 -2.335866e-01 4.775916e+00 -1.894031e+00 -2.224269e+00 4.812487e+00 1.098589e+00 8.560429e-01 6.226357e+01 -1.201711e+00 -2.592253e-02 -1.369074e-03 9.817368e-02 -5.161964e-01 -2.287283e-01 1.099234e+00 -2.159262e-02 -7.384018e-01 2.158442e-02 3.044122e-02 -5.456901e-01 2.506603e+00 3.491305e-01 4.341139e-02 1.956648e-01 1.327216e-01 -7.780997e-02 -1.162026e-01 -1.272999e-01 -4.071679e-02 -2.893910e-02 -6.886275e-02 3.990132e-02 2.727328e-02 -5.975485e-01
<VARIANCE> 39
 4.211333e+01 2.095582e+01 2.836315e+01 2.379999e+01 3.141121e+01 3.643461e+01 4.571339e+01 2.459911e+01 2.516285e+01 1.934530e+01 2.358986e+01 2.100276e+01 1.456570e+02 4.927914e+00 2.595165e+00 4.125482e+00 3.481876e+00 3.277159e+00 2.692055e+00 4.915478e+00 2.291305e+00 2.551571e+00 2.282692e+00 2.516945e+00 2.316852e+00 1.892974e+01 6.648960e-01 5.115325e-01 5.791653e-01 5.258876e-01 4.850719e-01 5.050117e-01 8.386599e-01 4.033270e-01 5.194734e-01 4.587403e-01 4.274176e-01 4.478077e-01 2.425880e+00
<GCONST> 1.257360e+02
<STATE> 4
<MEAN> 39
 -1.266837e+01 4.404087e+00 8.140017e+00 -6.072865e-01 -1.512869e+01 -8.205910e+00 4.208319e+00 -6.868944e+00 -1.030240e+01 2.071737e-01 -8.295194e-01 -3.285093e+00 6.848661e+01 1.539076e+00 -5.594046e-01 2.377608e-01 -6.353348e-01 -7.048059e-01 -1.634047e+00 -1.412856e+00 -7.932569e-01 -9.720719e-01 -6.073132e-01 -3.924114e-01 -4.960749e-01 -7.250524e-01 -1.395070e-01 -3.918575e-03 -1.283169e-01 -1.412215e-01 2.148610e-01 1.876271e-01 -1.459680e-01 8.925817e-02 1.700976e-01 1.137222e-01 -5.443447e-02 1.158959e-01 3.596787e-02
<VARIANCE> 39
 4.427192e+01 1.767423e+01 1.895038e+01 5.673058e+01 4.858669e+01 6.411127e+01 8.962777e+01 4.593047e+01 3.057923e+01 2.668600e+01 3.275684e+01 2.040751e+01 4.656862e+01 1.996447e+00 1.268070e+00 1.332705e+00 4.283170e+00 2.489789e+00 3.622202e+00 5.522133e+00 3.131728e+00 2.758706e+00 2.168238e+00 2.126209e+00 1.821299e+00 2.060903e+00 4.559760e-01 2.747941e-01 1.963695e-01 7.601742e-01 4.779759e-01 5.593832e-01 1.058622e+00 6.165753e-01 4.322132e-01 3.985846e-01 3.753805e-01 3.195844e-01 1.728399e-01
<GCONST> 1.189637e+02
<TRANSP> 5
 0.000000e+00 1.000000e+00 0.000000e+00 0.000000e+00 0.000000e+00
 0.000000e+00 7.959777e-01 2.040223e-01 0.000000e+00 0.000000e+00
 0.000000e+00 0.000000e+00 8.880652e-01 1.119348e-01 0.000000e+00
 0.000000e+00 0.000000e+00 0.000000e+00 8.182429e-01 1.817571e-01
 0.000000e+00 0.000000e+00 0.000000e+00 0.000000e+00 0.000000e+00
<ENDHMM>
~h "v"
<BEGINHMM>
<NUMSTATES> 5
<STATE> 2
<MEAN> 39
 -5.903932e+00 1.786349e+00 4.932375e+00 -9.993294e+00 -1.625879e+01 -9.020958e+00 -2.762699e+00 -1.447509e+01 -8.348685e+00 -4.118822e-01 -1.116053e+01 -2.381486e+00 6.355127e+01 4.500449e-01 4.426496e-01 -7.517718e-01 2.721280e+00 8.408692e-01 -1.778855e-01 -1.317554e-01 9.277895e-01 -5.042778e-01 -2.401369e-01 7.807525e-01 1.343910e-01 -1.407074e+00 -1.492011e-01 -2.494334e-02 -3.949572e-01 2.488520e-01 3.798767e-01 3.010534e-01 1.154368e-03 5.741532e-01 2.799706e-01 -3.388482e-01 2.198357e-01 -2.996903e-02 -9.159767e-02
<VARIANCE> 39
 1.358534e+01 1.415078e+01 3.510346e+01 5.124165e+01 5.110707e+01 2.486269e+01 2.576353e+01 3.757989e+01 3.508017e+01 2.825472e+01 3.327329e+01 1.881932e+01 3.687051e+01 9.663492e-01 1.139991e+00 1.401830e+00 4.288892e+00 2.177664e+00 2.717352e+00 1.986132e+00 3.836781e+00 2.181224e+00 2.945473e+00 2.570553e+00 1.295294e+00 1.942083e+00 1.782235e-01 1.501923e-01 1.784940e-01 6.131534e-01 3.877730e-01 5.426743e-01 4.408698e-01 3.913574e-01 4.639960e-01 4.438268e-01 4.486063e-01 3.405138e-01 1.437770e-01
<GCONST> 1.102784e+02
<STATE> 3
<MEAN> 39
 -6.014948e+00 3.971039e+00 -1.304739e+00 -1.365871e+00 -7.724097e+00 -5.970209e+00 -5.890136e+00 -7.517778e+00 -5.603530e+00 -2.793358e+00 -9.050386e+00 -3.761658e+00 6.072867e+01 -5.007848e-01 1.025491e-01 -1.405551e-01 -1.228270e-01 4.027451e-01 3.279367e-01 -1.760914e-02 6.992843e-01 5.436466e-01 2.294872e-01 9.488866e-02 3.916969e-01 -5.083706e-02 4.058426e-02 -2.980669e-01 1.176945e-01 -5.464019e-01 -2.329757e-01 -2.250434e-01 2.522931e-01 1.291188e-01 1.164505e-01 4.454434e-02 -4.934737e-02 1.736138e-01 2.243243e-01
<VARIANCE> 39
 1.647865e+01 1.451649e+01 3.269744e+01 2.894337e+01 3.074124e+01 2.555219e+01 2.319521e+01 2.188140e+01 2.370090e+01 2.156287e+01 2.191672e+01 1.896114e+01 4.421610e+01 1.050100e+00 1.657988e+00 1.957312e+00 4.176065e+00 2.478292e+00 3.110881e+00 2.164672e+00 2.803915e+00 2.192518e+00 2.380962e+00 2.142684e+00 1.786423e+00 2.734400e+00 2.100119e-01 2.403222e-01 2.759090e-01 5.157659e-01 3.373353e-01 4.350299e-01 3.932729e-01 5.259564e-01 3.757458e-01 5.746992e-01 3.912404e-01 2.580990e-01 2.181261e-01
<GCONST> 1.096810e+02
<STATE> 4
<MEAN> 39
 -7.759329e+00 2.563150e+00 7.149374e-01 1.665801e+00 -4.805649e+00 -2.759099e+00 -4.150091e-01 -3.441981e+00 -1.059904e+00 2.866005e+00 -1.273948e+00 1.756554e+00 5.097826e+01 3.098710e-02 -2.586357e-01 1.005623e-01 -1.499770e-01 1.731370e-01 -1.123867e-01 3.575088e-02 2.936767e-01 1.709586e-01 -5.433358e-02 1.855111e-01 1.217516e-01 -3.243276e-02 3.586539e-02 5.294967e-02 2.962693e-02 -3.519342e-03 -2.346607e-02 -2.399704e-02 -3.407663e-02 -4.060012e-02 -9.971302e-02 -1.147662e-01 -3.219739e-02 -5.665301e-02 -1.585344e-02
<VARIANCE> 39
 2.529283e+01 2.424620e+01 3.039729e+01 4.755442e+01 3.864421e+01 3.007966e+01 2.729834e+01 3.517958e+01 2.930238e+01 3.217989e+01 3.390876e+01 2.104554e+01 9.018753e+01 2.345947e+00 1.703729e+00 1.934864e+00 3.319865e+00 2.584900e+00 2.530811e+00 2.368667e+00 2.776767e+00 2.190286e+00 2.687157e+00 2.134467e+00 1.749233e+00 3.314245e+00 4.335301e-01 3.163706e-01 3.535545e-01 5.383332e-01 4.281548e-01 4.651992e-01 4.225958e-01 4.955464e-01 4.391480e-01 5.017101e-01 3.946529e-01 3.338760e-01 4.901825e-01
<GCONST> 1.174395e+02
<TRANSP> 5
 0.000000e+00 1.000000e+00 0.000000e+00 0.000000e+00 0.000000e+00
 0.000000e+00 6.126733e-01 3.873266e-01 0.000000e+00 0.000000e+00
 0.000000e+00 0.000000e+00 8.078668e-01 1.921333e-01 0.000000e+00
 0.000000e+00 0.000000e+00 0.000000e+00 8.939045e-01 1.060955e-01
 0.000000e+00 0.000000e+00 0.000000e+00 0.000000e+00 0.000000e+00
<ENDHMM>
~h "w"
<BEGINHMM>
<NUMSTATES> 5
<STATE> 2
<MEAN> 39
 3.827519e+00 1.051166e+01 -1.641591e+00 -8.001560e+00 -7.174538e+00 -6.877781e+00 -4.191404e+00 -5.303338e+00 -5.748464e+00 -2.385688e+00 -8.118827e+00 -2.230273e+00 4.948538e+01 1.054481e+00 4.358637e-01 -7.536448e-01 -2.089166e+00 -1.166653e+00 -1.236974e+00 -7.189376e-01 -7.800641e-02 -7.372919e-01 -4.053999e-01 -8.601151e-01 -5.122433e-01 2.034644e+00 -2.870182e-01 -1.864602e-01 -1.375008e-01 -8.633795e-02 -1.823200e-02 2.342356e-01 2.052210e-01 2.555506e-01 1.408082e-01 5.668716e-02 3.016652e-01 1.190014e-01 2.163814e-01
<VARIANCE> 39
 3.725871e+01 1.963479e+01 2.028040e+01 7.143654e+01 3.054387e+01 3.396787e+01 2.429050e+01 2.253484e+01 2.268768e+01 2.532376e+01 3.825856e+01 2.397527e+01 4.374341e+01 3.544001e+00 1.821851e+00 1.544078e+00 4.457119e+00 3.448040e+00 3.201122e+00 2.502200e+00 2.997649e+00 2.223524e+00 2.817266e+00 4.815673e+00 2.748780e+00 2.017112e+00 5.404252e-01 3.790946e-01 2.993465e-01 9.483203e-01 6.692083e-01 4.837369e-01 4.457472e-01 4.693805e-01 3.923535e-01 5.317169e-01 6.863887e-01 4.859658e-01 3.213142e-01
<GCONST> 1.197465e+02
<STATE> 3
<MEAN> 39
 5.840001e-01 2.664915e-01 -1.152302e+01 -1.979801e+01 -1.047796e+01 -3.872804e+00 -2.896190e+00 -4.430274e+00 -7.466355e+00 -6.629348e+00 -7.299231e+00 -6.251862e+00 7.164199e+01 -7.006330e-01 -1.841016e+00 -8.926415e-01 -7.960684e-02 9.695416e-01 1.248214e+00 2.729828e-01 -5.655892e-01 2.373632e-01 -4.814349e-01 -2.584787e-01 -5.329673e-01 1.508302e+00 8.421589e-02 -1.353612e-02 1.207295e-01 2.864179e-01 2.719663e-01 -6.899063e-02 -6.349724e-02 -4.567355e-02 1.588360e-02 -3.949811e-02 -2.047553e-01 8.415095e-02 -3.061417e-01
<VARIANCE> 39
 1.127219e+01 7.662273e+01 1.996533e+01 2.717364e+01 3.654191e+01 6.481264e+01 2.331389e+01 2.663957e+01 1.690680e+01 1.714400e+01 1.678522e+01 2.509039e+01 5.085093e+01 4.826396e-01 2.767737e+00 1.172153e+00 2.700723e+00 3.290031e+00 2.855757e+00 2.434540e+00 2.628536e+00 1.808790e+00 2.269359e+00 2.569553e+00 2.179653e+00 1.923202e+00 7.622465e-02 5.503532e-01 1.809680e-01 4.229036e-01 5.334201e-01 6.353703e-01 4.410665e-01 5.508478e-01 3.769581e-01 4.974813e-01 4.317876e-01 5.071459e-01 1.017085e-01
<GCONST> 1.101883e+02
<STATE> 4
<MEAN> 39
 -2.791174e+00 -8.263918e+00 -9.080027e+00 -1.141900e+01 -2.018827e-01 -5.431360e+00 -4.109562e+00 -2.729237e+00 -1.211030e+01 -1.618041e+01 -1.564579e+01 -3.485525e+00 7.214405e+01 -6.106335e-02 2.903853e-01 6.663960e-01 5.950830e-01 8.828409e-03 -8.381276e-01 -2.654421e-02 4.703864e-01 -6.769302e-01 -4.439486e-01 -3.262352e-01 3.896805e-01 -4.640697e-01 2.108237e-02 9.842305e-02 6.543311e-02 -3.901769e-03 -9.742568e-02 -3.261679e-02 1.566640e-02 -5.637349e-02 -1.163767e-02 1.061094e-01 6.943185e-02 -4.731956e-02 -4.646425e-02
<VARIANCE> 39
 4.471770e+00 2.929824e+01 2.715337e+01 1.704673e+01 1.984228e+01 5.026832e+01 2.005544e+01 3.280689e+01 4.015454e+01 2.363543e+01 1.626597e+01 2.228215e+01 1.348327e+01 1.722561e-01 9.360713e-01 4.451264e-01 8.587236e-01 1.357363e+00 1.069931e+00 1.256384e+00 1.436063e+00 1.171138e+00 1.600888e+00 1.035835e+00 1.248469e+00 1.566935e-01 2.992805e-02 7.974181e-02 7.849231e-02 1.400433e-01 2.120502e-01 1.818710e-01 2.347382e-01 2.347780e-01 2.158689e-01 2.092285e-01 1.845801e-01 1.919026e-01 2.455131e-02
<GCONST> 8.179593e+01
<TRANSP> 5
 0.000000e+00 1.000000e+00 0.000000e+00 0.000000e+00 0.000000e+00
 0.000000e+00 8.878980e-01 1.121020e-01 0.000000e+00 0.000000e+00
 0.000000e+00 0.000000e+00 9.046621e-01 9.533795e-02 0.000000e+00
 0.000000e+00 0.000000e+00 0.000000e+00 9.364285e-01 6.357157e-02
 0.000000e+00 0.000000e+00 0.000000e+00 0.000000e+00 0.000000e+00
<ENDHMM>
~h "y"
<BEGINHMM>
<NUMSTATES> 5
<STATE> 2
<MEAN> 39
 -1.209188e+01 7.034441e+00 1.633744e+01 -1.228614e+01 -1.780585e+01 -2.374048e+00 -7.072735e+00 -1.615553e+01 -1.099133e+01 -5.251844e-01 -1.587633e+01 -5.439986e+00 6.855779e+01 3.567334e-02 -2.412691e-01 1.558012e-01 1.144983e-01 -7.806114e-01 -3.873477e-01 8.969454e-02 -3.982862e-01 -6.661970e-01 2.113869e-01 -2.114568e-01 -4.136757e-01 5.010716e-01 -2.590919e-03 -8.387718e-02 -1.545368e-01 1.940981e-01 9.778819e-02 -9.259732e-02 1.915518e-01 1.866647e-01 2.170903e-02 2.706290e-02 2.471069e-01 8.362133e-02 -5.174837e-02
<VARIANCE> 39
 8.156217e+00 1.363727e+01 1.093514e+01 2.541920e+01 3.879416e+01 2.357331e+01 2.645271e+01 2.488426e+01 1.600039e+01 3.010107e+01 1.970186e+01 2.750811e+01 2.827386e+01 7.417591e-01 6.113815e-01 8.918728e-01 1.794494e+00 1.762433e+00 1.053963e+00 1.900241e+00 1.352626e+00 1.414840e+00 1.423388e+00 1.910074e+00 1.071118e+00 1.334007e+00 1.183820e-01 1.056872e-01 1.185282e-01 1.684796e-01 2.248873e-01 1.504286e-01 2.260470e-01 1.758883e-01 2.240951e-01 2.522965e-01 1.929724e-01 1.680145e-01 9.646601e-02
<GCONST> 9.053917e+01
<STATE> 3
<MEAN> 39
 -8.539009e+00 3.684009e+00 8.640427e+00 -1.890028e+00 -1.740609e+01 -1.623063e+01 -5.658162e+00 -1.025733e+01 -1.346762e+01 -1.997285e-01 -1.019781e+01 -9.422356e-01 6.948828e+01 6.380730e-01 8.384860e-02 -1.339691e+00 5.097029e-01 1.377639e+00 -8.527017e-01 -8.777841e-01 7.323857e-01 1.173656e+00 -3.142103e-01 -2.519317e-03 7.133397e-01 -3.194788e-01 4.134686e-02 7.105476e-02 -6.337548e-02 -1.630741e-01 1.867933e-01 2.478333e-01 -1.263382e-01 -2.349859e-01 2.116351e-01 1.253578e-01 -1.078037e-01 -1.073395e-01 -5.681845e-02
<VARIANCE> 39
 1.099761e+01 6.231112e+00 3.404737e+01 2.574560e+01 3.932214e+01 3.042193e+01 4.425195e+01 3.465134e+01 4.187391e+01 2.407681e+01 2.011646e+01 3.852098e+01 1.395184e+01 1.766119e-01 2.109168e-01 4.625199e-01 8.448108e-01 1.058337e+00 1.662238e+00 1.352760e+00 2.393615e+00 2.767937e+00 1.821772e+00 1.849850e+00 1.962557e+00 9.115012e-02 2.289320e-02 2.289797e-02 5.422479e-02 7.272169e-02 1.029170e-01 1.464965e-01 1.998573e-01 2.807852e-01 3.833990e-01 2.639824e-01 2.865527e-01 3.308696e-01 9.746278e-03
<GCONST> 8.188739e+01
<STATE> 4
<MEAN> 39
 1.052366e-01 8.812885e+00 -4.992954e+00 -6.975131e+00 -9.033903e-01 -9.355571e+00 -6.477910e+00 -1.886536e+01 -4.921984e+00 1.286707e+00 -4.721549e+00 9.318194e-01 6.126698e+01 6.187792e-01 4.472975e-01 -3.524788e-01 -4.727822e-01 5.955470e-01 9.524341e-01 1.040059e+00 -5.204919e-01 -3.585829e-01 -2.500703e-01 6.803276e-01 1.816370e-01 -9.646445e-01 -6.017483e-02 -4.854705e-02 1.500467e-01 9.846345e-02 -1.584541e-01 -7.098338e-02 7.633667e-02 1.839973e-01 -1.074698e-01 -1.515065e-01 -3.847586e-02 6.723423e-02 -2.290433e-02
<VARIANCE> 39
 1.187382e+01 1.455514e+01 1.711077e+01 3.533708e+01 2.127725e+01 3.970242e+01 7.114121e+01 4.560840e+01 2.331854e+01 2.706920e+01 3.170263e+01 1.933055e+01 3.512829e+01 2.981675e-01 3.949897e-01 9.372855e-01 1.265081e+00 1.551422e+00 1.210010e+00 1.784710e+00 3.035832e+00 1.297266e+00 1.763294e+00 1.869659e+00 1.322099e+00 2.605209e-01 5.109658e-02 5.250497e-02 7.411490e-02 1.370374e-01 1.931438e-01 1.852358e-01 3.202355e-01 3.271457e-01 2.755850e-01 2.206627e-01 2.892018e-01 2.264661e-01 3.857035e-02
<GCONST> 9.034286e+01
<TRANSP> 5
 0.000000e+00 1.000000e+00 0.000000e+00 0.000000e+00 0.000000e+00
 0.000000e+00 9.307970e-01 6.920298e-02 0.000000e+00 0.000000e+00
 0.000000e+00 0.000000e+00 9.086535e-01 9.134649e-02 0.000000e+00
 0.000000e+00 0.000000e+00 0.000000e+00 8.825743e-01 1.174258e-01
 0.000000e+00 0.000000e+00 0.000000e+00 0.000000e+00 0.000000e+00
<ENDHMM>
~h "z"
<BEGINHMM>
<NUMSTATES> 5
<STATE> 2
<MEAN> 39
 -2.987696e+00 7.951167e+00 3.887319e+00 1.857012e+00 -6.318746e+00 -1.302542e+01 8.831080e-02 -1.988268e+00 -9.262231e+00 -2.983017e+00 -7.207072e+00 2.517993e+00 4.838591e+01 3.058881e-01 -3.686784e-02 -1.899980e-01 -3.532735e-02 -9.337913e-01 -1.231002e+00 1.538261e-01 1.499908e-01 -9.755431e-01 -8.964946e-01 -1.430035e+00 -1.985404e-01 1.747044e+00 -2.678378e-01 5.965604e-03 -1.786144e-01 1.831019e-01 6.287882e-02 3.866476e-01 6.295081e-02 1.004867e-01 3.315448e-01 1.408041e-01 3.073878e-01 7.911945e-02 -1.088159e-02
<VARIANCE> 39
 2.175732e+01 1.488595e+01 1.324093e+01 2.125541e+01 3.355678e+01 5.742905e+01 3.281773e+01 3.146502e+01 4.702323e+01 4.447940e+01 7.494815e+01 3.359092e+01 3.988869e+01 2.698434e+00 1.201959e+00 1.494793e+00 2.091627e+00 3.520574e+00 5.881451e+00 3.015658e+00 2.760208e+00 4.414695e+00 2.933228e+00 5.006763e+00 1.982846e+00 1.761944e+00 4.280798e-01 2.617597e-01 2.161226e-01 4.469693e-01 6.552285e-01 8.036733e-01 6.214230e-01 5.313833e-01 6.508231e-01 5.033217e-01 8.101288e-01 3.892888e-01 3.266544e-01
<GCONST> 1.199887e+02
<STATE> 3
<MEAN> 39
 -9.845187e+00 1.014858e+01 -1.711660e+00 8.343335e+00 -1.150158e+01 -1.032309e+01 -1.400568e-01 -1.181412e+00 -8.852234e+00 -5.084347e+00 -7.043536e+00 8.809176e-01 5.953728e+01 -1.278623e+00 1.615254e-01 -3.081431e-01 8.699018e-01 -1.558696e-01 8.096346e-01 -1.658500e-01 -3.135971e-01 2.122371e-01 4.403568e-01 8.998181e-01 -3.969619e-01 7.977915e-01 2.120435e-01 -2.446664e-01 3.006922e-01 -3.066210e-01 -1.912545e-03 -1.962224e-01 1.031389e-01 -9.039523e-02 -2.259867e-01 1.039188e-01 -1.647202e-01 -6.902401e-02 -3.241379e-03
<VARIANCE> 39
 1.958539e+01 7.739741e+00 9.016734e+00 1.387829e+01 1.316022e+01 2.061763e+01 1.363132e+01 1.307572e+01 1.709167e+01 1.267348e+01 2.356661e+01 1.288244e+01 6.917754e+00 7.969179e-01 1.109994e+00 1.053622e+00 1.303972e+00 1.322751e+00 1.451518e+00 1.366865e+00 1.114236e+00 1.675600e+00 9.458256e-01 1.897411e+00 1.121142e+00 2.856387e-01 1.598516e-01 1.560826e-01 1.636070e-01 1.842524e-01 3.454273e-01 2.983647e-01 2.605561e-01 2.104803e-01 2.705244e-01 1.858832e-01 3.547017e-01 1.996275e-01 9.396624e-02
<GCONST> 8.620145e+01
<STATE> 4
<MEAN> 39
 -1.212483e+01 5.780533e+00 5.169987e+00 3.754619e+00 -1.669001e+01 -1.008835e+01 2.176043e-01 -7.609757e+00 -1.263757e+01 -2.065762e-01 -7.734575e+00 -3.347770e+00 6.704949e+01 4.364177e-01 -8.239572e-01 2.100260e+00 -2.547443e+00 -1.754094e+00 -7.947353e-01 -5.402796e-01 -1.782374e+00 -7.052436e-01 7.945754e-01 -1.278097e+00 -4.716514e-01 1.329571e+00 5.127321e-02 2.167311e-01 6.238752e-02 -3.396020e-01 3.296056e-02 9.616175e-02 -2.938566e-01 -7.197491e-02 1.686134e-01 -9.459373e-02 -1.480457e-01 1.167552e-01 -1.588869e-01
<VARIANCE> 39
 7.657053e+00 6.687322e+00 3.618041e+01 4.941583e+01 3.867853e+01 3.843305e+01 1.659410e+01 3.930881e+01 2.361362e+01 1.748301e+01 2.041251e+01 1.816708e+01 1.457685e+01 9.643679e-01 1.078781e+00 1.345637e+00 1.656444e+00 1.639562e+00 3.830147e+00 2.176308e+00 2.334738e+00 2.562209e+00 1.464558e+00 1.674856e+00 1.658198e+00 4.151147e-01 2.251769e-01 1.147448e-01 3.623247e-01 2.955801e-01 6.269370e-01 6.114791e-01 3.135956e-01 6.094534e-01 4.902248e-01 3.452463e-01 2.889051e-01 3.099145e-01 6.775741e-02
<GCONST> 1.018885e+02
<TRANSP> 5
 0.000000e+00 1.000000e+00 0.000000e+00 0.000000e+00 0.000000e+00
 0.000000e+00 8.919969e-01 1.080031e-01 0.000000e+00 0.000000e+00
 0.000000e+00 0.000000e+00 8.704458e-01 1.295542e-01 0.000000e+00
 0.000000e+00 0.000000e+00 0.000000e+00 7.449543e-01 2.550458e-01
 0.000000e+00 0.000000e+00 0.000000e+00 0.000000e+00 0.000000e+00
<ENDHMM>
~h "aa"
<BEGINHMM>
<NUMSTATES> 5
<STATE> 2
<MEAN> 39
 -5.076779e+00 -6.449306e+00 -3.851726e+00 -5.326190e+00 -7.190849e-01 5.238780e+00 -4.431226e-01 -6.488022e+00 -5.835340e+00 1.862284e+00 -1.747443e+00 5.045055e-02 5.553128e+01 3.552395e-01 -1.903252e+00 -1.598428e+00 -1.108360e+00 -1.063243e-01 6.449884e-01 -3.621096e-01 -1.301275e+00 -1.147325e+00 -7.301629e-01 -7.830144e-01 -8.823484e-01 3.070069e+00 -4.424313e-02 2.093634e-01 9.267573e-02 1.296440e-01 -1.155964e-01 -1.223501e-01 -5.621615e-02 9.327955e-02 4.683678e-02 -8.497651e-02 -2.305026e-02 -5.069479e-02 -1.105260e-01
<VARIANCE> 39
 1.389578e+01 1.041752e+02 7.544815e+01 4.852137e+01 2.682615e+01 4.996216e+01 3.985133e+01 6.270908e+01 5.185381e+01 3.814342e+01 3.032041e+01 2.902634e+01 1.810392e+02 1.429286e+00 8.698288e+00 4.379156e+00 5.100265e+00 2.325847e+00 3.948138e+00 2.754107e+00 4.219811e+00 3.112878e+00 3.318768e+00 2.786741e+00 2.696190e+00 1.394136e+01 2.624802e-01 1.526452e+00 8.607844e-01 7.968295e-01 3.388743e-01 7.681478e-01 4.143729e-01 7.302756e-01 5.229293e-01 5.543758e-01 5.266973e-01 4.711160e-01 2.666436e+00
<GCONST> 1.335524e+02
<STATE> 3
<MEAN> 39
 -1.759974e+00 -1.359511e+01 -1.679177e+01 -6.840607e+00 -2.251984e+00 5.693279e+00 -1.186886e+00 -1.154179e+01 -1.241798e+01 -6.713882e+00 -5.531635e+00 -7.455316e+00 7.425172e+01 1.577356e-01 7.081193e-02 -2.073975e-01 3.030592e-01 6.538205e-02 -3.392699e-01 7.010333e-02 5.513235e-01 7.428496e-02 -1.854403e-01 2.606796e-01 -6.809456e-03 -8.932045e-02 2.201229e-02 -6.542385e-03 -2.470757e-03 -7.788347e-03 5.168940e-02 -5.503115e-03 -1.822548e-02 7.611746e-02 3.238074e-02 2.215494e-03 4.345489e-02 3.997158e-02 -5.246083e-02
<VARIANCE> 39
 6.127594e+00 8.483753e+00 1.207408e+01 1.727893e+01 2.256415e+01 2.606292e+01 2.751609e+01 3.145345e+01 2.431647e+01 2.848966e+01 2.551008e+01 1.323327e+01 1.578033e+01 1.185344e-01 2.358434e-01 3.203418e-01 4.801644e-01 6.281834e-01 5.829154e-01 8.748425e-01 1.197558e+00 8.421199e-01 9.226632e-01 8.906865e-01 5.939415e-01 1.344869e-01 2.215233e-02 3.396078e-02 5.370386e-02 8.159434e-02 9.708586e-02 8.947948e-02 1.346886e-01 1.564604e-01 1.212078e-01 1.401188e-01 1.404682e-01 1.058467e-01 2.827866e-02
<GCONST> 6.684962e+01
<STATE> 4
<MEAN> 39
 4.006691e+00 -6.721928e+00 -1.767692e+01 -8.847167e-02 3.990825e+00 -1.890427e+00 -6.343329e+00 3.688023e+00 -5.790573e+00 -1.035107e+01 -3.687678e+00 -5.338356e+00 6.040878e+01 -6.083231e-02 4.592723e-01 4.763835e-01 2.118773e-01 2.096861e-01 -5.587935e-07 -1.316097e-02 5.728912e-02 3.383437e-01 2.223816e-01 -1.168449e-01 2.038916e-01 -9.763079e-01 -6.003547e-02 6.978667e-03 4.647219e-02 -2.735598e-02 -2.705183e-02 5.423013e-02 4.369062e-02 -7.270081e-02 -6.314977e-03 9.023274e-02 5.624795e-03 3.152170e-02 -4.269872e-03
<VARIANCE> 39
 1.005645e+01 2.620150e+01 3.473622e+01 3.092904e+01 1.599341e+01 2.891615e+01 3.431253e+01 3.295317e+01 2.935147e+01 2.554151e+01 3.641355e+01 2.116356e+01 7.849707e+01 7.925115e-01 4.147309e-01 9.528776e-01 8.743963e-01 8.187644e-01 1.177451e+00 1.910172e+00 2.366867e+00 1.458788e+00 1.874633e+00 1.475966e+00 1.401152e+00 3.387333e-01 8.130734e-02 7.117287e-02 1.091658e-01 1.400332e-01 1.206160e-01 1.805734e-01 2.593608e-01 3.337598e-01 2.458989e-01 2.550366e-01 2.250784e-01 2.046528e-01 4.688584e-02
<GCONST> 9.134135e+01
<TRANSP> 5
 0.000000e+00 1.000000e+00 0.000000e+00 0.000000e+00 0.000000e+00
 0.000000e+00 9.096768e-01 9.032314e-02 0.000000e+00 0.000000e+00
 0.000000e+00 0.000000e+00 9.579428e-01 4.205719e-02 0.000000e+00
 0.000000e+00 0.000000e+00 0.000000e+00 9.596167e-01 4.038337e-02
 0.000000e+00 0.000000e+00 0.000000e+00 0.000000e+00 0.000000e+00
<ENDHMM>
~h "ae"
<BEGINHMM>
<NUMSTATES> 5
<STATE> 2
<MEAN> 39
 -1.411716e+01 1.010609e+01 1.396534e+01 -1.782815e+01 -1.697208e+01 -2.050554e+00 -1.269485e+01 -1.125779e+01 -1.058834e+01 -2.261070e+00 -1.735271e+01 -6.194399e+00 7.099014e+01 -2.489969e-01 6.022570e-01 -8.071087e-02 -1.222249e+00 1.185244e+00 2.650246e-01 -6.100309e-01 7.959045e-01 4.762077e-01 -7.071703e-01 -1.858632e-01 -1.596754e-01 -2.457017e-01 6.048505e-02 -2.761915e-02 -7.747247e-02 2.523110e-01 8.149581e-02 -2.128076e-01 2.504649e-01 7.434367e-02 -1.145674e-01 8.010042e-02 1.422810e-01 3.577562e-02 -5.731136e-02
<VARIANCE> 39
 2.906764e+00 4.792768e+00 1.093594e+01 4.526852e+01 2.801443e+01 1.609076e+01 1.499184e+01 1.718975e+01 7.860164e+00 1.532077e+01 1.331934e+01 1.173136e+01 4.424491e+00 8.083522e-02 1.610769e-01 3.391294e-01 1.184484e+00 5.886837e-01 1.532769e+00 1.649759e+00 1.130977e+00 1.152010e+00 9.980773e-01 7.814497e-01 7.236397e-01 4.579081e-02 8.887523e-03 1.985273e-02 6.266243e-02 9.984589e-02 1.706593e-01 1.453401e-01 1.627820e-01 3.021231e-01 1.965111e-01 1.636258e-01 1.867657e-01 1.167270e-01 1.393152e-02
<GCONST> 6.329962e+01
<STATE> 3
<MEAN> 39
 -1.283252e+01 1.515218e+01 1.317621e+01 -2.160545e+01 -6.734011e+00 -3.751371e+00 -1.043808e+01 -8.149279e+00 -8.079729e+00 -8.621504e-01 -1.475928e+01 -3.686948e+00 6.506749e+01 3.298205e-01 1.102079e-01 1.349385e-01 2.584778e-01 3.750108e-01 2.886450e-02 1.197039e-01 4.369356e-04 2.454743e-01 3.662027e-01 3.225013e-01 2.543643e-01 -5.951363e-01 4.654164e-02 -8.513603e-02 3.215352e-02 8.841032e-02 -1.373094e-01 9.509917e-02 -2.996210e-02 -6.551997e-02 8.195379e-03 1.185149e-02 8.818904e-03 4.539504e-03 -2.037306e-02
<VARIANCE> 39
 5.053483e+00 5.867264e+00 8.217680e+00 2.004623e+01 1.116458e+01 6.890906e+00 1.023552e+01 6.197118e+00 8.458595e+00 1.257803e+01 1.048528e+01 1.687193e+01 1.286848e+01 2.025401e-01 2.848242e-01 1.907730e-01 4.634154e-01 5.548556e-01 6.027002e-01 6.801206e-01 4.928182e-01 5.120090e-01 4.281184e-01 5.162690e-01 4.435159e-01 1.120435e-01 3.222190e-02 3.807696e-02 3.471431e-02 7.139254e-02 9.131841e-02 1.197524e-01 1.110585e-01 9.860741e-02 8.814088e-02 7.504772e-02 8.312408e-02 7.256155e-02 1.630000e-02
<GCONST> 5.243444e+01
<STATE> 4
<MEAN> 39
 -5.594010e+00 1.214854e+01 1.331232e+01 -1.171250e+01 -6.998899e+00 -1.491575e+00 -8.497948e+00 -7.850904e+00 -3.679275e+00 6.999625e-02 -9.667945e+00 -2.569519e+00 5.269219e+01 4.183694e-01 -5.518122e-01 -6.294120e-01 1.578256e+00 2.992176e-01 -7.426476e-04 5.345328e-01 3.990019e-01 5.848212e-01 -2.197706e-01 1.025279e+00 2.938292e-01 -1.736115e+00 -2.231833e-01 -1.042780e-01 -2.248473e-01 1.539868e-02 2.241072e-01 -1.385515e-01 1.822766e-01 1.103693e-01 4.511013e-02 5.435172e-02 1.955173e-01 1.506372e-01 1.183062e-01
<VARIANCE> 39
 1.214122e+01 1.701417e+01 1.661591e+01 3.899527e+01 2.449477e+01 1.828594e+01 1.947521e+01 2.050469e+01 1.338495e+01 2.409853e+01 2.371199e+01 1.332267e+01 4.091426e+01 1.927406e+00 1.172722e+00 1.402939e+00 1.405072e+00 3.295735e+00 2.254024e+00 1.709703e+00 2.912610e+00 1.173293e+00 2.961056e+00 2.125193e+00 2.133308e+00 1.399087e+00 3.277645e-01 2.559655e-01 2.817608e-01 2.738006e-01 5.007876e-01 4.453952e-01 4.580850e-01 5.035555e-01 2.005925e-01 6.472759e-01 2.882653e-01 3.888296e-01 5.728341e-01
<GCONST> 1.062224e+02
<TRANSP> 5
 0.000000e+00 1.000000e+00 0.000000e+00 0.000000e+00 0.000000e+00
 0.000000e+00 9.033341e-01 9.666587e-02 0.000000e+00 0.000000e+00
 0.000000e+00 0.000000e+00 9.344330e-01 6.556701e-02 0.000000e+00
 0.000000e+00 0.000000e+00 0.000000e+00 8.873988e-01 1.126012e-01
 0.000000e+00 0.000000e+00 0.000000e+00 0.000000e+00 0.000000e+00
<ENDHMM>
~h "ah"
<BEGINHMM>
<NUMSTATES> 5
<STATE> 2
<MEAN> 39
 -2.088125e+00 -1.665519e+00 -1.806425e+00 -7.828642e+00 -6.604070e+00 -1.360544e+01 -1.902848e+00 -2.338105e+00 -9.088518e+00 -1.159892e+01 -1.448629e+01 -2.610304e+00 6.560209e+01 7.174096e-01 6.644121e-01 8.327543e-01 3.759152e-01 -1.520066e-01 -5.572610e-01 -5.436463e-01 -9.897763e-01 2.127163e-01 7.929646e-02 -4.620455e-01 -9.440688e-02 -5.765061e-01 -5.299166e-02 3.579624e-02 9.728578e-02 5.263570e-02 1.399612e-01 2.184419e-01 7.079212e-02 5.351447e-02 6.686390e-02 5.673832e-02 2.122869e-01 2.036477e-01 -1.324750e-01
<VARIANCE> 39
 1.266854e+01 3.774457e+01 2.750315e+01 3.611175e+01 2.941876e+01 4.370281e+01 3.931466e+01 3.873106e+01 8.652831e+01 3.233515e+01 3.806844e+01 2.799235e+01 1.075077e+02 7.372561e-01 1.719855e+00 2.283935e+00 1.993513e+00 2.302791e+00 3.095980e+00 2.063441e+00 2.478523e+00 2.481879e+00 3.424582e+00 3.764612e+00 2.255196e+00 2.595917e+00 1.181096e-01 2.004409e-01 2.160887e-01 2.786543e-01 3.822557e-01 4.541384e-01 4.639665e-01 4.978787e-01 3.815683e-01 6.072485e-01 4.669818e-01 3.834562e-01 2.537431e-01
<GCONST> 1.150799e+02
<STATE> 3
<MEAN> 39
 -5.882554e-01 5.448555e+00 5.456865e+00 -2.271893e+00 -2.605441e+00 -1.414656e+01 -4.978432e+00 -6.338625e+00 -1.551751e+01 -1.447231e+01 -1.373907e+01 -1.542378e+00 5.504900e+01 6.227262e-02 2.994803e-01 9.846301e-02 5.193744e-01 2.577809e-01 6.672925e-01 1.847242e-01 7.769117e-02 4.449174e-01 4.868839e-01 6.365242e-01 1.981668e-01 -1.291322e+00 -8.326421e-02 -7.816062e-02 -1.175897e-01 -2.906029e-02 1.021421e-02 1.156913e-01 6.227089e-02 1.389441e-01 1.221353e-01 1.480312e-01 1.232928e-01 1.883992e-02 -5.224254e-03
<VARIANCE> 39
 5.980107e+00 1.102221e+01 9.257230e+00 2.353905e+01 2.015899e+01 2.983368e+01 3.204257e+01 2.137616e+01 6.646517e+01 2.951190e+01 3.218342e+01 2.198131e+01 5.741472e+01 5.913634e-01 5.904858e-01 8.025768e-01 1.009120e+00 9.669440e-01 1.777686e+00 1.220702e+00 1.558692e+00 2.270389e+00 1.935072e+00 1.793213e+00 1.324555e+00 8.823943e-01 1.153533e-01 1.051273e-01 1.082542e-01 1.945485e-01 1.891440e-01 2.851902e-01 2.384447e-01 2.687469e-01 3.182125e-01 2.846394e-01 3.309022e-01 2.213601e-01 1.100463e-01
<GCONST> 9.335126e+01
<STATE> 4
<MEAN> 39
 -5.907362e+00 4.056587e+00 3.517150e+00 4.705471e-01 -3.644029e-01 -4.069832e+00 6.893124e-02 -1.653183e+00 -5.010610e+00 -1.073005e+00 -1.396733e+00 2.425522e+00 4.585340e+01 -5.386026e-01 -3.612318e-01 1.495624e-01 -3.814347e-01 -1.474701e-01 1.735455e-01 6.575635e-01 5.108020e-01 1.535573e-01 8.566433e-01 6.436254e-01 1.718480e-01 3.585902e-01 7.255646e-02 -1.060793e-04 5.934676e-02 1.436766e-02 -5.391497e-02 -1.177381e-01 -2.250221e-02 -1.167663e-01 -2.396505e-01 -1.867926e-01 -1.330246e-01 -6.946220e-02 7.613605e-02
<VARIANCE> 39
 3.889209e+01 2.440234e+01 2.083636e+01 3.029385e+01 2.455101e+01 2.408860e+01 2.465077e+01 2.815133e+01 3.718850e+01 3.347784e+01 4.144440e+01 2.050167e+01 3.911217e+01 3.371765e+00 2.074176e+00 2.084978e+00 2.857821e+00 2.352530e+00 2.636435e+00 2.259204e+00 3.175695e+00 4.039952e+00 3.068194e+00 3.178369e+00 1.974048e+00 3.490393e+00 7.149827e-01 4.017542e-01 4.426369e-01 6.606032e-01 5.372010e-01 5.572469e-01 4.517814e-01 6.701973e-01 7.465472e-01 5.753497e-01 5.806416e-01 4.038671e-01 8.412976e-01
<GCONST> 1.212264e+02
<TRANSP> 5
 0.000000e+00 1.000000e+00 0.000000e+00 0.000000e+00 0.000000e+00
 0.000000e+00 7.827442e-01 2.172558e-01 0.000000e+00 0.000000e+00
 0.000000e+00 0.000000e+00 9.046496e-01 9.535047e-02 0.000000e+00
 0.000000e+00 0.000000e+00 0.000000e+00 8.232495e-01 1.767505e-01
 0.000000e+00 0.000000e+00 0.000000e+00 0.000000e+00 0.000000e+00
<ENDHMM>
~h "ao"
<BEGINHMM>
<NUMSTATES> 5
<STATE> 2
<MEAN> 39
 1.173335e+00 5.607568e+00 -1.312823e+01 -2.429087e+01 -1.377261e+01 -6.973725e+00 -1.543319e+00 -2.151479e+00 -1.012744e+01 -5.672802e+00 -9.275517e+00 -4.762374e+00 7.015771e+01 -4.390051e-02 8.315251e-02 -7.329729e-03 -1.225394e-01 1.316481e-01 4.769091e-02 -4.013954e-02 4.125062e-02 -1.008043e-01 -5.725937e-02 -5.398000e-02 3.132921e-02 -1.292415e-01 2.550759e-03 -3.678726e-03 2.026712e-02 2.343946e-02 4.662320e-02 3.488022e-02 2.151435e-02 6.530272e-03 -1.463208e-02 -6.280624e-03 5.024779e-02 5.104825e-02 -2.153132e-02
<VARIANCE> 39
 2.301014e+00 3.810225e+01 7.413995e+00 4.004514e+01 2.448579e+01 2.965719e+01 1.965184e+01 1.988684e+01 2.611634e+01 1.963191e+01 2.243850e+01 2.221839e+01 1.688611e+01 5.844650e-02 3.089219e-01 2.413215e-01 5.390518e-01 7.066613e-01 7.098666e-01 8.225392e-01 8.182581e-01 1.016867e+00 1.056217e+00 9.616571e-01 8.067328e-01 7.092146e-02 1.070557e-02 5.187074e-02 5.187356e-02 1.034131e-01 1.035279e-01 1.124359e-01 1.498160e-01 1.468553e-01 1.715432e-01 1.763653e-01 1.620446e-01 1.285962e-01 1.174342e-02
<GCONST> 6.690239e+01
<STATE> 3
<MEAN> 39
 2.384814e+00 7.459271e+00 -1.198254e+01 -2.366006e+01 -4.045593e+00 -2.118104e+00 -1.765521e+00 -4.344203e+00 -1.254005e+01 -8.319949e+00 -5.297502e+00 -1.745105e+00 5.950554e+01 5.173000e-02 -6.456720e-03 3.529328e-01 9.275238e-01 5.521761e-01 4.530384e-01 2.112687e-01 -1.189864e-01 2.664208e-01 1.697216e-01 4.935716e-01 1.843503e-01 -1.358862e+00 -6.040031e-02 -4.061097e-02 3.631251e-02 8.986808e-02 -8.697195e-02 3.235922e-02 7.015001e-02 1.131927e-01 1.474206e-01 1.679092e-01 4.081798e-02 8.189993e-02 -6.216494e-02
<VARIANCE> 39
 7.767622e+00 2.214888e+01 1.336431e+01 6.251410e+01 4.958412e+01 3.003348e+01 2.994218e+01 4.574809e+01 2.707777e+01 3.911060e+01 3.687026e+01 2.934368e+01 6.000054e+01 6.704406e-01 1.373827e+00 8.650390e-01 3.337587e+00 2.014939e+00 1.542588e+00 1.460149e+00 1.859973e+00 2.298222e+00 2.603328e+00 1.707689e+00 1.743331e+00 7.940767e-01 1.008238e-01 2.195323e-01 1.471483e-01 4.308415e-01 3.274891e-01 2.970298e-01 2.387176e-01 2.886665e-01 3.126443e-01 4.039391e-01 2.934267e-01 2.811981e-01 9.027808e-02
<GCONST> 1.033448e+02
<STATE> 4
<MEAN> 39
 -4.023808e+00 2.070404e+00 -2.164356e+00 -1.084838e+00 6.383284e-01 1.438552e+00 1.250573e+00 1.011739e+00 -9.403283e-01 7.778459e-01 2.694233e+00 4.888727e+00 4.242448e+01 -2.358585e-01 -4.747639e-02 3.075445e-01 4.627600e-01 4.246363e-02 -1.413991e-02 2.926740e-02 1.472256e-01 2.633306e-01 2.640105e-01 9.600428e-02 1.169741e-01 -2.164589e-01 2.435163e-02 2.591529e-02 -1.130888e-02 -3.358361e-02 1.908130e-02 -3.346860e-02 -3.928277e-02 -5.985277e-02 -6.454207e-02 -6.766954e-02 -3.967019e-02 -6.419068e-02 5.407381e-02
<VARIANCE> 39
 9.648348e+00 1.902292e+01 1.918112e+01 2.948828e+01 2.466123e+01 2.091362e+01 2.011705e+01 3.206576e+01 2.147592e+01 2.383889e+01 1.924947e+01 1.867234e+01 1.514661e+01 3.520074e-01 1.037793e+00 6.903294e-01 1.023376e+00 1.877912e+00 1.512195e+00 1.748566e+00 1.698580e+00 1.772292e+00 1.964248e+00 1.545699e+00 1.653579e+00 3.738030e-01 6.263199e-02 1.707094e-01 1.238317e-01 1.755062e-01 3.337147e-01 2.803050e-01 3.369283e-01 2.930740e-01 3.314248e-01 3.794449e-01 2.948517e-01 3.177881e-01 5.992778e-02
<GCONST> 9.245528e+01
<TRANSP> 5
 0.000000e+00 1.000000e+00 0.000000e+00 0.000000e+00 0.000000e+00
 0.000000e+00 9.580935e-01 4.190653e-02 0.000000e+00 0.000000e+00
 0.000000e+00 0.000000e+00 9.355812e-01 6.441884e-02 0.000000e+00
 0.000000e+00 0.000000e+00 0.000000e+00 9.633530e-01 3.664703e-02
 0.000000e+00 0.000000e+00 0.000000e+00 0.000000e+00 0.000000e+00
<ENDHMM>
~h "ay"
<BEGINHMM>
<NUMSTATES> 5
<STATE> 2
<MEAN> 39
 -3.356822e+00 -1.468912e+01 -1.004724e+01 -7.566400e+00 1.846976e+00 -4.173906e-01 -6.571281e+00 -7.745395e+00 -8.909143e+00 -1.422847e+01 -1.242520e+01 -3.857474e+00 7.351298e+01 -6.032030e-02 -1.896010e-01 2.404817e-01 3.005797e-01 -1.246215e-01 -1.650274e-01 7.695597e-02 9.433876e-02 -6.994610e-02 -1.165242e-01 -6.855094e-02 1.773714e-01 -5.353470e-02 -2.010957e-02 7.876813e-02 5.589271e-02 -4.807295e-02 -1.069357e-01 -6.163009e-02 1.667984e-01 7.470848e-02 -6.846806e-02 -1.339357e-02 5.765068e-02 3.203010e-02 -5.393995e-03
<VARIANCE> 39
 5.923700e+00 1.241264e+01 2.236878e+01 1.810698e+01 2.170033e+01 3.115989e+01 2.259157e+01 2.976851e+01 2.511018e+01 4.418025e+01 1.938521e+01 2.186545e+01 1.004636e+01 1.704901e-01 2.328527e-01 3.399366e-01 5.383347e-01 7.578226e-01 8.687143e-01 1.253064e+00 8.818200e-01 9.414144e-01 7.322243e-01 7.557960e-01 7.271397e-01 1.318017e-01 2.440666e-02 5.503571e-02 5.342514e-02 8.204045e-02 1.109655e-01 1.252614e-01 1.484310e-01 1.435476e-01 1.512687e-01 1.304766e-01 1.327568e-01 1.183379e-01 2.874039e-02
<GCONST> 7.033901e+01
<STATE> 3
<MEAN> 39
 -6.403999e+00 -1.294581e+01 -3.238832e+00 -8.899079e+00 -7.551022e+00 -2.309029e+00 4.766496e+00 -7.064598e+00 -1.450277e+01 -1.520334e+01 -1.008101e+01 -3.669352e+00 7.350793e+01 -3.933185e-01 1.056845e+00 1.138885e+00 -1.038166e+00 -1.679769e+00 2.554574e-01 1.312383e+00 -6.649331e-01 -2.101327e-01 6.247498e-01 2.206366e-01 -1.002395e+00 -2.215660e-01 7.591975e-03 1.915598e-01 1.008969e-01 -1.239454e-01 3.093936e-02 6.792895e-02 -3.859757e-01 -1.650387e-01 3.036962e-01 2.474029e-01 -1.674654e-01 -1.567510e-01 -9.189623e-02
<VARIANCE> 39
 8.007181e+00 1.666887e+01 2.170558e+01 2.130358e+01 3.593419e+01 2.475660e+01 4.109873e+01 2.234612e+01 3.641282e+01 2.687608e+01 2.211421e+01 2.849396e+01 9.298819e+00 2.256607e-01 5.346327e-01 5.226585e-01 8.463477e-01 1.123747e+00 1.153644e+00 2.311450e+00 1.075441e+00 1.685151e+00 1.622477e+00 1.426006e+00 1.233088e+00 1.546505e-01 3.472579e-02 5.136131e-02 6.437846e-02 1.248414e-01 1.934816e-01 1.720960e-01 3.844640e-01 1.641769e-01 1.837973e-01 2.278006e-01 1.820268e-01 2.638600e-01 1.697543e-02
<GCONST> 8.222324e+01
<STATE> 4
<MEAN> 39
 -8.428939e+00 1.532519e+00 7.042266e+00 -1.447175e+01 -1.252722e+01 -1.313418e+00 -3.738852e+00 -1.336845e+01 -9.139910e+00 -7.796311e+00 -1.282898e+01 -6.569253e+00 6.667307e+01 7.572445e-02 1.105353e+00 6.386926e-01 1.572631e-01 2.533867e-01 -1.284759e-01 -1.350585e+00 -3.564909e-01 3.056623e-01 3.490226e-01 -2.681151e-01 4.387738e-01 -9.466143e-01 8.233891e-02 -1.329283e-01 -1.274209e-01 2.179068e-01 1.144644e-01 -2.160709e-02 1.093112e-01 1.035454e-01 -1.215103e-01 -1.276425e-01 8.125777e-02 1.106811e-01 -7.659622e-02
<VARIANCE> 39
 7.508708e+00 3.768486e+01 1.384233e+01 2.552320e+01 4.169668e+01 3.413246e+01 7.429386e+01 2.387123e+01 6.755647e+01 4.250110e+01 5.891679e+01 2.626768e+01 3.304066e+01 3.976112e-01 6.433754e-01 7.382634e-01 1.033416e+00 1.286326e+00 1.018928e+00 1.800994e+00 1.405105e+00 1.326875e+00 1.640932e+00 1.190388e+00 1.272181e+00 2.676358e-01 5.008990e-02 5.764088e-02 8.243673e-02 1.307345e-01 1.804538e-01 1.830214e-01 3.126023e-01 2.161114e-01 2.051588e-01 2.223959e-01 1.911616e-01 2.540213e-01 2.837125e-02
<GCONST> 9.001840e+01
<TRANSP> 5
 0.000000e+00 1.000000e+00 0.000000e+00 0.000000e+00 0.000000e+00
 0.000000e+00 9.381234e-01 6.187657e-02 0.000000e+00 0.000000e+00
 0.000000e+00 0.000000e+00 8.671622e-01 1.328378e-01 0.000000e+00
 0.000000e+00 0.000000e+00 0.000000e+00 9.114025e-01 8.859754e-02
 0.000000e+00 0.000000e+00 0.000000e+00 0.000000e+00 0.000000e+00
<ENDHMM>
~h "ch"
<BEGINHMM>
<NUMSTATES> 5
<STATE> 2
<MEAN> 39
 -1.498528e+01 4.714796e+00 7.127458e+00 -8.295815e+00 -7.331138e+00 2.646435e-01 -5.318842e+00 -3.267045e+00 5.135970e-01 5.467244e-01 8.982846e-01 1.709845e+00 5.407997e+01 -3.188715e+00 1.475893e-01 -2.012253e+00 7.510377e-01 7.153421e-01 2.840082e-01 5.138636e-01 7.249410e-01 8.625188e-02 -1.980025e-01 1.097147e+00 -1.424584e-01 2.543118e+00 -1.460468e-01 3.484190e-01 8.329988e-02 -1.261707e-02 9.322027e-04 1.076685e-01 -3.031481e-02 -8.914534e-02 -1.172489e-01 -9.741217e-02 -2.257060e-01 -1.613836e-01 3.096332e-01
<VARIANCE> 39
 1.214724e+02 2.616272e+01 5.686673e+01 1.977983e+01 3.038862e+01 2.097849e+01 1.597600e+01 1.834897e+01 1.095055e+01 2.257270e+01 2.900324e+01 1.650040e+01 1.323632e+02 6.391369e+00 5.015228e+00 2.650939e+00 1.684863e+00 3.105752e+00 1.602956e+00 1.558067e+00 1.838818e+00 1.349354e+00 2.849046e+00 2.906840e+00 2.264500e+00 1.030347e+01 1.634465e+00 7.660306e-01 7.603985e-01 3.310803e-01 6.072158e-01 2.779827e-01 3.127252e-01 3.771468e-01 2.967377e-01 6.557322e-01 4.785189e-01 4.538456e-01 2.361413e+00
<GCONST> 1.212807e+02
<STATE> 3
<MEAN> 39
 -3.051949e+01 9.920051e+00 3.980070e+00 -4.496859e+00 -6.617390e+00 3.092468e+00 6.017604e-02 -2.564904e+00 -8.001070e-01 -1.141575e+00 3.141376e+00 -1.570661e+00 6.882708e+01 5.731288e-01 -2.485298e-01 7.877690e-01 2.419739e-01 -2.960750e-01 -1.061584e-02 4.067013e-01 -2.297008e-01 2.709017e-02 4.934894e-02 1.790824e-02 1.479302e-02 -4.923821e-01 2.471615e-01 -2.186902e-01 7.526218e-02 4.350052e-02 2.701904e-02 -2.753942e-02 6.955894e-02 5.608033e-02 3.479499e-02 -2.147751e-02 1.839011e-02 4.408133e-02 -2.228491e-01
<VARIANCE> 39
 1.286005e+01 6.216504e+00 1.878313e+01 6.585711e+00 1.937501e+01 1.649980e+01 1.614453e+01 1.786121e+01 1.436238e+01 1.198752e+01 1.372417e+01 1.152230e+01 1.330807e+01 1.054377e+00 9.691451e-01 7.627286e-01 7.911990e-01 1.279477e+00 9.446797e-01 1.287605e+00 1.442722e+00 1.394450e+00 1.115668e+00 1.112015e+00 1.113314e+00 6.689855e-01 1.382812e-01 1.484636e-01 1.839528e-01 1.395961e-01 2.505490e-01 2.116554e-01 2.670424e-01 3.234319e-01 2.896243e-01 2.213070e-01 2.205093e-01 2.036822e-01 6.904190e-02
<GCONST> 8.422968e+01
<STATE> 4
<MEAN> 39
 -1.249125e+01 2.739512e+00 8.337643e+00 1.543867e+00 -4.112675e+00 3.409587e+00 5.306686e+00 -1.625025e+00 7.885236e-01 -1.813692e-01 3.132118e+00 2.617965e+00 4.921123e+01 7.761273e-01 -5.627176e-02 -1.444448e-01 1.568483e-01 4.105740e-01 1.346049e-01 -7.187985e-03 5.338202e-03 7.743677e-02 1.224590e-01 -9.198375e-03 2.308215e-01 -9.763598e-01 -8.978530e-02 6.997056e-02 -9.574008e-02 -8.161856e-02 -1.210202e-02 -2.504773e-02 -1.168322e-01 -4.380140e-02 -4.762328e-02 6.254753e-04 1.537728e-02 -1.840670e-02 9.589132e-02
<VARIANCE> 39
 2.686866e+01 2.622970e+01 4.562150e+01 3.424311e+01 2.188005e+01 2.932643e+01 3.491076e+01 3.017971e+01 2.552172e+01 3.293695e+01 1.971898e+01 1.810717e+01 4.613258e+01 1.292578e+00 1.950533e+00 1.442401e+00 3.132514e+00 1.703521e+00 2.673356e+00 3.290676e+00 2.917366e+00 2.530894e+00 2.666889e+00 1.868184e+00 1.579683e+00 2.928791e+00 1.557678e-01 3.825779e-01 2.251210e-01 5.643756e-01 3.092864e-01 5.186507e-01 5.308747e-01 5.289232e-01 5.314405e-01 5.719210e-01 3.632159e-01 3.277352e-01 2.455048e-01
<GCONST> 1.130263e+02
<TRANSP> 5
 0.000000e+00 1.000000e+00 0.000000e+00 0.000000e+00 0.000000e+00
 0.000000e+00 8.855174e-01 1.144826e-01 0.000000e+00 0.000000e+00
 0.000000e+00 0.000000e+00 9.352241e-01 6.477591e-02 0.000000e+00
 0.000000e+00 0.000000e+00 0.000000e+00 9.411588e-01 5.884122e-02
 0.000000e+00 0.000000e+00 0.000000e+00 0.000000e+00 0.000000e+00
<ENDHMM>
~h "eh"
<BEGINHMM>
<NUMSTATES> 5
<STATE> 2
<MEAN> 39
 -8.077168e+00 -6.244257e+00 1.124804e+00 -7.552598e+00 -9.426301e+00 -2.582980e+00 7.397764e+00 -3.153222e+00 -6.866867e+00 -2.952293e+00 -3.101489e+00 -1.219101e-01 6.234754e+01 -2.642654e-01 -2.685547e+00 -6.377321e-01 -2.278326e+00 -1.637446e+00 6.635950e-02 9.134374e-01 -1.097309e+00 -1.876178e+00 -1.831207e+00 -1.621483e+00 -1.448258e+00 4.606430e+00 -1.078165e-01 3.433443e-01 -1.861787e-01 3.737927e-01 2.095642e-01 3.234423e-01 -2.226037e-01 -7.071945e-02 7.152749e-02 -8.055577e-02 6.790583e-02 -1.416351e-01 -3.207700e-01
<VARIANCE> 39
 1.869118e+01 8.108517e+01 2.676544e+01 9.129442e+01 6.640334e+01 6.002357e+01 3.981950e+01 2.931874e+01 5.186903e+01 5.092661e+01 4.123608e+01 3.063034e+01 2.506823e+02 1.565173e+00 6.082097e+00 2.111298e+00 5.714162e+00 3.889696e+00 2.844287e+00 5.362053e+00 2.475926e+00 3.496134e+00 3.307142e+00 2.641817e+00 2.241367e+00 1.586537e+01 5.183650e-01 1.463822e+00 3.892375e-01 1.388710e+00 8.916948e-01 6.290036e-01 1.083721e+00 4.501454e-01 8.471985e-01 7.444000e-01 6.482819e-01 4.765380e-01 4.390601e+00
<GCONST> 1.370799e+02
<STATE> 3
<MEAN> 39
 -6.455347e+00 -1.225947e+01 -3.004632e+00 -1.122228e+01 -1.318412e+01 1.061305e-02 7.182879e+00 -6.932200e+00 -1.267509e+01 -1.337823e+01 -7.693945e+00 -6.675302e+00 7.531786e+01 2.209339e-01 6.466852e-02 -1.888899e-01 2.545787e-01 2.109427e-01 -1.069804e-01 -1.362029e-01 2.350093e-01 4.571434e-01 -3.861041e-01 -4.866521e-02 1.554744e-02 -2.164570e-01 4.689105e-02 1.253195e-01 7.575896e-02 7.950325e-02 6.982683e-02 -1.627913e-01 -7.759943e-02 2.170229e-02 1.875465e-01 1.541941e-01 4.232729e-02 1.019047e-01 -1.673558e-01
<VARIANCE> 39
 9.541754e+00 2.094824e+01 2.307095e+01 2.403670e+01 2.807605e+01 5.070705e+01 2.298288e+01 2.917163e+01 2.818954e+01 2.087018e+01 2.404698e+01 1.934501e+01 1.060259e+01 2.966713e-01 4.561038e-01 4.521078e-01 5.755989e-01 8.131582e-01 1.223906e+00 1.221662e+00 9.679825e-01 1.166384e+00 9.439468e-01 8.758851e-01 9.399275e-01 2.136068e-01 5.381392e-02 8.432259e-02 6.869293e-02 1.164373e-01 1.323441e-01 1.619015e-01 2.250657e-01 1.793538e-01 1.891927e-01 1.695262e-01 1.534138e-01 1.648020e-01 8.776408e-02
<GCONST> 8.029031e+01
<STATE> 4
<MEAN> 39
 -2.432158e+00 -7.794651e+00 -4.106894e+00 -8.551380e+00 -1.090583e+01 -7.832102e+00 2.667925e+00 -3.990451e+00 -3.325055e+00 -1.070634e+01 -8.182811e+00 -4.831965e+00 6.852271e+01 2.016508e-01 1.568787e+00 7.914039e-02 1.345247e+00 1.109988e+00 -7.638794e-02 -1.562882e+00 -5.061686e-01 8.432734e-01 1.388736e+00 2.366100e-01 2.198943e-01 -1.797840e+00 -3.196458e-01 1.960720e-01 -2.766970e-02 1.871618e-01 1.341929e-01 3.861192e-01 1.061745e-01 -5.609586e-02 -3.798833e-01 2.452376e-01 1.838574e-01 9.269298e-02 -1.393845e-02
<VARIANCE> 39
 1.052380e+01 2.415279e+01 1.769045e+01 2.034734e+01 2.770750e+01 4.084542e+01 5.727685e+01 2.167439e+01 3.157712e+01 3.397994e+01 3.507515e+01 2.044552e+01 3.994621e+01 1.643445e+00 1.860593e+00 1.011144e+00 1.557765e+00 1.873477e+00 3.838480e+00 2.482918e+00 1.986069e+00 2.745406e+00 2.135128e+00 1.944393e+00 2.063460e+00 9.516369e-01 2.133886e-01 2.709996e-01 1.805205e-01 2.665735e-01 2.997465e-01 5.173794e-01 4.426822e-01 3.384825e-01 3.982655e-01 3.900164e-01 3.251876e-01 3.108388e-01 2.473806e-01
<GCONST> 1.075493e+02
<TRANSP> 5
 0.000000e+00 1.000000e+00 0.000000e+00 0.000000e+00 0.000000e+00
 0.000000e+00 7.970761e-01 2.029238e-01 0.000000e+00 0.000000e+00
 0.000000e+00 0.000000e+00 9.113621e-01 8.863794e-02 0.000000e+00
 0.000000e+00 0.000000e+00 0.000000e+00 7.575350e-01 2.424650e-01
 0.000000e+00 0.000000e+00 0.000000e+00 0.000000e+00 0.000000e+00
<ENDHMM>
~h "ey"
<BEGINHMM>
<NUMSTATES> 5
<STATE> 2
<MEAN> 39
 -6.645977e+00 5.884480e+00 3.254116e+00 2.980355e+00 -6.389001e-01 1.795437e+00 1.856777e+00 -2.404784e-01 5.591020e-01 4.494300e+00 3.758160e+00 4.054670e+00 3.863482e+01 2.668832e-02 4.109042e-02 -1.746562e-02 3.648244e-02 4.308482e-02 3.500699e-02 -4.688127e-02 1.257167e-02 8.023274e-02 2.215743e-02 2.955390e-02 1.124714e-02 -9.622534e-02 -5.216971e-02 -5.419692e-02 3.170639e-02 -7.165113e-02 -7.201065e-02 -4.720245e-02 5.606122e-02 -8.422260e-03 -2.038277e-02 2.870496e-03 -4.806473e-02 -3.153397e-03 1.322238e-01
<VARIANCE> 39
 4.159205e+00 8.452917e+00 9.555533e+00 7.811741e+00 1.160290e+01 1.309646e+01 1.790873e+01 1.743284e+01 1.375987e+01 1.593476e+01 1.524135e+01 1.296086e+01 4.668920e+00 3.364543e-01 4.603858e-01 5.891241e-01 6.901925e-01 9.658855e-01 1.139831e+00 1.454925e+00 1.332399e+00 1.399220e+00 1.477448e+00 1.484155e+00 1.217146e+00 1.802345e-01 8.667298e-02 1.145137e-01 1.282120e-01 2.261024e-01 2.504533e-01 2.597499e-01 3.096988e-01 2.850859e-01 2.943804e-01 3.072396e-01 3.426184e-01 2.541520e-01 1.896611e-01
<GCONST> 8.031183e+01
<STATE> 3
<MEAN> 39
 -9.913107e+00 5.810848e-01 5.762302e+00 -9.472342e+00 -1.145782e+01 -2.577935e+00 5.311928e+00 -4.153324e+00 -1.654976e+00 3.702801e+00 -5.210808e+00 8.215129e-02 6.061734e+01 -2.806360e-01 -9.902117e-01 2.096684e-01 -2.618212e+00 -2.451423e+00 -1.028195e+00 2.222469e-01 -9.333121e-01 -7.014380e-01 -2.288135e-01 -1.733072e+00 -1.013311e+00 3.888954e+00 9.260805e-02 1.253273e-01 -8.568319e-02 1.285930e-01 7.516132e-02 9.168062e-02 -2.230653e-01 -4.112320e-02 -4.036954e-02 -1.059708e-01 6.272940e-02 -4.141857e-02 -1.756413e-01
<VARIANCE> 39
 1.952031e+01 3.705521e+01 2.175802e+01 1.291542e+02 1.018874e+02 4.177709e+01 3.203316e+01 2.935223e+01 2.442986e+01 3.050849e+01 5.692722e+01 3.180654e+01 2.469791e+02 2.250120e+00 3.465839e+00 2.508029e+00 8.319797e+00 7.026816e+00 3.435938e+00 4.014963e+00 2.441152e+00 2.209830e+00 2.855974e+00 3.860302e+00 2.407712e+00 1.631508e+01 4.472948e-01 7.489025e-01 4.403279e-01 1.862609e+00 1.595045e+00 7.442496e-01 7.066733e-01 4.675707e-01 4.028356e-01 5.214379e-01 8.754146e-01 4.755852e-01 3.806734e+00
<GCONST> 1.351237e+02
<STATE> 4
<MEAN> 39
 -8.763431e+00 5.201233e+00 1.125122e+01 -1.875161e+01 -1.774508e+01 -5.054092e+00 -8.103264e+00 -1.095547e+01 -6.083261e+00 -1.326096e-01 -1.130887e+01 -1.452923e+00 6.650736e+01 1.602621e-01 3.500831e-01 2.489344e-01 3.987882e-01 4.556047e-01 2.374116e-01 -4.088665e-01 9.590667e-02 1.880415e-01 -1.222712e-02 2.675462e-01 2.543808e-01 -9.680172e-01 -1.554285e-02 -3.128069e-02 -3.017083e-02 4.515672e-02 3.746885e-02 -2.823572e-03 7.645499e-02 5.540553e-02 5.179578e-02 5.363999e-02 5.847162e-02 4.555106e-02 -4.914659e-02
<VARIANCE> 39
 1.480430e+01 3.547087e+01 2.600274e+01 2.753551e+01 4.311742e+01 2.296204e+01 5.385180e+01 1.681256e+01 2.600708e+01 2.069852e+01 2.304556e+01 2.206769e+01 9.808119e+01 8.762162e-01 6.296756e-01 7.904090e-01 1.047344e+00 8.536575e-01 1.050149e+00 1.535466e+00 1.203217e+00 1.620425e+00 1.400496e+00 1.464721e+00 1.005654e+00 1.235250e+00 1.413416e-01 8.696308e-02 1.203156e-01 1.711867e-01 1.522030e-01 1.885234e-01 2.030566e-01 2.043277e-01 2.401628e-01 2.336890e-01 2.342469e-01 1.717254e-01 1.495504e-01
<GCONST> 9.345705e+01
<TRANSP> 5
 0.000000e+00 1.000000e+00 0.000000e+00 0.000000e+00 0.000000e+00
 0.000000e+00 9.440669e-01 5.593303e-02 0.000000e+00 0.000000e+00
 0.000000e+00 0.000000e+00 8.812425e-01 1.187575e-01 0.000000e+00
 0.000000e+00 0.000000e+00 0.000000e+00 9.633293e-01 3.667075e-02
 0.000000e+00 0.000000e+00 0.000000e+00 0.000000e+00 0.000000e+00
<ENDHMM>
~h "ia"
<BEGINHMM>
<NUMSTATES> 5
<STATE> 2
<MEAN> 39
 -7.381522e+00 3.330936e+00 2.047153e+00 -3.046288e+00 -4.874629e+00 -2.964739e+00 -5.433913e-01 -3.441086e+00 -4.156183e+00 -7.898898e-01 -2.925678e+00 8.747759e-01 5.354753e+01 4.188114e-03 7.886445e-03 8.638212e-04 -3.319199e-05 4.583947e-03 2.944113e-03 -4.185917e-03 -2.407409e-03 4.110487e-03 -9.366490e-04 -2.847919e-03 -1.119324e-03 -3.485081e-03 -2.780182e-04 4.271456e-06 2.111308e-05 2.157945e-05 -1.623377e-04 6.947975e-04 6.310043e-04 2.858052e-04 2.109315e-04 1.335133e-04 3.614691e-04 -5.897314e-04 -3.645968e-04
<VARIANCE> 39
 3.956010e+01 5.039151e+01 5.962346e+01 1.002791e+02 6.064148e+01 5.444832e+01 5.840739e+01 4.790145e+01 4.806982e+01 5.399290e+01 6.658193e+01 3.143701e+01 1.841879e+02 1.501115e+00 1.479264e+00 1.419895e+00 2.272107e+00 1.880642e+00 2.105628e+00 2.280031e+00 1.936650e+00 2.018196e+00 1.963827e+00 1.997587e+00 1.559135e+00 2.571761e+00 2.319898e-01 2.408473e-01 2.210669e-01 3.404900e-01 3.085047e-01 3.687871e-01 3.892777e-01 3.406794e-01 3.576038e-01 3.468189e-01 3.398416e-01 2.856025e-01 3.133720e-01
<GCONST> 1.177766e+02
<STATE> 3
<MEAN> 39
 -7.381522e+00 3.330936e+00 2.047153e+00 -3.046288e+00 -4.874629e+00 -2.964739e+00 -5.433913e-01 -3.441086e+00 -4.156183e+00 -7.898898e-01 -2.925678e+00 8.747759e-01 5.354753e+01 4.188114e-03 7.886445e-03 8.638212e-04 -3.319199e-05 4.583947e-03 2.944113e-03 -4.185917e-03 -2.407409e-03 4.110487e-03 -9.366490e-04 -2.847919e-03 -1.119324e-03 -3.485081e-03 -2.780182e-04 4.271456e-06 2.111308e-05 2.157945e-05 -1.623377e-04 6.947975e-04 6.310043e-04 2.858052e-04 2.109315e-04 1.335133e-04 3.614691e-04 -5.897314e-04 -3.645968e-04
<VARIANCE> 39
 3.956010e+01 5.039151e+01 5.962346e+01 1.002791e+02 6.064148e+01 5.444832e+01 5.840739e+01 4.790145e+01 4.806982e+01 5.399290e+01 6.658193e+01 3.143701e+01 1.841879e+02 1.501115e+00 1.479264e+00 1.419895e+00 2.272107e+00 1.880642e+00 2.105628e+00 2.280031e+00 1.936650e+00 2.018196e+00 1.963827e+00 1.997587e+00 1.559135e+00 2.571761e+00 2.319898e-01 2.408473e-01 2.210669e-01 3.404900e-01 3.085047e-01 3.687871e-01 3.892777e-01 3.406794e-01 3.576038e-01 3.468189e-01 3.398416e-01 2.856025e-01 3.133720e-01
<GCONST> 1.177766e+02
<STATE> 4
<MEAN> 39
 -7.381522e+00 3.330936e+00 2.047153e+00 -3.046288e+00 -4.874629e+00 -2.964739e+00 -5.433913e-01 -3.441086e+00 -4.156183e+00 -7.898898e-01 -2.925678e+00 8.747759e-01 5.354753e+01 4.188114e-03 7.886445e-03 8.638212e-04 -3.319199e-05 4.583947e-03 2.944113e-03 -4.185917e-03 -2.407409e-03 4.110487e-03 -9.366490e-04 -2.847919e-03 -1.119324e-03 -3.485081e-03 -2.780182e-04 4.271456e-06 2.111308e-05 2.157945e-05 -1.623377e-04 6.947975e-04 6.310043e-04 2.858052e-04 2.109315e-04 1.335133e-04 3.614691e-04 -5.897314e-04 -3.645968e-04
<VARIANCE> 39
 3.956010e+01 5.039151e+01 5.962346e+01 1.002791e+02 6.064148e+01 5.444832e+01 5.840739e+01 4.790145e+01 4.806982e+01 5.399290e+01 6.658193e+01 3.143701e+01 1.841879e+02 1.501115e+00 1.479264e+00 1.419895e+00 2.272107e+00 1.880642e+00 2.105628e+00 2.280031e+00 1.936650e+00 2.018196e+00 1.963827e+00 1.997587e+00 1.559135e+00 2.571761e+00 2.319898e-01 2.408473e-01 2.210669e-01 3.404900e-01 3.085047e-01 3.687871e-01 3.892777e-01 3.406794e-01 3.576038e-01 3.468189e-01 3.398416e-01 2.856025e-01 3.133720e-01
<GCONST> 1.177766e+02
<TRANSP> 5
 0.000000e+00 1.000000e+00 0.000000e+00 0.000000e+00 0.000000e+00
 0.000000e+00 6.000000e-01 4.000000e-01 0.000000e+00 0.000000e+00
 0.000000e+00 0.000000e+00 6.000000e-01 4.000000e-01 0.000000e+00
 0.000000e+00 0.000000e+00 0.000000e+00 7.000000e-01 3.000000e-01
 0.000000e+00 0.000000e+00 0.000000e+00 0.000000e+00 0.000000e+00
<ENDHMM>
~h "ih"
<BEGINHMM>
<NUMSTATES> 5
<STATE> 2
<MEAN> 39
 -1.023841e+01 1.903267e+00 1.210031e+01 -1.826607e+01 -2.124716e+01 -9.546157e+00 -1.010362e+01 -1.361409e+01 -1.026123e+01 6.204851e+00 -1.156886e+01 9.408924e-01 7.192450e+01 -3.008640e-01 3.233850e-01 6.685219e-01 -6.618718e-01 4.165751e-01 7.187469e-01 -3.731121e-01 -2.785113e-01 3.289847e-01 -1.225344e-01 -9.528216e-01 4.133906e-01 -3.962274e-01 4.724947e-02 9.986223e-02 -1.857127e-01 3.726637e-01 2.019957e-01 1.382999e-01 2.640536e-01 1.474393e-01 1.115105e-01 -1.020588e-01 1.177685e-01 2.841666e-02 -3.381816e-01
<VARIANCE> 39
 1.071627e+01 1.426384e+01 2.491770e+01 4.272916e+01 2.746556e+01 2.695154e+01 3.188829e+01 1.689559e+01 1.717428e+01 2.227431e+01 3.330271e+01 1.440781e+01 1.534195e+01 6.592862e-01 6.646599e-01 1.005815e+00 2.176602e+00 1.665360e+00 1.278600e+00 1.801811e+00 1.187095e+00 1.507779e+00 1.965202e+00 1.515357e+00 1.031412e+00 1.222230e+00 2.203053e-01 1.361266e-01 2.031073e-01 2.613831e-01 4.483566e-01 3.318055e-01 2.706628e-01 2.248448e-01 3.400452e-01 3.735366e-01 4.050928e-01 1.908868e-01 8.873925e-02
<GCONST> 9.643987e+01
<STATE> 3
<MEAN> 39
 -9.112295e+00 1.474010e+00 8.407350e+00 -7.006928e+00 -1.466309e+01 -4.507533e+00 -3.147080e+00 -8.254876e+00 -3.342824e+00 5.337189e+00 -6.052724e+00 4.122406e+00 5.692991e+01 -6.286645e-01 -3.976268e-01 -1.627855e+00 1.970852e+00 9.673461e-02 -5.553730e-02 1.443431e+00 1.029105e+00 1.375007e-01 -7.252911e-02 1.567242e+00 -2.414979e-01 1.334314e-01 -2.608508e-01 1.728280e-01 -3.140574e-02 -5.365172e-02 -5.182809e-02 4.118292e-02 -9.422289e-02 4.509769e-02 -1.205596e-01 -2.894312e-02 3.592619e-02 -6.350204e-02 2.572290e-01
<VARIANCE> 39
 2.748304e+01 4.089498e+01 9.324960e+01 1.042738e+02 2.166137e+01 3.149928e+01 8.248829e+01 4.781025e+01 3.080842e+01 2.983007e+01 6.931150e+01 2.393572e+01 6.990568e+01 3.854696e+00 5.090159e+00 5.901518e+00 4.920190e+00 2.197528e+00 3.187028e+00 6.099821e+00 3.014367e+00 3.921410e+00 3.546093e+00 3.154375e+00 2.353877e+00 9.860990e+00 3.404248e-01 1.025152e+00 1.094314e+00 9.304416e-01 3.883724e-01 6.857572e-01 1.278025e+00 6.167809e-01 6.411957e-01 7.615574e-01 6.767476e-01 5.097457e-01 1.255560e+00
<GCONST> 1.351537e+02
<STATE> 4
<MEAN> 39
 -2.148606e+01 4.120484e+00 -7.413969e+00 7.289273e+00 -1.026710e+01 -2.041673e+00 5.599269e+00 1.203688e+00 -4.044097e+00 1.939489e+00 2.548761e+00 2.779505e+00 6.166304e+01 1.258992e-01 1.752450e-01 1.957698e-01 -1.770156e-01 3.940144e-01 9.406874e-03 -1.253267e-01 -1.162182e-02 9.468296e-02 -1.802482e-01 -3.808547e-02 4.802857e-02 -5.476415e-01 2.235063e-01 -1.708900e-01 1.435402e-01 -2.965865e-02 1.322496e-02 -1.049186e-01 -4.874636e-03 -4.906042e-02 1.386365e-02 4.593281e-03 -4.759024e-02 2.000158e-02 -1.297051e-01
<VARIANCE> 39
 1.037154e+01 5.439207e+00 1.528788e+01 1.272085e+01 1.770615e+01 1.853603e+01 1.561053e+01 2.518734e+01 1.846675e+01 1.454097e+01 1.737921e+01 1.483796e+01 1.650634e+01 8.606722e-01 8.920690e-01 1.107219e+00 9.443600e-01 1.177909e+00 1.575477e+00 1.485039e+00 1.559896e+00 1.585070e+00 1.628350e+00 1.441480e+00 1.307323e+00 3.687536e-01 1.286942e-01 1.607393e-01 1.542547e-01 1.931832e-01 2.163613e-01 2.858297e-01 3.010741e-01 3.077773e-01 3.369943e-01 3.119484e-01 3.006969e-01 2.801583e-01 1.287942e-01
<GCONST> 8.919050e+01
<TRANSP> 5
 0.000000e+00 1.000000e+00 0.000000e+00 0.000000e+00 0.000000e+00
 0.000000e+00 8.878709e-01 1.121290e-01 0.000000e+00 0.000000e+00
 0.000000e+00 0.000000e+00 8.838894e-01 1.161106e-01 0.000000e+00
 0.000000e+00 0.000000e+00 0.000000e+00 9.173096e-01 8.269037e-02
 0.000000e+00 0.000000e+00 0.000000e+00 0.000000e+00 0.000000e+00
<ENDHMM>
~h "iy"
<BEGINHMM>
<NUMSTATES> 5
<STATE> 2
<MEAN> 39
 -1.276038e+01 1.356597e+01 1.308476e+01 -1.867808e+01 -9.499016e+00 -4.946730e+00 -1.278239e+01 -9.421529e+00 -1.026769e+01 -1.670717e+00 -1.484312e+01 -2.990283e+00 6.546651e+01 1.925675e-01 2.411394e-01 -2.472913e-02 1.190266e-01 3.916229e-01 1.717307e-02 7.451893e-02 5.005011e-02 1.749666e-01 -1.488795e-01 7.815014e-02 1.517739e-01 -5.195976e-01 4.132898e-02 -3.702609e-02 -1.553574e-03 7.651237e-02 -1.296882e-02 -6.150271e-03 3.499801e-02 -2.579529e-02 2.341096e-02 1.322885e-02 4.108156e-02 7.554333e-03 -4.556357e-02
<VARIANCE> 39
 8.744353e+00 1.679953e+01 9.390064e+00 1.873987e+01 3.192347e+01 1.774297e+01 3.757725e+01 1.300517e+01 2.101829e+01 1.725934e+01 1.817153e+01 2.212421e+01 2.395377e+01 2.055205e-01 2.812223e-01 3.141202e-01 5.309905e-01 5.810503e-01 5.627677e-01 7.697035e-01 7.050582e-01 6.806573e-01 7.289219e-01 7.053648e-01 6.486300e-01 2.454235e-01 2.610565e-02 4.795783e-02 5.903809e-02 9.675981e-02 9.647568e-02 1.019357e-01 1.268896e-01 1.163526e-01 1.149636e-01 1.174987e-01 1.237507e-01 1.102094e-01 2.287711e-02
<GCONST> 6.711381e+01
<STATE> 3
<MEAN> 39
 -6.604346e+00 1.064918e+01 1.151757e+01 -4.273780e+00 -3.158075e+00 -4.396508e+00 -8.100435e+00 -7.543291e+00 -5.007412e+00 -3.197182e+00 -7.154277e+00 -8.314955e-01 4.932686e+01 1.216036e-01 -8.529282e-01 -3.692552e-01 1.373123e+00 2.259525e-01 1.402475e-01 8.423371e-01 5.229867e-01 4.964128e-01 2.616619e-01 9.523890e-01 2.213577e-01 -1.031389e+00 -1.665791e-02 1.776930e-02 -8.397171e-02 -1.210574e-01 -1.592346e-02 1.090543e-01 3.806544e-02 5.550722e-02 2.385817e-02 1.092726e-01 6.246823e-02 5.973147e-02 1.293320e-02
<VARIANCE> 39
 1.817297e+01 5.337811e+01 1.882102e+01 7.729591e+01 2.892009e+01 3.305721e+01 6.101754e+01 2.664933e+01 2.789651e+01 2.305634e+01 3.512013e+01 2.009235e+01 3.686156e+01 2.051088e+00 3.049834e+00 1.757245e+00 3.598432e+00 1.953678e+00 3.725307e+00 3.556284e+00 2.055158e+00 2.363052e+00 2.372466e+00 2.147528e+00 1.981456e+00 1.657392e+00 4.026852e-01 6.398120e-01 3.478977e-01 6.971443e-01 3.698645e-01 7.782785e-01 6.555715e-01 3.828285e-01 4.315382e-01 4.047781e-01 3.796717e-01 3.450764e-01 2.990395e-01
<GCONST> 1.176706e+02
<STATE> 4
<MEAN> 39
 -6.377115e+00 4.502285e+00 4.786553e+00 1.832351e+00 -2.713080e+00 9.363559e-01 1.439975e+00 -2.037840e+00 -5.146908e-01 3.654882e+00 2.467676e+00 3.232968e+00 4.098075e+01 2.669285e-02 4.613101e-02 -2.363221e-01 5.757362e-02 7.014348e-02 1.803936e-01 1.848986e-01 1.209064e-01 2.238283e-02 1.292756e-01 1.678606e-01 5.678040e-02 -1.565175e-01 -4.674963e-02 -1.010343e-03 5.129752e-02 3.235253e-02 -5.504237e-03 -7.822674e-02 -6.377243e-03 -2.038902e-02 -3.391800e-02 -7.157142e-02 -6.664602e-02 -3.811392e-02 7.339130e-02
<VARIANCE> 39
 6.628066e+00 1.500348e+01 1.259447e+01 1.436203e+01 1.585990e+01 1.613819e+01 2.268277e+01 2.080268e+01 1.854078e+01 1.949604e+01 1.703914e+01 1.441042e+01 1.206830e+01 5.778103e-01 8.587651e-01 9.316256e-01 1.048047e+00 1.059631e+00 1.543105e+00 1.653328e+00 1.537287e+00 1.645526e+00 1.665174e+00 1.507381e+00 1.405496e+00 4.259014e-01 1.124186e-01 1.421023e-01 1.639360e-01 1.990727e-01 2.021956e-01 2.823684e-01 3.040334e-01 3.128711e-01 3.313937e-01 3.274516e-01 2.982311e-01 2.823082e-01 7.546639e-02
<GCONST> 8.861132e+01
<TRANSP> 5
 0.000000e+00 1.000000e+00 0.000000e+00 0.000000e+00 0.000000e+00
 0.000000e+00 9.602936e-01 3.970643e-02 0.000000e+00 0.000000e+00
 0.000000e+00 0.000000e+00 9.204314e-01 7.956854e-02 0.000000e+00
 0.000000e+00 0.000000e+00 0.000000e+00 9.425747e-01 5.742532e-02
 0.000000e+00 0.000000e+00 0.000000e+00 0.000000e+00 0.000000e+00
<ENDHMM>
~h "jh"
<BEGINHMM>
<NUMSTATES> 5
<STATE> 2
<MEAN> 39
 -1.217668e+01 7.531651e+00 7.852044e+00 -2.305549e+00 -9.078836e+00 -5.638610e+00 9.840516e-01 -7.512926e+00 -7.505005e+00 -3.302616e+00 -4.440099e+00 -3.397823e+00 5.932395e+01 -3.153271e-01 -1.266220e-01 3.810017e-01 -7.854490e-01 -9.444961e-01 -6.102532e-01 -2.087240e-01 -5.032046e-01 -3.470302e-01 -1.213617e-01 -3.655327e-01 -3.049288e-01 1.634763e+00 1.556427e-02 -4.704715e-02 -4.405232e-02 -7.232998e-02 3.175279e-02 8.160389e-02 5.177826e-02 4.989294e-02 9.246181e-02 1.075950e-01 1.159469e-02 4.441347e-02 -8.911458e-02
<VARIANCE> 39
 1.630779e+02 4.136879e+01 2.957284e+01 3.855062e+01 6.201967e+01 4.220082e+01 3.121999e+01 2.883020e+01 2.849081e+01 2.177985e+01 3.121453e+01 2.384217e+01 1.512682e+02 1.354675e+01 5.358143e+00 3.773638e+00 1.920645e+00 6.007543e+00 3.008711e+00 3.056663e+00 3.192803e+00 2.983121e+00 2.565626e+00 3.351107e+00 2.071554e+00 3.928403e+00 2.019685e+00 1.050748e+00 7.371676e-01 3.339643e-01 9.695562e-01 4.987733e-01 5.738304e-01 4.702689e-01 4.644108e-01 4.460651e-01 4.696103e-01 3.878788e-01 6.295336e-01
<GCONST> 1.306208e+02
<STATE> 3
<MEAN> 39
 -9.590703e+00 -4.818840e-01 8.900873e+00 -1.942086e+01 -2.391771e+01 -9.994333e+00 1.767996e+00 -1.076948e+01 -4.126597e+00 -1.488141e+00 -1.252756e+01 -6.220130e+00 7.447417e+01 -6.075481e-02 2.469810e-01 1.401796e-01 -3.862041e-01 1.056375e-01 3.633786e-01 -2.974185e-01 -1.427426e-01 2.396353e-01 1.733753e-01 -1.861134e-01 2.585411e-01 -1.304833e-01 -6.379122e-02 1.196268e-01 1.699704e-02 9.003839e-02 8.847154e-02 2.028415e-02 -7.762639e-02 6.212806e-02 -4.333514e-04 3.903829e-04 9.779437e-02 7.245275e-02 -4.509340e-02
<VARIANCE> 39
 1.586010e+01 1.870988e+01 1.450693e+01 1.773871e+01 1.427854e+01 1.584090e+01 2.492474e+01 2.332738e+01 2.952104e+01 1.266387e+01 1.490411e+01 1.778147e+01 8.806537e+00 1.587873e-01 3.902327e-01 5.797797e-01 7.718172e-01 5.638686e-01 4.965594e-01 1.142418e+00 7.619514e-01 7.221850e-01 8.232911e-01 1.145740e+00 1.189306e+00 1.229136e-01 3.586350e-02 4.704991e-02 7.938122e-02 7.025965e-02 8.987869e-02 7.722543e-02 1.293494e-01 1.480593e-01 1.060251e-01 1.397299e-01 1.222710e-01 1.575102e-01 1.164874e-02
<GCONST> 6.796883e+01
<STATE> 4
<MEAN> 39
 -1.047717e+01 1.067379e+01 1.504669e+01 -1.473419e+01 -1.449947e+01 -4.598238e+00 -8.599885e+00 -1.195336e+01 -2.584468e+00 -1.033273e+00 -7.916193e+00 5.892631e-02 6.412257e+01 1.636272e-01 5.471665e-01 1.420483e-01 4.771011e-01 8.296902e-01 4.357200e-01 -3.432381e-01 1.028998e-01 -1.159872e-02 -2.486781e-01 -3.112997e-02 -1.757856e-01 -9.695685e-01 1.770600e-02 -4.230499e-02 -7.511732e-02 3.724426e-02 2.567629e-02 1.048210e-02 6.810034e-02 6.635093e-02 1.201051e-02 -3.159429e-02 6.929873e-03 -8.613965e-02 -5.085580e-02
<VARIANCE> 39
 1.508943e+01 1.736395e+01 9.975069e+00 2.392892e+01 3.556070e+01 2.039915e+01 1.659412e+01 1.744331e+01 2.587587e+01 1.450695e+01 1.809642e+01 1.140712e+01 4.574503e+01 3.226658e-01 3.761526e-01 4.430366e-01 1.160060e+00 7.327432e-01 7.726310e-01 9.306474e-01 6.783294e-01 8.450496e-01 6.622180e-01 6.618583e-01 6.649154e-01 3.046646e-01 5.902790e-02 5.127530e-02 6.832790e-02 1.599057e-01 1.333684e-01 1.360589e-01 1.360584e-01 1.250436e-01 1.414200e-01 1.237381e-01 9.936319e-02 1.115183e-01 2.824994e-02
<GCONST> 7.314840e+01
<TRANSP> 5
 0.000000e+00 1.000000e+00 0.000000e+00 0.000000e+00 0.000000e+00
 0.000000e+00 9.461280e-01 5.387202e-02 0.000000e+00 0.000000e+00
 0.000000e+00 0.000000e+00 9.187058e-01 8.129419e-02 0.000000e+00
 0.000000e+00 0.000000e+00 0.000000e+00 9.132848e-01 8.671517e-02
 0.000000e+00 0.000000e+00 0.000000e+00 0.000000e+00 0.000000e+00
<ENDHMM>
