~o
<STREAMINFO> 1 39
<VECSIZE> 39<NULLD><MFCC_D_A_0><DIAGC>
~s "silst"
<MEAN> 39
 -7.134445e+00 3.901667e+00 3.254389e+00 3.788792e+00 -7.885917e-02 1.048836e-01 2.624733e+00 4.967023e-01 7.037104e-01 2.813679e+00 2.299531e+00 4.370394e+00 4.199554e+01 3.623252e-02 8.171288e-02 -5.912853e-03 -1.526499e-02 1.904105e-02 -5.254541e-02 -5.252860e-02 -3.556491e-02 1.746900e-02 -4.681310e-02 -7.117450e-02 -4.090882e-02 5.280884e-02 -3.291719e-03 -5.386109e-03 6.486590e-03 -1.869665e-02 -2.950844e-02 -7.332061e-03 8.003335e-03 -7.959250e-03 -2.762978e-02 -1.311869e-02 -2.634262e-03 -2.808752e-02 3.328428e-02
<VARIANCE> 39
 1.482974e+01 2.137084e+01 1.503990e+01 1.288177e+01 1.923537e+01 2.146851e+01 2.442162e+01 2.479805e+01 2.027728e+01 2.125306e+01 2.122198e+01 1.651814e+01 1.581475e+01 9.564409e-01 1.339659e+00 1.394968e+00 1.280641e+00 1.567489e+00 2.112481e+00 2.081002e+00 1.863887e+00 1.824625e+00 1.772198e+00 2.015644e+00 1.534589e+00 8.502160e-01 1.972313e-01 2.556590e-01 2.870767e-01 2.633770e-01 3.144930e-01 4.281572e-01 4.264829e-01 3.644448e-01 3.646111e-01 3.405256e-01 3.982632e-01 3.145041e-01 1.765822e-01
<GCONST> 1.000062e+02
~h "b"
<BEGINHMM>
<NUMSTATES> 5
<STATE> 2
<MEAN> 39
 -3.370934e+00 6.019556e+00 3.999973e+00 1.026359e+00 -1.538475e+00 -9.661853e-01 1.422341e+00 -3.089509e+00 -1.460739e+00 -2.394688e-01 -2.820230e+00 2.813111e+00 4.460807e+01 -4.036253e-01 2.109086e-01 -5.710839e-02 2.365921e-02 3.820858e-01 -7.339593e-02 2.180706e-02 4.699336e-01 2.610360e-01 2.375221e-02 6.130164e-01 4.074982e-02 1.301294e-01 -3.365656e-01 -2.324435e-01 3.860592e-02 -1.454990e-02 -7.777596e-02 -2.662024e-01 8.783951e-02 -8.958498e-02 -8.110722e-02 7.951367e-02 3.616037e-02 -1.798462e-02 7.064229e-01
<VARIANCE> 39
 3.939624e+01 2.626814e+01 1.073978e+01 2.178884e+01 1.927143e+01 2.422813e+01 2.570766e+01 2.352142e+01 2.585706e+01 1.935600e+01 6.556564e+01 2.118769e+01 3.799274e+01 2.956998e+00 1.850965e+00 8.108723e-01 1.138877e+00 1.197382e+00 1.502179e+00 1.885437e+00 1.916318e+00 1.805372e+00 2.027006e+00 3.793263e+00 1.752134e+00 2.208823e+00 6.879631e-01 4.413151e-01 2.106813e-01 2.571114e-01 2.348877e-01 2.856262e-01 3.472444e-01 4.218918e-01 4.245652e-01 3.847755e-01 6.332059e-01 3.695594e-01 9.958345e-01
<GCONST> 1.091921e+02
<STATE> 3
<MEAN> 39
 -7.009459e+00 3.656877e+00 4.416788e+00 5.523404e-02 -2.810279e+00 -5.759287e+00 2.876251e+00 -1.596182e+00 -3.311723e+00 -2.765126e-01 -3.028391e+00 1.496687e+00 5.496867e+01 -1.861519e+00 -1.547960e+00 5.312791e-01 -6.731380e-01 -9.936954e-01 -1.547109e+00 3.746924e-01 2.297047e-01 -4.676949e-01 3.637114e-01 2.961148e-01 -6.227268e-02 4.692017e+00 2.292222e-01 -6.628539e-02 5.189363e-02 -5.506601e-01 -6.246086e-01 -1.735916e-01 -2.256292e-01 -2.305635e-01 -1.346884e-01 -2.690636e-01 -5.199212e-01 -9.018494e-02 3.774696e-01
<VARIANCE> 39
 5.791792e+01 4.593045e+01 2.496755e+01 4.567948e+01 2.378041e+01 4.601963e+01 3.728984e+01 3.400050e+01 3.854188e+01 3.720067e+01 3.551818e+01 1.813203e+01 1.740451e+02 6.533285e+00 4.218619e+00 3.102360e+00 5.642192e+00 3.880179e+00 3.904594e+00 3.763148e+00 3.569537e+00 4.283279e+00 3.397065e+00 5.195825e+00 2.427021e+00 1.319677e+01 1.430697e+00 9.033249e-01 6.299446e-01 8.020656e-01 6.927336e-01 1.081778e+00 8.566163e-01 5.265051e-01 6.904021e-01 7.563813e-01 7.174183e-01 4.328586e-01 2.859201e+00
<GCONST> 1.366479e+02
<STATE> 4
<MEAN> 39
 -7.129407e+00 4.889700e+00 4.588689e+00 6.064966e-01 -2.879271e+00 -6.195676e-02 1.721775e+00 -1.559091e+00 -1.084971e+00 2.220742e+00 -7.919267e-02 2.261223e+00 4.889201e+01 -1.974146e-01 1.856413e-01 2.606675e-01 -9.695905e-01 -6.569312e-01 -6.689477e-02 -6.783193e-01 -3.568729e-01 -4.268786e-01 -2.184498e-01 -6.331228e-01 -4.486104e-01 1.057892e+00 1.966510e-02 4.933038e-02 -1.338068e-01 -3.958827e-02 6.968725e-02 -6.828759e-03 -1.003971e-01 2.950469e-02 -4.136558e-02 -1.291783e-01 -9.212422e-02 -1.005631e-01 -2.017707e-01
<VARIANCE> 39
 1.429320e+01 1.973747e+01 4.865982e+01 5.123201e+01 4.496691e+01 3.349967e+01 3.459740e+01 4.073618e+01 2.512803e+01 2.595734e+01 3.610756e+01 2.656827e+01 2.168710e+02 2.148648e+00 1.996057e+00 3.901729e+00 4.716050e+00 3.193536e+00 2.902154e+00 3.832978e+00 2.805840e+00 2.455493e+00 2.395206e+00 2.539632e+00 2.170148e+00 7.938632e+00 4.181542e-01 3.360779e-01 7.439651e-01 6.771893e-01 5.274621e-01 4.618507e-01 5.738413e-01 5.143546e-01 3.801515e-01 4.473656e-01 4.076424e-01 4.030491e-01 1.364148e+00
<GCONST> 1.244083e+02
<TRANSP> 5
 0.000000e+00 1.000000e+00 0.000000e+00 0.000000e+00 0.000000e+00
 0.000000e+00 6.438986e-01 3.561014e-01 0.000000e+00 0.000000e+00
 0.000000e+00 0.000000e+00 6.881505e-01 3.118495e-01 0.000000e+00
 0.000000e+00 0.000000e+00 0.000000e+00 9.012983e-01 9.870171e-02
 0.000000e+00 0.000000e+00 0.000000e+00 0.000000e+00 0.000000e+00
<ENDHMM>
~h "d"
<BEGINHMM>
<NUMSTATES> 5
<STATE> 2
<MEAN> 39
 -8.739889e+00 5.115256e+00 3.814252e+00 -1.461227e+00 -4.283340e+00 -2.050401e+00 2.309794e+00 -3.107170e+00 -2.305382e+00 1.087302e+00 -1.780716e+00 -1.884395e-01 5.080547e+01 -6.854250e-01 -6.888997e-01 -3.273708e-01 4.546764e-01 -4.024162e-01 -3.537556e-01 1.019114e+00 -7.455112e-02 -4.046924e-01 2.018548e-01 2.594741e-01 -9.561692e-02 1.434569e+00 1.626766e-01 1.591932e-01 2.412068e-01 -1.762099e-01 -1.450051e-01 -4.034148e-02 -2.319341e-01 -1.365554e-01 -1.645941e-01 -6.538589e-02 -1.394900e-01 -3.307320e-02 -6.277935e-02
<VARIANCE> 39
 4.013378e+01 3.402906e+01 3.546518e+01 4.935432e+01 2.160900e+01 2.931907e+01 5.797216e+01 3.805362e+01 3.043749e+01 3.885171e+01 3.907404e+01 3.300994e+01 9.155581e+01 3.617341e+00 3.531797e+00 5.140975e+00 3.907983e+00 3.171690e+00 3.359970e+00 7.100101e+00 3.634346e+00 3.294445e+00 3.783257e+00 3.904449e+00 3.524830e+00 1.030405e+01 7.074295e-01 6.569711e-01 8.539042e-01 6.486416e-01 5.267578e-01 6.431208e-01 1.288886e+00 6.803656e-01 5.646729e-01 6.932378e-01 6.302242e-01 7.318589e-01 2.249743e+00
<GCONST> 1.344392e+02
<STATE> 3
<MEAN> 39
 -7.567906e+00 3.038754e+00 4.681050e+00 1.016136e+00 -5.186388e+00 -4.382643e+00 3.688597e+00 -1.940719e+00 -2.761472e+00 9.069598e-01 3.220266e-02 1.465668e+00 4.763802e+01 3.891618e-01 3.055418e-02 2.803073e-01 4.955584e-02 3.385499e-01 3.525742e-02 -5.909826e-01 1.459293e-01 3.978704e-01 -4.638120e-02 7.317246e-02 3.523744e-01 -9.674411e-01 -1.920431e-02 8.084570e-02 -1.954895e-01 -1.181151e-01 1.173913e-01 2.006384e-01 -5.705616e-02 9.002654e-02 1.213186e-01 1.245236e-01 7.452587e-02 -3.347468e-02 -7.449765e-02
<VARIANCE> 39
 3.040580e+01 2.711450e+01 3.300912e+01 5.100288e+01 2.930031e+01 3.249665e+01 3.917157e+01 3.851151e+01 3.207419e+01 2.782201e+01 2.268071e+01 2.012823e+01 5.053645e+01 3.083535e+00 2.477120e+00 2.974519e+00 3.564515e+00 2.116997e+00 3.777171e+00 3.638097e+00 2.568668e+00 2.715260e+00 2.476620e+00 1.920259e+00 1.666053e+00 4.229681e+00 6.268709e-01 5.550677e-01 5.063949e-01 6.442187e-01 4.287865e-01 8.158677e-01 6.876002e-01 5.263079e-01 5.177991e-01 4.951602e-01 3.282265e-01 3.167352e-01 7.834490e-01
<GCONST> 1.219460e+02
<STATE> 4
<MEAN> 39
 -6.716915e+00 5.057341e+00 3.741408e+00 2.597372e+00 -1.309010e+00 -4.376678e-01 2.049709e+00 -2.084504e-01 -5.662340e-02 3.522117e+00 2.871135e+00 3.584853e+00 4.062602e+01 4.244963e-02 1.776603e-01 3.250622e-02 -1.269817e-01 -3.637701e-02 5.410269e-02 -1.816191e-01 -6.000173e-02 -9.441609e-02 -1.240508e-02 -9.493880e-02 -6.754827e-02 1.395630e-02 1.892707e-03 -2.303754e-03 1.629116e-02 -3.373282e-02 -4.024408e-02 -3.405092e-02 -5.528015e-03 -4.732513e-02 -6.275377e-02 -6.635683e-02 -7.906769e-02 -3.135841e-02 9.061176e-02
<VARIANCE> 39
 8.810406e+00 1.455127e+01 1.161554e+01 1.314203e+01 1.823184e+01 1.822880e+01 2.482554e+01 2.496559e+01 1.989829e+01 2.056973e+01 1.751137e+01 1.649573e+01 2.755342e+01 7.160781e-01 8.147910e-01 9.580567e-01 1.302973e+00 1.725506e+00 1.516085e+00 2.067854e+00 1.596442e+00 1.892397e+00 2.173886e+00 1.747755e+00 1.600154e+00 1.818214e+00 1.506019e-01 1.453089e-01 1.877240e-01 1.977961e-01 3.317326e-01 2.687814e-01 3.661434e-01 3.040628e-01 3.353108e-01 4.191264e-01 3.472869e-01 3.214763e-01 2.786187e-01
<GCONST> 9.651019e+01
<TRANSP> 5
 0.000000e+00 1.000000e+00 0.000000e+00 0.000000e+00 0.000000e+00
 0.000000e+00 8.280396e-01 1.719604e-01 0.000000e+00 0.000000e+00
 0.000000e+00 0.000000e+00 8.111667e-01 1.888333e-01 0.000000e+00
 0.000000e+00 0.000000e+00 0.000000e+00 9.569738e-01 4.302622e-02
 0.000000e+00 0.000000e+00 0.000000e+00 0.000000e+00 0.000000e+00
<ENDHMM>
~h "f"
<BEGINHMM>
<NUMSTATES> 5
<STATE> 2
<MEAN> 39
 -1.084042e+01 3.590765e+00 -8.369533e-01 4.935313e+00 -4.776677e-01 6.511359e-02 2.672034e+00 6.587879e-01 -3.940501e-01 2.432690e+00 1.668838e+00 3.291841e+00 4.860879e+01 -3.483576e-01 -4.738702e-03 -1.027467e-01 6.447687e-02 -4.730057e-02 4.378041e-02 8.350067e-02 2.386286e-02 -3.508304e-02 9.641050e-02 -3.403749e-02 9.883601e-03 3.906280e-01 2.530471e-02 -9.156890e-03 3.974133e-03 -2.830940e-02 -1.334129e-02 -1.714493e-02 -9.016732e-03 -1.590187e-02 -1.499039e-02 -2.504653e-02 -1.642644e-02 -1.512079e-02 2.937145e-02
<VARIANCE> 39
 4.274937e+01 1.501177e+01 1.744785e+01 1.729388e+01 1.775476e+01 2.227513e+01 2.019555e+01 2.253549e+01 1.964698e+01 1.969677e+01 2.184744e+01 1.641664e+01 9.206398e+01 1.955577e+00 1.268967e+00 1.247767e+00 1.570255e+00 1.555119e+00 1.974044e+00 1.738245e+00 1.898226e+00 1.720355e+00 1.913614e+00 1.743635e+00 1.550528e+00 2.183202e+00 3.213593e-01 2.445328e-01 2.351603e-01 3.142004e-01 3.013172e-01 3.809694e-01 3.409096e-01 3.923558e-01 3.419186e-01 3.822584e-01 3.503049e-01 3.154087e-01 2.628137e-01
<GCONST> 1.042795e+02
<STATE> 3
<MEAN> 39
 -1.639625e+01 3.028223e+00 -3.914736e+00 3.993929e+00 -3.708236e+00 -8.796264e-01 3.893820e+00 1.688758e-01 -3.360265e+00 2.292906e+00 -9.745483e-01 1.916798e+00 6.280934e+01 2.661943e+00 -1.231576e-01 -7.435023e-01 -2.514027e+00 -5.065206e-01 -2.109839e-01 -5.405185e-01 -6.276253e-01 -6.300800e-01 -1.063366e+00 -8.048887e-01 -6.789283e-01 1.362897e+00 6.688988e-01 -1.717743e-01 -4.007480e-01 -9.634414e-01 -2.303866e-01 3.415915e-02 -2.278526e-01 -2.193670e-01 -1.432671e-01 -3.346938e-01 -2.095319e-01 -2.028676e-01 2.266040e-01
<VARIANCE> 39
 4.217875e+01 1.609009e+01 1.809469e+01 2.248253e+01 1.480612e+01 1.619295e+01 1.617841e+01 1.604338e+01 1.539131e+01 1.540514e+01 1.533254e+01 1.332652e+01 3.436895e+01 5.530640e+00 2.067448e+00 2.569879e+00 7.986549e+00 2.403571e+00 1.960405e+00 2.147707e+00 2.149494e+00 1.782248e+00 2.147519e+00 1.730581e+00 2.036937e+00 2.053657e+00 6.121852e-01 4.209964e-01 3.782987e-01 8.039133e-01 4.332763e-01 3.916385e-01 3.689867e-01 3.886158e-01 3.224803e-01 3.166792e-01 2.829959e-01 3.336804e-01 2.413042e-01
<GCONST> 1.091040e+02
<STATE> 4
<MEAN> 39
 -2.533445e-01 -1.366113e+00 -1.053755e+01 -1.579898e+01 -8.788704e+00 -2.383389e+00 -8.032944e-01 -4.659833e+00 -7.128323e+00 -5.992727e+00 -6.305198e+00 -3.290900e+00 7.044382e+01 1.091560e+00 -1.299634e+00 -1.397835e+00 -2.499443e+00 -5.363743e-01 -4.139486e-02 -8.310992e-01 -8.854403e-01 -5.612242e-01 -1.120692e+00 -8.935708e-01 -9.271575e-01 1.427093e+00 -8.950819e-01 1.312054e-01 3.908165e-01 1.110926e+00 2.984769e-01 -3.121719e-02 1.044844e-01 1.405536e-01 1.256465e-01 3.806347e-01 1.838507e-01 1.696931e-01 -4.285921e-01
<VARIANCE> 39
 1.524781e+01 6.755769e+01 3.992468e+01 5.718967e+01 4.436250e+01 5.623067e+01 2.629443e+01 2.776525e+01 2.299760e+01 2.460384e+01 2.111451e+01 2.466430e+01 5.605084e+01 4.375477e+00 3.842498e+00 2.329177e+00 9.522287e+00 3.430177e+00 3.155244e+00 2.015634e+00 2.620750e+00 2.202550e+00 2.565385e+00 1.787897e+00 1.909511e+00 2.864026e+00 5.408472e-01 4.943244e-01 3.077371e-01 9.424114e-01 3.514581e-01 4.355884e-01 3.464989e-01 3.875444e-01 3.707826e-01 4.023935e-01 2.791267e-01 3.852205e-01 2.952792e-01
<GCONST> 1.195682e+02
<TRANSP> 5
 0.000000e+00 1.000000e+00 0.000000e+00 0.000000e+00 0.000000e+00
 0.000000e+00 9.683428e-01 3.165716e-02 0.000000e+00 0.000000e+00
 0.000000e+00 0.000000e+00 7.824833e-01 2.175167e-01 0.000000e+00
 0.000000e+00 0.000000e+00 0.000000e+00 7.524855e-01 2.475145e-01
 0.000000e+00 0.000000e+00 0.000000e+00 0.000000e+00 0.000000e+00
<ENDHMM>
~h "k"
<BEGINHMM>
<NUMSTATES> 5
<STATE> 2
<MEAN> 39
 -1.104252e+01 -9.821224e-02 1.960568e+00 3.301240e+00 -6.163105e+00 -2.797561e+00 5.415272e+00 -6.703674e-01 -1.023390e+00 2.631152e+00 1.294902e+00 3.785889e+00 5.043909e+01 -8.901561e-01 -3.575009e-01 -8.897574e-02 3.762125e-01 -1.401412e-01 -4.430618e-01 4.524069e-01 3.253056e-01 1.038856e-01 2.745829e-02 -1.819117e-02 4.704058e-02 1.405789e+00 -5.304930e-02 2.727884e-01 -2.520871e-02 -1.221473e-01 -1.602682e-02 1.133460e-01 -1.049818e-01 -6.822253e-02 -4.011066e-02 -6.526878e-02 -2.485974e-02 -4.372938e-02 9.685744e-02
<VARIANCE> 39
 3.477293e+01 5.164595e+01 4.457718e+01 4.962566e+01 3.951790e+01 4.275481e+01 5.031464e+01 3.440254e+01 2.775978e+01 3.140338e+01 2.651267e+01 1.964429e+01 1.075196e+02 4.768322e+00 5.750832e+00 4.800885e+00 5.483705e+00 3.914715e+00 5.260426e+00 5.413540e+00 3.142095e+00 2.955270e+00 3.277171e+00 2.806647e+00 2.307203e+00 1.093620e+01 7.510312e-01 1.153700e+00 7.788239e-01 8.598418e-01 7.814222e-01 1.125007e+00 1.029248e+00 5.821864e-01 5.639560e-01 6.386242e-01 5.546725e-01 4.357407e-01 1.783709e+00
<GCONST> 1.353879e+02
<STATE> 3
<MEAN> 39
 -1.522240e+01 2.239317e+00 1.239560e+00 4.340376e+00 -6.664814e+00 -3.500613e+00 6.166983e+00 6.030881e-01 -1.588917e+00 1.792224e+00 1.713189e+00 3.622993e+00 5.523110e+01 3.710199e-01 8.776946e-01 3.841282e-01 -3.559592e-02 3.977570e-01 5.516548e-01 -4.225269e-01 -7.758543e-02 7.515366e-02 -1.512641e-01 2.359812e-01 1.362567e-02 -9.053224e-01 1.664608e-01 -1.871879e-02 -1.221215e-01 -9.333542e-02 9.189308e-02 1.359465e-01 -9.849560e-02 -9.875704e-02 -3.311252e-02 5.420391e-02 -2.301894e-02 -1.339125e-02 -2.939843e-01
<VARIANCE> 39
 4.718110e+01 1.841062e+01 4.188018e+01 5.221865e+01 3.639141e+01 2.746916e+01 3.033333e+01 3.518074e+01 2.796550e+01 2.431873e+01 2.856154e+01 1.819172e+01 1.372045e+02 2.723821e+00 2.981345e+00 2.082898e+00 1.520724e+00 1.970614e+00 2.487769e+00 2.671435e+00 2.057563e+00 2.238118e+00 2.828295e+00 2.200752e+00 1.635597e+00 2.547332e+00 4.454054e-01 6.088234e-01 4.019192e-01 3.228773e-01 4.092364e-01 5.200132e-01 5.617567e-01 4.492375e-01 5.030374e-01 5.087170e-01 3.863607e-01 3.462543e-01 5.277391e-01
<GCONST> 1.180287e+02
<STATE> 4
<MEAN> 39
 -8.318399e+00 4.349372e+00 3.409329e+00 3.319824e+00 -1.623907e+00 2.267770e-01 3.045663e+00 -6.112184e-01 1.363679e-01 3.234274e+00 3.008484e+00 4.202179e+00 4.258125e+01 3.462223e-02 1.102290e-01 3.392244e-02 -1.222241e-01 3.289584e-02 1.186308e-01 -1.022598e-01 -9.658955e-02 7.190507e-03 1.915643e-02 -2.694488e-02 -2.108249e-02 -3.966606e-02 -2.222439e-02 -4.242159e-02 -2.341006e-03 3.612203e-03 -3.472847e-02 -4.726714e-02 1.242310e-02 2.186353e-03 -2.151755e-02 -1.950553e-02 -2.999782e-02 -1.417505e-02 5.813925e-02
<VARIANCE> 39
 2.045854e+01 1.237564e+01 1.150481e+01 2.110938e+01 1.706515e+01 2.141234e+01 2.229436e+01 2.024870e+01 1.865881e+01 1.761633e+01 1.933739e+01 1.508327e+01 7.210089e+01 7.658792e-01 9.544922e-01 8.006178e-01 1.155461e+00 1.251758e+00 1.738156e+00 1.965789e+00 1.611026e+00 1.698921e+00 1.568865e+00 1.738180e+00 1.480481e+00 1.491712e+00 1.531884e-01 2.020196e-01 1.579673e-01 2.152464e-01 2.537252e-01 3.448854e-01 3.876146e-01 3.200387e-01 3.374006e-01 3.164572e-01 3.622968e-01 3.020585e-01 2.184464e-01
<GCONST> 9.697990e+01
<TRANSP> 5
 0.000000e+00 1.000000e+00 0.000000e+00 0.000000e+00 0.000000e+00
 0.000000e+00 8.007207e-01 1.992793e-01 0.000000e+00 0.000000e+00
 0.000000e+00 0.000000e+00 6.302443e-01 3.697557e-01 0.000000e+00
 0.000000e+00 0.000000e+00 0.000000e+00 9.410191e-01 5.898089e-02
 0.000000e+00 0.000000e+00 0.000000e+00 0.000000e+00 0.000000e+00
<ENDHMM>
~h "l"
<BEGINHMM>
<NUMSTATES> 5
<STATE> 2
<MEAN> 39
 -3.541800e+00 -4.106333e-01 3.505894e+00 -7.727297e+00 -8.740380e+00 -6.057442e+00 2.898814e+00 -3.289995e+00 -2.158494e+00 1.264164e+00 -6.730330e+00 -5.435833e-01 5.976049e+01 -5.518695e-01 -3.438386e-01 7.120300e-01 -1.666530e+00 -2.220812e+00 -7.505816e-01 9.791695e-01 -8.693260e-01 -1.541890e+00 2.036146e-01 -9.230975e-01 -5.811373e-01 3.685068e+00 -1.144306e-01 -5.307916e-02 4.973445e-02 -1.016855e-01 -2.856861e-01 2.636703e-02 -1.197012e-01 -2.094140e-01 -1.514562e-01 -1.730520e-01 5.856913e-03 -2.334399e-01 3.258204e-01
<VARIANCE> 39
 2.796749e+01 2.457948e+01 3.027539e+01 1.134955e+02 7.510420e+01 3.436078e+01 4.663807e+01 2.376430e+01 2.845291e+01 3.665258e+01 5.625319e+01 2.810241e+01 1.720086e+02 1.195160e+00 3.304559e+00 4.411405e+00 1.573599e+01 6.977016e+00 2.614474e+00 4.907908e+00 2.775011e+00 2.908445e+00 3.057641e+00 6.860137e+00 3.784455e+00 1.706353e+01 2.104269e-01 4.690210e-01 6.049525e-01 2.394338e+00 1.401953e+00 4.675355e-01 1.138245e+00 6.508018e-01 4.578833e-01 5.133231e-01 1.180751e+00 6.340086e-01 3.588119e+00
<GCONST> 1.369618e+02
<STATE> 3
<MEAN> 39
 -4.968248e+00 -3.288394e+00 4.266412e+00 -1.258597e+01 -1.898609e+01 -8.263288e+00 5.079277e+00 -6.857013e+00 -6.878070e+00 -4.686180e+00 -1.111066e+01 -6.694656e+00 7.396716e+01 -2.936824e-01 4.255414e-03 3.760408e-01 -1.567024e-01 -3.290326e-01 3.413559e-01 -1.068133e-01 -9.756839e-01 -3.856479e-01 -2.409828e-01 -8.557653e-02 -2.397931e-01 2.389108e-01 -6.252497e-03 4.228271e-02 -1.031827e-01 -1.222347e-01 2.276106e-01 1.560571e-01 -1.417513e-01 -8.521587e-02 2.502147e-01 3.994144e-02 -1.456270e-01 3.240506e-02 -3.099712e-01
<VARIANCE> 39
 1.183172e+01 2.097191e+01 5.541013e+01 7.514916e+01 6.333945e+01 1.755497e+01 3.508195e+01 2.203868e+01 2.614278e+01 3.866853e+01 3.267036e+01 3.733120e+01 2.054987e+01 1.321246e+00 8.830146e-01 3.054573e+00 2.558556e+00 4.781647e+00 1.497293e+00 2.687455e+00 4.349569e+00 2.496697e+00 2.326758e+00 3.129186e+00 1.644424e+00 1.179253e+00 7.200327e-02 1.279580e-01 3.243467e-01 5.572631e-01 4.507871e-01 2.561835e-01 4.712979e-01 5.395336e-01 3.787745e-01 3.141119e-01 6.040372e-01 2.728214e-01 3.139783e-01
<GCONST> 1.114213e+02
<STATE> 4
<MEAN> 39
 -2.993038e+00 6.977774e-01 -2.805893e+00 -6.900900e+00 -6.512785e-01 1.026265e+00 5.304398e+00 -7.306905e+00 -2.454341e+00 -2.815917e+00 -2.963191e+00 -4.153064e-01 5.472627e+01 -4.835457e-02 2.064735e-01 9.824872e-02 2.352321e-01 2.100993e-01 1.689718e-01 -1.320749e-01 4.412944e-02 5.026257e-02 1.961534e-01 1.228339e-01 1.401444e-01 -5.687102e-01 3.799974e-03 6.060896e-03 6.784618e-03 9.789778e-03 -5.265730e-03 -1.823411e-02 -2.353819e-03 4.822729e-02 9.710014e-03 -3.587869e-03 -6.894803e-03 1.590438e-02 -3.495770e-03
<VARIANCE> 39
 1.991685e+01 4.603783e+01 4.400004e+01 7.790814e+01 7.994514e+01 2.934077e+01 2.790504e+01 5.130713e+01 3.205932e+01 5.365452e+01 4.635814e+01 3.269241e+01 2.165042e+02 6.484415e-01 9.077301e-01 9.921641e-01 1.424285e+00 1.872046e+00 1.462278e+00 1.627161e+00 2.004872e+00 1.948887e+00 1.822296e+00 1.867801e+00 1.538713e+00 5.787633e-01 1.014484e-01 1.071171e-01 1.583238e-01 1.955397e-01 2.617646e-01 2.538280e-01 2.681712e-01 3.239863e-01 3.185013e-01 3.082601e-01 3.133205e-01 2.746357e-01 7.315821e-02
<GCONST> 1.050570e+02
<TRANSP> 5
 0.000000e+00 1.000000e+00 0.000000e+00 0.000000e+00 0.000000e+00
 0.000000e+00 7.674038e-01 2.325963e-01 0.000000e+00 0.000000e+00
 0.000000e+00 0.000000e+00 8.510095e-01 1.489905e-01 0.000000e+00
 0.000000e+00 0.000000e+00 0.000000e+00 9.561542e-01 4.384575e-02
 0.000000e+00 0.000000e+00 0.000000e+00 0.000000e+00 0.000000e+00
<ENDHMM>
~h "m"
<BEGINHMM>
<NUMSTATES> 5
<STATE> 2
<MEAN> 39
 -1.275002e+00 -1.113129e+01 -3.786391e-01 -4.578811e+00 -8.546691e+00 -4.196109e+00 6.082010e-02 -5.524298e+00 -1.189287e+01 -1.429667e+01 -8.241085e+00 -1.416909e+00 6.970094e+01 2.535739e-01 6.945334e-01 1.660940e-01 2.977489e-01 4.553229e-01 -3.742213e-01 -5.532051e-01 2.911947e-02 5.193802e-01 1.501528e-01 4.405518e-01 -1.055907e-01 -6.987191e-01 -6.180549e-02 -3.511010e-02 -1.958340e-02 -1.359502e-03 -1.968426e-02 3.884018e-02 6.638754e-02 -9.837084e-03 -1.996939e-02 6.197241e-02 -6.137042e-02 1.230749e-01 2.339689e-02
<VARIANCE> 39
 8.870582e+00 2.371666e+01 4.385868e+00 7.142985e+00 2.167560e+01 2.766619e+01 2.902995e+01 3.513478e+01 5.860713e+01 1.066175e+01 3.273634e+01 2.163692e+01 3.204676e+01 3.847353e-01 8.175402e-01 3.255220e-01 5.774425e-01 8.686612e-01 8.335246e-01 2.016809e+00 1.875629e+00 1.248862e+00 1.049371e+00 2.022887e+00 1.500991e+00 7.059900e-01 7.613755e-02 9.157727e-02 7.583845e-02 1.040125e-01 1.248739e-01 1.991300e-01 3.737501e-01 2.557116e-01 2.041904e-01 2.230024e-01 4.388097e-01 3.408891e-01 9.199461e-02
<GCONST> 8.624903e+01
<STATE> 3
<MEAN> 39
 1.270076e+00 4.549438e+00 2.127350e+00 3.061620e+00 1.937117e-01 -6.515019e+00 -5.745837e+00 -1.130229e+01 -3.199753e+00 -1.025575e+01 -4.181296e+00 -1.014148e+00 5.282286e+01 -1.457265e-01 5.806355e-01 1.895666e-01 3.663046e-01 2.093471e-01 5.524277e-01 1.618703e-01 8.585946e-02 -3.229186e-01 3.142404e-01 -2.868603e-01 2.611265e-01 -9.051957e-01 -4.319660e-02 -9.636799e-02 -3.020337e-02 -5.834310e-02 -4.017934e-02 7.288222e-02 1.173130e-01 1.442492e-01 4.242494e-02 3.872599e-02 2.648599e-02 1.533511e-02 1.520748e-02
<VARIANCE> 39
 4.469816e+00 1.483808e+01 1.138096e+01 1.073211e+01 1.542369e+01 2.864739e+01 2.096731e+01 2.448381e+01 1.942315e+01 1.262673e+01 2.607499e+01 2.315934e+01 3.618491e+01 3.636413e-01 3.776765e-01 4.951944e-01 5.537367e-01 6.437925e-01 1.077912e+00 1.312430e+00 1.495946e+00 1.213082e+00 1.434622e+00 1.235894e+00 1.479663e+00 1.994981e-01 5.884345e-02 6.372333e-02 9.180878e-02 1.072335e-01 1.262935e-01 2.112238e-01 2.515968e-01 1.633595e-01 2.274480e-01 2.565622e-01 2.275798e-01 2.433436e-01 3.287133e-02
<GCONST> 7.890648e+01
<STATE> 4
<MEAN> 39
 -5.716776e+00 4.821731e+00 1.192135e+00 3.320728e+00 9.567190e-01 1.723006e+00 2.152246e+00 5.462433e-01 7.155579e-02 1.247327e+00 1.687852e+00 4.243910e+00 3.977144e+01 -1.670592e-01 -1.122390e-01 -6.851367e-02 -9.990846e-02 -5.332512e-02 5.953453e-02 1.719898e-01 1.832374e-01 2.091057e-01 3.443194e-01 3.001854e-01 1.977789e-01 -1.423947e-01 3.680330e-02 2.053073e-02 2.007126e-02 2.334336e-03 -6.686698e-03 -4.499085e-02 -4.938945e-02 -4.092227e-02 -3.028994e-02 -4.891370e-02 -3.636352e-02 -2.232981e-02 2.479679e-02
<VARIANCE> 39
 5.991366e+00 9.017502e+00 1.092297e+01 9.789172e+00 1.029371e+01 1.649518e+01 1.632487e+01 2.409445e+01 1.708332e+01 1.909393e+01 2.100490e+01 1.837812e+01 1.103014e+01 3.602927e-01 5.533628e-01 7.500530e-01 7.673455e-01 9.902646e-01 1.389115e+00 1.447676e+00 1.781351e+00 1.782501e+00 1.753778e+00 1.837270e+00 1.633703e+00 3.910978e-01 6.690360e-02 1.029464e-01 1.459348e-01 1.387781e-01 1.952417e-01 2.869869e-01 2.905547e-01 3.406807e-01 3.581871e-01 2.858558e-01 3.505071e-01 3.142365e-01 7.037460e-02
<GCONST> 8.478247e+01
<TRANSP> 5
 0.000000e+00 1.000000e+00 0.000000e+00 0.000000e+00 0.000000e+00
 0.000000e+00 8.465985e-01 1.534015e-01 0.000000e+00 0.000000e+00
 0.000000e+00 0.000000e+00 9.475810e-01 5.241904e-02 0.000000e+00
 0.000000e+00 0.000000e+00 0.000000e+00 9.646673e-01 3.533272e-02
 0.000000e+00 0.000000e+00 0.000000e+00 0.000000e+00 0.000000e+00
<ENDHMM>
~h "n"
<BEGINHMM>
<NUMSTATES> 5
<STATE> 2
<MEAN> 39
 -3.471301e+00 1.425087e+00 1.445113e+00 -8.308242e+00 -5.735593e+00 -1.336187e+01 -5.337322e+00 -3.376406e+00 -1.272423e+01 -1.396169e+01 -1.355256e+01 -1.420694e+00 6.374234e+01 2.558396e-01 3.449947e-01 3.064648e-01 5.051912e-01 1.919418e-01 -1.702279e-01 -8.331443e-02 -1.266361e-01 -3.415425e-01 -3.994927e-01 -4.135978e-02 -2.514922e-02 -7.377225e-01 -2.019918e-02 1.271810e-02 -1.223308e-02 8.740865e-02 4.699492e-02 8.712603e-02 1.053789e-02 -5.001423e-03 6.856857e-02 1.257738e-01 8.043181e-02 1.287066e-02 -1.054043e-01
<VARIANCE> 39
 1.041362e+01 3.326584e+01 3.836169e+01 4.439748e+01 3.027240e+01 6.186533e+01 5.545474e+01 5.061206e+01 7.416269e+01 4.355051e+01 5.594811e+01 2.487738e+01 7.375787e+01 5.549815e-01 7.415445e-01 7.857410e-01 1.303998e+00 1.505265e+00 1.589254e+00 1.606616e+00 1.814203e+00 2.256060e+00 1.702463e+00 1.654731e+00 1.219758e+00 1.581118e+00 8.307289e-02 1.100292e-01 1.170492e-01 1.712070e-01 2.413496e-01 2.461124e-01 2.534976e-01 3.054835e-01 3.287062e-01 2.400520e-01 2.492284e-01 2.207121e-01 9.759840e-02
<GCONST> 1.018905e+02
<STATE> 3
<MEAN> 39
 -1.556215e+00 5.146853e+00 5.195121e+00 -1.060923e+00 -4.510424e+00 -8.983730e+00 -4.032346e+00 -5.174672e+00 -8.351184e+00 -1.216747e+01 -9.227632e+00 -8.949897e-01 5.181592e+01 -2.826241e-01 -6.246101e-01 -5.740725e-01 2.812763e-01 5.129048e-01 6.182334e-01 5.987147e-01 8.141090e-01 4.920933e-01 7.424133e-01 6.809087e-01 3.665646e-01 -2.678064e-01 -1.681985e-01 -1.740497e-01 -1.155497e-01 -1.065671e-01 1.211821e-01 1.864624e-01 1.405902e-01 7.870848e-02 9.484189e-04 1.858717e-01 1.405732e-01 8.369409e-02 1.073918e-01
<VARIANCE> 39
 9.121786e+00 2.294488e+01 2.029698e+01 1.894614e+01 2.863803e+01 6.899231e+01 4.845316e+01 3.620823e+01 4.819622e+01 4.378491e+01 3.764793e+01 2.477626e+01 8.127082e+01 8.177915e-01 2.167027e+00 1.393783e+00 1.702391e+00 2.552427e+00 2.816326e+00 2.821464e+00 2.702398e+00 5.161239e+00 3.470327e+00 3.444933e+00 2.190735e+00 4.034074e+00 1.408431e-01 2.541545e-01 1.835793e-01 2.529564e-01 3.749548e-01 4.364243e-01 4.527314e-01 5.450649e-01 7.915545e-01 4.681081e-01 4.184003e-01 3.608495e-01 2.026759e-01
<GCONST> 1.145751e+02
<STATE> 4
<MEAN> 39
 -6.299001e+00 1.959281e+00 3.212810e+00 1.782501e+00 -1.742710e+00 -9.634929e-01 1.370892e+00 -1.187554e+00 -2.547242e+00 1.468730e-01 9.617493e-01 3.139760e+00 4.455362e+01 -1.164274e-01 -1.174086e-01 -1.346431e-01 1.958440e-02 1.029823e-01 1.145995e-01 1.522913e-01 1.228692e-01 1.381461e-01 2.193989e-01 2.167277e-01 1.203803e-01 1.618946e-02 2.054859e-02 1.931004e-02 2.905399e-02 -1.938966e-02 -2.987240e-02 -4.143228e-02 -3.932634e-02 -4.929521e-02 -3.304081e-02 -7.137136e-02 -6.934176e-02 -3.642977e-02 4.214653e-02
<VARIANCE> 39
 1.158973e+01 3.148354e+01 1.697260e+01 2.209408e+01 2.076416e+01 2.921504e+01 2.558920e+01 3.006903e+01 3.038415e+01 4.114786e+01 3.287001e+01 1.857099e+01 5.652599e+01 8.505406e-01 1.589569e+00 1.042637e+00 1.316817e+00 1.575986e+00 1.991513e+00 2.030775e+00 2.051051e+00 2.417324e+00 2.442521e+00 1.971040e+00 1.669199e+00 1.189479e+00 1.610878e-01 2.352987e-01 1.888323e-01 2.498531e-01 2.891719e-01 3.663658e-01 3.915496e-01 4.026177e-01 4.725410e-01 4.219013e-01 3.497526e-01 3.309363e-01 2.055968e-01
<GCONST> 1.046969e+02
<TRANSP> 5
 0.000000e+00 1.000000e+00 0.000000e+00 0.000000e+00 0.000000e+00
 0.000000e+00 8.492170e-01 1.507830e-01 0.000000e+00 0.000000e+00
 0.000000e+00 0.000000e+00 7.921394e-01 2.078606e-01 0.000000e+00
 0.000000e+00 0.000000e+00 0.000000e+00 9.214117e-01 7.858826e-02
 0.000000e+00 0.000000e+00 0.000000e+00 0.000000e+00 0.000000e+00
<ENDHMM>
~h "p"
<BEGINHMM>
<NUMSTATES> 5
<STATE> 2
<MEAN> 39
 -1.066255e+01 6.909538e+00 4.953482e+00 -4.914093e-02 -6.958251e-01 2.979353e-01 2.882869e+00 -1.429517e+00 5.203090e-01 3.886650e+00 -2.313999e-01 2.166500e+00 5.692497e+01 -4.616109e-01 2.560495e-01 4.460187e-02 -5.788442e-01 -1.218731e-01 -2.920287e-01 -2.357637e-01 -3.017772e-01 -3.295062e-01 -3.555745e-01 -5.013672e-01 -3.074053e-01 1.472518e+00 7.238844e-02 4.050178e-02 9.493104e-02 -1.204101e-01 -1.775809e-01 -1.017709e-02 -2.093785e-01 -1.160815e-01 -1.727385e-01 -5.729065e-02 -1.401380e-01 -8.840547e-02 -2.795375e-02
<VARIANCE> 39
 5.727803e+01 1.203743e+01 2.350887e+01 3.181819e+01 1.913490e+01 1.980120e+01 1.878996e+01 1.881239e+01 1.484751e+01 1.653547e+01 2.092481e+01 1.547693e+01 2.681714e+02 3.087225e+00 1.441605e+00 3.950092e+00 2.200990e+00 3.458423e+00 2.046261e+00 3.127694e+00 2.680034e+00 2.504076e+00 2.185702e+00 3.193772e+00 1.786999e+00 1.586704e+01 5.332960e-01 2.534243e-01 9.071696e-01 4.472959e-01 8.342487e-01 4.251674e-01 5.956296e-01 5.713071e-01 4.778489e-01 3.933816e-01 7.500036e-01 4.005008e-01 2.788565e+00
<GCONST> 1.205890e+02
<STATE> 3
<MEAN> 39
 -1.362479e+01 1.210781e+01 8.299795e+00 -1.459522e+01 -1.037812e+01 -3.624300e+00 -1.184077e+01 -8.846488e+00 -1.424070e+01 -1.728290e+00 -1.353618e+01 -5.035330e+00 6.951345e+01 2.426832e-01 -4.086997e-02 1.494229e+00 -2.173550e+00 -2.455242e+00 7.646728e-01 -3.203311e+00 -7.506790e-01 -2.503431e+00 3.588296e-01 -2.393356e+00 -1.259755e+00 6.469718e-01 -4.745334e-01 -1.726548e-01 -3.194197e-01 2.578600e-01 7.008000e-01 1.693947e-01 7.098102e-01 4.644785e-01 7.008356e-01 2.866003e-01 5.458679e-01 1.635695e-01 1.192228e-01
<VARIANCE> 39
 4.972928e+00 6.925045e+00 1.271202e+01 2.813012e+01 3.415779e+01 1.883411e+01 4.512135e+01 1.116858e+01 2.089643e+01 1.602705e+01 2.326581e+01 7.816457e+00 2.066631e+01 1.971723e+00 7.021422e-01 1.343496e+00 1.408251e+00 4.933015e+00 1.444090e+00 4.275318e+00 1.904669e+00 3.141846e+00 1.673464e+00 2.615795e+00 4.775329e-01 5.531171e-01 2.119106e-01 1.940335e-01 2.591721e-01 4.161635e-01 7.923414e-01 2.804602e-01 7.647956e-01 2.950192e-01 4.492047e-01 4.771266e-01 3.756655e-01 1.106675e-01 2.083862e-01
<GCONST> 9.944380e+01
<STATE> 4
<MEAN> 39
 -1.541400e+01 1.157972e+01 1.011258e+01 -1.829999e+01 -1.293738e+01 -1.492419e+00 -1.742370e+01 -9.056847e+00 -1.737976e+01 -3.533625e-01 -1.736681e+01 -7.766675e+00 7.106914e+01 -5.451794e-01 5.208237e-01 -1.388236e-01 -3.054709e-01 4.932446e-01 4.305678e-02 1.076842e-01 2.751845e-02 2.644010e-01 -5.548446e-01 -4.414341e-01 -6.223873e-01 4.960559e-02 1.937895e-01 3.227227e-01 -3.160374e-01 4.344002e-01 4.392675e-01 -3.286491e-01 8.757046e-01 1.458215e-02 6.234843e-01 -4.470736e-01 3.700303e-01 1.882865e-01 -3.134815e-01
<VARIANCE> 39
 6.099858e+00 5.929879e+00 3.886728e+00 1.926874e+01 1.112078e+01 1.694951e+01 1.719057e+01 3.171179e+00 4.788288e+00 7.484926e+00 6.601944e+00 6.834191e+00 1.826438e+01 6.801784e-01 2.078477e-01 1.623652e-01 3.927750e-01 5.549326e-01 4.155768e-01 6.863988e-01 5.555843e-01 6.567861e-01 8.110829e-01 6.215510e-01 6.369092e-01 2.485610e-01 9.995566e-02 6.678924e-02 7.892931e-02 6.180582e-02 2.190088e-01 2.609538e-01 1.980018e-01 1.092283e-01 9.402075e-02 1.573049e-01 1.292896e-01 8.040600e-02 1.966862e-02
<GCONST> 5.928707e+01
<TRANSP> 5
 0.000000e+00 1.000000e+00 0.000000e+00 0.000000e+00 0.000000e+00
 0.000000e+00 9.437829e-01 5.621707e-02 0.000000e+00 0.000000e+00
 0.000000e+00 0.000000e+00 7.690143e-01 2.309857e-01 0.000000e+00
 0.000000e+00 0.000000e+00 0.000000e+00 2.333147e-03 9.976668e-01
 0.000000e+00 0.000000e+00 0.000000e+00 0.000000e+00 0.000000e+00
<ENDHMM>
~h "r"
<BEGINHMM>
<NUMSTATES> 5
<STATE> 2
<MEAN> 39
 -4.455980e+00 -3.863192e+00 2.492387e+00 -3.981296e+00 -1.744678e+01 -1.661787e+01 -6.032034e+00 -7.151757e+00 -1.006557e+01 -1.638520e+00 -5.719580e+00 -5.759630e+00 6.906351e+01 -4.695767e-01 3.185085e-01 1.117854e+00 -1.367475e+00 -5.406309e-01 3.471037e-01 -2.748091e-01 -6.743820e-01 -5.347807e-02 5.226785e-01 -5.085068e-01 -4.349998e-02 2.206887e-01 -8.686417e-02 1.175275e-01 -2.834406e-02 -2.428684e-03 1.729058e-01 1.662642e-01 -1.236553e-01 8.497065e-02 8.186663e-02 -8.305606e-03 -2.113890e-02 8.015613e-02 -5.509298e-02
<VARIANCE> 39
 3.279162e+01 3.037162e+01 9.105178e+01 7.806713e+01 7.827687e+01 8.817441e+01 4.267366e+01 3.984628e+01 2.827380e+01 4.050750e+01 3.579519e+01 1.848093e+01 3.177113e+01 9.572895e-01 1.377638e+00 2.535051e+00 2.381100e+00 2.415068e+00 2.445549e+00 2.342893e+00 2.930670e+00 1.830293e+00 2.059425e+00 1.870605e+00 1.500357e+00 3.427812e-01 1.070683e-01 1.231760e-01 3.223979e-01 3.367759e-01 3.489940e-01 3.492022e-01 3.370143e-01 5.062131e-01 3.175994e-01 3.862574e-01 2.938399e-01 2.750926e-01 4.088950e-02
<GCONST> 1.095575e+02
<STATE> 3
<MEAN> 39
 -7.974162e+00 -7.101386e-01 1.141964e+01 -1.073406e+01 -1.903502e+01 -1.478046e+01 -5.493758e+00 -1.179355e+01 -9.155902e+00 2.102150e+00 -9.680390e+00 -5.139161e+00 6.871659e+01 1.335787e-01 2.135702e-01 -5.160627e-01 -2.085697e-01 6.830003e-01 1.300856e-01 -6.012818e-01 2.128696e-01 4.695558e-01 -5.206433e-02 -4.313613e-02 7.390581e-02 -1.780657e-01 5.827117e-02 -7.981248e-03 -1.717901e-01 1.528684e-01 5.220077e-02 -4.537664e-02 4.430595e-02 1.316581e-01 -8.325173e-02 -1.653987e-02 1.140149e-01 -1.022682e-02 -2.216863e-02
<VARIANCE> 39
 2.402298e+01 2.055282e+01 6.932298e+01 5.789130e+01 4.360350e+01 5.949407e+01 4.606836e+01 4.217371e+01 3.840056e+01 2.912867e+01 2.763079e+01 1.688419e+01 1.897462e+01 7.354024e-01 1.187219e+00 1.989339e+00 2.027562e+00 1.694618e+00 2.090856e+00 2.023256e+00 2.295521e+00 2.078401e+00 2.162272e+00 1.991472e+00 1.200556e+00 1.732285e-01 5.651190e-02 9.590334e-02 1.427238e-01 2.499281e-01 2.426399e-01 2.490519e-01 2.524721e-01 3.829987e-01 3.995732e-01 3.645342e-01 3.120073e-01 2.122488e-01 2.240263e-02
<GCONST> 1.002652e+02
<STATE> 4
<MEAN> 39
 -6.256368e+00 3.929092e+00 4.958020e+00 -1.335287e+01 -1.209670e+01 -9.452871e+00 -9.689487e+00 -9.653173e+00 -6.635498e+00 8.499399e-01 -9.619524e+00 -3.777194e+00 6.543132e+01 -5.890646e-02 6.982627e-01 -2.196836e-01 -2.497617e-01 7.568971e-01 4.571832e-01 -4.487055e-01 1.472080e-01 -3.000415e-01 1.311408e-01 3.122083e-02 2.027100e-01 -4.423138e-01 6.262064e-02 -1.138598e-01 4.454934e-02 8.244288e-02 -8.433124e-02 -9.058921e-02 1.847973e-01 4.949988e-02 -1.060062e-01 -3.183849e-02 9.338946e-02 -4.370350e-02 -1.528583e-02
<VARIANCE> 39
 4.112831e+01 3.251365e+01 1.074362e+02 8.964778e+01 7.992288e+01 6.083533e+01 4.104683e+01 3.172784e+01 3.744309e+01 4.586435e+01 4.943179e+01 2.173847e+01 6.196489e+01 2.853184e-01 5.607673e-01 6.979336e-01 9.719950e-01 7.749015e-01 9.968683e-01 1.296563e+00 1.203797e+00 1.210151e+00 1.430465e+00 1.378002e+00 9.526064e-01 3.179716e-01 4.681310e-02 7.476006e-02 8.269656e-02 1.502836e-01 1.471119e-01 1.738595e-01 1.675874e-01 1.837161e-01 2.043339e-01 2.261642e-01 2.453356e-01 1.654240e-01 2.782242e-02
<GCONST> 9.285536e+01
<TRANSP> 5
 0.000000e+00 1.000000e+00 0.000000e+00 0.000000e+00 0.000000e+00
 0.000000e+00 7.282125e-01 2.717875e-01 0.000000e+00 0.000000e+00
 0.000000e+00 0.000000e+00 8.556289e-01 1.443711e-01 0.000000e+00
 0.000000e+00 0.000000e+00 0.000000e+00 5.885122e-01 4.114878e-01
 0.000000e+00 0.000000e+00 0.000000e+00 0.000000e+00 0.000000e+00
<ENDHMM>
~h "s"
<BEGINHMM>
<NUMSTATES> 5
<STATE> 2
<MEAN> 39
 -9.273162e+00 3.613574e+00 1.739462e+00 4.012445e+00 -2.173233e+00 -9.663346e-01 4.579148e+00 7.618563e-01 -1.135359e+00 2.585586e+00 3.665736e+00 4.160526e+00 4.389927e+01 -2.058068e-01 1.486454e-02 -1.788325e-01 6.794141e-02 -8.050838e-02 5.693913e-02 1.889986e-01 3.295808e-02 1.825278e-02 2.053030e-02 3.664098e-02 -1.349025e-02 2.052581e-01 -7.130548e-02 1.205586e-02 -4.295512e-02 3.392093e-03 -1.675058e-02 -8.570135e-03 -1.319144e-02 -1.435796e-02 -1.266040e-02 -1.166756e-02 -2.906478e-02 -1.515230e-02 8.644046e-02
<VARIANCE> 39
 2.951097e+01 1.650884e+01 2.109003e+01 1.383466e+01 2.037136e+01 2.320150e+01 2.813975e+01 2.252696e+01 2.097029e+01 1.939025e+01 1.715038e+01 1.539317e+01 5.072097e+01 1.922908e+00 1.326694e+00 1.318002e+00 1.194954e+00 1.601361e+00 1.905793e+00 2.415859e+00 1.705672e+00 1.860800e+00 1.832355e+00 1.531546e+00 1.374219e+00 2.167213e+00 3.032137e-01 2.375739e-01 2.206262e-01 2.324860e-01 2.907809e-01 3.556309e-01 4.319979e-01 3.367963e-01 3.608037e-01 3.604574e-01 3.067830e-01 2.751117e-01 2.380043e-01
<GCONST> 1.025841e+02
<STATE> 3
<MEAN> 39
 -1.972938e+01 4.041286e+00 -6.993681e+00 6.438951e+00 -7.189968e+00 2.020984e-01 5.667686e+00 9.476371e-01 -3.080917e+00 2.489671e+00 1.819918e+00 2.676966e+00 5.816084e+01 -2.335348e-01 4.966862e-03 -1.422826e-01 4.393680e-02 -3.551787e-02 4.962361e-02 -1.070501e-01 7.317469e-03 -1.025915e-01 2.580147e-02 -1.067411e-01 -7.878435e-02 4.060032e-01 2.542752e-01 -1.988792e-02 1.813563e-01 -1.196641e-01 -1.955269e-02 -1.038188e-01 -5.061167e-02 -6.090036e-02 -4.219992e-02 -3.592325e-02 -5.395365e-02 -4.256125e-02 -5.822169e-02
<VARIANCE> 39
 2.677474e+01 9.029278e+00 2.024980e+01 1.448034e+01 1.790319e+01 2.079413e+01 2.109600e+01 1.978546e+01 1.823709e+01 1.792114e+01 1.693990e+01 1.394309e+01 3.458970e+01 1.759398e+00 7.841010e-01 1.607337e+00 1.272110e+00 1.414827e+00 1.598262e+00 1.817643e+00 1.708827e+00 1.705908e+00 1.660932e+00 1.646260e+00 1.358857e+00 1.195026e+00 1.992949e-01 1.754355e-01 2.221624e-01 2.794414e-01 3.065725e-01 3.394699e-01 3.784033e-01 3.833529e-01 3.681820e-01 3.355729e-01 3.598682e-01 2.775846e-01 1.563571e-01
<GCONST> 9.803208e+01
<STATE> 4
<MEAN> 39
 -1.163259e+01 3.956559e+00 -1.030733e+00 1.509094e+00 -7.098813e+00 -3.332199e+00 3.049400e+00 -1.063479e+00 -4.228098e+00 1.082154e+00 -7.484875e-01 1.017185e+00 5.702943e+01 1.775198e+00 -4.026076e-01 9.408578e-01 -1.929139e+00 -1.284726e+00 -1.464185e+00 -8.827002e-01 -8.222560e-01 -8.718426e-01 -5.599725e-01 -1.239949e+00 -5.645344e-01 1.289319e+00 4.729822e-02 -2.467984e-01 -8.778520e-03 -3.837949e-01 -2.322429e-01 -4.895768e-02 -1.777975e-01 -8.311051e-02 -8.807722e-02 -1.483312e-02 -1.737664e-01 3.980752e-02 1.985027e-01
<VARIANCE> 39
 5.347549e+01 2.409953e+01 3.479313e+01 6.271894e+01 6.745230e+01 5.771360e+01 3.871169e+01 3.839367e+01 3.852607e+01 2.975201e+01 3.381065e+01 2.039163e+01 1.278990e+02 5.160774e+00 3.182153e+00 2.876820e+00 5.646410e+00 4.208672e+00 5.951386e+00 3.977384e+00 3.619451e+00 3.466499e+00 3.037368e+00 3.293278e+00 1.778150e+00 3.601376e+00 8.030131e-01 5.455287e-01 4.885842e-01 7.903956e-01 9.280176e-01 1.090226e+00 7.949445e-01 6.490099e-01 6.335354e-01 4.699666e-01 5.351185e-01 3.339512e-01 5.243180e-01
<GCONST> 1.313998e+02
<TRANSP> 5
 0.000000e+00 1.000000e+00 0.000000e+00 0.000000e+00 0.000000e+00
 0.000000e+00 9.295810e-01 7.041895e-02 0.000000e+00 0.000000e+00
 0.000000e+00 0.000000e+00 9.048418e-01 9.515815e-02 0.000000e+00
 0.000000e+00 0.000000e+00 0.000000e+00 6.940348e-01 3.059652e-01
 0.000000e+00 0.000000e+00 0.000000e+00 0.000000e+00 0.000000e+00
<ENDHMM>
~h "t"
<BEGINHMM>
<NUMSTATES> 5
<STATE> 2
<MEAN> 39
 -8.379401e+00 4.823834e+00 3.485983e+00 1.837393e+00 -1.319482e+00 -4.510572e-01 2.688434e+00 -3.015974e-01 -1.694801e-01 4.203845e+00 3.956712e+00 3.724126e+00 4.255718e+01 -1.672455e-01 -5.249200e-02 -7.856712e-02 5.446981e-02 5.035776e-02 4.951810e-02 1.666443e-01 9.527583e-02 -4.201472e-03 1.942474e-02 3.037737e-02 -7.751487e-03 1.937446e-01 -7.699990e-02 -8.212663e-03 1.192057e-02 -5.678728e-02 -4.638471e-02 -6.560310e-03 9.169834e-03 -2.334849e-02 -4.255552e-02 -2.468777e-02 -5.288192e-02 -3.892226e-02 2.136066e-01
<VARIANCE> 39
 2.066952e+01 1.587702e+01 1.508957e+01 2.088234e+01 1.811068e+01 2.463428e+01 3.060616e+01 2.097582e+01 2.314932e+01 1.873024e+01 1.951488e+01 1.888186e+01 5.366352e+01 1.985010e+00 1.274498e+00 1.601859e+00 1.566645e+00 1.489051e+00 1.964495e+00 2.713813e+00 1.637172e+00 2.001659e+00 1.789672e+00 1.724911e+00 1.675561e+00 4.379683e+00 3.598281e-01 2.465006e-01 2.837293e-01 3.037489e-01 2.931166e-01 4.006522e-01 4.765651e-01 3.321762e-01 4.029922e-01 3.427539e-01 3.387828e-01 3.365223e-01 8.035437e-01
<GCONST> 1.067517e+02
<STATE> 3
<MEAN> 39
 -1.742716e+01 4.592459e+00 3.262086e+00 -1.989786e+00 -6.389816e+00 1.295637e+00 4.716214e+00 -1.124098e+00 -1.996902e+00 4.388888e+00 5.154337e-01 1.218310e+00 6.359521e+01 -1.036163e+00 8.750530e-02 2.363979e-01 1.357762e-02 -8.365480e-01 -3.316492e-01 9.077113e-01 -2.646683e-01 -7.266051e-01 -6.441563e-03 -2.539301e-01 -4.943188e-01 2.532306e+00 4.328111e-01 2.899285e-02 1.253748e-01 1.679499e-01 -1.988607e-02 -2.212723e-01 -1.268481e-01 -6.959753e-02 -6.218634e-02 -1.097605e-01 3.599731e-02 1.903144e-02 -7.293764e-01
<VARIANCE> 39
 3.755164e+01 2.653221e+01 3.136752e+01 3.904052e+01 3.799121e+01 3.256060e+01 3.739118e+01 2.524252e+01 2.510350e+01 2.192713e+01 2.368873e+01 1.931621e+01 1.542047e+02 4.543070e+00 3.148852e+00 2.879485e+00 4.425978e+00 3.369262e+00 3.120500e+00 4.146399e+00 2.466003e+00 2.665066e+00 2.451163e+00 2.660238e+00 2.289527e+00 1.739486e+01 5.641075e-01 6.254654e-01 5.067878e-01 6.160629e-01 5.090862e-01 5.587543e-01 7.658591e-01 4.762288e-01 5.250282e-01 5.089462e-01 4.771700e-01 4.377064e-01 2.050127e+00
<GCONST> 1.269205e+02
<STATE> 4
<MEAN> 39
 -1.238521e+01 4.755781e+00 6.081265e+00 1.222621e+00 -1.098591e+01 -6.223744e+00 4.539382e+00 -4.687500e+00 -6.918444e+00 3.852616e-01 -8.440878e-01 -1.025831e+00 6.270755e+01 1.489550e+00 -2.804211e-01 2.692553e-01 -8.516243e-01 -9.875520e-01 -1.622068e+00 -1.373330e+00 -1.020467e+00 -1.022010e+00 -7.471013e-01 -5.573857e-01 -6.266001e-01 -1.986503e-01 1.614856e-02 -9.193078e-02 -9.149472e-02 -3.101399e-01 3.121131e-02 1.593602e-01 -2.555858e-01 1.946521e-02 7.118072e-02 1.421432e-01 -2.724243e-02 4.864687e-02 6.021598e-02
<VARIANCE> 39
 4.867105e+01 2.349025e+01 3.574359e+01 6.810201e+01 8.221641e+01 5.402979e+01 7.023708e+01 4.803155e+01 4.884843e+01 3.289272e+01 3.436345e+01 2.934702e+01 1.420180e+02 2.892466e+00 2.214504e+00 2.024853e+00 5.037564e+00 3.212748e+00 4.999518e+00 6.216693e+00 3.779852e+00 3.664057e+00 2.946941e+00 2.421567e+00 2.261192e+00 2.992811e+00 5.604514e-01 4.328292e-01 3.191604e-01 8.006479e-01 6.472647e-01 7.407348e-01 1.049421e+00 7.075797e-01 6.251475e-01 5.426255e-01 4.356767e-01 4.298371e-01 3.941082e-01
<GCONST> 1.300807e+02
<TRANSP> 5
 0.000000e+00 1.000000e+00 0.000000e+00 0.000000e+00 0.000000e+00
 0.000000e+00 9.487003e-01 5.129968e-02 0.000000e+00 0.000000e+00
 0.000000e+00 0.000000e+00 8.458231e-01 1.541769e-01 0.000000e+00
 0.000000e+00 0.000000e+00 0.000000e+00 8.020808e-01 1.979192e-01
 0.000000e+00 0.000000e+00 0.000000e+00 0.000000e+00 0.000000e+00
<ENDHMM>
~h "v"
<BEGINHMM>
<NUMSTATES> 5
<STATE> 2
<MEAN> 39
 -5.034437e+00 4.841789e-01 2.459327e+00 -9.241825e+00 -1.324204e+01 -9.328776e+00 -4.060486e+00 -1.107377e+01 -6.742619e+00 -2.160397e+00 -1.066917e+01 -3.876774e+00 6.479993e+01 1.031968e-01 7.222316e-01 -3.433179e-01 1.767566e+00 8.613800e-01 1.303856e-01 -4.724535e-01 2.470773e-01 -6.815711e-02 2.418374e-01 4.935102e-01 9.546499e-02 -1.280185e+00 -1.386588e-01 1.589391e-02 -2.265484e-01 7.190228e-02 2.245755e-01 2.230414e-01 9.040069e-02 3.150963e-01 8.784544e-02 -1.601329e-01 1.590045e-01 5.102226e-02 -2.341849e-02
<VARIANCE> 39
 1.816150e+01 2.546602e+01 7.087920e+01 5.227363e+01 5.998554e+01 3.627115e+01 3.366604e+01 4.638924e+01 4.050201e+01 4.106061e+01 3.307464e+01 2.378281e+01 4.953413e+01 1.008600e+00 1.436547e+00 1.911552e+00 5.086594e+00 2.097172e+00 2.673810e+00 2.582808e+00 3.696198e+00 2.273713e+00 3.271464e+00 2.398489e+00 1.421115e+00 1.525233e+00 1.480508e-01 1.888705e-01 2.591295e-01 5.498648e-01 3.827516e-01 5.053756e-01 4.341792e-01 4.930463e-01 5.513082e-01 4.893207e-01 4.158399e-01 3.042826e-01 1.687715e-01
<GCONST> 1.154711e+02
<STATE> 3
<MEAN> 39
 -5.911296e+00 3.559967e+00 -9.317389e-01 -1.822043e+00 -8.091766e+00 -6.454569e+00 -5.734013e+00 -7.316592e+00 -5.455031e+00 -2.754030e+00 -8.803326e+00 -3.074468e+00 5.966396e+01 -3.913481e-01 -2.685001e-02 -4.069391e-01 1.741344e-02 5.367339e-01 3.492842e-01 1.646506e-01 8.745349e-01 6.630250e-01 2.963398e-01 2.477544e-01 5.784100e-01 -2.793779e-01 1.456556e-02 -2.689421e-01 1.012613e-01 -5.335029e-01 -2.124207e-01 -1.362243e-01 2.593360e-01 8.235067e-02 7.150277e-02 5.297872e-02 -5.921732e-02 1.562953e-01 2.386196e-01
<VARIANCE> 39
 1.512440e+01 1.566637e+01 3.290215e+01 4.093577e+01 3.216109e+01 2.916593e+01 2.762458e+01 2.268274e+01 2.529399e+01 2.431881e+01 2.558177e+01 1.987877e+01 5.586765e+01 1.105632e+00 1.630933e+00 1.956359e+00 4.805307e+00 2.421546e+00 3.406135e+00 2.240118e+00 2.898567e+00 2.363361e+00 2.499959e+00 2.447232e+00 1.781936e+00 2.826154e+00 2.071395e-01 2.381268e-01 2.744862e-01 5.710582e-01 3.024658e-01 4.829352e-01 3.855152e-01 5.150783e-01 4.033455e-01 5.628659e-01 3.940217e-01 2.856951e-01 1.878163e-01
<GCONST> 1.116682e+02
<STATE> 4
<MEAN> 39
 -6.830412e+00 3.491532e+00 1.014762e+00 2.139485e+00 -2.953610e+00 -1.182114e+00 7.738757e-02 -2.528955e+00 -7.774750e-01 2.425307e+00 2.241184e-01 2.255876e+00 4.708916e+01 -1.391816e-02 -4.399537e-02 1.401745e-01 -1.257991e-01 3.662218e-02 -2.628756e-02 1.362490e-02 1.216976e-01 6.440035e-02 1.822459e-02 1.052078e-01 8.157309e-02 2.511061e-02 4.175133e-04 1.673024e-02 3.094413e-02 -2.399739e-02 -3.765265e-02 -3.005909e-02 -3.336332e-02 -2.663747e-02 -6.416088e-02 -7.508224e-02 -4.759374e-02 -5.016185e-02 4.531676e-02
<VARIANCE> 39
 1.773791e+01 2.271995e+01 2.223895e+01 3.333601e+01 3.185271e+01 2.976052e+01 2.413451e+01 3.217945e+01 2.630960e+01 2.532089e+01 3.055375e+01 1.794801e+01 8.219067e+01 1.613101e+00 1.335364e+00 1.516096e+00 2.461534e+00 1.976751e+00 2.051979e+00 2.192032e+00 2.366592e+00 2.047137e+00 2.301553e+00 1.956569e+00 1.556440e+00 2.257367e+00 3.014700e-01 2.480906e-01 2.730236e-01 4.211022e-01 3.354711e-01 3.830892e-01 4.100878e-01 4.304812e-01 3.954962e-01 4.439009e-01 3.647231e-01 3.106282e-01 3.176221e-01
<GCONST> 1.100136e+02
<TRANSP> 5
 0.000000e+00 1.000000e+00 0.000000e+00 0.000000e+00 0.000000e+00
 0.000000e+00 7.338914e-01 2.661086e-01 0.000000e+00 0.000000e+00
 0.000000e+00 0.000000e+00 7.385005e-01 2.614995e-01 0.000000e+00
 0.000000e+00 0.000000e+00 0.000000e+00 9.306116e-01 6.938842e-02
 0.000000e+00 0.000000e+00 0.000000e+00 0.000000e+00 0.000000e+00
<ENDHMM>
~h "w"
<BEGINHMM>
<NUMSTATES> 5
<STATE> 2
<MEAN> 39
 -1.166629e+00 9.234500e+00 -1.638107e-01 -1.996824e+00 -4.409930e+00 -3.334790e+00 -2.005896e+00 -4.224524e+00 -2.855486e+00 -4.288206e-01 -3.580503e+00 2.157522e-01 4.533184e+01 1.153807e+00 4.493509e-01 -4.285437e-01 -1.644523e+00 -9.351846e-01 -1.164523e+00 -6.117346e-01 -4.014690e-01 -6.696101e-01 -4.132917e-01 -1.156713e+00 -5.595554e-01 1.340667e+00 -8.893175e-02 -9.709623e-02 -1.211256e-01 -1.574881e-01 -3.637534e-02 3.286581e-02 9.999332e-02 1.812187e-01 3.343381e-02 3.980016e-02 9.105062e-02 4.246995e-02 2.116663e-01
<VARIANCE> 39
 5.999207e+01 2.037741e+01 2.020432e+01 8.276389e+01 3.788409e+01 4.733969e+01 2.777753e+01 2.949769e+01 2.862998e+01 3.202878e+01 5.618994e+01 2.575936e+01 3.857255e+01 3.506115e+00 1.718332e+00 2.035304e+00 5.398753e+00 3.683664e+00 3.697432e+00 2.807496e+00 3.387422e+00 2.448025e+00 3.141510e+00 4.180917e+00 2.660837e+00 2.841685e+00 6.989578e-01 3.675275e-01 3.679271e-01 9.872388e-01 7.187737e-01 5.863504e-01 4.782931e-01 6.227257e-01 4.922523e-01 6.131295e-01 7.713342e-01 5.019162e-01 3.495878e-01
<GCONST> 1.250645e+02
<STATE> 3
<MEAN> 39
 1.848072e+00 2.867666e+00 -9.645921e+00 -1.845680e+01 -1.086958e+01 -5.849421e+00 -3.430424e+00 -3.958898e+00 -7.703205e+00 -5.637355e+00 -7.986692e+00 -5.648447e+00 6.808776e+01 -6.921086e-01 -1.593555e+00 -9.268044e-01 -3.758088e-01 5.598041e-01 1.021674e+00 2.655545e-01 -2.290974e-01 1.366331e-01 -4.266089e-01 3.417358e-03 -5.079700e-01 1.743135e+00 -1.138199e-02 -6.109909e-02 9.702666e-02 2.543637e-01 2.233216e-01 5.506379e-02 -2.981510e-02 -7.316133e-02 6.603753e-02 -4.239122e-02 -8.584769e-02 6.312703e-02 -2.271709e-01
<VARIANCE> 39
 1.711446e+01 8.048121e+01 2.790135e+01 3.568641e+01 3.039724e+01 5.987136e+01 2.740391e+01 2.403823e+01 1.654772e+01 2.124384e+01 2.264824e+01 2.609402e+01 8.975757e+01 5.695183e-01 3.042307e+00 1.092703e+00 2.924613e+00 3.644194e+00 3.059145e+00 2.265611e+00 2.725751e+00 1.885993e+00 2.342596e+00 2.975760e+00 2.194251e+00 1.795893e+00 1.358386e-01 5.460530e-01 1.884889e-01 4.747574e-01 5.515079e-01 6.368011e-01 4.542083e-01 5.084697e-01 3.794176e-01 5.071716e-01 5.593942e-01 5.021567e-01 1.669198e-01
<GCONST> 1.142026e+02
<STATE> 4
<MEAN> 39
 -2.416137e+00 -4.185746e+00 -4.313858e+00 -9.358125e+00 -1.525222e+00 -9.342947e+00 -4.670649e+00 -3.470797e+00 -1.427807e+01 -1.586313e+01 -1.583360e+01 -3.580395e+00 6.847418e+01 5.339015e-02 4.248380e-01 6.614167e-01 5.380594e-01 9.825246e-02 -5.179142e-01 -1.131187e-01 4.460015e-02 -4.596987e-01 -2.694111e-01 -1.553272e-01 2.269606e-01 -6.630206e-01 1.929981e-02 5.195655e-02 3.640631e-03 6.420895e-03 -5.372086e-02 1.674561e-02 1.340549e-02 -1.868381e-02 6.212222e-03 4.706359e-02 6.914537e-02 -7.646276e-03 -6.271009e-02
<VARIANCE> 39
 5.014915e+00 5.343291e+01 6.405846e+01 2.726169e+01 2.191908e+01 6.632743e+01 2.480955e+01 3.090866e+01 4.826680e+01 2.486153e+01 1.883617e+01 2.260726e+01 4.771187e+01 2.936984e-01 9.430291e-01 6.723878e-01 9.965681e-01 1.345445e+00 1.562305e+00 1.304055e+00 1.662984e+00 1.322681e+00 1.634881e+00 1.201698e+00 1.241164e+00 3.987780e-01 4.591174e-02 1.011363e-01 1.045780e-01 1.689028e-01 2.103328e-01 2.211185e-01 2.372426e-01 2.506220e-01 2.361412e-01 2.527835e-01 2.086381e-01 1.943323e-01 4.340975e-02
<GCONST> 9.129114e+01
<TRANSP> 5
 0.000000e+00 1.000000e+00 0.000000e+00 0.000000e+00 0.000000e+00
 0.000000e+00 8.920180e-01 1.079820e-01 0.000000e+00 0.000000e+00
 0.000000e+00 0.000000e+00 9.066894e-01 9.331059e-02 0.000000e+00
 0.000000e+00 0.000000e+00 0.000000e+00 9.578595e-01 4.214048e-02
 0.000000e+00 0.000000e+00 0.000000e+00 0.000000e+00 0.000000e+00
<ENDHMM>
~h "y"
<BEGINHMM>
<NUMSTATES> 5
<STATE> 2
<MEAN> 39
 -1.276743e+01 6.641483e+00 1.476336e+01 -1.223575e+01 -1.656879e+01 -1.810578e+00 -6.706664e+00 -1.451583e+01 -9.435733e+00 -7.850993e-01 -1.439629e+01 -5.588924e+00 6.819417e+01 6.889498e-02 -1.437230e-01 3.240985e-01 -8.262981e-02 -8.227550e-01 -3.588021e-01 -1.578128e-01 -5.313677e-01 -7.596285e-01 9.836204e-02 -4.694138e-01 -4.977293e-01 5.582406e-01 2.241865e-02 -4.949944e-02 -1.278745e-01 1.703320e-01 7.671942e-02 -8.235036e-02 1.262044e-01 1.504267e-01 1.327305e-02 6.922034e-04 1.817783e-01 9.533957e-02 -5.395498e-02
<VARIANCE> 39
 1.222065e+01 1.259907e+01 1.959952e+01 2.790297e+01 5.450250e+01 2.364325e+01 3.138036e+01 3.242445e+01 4.243260e+01 3.317651e+01 4.514241e+01 3.027383e+01 5.203428e+01 9.671068e-01 7.950414e-01 1.259948e+00 2.357378e+00 2.148682e+00 1.330660e+00 2.431633e+00 1.667141e+00 1.895414e+00 1.869862e+00 2.494642e+00 1.278883e+00 1.655027e+00 1.439928e-01 1.262267e-01 1.628857e-01 2.220086e-01 3.346509e-01 1.995999e-01 3.141567e-01 2.441113e-01 3.154298e-01 3.298364e-01 2.948764e-01 2.075500e-01 1.397767e-01
<GCONST> 1.021059e+02
<STATE> 3
<MEAN> 39
 -8.167474e+00 4.799323e+00 8.844169e+00 -3.381764e+00 -1.580758e+01 -1.415416e+01 -5.870716e+00 -1.241187e+01 -1.138459e+01 8.436288e-01 -1.073090e+01 -7.411436e-01 6.888788e+01 5.680609e-01 1.293756e-01 -1.114978e+00 2.859926e-01 1.135553e+00 -4.647408e-01 -4.996973e-01 2.556253e-01 7.640327e-01 2.124345e-02 2.846218e-01 3.866507e-01 -3.412284e-01 4.241991e-02 3.500599e-02 -4.453882e-02 -9.825737e-02 9.830956e-02 1.405656e-01 -7.699903e-03 -1.360113e-01 4.665740e-02 3.709507e-02 1.213678e-02 -4.185451e-02 -4.181803e-02
<VARIANCE> 39
 1.296976e+01 1.068228e+01 6.158572e+01 2.962311e+01 5.449901e+01 4.066090e+01 4.501963e+01 4.095622e+01 4.971437e+01 2.482265e+01 1.935722e+01 2.994083e+01 1.349983e+01 2.336362e-01 2.675141e-01 6.422011e-01 1.049740e+00 1.319200e+00 2.047842e+00 1.494095e+00 2.835764e+00 2.600804e+00 1.824972e+00 1.721823e+00 1.916028e+00 1.486344e-01 2.710829e-02 3.036860e-02 6.168097e-02 8.501153e-02 1.233043e-01 1.627484e-01 2.166334e-01 2.822752e-01 3.936139e-01 2.634318e-01 2.930517e-01 2.859524e-01 1.633614e-02
<GCONST> 8.762284e+01
<STATE> 4
<MEAN> 39
 1.320173e+00 9.899183e+00 -4.330150e+00 -7.109526e+00 -2.359233e-01 -7.323176e+00 -3.274297e+00 -1.928473e+01 -5.781661e+00 9.510013e-02 -3.446527e+00 1.315020e+00 5.845876e+01 4.271982e-01 2.779489e-01 1.895254e-01 9.827666e-02 1.475356e-01 7.070985e-01 8.167825e-01 4.521251e-02 -4.089814e-01 -6.015467e-01 2.530932e-01 1.878862e-01 -1.095883e+00 -9.615645e-02 -6.764136e-02 1.411297e-01 1.396765e-01 -1.025498e-01 -5.927117e-02 -7.415491e-02 2.066333e-01 2.021778e-02 -7.912788e-02 -1.317230e-01 -7.757029e-03 -2.028496e-02
<VARIANCE> 39
 1.344460e+01 1.265937e+01 2.751077e+01 3.778152e+01 2.468656e+01 3.911118e+01 6.308245e+01 4.076327e+01 2.715539e+01 3.207090e+01 2.215312e+01 1.903942e+01 3.961695e+01 4.478788e-01 5.238149e-01 1.114472e+00 1.696322e+00 1.866846e+00 1.262515e+00 2.091640e+00 2.843623e+00 1.577047e+00 1.566721e+00 1.876405e+00 1.373067e+00 4.031273e-01 6.248390e-02 7.106780e-02 1.169572e-01 1.817187e-01 3.138004e-01 2.179040e-01 2.894798e-01 3.793474e-01 2.656478e-01 2.709058e-01 2.515904e-01 2.461067e-01 5.306148e-02
<GCONST> 9.523887e+01
<TRANSP> 5
 0.000000e+00 1.000000e+00 0.000000e+00 0.000000e+00 0.000000e+00
 0.000000e+00 9.305656e-01 6.943443e-02 0.000000e+00 0.000000e+00
 0.000000e+00 0.000000e+00 9.313139e-01 6.868610e-02 0.000000e+00
 0.000000e+00 0.000000e+00 0.000000e+00 9.024156e-01 9.758437e-02
 0.000000e+00 0.000000e+00 0.000000e+00 0.000000e+00 0.000000e+00
<ENDHMM>
~h "z"
<BEGINHMM>
<NUMSTATES> 5
<STATE> 2
<MEAN> 39
 -4.081341e+00 7.657803e+00 3.803193e+00 2.645863e+00 -4.750582e+00 -9.383533e+00 4.186026e-01 -9.142654e-01 -6.555529e+00 -1.492437e+00 -3.563294e+00 3.518368e+00 4.513047e+01 3.167996e-01 9.405991e-02 -1.032128e-01 -5.423203e-03 -7.289519e-01 -1.188326e+00 -8.546583e-03 3.313356e-02 -9.310648e-01 -7.812151e-01 -1.214116e+00 -1.826941e-01 1.305636e+00 -1.484159e-01 3.076592e-03 -1.202683e-01 7.475238e-02 2.025174e-02 1.858795e-01 6.353059e-02 6.489366e-02 1.527413e-01 4.667593e-02 1.225900e-01 1.712538e-02 5.256325e-02
<VARIANCE> 39
 1.978748e+01 1.057719e+01 1.308860e+01 1.885431e+01 3.689687e+01 8.181059e+01 3.090151e+01 2.760929e+01 5.940158e+01 4.211629e+01 8.007548e+01 2.542317e+01 4.614631e+01 2.026572e+00 1.001105e+00 1.425657e+00 1.565575e+00 2.897595e+00 5.206135e+00 2.938607e+00 2.346626e+00 3.805996e+00 2.870379e+00 4.800694e+00 2.079865e+00 2.031797e+00 3.651623e-01 1.956959e-01 2.253081e-01 3.250686e-01 5.783384e-01 9.350294e-01 5.749188e-01 4.369603e-01 6.785889e-01 5.314729e-01 8.150205e-01 4.049177e-01 2.847095e-01
<GCONST> 1.174885e+02
<STATE> 3
<MEAN> 39
 -8.591096e+00 9.145302e+00 1.884482e-01 6.530269e+00 -1.213214e+01 -1.097089e+01 4.145251e-02 -1.732357e+00 -1.025267e+01 -4.285584e+00 -7.822922e+00 5.155599e-01 5.992687e+01 -9.589405e-01 -1.274626e-02 1.121720e-01 1.979959e-01 -5.339462e-01 6.108779e-01 -1.775760e-01 -5.686687e-01 1.508786e-02 4.646522e-01 3.874594e-01 -4.757753e-01 9.642049e-01 6.074642e-02 -9.060501e-02 1.896103e-01 -2.068981e-01 -8.404443e-03 -7.210657e-03 -3.815981e-02 -1.206583e-01 -7.121147e-02 1.108474e-01 -8.917113e-02 -5.418677e-02 -4.179415e-02
<VARIANCE> 39
 2.236824e+01 1.045491e+01 1.927759e+01 2.659549e+01 2.199883e+01 2.666645e+01 1.530025e+01 2.324673e+01 2.124562e+01 1.769322e+01 2.789065e+01 1.680701e+01 2.409694e+01 1.087602e+00 1.034158e+00 2.104522e+00 3.259702e+00 1.842468e+00 1.763085e+00 1.637943e+00 1.888237e+00 2.017620e+00 1.133298e+00 2.818909e+00 1.199394e+00 4.752718e-01 1.646761e-01 2.012871e-01 2.201726e-01 3.091036e-01 3.452395e-01 3.106754e-01 3.816778e-01 2.967637e-01 3.773324e-01 2.241610e-01 4.264660e-01 2.149018e-01 8.660846e-02
<GCONST> 9.872250e+01
<STATE> 4
<MEAN> 39
 -1.047872e+01 6.306262e+00 4.456247e+00 -2.421128e+00 -1.560353e+01 -8.480553e+00 -1.793506e+00 -8.258750e+00 -1.065821e+01 -3.715909e-02 -1.001118e+01 -3.411134e+00 6.592751e+01 -3.898814e-01 -3.254985e-01 5.825244e-01 -1.254397e+00 -6.306740e-01 5.654888e-01 -6.862993e-01 -7.091384e-01 1.909305e-01 4.617493e-01 -5.969188e-01 -3.737689e-01 6.742517e-01 9.253588e-02 -1.607878e-02 -1.272385e-02 -5.828056e-02 2.700570e-02 3.999120e-02 -2.444578e-03 2.481170e-01 1.988813e-01 -2.347995e-01 6.768627e-02 8.308180e-02 -8.584097e-02
<VARIANCE> 39
 3.300549e+01 2.165149e+01 6.068768e+01 1.482227e+02 5.628344e+01 3.369451e+01 3.039546e+01 5.074847e+01 3.592897e+01 2.243205e+01 3.584348e+01 1.274747e+01 7.720972e+01 8.519130e-01 1.119167e+00 1.308821e+00 3.382600e+00 1.504074e+00 2.392866e+00 2.485237e+00 2.710407e+00 2.451140e+00 1.574303e+00 2.190170e+00 1.259450e+00 4.557080e-01 1.709678e-01 1.902628e-01 3.116115e-01 3.366347e-01 4.490889e-01 4.478358e-01 2.296592e-01 6.754044e-01 5.226889e-01 2.686100e-01 3.694255e-01 2.713753e-01 9.918632e-02
<GCONST> 1.098908e+02
<TRANSP> 5
 0.000000e+00 1.000000e+00 0.000000e+00 0.000000e+00 0.000000e+00
 0.000000e+00 9.027810e-01 9.721901e-02 0.000000e+00 0.000000e+00
 0.000000e+00 0.000000e+00 8.849612e-01 1.150388e-01 0.000000e+00
 0.000000e+00 0.000000e+00 0.000000e+00 4.000363e-01 5.999637e-01
 0.000000e+00 0.000000e+00 0.000000e+00 0.000000e+00 0.000000e+00
<ENDHMM>
~h "aa"
<BEGINHMM>
<NUMSTATES> 5
<STATE> 2
<MEAN> 39
 -5.683082e+00 -3.048474e+00 -3.094396e+00 -3.202110e+00 -1.807768e-01 5.610390e+00 3.384910e-01 -5.375628e+00 -3.585449e+00 2.651155e+00 9.704274e-02 6.335104e-01 5.132485e+01 3.831552e-01 -1.902310e+00 -1.633649e+00 -1.282398e+00 -6.447323e-02 6.991397e-01 -4.398820e-01 -1.454383e+00 -1.301687e+00 -6.954091e-01 -8.007954e-01 -8.940048e-01 3.236001e+00 -5.051005e-02 6.341333e-02 -3.130309e-03 5.003626e-02 -1.064952e-01 -1.051914e-01 -1.089061e-01 -7.327184e-03 -2.863744e-02 -1.448674e-01 -8.316676e-02 -1.164028e-01 1.274418e-01
<VARIANCE> 39
 1.339443e+01 1.093557e+02 6.723174e+01 4.836391e+01 2.578213e+01 4.375784e+01 2.401345e+01 5.356918e+01 3.933067e+01 2.824124e+01 2.559959e+01 2.810802e+01 1.899058e+02 1.434209e+00 8.775685e+00 4.573655e+00 3.949642e+00 2.244668e+00 3.922576e+00 2.181002e+00 3.810623e+00 2.878213e+00 3.194005e+00 2.801741e+00 2.856024e+00 1.406194e+01 2.672675e-01 1.772234e+00 9.939435e-01 8.122602e-01 3.630155e-01 7.747976e-01 4.057536e-01 8.039805e-01 5.442376e-01 5.088505e-01 5.279038e-01 4.720410e-01 2.900521e+00
<GCONST> 1.317819e+02
<STATE> 3
<MEAN> 39
 -2.150427e+00 -1.378225e+01 -1.628663e+01 -7.481978e+00 -2.172519e+00 6.678855e+00 -1.385172e+00 -1.270696e+01 -1.220974e+01 -6.538453e+00 -6.146102e+00 -7.322947e+00 7.450294e+01 1.492250e-01 9.963571e-02 -2.268471e-01 3.207047e-01 -4.389852e-03 -3.439000e-01 1.255328e-01 4.049046e-01 1.710856e-02 -1.534539e-01 1.913273e-01 -7.232030e-02 -5.002955e-02 2.144675e-02 1.322175e-02 4.118383e-04 3.691661e-02 5.627595e-02 -1.033726e-02 1.538772e-02 1.070010e-01 4.638944e-02 4.812410e-02 8.122530e-02 6.272716e-02 -1.011156e-01
<VARIANCE> 39
 5.553585e+00 7.749826e+00 1.099304e+01 1.444312e+01 2.270873e+01 1.996210e+01 2.802664e+01 2.178272e+01 2.150902e+01 2.796875e+01 2.166195e+01 1.431508e+01 1.612759e+01 1.207548e-01 2.567714e-01 3.098536e-01 4.707279e-01 6.081610e-01 5.668769e-01 8.654979e-01 1.087106e+00 7.751431e-01 8.894598e-01 9.111754e-01 6.457543e-01 1.692580e-01 2.598570e-02 5.545875e-02 5.576557e-02 8.873965e-02 9.963731e-02 9.289398e-02 1.385126e-01 1.682190e-01 1.287015e-01 1.407881e-01 1.328561e-01 1.202934e-01 9.741227e-02
<GCONST> 6.798291e+01
<STATE> 4
<MEAN> 39
 1.028728e+00 -4.232852e+00 -1.289002e+01 7.340847e-01 3.381942e+00 -6.543065e-01 -3.568807e+00 2.686525e+00 -4.300192e+00 -6.689038e+00 -1.851140e+00 -2.880676e+00 5.508538e+01 -8.274385e-02 3.286576e-01 3.843397e-01 1.381602e-01 1.364132e-01 3.119265e-02 -2.408015e-02 1.464908e-01 2.374464e-01 1.259418e-01 3.442378e-02 1.901250e-01 -6.980699e-01 -2.845915e-02 2.209117e-03 2.952533e-02 -2.484305e-02 -1.259273e-02 2.283830e-02 1.804165e-02 -4.438934e-02 2.323327e-03 2.586635e-02 -7.622210e-03 4.532378e-03 8.999696e-05
<VARIANCE> 39
 2.586327e+01 4.456065e+01 8.663092e+01 2.712725e+01 1.648328e+01 2.769245e+01 4.136458e+01 3.336420e+01 4.121727e+01 5.324315e+01 3.611265e+01 3.664201e+01 1.576932e+02 5.790275e-01 4.188030e-01 7.883754e-01 8.959259e-01 7.591175e-01 1.171796e+00 1.711574e+00 2.170837e+00 1.328399e+00 1.618857e+00 1.540103e+00 1.375040e+00 4.091747e-01 6.947692e-02 6.852295e-02 9.743635e-02 1.349054e-01 1.150452e-01 1.856262e-01 2.574748e-01 3.066769e-01 2.303178e-01 2.436276e-01 2.607919e-01 2.354954e-01 3.591835e-02
<GCONST> 9.477682e+01
<TRANSP> 5
 0.000000e+00 1.000000e+00 0.000000e+00 0.000000e+00 0.000000e+00
 0.000000e+00 9.043429e-01 9.565714e-02 0.000000e+00 0.000000e+00
 0.000000e+00 0.000000e+00 9.548331e-01 4.516686e-02 0.000000e+00
 0.000000e+00 0.000000e+00 0.000000e+00 9.740850e-01 2.591504e-02
 0.000000e+00 0.000000e+00 0.000000e+00 0.000000e+00 0.000000e+00
<ENDHMM>
~h "ae"
<BEGINHMM>
<NUMSTATES> 5
<STATE> 2
<MEAN> 39
 -1.408520e+01 9.968998e+00 1.327246e+01 -1.847071e+01 -1.713208e+01 -2.013954e+00 -1.198602e+01 -1.148321e+01 -1.029033e+01 -1.214191e+00 -1.617300e+01 -5.030899e+00 7.118629e+01 -2.213564e-01 6.545705e-01 -1.759591e-02 -1.074180e+00 1.012735e+00 2.845156e-01 -5.872049e-01 6.319277e-01 3.600580e-01 -5.620274e-01 -9.747808e-02 -6.110604e-02 -2.805445e-01 5.360379e-02 -2.565534e-02 -7.333647e-02 2.187918e-01 8.629846e-02 -1.842245e-01 2.046473e-01 6.101104e-02 -7.545447e-02 4.739244e-02 1.129202e-01 4.117727e-02 -6.406681e-02
<VARIANCE> 39
 3.010497e+00 9.349172e+00 1.591733e+01 4.696193e+01 2.675649e+01 1.578304e+01 1.924431e+01 1.856959e+01 8.836049e+00 1.698816e+01 1.015156e+01 1.423809e+01 7.705241e+00 1.015205e-01 1.202732e-01 3.336406e-01 1.414285e+00 6.959325e-01 1.360082e+00 1.573877e+00 1.136430e+00 1.121283e+00 8.674917e-01 8.384032e-01 6.796681e-01 7.060529e-02 1.033776e-02 2.055654e-02 6.545191e-02 9.476593e-02 1.613166e-01 1.353256e-01 1.534877e-01 2.680605e-01 1.938332e-01 1.362758e-01 1.823759e-01 1.096437e-01 1.739972e-02
<GCONST> 6.556002e+01
<STATE> 3
<MEAN> 39
 -1.214698e+01 1.544425e+01 1.310040e+01 -2.088668e+01 -6.741926e+00 -3.504176e+00 -1.056012e+01 -8.390359e+00 -7.879440e+00 -8.912088e-01 -1.435972e+01 -2.975013e+00 6.399917e+01 3.833469e-01 4.400752e-02 1.375040e-01 3.838757e-01 2.625994e-01 6.577024e-02 9.004028e-02 -3.970310e-03 2.139361e-01 2.429937e-01 2.535252e-01 2.267731e-01 -6.342889e-01 4.745134e-02 -8.869861e-02 1.815689e-02 9.548698e-02 -1.137378e-01 7.964602e-02 1.613362e-02 -3.818695e-02 9.960162e-03 3.008295e-03 2.270440e-02 -2.321394e-03 -3.267113e-02
<VARIANCE> 39
 7.569335e+00 5.202960e+00 8.433705e+00 2.528068e+01 1.089389e+01 8.694024e+00 1.058523e+01 6.339899e+00 9.624769e+00 1.365592e+01 1.192126e+01 1.630367e+01 1.840108e+01 2.298045e-01 3.453315e-01 2.611620e-01 6.293090e-01 7.351477e-01 6.825563e-01 7.071816e-01 5.580725e-01 5.642614e-01 6.292737e-01 5.312188e-01 5.228643e-01 1.532459e-01 4.140692e-02 4.360386e-02 5.380646e-02 9.446846e-02 1.088415e-01 1.310682e-01 1.422240e-01 1.084655e-01 1.026278e-01 9.484230e-02 9.994593e-02 7.589796e-02 3.401043e-02
<GCONST> 5.946450e+01
<STATE> 4
<MEAN> 39
 -5.300144e+00 1.154302e+01 1.388224e+01 -1.174086e+01 -7.287287e+00 -1.038420e+00 -8.952542e+00 -8.087737e+00 -4.303080e+00 7.001680e-02 -9.878846e+00 -1.905084e+00 5.278316e+01 6.981339e-01 -6.981934e-01 -6.249061e-01 1.730058e+00 2.538101e-01 1.155232e-01 6.069289e-01 4.818816e-01 5.724916e-01 -3.413859e-01 1.021178e+00 -5.776017e-02 -2.022004e+00 -2.053142e-01 1.923760e-02 -2.471834e-01 -2.049227e-02 3.295065e-01 -1.473413e-01 9.160614e-02 2.051848e-01 8.423760e-02 -1.783713e-02 2.295396e-01 9.578316e-02 -2.983024e-02
<VARIANCE> 39
 1.027366e+01 1.599078e+01 1.765735e+01 3.786607e+01 2.768689e+01 1.531971e+01 1.662613e+01 2.027408e+01 1.254978e+01 2.584982e+01 2.784052e+01 1.100757e+01 3.649194e+01 1.655128e+00 6.934865e-01 1.263421e+00 1.511713e+00 3.064829e+00 1.962416e+00 1.802856e+00 2.801312e+00 1.068639e+00 2.638374e+00 2.102349e+00 1.764048e+00 1.474794e+00 2.868833e-01 1.569000e-01 2.458700e-01 2.618903e-01 5.175264e-01 3.645268e-01 4.206887e-01 5.303277e-01 1.962018e-01 6.105623e-01 3.343032e-01 3.940691e-01 4.765858e-01
<GCONST> 1.032913e+02
<TRANSP> 5
 0.000000e+00 1.000000e+00 0.000000e+00 0.000000e+00 0.000000e+00
 0.000000e+00 9.145109e-01 8.548906e-02 0.000000e+00 0.000000e+00
 0.000000e+00 0.000000e+00 9.383808e-01 6.161924e-02 0.000000e+00
 0.000000e+00 0.000000e+00 0.000000e+00 8.240359e-01 1.759641e-01
 0.000000e+00 0.000000e+00 0.000000e+00 0.000000e+00 0.000000e+00
<ENDHMM>
~h "ah"
<BEGINHMM>
<NUMSTATES> 5
<STATE> 2
<MEAN> 39
 -1.864388e+00 2.078362e+00 6.408817e-01 -6.628416e+00 -6.397780e+00 -1.240859e+01 -1.594240e+00 -4.400873e+00 -1.011682e+01 -1.075664e+01 -1.193569e+01 -2.217495e+00 6.091026e+01 7.151384e-01 -4.034175e-02 -4.037678e-01 2.119903e-02 -3.339264e-01 -9.023638e-02 -2.287066e-01 -7.650132e-01 1.217365e-01 -3.926888e-01 -7.699209e-01 -3.240602e-01 -8.941273e-02 -8.092719e-02 -2.396311e-03 -2.045649e-02 1.432581e-01 2.087220e-01 2.352324e-01 6.588866e-02 7.824453e-02 2.541113e-01 3.974349e-01 2.872981e-01 2.348050e-01 -2.458849e-01
<VARIANCE> 39
 1.741257e+01 5.015435e+01 4.756285e+01 7.234357e+01 4.173924e+01 6.601344e+01 4.248826e+01 4.151397e+01 8.470414e+01 3.992749e+01 3.756407e+01 2.332044e+01 1.869076e+02 1.120080e+00 1.646856e+00 2.005140e+00 2.695016e+00 2.310012e+00 3.618470e+00 1.822268e+00 2.977806e+00 3.095175e+00 3.700696e+00 5.541116e+00 2.351235e+00 3.935399e+00 1.916934e-01 2.382429e-01 2.543034e-01 3.337812e-01 4.733943e-01 6.590298e-01 3.812254e-01 4.967138e-01 4.066452e-01 4.279675e-01 5.596142e-01 4.007691e-01 3.684146e-01
<GCONST> 1.219875e+02
<STATE> 3
<MEAN> 39
 -6.711603e-01 3.118058e+00 2.080431e+00 -2.825956e+00 -4.072292e+00 -1.038907e+01 -3.136719e+00 -7.126107e+00 -9.332864e+00 -1.046514e+01 -1.178839e+01 -1.401748e+00 5.590328e+01 1.171169e-01 6.491438e-02 -7.289111e-02 5.504732e-01 3.043720e-01 9.312667e-01 3.872163e-01 4.211029e-01 1.347396e+00 1.182674e+00 9.523782e-01 6.115353e-01 -1.402650e+00 -1.887431e-01 -7.202869e-02 -2.018467e-02 -5.845352e-02 4.524807e-02 1.716444e-01 1.607778e-01 3.114689e-01 1.992632e-01 1.947724e-01 2.504972e-01 7.634102e-02 8.412747e-03
<VARIANCE> 39
 1.703350e+01 5.367646e+01 3.744401e+01 4.732081e+01 3.526543e+01 3.776947e+01 4.144437e+01 3.713921e+01 9.585667e+01 4.170817e+01 2.794452e+01 2.517754e+01 1.436399e+02 1.182484e+00 1.142391e+00 1.199093e+00 1.389448e+00 1.768519e+00 2.614595e+00 2.533961e+00 2.618800e+00 2.877614e+00 2.767338e+00 2.995974e+00 1.885126e+00 1.951113e+00 1.811219e-01 1.726474e-01 1.545790e-01 2.383204e-01 3.028710e-01 4.016767e-01 4.028462e-01 4.472902e-01 4.308470e-01 4.432676e-01 4.643519e-01 3.308290e-01 2.713149e-01
<GCONST> 1.136152e+02
<STATE> 4
<MEAN> 39
 -5.579943e+00 3.753613e+00 3.284894e+00 1.070704e+00 -9.344188e-01 -3.660237e+00 1.162766e+00 -1.866899e+00 -5.249362e+00 -1.106124e+00 -5.450442e-01 2.872216e+00 4.542191e+01 -2.948750e-01 -1.846042e-01 4.474148e-02 -1.427480e-01 -9.559765e-02 2.039655e-01 3.749215e-01 2.521654e-01 2.358911e-01 4.938535e-01 4.248372e-01 1.295086e-01 1.388927e-01 3.210605e-02 1.691603e-02 3.748411e-02 1.608348e-02 -2.097346e-02 -8.273724e-02 -6.805848e-02 -8.138595e-02 -1.518035e-01 -1.373200e-01 -9.772138e-02 -6.675683e-02 8.313414e-02
<VARIANCE> 39
 2.629058e+01 2.486014e+01 1.524126e+01 2.246258e+01 2.038726e+01 2.855873e+01 2.891525e+01 2.871960e+01 3.482325e+01 3.313261e+01 4.430880e+01 2.083243e+01 4.256102e+01 2.201116e+00 1.913415e+00 1.477205e+00 2.319184e+00 1.889258e+00 2.831387e+00 2.353759e+00 2.773682e+00 3.398263e+00 2.759490e+00 2.794796e+00 1.944281e+00 3.384794e+00 4.495821e-01 3.541731e-01 2.858838e-01 4.825017e-01 3.856273e-01 5.480856e-01 4.484593e-01 5.813391e-01 6.695284e-01 4.645202e-01 4.649910e-01 4.071171e-01 6.358694e-01
<GCONST> 1.160844e+02
<TRANSP> 5
 0.000000e+00 1.000000e+00 0.000000e+00 0.000000e+00 0.000000e+00
 0.000000e+00 6.397219e-01 3.602781e-01 0.000000e+00 0.000000e+00
 0.000000e+00 0.000000e+00 7.547310e-01 2.452690e-01 0.000000e+00
 0.000000e+00 0.000000e+00 0.000000e+00 8.841292e-01 1.158708e-01
 0.000000e+00 0.000000e+00 0.000000e+00 0.000000e+00 0.000000e+00
<ENDHMM>
~h "ao"
<BEGINHMM>
<NUMSTATES> 5
<STATE> 2
<MEAN> 39
 1.229009e+00 5.423068e+00 -1.296379e+01 -2.379184e+01 -1.419293e+01 -7.438916e+00 -1.443431e+00 -2.074402e+00 -9.847136e+00 -5.479405e+00 -9.312076e+00 -4.909589e+00 7.037850e+01 -3.587142e-02 1.368846e-01 -2.789453e-02 -1.803185e-01 7.292990e-02 3.319468e-02 -1.979116e-02 3.002451e-02 -1.194526e-01 -1.208247e-02 -1.270882e-01 -1.453891e-03 -1.304917e-01 -9.257622e-03 2.683795e-03 2.903388e-02 3.862718e-02 5.624346e-02 4.319616e-02 1.699294e-02 1.054227e-02 -2.538638e-03 1.659919e-03 4.493267e-02 6.080412e-02 -2.509552e-02
<VARIANCE> 39
 2.265174e+00 4.042334e+01 7.306288e+00 3.929739e+01 2.130776e+01 2.965930e+01 1.915392e+01 1.904135e+01 2.519326e+01 1.808852e+01 2.112794e+01 2.118389e+01 1.784499e+01 6.968508e-02 3.560280e-01 2.583818e-01 6.072834e-01 7.301493e-01 7.101628e-01 8.163260e-01 8.211047e-01 1.060358e+00 1.017709e+00 9.280767e-01 8.524916e-01 8.802328e-02 2.001084e-02 6.292222e-02 5.692053e-02 1.477109e-01 1.098495e-01 1.145603e-01 1.484741e-01 1.496024e-01 1.758588e-01 1.797694e-01 1.563778e-01 1.309116e-01 1.562221e-02
<GCONST> 6.897564e+01
<STATE> 3
<MEAN> 39
 2.101866e+00 7.553596e+00 -1.291803e+01 -2.652848e+01 -4.851749e+00 -2.432462e+00 -2.000118e+00 -4.277968e+00 -1.337813e+01 -8.405451e+00 -6.209175e+00 -1.641077e+00 6.244610e+01 2.345595e-01 1.374862e-01 2.067578e-01 6.042016e-01 7.979210e-01 4.032051e-01 -2.303238e-02 -3.950707e-01 -4.012997e-02 -2.983886e-01 4.050952e-01 -3.533301e-02 -1.187973e+00 -4.295677e-02 -5.470010e-02 7.691950e-02 2.212882e-01 -5.564740e-02 2.597351e-03 5.461705e-02 3.367908e-02 9.853326e-02 9.866494e-02 2.431775e-02 4.570293e-03 -1.081993e-01
<VARIANCE> 39
 7.889767e+00 1.948958e+01 9.700517e+00 3.162814e+01 4.424511e+01 2.480980e+01 2.997341e+01 4.230382e+01 2.413732e+01 3.950712e+01 3.645590e+01 2.908927e+01 4.187723e+01 3.333774e-01 8.934451e-01 5.874308e-01 2.587751e+00 1.509674e+00 1.182814e+00 1.204660e+00 1.191018e+00 1.596464e+00 1.652858e+00 1.342725e+00 1.214688e+00 7.524359e-01 7.233445e-02 1.463824e-01 1.050585e-01 2.757191e-01 2.859167e-01 2.235892e-01 2.043059e-01 2.315747e-01 2.827841e-01 3.495493e-01 2.573847e-01 2.299627e-01 5.490947e-02
<GCONST> 9.353613e+01
<STATE> 4
<MEAN> 39
 -3.924569e+00 2.928559e+00 -1.864627e+00 -1.261830e+00 4.327966e-01 1.346618e+00 1.289967e+00 2.464220e-01 -1.580722e+00 5.259658e-01 2.555218e+00 4.321020e+00 4.245252e+01 -2.517854e-01 -7.516786e-02 3.345870e-01 5.284087e-01 -8.135203e-03 2.439215e-02 8.266467e-02 1.762214e-01 3.269484e-01 3.511319e-01 1.549091e-01 1.734541e-01 -3.117976e-01 1.260357e-02 1.755799e-02 -2.079775e-02 -6.868205e-02 -8.412497e-03 -2.449668e-02 -1.689711e-02 -1.566913e-02 -3.685727e-02 -2.806848e-02 -2.650698e-02 -2.351133e-02 6.684470e-02
<VARIANCE> 39
 1.386601e+01 2.061905e+01 2.379762e+01 3.948268e+01 2.349866e+01 2.149970e+01 2.237200e+01 3.318723e+01 2.850486e+01 3.180775e+01 2.259982e+01 2.235242e+01 2.029970e+01 5.311123e-01 1.195865e+00 8.240992e-01 1.478885e+00 1.789499e+00 1.639117e+00 1.839472e+00 1.863803e+00 2.007999e+00 2.280482e+00 1.782286e+00 1.829865e+00 6.151949e-01 9.612057e-02 2.016359e-01 1.485151e-01 2.310459e-01 3.268719e-01 3.023064e-01 3.556337e-01 3.249347e-01 3.621182e-01 4.173763e-01 3.274078e-01 3.389793e-01 8.335797e-02
<GCONST> 9.896783e+01
<TRANSP> 5
 0.000000e+00 1.000000e+00 0.000000e+00 0.000000e+00 0.000000e+00
 0.000000e+00 9.561193e-01 4.388067e-02 0.000000e+00 0.000000e+00
 0.000000e+00 0.000000e+00 9.234762e-01 7.652380e-02 0.000000e+00
 0.000000e+00 0.000000e+00 0.000000e+00 9.722504e-01 2.774960e-02
 0.000000e+00 0.000000e+00 0.000000e+00 0.000000e+00 0.000000e+00
<ENDHMM>
~h "ay"
<BEGINHMM>
<NUMSTATES> 5
<STATE> 2
<MEAN> 39
 -3.167646e+00 -1.391081e+01 -1.084263e+01 -8.208667e+00 2.087653e+00 -3.111430e-01 -6.390955e+00 -7.936121e+00 -8.376522e+00 -1.378992e+01 -1.185282e+01 -4.569769e+00 7.356702e+01 -1.829260e-02 -3.684335e-01 1.222879e-01 3.609697e-01 6.136846e-02 3.307442e-02 -2.117732e-01 -1.076717e-01 6.610241e-02 -1.893008e-01 -1.655045e-01 5.453892e-02 -2.237060e-02 6.734729e-03 1.602799e-01 9.193578e-02 1.948979e-02 -1.415595e-01 -1.081806e-01 9.381877e-02 1.067665e-01 2.125558e-02 2.817172e-02 2.520282e-02 4.125235e-02 -8.446663e-02
<VARIANCE> 39
 6.678204e+00 1.487666e+01 2.096385e+01 2.099744e+01 2.305819e+01 3.723824e+01 2.280211e+01 3.476812e+01 2.283660e+01 4.965989e+01 2.002264e+01 2.079641e+01 1.299579e+01 2.417980e-01 6.454878e-01 5.166860e-01 7.482623e-01 9.537633e-01 1.129556e+00 1.379888e+00 1.347054e+00 1.236090e+00 9.455571e-01 8.959207e-01 8.753211e-01 6.026568e-01 4.409653e-02 1.403832e-01 8.389989e-02 1.409787e-01 1.670213e-01 1.541613e-01 2.247457e-01 2.124226e-01 2.759171e-01 1.748218e-01 1.707069e-01 1.596654e-01 1.221412e-01
<GCONST> 8.375689e+01
<STATE> 3
<MEAN> 39
 -5.470409e+00 -1.340000e+01 -4.309494e+00 -8.328362e+00 -4.333357e+00 -2.252592e+00 3.019620e-01 -6.704014e+00 -1.321104e+01 -1.557384e+01 -1.202996e+01 -3.166228e+00 7.334147e+01 -3.065844e-01 6.141216e-01 8.085485e-01 -5.536412e-01 -1.026678e+00 6.631762e-03 8.389815e-01 -3.182014e-01 -2.426006e-01 3.376007e-01 8.630563e-02 -3.912655e-01 -1.325146e-01 -6.155046e-03 1.287870e-01 6.846093e-02 -7.758929e-02 -2.163843e-02 2.762860e-02 -1.385867e-01 -8.465979e-02 1.223976e-01 1.160874e-01 -4.747399e-02 -7.133432e-02 -5.073000e-02
<VARIANCE> 39
 7.792609e+00 2.204323e+01 2.677824e+01 2.128245e+01 4.814031e+01 2.679492e+01 6.157471e+01 2.641589e+01 3.684542e+01 2.881667e+01 2.386352e+01 2.857449e+01 1.107743e+01 1.736716e-01 6.775106e-01 5.352698e-01 9.046288e-01 1.389996e+00 1.061952e+00 2.241966e+00 1.143304e+00 1.359709e+00 1.307605e+00 1.192657e+00 1.392213e+00 1.364308e-01 2.282280e-02 4.632871e-02 5.550203e-02 1.004396e-01 1.569761e-01 1.431643e-01 3.441531e-01 1.494197e-01 1.966853e-01 1.950476e-01 1.679509e-01 2.006387e-01 1.369291e-02
<GCONST> 8.143257e+01
<STATE> 4
<MEAN> 39
 -8.151530e+00 2.278205e+00 7.545056e+00 -1.386356e+01 -1.221142e+01 -1.521887e+00 -4.462224e+00 -1.258306e+01 -8.480221e+00 -7.022847e+00 -1.237337e+01 -5.698583e+00 6.550130e+01 1.217768e-01 9.272888e-01 5.290511e-01 2.594004e-01 2.568793e-01 -7.095435e-02 -1.101877e+00 -2.356711e-01 2.494839e-01 2.792045e-01 -1.290693e-01 3.674805e-01 -9.754354e-01 7.712360e-02 -1.252739e-01 -1.197055e-01 2.023465e-01 9.082917e-02 -1.817422e-02 1.041963e-01 9.346038e-02 -9.751761e-02 -1.029105e-01 8.646551e-02 8.648326e-02 -7.863530e-02
<VARIANCE> 39
 9.442384e+00 3.984660e+01 1.580971e+01 3.480120e+01 5.099153e+01 3.565942e+01 7.476663e+01 3.000915e+01 6.248729e+01 4.185358e+01 5.932661e+01 2.659983e+01 4.738108e+01 4.190244e-01 8.540768e-01 7.917377e-01 1.193992e+00 1.381353e+00 1.053973e+00 2.147033e+00 1.450297e+00 1.348850e+00 1.682537e+00 1.277002e+00 1.328667e+00 3.052916e-01 5.723467e-02 6.572711e-02 8.409206e-02 1.536855e-01 1.900950e-01 1.935064e-01 3.142565e-01 2.311477e-01 2.143653e-01 2.538250e-01 2.176947e-01 2.529897e-01 3.371875e-02
<GCONST> 9.376365e+01
<TRANSP> 5
 0.000000e+00 1.000000e+00 0.000000e+00 0.000000e+00 0.000000e+00
 0.000000e+00 9.143175e-01 8.568249e-02 0.000000e+00 0.000000e+00
 0.000000e+00 0.000000e+00 9.197872e-01 8.021282e-02 0.000000e+00
 0.000000e+00 0.000000e+00 0.000000e+00 9.130681e-01 8.693191e-02
 0.000000e+00 0.000000e+00 0.000000e+00 0.000000e+00 0.000000e+00
<ENDHMM>
~h "ch"
<BEGINHMM>
<NUMSTATES> 5
<STATE> 2
<MEAN> 39
 -9.454222e+00 5.182369e+00 1.140840e+01 -1.041013e+01 -8.626006e+00 2.862301e-01 -6.462884e+00 -4.884953e+00 -7.422247e-01 2.242005e-01 -2.097188e+00 1.074720e+00 5.134090e+01 -2.220854e+00 -5.046148e-01 -1.823643e+00 7.349832e-01 8.414713e-01 1.248583e-01 5.720833e-01 7.709874e-01 3.569129e-01 -3.246617e-01 1.275769e+00 6.465945e-02 1.389628e+00 -5.106212e-01 2.472754e-01 -1.693206e-01 1.536691e-03 2.160361e-02 3.263447e-02 8.775811e-03 -9.627711e-03 -1.156798e-01 -6.688516e-02 -1.043869e-01 -1.370695e-01 6.251494e-01
<VARIANCE> 39
 7.313372e+01 2.393631e+01 4.021343e+01 2.613575e+01 2.911064e+01 1.855129e+01 1.726305e+01 2.186091e+01 1.795768e+01 2.241631e+01 3.651458e+01 2.042994e+01 8.338273e+01 1.078332e+01 2.389550e+00 2.657666e+00 1.553333e+00 2.691668e+00 1.730515e+00 1.576445e+00 2.053529e+00 1.719847e+00 3.053521e+00 2.210009e+00 2.283998e+00 1.525471e+01 1.073732e+00 7.135112e-01 4.043429e-01 2.941487e-01 5.123979e-01 3.224233e-01 3.094194e-01 4.392729e-01 3.134806e-01 6.761411e-01 5.326599e-01 4.192526e-01 1.540692e+00
<GCONST> 1.199358e+02
<STATE> 3
<MEAN> 39
 -3.103402e+01 9.868551e+00 2.822628e+00 -4.878083e+00 -6.115829e+00 3.099662e+00 -4.213131e-01 -2.101586e+00 -5.738988e-01 -1.343449e+00 3.235052e+00 -1.575120e+00 6.912814e+01 1.135082e-01 2.165437e-01 5.618116e-01 2.079230e-01 -3.106105e-01 1.067649e-01 3.202355e-01 -2.370046e-01 -8.090512e-03 8.991059e-02 -6.938838e-02 -6.719075e-02 -1.194161e-01 3.770334e-01 -1.733472e-01 2.045946e-01 3.758176e-02 -8.959644e-03 -5.800451e-02 -5.829663e-04 -2.002509e-02 3.532787e-02 3.437992e-02 -7.148600e-03 8.059607e-02 -3.577639e-01
<VARIANCE> 39
 1.020852e+01 8.724467e+00 2.227754e+01 6.863384e+00 1.820421e+01 1.752947e+01 1.480206e+01 1.606381e+01 1.344950e+01 1.137357e+01 1.341379e+01 1.029538e+01 1.328706e+01 1.828922e+00 2.179910e+00 1.324018e+00 8.203147e-01 1.423195e+00 1.070919e+00 1.055291e+00 1.274693e+00 1.285441e+00 1.105412e+00 1.179007e+00 9.976864e-01 1.165145e+00 2.977180e-01 2.165552e-01 3.288639e-01 1.594899e-01 2.986178e-01 2.112424e-01 2.155698e-01 2.912374e-01 2.590417e-01 2.437116e-01 2.267992e-01 1.914930e-01 2.552871e-01
<GCONST> 8.934296e+01
<STATE> 4
<MEAN> 39
 -1.197138e+01 3.562899e+00 6.103787e+00 1.906820e+00 -3.193008e+00 2.300699e+00 4.108318e+00 -1.386245e+00 8.770215e-01 1.788030e+00 3.351470e+00 3.687897e+00 4.628848e+01 5.250624e-01 -7.189202e-02 -5.982687e-02 1.415507e-01 2.186422e-01 4.622314e-02 1.969451e-02 4.132695e-02 3.210361e-02 1.705700e-02 -4.661353e-02 1.281238e-01 -5.931526e-01 -4.287968e-02 2.604913e-02 -4.065362e-02 -5.095833e-02 -4.195317e-03 9.581931e-04 -2.876568e-02 -2.971392e-02 -3.172547e-02 -1.144262e-02 -2.044343e-02 -2.783912e-02 6.930487e-02
<VARIANCE> 39
 2.956864e+01 2.616219e+01 3.184923e+01 2.107385e+01 2.128141e+01 2.388176e+01 3.177563e+01 2.280486e+01 2.715253e+01 2.839184e+01 1.732516e+01 1.896088e+01 5.858074e+01 1.410585e+00 1.720537e+00 1.538409e+00 2.107062e+00 1.546748e+00 2.108068e+00 2.722787e+00 2.248770e+00 2.441993e+00 2.124930e+00 1.964575e+00 1.495311e+00 1.955689e+00 2.040569e-01 3.278184e-01 2.805211e-01 3.669011e-01 3.186634e-01 4.151179e-01 5.059533e-01 4.451444e-01 4.915273e-01 4.555413e-01 4.003573e-01 2.993965e-01 1.871527e-01
<GCONST> 1.088324e+02
<TRANSP> 5
 0.000000e+00 1.000000e+00 0.000000e+00 0.000000e+00 0.000000e+00
 0.000000e+00 8.910309e-01 1.089691e-01 0.000000e+00 0.000000e+00
 0.000000e+00 0.000000e+00 9.360829e-01 6.391705e-02 0.000000e+00
 0.000000e+00 0.000000e+00 0.000000e+00 9.689190e-01 3.108105e-02
 0.000000e+00 0.000000e+00 0.000000e+00 0.000000e+00 0.000000e+00
<ENDHMM>
~h "eh"
<BEGINHMM>
<NUMSTATES> 5
<STATE> 2
<MEAN> 39
 -8.325733e+00 -4.738434e+00 1.019776e+00 -5.415344e+00 -7.118269e+00 -1.222836e+00 6.813784e+00 -2.477104e+00 -6.005368e+00 -2.402514e+00 -2.169999e+00 6.811862e-01 5.881944e+01 -2.107064e-01 -2.410563e+00 -5.990885e-01 -1.865872e+00 -1.387633e+00 5.246629e-02 7.589833e-01 -9.842222e-01 -1.752608e+00 -1.698959e+00 -1.316019e+00 -1.183987e+00 4.175094e+00 -7.886192e-02 2.245807e-01 -1.273790e-01 2.583620e-01 9.790722e-02 2.348947e-01 -1.675133e-01 -9.735035e-02 8.234926e-03 -7.045001e-02 5.071316e-02 -1.517946e-01 -1.692480e-01
<VARIANCE> 39
 2.073243e+01 9.495388e+01 2.736257e+01 9.134398e+01 5.940263e+01 5.250551e+01 4.393619e+01 3.372847e+01 5.535163e+01 5.000961e+01 3.919510e+01 3.136130e+01 2.675975e+02 2.070077e+00 6.828948e+00 2.258088e+00 5.636452e+00 3.684114e+00 2.668623e+00 5.191920e+00 2.721518e+00 4.069695e+00 3.849025e+00 2.931957e+00 2.696645e+00 1.724557e+01 5.634767e-01 1.610381e+00 4.014582e-01 1.269600e+00 8.355483e-01 6.063176e-01 1.067879e+00 4.875965e-01 9.174328e-01 7.836989e-01 5.950077e-01 4.624294e-01 4.332950e+00
<GCONST> 1.385972e+02
<STATE> 3
<MEAN> 39
 -5.856828e+00 -1.211987e+01 -3.342577e+00 -1.044628e+01 -1.240761e+01 -4.798920e-01 7.211729e+00 -6.831438e+00 -1.149104e+01 -1.298265e+01 -7.411765e+00 -6.087446e+00 7.386430e+01 2.826505e-01 2.702522e-01 -1.121499e-01 3.410226e-01 2.478187e-01 -1.708094e-01 -2.975627e-01 1.776446e-01 5.056083e-01 -1.225485e-01 1.648858e-03 4.587772e-02 -4.880910e-01 -1.921929e-02 1.499689e-01 5.666368e-02 1.239346e-01 9.590439e-02 -6.061640e-02 -6.953903e-02 1.767752e-02 1.036212e-01 1.766006e-01 8.308561e-02 1.096160e-01 -1.651365e-01
<VARIANCE> 39
 1.221495e+01 2.237714e+01 2.481839e+01 2.307558e+01 2.947770e+01 5.491989e+01 2.697227e+01 3.005308e+01 3.904535e+01 2.394423e+01 2.364980e+01 2.097675e+01 2.886736e+01 5.024110e-01 9.212182e-01 5.568293e-01 8.064059e-01 1.075563e+00 1.849276e+00 1.587562e+00 1.146132e+00 1.445696e+00 1.306898e+00 1.018630e+00 1.160433e+00 8.640618e-01 1.099405e-01 1.238602e-01 9.473462e-02 1.709421e-01 1.822900e-01 3.033698e-01 2.611238e-01 2.140996e-01 2.539805e-01 2.174387e-01 1.901851e-01 1.975759e-01 1.459149e-01
<GCONST> 9.220701e+01
<STATE> 4
<MEAN> 39
 -4.998273e+00 -3.738111e-01 1.071734e+00 -1.130516e+00 -4.350335e+00 -1.613677e+00 2.048372e+00 -2.288505e+00 -2.238179e+00 -1.944367e+00 -6.289050e-01 8.637974e-01 5.113306e+01 -1.267856e-01 6.406371e-01 7.101534e-02 5.955670e-01 3.958010e-01 -9.412860e-03 -5.470241e-01 -1.065408e-01 2.144876e-01 6.021021e-01 2.611160e-01 1.176682e-01 -6.092753e-01 -1.688857e-01 2.408215e-02 1.530408e-02 5.597629e-03 -1.201178e-02 3.435073e-02 8.033002e-02 -7.679559e-02 -9.102315e-02 5.503183e-02 -1.404389e-02 -3.124114e-02 1.263364e-01
<VARIANCE> 39
 1.288984e+01 4.553459e+01 2.551017e+01 3.733099e+01 3.788549e+01 4.396244e+01 2.513960e+01 2.210719e+01 2.823761e+01 6.271898e+01 4.464864e+01 2.887948e+01 1.833435e+02 9.025025e-01 1.768624e+00 6.651388e-01 1.697283e+00 1.365624e+00 1.819967e+00 2.467780e+00 1.975147e+00 2.100412e+00 2.347144e+00 1.769519e+00 2.054688e+00 8.143355e-01 1.681877e-01 1.878904e-01 1.168854e-01 2.320150e-01 2.250796e-01 3.590632e-01 3.597552e-01 3.607316e-01 3.387362e-01 3.426787e-01 3.309519e-01 3.391432e-01 2.083590e-01
<GCONST> 1.067373e+02
<TRANSP> 5
 0.000000e+00 1.000000e+00 0.000000e+00 0.000000e+00 0.000000e+00
 0.000000e+00 7.928291e-01 2.071709e-01 0.000000e+00 0.000000e+00
 0.000000e+00 0.000000e+00 9.223041e-01 7.769591e-02 0.000000e+00
 0.000000e+00 0.000000e+00 0.000000e+00 6.437013e-01 3.562988e-01
 0.000000e+00 0.000000e+00 0.000000e+00 0.000000e+00 0.000000e+00
<ENDHMM>
~h "ey"
<BEGINHMM>
<NUMSTATES> 5
<STATE> 2
<MEAN> 39
 -7.244314e+00 5.400505e+00 3.708733e+00 2.229165e+00 -1.248065e+00 1.195893e+00 1.710626e+00 -5.827103e-01 1.989022e-01 4.244815e+00 3.222114e+00 3.589807e+00 4.055774e+01 5.154483e-03 4.549151e-03 -1.396953e-02 -1.585519e-02 2.148905e-02 2.828319e-02 -1.208884e-02 1.319744e-02 8.100729e-02 3.849307e-02 1.475677e-02 6.383389e-02 -9.324032e-02 -2.701563e-02 -5.720141e-02 2.771959e-02 -1.117459e-01 -9.294082e-02 -5.877720e-02 4.078535e-02 -2.304446e-02 -1.799717e-02 2.036771e-03 -7.871338e-02 -9.371424e-03 1.700642e-01
<VARIANCE> 39
 8.001898e+00 1.283905e+01 1.161087e+01 2.059774e+01 2.470022e+01 1.497891e+01 2.363133e+01 2.104250e+01 1.552790e+01 1.685680e+01 2.157311e+01 1.583973e+01 3.488599e+01 6.791916e-01 7.062469e-01 7.461721e-01 1.085877e+00 1.219687e+00 1.274551e+00 1.599528e+00 1.301185e+00 1.506785e+00 1.479264e+00 1.595772e+00 1.329134e+00 6.557184e-01 1.395982e-01 1.578994e-01 1.409000e-01 3.335570e-01 3.376171e-01 2.703802e-01 3.141343e-01 2.647539e-01 3.090206e-01 2.936554e-01 3.780130e-01 2.712200e-01 3.404791e-01
<GCONST> 9.271521e+01
<STATE> 3
<MEAN> 39
 -8.760448e+00 3.421450e-02 6.728383e+00 -1.818464e+01 -1.980030e+01 -5.430548e+00 3.743557e-01 -9.178423e+00 -4.760828e+00 1.274746e+00 -1.045943e+01 -2.857021e+00 6.954083e+01 -1.233901e-01 -3.717191e-02 3.471296e-01 -1.127967e+00 -9.563152e-01 -3.973777e-01 -5.633500e-01 -6.183914e-01 -3.567906e-01 -2.126620e-01 -7.511058e-01 -2.161006e-01 1.489455e+00 -9.220611e-03 8.988434e-02 -2.902979e-05 1.366655e-01 1.404391e-01 4.348568e-02 -8.869193e-02 3.875501e-02 1.017096e-02 4.954276e-03 8.902986e-02 4.144628e-02 -1.680628e-01
<VARIANCE> 39
 1.087268e+01 2.255973e+01 1.430948e+01 7.218268e+01 7.221776e+01 2.231216e+01 4.556819e+01 3.536481e+01 2.313654e+01 2.542659e+01 4.075259e+01 2.698384e+01 1.368971e+02 7.422729e-01 2.014139e+00 1.151772e+00 6.375921e+00 5.695560e+00 2.077470e+00 2.494760e+00 1.494992e+00 1.467662e+00 1.706903e+00 3.077244e+00 2.019185e+00 1.224017e+01 1.240816e-01 2.544953e-01 1.961941e-01 9.058892e-01 7.459750e-01 3.498778e-01 3.836339e-01 2.576668e-01 2.509944e-01 2.923400e-01 4.597360e-01 2.821859e-01 1.605452e+00
<GCONST> 1.156004e+02
<STATE> 4
<MEAN> 39
 -8.635571e+00 7.667846e+00 1.285091e+01 -1.390809e+01 -1.260778e+01 -4.073655e+00 -9.896143e+00 -8.948521e+00 -4.262568e+00 8.525276e-01 -7.963774e+00 8.739811e-01 5.811374e+01 1.838412e-01 8.026169e-02 -8.922620e-02 6.317497e-01 5.702457e-01 2.534974e-01 1.129805e-01 3.821048e-01 3.220451e-01 1.593423e-01 4.967273e-01 2.127895e-01 -1.150340e+00 -1.837044e-03 -4.396998e-02 -9.756254e-02 2.922201e-02 -6.841538e-04 1.189108e-02 1.002243e-01 1.839018e-02 1.712997e-02 -8.401407e-04 3.268954e-02 -1.191210e-02 3.463350e-02
<VARIANCE> 39
 2.001183e+01 2.037551e+01 2.452522e+01 6.961234e+01 4.261261e+01 2.691962e+01 4.727402e+01 2.891270e+01 3.945905e+01 2.666001e+01 4.202333e+01 2.057396e+01 1.346734e+02 1.330519e+00 1.085233e+00 1.503400e+00 1.615608e+00 1.214194e+00 1.513106e+00 2.122179e+00 1.587605e+00 2.253229e+00 1.768737e+00 1.945462e+00 1.449510e+00 1.844331e+00 2.552465e-01 1.652106e-01 2.313636e-01 2.838222e-01 2.392215e-01 2.860321e-01 3.662286e-01 3.065170e-01 3.512714e-01 3.286920e-01 3.264662e-01 2.547128e-01 3.223670e-01
<GCONST> 1.075923e+02
<TRANSP> 5
 0.000000e+00 1.000000e+00 0.000000e+00 0.000000e+00 0.000000e+00
 0.000000e+00 9.190690e-01 8.093105e-02 0.000000e+00 0.000000e+00
 0.000000e+00 0.000000e+00 9.231478e-01 7.685218e-02 0.000000e+00
 0.000000e+00 0.000000e+00 0.000000e+00 9.377617e-01 6.223832e-02
 0.000000e+00 0.000000e+00 0.000000e+00 0.000000e+00 0.000000e+00
<ENDHMM>
~h "ia"
<BEGINHMM>
<NUMSTATES> 5
<STATE> 2
<MEAN> 39
 -7.381522e+00 3.330936e+00 2.047153e+00 -3.046288e+00 -4.874629e+00 -2.964739e+00 -5.433913e-01 -3.441086e+00 -4.156183e+00 -7.898898e-01 -2.925678e+00 8.747759e-01 5.354753e+01 4.188114e-03 7.886445e-03 8.638212e-04 -3.319199e-05 4.583947e-03 2.944113e-03 -4.185917e-03 -2.407409e-03 4.110487e-03 -9.366490e-04 -2.847919e-03 -1.119324e-03 -3.485081e-03 -2.780182e-04 4.271456e-06 2.111308e-05 2.157945e-05 -1.623377e-04 6.947975e-04 6.310043e-04 2.858052e-04 2.109315e-04 1.335133e-04 3.614691e-04 -5.897314e-04 -3.645968e-04
<VARIANCE> 39
 3.956010e+01 5.039151e+01 5.962346e+01 1.002791e+02 6.064148e+01 5.444832e+01 5.840739e+01 4.790145e+01 4.806982e+01 5.399290e+01 6.658193e+01 3.143701e+01 1.841879e+02 1.501115e+00 1.479264e+00 1.419895e+00 2.272107e+00 1.880642e+00 2.105628e+00 2.280031e+00 1.936650e+00 2.018196e+00 1.963827e+00 1.997587e+00 1.559135e+00 2.571761e+00 2.319898e-01 2.408473e-01 2.210669e-01 3.404900e-01 3.085047e-01 3.687871e-01 3.892777e-01 3.406794e-01 3.576038e-01 3.468189e-01 3.398416e-01 2.856025e-01 3.133720e-01
<GCONST> 1.177766e+02
<STATE> 3
<MEAN> 39
 -7.381522e+00 3.330936e+00 2.047153e+00 -3.046288e+00 -4.874629e+00 -2.964739e+00 -5.433913e-01 -3.441086e+00 -4.156183e+00 -7.898898e-01 -2.925678e+00 8.747759e-01 5.354753e+01 4.188114e-03 7.886445e-03 8.638212e-04 -3.319199e-05 4.583947e-03 2.944113e-03 -4.185917e-03 -2.407409e-03 4.110487e-03 -9.366490e-04 -2.847919e-03 -1.119324e-03 -3.485081e-03 -2.780182e-04 4.271456e-06 2.111308e-05 2.157945e-05 -1.623377e-04 6.947975e-04 6.310043e-04 2.858052e-04 2.109315e-04 1.335133e-04 3.614691e-04 -5.897314e-04 -3.645968e-04
<VARIANCE> 39
 3.956010e+01 5.039151e+01 5.962346e+01 1.002791e+02 6.064148e+01 5.444832e+01 5.840739e+01 4.790145e+01 4.806982e+01 5.399290e+01 6.658193e+01 3.143701e+01 1.841879e+02 1.501115e+00 1.479264e+00 1.419895e+00 2.272107e+00 1.880642e+00 2.105628e+00 2.280031e+00 1.936650e+00 2.018196e+00 1.963827e+00 1.997587e+00 1.559135e+00 2.571761e+00 2.319898e-01 2.408473e-01 2.210669e-01 3.404900e-01 3.085047e-01 3.687871e-01 3.892777e-01 3.406794e-01 3.576038e-01 3.468189e-01 3.398416e-01 2.856025e-01 3.133720e-01
<GCONST> 1.177766e+02
<STATE> 4
<MEAN> 39
 -7.381522e+00 3.330936e+00 2.047153e+00 -3.046288e+00 -4.874629e+00 -2.964739e+00 -5.433913e-01 -3.441086e+00 -4.156183e+00 -7.898898e-01 -2.925678e+00 8.747759e-01 5.354753e+01 4.188114e-03 7.886445e-03 8.638212e-04 -3.319199e-05 4.583947e-03 2.944113e-03 -4.185917e-03 -2.407409e-03 4.110487e-03 -9.366490e-04 -2.847919e-03 -1.119324e-03 -3.485081e-03 -2.780182e-04 4.271456e-06 2.111308e-05 2.157945e-05 -1.623377e-04 6.947975e-04 6.310043e-04 2.858052e-04 2.109315e-04 1.335133e-04 3.614691e-04 -5.897314e-04 -3.645968e-04
<VARIANCE> 39
 3.956010e+01 5.039151e+01 5.962346e+01 1.002791e+02 6.064148e+01 5.444832e+01 5.840739e+01 4.790145e+01 4.806982e+01 5.399290e+01 6.658193e+01 3.143701e+01 1.841879e+02 1.501115e+00 1.479264e+00 1.419895e+00 2.272107e+00 1.880642e+00 2.105628e+00 2.280031e+00 1.936650e+00 2.018196e+00 1.963827e+00 1.997587e+00 1.559135e+00 2.571761e+00 2.319898e-01 2.408473e-01 2.210669e-01 3.404900e-01 3.085047e-01 3.687871e-01 3.892777e-01 3.406794e-01 3.576038e-01 3.468189e-01 3.398416e-01 2.856025e-01 3.133720e-01
<GCONST> 1.177766e+02
<TRANSP> 5
 0.000000e+00 1.000000e+00 0.000000e+00 0.000000e+00 0.000000e+00
 0.000000e+00 6.000000e-01 4.000000e-01 0.000000e+00 0.000000e+00
 0.000000e+00 0.000000e+00 6.000000e-01 4.000000e-01 0.000000e+00
 0.000000e+00 0.000000e+00 0.000000e+00 7.000000e-01 3.000000e-01
 0.000000e+00 0.000000e+00 0.000000e+00 0.000000e+00 0.000000e+00
<ENDHMM>
~h "ih"
<BEGINHMM>
<NUMSTATES> 5
<STATE> 2
<MEAN> 39
 -8.840515e+00 2.055454e+00 7.053814e+00 -1.318474e+01 -2.017151e+01 -9.830393e+00 -5.774088e+00 -1.040137e+01 -1.039497e+01 5.106750e+00 -7.594711e+00 -5.708337e-01 7.010292e+01 2.927290e-01 -2.319741e-01 1.373454e+00 -1.927808e+00 -7.589871e-01 -4.505738e-01 -1.250261e+00 -9.276279e-01 -2.491164e-01 3.463902e-01 -9.899624e-01 1.872974e-01 7.282446e-01 -2.547769e-01 4.892977e-02 -1.567477e-01 1.914741e-01 2.824152e-01 2.790743e-01 1.131989e-01 1.812854e-01 1.638397e-01 -4.921158e-02 -8.215694e-03 9.717905e-02 -1.853901e-01
<VARIANCE> 39
 2.290293e+01 1.719258e+01 6.072952e+01 1.133771e+02 5.839318e+01 3.300356e+01 5.032829e+01 4.599261e+01 2.032103e+01 2.988142e+01 2.646058e+01 1.511773e+01 3.683166e+01 2.956552e+00 1.258312e+00 2.684992e+00 3.765183e+00 5.426789e+00 4.171852e+00 2.943386e+00 2.583170e+00 2.361096e+00 1.892726e+00 1.774426e+00 1.255621e+00 1.581261e+00 4.382260e-01 1.732738e-01 3.307912e-01 4.373486e-01 6.925468e-01 6.367268e-01 4.234074e-01 2.833265e-01 4.205230e-01 3.713749e-01 3.150680e-01 2.332012e-01 1.368308e-01
<GCONST> 1.154326e+02
<STATE> 3
<MEAN> 39
 -9.635808e+00 2.531020e+00 1.044692e+01 -1.210758e+01 -1.611689e+01 -5.318110e+00 -6.017174e+00 -1.024543e+01 -5.460243e+00 5.044099e+00 -9.242519e+00 3.557829e+00 6.161965e+01 -3.022770e-01 -1.332190e-01 -8.546184e-01 1.341484e+00 2.751705e-01 2.694914e-01 9.974518e-01 6.183738e-01 3.084309e-01 -1.016515e-01 7.434570e-01 1.351740e-02 -4.040670e-01 -8.902840e-02 8.910676e-02 -9.025502e-02 1.065456e-01 -9.295329e-03 2.369088e-02 3.989800e-02 5.597737e-02 -1.155232e-02 -1.665304e-02 1.320872e-01 -4.536327e-02 3.866859e-02
<VARIANCE> 39
 2.255669e+01 3.239040e+01 7.344332e+01 1.130066e+02 2.260579e+01 3.126976e+01 7.749038e+01 4.406117e+01 3.640260e+01 2.958053e+01 6.972115e+01 2.076616e+01 9.549999e+01 2.858076e+00 3.557158e+00 5.102644e+00 4.659717e+00 1.659791e+00 2.625834e+00 4.813869e+00 2.632364e+00 3.113155e+00 3.252836e+00 4.383065e+00 2.043075e+00 7.423583e+00 3.596280e-01 7.153304e-01 7.222100e-01 7.141647e-01 3.108834e-01 5.285245e-01 9.853947e-01 4.798266e-01 5.494618e-01 6.796538e-01 6.800164e-01 3.950526e-01 9.440002e-01
<GCONST> 1.298899e+02
<STATE> 4
<MEAN> 39
 -1.969189e+01 4.186741e+00 -6.413180e+00 6.773596e+00 -9.879766e+00 -2.714190e+00 4.845186e+00 9.883332e-01 -3.650010e+00 1.731506e+00 1.976226e+00 2.535190e+00 6.037202e+01 2.204156e-01 1.012172e-01 2.530486e-01 -1.184646e-01 3.523984e-01 -2.452851e-02 -1.080988e-01 2.214058e-02 1.441889e-01 -1.354608e-01 5.042550e-02 6.341831e-02 -6.255113e-01 1.786708e-01 -1.343738e-01 1.305947e-01 -4.298357e-02 5.530714e-03 -7.004767e-02 -1.376026e-02 -4.706662e-02 1.058893e-02 1.729021e-02 -3.503413e-02 2.651324e-02 -1.225328e-01
<VARIANCE> 39
 2.488105e+01 7.189504e+00 2.671618e+01 2.089285e+01 2.225309e+01 2.127053e+01 1.871882e+01 2.541189e+01 2.449060e+01 1.779052e+01 2.007753e+01 1.590130e+01 3.552735e+01 1.198834e+00 1.136574e+00 1.428788e+00 1.235575e+00 1.263621e+00 1.883212e+00 1.672099e+00 1.691784e+00 1.804718e+00 1.824405e+00 1.677183e+00 1.371528e+00 8.523397e-01 1.595533e-01 1.880194e-01 1.865876e-01 2.324349e-01 2.399838e-01 3.581844e-01 3.224136e-01 3.267523e-01 3.723896e-01 3.488561e-01 3.316209e-01 2.801495e-01 1.770324e-01
<GCONST> 9.807842e+01
<TRANSP> 5
 0.000000e+00 1.000000e+00 0.000000e+00 0.000000e+00 0.000000e+00
 0.000000e+00 8.610331e-01 1.389669e-01 0.000000e+00 0.000000e+00
 0.000000e+00 0.000000e+00 9.051534e-01 9.484664e-02 0.000000e+00
 0.000000e+00 0.000000e+00 0.000000e+00 9.036577e-01 9.634229e-02
 0.000000e+00 0.000000e+00 0.000000e+00 0.000000e+00 0.000000e+00
<ENDHMM>
~h "iy"
<BEGINHMM>
<NUMSTATES> 5
<STATE> 2
<MEAN> 39
 -1.249498e+01 1.346298e+01 1.306313e+01 -1.832133e+01 -9.413195e+00 -4.852507e+00 -1.271584e+01 -9.572996e+00 -1.010171e+01 -1.749150e+00 -1.453176e+01 -2.900155e+00 6.515595e+01 1.973410e-01 2.631535e-01 -2.167485e-02 1.334915e-01 3.990374e-01 7.460402e-03 5.480736e-03 5.154316e-02 1.579653e-01 -1.800229e-01 6.055144e-02 9.971838e-02 -5.466697e-01 4.278325e-02 -4.681906e-02 -2.284029e-02 1.116697e-01 1.076797e-02 -1.587350e-02 6.331056e-02 -5.116049e-03 3.125648e-02 1.255495e-02 5.991226e-02 5.563699e-03 -6.056620e-02
<VARIANCE> 39
 1.008354e+01 1.830142e+01 9.979030e+00 2.020070e+01 3.399517e+01 1.896846e+01 3.687127e+01 1.364167e+01 2.271471e+01 1.816974e+01 1.913294e+01 2.279305e+01 3.057627e+01 2.852350e-01 3.853487e-01 3.933552e-01 8.436536e-01 6.713811e-01 6.395932e-01 9.358963e-01 7.741119e-01 7.760304e-01 8.168526e-01 8.566158e-01 7.454495e-01 4.569310e-01 3.570912e-02 6.361533e-02 8.188161e-02 1.386002e-01 1.273653e-01 1.204883e-01 1.598839e-01 1.323168e-01 1.351131e-01 1.301978e-01 1.428452e-01 1.200588e-01 3.826845e-02
<GCONST> 7.427747e+01
<STATE> 3
<MEAN> 39
 -6.041422e+00 1.115921e+01 1.153701e+01 -3.700672e+00 -2.588241e+00 -4.602629e+00 -8.423169e+00 -7.843001e+00 -5.256563e+00 -3.640109e+00 -7.341806e+00 -1.320124e+00 4.907651e+01 5.517422e-02 -1.051182e+00 -3.705655e-01 1.594469e+00 2.548034e-01 1.494965e-01 1.006258e+00 6.397303e-01 5.103549e-01 2.686948e-01 1.070742e+00 2.006215e-01 -1.060739e+00 -7.800312e-02 -3.052421e-02 -8.614053e-02 -1.738793e-01 -4.778488e-02 1.213346e-01 9.368856e-02 1.002666e-01 7.943417e-02 1.616919e-01 8.470986e-02 1.214202e-01 5.087036e-02
<VARIANCE> 39
 1.812631e+01 4.922854e+01 1.861513e+01 6.475942e+01 2.834929e+01 3.481514e+01 5.098079e+01 2.298087e+01 2.524949e+01 2.287009e+01 2.707138e+01 2.031177e+01 3.053782e+01 1.876277e+00 2.889466e+00 1.600527e+00 3.606105e+00 1.895171e+00 3.874131e+00 3.551386e+00 2.070007e+00 2.545819e+00 2.475481e+00 2.154473e+00 2.111566e+00 1.547984e+00 3.961541e-01 6.537024e-01 3.204481e-01 7.494055e-01 3.605049e-01 8.305302e-01 6.652631e-01 3.788711e-01 4.366718e-01 4.057202e-01 3.670717e-01 3.622895e-01 3.008984e-01
<GCONST> 1.165276e+02
<STATE> 4
<MEAN> 39
 -7.285342e+00 4.534911e+00 4.300417e+00 2.389798e+00 -1.917182e+00 5.730990e-01 1.665753e+00 -1.291360e+00 -3.052183e-01 3.094273e+00 2.553201e+00 3.438866e+00 4.137362e+01 1.708373e-03 2.062212e-02 -1.830841e-01 1.886375e-02 5.163642e-02 1.371173e-01 1.516200e-01 1.088593e-01 4.423810e-02 1.102223e-01 1.133080e-01 6.239719e-02 -1.020626e-01 -3.397509e-03 1.639427e-02 2.835218e-02 -1.207103e-02 -9.852540e-03 -4.466209e-02 -2.873422e-02 -3.962499e-02 -4.888311e-02 -5.191277e-02 -6.389652e-02 -3.986437e-02 6.716253e-02
<VARIANCE> 39
 1.390718e+01 2.109902e+01 1.864666e+01 1.863274e+01 1.751437e+01 2.170453e+01 2.645420e+01 2.416278e+01 1.962738e+01 2.284361e+01 1.924833e+01 1.669860e+01 1.792413e+01 1.259843e+00 1.307027e+00 1.340906e+00 1.573302e+00 1.378760e+00 2.157096e+00 2.123612e+00 1.808555e+00 1.847199e+00 1.918030e+00 1.743915e+00 1.616565e+00 9.197186e-01 2.458036e-01 2.335336e-01 2.454709e-01 2.913503e-01 2.674137e-01 4.127970e-01 4.086651e-01 3.624213e-01 3.651910e-01 3.692809e-01 3.310565e-01 3.236525e-01 1.766583e-01
<GCONST> 1.006936e+02
<TRANSP> 5
 0.000000e+00 1.000000e+00 0.000000e+00 0.000000e+00 0.000000e+00
 0.000000e+00 9.638102e-01 3.618979e-02 0.000000e+00 0.000000e+00
 0.000000e+00 0.000000e+00 8.916187e-01 1.083813e-01 0.000000e+00
 0.000000e+00 0.000000e+00 0.000000e+00 9.648537e-01 3.514624e-02
 0.000000e+00 0.000000e+00 0.000000e+00 0.000000e+00 0.000000e+00
<ENDHMM>
~h "jh"
<BEGINHMM>
<NUMSTATES> 5
<STATE> 2
<MEAN> 39
 -1.234278e+01 7.635855e+00 7.068946e+00 -1.114655e+00 -7.629182e+00 -4.885472e+00 1.355177e+00 -6.735242e+00 -7.031176e+00 -3.604393e+00 -3.936885e+00 -3.123692e+00 5.808574e+01 -6.209162e-01 4.067795e-02 3.201824e-01 -6.844139e-01 -9.587545e-01 -7.363693e-01 -2.712958e-01 -3.966182e-01 -3.987206e-01 -2.089845e-01 -1.647500e-01 -3.724499e-01 1.940367e+00 1.041527e-01 -1.254459e-01 1.699601e-02 -1.086877e-01 -9.786889e-02 -4.455477e-03 7.449511e-02 5.617728e-03 7.441051e-02 1.247535e-01 -1.427133e-02 7.206469e-02 -6.425744e-02
<VARIANCE> 39
 1.769807e+02 4.300051e+01 2.888962e+01 3.566147e+01 5.673776e+01 3.518895e+01 3.056687e+01 2.889892e+01 3.136990e+01 2.338335e+01 3.245768e+01 2.205731e+01 1.438877e+02 1.569175e+01 6.058816e+00 3.859300e+00 2.053358e+00 6.764125e+00 3.248085e+00 2.943452e+00 3.149570e+00 3.317942e+00 2.887130e+00 3.383764e+00 2.026692e+00 4.168987e+00 2.338137e+00 1.186441e+00 7.668713e-01 3.568565e-01 1.000437e+00 5.284637e-01 5.681863e-01 4.763163e-01 5.126946e-01 5.104662e-01 5.016730e-01 3.831544e-01 8.100979e-01
<GCONST> 1.322091e+02
<STATE> 3
<MEAN> 39
 -1.095967e+01 7.082784e-01 9.429320e+00 -1.703475e+01 -2.252838e+01 -1.070279e+01 1.063916e+00 -1.089897e+01 -5.884520e+00 -1.879588e+00 -1.169735e+01 -6.912122e+00 7.426513e+01 2.343763e-01 -1.261338e-01 2.194578e-01 -6.851130e-01 -1.452111e-01 3.277046e-01 -1.949056e-01 -3.596829e-01 1.269805e-01 1.974961e-01 -6.486329e-01 1.215441e-01 -5.094248e-02 -1.631359e-01 1.796269e-01 -5.686254e-02 7.523958e-02 2.148229e-01 1.293973e-01 -6.634297e-02 1.048521e-01 3.298992e-02 -7.721530e-04 1.160027e-01 5.369497e-02 -5.511089e-02
<VARIANCE> 39
 3.008462e+01 3.203902e+01 1.999072e+01 3.399126e+01 2.632581e+01 1.877712e+01 3.319446e+01 2.590631e+01 2.930100e+01 1.244297e+01 2.176931e+01 1.576078e+01 8.507316e+00 5.177841e-01 7.441652e-01 9.443832e-01 8.935217e-01 8.939111e-01 6.875620e-01 1.406751e+00 1.329824e+00 9.093916e-01 8.669938e-01 1.453944e+00 1.382747e+00 1.473311e-01 1.293890e-01 8.626492e-02 1.189384e-01 9.281270e-02 1.675180e-01 1.318842e-01 1.841858e-01 2.076973e-01 1.290777e-01 1.616223e-01 1.538648e-01 2.233032e-01 1.498278e-02
<GCONST> 8.194984e+01
<STATE> 4
<MEAN> 39
 -9.963906e+00 1.008651e+01 1.436916e+01 -1.493933e+01 -1.474408e+01 -4.512056e+00 -7.582439e+00 -1.125438e+01 -1.733657e+00 -1.187554e+00 -8.121456e+00 -3.972038e-01 6.364524e+01 1.151162e-01 4.965303e-01 1.307358e-01 5.550520e-01 7.266476e-01 3.678951e-01 -3.473460e-01 8.292393e-02 1.827262e-02 -1.814299e-01 1.476362e-01 -3.708796e-02 -9.293938e-01 2.080240e-02 -6.455425e-02 -5.570613e-02 5.406340e-02 4.493096e-03 9.393184e-04 6.095859e-02 5.120013e-02 5.495821e-03 -1.201538e-02 2.380621e-03 -3.810534e-02 -4.541802e-02
<VARIANCE> 39
 1.429618e+01 2.865480e+01 1.057994e+01 3.405911e+01 5.244814e+01 2.223983e+01 2.455525e+01 1.749358e+01 2.481644e+01 1.590301e+01 1.955634e+01 1.283579e+01 7.032590e+01 4.334679e-01 4.817207e-01 5.262917e-01 9.881734e-01 8.063991e-01 8.966243e-01 1.094790e+00 8.217263e-01 7.707894e-01 8.414989e-01 6.970444e-01 8.406008e-01 3.370027e-01 6.774127e-02 5.819669e-02 7.668110e-02 1.614492e-01 1.425400e-01 1.640031e-01 1.803583e-01 1.462324e-01 1.403900e-01 1.498135e-01 1.166478e-01 1.356028e-01 3.349236e-02
<GCONST> 7.903165e+01
<TRANSP> 5
 0.000000e+00 1.000000e+00 0.000000e+00 0.000000e+00 0.000000e+00
 0.000000e+00 9.348597e-01 6.514032e-02 0.000000e+00 0.000000e+00
 0.000000e+00 0.000000e+00 9.242894e-01 7.571062e-02 0.000000e+00
 0.000000e+00 0.000000e+00 0.000000e+00 9.319419e-01 6.805813e-02
 0.000000e+00 0.000000e+00 0.000000e+00 0.000000e+00 0.000000e+00
<ENDHMM>
