~o
<STREAMINFO> 1 39
<VECSIZE> 39<NULLD><MFCC_D_A_0><DIAGC>
~s "silst"
<MEAN> 39
 -7.267324e+00 4.183570e+00 2.729958e+00 3.740813e+00 2.278614e-01 -4.292220e-01 2.107386e+00 2.451559e-01 7.295486e-01 2.182230e+00 1.905907e+00 4.444876e+00 4.255414e+01 -7.954633e-02 9.028966e-02 -5.505670e-02 2.771563e-02 7.145669e-02 -1.013786e-01 -1.423991e-02 -5.165576e-02 4.273112e-03 -3.785633e-02 -1.108947e-01 -6.462922e-02 1.838062e-01 -3.062878e-02 -2.126914e-02 2.261265e-02 -3.036172e-02 -5.560599e-02 -5.218908e-04 4.005793e-02 -8.477076e-03 -4.581304e-02 -5.156206e-03 -4.114510e-03 -5.402059e-02 7.587884e-02
<VARIANCE> 39
 1.568608e+01 2.222996e+01 1.613013e+01 1.419775e+01 1.867513e+01 2.497194e+01 2.583381e+01 2.695971e+01 2.153079e+01 2.105902e+01 2.198211e+01 1.710246e+01 1.618142e+01 1.229153e+00 1.706063e+00 1.720483e+00 1.426888e+00 1.757568e+00 2.596577e+00 2.470592e+00 2.086527e+00 2.088515e+00 1.953359e+00 2.260757e+00 1.693668e+00 1.101216e+00 2.405269e-01 3.161345e-01 3.376946e-01 2.921524e-01 3.415977e-01 5.151595e-01 4.833707e-01 4.046117e-01 4.088623e-01 3.666976e-01 4.578153e-01 3.430720e-01 2.278640e-01
<GCONST> 1.046385e+02
~h "b"
<BEGINHMM>
<NUMSTATES> 5
<STATE> 2
<MEAN> 39
 -5.630015e+00 5.989020e+00 2.716621e+00 2.980767e+00 6.634451e-01 1.637647e+00 1.834092e+00 -4.538871e-01 -1.590866e-01 1.278213e+00 2.246658e+00 4.312315e+00 3.954526e+01 -1.543899e-01 9.803195e-03 1.472543e-02 -6.225705e-03 8.263068e-02 -3.640037e-03 4.042229e-03 6.413208e-02 6.148755e-02 4.166789e-03 1.205533e-01 3.807607e-02 6.304372e-02 -8.069517e-02 -6.901510e-02 5.395008e-03 -9.750061e-03 -6.630178e-02 -9.168272e-02 3.866628e-02 9.039545e-03 3.974356e-03 3.578994e-02 -3.112938e-02 -1.381772e-02 2.692260e-01
<VARIANCE> 39
 1.426105e+01 1.914295e+01 6.262526e+00 9.097640e+00 1.253548e+01 1.607697e+01 1.702185e+01 1.883240e+01 1.991105e+01 2.072583e+01 2.726983e+01 1.708387e+01 1.692954e+01 1.253976e+00 7.325514e-01 7.099081e-01 7.750508e-01 1.118498e+00 1.447266e+00 1.857537e+00 1.516538e+00 1.341474e+00 1.502371e+00 2.106357e+00 1.550124e+00 7.484579e-01 2.788627e-01 1.792892e-01 1.715588e-01 1.751332e-01 2.305355e-01 3.478249e-01 3.662997e-01 3.290403e-01 2.744436e-01 3.090321e-01 4.071444e-01 3.569221e-01 5.312251e-01
<GCONST> 9.366145e+01
<STATE> 3
<MEAN> 39
 -6.383155e+00 3.340287e+00 3.102698e+00 -1.265066e-01 -3.106758e+00 -5.149398e+00 2.973477e+00 -1.269831e+00 -2.831619e+00 6.921345e-01 -2.412531e+00 1.752169e+00 5.693293e+01 -1.514382e+00 -1.289084e+00 1.108054e+00 -1.165563e+00 -1.916386e+00 -1.691747e+00 6.109786e-02 -1.778942e-01 -4.975264e-01 3.956497e-01 -6.264200e-01 -4.719254e-01 6.944448e+00 2.154174e-01 1.187884e-01 2.903255e-01 -7.689098e-01 -7.489427e-01 -7.723693e-02 -4.492854e-01 -2.995161e-01 -2.230265e-01 -3.180566e-01 -7.454119e-01 -2.484863e-01 3.399103e-01
<VARIANCE> 39
 3.699338e+01 3.404899e+01 1.840981e+01 4.732900e+01 2.038715e+01 5.587910e+01 2.151152e+01 2.750157e+01 2.824304e+01 3.233442e+01 2.494849e+01 1.716714e+01 1.850294e+02 5.718838e+00 3.870643e+00 6.039048e+00 5.328743e+00 4.202169e+00 4.040177e+00 3.812809e+00 4.621845e+00 3.485490e+00 3.158857e+00 5.361877e+00 2.537740e+00 5.332225e+00 1.296346e+00 6.382058e-01 8.414048e-01 9.507751e-01 6.066082e-01 8.724604e-01 8.637052e-01 6.350635e-01 6.589280e-01 7.264376e-01 5.115113e-01 4.069473e-01 3.415646e+00
<GCONST> 1.333294e+02
<STATE> 4
<MEAN> 39
 -1.061298e+01 5.255375e+00 1.205487e+01 -1.040902e+01 -1.281553e+01 -3.358751e+00 -3.766984e+00 -7.152915e+00 -7.277878e+00 1.461635e+00 -8.985888e+00 -2.573898e+00 7.300466e+01 -8.554171e-01 5.704794e-01 2.271645e-02 -2.937605e+00 -1.319370e+00 -5.668427e-01 -2.244767e+00 -6.503793e-01 -1.395253e+00 -1.409268e+00 -1.808821e+00 -1.461136e+00 9.556133e-01 2.743939e-01 4.071280e-02 -7.464543e-01 4.611818e-01 6.618923e-01 6.272307e-02 1.085957e-01 3.027458e-01 1.705365e-01 -2.728971e-01 1.321936e-01 -5.676586e-02 -1.209665e+00
<VARIANCE> 39
 1.585375e+01 3.748848e+01 7.562280e+01 6.391174e+01 3.208209e+01 7.642115e+01 7.473993e+01 3.316573e+01 3.008350e+01 4.339079e+01 2.132531e+01 3.655425e+01 3.270282e+01 3.434589e+00 2.212308e+00 6.230216e+00 5.126340e+00 4.059680e+00 3.282768e+00 4.521987e+00 3.529783e+00 4.033180e+00 3.592514e+00 1.688410e+00 1.877740e+00 4.016730e+00 4.640803e-01 3.496695e-01 8.846214e-01 9.474752e-01 4.989043e-01 6.348059e-01 7.729429e-01 6.312135e-01 4.472661e-01 6.408762e-01 3.610524e-01 4.941342e-01 1.183811e+00
<GCONST> 1.288909e+02
<TRANSP> 5
 0.000000e+00 1.000000e+00 0.000000e+00 0.000000e+00 0.000000e+00
 0.000000e+00 9.111017e-01 8.889833e-02 0.000000e+00 0.000000e+00
 0.000000e+00 0.000000e+00 7.028195e-01 2.971805e-01 0.000000e+00
 0.000000e+00 0.000000e+00 0.000000e+00 6.984493e-01 3.015507e-01
 0.000000e+00 0.000000e+00 0.000000e+00 0.000000e+00 0.000000e+00
<ENDHMM>
~h "d"
<BEGINHMM>
<NUMSTATES> 5
<STATE> 2
<MEAN> 39
 -8.539110e+00 5.135942e+00 3.489555e+00 -9.492460e-01 -4.298335e+00 -1.720594e+00 1.748558e+00 -3.440205e+00 -2.424267e+00 9.121940e-01 -2.146094e+00 -5.528354e-02 5.121516e+01 -7.922068e-01 -4.912412e-01 2.666368e-02 -1.046965e-01 -8.542374e-01 -4.826176e-01 4.871032e-01 -3.837816e-01 -6.709844e-01 2.082952e-01 -2.440085e-01 -2.863287e-01 2.342302e+00 2.046219e-01 2.313606e-01 3.214095e-01 -2.301465e-01 -1.702099e-01 6.737463e-03 -2.586595e-01 -1.051328e-01 -2.030433e-01 -1.431749e-01 -1.754552e-01 -7.689291e-02 -1.587290e-01
<VARIANCE> 39
 4.045736e+01 3.061326e+01 3.898677e+01 4.057028e+01 3.220041e+01 2.790527e+01 5.256102e+01 4.080412e+01 3.081803e+01 3.718444e+01 3.751505e+01 3.167022e+01 1.177746e+02 3.595353e+00 3.775668e+00 5.897448e+00 5.159315e+00 3.739262e+00 3.442611e+00 9.837819e+00 3.710612e+00 3.217261e+00 3.313431e+00 4.236688e+00 3.259330e+00 1.069766e+01 6.868675e-01 5.685351e-01 8.888445e-01 6.017790e-01 6.916291e-01 5.592613e-01 1.348482e+00 7.497212e-01 5.283604e-01 5.774434e-01 6.453377e-01 6.876436e-01 2.631439e+00
<GCONST> 1.355306e+02
<STATE> 3
<MEAN> 39
 -7.774136e+00 3.588563e+00 6.004679e+00 1.984614e-01 -5.753598e+00 -4.376772e+00 3.561096e+00 -2.654906e+00 -3.386002e+00 1.762404e+00 -1.680304e-01 8.344592e-01 4.845074e+01 5.100448e-01 8.771858e-02 3.389323e-01 -8.662551e-02 3.650698e-01 1.314869e-01 -7.642018e-01 2.072770e-01 3.670772e-01 -1.341510e-01 1.162352e-01 4.136491e-01 -1.320037e+00 -3.859760e-02 3.885143e-02 -2.697994e-01 -5.578943e-02 1.429586e-01 1.936201e-01 -5.842380e-02 1.159111e-01 1.713151e-01 1.546560e-01 9.774280e-02 -7.333155e-04 -1.033841e-01
<VARIANCE> 39
 2.891451e+01 2.360579e+01 3.454809e+01 5.454345e+01 3.234258e+01 2.893098e+01 4.869646e+01 2.987923e+01 2.992180e+01 2.429647e+01 2.338175e+01 1.944990e+01 6.478832e+01 2.987435e+00 2.197976e+00 3.296754e+00 3.034866e+00 2.128685e+00 2.904533e+00 2.996529e+00 2.424762e+00 2.388262e+00 2.371501e+00 1.807508e+00 1.525033e+00 3.408216e+00 6.165953e-01 5.179828e-01 6.178474e-01 4.938197e-01 5.392808e-01 7.010786e-01 7.340160e-01 4.263373e-01 5.158885e-01 4.595328e-01 3.577709e-01 3.128615e-01 7.661980e-01
<GCONST> 1.203542e+02
<STATE> 4
<MEAN> 39
 -6.759567e+00 4.939028e+00 3.859346e+00 2.294506e+00 -1.396948e+00 -3.902819e-01 2.013067e+00 1.341933e-01 8.222490e-02 3.680946e+00 2.839992e+00 3.711234e+00 4.050916e+01 5.272288e-02 1.848441e-01 -4.982916e-02 -6.141604e-02 1.443652e-02 4.046458e-02 -1.079665e-01 2.836323e-03 -7.599769e-02 -5.228555e-02 -5.915963e-02 -8.140217e-02 -9.925085e-02 1.405595e-02 -1.251112e-02 4.489466e-03 6.502755e-03 -2.017551e-02 -3.541373e-02 1.860217e-02 -5.966001e-02 -5.719095e-02 -7.734296e-02 -7.717852e-02 -3.628884e-02 7.370619e-02
<VARIANCE> 39
 8.288098e+00 1.615551e+01 1.175909e+01 1.696617e+01 1.835485e+01 1.883954e+01 2.870603e+01 2.754208e+01 2.082503e+01 2.087865e+01 1.903263e+01 1.624461e+01 2.507627e+01 5.432071e-01 6.933683e-01 6.583610e-01 9.434466e-01 1.414220e+00 1.545352e+00 1.640481e+00 1.517694e+00 1.840008e+00 2.189239e+00 1.647787e+00 1.515543e+00 5.139650e-01 1.263131e-01 1.166038e-01 1.570324e-01 1.723102e-01 2.903031e-01 2.784874e-01 3.310556e-01 2.960882e-01 3.315347e-01 4.046282e-01 3.383258e-01 3.010964e-01 9.141329e-02
<GCONST> 9.195306e+01
<TRANSP> 5
 0.000000e+00 1.000000e+00 0.000000e+00 0.000000e+00 0.000000e+00
 0.000000e+00 8.286650e-01 1.713351e-01 0.000000e+00 0.000000e+00
 0.000000e+00 0.000000e+00 7.932711e-01 2.067289e-01 0.000000e+00
 0.000000e+00 0.000000e+00 0.000000e+00 9.447200e-01 5.528004e-02
 0.000000e+00 0.000000e+00 0.000000e+00 0.000000e+00 0.000000e+00
<ENDHMM>
~h "f"
<BEGINHMM>
<NUMSTATES> 5
<STATE> 2
<MEAN> 39
 -1.264967e+01 3.446770e+00 -1.397536e+00 5.306993e+00 -1.155432e+00 1.727412e-01 3.310517e+00 8.474311e-01 -1.060351e+00 2.588153e+00 9.232893e-01 2.930270e+00 5.184043e+01 -4.599860e-01 -5.229990e-02 -1.363733e-01 8.941757e-02 -9.301937e-02 -7.986320e-03 6.197444e-02 2.610498e-02 -6.008496e-02 8.022289e-02 -5.973853e-02 1.652954e-02 5.592670e-01 5.789530e-02 -3.399714e-03 1.022170e-02 -3.908340e-02 2.905673e-03 -1.589402e-02 -1.815583e-02 -1.831295e-02 -7.256181e-03 -2.793110e-02 -2.875177e-03 -1.040797e-02 4.403005e-03
<VARIANCE> 39
 4.563200e+01 1.509811e+01 1.781986e+01 1.568838e+01 1.719578e+01 2.058629e+01 1.903804e+01 2.135170e+01 1.831018e+01 1.903483e+01 2.359200e+01 1.568231e+01 9.731300e+01 1.947273e+00 1.252900e+00 1.165714e+00 1.446765e+00 1.476583e+00 1.747075e+00 1.695564e+00 1.837854e+00 1.662339e+00 1.749687e+00 1.731495e+00 1.478849e+00 2.386954e+00 3.107911e-01 2.607771e-01 2.200507e-01 2.987079e-01 2.919108e-01 3.392189e-01 3.353933e-01 3.723586e-01 3.379999e-01 3.581850e-01 3.441132e-01 2.992440e-01 2.757432e-01
<GCONST> 1.031437e+02
<STATE> 3
<MEAN> 39
 -1.610227e+01 2.947126e+00 -3.385853e+00 4.331368e+00 -3.188528e+00 -1.045448e+00 3.654959e+00 2.653294e-01 -3.098800e+00 2.294847e+00 -8.541296e-01 2.201516e+00 6.309189e+01 3.180600e+00 -1.187743e-01 -8.138267e-01 -2.854522e+00 -4.661110e-01 -2.297344e-01 -6.186525e-01 -6.738206e-01 -7.132616e-01 -1.214645e+00 -8.850636e-01 -7.633019e-01 1.526913e+00 8.333079e-01 -2.267807e-01 -5.428528e-01 -1.292182e+00 -3.505016e-01 7.336396e-02 -2.361753e-01 -2.799261e-01 -2.031521e-01 -4.157020e-01 -2.990615e-01 -2.865399e-01 2.837965e-01
<VARIANCE> 39
 3.327301e+01 1.624999e+01 1.431955e+01 1.511005e+01 1.369659e+01 1.547019e+01 1.528120e+01 1.537548e+01 1.544645e+01 1.465791e+01 1.565759e+01 1.304956e+01 3.459544e+01 4.719009e+00 2.150135e+00 2.242059e+00 7.646122e+00 2.470554e+00 1.907637e+00 1.946773e+00 2.092938e+00 1.817861e+00 1.899342e+00 1.706158e+00 1.980634e+00 2.078437e+00 5.404765e-01 4.274371e-01 2.814568e-01 5.491771e-01 4.174546e-01 3.888408e-01 3.525435e-01 3.750854e-01 3.059867e-01 2.912764e-01 2.526671e-01 3.318439e-01 2.687314e-01
<GCONST> 1.063663e+02
<STATE> 4
<MEAN> 39
 -6.245486e-01 -9.417006e-01 -1.095865e+01 -1.681715e+01 -8.977037e+00 -1.871372e+00 6.529830e-02 -4.277829e+00 -7.202362e+00 -5.671382e+00 -6.409908e+00 -2.744260e+00 7.103605e+01 1.238334e+00 -1.203642e+00 -1.452043e+00 -2.729963e+00 -6.822617e-01 -7.344662e-02 -7.676083e-01 -9.313092e-01 -6.285356e-01 -1.193244e+00 -9.154670e-01 -9.840962e-01 1.344956e+00 -8.926626e-01 1.008194e-01 3.799779e-01 1.138871e+00 2.822158e-01 -3.426988e-02 6.731123e-02 1.225655e-01 1.381133e-01 3.640014e-01 1.598720e-01 1.522628e-01 -4.140550e-01
<VARIANCE> 39
 1.402638e+01 6.567204e+01 3.149524e+01 5.373573e+01 4.417752e+01 4.650578e+01 2.399886e+01 2.625390e+01 2.184679e+01 1.988861e+01 1.980299e+01 2.170915e+01 4.341311e+01 4.564868e+00 3.876253e+00 2.012303e+00 9.649241e+00 3.077611e+00 3.045399e+00 2.086861e+00 2.415532e+00 2.077504e+00 2.438726e+00 1.686041e+00 1.845671e+00 2.924317e+00 5.214056e-01 5.191908e-01 2.937648e-01 8.822529e-01 2.984551e-01 4.078392e-01 3.595255e-01 3.692030e-01 3.634441e-01 3.594743e-01 2.794704e-01 3.682219e-01 2.986825e-01
<GCONST> 1.171447e+02
<TRANSP> 5
 0.000000e+00 1.000000e+00 0.000000e+00 0.000000e+00 0.000000e+00
 0.000000e+00 9.552416e-01 4.475836e-02 0.000000e+00 0.000000e+00
 0.000000e+00 0.000000e+00 7.147538e-01 2.852463e-01 0.000000e+00
 0.000000e+00 0.000000e+00 0.000000e+00 7.662911e-01 2.337088e-01
 0.000000e+00 0.000000e+00 0.000000e+00 0.000000e+00 0.000000e+00
<ENDHMM>
~h "k"
<BEGINHMM>
<NUMSTATES> 5
<STATE> 2
<MEAN> 39
 -1.066562e+01 2.439317e-01 1.418244e+00 3.665752e+00 -5.054772e+00 -3.290337e+00 5.642005e+00 2.879612e-02 -1.626975e+00 1.218314e+00 1.519899e+00 3.744144e+00 4.949261e+01 -4.069014e-01 -4.814766e-01 4.053349e-01 2.995078e-01 -6.848783e-02 -5.562289e-01 1.469129e-01 3.379083e-01 2.816803e-01 2.206038e-01 7.453570e-02 1.501663e-01 5.452222e-01 -8.289097e-02 2.211068e-01 -6.441352e-02 -9.158451e-02 -6.644797e-03 1.150089e-01 -7.684387e-02 -2.634454e-02 8.536750e-03 2.995695e-02 3.489840e-02 -3.810073e-02 7.207632e-02
<VARIANCE> 39
 3.463409e+01 4.765341e+01 3.228664e+01 5.665833e+01 3.936474e+01 4.587182e+01 4.630092e+01 4.235794e+01 3.014992e+01 3.290823e+01 2.961245e+01 1.944665e+01 7.634008e+01 4.976766e+00 4.088836e+00 2.593856e+00 4.945565e+00 3.462241e+00 5.342989e+00 3.992316e+00 3.089608e+00 2.828908e+00 2.982524e+00 2.866704e+00 2.083288e+00 9.922861e+00 6.629094e-01 8.888002e-01 4.372869e-01 8.236752e-01 6.699849e-01 1.204759e+00 8.201227e-01 6.069238e-01 5.608520e-01 6.234567e-01 5.770754e-01 4.102931e-01 1.317795e+00
<GCONST> 1.318006e+02
<STATE> 3
<MEAN> 39
 -1.447308e+01 2.481659e+00 1.795887e+00 3.386701e+00 -5.571651e+00 -3.293069e+00 4.394155e+00 1.759458e-01 -6.358124e-01 1.089890e+00 1.486308e+00 3.525714e+00 5.400944e+01 5.375611e-01 5.960597e-01 3.240510e-01 -1.003927e-01 3.656679e-01 4.785068e-01 -4.014248e-01 -1.215536e-01 1.532613e-01 8.464456e-02 2.408931e-01 1.031342e-02 -9.390014e-01 5.574398e-02 2.580141e-02 -1.142319e-01 -5.564775e-02 3.467499e-02 1.049444e-01 -3.654252e-02 -1.097044e-01 -6.712187e-02 2.992885e-02 -3.414934e-02 -1.773799e-02 -1.102562e-01
<VARIANCE> 39
 4.547100e+01 1.680897e+01 3.826918e+01 5.808986e+01 2.705002e+01 2.576075e+01 2.955713e+01 3.623951e+01 3.302901e+01 2.357117e+01 2.588580e+01 1.553746e+01 1.304283e+02 2.149880e+00 2.436565e+00 1.885537e+00 1.527848e+00 1.367608e+00 2.195990e+00 2.475287e+00 2.179427e+00 2.356412e+00 2.387390e+00 2.140482e+00 1.321255e+00 2.571150e+00 3.595275e-01 4.431950e-01 3.587897e-01 3.008234e-01 2.962812e-01 4.330535e-01 4.950677e-01 4.733953e-01 5.411467e-01 4.698083e-01 4.408207e-01 2.854055e-01 3.966190e-01
<GCONST> 1.143471e+02
<STATE> 4
<MEAN> 39
 -7.180209e+00 4.047164e+00 2.992904e+00 4.033614e+00 -9.544273e-01 5.923779e-02 3.634701e+00 2.294879e-01 -4.090782e-01 2.907627e+00 3.466940e+00 4.516433e+00 4.045248e+01 7.811908e-02 1.162251e-01 -1.036570e-02 -9.175699e-02 4.942610e-02 1.422591e-01 -9.776123e-02 -8.006322e-02 2.754043e-02 4.955763e-02 -3.792321e-02 -1.462542e-02 -1.538069e-01 -3.475122e-02 -3.219521e-02 -7.769078e-03 1.027893e-02 -2.773992e-02 -3.610720e-02 8.499648e-03 1.939824e-02 -8.665409e-03 -2.543887e-02 -2.394275e-02 -7.639355e-03 7.077640e-02
<VARIANCE> 39
 8.618977e+00 1.139207e+01 1.062257e+01 1.100307e+01 1.172861e+01 2.222888e+01 2.477160e+01 1.943762e+01 1.883383e+01 1.658517e+01 1.663940e+01 1.478718e+01 1.676393e+01 5.018932e-01 6.026297e-01 6.644846e-01 8.294168e-01 9.991480e-01 1.450577e+00 1.700696e+00 1.458505e+00 1.641955e+00 1.561093e+00 1.536765e+00 1.412406e+00 4.050633e-01 1.037546e-01 1.213304e-01 1.351120e-01 1.642829e-01 2.032423e-01 2.838058e-01 3.336847e-01 2.787612e-01 3.135146e-01 3.169542e-01 3.155898e-01 2.825322e-01 8.958225e-02
<GCONST> 8.658567e+01
<TRANSP> 5
 0.000000e+00 1.000000e+00 0.000000e+00 0.000000e+00 0.000000e+00
 0.000000e+00 7.967169e-01 2.032830e-01 0.000000e+00 0.000000e+00
 0.000000e+00 0.000000e+00 8.170587e-01 1.829413e-01 0.000000e+00
 0.000000e+00 0.000000e+00 0.000000e+00 9.448236e-01 5.517639e-02
 0.000000e+00 0.000000e+00 0.000000e+00 0.000000e+00 0.000000e+00
<ENDHMM>
~h "l"
<BEGINHMM>
<NUMSTATES> 5
<STATE> 2
<MEAN> 39
 -8.784240e-01 8.747053e-01 4.558624e+00 -4.661541e+00 -8.659730e+00 -8.222136e+00 1.987408e+00 -2.459579e+00 -4.335112e+00 -1.954307e+00 -7.853904e+00 -5.658695e-01 6.444954e+01 -1.084553e+00 4.531492e-01 1.571957e+00 -1.125563e-01 -2.097809e+00 -1.982518e-01 6.884181e-01 -1.280706e+00 -2.078624e+00 7.109450e-01 4.594623e-01 -5.554828e-02 1.854560e+00 -2.436557e-01 -1.054581e-01 1.407113e-01 -4.618714e-01 -3.643968e-01 1.050228e-01 -2.132833e-01 -6.242912e-01 -1.729570e-02 9.949575e-02 -2.353398e-01 -1.932573e-01 1.434222e-01
<VARIANCE> 39
 1.616617e+01 1.999517e+01 5.850711e+01 9.158103e+01 5.752200e+01 2.781948e+01 2.847978e+01 2.765736e+01 5.067770e+01 3.779988e+01 3.464270e+01 2.236376e+01 6.783720e+01 1.286008e+00 2.011852e+00 5.343105e+00 8.625070e+00 4.351362e+00 2.206235e+00 3.404338e+00 5.664249e+00 3.129835e+00 2.793857e+00 4.094898e+00 2.455656e+00 5.187604e+00 1.456333e-01 2.770653e-01 7.872302e-01 1.450754e+00 7.299428e-01 4.664942e-01 7.553405e-01 6.779485e-01 6.651920e-01 5.230870e-01 1.167296e+00 5.115461e-01 1.367445e+00
<GCONST> 1.285590e+02
<STATE> 3
<MEAN> 39
 -5.982014e+00 -3.404521e+00 4.463687e+00 -1.427292e+01 -1.986978e+01 -6.477689e+00 6.811642e+00 -9.280185e+00 -5.852315e+00 -5.382666e+00 -1.003197e+01 -6.323972e+00 7.351515e+01 -1.178866e-01 -1.245677e-01 -2.399635e-01 -4.549541e-02 6.836382e-01 3.948428e-01 -1.217951e-01 -6.237117e-01 2.601665e-01 -2.437446e-01 -2.879359e-01 9.061070e-02 -1.337178e-01 6.714021e-02 3.633604e-02 -1.602619e-01 2.952529e-02 2.914333e-01 7.212862e-02 -7.999637e-02 7.896172e-02 1.902543e-01 -7.947151e-03 7.317163e-03 7.007925e-02 -1.163412e-01
<VARIANCE> 39
 1.001466e+01 2.455662e+01 5.447544e+01 4.566801e+01 6.283804e+01 2.446486e+01 3.335229e+01 2.668900e+01 2.894063e+01 4.717395e+01 3.453459e+01 2.360471e+01 2.119684e+01 8.794752e-01 7.753121e-01 1.492011e+00 2.521867e+00 3.583432e+00 1.274794e+00 2.134112e+00 3.247720e+00 1.347183e+00 1.931348e+00 3.314009e+00 1.323442e+00 2.490778e-01 6.484094e-02 1.061568e-01 1.996927e-01 2.100124e-01 3.895855e-01 1.888699e-01 2.777978e-01 3.966156e-01 2.798491e-01 2.879850e-01 3.699416e-01 1.770726e-01 8.721498e-02
<GCONST> 1.009003e+02
<STATE> 4
<MEAN> 39
 -2.364459e+00 1.896912e+00 -3.475684e+00 -5.724001e+00 1.829906e+00 1.641817e+00 4.658680e+00 -7.162179e+00 -2.131553e+00 -1.714935e+00 -2.149227e+00 5.269900e-01 5.157757e+01 -5.782353e-02 3.310043e-01 1.942683e-01 1.898308e-01 2.777859e-02 1.598548e-01 -1.102379e-01 5.715081e-02 -2.377318e-02 3.008917e-01 1.287770e-01 6.477299e-02 -6.525711e-01 -2.814809e-03 2.355525e-03 2.683596e-02 3.486374e-02 -3.086359e-02 -3.689113e-02 1.708002e-02 7.005791e-02 -9.970812e-03 -3.481369e-02 9.027068e-03 2.161012e-02 4.342124e-03
<VARIANCE> 39
 1.921083e+01 3.973493e+01 4.524620e+01 7.163012e+01 3.751001e+01 2.671639e+01 2.642524e+01 5.697341e+01 3.323523e+01 4.535481e+01 4.560542e+01 2.687051e+01 1.756461e+02 6.413395e-01 8.230658e-01 8.684685e-01 1.462398e+00 1.474702e+00 1.517115e+00 1.609103e+00 2.052794e+00 1.808310e+00 1.638676e+00 1.820598e+00 1.551599e+00 5.991722e-01 1.086290e-01 1.002420e-01 1.572308e-01 2.101550e-01 2.654326e-01 2.580530e-01 2.769155e-01 3.503740e-01 3.048307e-01 3.096642e-01 3.071064e-01 2.869340e-01 6.691878e-02
<GCONST> 1.029985e+02
<TRANSP> 5
 0.000000e+00 1.000000e+00 0.000000e+00 0.000000e+00 0.000000e+00
 0.000000e+00 7.378557e-01 2.621442e-01 0.000000e+00 0.000000e+00
 0.000000e+00 0.000000e+00 8.241400e-01 1.758600e-01 0.000000e+00
 0.000000e+00 0.000000e+00 0.000000e+00 9.469559e-01 5.304408e-02
 0.000000e+00 0.000000e+00 0.000000e+00 0.000000e+00 0.000000e+00
<ENDHMM>
~h "m"
<BEGINHMM>
<NUMSTATES> 5
<STATE> 2
<MEAN> 39
 -1.591172e+00 -1.173093e+01 -9.174380e-01 -4.592412e+00 -9.445992e+00 -4.133648e+00 9.711595e-01 -5.481764e+00 -1.223531e+01 -1.428660e+01 -9.004892e+00 -7.660168e-01 7.013321e+01 2.992558e-01 6.536310e-01 1.563037e-01 2.956427e-01 4.179649e-01 -3.307075e-01 -5.362664e-01 1.022097e-01 5.741240e-01 1.425884e-01 3.689109e-01 -9.405555e-02 -6.727934e-01 -5.188741e-02 8.418689e-03 7.563751e-03 1.122705e-02 2.339988e-02 -5.948421e-03 5.303881e-02 -3.468058e-02 1.346161e-02 5.574191e-02 2.173335e-02 7.118652e-02 -3.556224e-03
<VARIANCE> 39
 8.702250e+00 1.955560e+01 4.987943e+00 6.218590e+00 1.770101e+01 2.416908e+01 2.724597e+01 3.223025e+01 4.801588e+01 9.475928e+00 2.368672e+01 1.926334e+01 2.721443e+01 3.763082e-01 9.542539e-01 3.288598e-01 5.276082e-01 8.320590e-01 7.314979e-01 1.825656e+00 1.790752e+00 1.185484e+00 9.066988e-01 1.961755e+00 1.398061e+00 7.211185e-01 7.025556e-02 8.841828e-02 7.505956e-02 8.572956e-02 1.110339e-01 1.785190e-01 3.219799e-01 2.626818e-01 1.884150e-01 1.991902e-01 4.118950e-01 2.948282e-01 7.239404e-02
<GCONST> 8.276386e+01
<STATE> 3
<MEAN> 39
 1.221067e+00 4.666823e+00 2.202959e+00 3.169734e+00 2.731161e-01 -6.337048e+00 -5.687794e+00 -1.117492e+01 -3.298709e+00 -1.020628e+01 -4.179536e+00 -1.064034e+00 5.256176e+01 -1.670944e-01 5.572032e-01 1.710668e-01 3.391747e-01 2.109754e-01 5.611216e-01 1.786845e-01 1.025540e-01 -2.854283e-01 3.580045e-01 -2.299191e-01 2.863580e-01 -9.041502e-01 -4.355028e-02 -1.022858e-01 -3.974732e-02 -6.417932e-02 -4.870474e-02 6.847811e-02 1.202813e-01 1.408418e-01 5.423683e-02 4.687686e-02 2.953319e-02 3.174565e-02 1.675548e-02
<VARIANCE> 39
 4.511897e+00 1.479314e+01 1.162936e+01 1.084132e+01 1.540019e+01 2.974239e+01 2.098763e+01 2.502810e+01 1.964302e+01 1.238724e+01 2.581138e+01 2.297051e+01 3.821227e+01 3.738028e-01 3.984928e-01 5.065827e-01 5.836899e-01 6.535173e-01 1.065424e+00 1.297454e+00 1.493291e+00 1.252243e+00 1.512106e+00 1.335541e+00 1.496144e+00 1.955364e-01 5.806166e-02 6.454968e-02 9.415782e-02 1.087274e-01 1.294934e-01 2.113860e-01 2.528424e-01 1.643480e-01 2.370595e-01 2.584656e-01 2.263405e-01 2.479470e-01 3.267527e-02
<GCONST> 7.946288e+01
<STATE> 4
<MEAN> 39
 -5.910650e+00 4.706951e+00 1.140114e+00 3.166816e+00 1.043803e+00 1.839173e+00 2.298870e+00 6.829553e-01 2.189681e-01 1.453404e+00 2.040717e+00 4.589067e+00 3.955704e+01 -1.345767e-01 -9.348138e-02 -6.268701e-02 -7.490169e-02 -7.024881e-02 4.287750e-02 1.429479e-01 1.600103e-01 1.800879e-01 2.832315e-01 2.653242e-01 1.548206e-01 -1.098467e-01 4.450225e-02 2.877481e-02 2.580857e-02 1.265559e-02 -4.929362e-03 -5.254845e-02 -5.126508e-02 -4.338661e-02 -4.885035e-02 -6.509636e-02 -5.230337e-02 -4.179185e-02 3.172081e-02
<VARIANCE> 39
 5.314188e+00 8.888249e+00 1.077443e+01 9.805387e+00 9.467761e+00 1.662504e+01 1.559110e+01 2.349293e+01 1.604650e+01 1.717526e+01 1.948820e+01 1.664975e+01 9.290060e+00 3.520248e-01 5.573553e-01 7.592788e-01 7.722955e-01 9.189715e-01 1.464264e+00 1.461282e+00 1.735179e+00 1.791491e+00 1.703148e+00 1.792369e+00 1.691089e+00 3.272666e-01 6.882538e-02 1.025454e-01 1.454060e-01 1.397592e-01 1.737991e-01 3.123197e-01 2.942182e-01 3.277579e-01 3.569978e-01 2.879609e-01 3.517161e-01 3.242092e-01 6.495087e-02
<GCONST> 8.367454e+01
<TRANSP> 5
 0.000000e+00 1.000000e+00 0.000000e+00 0.000000e+00 0.000000e+00
 0.000000e+00 8.754576e-01 1.245423e-01 0.000000e+00 0.000000e+00
 0.000000e+00 0.000000e+00 9.488082e-01 5.119178e-02 0.000000e+00
 0.000000e+00 0.000000e+00 0.000000e+00 9.642236e-01 3.577644e-02
 0.000000e+00 0.000000e+00 0.000000e+00 0.000000e+00 0.000000e+00
<ENDHMM>
~h "n"
<BEGINHMM>
<NUMSTATES> 5
<STATE> 2
<MEAN> 39
 -3.086287e+00 1.412138e+00 1.236899e+00 -7.833272e+00 -5.193076e+00 -1.322792e+01 -4.942227e+00 -2.984941e+00 -1.246575e+01 -1.414568e+01 -1.303378e+01 -1.257922e+00 6.279113e+01 2.445875e-01 3.962708e-01 3.478855e-01 4.631788e-01 1.386640e-01 -9.789924e-02 -1.102656e-01 -1.504543e-01 -3.984644e-01 -3.831519e-01 -7.816816e-02 -8.111437e-02 -7.668241e-01 -8.808007e-03 1.426826e-02 -9.144021e-03 9.088423e-02 2.179309e-02 8.042049e-02 -1.967621e-02 -3.109633e-02 4.098587e-02 1.019293e-01 6.014837e-02 -7.354696e-03 -8.978963e-02
<VARIANCE> 39
 8.875221e+00 3.518545e+01 4.340307e+01 4.746123e+01 3.101954e+01 5.869034e+01 5.504873e+01 4.541651e+01 7.084481e+01 4.380596e+01 5.780227e+01 2.581754e+01 7.994149e+01 5.429531e-01 6.773727e-01 7.688122e-01 1.399026e+00 1.520608e+00 1.467227e+00 1.634406e+00 1.872375e+00 2.197923e+00 1.743662e+00 1.584657e+00 1.251122e+00 1.311995e+00 7.878415e-02 1.030886e-01 1.185141e-01 1.960667e-01 2.457810e-01 2.338558e-01 2.562853e-01 2.949045e-01 3.401262e-01 2.486456e-01 2.522685e-01 2.244530e-01 1.024639e-01
<GCONST> 1.017713e+02
<STATE> 3
<MEAN> 39
 -1.689983e+00 4.788667e+00 4.557750e+00 -1.803918e+00 -4.851306e+00 -9.375222e+00 -4.657024e+00 -5.322883e+00 -9.114962e+00 -1.310722e+01 -1.048596e+01 -1.424392e+00 5.370265e+01 -3.024051e-01 -1.000542e+00 -7.478468e-01 1.209127e-02 5.671093e-01 5.334799e-01 6.680974e-01 7.637293e-01 2.426654e-01 5.086218e-01 5.353866e-01 4.063789e-01 2.491035e-01 -1.863150e-01 -2.080243e-01 -1.205047e-01 -8.819923e-02 1.408324e-01 2.149335e-01 1.674997e-01 9.904533e-02 1.139548e-01 2.264431e-01 2.108109e-01 1.167770e-01 5.935927e-02
<VARIANCE> 39
 1.072595e+01 3.457902e+01 2.896592e+01 2.423213e+01 3.528062e+01 6.428679e+01 5.092929e+01 4.228618e+01 4.941008e+01 4.084587e+01 3.514117e+01 2.387473e+01 1.008586e+02 1.267117e+00 2.907043e+00 1.743159e+00 2.653727e+00 3.424176e+00 3.994234e+00 3.794304e+00 3.159299e+00 5.984067e+00 4.450785e+00 4.313043e+00 2.453058e+00 5.508820e+00 2.039666e-01 3.960513e-01 2.773855e-01 3.825333e-01 4.978944e-01 5.056423e-01 5.954742e-01 6.466084e-01 9.173405e-01 4.944368e-01 4.272216e-01 4.038352e-01 3.444283e-01
<GCONST> 1.230803e+02
<STATE> 4
<MEAN> 39
 -6.515786e+00 2.850347e+00 3.195341e+00 2.293794e+00 -1.084632e+00 -1.326729e-01 1.916887e+00 -7.736243e-01 -1.766380e+00 1.440447e+00 1.943212e+00 3.483944e+00 4.261169e+01 -6.693386e-02 -6.111093e-03 -8.006243e-02 6.168226e-02 4.462709e-02 1.120344e-01 8.311629e-02 6.277823e-02 1.952527e-01 2.099060e-01 1.914308e-01 6.948919e-02 -8.673234e-02 1.323307e-02 2.757005e-02 2.129360e-02 -5.099704e-03 -2.998267e-02 -4.783488e-02 -4.373436e-02 -3.742847e-02 -3.844183e-02 -6.691199e-02 -7.306565e-02 -3.869759e-02 5.279855e-02
<VARIANCE> 39
 9.504247e+00 2.576051e+01 1.326547e+01 1.708898e+01 1.655427e+01 2.286664e+01 2.258039e+01 2.591673e+01 2.742183e+01 3.085880e+01 2.539237e+01 1.691181e+01 3.537448e+01 7.415527e-01 1.073183e+00 7.895210e-01 1.129319e+00 1.217500e+00 1.750247e+00 1.871918e+00 1.816954e+00 1.975371e+00 2.056602e+00 1.770352e+00 1.537594e+00 8.924171e-01 1.517600e-01 1.893141e-01 1.559328e-01 2.312283e-01 2.501372e-01 3.482854e-01 3.759149e-01 3.630623e-01 4.148235e-01 3.860405e-01 3.385289e-01 3.151943e-01 1.786187e-01
<GCONST> 9.810939e+01
<TRANSP> 5
 0.000000e+00 1.000000e+00 0.000000e+00 0.000000e+00 0.000000e+00
 0.000000e+00 8.677692e-01 1.322308e-01 0.000000e+00 0.000000e+00
 0.000000e+00 0.000000e+00 8.149080e-01 1.850920e-01 0.000000e+00
 0.000000e+00 0.000000e+00 0.000000e+00 9.533415e-01 4.665842e-02
 0.000000e+00 0.000000e+00 0.000000e+00 0.000000e+00 0.000000e+00
<ENDHMM>
~h "p"
<BEGINHMM>
<NUMSTATES> 5
<STATE> 2
<MEAN> 39
 -1.102499e+01 6.917240e+00 5.025530e+00 -3.885261e-01 -6.461681e-01 1.679773e-01 3.024720e+00 -1.484699e+00 4.159829e-01 3.791211e+00 -4.268322e-01 1.951744e+00 5.815654e+01 -4.769203e-01 2.728896e-01 2.854523e-02 -6.306222e-01 -1.171975e-01 -3.548078e-01 -2.990526e-01 -3.727823e-01 -3.691412e-01 -3.520802e-01 -4.902476e-01 -3.054594e-01 1.461222e+00 8.309022e-02 4.897697e-02 1.018136e-01 -1.320865e-01 -2.220606e-01 -7.423853e-03 -2.515975e-01 -1.468994e-01 -1.869151e-01 -5.049317e-02 -1.644376e-01 -7.722385e-02 -3.100099e-02
<VARIANCE> 39
 5.928505e+01 1.226812e+01 2.384093e+01 3.230310e+01 1.975207e+01 2.069699e+01 1.806937e+01 1.834557e+01 1.633814e+01 1.637959e+01 2.038748e+01 1.523925e+01 2.601219e+02 3.161622e+00 1.465754e+00 4.009650e+00 2.162977e+00 3.531436e+00 2.049365e+00 3.085951e+00 2.769803e+00 2.593337e+00 2.225647e+00 3.276271e+00 1.813202e+00 1.636814e+01 5.543861e-01 2.538863e-01 9.391603e-01 4.549150e-01 8.719715e-01 4.407740e-01 5.814672e-01 5.706714e-01 4.840324e-01 3.872062e-01 7.658769e-01 4.075151e-01 2.857973e+00
<GCONST> 1.211089e+02
<STATE> 3
<MEAN> 39
 -1.288271e+01 1.274893e+01 7.957684e+00 -1.366052e+01 -1.032587e+01 -4.399081e+00 -1.108840e+01 -9.259891e+00 -1.356366e+01 -2.917777e+00 -1.347441e+01 -4.805233e+00 6.857674e+01 5.916278e-01 -4.654342e-02 1.987217e+00 -2.698094e+00 -3.420212e+00 9.700943e-01 -3.984069e+00 -8.763989e-01 -3.183457e+00 4.656373e-01 -2.917061e+00 -1.389742e+00 8.908129e-01 -6.846348e-01 -3.364573e-01 -3.107000e-01 1.790526e-01 7.151986e-01 2.777942e-01 6.137248e-01 5.964523e-01 6.281721e-01 5.326350e-01 6.208582e-01 1.700061e-01 2.649961e-01
<VARIANCE> 39
 2.978799e+00 6.149058e+00 1.157040e+01 2.083130e+01 3.431075e+01 2.060991e+01 3.294192e+01 1.005929e+01 2.096271e+01 1.578020e+01 1.760863e+01 6.818539e+00 1.845451e+01 1.753644e+00 7.753102e-01 9.802937e-01 6.960056e-01 3.152661e+00 1.472739e+00 3.173442e+00 1.961547e+00 2.208355e+00 1.793073e+00 2.264063e+00 4.786427e-01 3.224201e-01 6.625609e-02 1.409418e-01 2.555626e-01 3.874917e-01 8.239518e-01 2.359183e-01 6.657987e-01 2.306999e-01 4.986841e-01 3.776310e-01 3.256855e-01 1.218434e-01 1.679324e-01
<GCONST> 9.237476e+01
<STATE> 4
<MEAN> 39
 -1.630547e+01 1.179375e+01 1.018185e+01 -2.007616e+01 -1.267155e+01 -8.143231e-01 -1.728245e+01 -9.074115e+00 -1.745582e+01 2.570603e-01 -1.750400e+01 -7.955247e+00 7.272898e+01 -6.027631e-01 4.359439e-01 -1.454855e-02 -3.232119e-01 3.813282e-01 1.816221e-01 1.906495e-02 3.238455e-01 2.072156e-01 -3.500243e-01 -3.982886e-01 -6.806669e-01 7.533323e-02 1.800537e-01 1.329108e-01 -2.420352e-01 3.699060e-01 4.128731e-01 -2.037716e-01 7.506729e-01 7.477678e-02 5.889913e-01 -3.524957e-01 2.667025e-01 2.011203e-01 -2.563339e-01
<VARIANCE> 39
 4.274666e+00 5.441217e+00 3.052902e+00 1.621225e+01 8.985346e+00 9.949059e+00 1.133352e+01 3.833173e+00 6.184206e+00 5.971215e+00 6.879985e+00 7.548442e+00 1.464941e+01 5.540918e-01 4.165658e-01 1.880724e-01 3.741700e-01 3.918357e-01 4.155536e-01 1.018122e+00 4.590891e-01 6.218098e-01 9.207230e-01 5.099141e-01 4.293965e-01 1.822955e-01 9.577872e-02 1.088994e-01 1.097502e-01 1.330432e-01 2.726566e-01 1.733939e-01 3.259039e-01 1.268018e-01 1.856801e-01 1.482393e-01 2.085377e-01 6.006030e-02 2.901208e-02
<GCONST> 6.021872e+01
<TRANSP> 5
 0.000000e+00 1.000000e+00 0.000000e+00 0.000000e+00 0.000000e+00
 0.000000e+00 9.422650e-01 5.773494e-02 0.000000e+00 0.000000e+00
 0.000000e+00 0.000000e+00 6.874930e-01 3.125070e-01 0.000000e+00
 0.000000e+00 0.000000e+00 0.000000e+00 7.160912e-01 2.839088e-01
 0.000000e+00 0.000000e+00 0.000000e+00 0.000000e+00 0.000000e+00
<ENDHMM>
~h "r"
<BEGINHMM>
<NUMSTATES> 5
<STATE> 2
<MEAN> 39
 -6.920980e+00 -3.733259e+00 7.742263e+00 -7.202999e+00 -2.121697e+01 -1.452806e+01 -2.276320e+00 -8.551811e+00 -1.226385e+01 8.324719e-01 -6.142712e+00 -5.808810e+00 7.016228e+01 -1.019985e+00 7.403266e-01 2.372352e+00 -2.534854e+00 -4.830877e-01 1.332275e+00 -3.660613e-01 -2.191793e+00 1.503421e-02 1.374516e+00 -1.182044e+00 -4.110913e-02 1.898278e-01 -2.042048e-02 3.708739e-01 -4.313773e-01 -8.160472e-03 6.797072e-01 2.175490e-01 -6.518357e-01 3.405119e-02 5.153540e-01 -2.106004e-01 -2.884824e-01 1.381784e-01 -1.632633e-01
<VARIANCE> 39
 1.110882e+01 2.915232e+01 6.735560e+01 5.023466e+01 8.477236e+01 5.996381e+01 2.453221e+01 4.009948e+01 4.596159e+01 4.079934e+01 2.406297e+01 1.738362e+01 3.651050e+01 1.198843e+00 1.632255e+00 1.926233e+00 2.882689e+00 2.215140e+00 3.434957e+00 2.141853e+00 2.739540e+00 2.270738e+00 1.919739e+00 2.199246e+00 1.217297e+00 3.195858e-01 8.830227e-02 1.076687e-01 3.596002e-01 2.688575e-01 3.597279e-01 3.826728e-01 3.991739e-01 5.273854e-01 4.248250e-01 4.051586e-01 3.443151e-01 2.931218e-01 3.323253e-02
<GCONST> 1.076899e+02
<STATE> 3
<MEAN> 39
 -9.327017e+00 -2.458232e-01 1.445016e+01 -1.212429e+01 -2.041475e+01 -1.370573e+01 -5.431158e+00 -1.364010e+01 -1.066060e+01 3.135759e+00 -1.014322e+01 -4.760891e+00 6.939864e+01 -1.118884e-02 3.556008e-01 -3.499821e-01 -3.402870e-01 7.238709e-01 1.397437e-01 -7.145057e-01 2.949613e-01 7.365600e-01 -3.758492e-01 -3.527409e-01 2.812775e-01 -1.963589e-01 1.247133e-01 -1.872359e-02 -3.169522e-01 3.041307e-01 1.125201e-01 -1.355186e-01 -3.388872e-02 2.829815e-01 -6.570167e-02 -1.062481e-01 1.524744e-01 6.179265e-03 -5.153023e-02
<VARIANCE> 39
 1.542112e+01 1.963258e+01 3.615505e+01 4.783383e+01 3.185406e+01 5.274688e+01 3.723725e+01 3.763478e+01 2.682873e+01 2.553741e+01 2.450954e+01 1.561631e+01 1.979396e+01 9.962596e-01 1.727212e+00 1.818552e+00 2.376805e+00 1.856595e+00 2.436821e+00 2.294141e+00 2.351900e+00 2.161139e+00 1.888579e+00 2.312770e+00 1.215840e+00 1.423620e-01 6.217249e-02 9.855198e-02 1.597938e-01 2.401881e-01 2.591449e-01 2.664354e-01 2.568103e-01 4.822966e-01 4.016598e-01 3.997541e-01 3.212223e-01 2.204289e-01 1.758793e-02
<GCONST> 9.903831e+01
<STATE> 4
<MEAN> 39
 -7.322160e+00 1.885901e+00 6.909279e+00 -1.173549e+01 -1.471885e+01 -1.275070e+01 -1.070515e+01 -9.603092e+00 -5.997749e+00 5.595621e-01 -1.042614e+01 -3.676956e+00 6.754891e+01 -5.660563e-02 8.342024e-01 -6.249880e-01 -1.046272e-01 9.256215e-01 4.296650e-01 -9.081830e-01 2.422723e-01 -1.770859e-01 1.590636e-01 1.456906e-01 7.512413e-02 -3.464457e-01 4.372775e-02 -1.321874e-01 3.326249e-02 -6.052554e-03 -1.437080e-01 -2.248953e-02 2.579685e-01 7.575353e-02 -2.361823e-01 8.532186e-02 2.163822e-01 -1.324232e-01 3.310983e-02
<VARIANCE> 39
 4.009961e+01 2.994570e+01 7.889811e+01 9.579295e+01 5.882629e+01 6.770419e+01 4.687563e+01 2.772685e+01 4.277329e+01 2.997526e+01 3.555797e+01 1.791930e+01 3.826693e+01 3.195889e-01 3.903030e-01 1.095055e+00 6.939672e-01 7.469862e-01 8.066735e-01 9.469234e-01 1.304915e+00 1.327722e+00 1.215906e+00 1.386366e+00 9.189086e-01 1.400538e-01 4.842404e-02 6.258427e-02 6.767667e-02 1.970003e-01 1.339012e-01 1.811033e-01 1.411322e-01 1.839854e-01 2.433043e-01 1.914568e-01 1.937768e-01 1.259969e-01 1.842772e-02
<GCONST> 8.826033e+01
<TRANSP> 5
 0.000000e+00 1.000000e+00 0.000000e+00 0.000000e+00 0.000000e+00
 0.000000e+00 6.702017e-01 3.297983e-01 0.000000e+00 0.000000e+00
 0.000000e+00 0.000000e+00 8.349989e-01 1.650011e-01 0.000000e+00
 0.000000e+00 0.000000e+00 0.000000e+00 6.784571e-01 3.215429e-01
 0.000000e+00 0.000000e+00 0.000000e+00 0.000000e+00 0.000000e+00
<ENDHMM>
~h "s"
<BEGINHMM>
<NUMSTATES> 5
<STATE> 2
<MEAN> 39
 -9.171074e+00 3.929321e+00 1.844496e+00 3.938068e+00 -2.602795e+00 -1.298793e+00 4.579884e+00 4.490350e-01 -8.593794e-01 2.814013e+00 3.551022e+00 3.991270e+00 4.429565e+01 -5.314357e-01 -1.888422e-02 -3.658048e-01 9.842990e-02 -2.688890e-01 -1.641690e-02 3.766053e-01 5.636478e-02 -6.724907e-02 -2.496477e-02 -4.779753e-03 -4.475916e-02 6.814539e-01 -1.463801e-01 4.300163e-02 -9.603992e-02 1.927782e-03 4.555918e-03 2.157307e-02 -3.556894e-02 -8.069731e-03 1.246062e-03 -4.914135e-03 -2.819903e-02 -1.958171e-02 1.366411e-01
<VARIANCE> 39
 2.675842e+01 1.859935e+01 1.973433e+01 1.361088e+01 2.319850e+01 2.325529e+01 2.976745e+01 2.276988e+01 2.082991e+01 1.933397e+01 1.798556e+01 1.527826e+01 4.639144e+01 2.779232e+00 1.663435e+00 1.604796e+00 1.460426e+00 2.018928e+00 2.173839e+00 2.781584e+00 1.893340e+00 1.937089e+00 1.876238e+00 1.622924e+00 1.481947e+00 3.074409e+00 3.996069e-01 3.134307e-01 2.631347e-01 2.869701e-01 3.706685e-01 4.205906e-01 5.009006e-01 3.766839e-01 3.661351e-01 3.704529e-01 3.231855e-01 2.890457e-01 2.920633e-01
<GCONST> 1.067692e+02
<STATE> 3
<MEAN> 39
 -2.069277e+01 4.161537e+00 -7.666879e+00 6.603877e+00 -7.228779e+00 1.775875e-01 5.703232e+00 1.081606e+00 -3.097281e+00 2.765470e+00 1.699265e+00 2.624016e+00 5.909468e+01 -1.715707e-01 -1.368270e-02 -1.161317e-01 4.336032e-02 9.015270e-03 7.534444e-02 -1.731397e-01 3.128691e-02 -9.388597e-02 5.021997e-02 -8.015164e-02 -6.125771e-02 3.260303e-01 3.150611e-01 -4.421028e-02 2.373044e-01 -1.278779e-01 -4.439655e-02 -1.326108e-01 -3.048732e-02 -6.929247e-02 -5.679143e-02 -4.377371e-02 -5.128461e-02 -4.332994e-02 -7.874195e-02
<VARIANCE> 39
 1.616874e+01 8.177835e+00 1.463743e+01 1.267139e+01 1.590291e+01 1.992439e+01 2.007595e+01 1.882001e+01 1.737877e+01 1.724170e+01 1.638578e+01 1.298376e+01 2.231390e+01 1.249627e+00 7.315495e-01 1.524380e+00 1.079346e+00 1.187505e+00 1.445827e+00 1.658947e+00 1.654359e+00 1.680509e+00 1.630047e+00 1.615679e+00 1.335722e+00 7.002445e-01 1.437071e-01 1.419852e-01 1.956866e-01 2.422010e-01 2.727039e-01 3.144599e-01 3.466708e-01 3.685192e-01 3.635424e-01 3.287150e-01 3.637697e-01 2.729810e-01 1.362112e-01
<GCONST> 9.314165e+01
<STATE> 4
<MEAN> 39
 -1.109255e+01 3.866095e+00 -2.195714e-01 2.863452e-01 -8.406857e+00 -3.942353e+00 2.159675e+00 -2.028029e+00 -5.254009e+00 1.368770e+00 -1.611802e+00 2.860429e-01 5.900383e+01 2.044015e+00 -3.899968e-01 1.423256e+00 -2.361212e+00 -1.641127e+00 -1.769591e+00 -1.266148e+00 -1.149131e+00 -1.032829e+00 -4.234024e-01 -1.358962e+00 -5.416277e-01 1.452402e+00 -4.021711e-02 -2.679339e-01 -2.200899e-02 -3.808793e-01 -2.144687e-01 -7.445794e-03 -2.099026e-01 -5.096920e-02 -4.426565e-02 2.423809e-02 -1.512348e-01 6.142814e-02 1.848255e-01
<VARIANCE> 39
 4.830135e+01 2.540656e+01 3.467147e+01 6.619822e+01 7.744476e+01 5.949086e+01 4.559616e+01 4.307988e+01 4.535065e+01 3.035136e+01 3.740698e+01 2.019787e+01 1.184183e+02 4.886701e+00 2.894995e+00 3.678422e+00 5.419299e+00 5.070241e+00 6.230659e+00 4.022729e+00 3.874784e+00 3.591135e+00 3.037109e+00 2.956257e+00 1.658084e+00 3.734416e+00 7.474343e-01 5.482106e-01 5.115303e-01 7.941141e-01 9.087294e-01 1.038424e+00 7.501486e-01 6.416906e-01 6.427357e-01 4.930414e-01 5.139756e-01 3.259847e-01 6.023613e-01
<GCONST> 1.322885e+02
<TRANSP> 5
 0.000000e+00 1.000000e+00 0.000000e+00 0.000000e+00 0.000000e+00
 0.000000e+00 8.988456e-01 1.011545e-01 0.000000e+00 0.000000e+00
 0.000000e+00 0.000000e+00 8.995553e-01 1.004447e-01 0.000000e+00
 0.000000e+00 0.000000e+00 0.000000e+00 7.237297e-01 2.762703e-01
 0.000000e+00 0.000000e+00 0.000000e+00 0.000000e+00 0.000000e+00
<ENDHMM>
~h "t"
<BEGINHMM>
<NUMSTATES> 5
<STATE> 2
<MEAN> 39
 -8.343142e+00 4.634393e+00 3.209780e+00 1.697596e+00 -1.643519e+00 -7.229106e-01 3.113999e+00 3.854991e-02 -1.333186e-01 3.932237e+00 4.005879e+00 3.663243e+00 4.294755e+01 -1.054311e-01 -2.508542e-02 -1.292444e-01 1.451903e-01 1.202883e-01 4.209631e-02 1.663526e-01 1.007872e-01 9.028751e-03 -7.224443e-03 2.813162e-02 7.045669e-03 2.792807e-02 -8.833370e-02 -2.402373e-02 8.055785e-03 -6.085991e-02 -4.326868e-02 -1.206162e-02 1.314195e-02 -2.534749e-02 -3.711098e-02 -1.764652e-02 -4.858041e-02 -3.939498e-02 2.248365e-01
<VARIANCE> 39
 2.088251e+01 1.603718e+01 1.581816e+01 2.254429e+01 1.861135e+01 2.548387e+01 3.584967e+01 2.310526e+01 2.247101e+01 1.858278e+01 1.978106e+01 1.953167e+01 5.785393e+01 1.653005e+00 1.183966e+00 1.465472e+00 1.392011e+00 1.395350e+00 1.970805e+00 2.663349e+00 1.602356e+00 1.976708e+00 1.780587e+00 1.704194e+00 1.730362e+00 3.255610e+00 3.299450e-01 2.332036e-01 2.591961e-01 2.837740e-01 2.865303e-01 4.193608e-01 4.806328e-01 3.264226e-01 3.899741e-01 3.597402e-01 3.400992e-01 3.531711e-01 7.896826e-01
<GCONST> 1.062002e+02
<STATE> 3
<MEAN> 39
 -1.656814e+01 4.653169e+00 3.021521e+00 -1.925710e+00 -5.716582e+00 8.759313e-01 4.439035e+00 -1.174113e+00 -1.811625e+00 4.544929e+00 8.152662e-01 1.216162e+00 6.179238e+01 -1.177741e+00 3.643772e-02 1.568293e-01 1.320532e-02 -7.196761e-01 -2.615415e-01 9.229145e-01 -1.915292e-01 -6.969068e-01 1.606739e-02 -1.685232e-01 -4.978130e-01 2.649782e+00 3.581255e-01 6.398383e-02 1.335050e-01 1.317934e-01 -4.348642e-02 -1.814183e-01 -1.069805e-01 -6.661052e-02 -7.814516e-02 -9.782708e-02 3.247686e-02 7.834379e-03 -5.543452e-01
<VARIANCE> 39
 4.526519e+01 2.429745e+01 3.202161e+01 3.749548e+01 4.045408e+01 3.362661e+01 3.931462e+01 2.637823e+01 2.578606e+01 2.194017e+01 2.368062e+01 2.030018e+01 1.733770e+02 4.701308e+00 2.953398e+00 3.317993e+00 4.205195e+00 3.508658e+00 3.080504e+00 4.473623e+00 2.458740e+00 2.646751e+00 2.506176e+00 2.517845e+00 2.263598e+00 1.767243e+01 6.701751e-01 5.908598e-01 5.299676e-01 5.970816e-01 5.573872e-01 5.325404e-01 7.928561e-01 4.531973e-01 5.455220e-01 5.312361e-01 4.356272e-01 4.346517e-01 2.319583e+00
<GCONST> 1.277719e+02
<STATE> 4
<MEAN> 39
 -1.141080e+01 4.477304e+00 7.122710e+00 -7.811522e-01 -1.355728e+01 -8.104741e+00 3.094607e+00 -7.012613e+00 -9.235794e+00 -4.039732e-01 -1.957860e+00 -2.403764e+00 6.683607e+01 1.412884e+00 -4.489398e-01 2.203381e-01 -9.022120e-01 -9.189068e-01 -1.703705e+00 -1.507418e+00 -1.016420e+00 -1.052931e+00 -6.906881e-01 -5.444574e-01 -5.837862e-01 -1.449166e-01 -1.116961e-01 -7.918496e-02 -1.087922e-01 -1.869526e-01 1.178553e-01 2.291377e-01 -1.248816e-01 1.058548e-01 1.596413e-01 1.481226e-01 -1.704447e-02 1.016366e-01 5.744087e-02
<VARIANCE> 39
 5.078812e+01 2.698411e+01 3.479160e+01 8.027615e+01 6.384184e+01 6.044127e+01 8.859711e+01 4.712181e+01 3.880394e+01 2.965021e+01 3.354625e+01 2.577700e+01 8.789964e+01 2.752874e+00 1.913353e+00 1.793957e+00 4.620211e+00 2.798908e+00 4.352637e+00 5.707983e+00 3.427998e+00 3.249193e+00 2.586185e+00 2.429683e+00 1.996148e+00 2.726777e+00 5.195129e-01 3.479413e-01 2.543083e-01 8.689049e-01 5.679165e-01 6.520667e-01 1.128555e+00 6.908809e-01 5.572686e-01 4.336595e-01 4.146969e-01 3.797687e-01 3.017797e-01
<GCONST> 1.267482e+02
<TRANSP> 5
 0.000000e+00 1.000000e+00 0.000000e+00 0.000000e+00 0.000000e+00
 0.000000e+00 9.404681e-01 5.953195e-02 0.000000e+00 0.000000e+00
 0.000000e+00 0.000000e+00 8.675199e-01 1.324801e-01 0.000000e+00
 0.000000e+00 0.000000e+00 0.000000e+00 8.108751e-01 1.891249e-01
 0.000000e+00 0.000000e+00 0.000000e+00 0.000000e+00 0.000000e+00
<ENDHMM>
~h "v"
<BEGINHMM>
<NUMSTATES> 5
<STATE> 2
<MEAN> 39
 -6.706298e+00 3.220276e+00 5.862152e+00 -1.190920e+01 -1.372386e+01 -8.870322e+00 -4.865407e+00 -1.105204e+01 -8.588740e+00 -1.783921e+00 -1.138484e+01 -3.056553e+00 6.478856e+01 2.953906e-01 4.981300e-01 -2.831800e-01 1.560503e+00 6.580322e-01 -4.790574e-04 -3.021709e-01 3.770199e-01 -1.203517e-01 -8.051093e-02 4.447489e-01 9.102126e-02 -1.133435e+00 -9.492236e-02 3.892928e-02 -2.601005e-01 1.693900e-01 2.508884e-01 2.188164e-01 1.620395e-02 2.993191e-01 1.222715e-01 -1.857730e-01 1.288028e-01 -1.645515e-02 -1.011034e-01
<VARIANCE> 39
 2.145746e+01 4.116614e+01 5.475303e+01 6.299664e+01 6.350959e+01 3.771123e+01 4.308895e+01 4.833727e+01 4.200669e+01 3.925622e+01 3.596662e+01 1.863213e+01 4.433043e+01 8.386603e-01 1.230308e+00 1.682129e+00 5.147904e+00 2.022701e+00 2.113859e+00 1.993287e+00 3.211208e+00 1.781482e+00 2.383745e+00 2.059602e+00 1.358952e+00 1.380035e+00 1.432936e-01 1.608370e-01 1.941936e-01 4.378363e-01 3.548498e-01 3.961956e-01 3.484981e-01 4.213697e-01 4.167174e-01 3.535257e-01 3.644496e-01 2.734915e-01 1.139374e-01
<GCONST> 1.115249e+02
<STATE> 3
<MEAN> 39
 -5.908922e+00 4.093387e+00 -9.906607e-01 -1.577088e+00 -7.782916e+00 -6.212880e+00 -6.125412e+00 -7.524714e+00 -5.735589e+00 -3.220390e+00 -8.987775e+00 -3.726362e+00 6.012034e+01 -5.010655e-01 1.453915e-01 -2.541137e-01 2.820425e-03 5.077406e-01 4.294877e-01 -6.285258e-03 6.231541e-01 5.379353e-01 3.498479e-01 1.951825e-01 4.279023e-01 -2.557135e-01 3.244050e-02 -3.205738e-01 1.004472e-01 -5.517089e-01 -2.277434e-01 -2.019253e-01 2.682976e-01 1.227839e-01 8.823916e-02 5.016671e-02 -4.210034e-02 1.778168e-01 2.654002e-01
<VARIANCE> 39
 1.562618e+01 1.703384e+01 3.721569e+01 3.157220e+01 3.092614e+01 2.523291e+01 2.611005e+01 2.200435e+01 2.432773e+01 2.221097e+01 2.367175e+01 2.075131e+01 5.426720e+01 1.149665e+00 1.825284e+00 1.821550e+00 4.091172e+00 2.404699e+00 3.075446e+00 2.216711e+00 2.835591e+00 2.327140e+00 2.502091e+00 2.227964e+00 1.783121e+00 2.757024e+00 2.172973e-01 2.080910e-01 2.621042e-01 4.750921e-01 3.193150e-01 4.227924e-01 3.829339e-01 4.945126e-01 3.579521e-01 5.806968e-01 3.714162e-01 2.726435e-01 1.863606e-01
<GCONST> 1.101839e+02
<STATE> 4
<MEAN> 39
 -7.259442e+00 3.375096e+00 9.497001e-01 2.436639e+00 -2.394848e+00 -1.165160e+00 7.055707e-02 -2.027413e+00 -3.690806e-01 2.544683e+00 6.517876e-01 2.353611e+00 4.668038e+01 2.587230e-02 -1.570693e-02 9.685298e-02 -1.053677e-01 7.629494e-02 -6.243712e-03 1.458071e-03 1.233488e-01 6.204778e-02 -1.173362e-02 8.827721e-02 6.001277e-02 -2.443494e-02 1.018909e-02 2.294960e-02 2.360062e-02 -1.145871e-02 -3.310984e-02 -3.166351e-02 -1.600758e-02 -2.766573e-02 -6.950063e-02 -6.300286e-02 -4.273185e-02 -4.330162e-02 3.387584e-02
<VARIANCE> 39
 2.005000e+01 2.233156e+01 2.435623e+01 3.358723e+01 3.240036e+01 2.921903e+01 2.647763e+01 3.209624e+01 2.527520e+01 2.586485e+01 2.916843e+01 1.897282e+01 7.550202e+01 1.817688e+00 1.485834e+00 1.589819e+00 2.478040e+00 1.958694e+00 2.230073e+00 2.328658e+00 2.344024e+00 1.972126e+00 2.308931e+00 2.013439e+00 1.622732e+00 2.405366e+00 3.525668e-01 2.621312e-01 2.959376e-01 4.234979e-01 3.466856e-01 4.301476e-01 4.387931e-01 4.343937e-01 3.892331e-01 4.354268e-01 3.711975e-01 3.204016e-01 3.638556e-01
<GCONST> 1.113891e+02
<TRANSP> 5
 0.000000e+00 1.000000e+00 0.000000e+00 0.000000e+00 0.000000e+00
 0.000000e+00 7.671718e-01 2.328281e-01 0.000000e+00 0.000000e+00
 0.000000e+00 0.000000e+00 7.927030e-01 2.072970e-01 0.000000e+00
 0.000000e+00 0.000000e+00 0.000000e+00 9.418909e-01 5.810909e-02
 0.000000e+00 0.000000e+00 0.000000e+00 0.000000e+00 0.000000e+00
<ENDHMM>
~h "w"
<BEGINHMM>
<NUMSTATES> 5
<STATE> 2
<MEAN> 39
 -1.647061e-01 9.389574e+00 -3.979635e-01 -3.175533e+00 -4.886043e+00 -3.970976e+00 -2.680479e+00 -4.417453e+00 -3.253672e+00 -1.000174e+00 -4.687615e+00 -2.923924e-01 4.615218e+01 1.077083e+00 4.119573e-01 -5.081592e-01 -1.636437e+00 -9.055325e-01 -1.115669e+00 -5.977240e-01 -2.120075e-01 -6.095967e-01 -3.386755e-01 -9.730093e-01 -4.633722e-01 1.366662e+00 -1.527514e-01 -9.084317e-02 -1.137988e-01 -1.219409e-01 -3.474716e-02 7.102691e-02 1.180884e-01 1.902624e-01 3.641140e-02 4.748889e-02 1.619084e-01 4.088850e-02 2.061147e-01
<VARIANCE> 39
 6.148869e+01 2.109368e+01 1.963880e+01 8.711595e+01 3.639502e+01 4.563649e+01 3.254234e+01 2.979590e+01 3.035428e+01 3.004296e+01 5.849106e+01 2.692922e+01 4.032569e+01 3.430644e+00 1.627627e+00 1.905193e+00 5.104108e+00 3.485854e+00 3.555530e+00 2.784101e+00 3.272321e+00 2.468594e+00 3.088062e+00 4.393795e+00 2.690570e+00 2.786942e+00 6.397528e-01 3.350353e-01 3.460000e-01 9.518976e-01 6.543065e-01 5.478555e-01 4.792610e-01 5.624588e-01 4.601021e-01 6.233974e-01 7.545238e-01 5.036447e-01 3.118538e-01
<GCONST> 1.243344e+02
<STATE> 3
<MEAN> 39
 1.290615e+00 1.705244e+00 -1.045959e+01 -1.893175e+01 -1.071071e+01 -5.050563e+00 -3.074927e+00 -4.207023e+00 -7.662691e+00 -5.985616e+00 -7.794394e+00 -5.953036e+00 6.971015e+01 -6.738377e-01 -1.583281e+00 -8.811227e-01 -2.392293e-01 6.952475e-01 1.095628e+00 1.974391e-01 -3.824378e-01 2.167565e-01 -4.482289e-01 -9.765814e-02 -4.979219e-01 1.552532e+00 3.563494e-02 -3.590103e-02 1.076168e-01 2.549550e-01 2.251376e-01 2.472252e-04 -4.013723e-02 -5.524461e-02 5.269934e-02 -6.038735e-02 -1.357716e-01 8.575973e-02 -2.529113e-01
<VARIANCE> 39
 1.546438e+01 8.113577e+01 2.494464e+01 3.046840e+01 3.232663e+01 6.234093e+01 2.543316e+01 2.502215e+01 1.740207e+01 1.919499e+01 1.977370e+01 2.565150e+01 7.183183e+01 5.262389e-01 2.928285e+00 1.100238e+00 2.845629e+00 3.501922e+00 2.896746e+00 2.366824e+00 2.574781e+00 1.888952e+00 2.359714e+00 2.831352e+00 2.221054e+00 1.936426e+00 1.064633e-01 5.299980e-01 1.852109e-01 4.396047e-01 5.221542e-01 6.440504e-01 4.418497e-01 5.070273e-01 3.932595e-01 5.038118e-01 4.931749e-01 5.144435e-01 1.383270e-01
<GCONST> 1.125789e+02
<STATE> 4
<MEAN> 39
 -2.660743e+00 -5.958642e+00 -6.332642e+00 -1.024503e+01 -9.166411e-01 -8.041965e+00 -4.334186e+00 -2.720324e+00 -1.339580e+01 -1.593083e+01 -1.607407e+01 -3.352666e+00 7.013392e+01 -2.361173e-02 3.788996e-01 7.124476e-01 5.655134e-01 6.018444e-02 -7.106619e-01 -6.888232e-02 2.153592e-01 -6.003430e-01 -3.351247e-01 -2.100190e-01 3.206352e-01 -5.395642e-01 1.974156e-02 6.447429e-02 3.328355e-02 1.006087e-03 -6.659045e-02 1.431582e-02 1.084901e-02 -4.597443e-02 -5.126065e-03 7.135451e-02 7.017655e-02 -3.840245e-02 -4.925914e-02
<VARIANCE> 39
 4.583429e+00 4.356789e+01 5.024395e+01 2.105086e+01 1.898433e+01 6.186359e+01 2.296305e+01 3.006746e+01 4.473895e+01 2.366108e+01 1.694020e+01 2.303388e+01 2.924971e+01 2.274397e-01 9.273075e-01 5.637321e-01 8.997476e-01 1.316993e+00 1.309947e+00 1.272913e+00 1.530864e+00 1.182170e+00 1.584025e+00 1.138021e+00 1.278265e+00 2.424994e-01 3.737479e-02 9.329095e-02 9.337645e-02 1.489946e-01 2.139434e-01 2.041363e-01 2.397773e-01 2.286814e-01 2.153551e-01 2.193272e-01 2.006684e-01 2.003219e-01 3.385158e-02
<GCONST> 8.679297e+01
<TRANSP> 5
 0.000000e+00 1.000000e+00 0.000000e+00 0.000000e+00 0.000000e+00
 0.000000e+00 8.980314e-01 1.019686e-01 0.000000e+00 0.000000e+00
 0.000000e+00 0.000000e+00 9.094751e-01 9.052492e-02 0.000000e+00
 0.000000e+00 0.000000e+00 0.000000e+00 9.473277e-01 5.267229e-02
 0.000000e+00 0.000000e+00 0.000000e+00 0.000000e+00 0.000000e+00
<ENDHMM>
~h "y"
<BEGINHMM>
<NUMSTATES> 5
<STATE> 2
<MEAN> 39
 -1.276352e+01 7.085307e+00 1.525784e+01 -1.225569e+01 -1.641887e+01 -1.791692e+00 -6.372873e+00 -1.496863e+01 -9.447598e+00 -8.062172e-01 -1.455998e+01 -4.608498e+00 6.834508e+01 2.164481e-02 -1.314850e-01 2.550294e-01 4.328604e-03 -7.497262e-01 -3.181689e-01 -5.265599e-02 -4.704538e-01 -6.704227e-01 1.087531e-01 -3.484690e-01 -4.288187e-01 5.525196e-01 3.045060e-02 -6.746287e-02 -1.214210e-01 1.826685e-01 6.080283e-02 -8.570618e-02 1.597333e-01 1.562668e-01 6.156082e-03 4.023821e-02 2.162190e-01 5.841380e-02 -7.057090e-02
<VARIANCE> 39
 1.298284e+01 1.469918e+01 1.991100e+01 2.487774e+01 4.799695e+01 2.160812e+01 3.241035e+01 3.188043e+01 2.763644e+01 2.888806e+01 3.526838e+01 3.097145e+01 3.252367e+01 1.022371e+00 8.787656e-01 9.718176e-01 2.014221e+00 2.055972e+00 1.310294e+00 2.152949e+00 1.427233e+00 1.615962e+00 1.644681e+00 1.961713e+00 1.124397e+00 2.218207e+00 1.504775e-01 1.520831e-01 1.352940e-01 1.925457e-01 2.993449e-01 2.197837e-01 2.783697e-01 2.022128e-01 2.604153e-01 2.706245e-01 2.319033e-01 1.796742e-01 1.759919e-01
<GCONST> 9.883110e+01
<STATE> 3
<MEAN> 39
 -8.406871e+00 3.890584e+00 8.544664e+00 -2.231954e+00 -1.688480e+01 -1.561792e+01 -6.032866e+00 -1.108693e+01 -1.285363e+01 2.184644e-01 -1.059461e+01 -1.274155e+00 6.940728e+01 6.250205e-01 8.717322e-02 -1.274551e+00 4.292287e-01 1.273880e+00 -7.191103e-01 -7.000931e-01 5.476447e-01 9.761217e-01 -1.458939e-01 1.511512e-01 5.214426e-01 -3.220125e-01 3.898956e-02 6.506436e-02 -5.683674e-02 -1.454074e-01 1.638673e-01 2.087045e-01 -8.456165e-02 -1.928275e-01 1.443457e-01 7.638225e-02 -4.202668e-02 -6.478786e-02 -5.515958e-02
<VARIANCE> 39
 1.199174e+01 6.770354e+00 4.307098e+01 2.571353e+01 4.623268e+01 3.295755e+01 4.602139e+01 3.682085e+01 4.611425e+01 2.459263e+01 1.980171e+01 3.854778e+01 1.446204e+01 1.799204e-01 2.206306e-01 4.920328e-01 9.462302e-01 1.194247e+00 1.881208e+00 1.502136e+00 2.620543e+00 2.815349e+00 1.887965e+00 1.861107e+00 2.062490e+00 1.048962e-01 2.323413e-02 2.261655e-02 5.743508e-02 7.381336e-02 1.092142e-01 1.483403e-01 2.113004e-01 2.726289e-01 3.983685e-01 2.673601e-01 2.984771e-01 3.236312e-01 9.609967e-03
<GCONST> 8.392725e+01
<STATE> 4
<MEAN> 39
 9.227876e-01 9.541116e+00 -5.008183e+00 -7.062823e+00 -2.735226e-01 -8.586890e+00 -4.867918e+00 -1.946614e+01 -5.203129e+00 8.565104e-01 -3.998755e+00 1.107522e+00 5.983540e+01 5.627453e-01 3.882757e-01 -7.313138e-02 -2.220395e-01 3.475581e-01 8.750741e-01 1.012068e+00 -3.029587e-01 -3.647840e-01 -4.274580e-01 5.156220e-01 1.934302e-01 -1.076386e+00 -7.215077e-02 -4.691996e-02 1.565111e-01 1.223556e-01 -1.482446e-01 -5.891996e-02 4.068859e-03 1.834115e-01 -4.809849e-02 -1.287171e-01 -1.060803e-01 3.562113e-02 -2.821249e-02
<VARIANCE> 39
 1.121593e+01 1.446594e+01 1.840840e+01 3.583352e+01 1.988458e+01 3.908257e+01 6.666111e+01 4.019703e+01 2.365211e+01 3.269668e+01 2.593888e+01 1.831235e+01 3.733292e+01 3.360058e-01 4.651035e-01 1.059734e+00 1.528000e+00 1.718118e+00 1.325685e+00 1.749596e+00 2.886573e+00 1.358488e+00 1.694366e+00 1.926481e+00 1.213646e+00 3.332182e-01 5.853214e-02 6.788608e-02 8.461211e-02 1.577666e-01 2.604397e-01 2.130028e-01 3.124100e-01 3.545746e-01 2.574152e-01 2.566163e-01 2.520660e-01 2.238334e-01 4.899418e-02
<GCONST> 9.234874e+01
<TRANSP> 5
 0.000000e+00 1.000000e+00 0.000000e+00 0.000000e+00 0.000000e+00
 0.000000e+00 9.348964e-01 6.510361e-02 0.000000e+00 0.000000e+00
 0.000000e+00 0.000000e+00 9.212935e-01 7.870649e-02 0.000000e+00
 0.000000e+00 0.000000e+00 0.000000e+00 8.961238e-01 1.038762e-01
 0.000000e+00 0.000000e+00 0.000000e+00 0.000000e+00 0.000000e+00
<ENDHMM>
~h "z"
<BEGINHMM>
<NUMSTATES> 5
<STATE> 2
<MEAN> 39
 -3.350580e+00 7.828948e+00 3.958769e+00 1.913266e+00 -5.421605e+00 -1.103977e+01 -7.779936e-02 -1.754611e+00 -7.854279e+00 -2.341583e+00 -5.527284e+00 2.958567e+00 4.677997e+01 3.811153e-01 -2.816942e-02 -1.035888e-01 -1.178270e-01 -8.086878e-01 -1.233653e+00 1.495594e-01 9.090341e-02 -1.000044e+00 -8.458325e-01 -1.445657e+00 -2.389727e-01 1.527603e+00 -2.200086e-01 -3.388567e-03 -1.621985e-01 1.375757e-01 4.057421e-02 2.647321e-01 7.877196e-02 9.077694e-02 2.493356e-01 8.100139e-02 2.028571e-01 4.278789e-02 4.551841e-02
<VARIANCE> 39
 2.198548e+01 1.401583e+01 1.315882e+01 2.052852e+01 3.471627e+01 7.637174e+01 3.123282e+01 3.047051e+01 5.395642e+01 4.232782e+01 8.121305e+01 3.324752e+01 4.489224e+01 2.420380e+00 1.165995e+00 1.447670e+00 1.654404e+00 3.379977e+00 5.340502e+00 2.933812e+00 2.751256e+00 3.860252e+00 2.879916e+00 4.742176e+00 2.051608e+00 1.970992e+00 4.261424e-01 2.464260e-01 2.249603e-01 3.718843e-01 6.318407e-01 8.962721e-01 6.104504e-01 5.048800e-01 6.545920e-01 5.066435e-01 8.542721e-01 4.076106e-01 3.095992e-01
<GCONST> 1.196299e+02
<STATE> 3
<MEAN> 39
 -9.369875e+00 1.000207e+01 -1.352258e+00 7.914023e+00 -1.137275e+01 -1.054870e+01 1.852213e-01 -1.213071e+00 -9.096090e+00 -5.129563e+00 -7.394782e+00 8.195182e-01 5.938105e+01 -1.271498e+00 1.506199e-01 -2.772330e-01 8.465691e-01 -2.574822e-01 7.724388e-01 -1.650975e-01 -3.503469e-01 2.189235e-01 4.013305e-01 8.864579e-01 -3.870670e-01 8.606963e-01 1.751809e-01 -2.079011e-01 2.913298e-01 -2.664548e-01 -1.243510e-02 -1.535500e-01 6.049988e-02 -1.170812e-01 -2.079007e-01 1.263662e-01 -1.264534e-01 -5.716180e-02 -1.234023e-02
<VARIANCE> 39
 2.210577e+01 8.354264e+00 1.013953e+01 1.671060e+01 1.444005e+01 2.319093e+01 1.407317e+01 1.405636e+01 1.839964e+01 1.293722e+01 2.641863e+01 1.345301e+01 8.861396e+00 9.091303e-01 1.203015e+00 1.353849e+00 1.528011e+00 1.469874e+00 1.588897e+00 1.390931e+00 1.223206e+00 1.897795e+00 9.794227e-01 1.989426e+00 1.185684e+00 3.450761e-01 1.760912e-01 1.776706e-01 1.699990e-01 2.306721e-01 3.538125e-01 2.894387e-01 2.740970e-01 2.303756e-01 2.922937e-01 1.899228e-01 4.043673e-01 2.018222e-01 9.397022e-02
<GCONST> 8.976093e+01
<STATE> 4
<MEAN> 39
 -1.181029e+01 5.486686e+00 5.995577e+00 2.483727e-01 -1.703315e+01 -8.422884e+00 5.537921e-02 -8.968014e+00 -1.213227e+01 5.360957e-01 -8.890179e+00 -3.581150e+00 6.818870e+01 1.460916e-01 -6.454470e-01 1.688569e+00 -2.409917e+00 -1.546891e+00 -2.742006e-01 -7.837667e-01 -1.583102e+00 -4.525408e-01 7.716014e-01 -1.357092e+00 -5.184500e-01 1.202240e+00 7.905851e-02 2.364383e-01 -4.912356e-02 -2.433116e-01 4.953551e-02 7.604472e-02 -2.968665e-01 9.429020e-02 2.310179e-01 -1.763919e-01 -8.820666e-02 1.194760e-01 -1.780486e-01
<VARIANCE> 39
 1.168068e+01 1.016234e+01 3.859460e+01 1.004353e+02 4.199553e+01 4.067326e+01 2.134963e+01 3.646162e+01 3.136422e+01 1.552957e+01 2.972791e+01 1.617797e+01 2.943043e+01 9.944833e-01 1.216661e+00 2.107589e+00 2.370369e+00 1.993041e+00 3.073332e+00 2.185031e+00 2.706648e+00 2.911009e+00 1.459092e+00 1.902666e+00 1.384202e+00 5.535281e-01 2.467635e-01 1.156947e-01 3.663107e-01 3.405961e-01 6.571710e-01 5.474400e-01 3.377146e-01 6.322914e-01 5.394448e-01 3.182296e-01 3.481260e-01 2.817286e-01 6.891651e-02
<GCONST> 1.068125e+02
<TRANSP> 5
 0.000000e+00 1.000000e+00 0.000000e+00 0.000000e+00 0.000000e+00
 0.000000e+00 8.984611e-01 1.015389e-01 0.000000e+00 0.000000e+00
 0.000000e+00 0.000000e+00 8.752564e-01 1.247436e-01 0.000000e+00
 0.000000e+00 0.000000e+00 0.000000e+00 6.801851e-01 3.198150e-01
 0.000000e+00 0.000000e+00 0.000000e+00 0.000000e+00 0.000000e+00
<ENDHMM>
~h "aa"
<BEGINHMM>
<NUMSTATES> 5
<STATE> 2
<MEAN> 39
 -5.120713e+00 -6.141298e+00 -3.557480e+00 -5.015204e+00 -7.035164e-01 5.104161e+00 -4.163371e-01 -6.294280e+00 -5.629103e+00 1.986130e+00 -1.529065e+00 7.823305e-02 5.497325e+01 3.626184e-01 -1.873057e+00 -1.578624e+00 -1.111994e+00 -1.100829e-01 6.247145e-01 -3.480561e-01 -1.292047e+00 -1.143109e+00 -6.793731e-01 -7.507179e-01 -8.667458e-01 3.037508e+00 -4.179375e-02 1.865587e-01 6.423786e-02 1.043778e-01 -1.169967e-01 -1.071547e-01 -5.761330e-02 7.772315e-02 2.899905e-02 -8.896359e-02 -4.405882e-02 -5.475526e-02 -6.061072e-02
<VARIANCE> 39
 1.356068e+01 1.049936e+02 7.560960e+01 5.013112e+01 2.620905e+01 4.886054e+01 3.878174e+01 6.104844e+01 5.063294e+01 3.527500e+01 3.012280e+01 2.864266e+01 1.813092e+02 1.421533e+00 8.657043e+00 4.398446e+00 5.016932e+00 2.314542e+00 3.993832e+00 2.766796e+00 4.193630e+00 3.124839e+00 3.390446e+00 2.869897e+00 2.719677e+00 1.398805e+01 2.632874e-01 1.560496e+00 8.942751e-01 8.154033e-01 3.358007e-01 7.673029e-01 4.114983e-01 7.246787e-01 5.068000e-01 5.449142e-01 5.205214e-01 4.676173e-01 2.734626e+00
<GCONST> 1.334189e+02
<STATE> 3
<MEAN> 39
 -1.823928e+00 -1.356539e+01 -1.667005e+01 -7.018304e+00 -2.249665e+00 5.880112e+00 -1.204978e+00 -1.182661e+01 -1.243598e+01 -6.769146e+00 -5.631645e+00 -7.423417e+00 7.430296e+01 1.553121e-01 7.697597e-02 -2.118998e-01 3.092068e-01 6.179767e-02 -3.488534e-01 8.536445e-02 5.228633e-01 6.648029e-02 -1.820230e-01 2.596121e-01 -2.137256e-02 -8.371393e-02 2.333586e-02 -6.751389e-03 -6.239110e-03 3.416031e-03 4.964972e-02 -1.152087e-03 -1.336692e-02 8.743523e-02 3.364999e-02 1.530615e-02 5.111520e-02 3.967648e-02 -5.779169e-02
<VARIANCE> 39
 5.995934e+00 8.699122e+00 1.173183e+01 1.664844e+01 2.263770e+01 2.520185e+01 2.771591e+01 2.839813e+01 2.312274e+01 2.886358e+01 2.493438e+01 1.361172e+01 1.590066e+01 1.209554e-01 2.383344e-01 3.229672e-01 4.822480e-01 6.202710e-01 5.829496e-01 8.703027e-01 1.180446e+00 8.482764e-01 9.157687e-01 9.005085e-01 5.978063e-01 1.407663e-01 2.232647e-02 3.469295e-02 5.179087e-02 8.078546e-02 9.693665e-02 8.988043e-02 1.356857e-01 1.555032e-01 1.235327e-01 1.375903e-01 1.400470e-01 1.073864e-01 3.345520e-02
<GCONST> 6.687872e+01
<STATE> 4
<MEAN> 39
 1.111492e+00 -3.861062e+00 -1.261524e+01 9.821157e-01 3.747713e+00 -6.580966e-01 -3.783778e+00 3.144538e+00 -3.841357e+00 -6.553877e+00 -1.918176e+00 -2.573167e+00 5.417031e+01 -7.314491e-02 3.587744e-01 3.916671e-01 1.485455e-01 1.123420e-01 4.311559e-02 1.479628e-02 4.162428e-02 2.250081e-01 1.853336e-01 -2.821044e-02 1.836890e-01 -7.233008e-01 -3.230106e-02 7.287175e-03 2.809572e-02 -1.923514e-02 -2.530003e-02 2.537717e-02 2.298371e-02 -5.757035e-02 2.332940e-04 3.584773e-02 -3.763075e-03 1.130224e-02 1.938730e-03
<VARIANCE> 39
 2.670587e+01 4.355078e+01 8.899550e+01 2.630251e+01 1.463094e+01 2.770743e+01 4.216520e+01 3.100686e+01 3.562513e+01 5.383458e+01 3.711995e+01 3.714156e+01 1.526783e+02 5.713581e-01 4.335942e-01 7.874253e-01 8.383365e-01 7.637343e-01 1.177620e+00 1.746902e+00 2.086977e+00 1.321876e+00 1.555094e+00 1.499910e+00 1.429018e+00 4.069625e-01 6.826908e-02 6.911482e-02 9.545123e-02 1.314642e-01 1.152575e-01 1.876662e-01 2.623374e-01 3.129575e-01 2.319471e-01 2.413135e-01 2.548567e-01 2.423657e-01 3.594356e-02
<GCONST> 9.439086e+01
<TRANSP> 5
 0.000000e+00 1.000000e+00 0.000000e+00 0.000000e+00 0.000000e+00
 0.000000e+00 9.101005e-01 8.989948e-02 0.000000e+00 0.000000e+00
 0.000000e+00 0.000000e+00 9.572669e-01 4.273307e-02 0.000000e+00
 0.000000e+00 0.000000e+00 0.000000e+00 9.722219e-01 2.777810e-02
 0.000000e+00 0.000000e+00 0.000000e+00 0.000000e+00 0.000000e+00
<ENDHMM>
~h "ae"
<BEGINHMM>
<NUMSTATES> 5
<STATE> 2
<MEAN> 39
 -1.419476e+01 9.960436e+00 1.329784e+01 -1.846003e+01 -1.698560e+01 -1.890182e+00 -1.219693e+01 -1.159036e+01 -1.031341e+01 -1.473096e+00 -1.638101e+01 -5.206034e+00 7.122124e+01 -2.283483e-01 6.507878e-01 -5.468245e-02 -1.051284e+00 1.087034e+00 2.672292e-01 -5.118233e-01 7.374437e-01 3.698442e-01 -6.270324e-01 -7.925751e-02 -5.678843e-02 -2.839544e-01 5.856322e-02 -2.972935e-02 -6.290299e-02 2.159200e-01 6.528949e-02 -1.989887e-01 2.250001e-01 5.404723e-02 -8.805735e-02 7.473499e-02 1.032683e-01 2.630279e-02 -5.039496e-02
<VARIANCE> 39
 2.815005e+00 7.848396e+00 1.620478e+01 4.677727e+01 2.714117e+01 1.573671e+01 1.855437e+01 1.725996e+01 7.923460e+00 1.716245e+01 9.851284e+00 1.494728e+01 7.022047e+00 7.977783e-02 1.201478e-01 3.321347e-01 1.201710e+00 6.368673e-01 1.442234e+00 1.550483e+00 1.035459e+00 1.043473e+00 7.938579e-01 7.347994e-01 6.961190e-01 5.410700e-02 9.105008e-03 1.677621e-02 5.727397e-02 9.298875e-02 1.488023e-01 1.358484e-01 1.516325e-01 2.581491e-01 1.915996e-01 1.312647e-01 1.796694e-01 1.106438e-01 1.213434e-02
<GCONST> 6.295354e+01
<STATE> 3
<MEAN> 39
 -1.265916e+01 1.541690e+01 1.309961e+01 -2.156478e+01 -6.890537e+00 -3.674323e+00 -1.043527e+01 -8.320600e+00 -8.013757e+00 -7.429333e-01 -1.450008e+01 -3.084450e+00 6.477252e+01 3.543687e-01 1.007554e-01 1.508672e-01 2.804816e-01 3.275263e-01 4.204700e-02 4.737299e-02 -1.003083e-02 2.150087e-01 3.284137e-01 2.880275e-01 2.602723e-01 -6.121598e-01 4.558112e-02 -8.595842e-02 2.604005e-02 9.332676e-02 -1.290418e-01 9.644917e-02 -2.237798e-02 -5.631151e-02 6.767239e-04 5.994917e-03 1.503762e-02 6.084017e-03 -2.281799e-02
<VARIANCE> 39
 5.256608e+00 4.574749e+00 8.466069e+00 1.988248e+01 1.223770e+01 7.974868e+00 1.003333e+01 6.637470e+00 8.268155e+00 1.193061e+01 1.108666e+01 1.558679e+01 1.323581e+01 2.075318e-01 3.004588e-01 2.043491e-01 4.564573e-01 5.593567e-01 5.883939e-01 6.701732e-01 4.977389e-01 5.038530e-01 4.203673e-01 4.703860e-01 4.459579e-01 1.255454e-01 3.415674e-02 3.939881e-02 3.642412e-02 7.467452e-02 8.338664e-02 1.225180e-01 1.188295e-01 1.010284e-01 8.912444e-02 7.327683e-02 8.095372e-02 7.092116e-02 1.828286e-02
<GCONST> 5.282674e+01
<STATE> 4
<MEAN> 39
 -5.336760e+00 1.241564e+01 1.346544e+01 -1.154410e+01 -7.252641e+00 -1.136657e+00 -9.360924e+00 -7.713264e+00 -4.405057e+00 -8.281103e-01 -1.001680e+01 -2.283840e+00 5.264582e+01 4.631954e-01 -6.111292e-01 -6.226329e-01 1.602248e+00 3.780158e-01 6.644215e-02 5.905830e-01 4.879477e-01 5.682921e-01 -3.231129e-01 9.666001e-01 6.414200e-02 -1.743756e+00 -2.320219e-01 -9.122590e-02 -2.317505e-01 -1.887912e-02 2.573111e-01 -1.464941e-01 1.751497e-01 1.210746e-01 7.025662e-02 8.112019e-02 2.044980e-01 1.440290e-01 9.183794e-02
<VARIANCE> 39
 1.129942e+01 1.536693e+01 1.543045e+01 3.988369e+01 2.303458e+01 1.512896e+01 1.762290e+01 2.000698e+01 1.480189e+01 2.970027e+01 2.319465e+01 1.170584e+01 3.718048e+01 1.844857e+00 9.403987e-01 1.396037e+00 1.520304e+00 3.101922e+00 1.938372e+00 1.627203e+00 2.817834e+00 1.221587e+00 3.151292e+00 2.289335e+00 1.960574e+00 1.411852e+00 3.237116e-01 2.116746e-01 2.662894e-01 2.990289e-01 4.656337e-01 3.485931e-01 3.942775e-01 5.023988e-01 1.973123e-01 6.587140e-01 3.065167e-01 3.795786e-01 5.438254e-01
<GCONST> 1.046466e+02
<TRANSP> 5
 0.000000e+00 1.000000e+00 0.000000e+00 0.000000e+00 0.000000e+00
 0.000000e+00 9.078357e-01 9.216430e-02 0.000000e+00 0.000000e+00
 0.000000e+00 0.000000e+00 9.342450e-01 6.575500e-02 0.000000e+00
 0.000000e+00 0.000000e+00 0.000000e+00 8.818079e-01 1.181921e-01
 0.000000e+00 0.000000e+00 0.000000e+00 0.000000e+00 0.000000e+00
<ENDHMM>
~h "ah"
<BEGINHMM>
<NUMSTATES> 5
<STATE> 2
<MEAN> 39
 -2.293185e+00 -7.328653e-01 -1.181125e+00 -7.849758e+00 -7.607687e+00 -1.330244e+01 -1.578905e+00 -3.182657e+00 -8.034772e+00 -1.067239e+01 -1.363981e+01 -2.685894e+00 6.489256e+01 7.943957e-01 3.277637e-01 3.376743e-01 2.272067e-01 -1.533668e-01 -2.672197e-01 -4.173885e-01 -8.866158e-01 1.462299e-01 6.588936e-03 -5.791773e-01 -2.603935e-01 -3.303882e-01 1.572734e-03 6.808653e-02 1.061900e-01 1.428898e-01 1.996579e-01 2.149375e-01 6.471913e-02 6.567607e-02 1.082356e-01 1.862049e-01 2.753996e-01 2.208515e-01 -2.603467e-01
<VARIANCE> 39
 1.329060e+01 5.000566e+01 3.725829e+01 4.397882e+01 3.164128e+01 4.880112e+01 4.484705e+01 4.204776e+01 9.217931e+01 3.435850e+01 3.510959e+01 2.905067e+01 1.459812e+02 7.586005e-01 1.695249e+00 2.107543e+00 2.001755e+00 2.169605e+00 3.009243e+00 2.081564e+00 2.822784e+00 2.830100e+00 3.858042e+00 4.548979e+00 2.340520e+00 2.934030e+00 1.296314e-01 2.093817e-01 2.360773e-01 2.642478e-01 4.087477e-01 5.169237e-01 4.332467e-01 5.353296e-01 3.892499e-01 6.071860e-01 4.878720e-01 3.790833e-01 2.861057e-01
<GCONST> 1.178256e+02
<STATE> 3
<MEAN> 39
 2.096125e-01 5.757401e+00 5.174602e+00 -6.053300e-01 -2.011593e+00 -1.225094e+01 -5.201891e+00 -7.163221e+00 -1.456031e+01 -1.287069e+01 -1.257825e+01 -9.515489e-01 5.232846e+01 1.495925e-01 1.801834e-01 -2.701085e-02 6.871654e-01 2.597096e-01 9.039486e-01 3.019016e-01 2.568464e-01 9.565884e-01 7.941366e-01 9.034153e-01 3.849080e-01 -1.596144e+00 -1.922499e-01 -9.774814e-02 -1.284119e-01 -9.681976e-02 -2.364088e-04 1.208318e-01 1.261353e-01 2.220237e-01 1.902626e-01 1.626621e-01 1.656434e-01 5.949216e-02 7.185008e-02
<VARIANCE> 39
 6.399393e+00 1.449408e+01 1.013349e+01 1.952663e+01 1.936882e+01 3.417633e+01 3.223230e+01 2.168501e+01 8.265102e+01 3.822108e+01 3.127509e+01 2.363993e+01 5.381863e+01 8.094557e-01 8.497654e-01 1.031115e+00 1.191878e+00 1.194575e+00 2.115008e+00 1.439708e+00 2.091975e+00 2.645895e+00 2.191952e+00 2.087428e+00 1.479816e+00 1.040543e+00 1.471583e-01 1.335447e-01 1.125331e-01 2.157913e-01 2.040516e-01 3.600640e-01 2.688934e-01 3.330264e-01 3.696646e-01 3.559922e-01 3.892663e-01 2.463734e-01 1.544000e-01
<GCONST> 9.906375e+01
<STATE> 4
<MEAN> 39
 -6.565708e+00 3.885838e+00 3.897562e+00 5.335947e-01 -5.572577e-01 -3.940668e+00 6.732363e-01 -1.758227e+00 -5.148741e+00 -1.022159e+00 -1.261849e+00 2.724739e+00 4.660631e+01 -5.862973e-01 -2.528181e-01 1.983933e-01 -2.951601e-01 -1.455802e-01 2.083618e-01 7.014221e-01 4.476896e-01 1.323038e-01 7.512699e-01 6.443557e-01 1.504534e-01 3.059118e-01 8.506710e-02 4.255975e-03 4.673122e-02 3.936495e-03 -5.122141e-02 -1.273907e-01 -6.127376e-02 -1.396339e-01 -2.458517e-01 -1.836600e-01 -1.559927e-01 -8.110055e-02 7.621181e-02
<VARIANCE> 39
 4.221920e+01 2.446784e+01 2.396129e+01 3.347264e+01 2.459995e+01 2.969450e+01 2.970917e+01 2.828700e+01 3.669759e+01 3.421873e+01 4.153450e+01 2.290659e+01 5.501058e+01 3.428291e+00 2.165089e+00 2.504081e+00 3.131883e+00 2.493336e+00 2.950110e+00 2.372927e+00 3.135969e+00 4.026937e+00 2.921262e+00 2.905164e+00 2.095099e+00 3.927414e+00 7.505668e-01 4.130229e-01 5.322155e-01 7.297103e-01 5.593581e-01 6.231302e-01 4.886669e-01 6.693965e-01 8.165843e-01 5.668974e-01 5.529764e-01 4.193630e-01 9.381925e-01
<GCONST> 1.237550e+02
<TRANSP> 5
 0.000000e+00 1.000000e+00 0.000000e+00 0.000000e+00 0.000000e+00
 0.000000e+00 7.216279e-01 2.783720e-01 0.000000e+00 0.000000e+00
 0.000000e+00 0.000000e+00 8.317846e-01 1.682154e-01 0.000000e+00
 0.000000e+00 0.000000e+00 0.000000e+00 8.061369e-01 1.938631e-01
 0.000000e+00 0.000000e+00 0.000000e+00 0.000000e+00 0.000000e+00
<ENDHMM>
~h "ao"
<BEGINHMM>
<NUMSTATES> 5
<STATE> 2
<MEAN> 39
 1.230210e+00 5.460721e+00 -1.312661e+01 -2.398638e+01 -1.387900e+01 -7.024648e+00 -1.517690e+00 -2.272749e+00 -1.007934e+01 -5.735056e+00 -9.137641e+00 -4.860903e+00 7.024152e+01 -4.260507e-02 9.923842e-02 -4.395401e-03 -1.326180e-01 1.154364e-01 5.210095e-02 -3.520741e-02 3.515144e-02 -8.830622e-02 -5.237763e-02 -6.446514e-02 3.023389e-02 -1.289993e-01 -7.135479e-05 -1.749012e-03 2.067735e-02 1.894079e-02 4.602768e-02 3.525866e-02 1.975079e-02 6.594369e-03 -1.314141e-02 -7.915623e-03 4.786780e-02 5.253426e-02 -1.999561e-02
<VARIANCE> 39
 2.232813e+00 3.939920e+01 7.800244e+00 4.146275e+01 2.394588e+01 3.088464e+01 1.957108e+01 1.905427e+01 2.641966e+01 1.882889e+01 2.259130e+01 2.210287e+01 1.801687e+01 5.794429e-02 3.132886e-01 2.407983e-01 5.389110e-01 6.957927e-01 7.035356e-01 8.209295e-01 7.943028e-01 1.021133e+00 1.021499e+00 9.429637e-01 8.154081e-01 6.965674e-02 1.050499e-02 5.348947e-02 5.161568e-02 1.034378e-01 1.013052e-01 1.115995e-01 1.449052e-01 1.433027e-01 1.697278e-01 1.704610e-01 1.622712e-01 1.259412e-01 1.186561e-02
<GCONST> 6.675583e+01
<STATE> 3
<MEAN> 39
 2.482635e+00 7.555643e+00 -1.244407e+01 -2.456840e+01 -4.380448e+00 -2.082192e+00 -2.090613e+00 -4.886819e+00 -1.277961e+01 -8.743393e+00 -5.271114e+00 -2.003147e+00 6.052284e+01 1.408284e-01 5.473397e-02 3.312379e-01 8.794035e-01 6.644443e-01 4.304600e-01 1.178617e-01 -2.734982e-01 1.157783e-01 -6.873950e-03 4.274018e-01 8.087017e-02 -1.358810e+00 -7.391402e-02 -6.727765e-02 6.153220e-02 1.594862e-01 -7.574575e-02 2.395662e-02 7.964290e-02 1.075859e-01 1.575915e-01 1.780568e-01 4.074353e-02 8.200920e-02 -8.573178e-02
<VARIANCE> 39
 7.983766e+00 2.024493e+01 1.140950e+01 4.630676e+01 4.863391e+01 2.955589e+01 2.926034e+01 4.274452e+01 2.636640e+01 3.881599e+01 3.582663e+01 2.815619e+01 5.299716e+01 5.557378e-01 1.222322e+00 8.296086e-01 3.235129e+00 1.819593e+00 1.426057e+00 1.322563e+00 1.495777e+00 1.945980e+00 2.252770e+00 1.555197e+00 1.450090e+00 7.658755e-01 9.488429e-02 1.805355e-01 1.260801e-01 3.543088e-01 3.138372e-01 2.655990e-01 2.273891e-01 2.801763e-01 3.073465e-01 4.017463e-01 2.843639e-01 2.691286e-01 7.550172e-02
<GCONST> 9.985387e+01
<STATE> 4
<MEAN> 39
 -4.144656e+00 2.494576e+00 -1.821568e+00 -9.675798e-01 5.596523e-01 1.343315e+00 1.300027e+00 5.684229e-01 -1.109382e+00 8.463864e-01 2.724298e+00 4.613134e+00 4.242284e+01 -2.417738e-01 -4.488727e-02 3.081894e-01 4.368938e-01 1.017309e-02 3.690008e-03 5.370268e-02 1.713724e-01 2.766061e-01 3.034744e-01 1.171924e-01 1.406970e-01 -2.342775e-01 2.949360e-02 3.286369e-02 -1.897564e-02 -5.921293e-02 3.048705e-03 -2.998780e-02 -3.759900e-02 -5.279379e-02 -6.693144e-02 -6.404972e-02 -4.320310e-02 -5.519652e-02 6.635627e-02
<VARIANCE> 39
 1.160853e+01 1.978595e+01 2.133612e+01 3.166528e+01 2.428250e+01 2.154047e+01 2.133959e+01 3.116974e+01 2.312457e+01 2.573196e+01 2.047632e+01 2.007306e+01 1.655654e+01 5.132876e-01 1.130787e+00 7.743675e-01 1.186225e+00 1.826052e+00 1.582486e+00 1.824447e+00 1.862237e+00 1.940895e+00 2.137065e+00 1.734325e+00 1.791904e+00 5.266660e-01 9.444293e-02 1.943497e-01 1.441026e-01 2.181450e-01 3.310470e-01 2.941861e-01 3.461530e-01 3.147158e-01 3.432336e-01 3.911421e-01 3.216920e-01 3.293564e-01 8.623152e-02
<GCONST> 9.646667e+01
<TRANSP> 5
 0.000000e+00 1.000000e+00 0.000000e+00 0.000000e+00 0.000000e+00
 0.000000e+00 9.569786e-01 4.302143e-02 0.000000e+00 0.000000e+00
 0.000000e+00 0.000000e+00 9.266993e-01 7.330068e-02 0.000000e+00
 0.000000e+00 0.000000e+00 0.000000e+00 9.693033e-01 3.069676e-02
 0.000000e+00 0.000000e+00 0.000000e+00 0.000000e+00 0.000000e+00
<ENDHMM>
~h "ay"
<BEGINHMM>
<NUMSTATES> 5
<STATE> 2
<MEAN> 39
 -3.280459e+00 -1.433107e+01 -1.026580e+01 -7.988655e+00 1.981014e+00 -4.853542e-01 -6.541707e+00 -7.826671e+00 -8.655003e+00 -1.412377e+01 -1.244592e+01 -4.214344e+00 7.357444e+01 -3.282075e-02 -2.408359e-01 2.017717e-01 3.412701e-01 -4.309146e-02 -9.751106e-02 -6.871052e-02 3.956343e-02 -5.200502e-03 -1.395732e-01 -1.275639e-01 1.374022e-01 -6.310426e-02 -7.544640e-03 1.031701e-01 6.427072e-02 -1.643926e-02 -1.097070e-01 -8.609509e-02 1.423931e-01 1.006279e-01 -4.189574e-02 5.269554e-04 4.957619e-02 4.972280e-02 -3.160511e-02
<VARIANCE> 39
 5.874992e+00 1.369951e+01 1.965928e+01 1.948034e+01 2.312807e+01 3.259354e+01 2.197685e+01 3.077143e+01 2.179941e+01 4.506503e+01 1.899345e+01 1.989586e+01 1.147667e+01 1.838516e-01 2.936477e-01 3.694500e-01 5.646920e-01 8.044771e-01 9.493278e-01 1.250269e+00 1.028231e+00 9.895334e-01 7.760490e-01 7.540533e-01 7.571828e-01 1.596253e-01 3.178908e-02 8.081574e-02 6.112288e-02 9.809061e-02 1.231357e-01 1.319461e-01 1.690706e-01 1.547405e-01 1.817294e-01 1.465340e-01 1.398824e-01 1.240325e-01 5.924233e-02
<GCONST> 7.390563e+01
<STATE> 3
<MEAN> 39
 -5.927307e+00 -1.328104e+01 -3.366411e+00 -8.104073e+00 -6.326554e+00 -2.528377e+00 2.879614e+00 -6.109523e+00 -1.448710e+01 -1.590197e+01 -1.097518e+01 -2.633058e+00 7.325095e+01 -3.704146e-01 8.412314e-01 9.730527e-01 -8.094851e-01 -1.407293e+00 1.455246e-01 1.225153e+00 -5.348846e-01 -3.311162e-01 4.654053e-01 2.449093e-01 -7.122315e-01 -1.523268e-01 -2.394429e-03 1.770938e-01 9.026290e-02 -1.171509e-01 -1.180099e-03 7.607099e-02 -2.571380e-01 -1.542901e-01 2.255614e-01 1.996693e-01 -1.123731e-01 -1.554188e-01 -7.834175e-02
<VARIANCE> 39
 7.499636e+00 2.025285e+01 2.078997e+01 2.232222e+01 3.846154e+01 2.730607e+01 5.243307e+01 2.515774e+01 3.520002e+01 2.805804e+01 2.486357e+01 2.975141e+01 1.148688e+01 1.912631e-01 6.178679e-01 5.697019e-01 9.288954e-01 1.288845e+00 1.165904e+00 2.189602e+00 1.126798e+00 1.553205e+00 1.536214e+00 1.325560e+00 1.408774e+00 1.474488e-01 2.715323e-02 5.053131e-02 6.064463e-02 1.123588e-01 1.819393e-01 1.608765e-01 3.965128e-01 1.593557e-01 2.038922e-01 2.179198e-01 1.877474e-01 2.232012e-01 1.501548e-02
<GCONST> 8.268508e+01
<STATE> 4
<MEAN> 39
 -8.520491e+00 1.764895e+00 7.343502e+00 -1.425213e+01 -1.255538e+01 -1.304482e+00 -3.978698e+00 -1.286260e+01 -9.038292e+00 -7.723944e+00 -1.290000e+01 -6.310758e+00 6.676838e+01 8.065820e-02 1.056875e+00 6.124025e-01 1.469713e-01 2.395175e-01 -7.563896e-02 -1.266021e+00 -3.156599e-01 3.029110e-01 3.110981e-01 -2.428045e-01 3.527132e-01 -9.159713e-01 8.162510e-02 -1.197553e-01 -1.154339e-01 2.045148e-01 1.067503e-01 -2.943190e-02 8.338252e-02 1.002729e-01 -1.042714e-01 -1.203824e-01 7.748546e-02 1.056688e-01 -7.809028e-02
<VARIANCE> 39
 8.353041e+00 3.940252e+01 1.650944e+01 2.591795e+01 4.613567e+01 3.604399e+01 7.634206e+01 2.561558e+01 6.665292e+01 4.205341e+01 5.976140e+01 2.677400e+01 3.408035e+01 4.069424e-01 6.643005e-01 7.053316e-01 1.043978e+00 1.274323e+00 9.888170e-01 1.800900e+00 1.369354e+00 1.320949e+00 1.612014e+00 1.197873e+00 1.255990e+00 2.890113e-01 5.353941e-02 5.895054e-02 8.020169e-02 1.321914e-01 1.740580e-01 1.784115e-01 3.077520e-01 2.168759e-01 2.001042e-01 2.201505e-01 1.890481e-01 2.360119e-01 3.063133e-02
<GCONST> 9.061315e+01
<TRANSP> 5
 0.000000e+00 1.000000e+00 0.000000e+00 0.000000e+00 0.000000e+00
 0.000000e+00 9.305162e-01 6.948384e-02 0.000000e+00 0.000000e+00
 0.000000e+00 0.000000e+00 8.829694e-01 1.170306e-01 0.000000e+00
 0.000000e+00 0.000000e+00 0.000000e+00 9.138077e-01 8.619224e-02
 0.000000e+00 0.000000e+00 0.000000e+00 0.000000e+00 0.000000e+00
<ENDHMM>
~h "ch"
<BEGINHMM>
<NUMSTATES> 5
<STATE> 2
<MEAN> 39
 -1.358286e+01 4.042679e+00 7.745608e+00 -8.407527e+00 -7.582159e+00 -1.562364e-01 -5.510098e+00 -3.175337e+00 8.351843e-01 8.125601e-01 1.063611e+00 2.311609e+00 5.258842e+01 -3.647206e+00 -2.114956e-01 -2.296438e+00 7.747075e-01 8.410249e-01 2.321325e-01 6.272437e-01 8.752244e-01 -4.236955e-02 -5.284185e-01 1.320407e+00 -2.645204e-01 3.200606e+00 -3.607035e-01 4.370453e-01 -6.586178e-02 -2.037466e-02 2.251095e-02 1.762314e-01 1.501014e-02 -8.401926e-02 -1.666926e-01 -1.547145e-01 -2.812414e-01 -2.629290e-01 5.381513e-01
<VARIANCE> 39
 9.851653e+01 2.649600e+01 4.667794e+01 2.017654e+01 3.252865e+01 1.961288e+01 1.782230e+01 1.885438e+01 9.578311e+00 2.424138e+01 2.445183e+01 1.704071e+01 1.198549e+02 6.591807e+00 4.264774e+00 2.597836e+00 1.767000e+00 3.295646e+00 1.719520e+00 1.566235e+00 1.956871e+00 1.313011e+00 2.653249e+00 2.578809e+00 2.454634e+00 1.016905e+01 1.545702e+00 8.633314e-01 6.859580e-01 3.753365e-01 6.222193e-01 2.695235e-01 3.196928e-01 4.187972e-01 3.050379e-01 6.595878e-01 4.478070e-01 4.378251e-01 2.423723e+00
<GCONST> 1.208493e+02
<STATE> 3
<MEAN> 39
 -3.058284e+01 9.797997e+00 3.591854e+00 -4.642666e+00 -6.537655e+00 3.161235e+00 -2.007442e-01 -2.485351e+00 -7.826675e-01 -1.147318e+00 3.230573e+00 -1.524804e+00 6.885951e+01 4.005538e-01 -2.063634e-02 6.966730e-01 2.586409e-01 -2.716638e-01 4.071542e-02 3.793844e-01 -2.347458e-01 3.406037e-02 8.537601e-02 -3.906473e-02 -1.458386e-03 -3.898153e-01 3.219213e-01 -2.115343e-01 1.381088e-01 4.370527e-02 2.150906e-02 -4.781449e-02 6.086069e-02 3.517477e-02 4.589216e-02 -2.411107e-03 4.881444e-03 6.251995e-02 -2.994906e-01
<VARIANCE> 39
 1.273994e+01 7.504933e+00 2.184093e+01 7.330822e+00 1.977449e+01 1.668234e+01 1.644116e+01 1.730324e+01 1.424724e+01 1.179249e+01 1.392254e+01 1.120433e+01 1.393410e+01 1.453280e+00 1.751952e+00 9.170513e-01 8.684574e-01 1.378078e+00 9.876958e-01 1.254378e+00 1.388080e+00 1.360949e+00 1.095191e+00 1.136981e+00 1.086111e+00 8.052272e-01 2.322069e-01 1.588666e-01 2.621736e-01 1.432372e-01 2.761926e-01 2.121436e-01 2.619079e-01 3.199180e-01 2.840211e-01 2.341649e-01 2.237734e-01 2.085043e-01 1.551987e-01
<GCONST> 8.799740e+01
<STATE> 4
<MEAN> 39
 -1.132034e+01 3.453135e+00 6.208590e+00 2.088398e+00 -2.878506e+00 2.474591e+00 4.316328e+00 -1.355737e+00 1.111159e+00 1.732463e+00 3.241425e+00 3.786761e+00 4.562407e+01 4.695498e-01 -1.455234e-02 -1.172585e-01 7.092255e-02 2.568960e-01 4.417303e-02 -5.375445e-02 -1.686761e-02 -3.067245e-03 4.948994e-02 -5.622611e-02 1.044017e-01 -5.439237e-01 -5.270737e-02 4.043902e-02 -4.047381e-02 -4.966175e-02 -1.338002e-02 -1.287057e-02 -5.921056e-02 -3.386100e-02 -3.548033e-02 -1.059460e-02 -1.347256e-02 -2.761823e-02 7.569863e-02
<VARIANCE> 39
 2.137902e+01 2.837068e+01 3.689199e+01 2.222613e+01 2.025809e+01 2.555286e+01 3.150197e+01 2.334748e+01 2.651538e+01 3.000929e+01 1.787905e+01 1.804143e+01 4.454179e+01 1.397946e+00 1.736387e+00 1.586351e+00 2.166213e+00 1.709192e+00 2.210610e+00 2.742895e+00 2.356936e+00 2.472005e+00 2.322988e+00 2.036651e+00 1.496727e+00 2.181312e+00 1.997271e-01 3.369589e-01 2.896944e-01 3.925504e-01 3.399764e-01 4.361088e-01 4.882259e-01 4.540301e-01 4.867042e-01 4.929954e-01 4.133545e-01 3.027007e-01 2.012937e-01
<GCONST> 1.094586e+02
<TRANSP> 5
 0.000000e+00 1.000000e+00 0.000000e+00 0.000000e+00 0.000000e+00
 0.000000e+00 8.563078e-01 1.436922e-01 0.000000e+00 0.000000e+00
 0.000000e+00 0.000000e+00 9.392020e-01 6.079800e-02 0.000000e+00
 0.000000e+00 0.000000e+00 0.000000e+00 9.678617e-01 3.213833e-02
 0.000000e+00 0.000000e+00 0.000000e+00 0.000000e+00 0.000000e+00
<ENDHMM>
~h "eh"
<BEGINHMM>
<NUMSTATES> 5
<STATE> 2
<MEAN> 39
 -8.134093e+00 -4.432860e+00 1.423135e+00 -6.277310e+00 -8.137478e+00 -1.847177e+00 6.580905e+00 -2.710749e+00 -6.011769e+00 -1.988742e+00 -2.290714e+00 3.239816e-01 5.967990e+01 -1.880696e-01 -2.382860e+00 -5.727292e-01 -2.134453e+00 -1.537485e+00 -7.183896e-02 7.475269e-01 -9.709700e-01 -1.710856e+00 -1.598344e+00 -1.473935e+00 -1.283102e+00 4.244291e+00 -1.234963e-01 2.102198e-01 -1.427159e-01 2.878416e-01 1.106950e-01 2.644795e-01 -1.495054e-01 -8.620283e-02 2.146369e-02 -7.986977e-02 2.587240e-02 -1.643347e-01 -1.717650e-01
<VARIANCE> 39
 2.082273e+01 8.959509e+01 3.088430e+01 9.844275e+01 6.428181e+01 5.707415e+01 4.449155e+01 2.932669e+01 5.166657e+01 5.026250e+01 4.400066e+01 3.223847e+01 2.701483e+02 2.015048e+00 6.375614e+00 2.352536e+00 6.368597e+00 4.015896e+00 2.855784e+00 5.295345e+00 2.577633e+00 3.990834e+00 3.891332e+00 3.009340e+00 2.572076e+00 1.672233e+01 5.866279e-01 1.488076e+00 4.277975e-01 1.451920e+00 9.576006e-01 6.516646e-01 1.146752e+00 4.523076e-01 8.849973e-01 7.570099e-01 6.637220e-01 5.030178e-01 4.320398e+00
<GCONST> 1.394730e+02
<STATE> 3
<MEAN> 39
 -6.243235e+00 -1.216640e+01 -3.377054e+00 -1.104766e+01 -1.280085e+01 -2.701603e-01 6.775870e+00 -6.939355e+00 -1.222284e+01 -1.324644e+01 -7.774043e+00 -6.670081e+00 7.506826e+01 2.361738e-01 1.335110e-01 -1.255227e-01 2.660396e-01 1.815116e-01 -2.070807e-01 -1.839804e-01 1.778890e-01 5.101895e-01 -2.790240e-01 -4.834455e-02 -8.950075e-03 -2.765985e-01 3.319132e-02 1.446298e-01 8.078606e-02 9.949443e-02 8.368858e-02 -1.230579e-01 -7.551857e-02 1.048105e-02 1.563512e-01 1.712575e-01 6.559732e-02 1.015368e-01 -1.857727e-01
<VARIANCE> 39
 1.036145e+01 2.131787e+01 2.769190e+01 2.341073e+01 3.085959e+01 5.384768e+01 2.878300e+01 2.919636e+01 3.178792e+01 2.203696e+01 2.422471e+01 1.947515e+01 1.272332e+01 3.381521e-01 5.317154e-01 4.991679e-01 6.228206e-01 9.527813e-01 1.413837e+00 1.384511e+00 1.047453e+00 1.317168e+00 1.080111e+00 9.008798e-01 9.856267e-01 2.903002e-01 5.974480e-02 9.293149e-02 7.336391e-02 1.378759e-01 1.454322e-01 1.863864e-01 2.378675e-01 1.903038e-01 1.985213e-01 1.881444e-01 1.643358e-01 1.778245e-01 1.099644e-01
<GCONST> 8.421441e+01
<STATE> 4
<MEAN> 39
 -2.520331e+00 -6.890380e+00 -3.083961e+00 -7.091575e+00 -1.026649e+01 -6.400136e+00 4.017792e+00 -4.409114e+00 -3.675021e+00 -9.435799e+00 -5.824524e+00 -3.707237e+00 6.565969e+01 -2.553520e-02 1.572115e+00 1.834578e-02 1.324370e+00 1.025903e+00 1.398565e-01 -1.239195e+00 -2.930321e-01 5.217799e-01 1.357829e+00 4.608168e-01 4.552230e-01 -1.760503e+00 -3.920686e-01 9.010601e-02 -6.678775e-02 1.346859e-01 7.680807e-02 3.612630e-01 1.614729e-01 -3.257095e-02 -3.198408e-01 1.709290e-01 1.012294e-01 7.469629e-02 1.269017e-01
<VARIANCE> 39
 1.460660e+01 3.291101e+01 2.260280e+01 2.728766e+01 3.440475e+01 5.095394e+01 4.831126e+01 2.470291e+01 3.244847e+01 4.272487e+01 3.627333e+01 2.555294e+01 5.913687e+01 2.468190e+00 2.205878e+00 1.209406e+00 1.776971e+00 2.024289e+00 4.162443e+00 3.155514e+00 2.371300e+00 2.676984e+00 2.409808e+00 1.971919e+00 2.436588e+00 1.315783e+00 2.613746e-01 3.421968e-01 2.114345e-01 2.940967e-01 3.606263e-01 6.732985e-01 4.111123e-01 3.546949e-01 4.462502e-01 4.031522e-01 3.749024e-01 3.750118e-01 2.660306e-01
<GCONST> 1.137546e+02
<TRANSP> 5
 0.000000e+00 1.000000e+00 0.000000e+00 0.000000e+00 0.000000e+00
 0.000000e+00 8.143300e-01 1.856700e-01 0.000000e+00 0.000000e+00
 0.000000e+00 0.000000e+00 9.183020e-01 8.169802e-02 0.000000e+00
 0.000000e+00 0.000000e+00 0.000000e+00 6.734655e-01 3.265344e-01
 0.000000e+00 0.000000e+00 0.000000e+00 0.000000e+00 0.000000e+00
<ENDHMM>
~h "ey"
<BEGINHMM>
<NUMSTATES> 5
<STATE> 2
<MEAN> 39
 -6.828346e+00 5.785579e+00 3.426596e+00 2.982996e+00 -7.607603e-01 1.556975e+00 1.825994e+00 -3.243434e-01 3.912764e-01 4.392918e+00 3.686646e+00 4.055049e+00 3.901175e+01 1.463865e-02 4.976784e-02 1.066120e-03 3.163163e-02 5.107828e-02 4.238378e-02 -4.070299e-02 -1.709537e-03 6.935821e-02 3.105472e-02 2.322882e-02 7.273893e-03 -1.015791e-01 -3.946650e-02 -5.582753e-02 2.775448e-02 -8.174749e-02 -7.215035e-02 -5.023120e-02 4.934964e-02 -8.963706e-03 -2.055486e-02 -3.820722e-03 -5.977065e-02 -1.090442e-02 1.411808e-01
<VARIANCE> 39
 5.942667e+00 9.847844e+00 9.498814e+00 8.931923e+00 1.262479e+01 1.408024e+01 1.904545e+01 1.880870e+01 1.502256e+01 1.622692e+01 1.534688e+01 1.381388e+01 7.942373e+00 4.587731e-01 5.313871e-01 6.043198e-01 7.856396e-01 1.040925e+00 1.276413e+00 1.537211e+00 1.389431e+00 1.465233e+00 1.475145e+00 1.492207e+00 1.303234e+00 2.885544e-01 1.049100e-01 1.295471e-01 1.283312e-01 2.663337e-01 2.800946e-01 2.882597e-01 3.194271e-01 2.911979e-01 3.018636e-01 2.987096e-01 3.485778e-01 2.723327e-01 2.410157e-01
<GCONST> 8.450410e+01
<STATE> 3
<MEAN> 39
 -9.029647e+00 -8.525155e-01 5.452812e+00 -1.517700e+01 -1.715857e+01 -4.868038e+00 3.354743e+00 -6.821991e+00 -3.477008e+00 2.102474e+00 -8.632367e+00 -2.824891e+00 6.713961e+01 -1.162192e-01 -4.195176e-01 2.959030e-01 -1.691964e+00 -1.612227e+00 -5.548040e-01 -2.710413e-01 -8.267314e-01 -5.158134e-01 -3.316926e-01 -1.167672e+00 -6.213534e-01 2.408950e+00 3.075111e-02 1.265433e-01 -1.253317e-02 1.419840e-01 1.328038e-01 7.037462e-02 -1.494766e-01 1.191213e-02 8.209239e-03 -4.542657e-02 9.075461e-02 5.062248e-02 -2.119449e-01
<VARIANCE> 39
 1.314377e+01 2.606339e+01 1.679407e+01 1.018379e+02 1.028361e+02 3.391297e+01 3.953915e+01 3.351754e+01 2.404695e+01 2.826135e+01 5.140940e+01 3.450441e+01 1.884685e+02 1.214524e+00 2.769814e+00 1.749468e+00 7.668597e+00 6.344117e+00 2.745606e+00 3.141447e+00 1.796277e+00 1.682333e+00 2.109618e+00 3.627784e+00 2.232002e+00 1.499991e+01 2.136148e-01 4.372879e-01 3.022676e-01 1.258520e+00 1.048037e+00 4.853616e-01 4.953743e-01 3.449330e-01 2.980970e-01 3.616634e-01 6.376259e-01 3.678563e-01 2.368074e+00
<GCONST> 1.254141e+02
<STATE> 4
<MEAN> 39
 -8.522305e+00 6.932735e+00 1.279803e+01 -1.728166e+01 -1.574843e+01 -4.504524e+00 -9.956497e+00 -1.070666e+01 -5.408059e+00 2.039941e-01 -1.008381e+01 3.396094e-03 6.270066e+01 1.518164e-01 2.463306e-01 1.151059e-01 5.005267e-01 5.594984e-01 2.301472e-01 -2.013883e-01 2.541772e-01 2.952483e-01 1.179359e-01 4.054071e-01 3.047179e-01 -1.114236e+00 -1.949645e-02 -4.812430e-02 -7.379708e-02 5.017245e-02 1.701892e-02 -1.681941e-02 9.403144e-02 3.702518e-02 2.314875e-02 3.211995e-02 4.715462e-02 4.814038e-03 6.899838e-03
<VARIANCE> 39
 1.660545e+01 2.411371e+01 1.653996e+01 3.894834e+01 4.417999e+01 2.273232e+01 3.205884e+01 1.934622e+01 3.292883e+01 2.230692e+01 2.930346e+01 1.814723e+01 1.243209e+02 9.685353e-01 7.677787e-01 9.674670e-01 1.162894e+00 8.753332e-01 1.158379e+00 1.703027e+00 1.255568e+00 1.835387e+00 1.531436e+00 1.587381e+00 1.097145e+00 1.335128e+00 1.655657e-01 1.007769e-01 1.343428e-01 1.855979e-01 1.688456e-01 2.094903e-01 2.328431e-01 2.321313e-01 2.719749e-01 2.775165e-01 2.559248e-01 1.863111e-01 1.900448e-01
<GCONST> 9.631889e+01
<TRANSP> 5
 0.000000e+00 1.000000e+00 0.000000e+00 0.000000e+00 0.000000e+00
 0.000000e+00 9.474098e-01 5.259019e-02 0.000000e+00 0.000000e+00
 0.000000e+00 0.000000e+00 9.059979e-01 9.400204e-02 0.000000e+00
 0.000000e+00 0.000000e+00 0.000000e+00 9.510233e-01 4.897672e-02
 0.000000e+00 0.000000e+00 0.000000e+00 0.000000e+00 0.000000e+00
<ENDHMM>
~h "ia"
<BEGINHMM>
<NUMSTATES> 5
<STATE> 2
<MEAN> 39
 -7.381522e+00 3.330936e+00 2.047153e+00 -3.046288e+00 -4.874629e+00 -2.964739e+00 -5.433913e-01 -3.441086e+00 -4.156183e+00 -7.898898e-01 -2.925678e+00 8.747759e-01 5.354753e+01 4.188114e-03 7.886445e-03 8.638212e-04 -3.319199e-05 4.583947e-03 2.944113e-03 -4.185917e-03 -2.407409e-03 4.110487e-03 -9.366490e-04 -2.847919e-03 -1.119324e-03 -3.485081e-03 -2.780182e-04 4.271456e-06 2.111308e-05 2.157945e-05 -1.623377e-04 6.947975e-04 6.310043e-04 2.858052e-04 2.109315e-04 1.335133e-04 3.614691e-04 -5.897314e-04 -3.645968e-04
<VARIANCE> 39
 3.956010e+01 5.039151e+01 5.962346e+01 1.002791e+02 6.064148e+01 5.444832e+01 5.840739e+01 4.790145e+01 4.806982e+01 5.399290e+01 6.658193e+01 3.143701e+01 1.841879e+02 1.501115e+00 1.479264e+00 1.419895e+00 2.272107e+00 1.880642e+00 2.105628e+00 2.280031e+00 1.936650e+00 2.018196e+00 1.963827e+00 1.997587e+00 1.559135e+00 2.571761e+00 2.319898e-01 2.408473e-01 2.210669e-01 3.404900e-01 3.085047e-01 3.687871e-01 3.892777e-01 3.406794e-01 3.576038e-01 3.468189e-01 3.398416e-01 2.856025e-01 3.133720e-01
<GCONST> 1.177766e+02
<STATE> 3
<MEAN> 39
 -7.381522e+00 3.330936e+00 2.047153e+00 -3.046288e+00 -4.874629e+00 -2.964739e+00 -5.433913e-01 -3.441086e+00 -4.156183e+00 -7.898898e-01 -2.925678e+00 8.747759e-01 5.354753e+01 4.188114e-03 7.886445e-03 8.638212e-04 -3.319199e-05 4.583947e-03 2.944113e-03 -4.185917e-03 -2.407409e-03 4.110487e-03 -9.366490e-04 -2.847919e-03 -1.119324e-03 -3.485081e-03 -2.780182e-04 4.271456e-06 2.111308e-05 2.157945e-05 -1.623377e-04 6.947975e-04 6.310043e-04 2.858052e-04 2.109315e-04 1.335133e-04 3.614691e-04 -5.897314e-04 -3.645968e-04
<VARIANCE> 39
 3.956010e+01 5.039151e+01 5.962346e+01 1.002791e+02 6.064148e+01 5.444832e+01 5.840739e+01 4.790145e+01 4.806982e+01 5.399290e+01 6.658193e+01 3.143701e+01 1.841879e+02 1.501115e+00 1.479264e+00 1.419895e+00 2.272107e+00 1.880642e+00 2.105628e+00 2.280031e+00 1.936650e+00 2.018196e+00 1.963827e+00 1.997587e+00 1.559135e+00 2.571761e+00 2.319898e-01 2.408473e-01 2.210669e-01 3.404900e-01 3.085047e-01 3.687871e-01 3.892777e-01 3.406794e-01 3.576038e-01 3.468189e-01 3.398416e-01 2.856025e-01 3.133720e-01
<GCONST> 1.177766e+02
<STATE> 4
<MEAN> 39
 -7.381522e+00 3.330936e+00 2.047153e+00 -3.046288e+00 -4.874629e+00 -2.964739e+00 -5.433913e-01 -3.441086e+00 -4.156183e+00 -7.898898e-01 -2.925678e+00 8.747759e-01 5.354753e+01 4.188114e-03 7.886445e-03 8.638212e-04 -3.319199e-05 4.583947e-03 2.944113e-03 -4.185917e-03 -2.407409e-03 4.110487e-03 -9.366490e-04 -2.847919e-03 -1.119324e-03 -3.485081e-03 -2.780182e-04 4.271456e-06 2.111308e-05 2.157945e-05 -1.623377e-04 6.947975e-04 6.310043e-04 2.858052e-04 2.109315e-04 1.335133e-04 3.614691e-04 -5.897314e-04 -3.645968e-04
<VARIANCE> 39
 3.956010e+01 5.039151e+01 5.962346e+01 1.002791e+02 6.064148e+01 5.444832e+01 5.840739e+01 4.790145e+01 4.806982e+01 5.399290e+01 6.658193e+01 3.143701e+01 1.841879e+02 1.501115e+00 1.479264e+00 1.419895e+00 2.272107e+00 1.880642e+00 2.105628e+00 2.280031e+00 1.936650e+00 2.018196e+00 1.963827e+00 1.997587e+00 1.559135e+00 2.571761e+00 2.319898e-01 2.408473e-01 2.210669e-01 3.404900e-01 3.085047e-01 3.687871e-01 3.892777e-01 3.406794e-01 3.576038e-01 3.468189e-01 3.398416e-01 2.856025e-01 3.133720e-01
<GCONST> 1.177766e+02
<TRANSP> 5
 0.000000e+00 1.000000e+00 0.000000e+00 0.000000e+00 0.000000e+00
 0.000000e+00 6.000000e-01 4.000000e-01 0.000000e+00 0.000000e+00
 0.000000e+00 0.000000e+00 6.000000e-01 4.000000e-01 0.000000e+00
 0.000000e+00 0.000000e+00 0.000000e+00 7.000000e-01 3.000000e-01
 0.000000e+00 0.000000e+00 0.000000e+00 0.000000e+00 0.000000e+00
<ENDHMM>
~h "ih"
<BEGINHMM>
<NUMSTATES> 5
<STATE> 2
<MEAN> 39
 -9.312284e+00 2.109156e+00 1.038187e+01 -1.750569e+01 -2.091694e+01 -1.002620e+01 -8.692133e+00 -1.275144e+01 -1.041326e+01 5.410401e+00 -1.060866e+01 3.611975e-01 7.170584e+01 -1.790390e-01 1.649111e-01 7.829310e-01 -9.677071e-01 1.479452e-01 4.215589e-01 -6.576714e-01 -3.722562e-01 1.405620e-01 1.194424e-02 -8.897247e-01 3.339606e-01 -9.631647e-02 -7.172175e-02 9.503187e-02 -1.988344e-01 3.438008e-01 2.558747e-01 2.325880e-01 2.758912e-01 1.680723e-01 1.456105e-01 -9.599753e-02 6.755555e-02 3.935588e-02 -2.984111e-01
<VARIANCE> 39
 1.535656e+01 1.569672e+01 4.840363e+01 5.922907e+01 4.144675e+01 3.004133e+01 3.704083e+01 3.238094e+01 1.894357e+01 2.637591e+01 2.941756e+01 1.434564e+01 1.897910e+01 8.560517e-01 9.212463e-01 1.333193e+00 2.809939e+00 2.715998e+00 1.715007e+00 1.938335e+00 1.427200e+00 1.436411e+00 1.979209e+00 1.428116e+00 1.003990e+00 1.163035e+00 2.949751e-01 1.277872e-01 2.250396e-01 2.727830e-01 4.844180e-01 4.289995e-01 2.498641e-01 2.292977e-01 3.566765e-01 3.332613e-01 2.948007e-01 1.755998e-01 9.337304e-02
<GCONST> 1.017763e+02
<STATE> 3
<MEAN> 39
 -8.968040e+00 2.032450e+00 8.887353e+00 -8.059927e+00 -1.451293e+01 -4.297793e+00 -3.705631e+00 -8.371959e+00 -3.664190e+00 5.058055e+00 -6.604872e+00 3.941926e+00 5.706023e+01 -4.806524e-01 -3.784880e-01 -1.530935e+00 1.853061e+00 1.601807e-01 -9.169914e-03 1.469081e+00 9.309341e-01 2.409122e-01 -8.339702e-02 1.359316e+00 -1.538682e-01 -1.452474e-02 -2.176143e-01 1.523854e-01 -4.609948e-02 -3.158138e-02 -5.230965e-02 -3.562047e-03 -7.079981e-02 5.265211e-02 -8.905204e-02 -2.963380e-02 8.020729e-02 -7.269730e-02 2.176249e-01
<VARIANCE> 39
 2.708668e+01 4.022763e+01 9.176344e+01 1.089266e+02 2.327820e+01 2.850792e+01 8.219250e+01 4.605039e+01 3.467395e+01 3.086277e+01 7.195771e+01 2.329966e+01 7.490092e+01 3.696324e+00 4.583293e+00 5.615393e+00 4.640607e+00 2.024693e+00 3.033392e+00 5.777427e+00 2.744851e+00 3.679753e+00 3.514571e+00 3.274975e+00 2.321887e+00 9.884930e+00 3.548461e-01 9.521639e-01 1.011776e+00 8.492088e-01 3.516414e-01 6.263251e-01 1.229595e+00 5.490752e-01 6.020175e-01 7.333168e-01 6.986451e-01 4.823687e-01 1.209700e+00
<GCONST> 1.340241e+02
<STATE> 4
<MEAN> 39
 -2.127951e+01 4.155673e+00 -7.295631e+00 7.278214e+00 -1.019639e+01 -2.042275e+00 5.594131e+00 1.380869e+00 -3.963744e+00 1.789230e+00 2.460440e+00 2.751809e+00 6.148063e+01 1.446814e-01 1.710781e-01 2.428130e-01 -1.474798e-01 3.453760e-01 -2.934617e-02 -1.193150e-01 7.749500e-03 8.798472e-02 -1.949070e-01 -3.343318e-02 4.426572e-02 -5.635278e-01 2.289311e-01 -1.670278e-01 1.523567e-01 -3.082448e-02 1.157269e-02 -1.023197e-01 -1.947464e-02 -6.003403e-02 2.050759e-02 2.095645e-02 -4.191921e-02 2.435695e-02 -1.503251e-01
<VARIANCE> 39
 1.244914e+01 5.524996e+00 1.346181e+01 1.501872e+01 1.839683e+01 1.802249e+01 1.526802e+01 2.426921e+01 1.835249e+01 1.514042e+01 1.719603e+01 1.469537e+01 1.753383e+01 1.019582e+00 1.000704e+00 1.187428e+00 9.984483e-01 1.273638e+00 1.682023e+00 1.501215e+00 1.535224e+00 1.552930e+00 1.641517e+00 1.457481e+00 1.320908e+00 4.639146e-01 1.356004e-01 1.634131e-01 1.604711e-01 2.016108e-01 2.210863e-01 2.884292e-01 2.981316e-01 3.049402e-01 3.264618e-01 3.112074e-01 2.986628e-01 2.737337e-01 1.506133e-01
<GCONST> 9.049464e+01
<TRANSP> 5
 0.000000e+00 1.000000e+00 0.000000e+00 0.000000e+00 0.000000e+00
 0.000000e+00 8.912116e-01 1.087884e-01 0.000000e+00 0.000000e+00
 0.000000e+00 0.000000e+00 8.836281e-01 1.163719e-01 0.000000e+00
 0.000000e+00 0.000000e+00 0.000000e+00 9.104543e-01 8.954570e-02
 0.000000e+00 0.000000e+00 0.000000e+00 0.000000e+00 0.000000e+00
<ENDHMM>
~h "iy"
<BEGINHMM>
<NUMSTATES> 5
<STATE> 2
<MEAN> 39
 -1.272118e+01 1.356015e+01 1.306886e+01 -1.856539e+01 -9.427892e+00 -4.899913e+00 -1.271687e+01 -9.435287e+00 -1.016978e+01 -1.741970e+00 -1.472935e+01 -2.968728e+00 6.537339e+01 1.961497e-01 2.468205e-01 -2.430824e-02 1.300569e-01 3.997891e-01 2.137944e-02 7.127514e-02 5.003526e-02 1.767216e-01 -1.491781e-01 7.940454e-02 1.442971e-01 -5.363867e-01 4.279979e-02 -3.700745e-02 -3.409877e-03 8.193510e-02 -9.744897e-03 -8.299015e-03 3.551600e-02 -2.340246e-02 2.364167e-02 1.405733e-02 4.208420e-02 7.064909e-03 -4.694938e-02
<VARIANCE> 39
 8.988036e+00 1.717176e+01 9.498866e+00 1.833709e+01 3.216619e+01 1.842154e+01 3.823072e+01 1.332281e+01 2.172379e+01 1.753830e+01 1.865529e+01 2.248781e+01 2.540486e+01 2.174358e-01 2.894018e-01 3.228218e-01 5.596045e-01 5.944064e-01 5.762488e-01 7.875054e-01 7.200568e-01 6.895583e-01 7.371708e-01 7.292808e-01 6.596624e-01 2.622260e-01 2.712996e-02 4.917611e-02 6.056578e-02 1.011247e-01 9.871902e-02 1.054186e-01 1.334555e-01 1.173077e-01 1.177590e-01 1.196829e-01 1.263133e-01 1.122983e-01 2.344069e-02
<GCONST> 6.814027e+01
<STATE> 3
<MEAN> 39
 -6.423876e+00 1.075831e+01 1.157083e+01 -4.082285e+00 -3.014752e+00 -4.469223e+00 -8.177027e+00 -7.542389e+00 -5.096516e+00 -3.436183e+00 -7.310451e+00 -1.088981e+00 4.929600e+01 9.651177e-02 -9.228512e-01 -3.420568e-01 1.436665e+00 2.113967e-01 1.034925e-01 8.916889e-01 5.622005e-01 5.095039e-01 2.639697e-01 9.738865e-01 2.092638e-01 -1.034736e+00 -3.162923e-02 9.985425e-03 -8.821902e-02 -1.327135e-01 -2.759776e-02 1.152017e-01 5.414131e-02 6.429159e-02 3.911092e-02 1.233292e-01 7.345568e-02 7.749388e-02 2.187057e-02
<VARIANCE> 39
 1.876577e+01 5.195083e+01 1.878194e+01 7.394424e+01 2.894891e+01 3.502593e+01 5.935202e+01 2.621937e+01 2.671726e+01 2.442529e+01 3.225684e+01 2.057717e+01 3.504696e+01 2.022039e+00 2.964968e+00 1.725087e+00 3.544039e+00 1.946690e+00 3.731198e+00 3.515141e+00 2.061095e+00 2.396652e+00 2.435440e+00 2.144838e+00 2.062639e+00 1.663174e+00 4.051790e-01 6.477626e-01 3.464017e-01 7.065172e-01 3.673437e-01 7.943975e-01 6.624425e-01 3.915898e-01 4.315327e-01 4.018176e-01 3.747678e-01 3.558595e-01 3.011125e-01
<GCONST> 1.176342e+02
<STATE> 4
<MEAN> 39
 -7.288102e+00 4.665617e+00 4.042042e+00 2.392304e+00 -2.069972e+00 6.639754e-01 1.789121e+00 -1.148683e+00 -2.667307e-01 3.186724e+00 2.672334e+00 3.554049e+00 4.125047e+01 2.595206e-02 6.932961e-02 -1.931284e-01 -1.837005e-02 7.390499e-02 1.421223e-01 1.129866e-01 6.754320e-02 -6.114412e-05 7.565002e-02 6.601460e-02 3.374219e-02 -7.394589e-02 -1.386279e-02 -4.228369e-03 3.680976e-02 3.853725e-03 -1.187113e-02 -5.971689e-02 -1.742980e-02 -3.414764e-02 -4.134305e-02 -5.734816e-02 -6.574117e-02 -4.424963e-02 7.439856e-02
<VARIANCE> 39
 1.395445e+01 1.780199e+01 1.732415e+01 2.115663e+01 1.829095e+01 2.164582e+01 2.723352e+01 2.524294e+01 2.001527e+01 2.288069e+01 1.892870e+01 1.620893e+01 1.529591e+01 1.204119e+00 1.215751e+00 1.251898e+00 1.667029e+00 1.371602e+00 2.144088e+00 2.064603e+00 1.828156e+00 1.839145e+00 1.947769e+00 1.765406e+00 1.600267e+00 1.071227e+00 2.314890e-01 2.133439e-01 2.218818e-01 3.075221e-01 2.678115e-01 4.039301e-01 3.922702e-01 3.634542e-01 3.660558e-01 3.795179e-01 3.308640e-01 3.212177e-01 1.830205e-01
<GCONST> 1.003198e+02
<TRANSP> 5
 0.000000e+00 1.000000e+00 0.000000e+00 0.000000e+00 0.000000e+00
 0.000000e+00 9.605168e-01 3.948321e-02 0.000000e+00 0.000000e+00
 0.000000e+00 0.000000e+00 9.150178e-01 8.498220e-02 0.000000e+00
 0.000000e+00 0.000000e+00 0.000000e+00 9.606841e-01 3.931597e-02
 0.000000e+00 0.000000e+00 0.000000e+00 0.000000e+00 0.000000e+00
<ENDHMM>
~h "jh"
<BEGINHMM>
<NUMSTATES> 5
<STATE> 2
<MEAN> 39
 -1.178892e+01 7.172192e+00 7.509688e+00 -1.617460e+00 -8.214148e+00 -4.710872e+00 1.479080e+00 -6.646949e+00 -6.925070e+00 -2.783950e+00 -3.798623e+00 -2.843041e+00 5.731763e+01 -3.595946e-01 -9.296060e-02 3.658260e-01 -6.671994e-01 -8.812642e-01 -6.263676e-01 -2.108990e-01 -4.338059e-01 -3.739465e-01 -1.584408e-01 -2.899176e-01 -3.101306e-01 1.596904e+00 4.048625e-02 -7.817376e-02 -8.704508e-03 -8.777581e-02 -1.803247e-02 4.767554e-02 4.482510e-02 1.149604e-02 7.472449e-02 8.944559e-02 -1.774913e-02 5.090943e-02 -5.329168e-02
<VARIANCE> 39
 1.574047e+02 4.249673e+01 2.896383e+01 3.485767e+01 5.722905e+01 4.307241e+01 3.207416e+01 3.205270e+01 3.039442e+01 2.666666e+01 3.282484e+01 2.437020e+01 1.564809e+02 1.321194e+01 5.321305e+00 3.742498e+00 2.029943e+00 5.955262e+00 3.039346e+00 3.160336e+00 3.097633e+00 3.089118e+00 2.707299e+00 3.313911e+00 2.011501e+00 3.960854e+00 1.973540e+00 1.015807e+00 7.444265e-01 3.344757e-01 9.524695e-01 5.162645e-01 5.848731e-01 4.589423e-01 4.760554e-01 4.861592e-01 4.826725e-01 3.821110e-01 6.644337e-01
<GCONST> 1.311559e+02
<STATE> 3
<MEAN> 39
 -9.951283e+00 -1.088751e-01 9.111509e+00 -1.834417e+01 -2.361819e+01 -1.040709e+01 1.747621e+00 -1.052211e+01 -4.466384e+00 -1.593782e+00 -1.206569e+01 -6.454183e+00 7.419611e+01 2.101729e-02 1.228615e-01 1.460146e-01 -4.987442e-01 4.797229e-02 3.655727e-01 -2.540771e-01 -2.157753e-01 2.102335e-01 2.089703e-01 -3.541384e-01 2.230234e-01 -9.439885e-02 -1.060131e-01 1.550075e-01 -1.290469e-02 9.037450e-02 1.305900e-01 4.997331e-02 -7.178527e-02 8.248517e-02 1.742145e-02 4.185731e-03 1.170408e-01 5.254245e-02 -4.550350e-02
<VARIANCE> 39
 2.061363e+01 2.190525e+01 1.673363e+01 2.180379e+01 1.873693e+01 1.604447e+01 2.723501e+01 2.408981e+01 3.281408e+01 1.255145e+01 1.732400e+01 1.788605e+01 7.751314e+00 2.504410e-01 4.913965e-01 7.050076e-01 8.136083e-01 6.193422e-01 5.517935e-01 1.277916e+00 9.364872e-01 7.894056e-01 8.201142e-01 1.314104e+00 1.345430e+00 1.327929e-01 6.811623e-02 6.575561e-02 9.452753e-02 8.213414e-02 1.129214e-01 9.069724e-02 1.542244e-01 1.677034e-01 1.165156e-01 1.474532e-01 1.304416e-01 1.941916e-01 1.200736e-02
<GCONST> 7.359264e+01
<STATE> 4
<MEAN> 39
 -1.069951e+01 1.025794e+01 1.454808e+01 -1.526305e+01 -1.518926e+01 -4.819764e+00 -8.113457e+00 -1.175253e+01 -2.125320e+00 -9.310299e-01 -7.792537e+00 2.060331e-01 6.501082e+01 1.162788e-01 6.298854e-01 1.976076e-01 4.585059e-01 8.454438e-01 3.651336e-01 -4.021621e-01 8.456123e-02 -3.175865e-02 -2.339818e-01 1.787931e-02 -1.007349e-01 -9.121369e-01 3.316551e-02 -4.125075e-02 -5.189935e-02 3.522642e-02 1.893075e-02 8.594073e-03 6.720310e-02 5.010221e-02 -6.547676e-03 -2.391594e-02 -7.189724e-03 -9.270546e-02 -5.270677e-02
<VARIANCE> 39
 1.279910e+01 1.784743e+01 1.104202e+01 2.201164e+01 3.527021e+01 1.904420e+01 1.722588e+01 1.673281e+01 2.432292e+01 1.407501e+01 1.765989e+01 9.925138e+00 3.978737e+01 2.897296e-01 2.939115e-01 3.904021e-01 9.950714e-01 6.788967e-01 6.857433e-01 8.300831e-01 6.626018e-01 8.017386e-01 5.602410e-01 6.227797e-01 6.209991e-01 2.537951e-01 5.349686e-02 4.718943e-02 6.036486e-02 1.295173e-01 1.179940e-01 1.300967e-01 1.313961e-01 1.238569e-01 1.295979e-01 9.887844e-02 8.974690e-02 9.816394e-02 2.641326e-02
<GCONST> 6.971759e+01
<TRANSP> 5
 0.000000e+00 1.000000e+00 0.000000e+00 0.000000e+00 0.000000e+00
 0.000000e+00 9.478354e-01 5.216464e-02 0.000000e+00 0.000000e+00
 0.000000e+00 0.000000e+00 9.202178e-01 7.978222e-02 0.000000e+00
 0.000000e+00 0.000000e+00 0.000000e+00 9.116872e-01 8.831281e-02
 0.000000e+00 0.000000e+00 0.000000e+00 0.000000e+00 0.000000e+00
<ENDHMM>
~h "ow"
