~o
<STREAMINFO> 1 39
<VECSIZE> 39<NULLD><MFCC_D_A_0><DIAGC>
~h "b"
<BEGINHMM>
<NUMSTATES> 5
<STATE> 2
<MEAN> 39
 -7.381157e+00 5.261151e+00 4.806517e+00 -3.885659e+00 -4.837413e+00 -2.852487e+00 -1.325467e+00 -4.315695e+00 -4.012102e+00 -4.620077e-01 -4.424582e+00 4.241193e-01 5.290988e+01 5.053788e-03 1.564371e-02 1.136078e-02 1.898653e-03 -5.814391e-03 -1.369858e-02 -5.118405e-03 -2.089164e-03 -1.562843e-03 4.120637e-03 -1.003292e-02 -1.613534e-04 4.297169e-03 2.436370e-04 -8.553394e-04 -8.388587e-04 5.524182e-04 -5.915915e-05 -9.387854e-05 3.647561e-04 5.448509e-05 8.645059e-05 -8.102080e-05 2.705624e-04 2.148462e-04 3.711963e-04
<VARIANCE> 39
 2.827927e+01 6.061038e+01 5.090890e+01 9.055723e+01 5.105696e+01 4.444287e+01 6.255498e+01 4.639378e+01 4.498303e+01 3.978911e+01 7.156528e+01 3.240734e+01 1.906189e+02 1.367619e+00 1.490628e+00 1.521381e+00 2.282748e+00 1.903882e+00 2.005546e+00 2.358765e+00 2.014930e+00 1.981577e+00 2.093154e+00 2.207207e+00 1.663101e+00 3.116679e+00 2.448614e-01 2.435327e-01 2.578414e-01 3.640013e-01 3.252548e-01 3.739567e-01 4.122061e-01 3.491939e-01 3.309613e-01 3.805832e-01 3.716208e-01 3.058009e-01 4.290304e-01
<GCONST> 1.181415e+02
<STATE> 3
<MEAN> 39
 -7.356050e+00 5.346488e+00 4.863254e+00 -3.874647e+00 -4.868892e+00 -2.925106e+00 -1.353708e+00 -4.327353e+00 -4.023685e+00 -4.403143e-01 -4.478082e+00 4.233691e-01 5.293914e+01 6.455105e-03 1.073130e-02 6.617195e-03 5.093258e-03 -6.066328e-03 -1.400676e-02 -2.924305e-03 -1.796224e-03 -9.437148e-04 3.692674e-03 -8.301252e-03 1.131355e-03 6.085099e-03 2.090443e-04 -8.766801e-04 -8.367396e-04 5.427646e-04 -3.757759e-05 3.397005e-05 4.285052e-04 2.904335e-05 1.500755e-04 -2.872839e-05 3.510246e-04 2.550515e-04 3.287526e-04
<VARIANCE> 39
 2.885169e+01 5.991120e+01 5.126219e+01 8.978216e+01 5.120817e+01 4.482435e+01 6.202486e+01 4.643425e+01 4.500371e+01 3.921534e+01 7.144225e+01 3.196361e+01 1.904581e+02 1.384400e+00 1.506432e+00 1.537931e+00 2.275410e+00 1.919914e+00 2.024127e+00 2.356861e+00 2.045613e+00 1.989765e+00 2.105033e+00 2.239343e+00 1.660684e+00 3.115139e+00 2.473131e-01 2.459817e-01 2.588318e-01 3.630374e-01 3.291044e-01 3.782750e-01 4.132707e-01 3.541095e-01 3.325267e-01 3.830110e-01 3.770157e-01 3.055957e-01 4.303163e-01
<GCONST> 1.182950e+02
<STATE> 4
<MEAN> 39
 -7.592624e+00 5.747562e+00 4.954167e+00 -3.764907e+00 -4.669289e+00 -2.805045e+00 -1.380083e+00 -4.175553e+00 -4.039800e+00 -3.598303e-01 -4.388473e+00 4.874125e-01 5.268779e+01 5.546338e-03 3.968871e-03 -1.883275e-03 8.469736e-03 -5.268206e-03 -9.387147e-03 8.388017e-04 -1.120678e-03 -6.274045e-04 2.657997e-03 -3.436930e-03 3.084426e-03 8.332122e-03 2.056242e-04 -9.022339e-04 -7.951870e-04 6.021810e-04 8.796752e-05 2.453355e-04 5.176850e-04 6.082428e-05 3.563610e-04 5.747140e-05 5.229269e-04 3.586653e-04 -2.327457e-05
<VARIANCE> 39
 3.032834e+01 5.922348e+01 5.200051e+01 9.015633e+01 5.021606e+01 4.409906e+01 6.239071e+01 4.625910e+01 4.513631e+01 3.723286e+01 7.093417e+01 3.192474e+01 1.902412e+02 1.389589e+00 1.526766e+00 1.553925e+00 2.248148e+00 1.901200e+00 2.010303e+00 2.339366e+00 2.038412e+00 1.978177e+00 2.045670e+00 2.196467e+00 1.633500e+00 3.085684e+00 2.474816e-01 2.521446e-01 2.619375e-01 3.612468e-01 3.302314e-01 3.803831e-01 4.121967e-01 3.554107e-01 3.317902e-01 3.739799e-01 3.704220e-01 2.984919e-01 4.295150e-01
<GCONST> 1.181410e+02
<TRANSP> 5
 0.000000e+00 1.000000e+00 0.000000e+00 0.000000e+00 0.000000e+00
 0.000000e+00 8.213103e-01 1.786897e-01 0.000000e+00 0.000000e+00
 0.000000e+00 0.000000e+00 8.213100e-01 1.786900e-01 0.000000e+00
 0.000000e+00 0.000000e+00 0.000000e+00 9.586811e-01 4.131886e-02
 0.000000e+00 0.000000e+00 0.000000e+00 0.000000e+00 0.000000e+00
<ENDHMM>
~h "d"
<BEGINHMM>
<NUMSTATES> 5
<STATE> 2
<MEAN> 39
 -7.882870e+00 5.681735e+00 4.845242e+00 -3.993127e+00 -4.922973e+00 -2.357181e+00 -1.291386e+00 -4.179055e+00 -4.102143e+00 -3.868572e-01 -4.043160e+00 2.472979e-01 5.281390e+01 9.754660e-03 3.896851e-03 8.357232e-03 1.755208e-02 1.769111e-02 1.599437e-02 1.487456e-02 7.000077e-03 1.818696e-02 9.472313e-03 1.356929e-02 6.791668e-03 -3.900327e-02 3.141598e-04 1.901515e-05 -5.273450e-05 9.243317e-04 1.454633e-04 -1.318417e-04 -7.390819e-05 -2.390050e-05 3.191357e-04 2.808141e-04 1.037440e-04 1.659444e-04 -5.452195e-04
<VARIANCE> 39
 2.780829e+01 5.682350e+01 5.028619e+01 1.029539e+02 4.830170e+01 3.770975e+01 5.645670e+01 4.427604e+01 4.475739e+01 4.381015e+01 7.015324e+01 3.007636e+01 1.813380e+02 1.303051e+00 1.365623e+00 1.431292e+00 2.167843e+00 1.862853e+00 1.776836e+00 2.348849e+00 1.832989e+00 1.936396e+00 2.005322e+00 1.973046e+00 1.595404e+00 2.916669e+00 2.272031e-01 2.190432e-01 2.405296e-01 3.098362e-01 3.157346e-01 3.201416e-01 4.100076e-01 3.190509e-01 3.368343e-01 3.669403e-01 3.308288e-01 2.945279e-01 4.011781e-01
<GCONST> 1.160455e+02
<STATE> 3
<MEAN> 39
 -7.828035e+00 5.702172e+00 4.889332e+00 -3.884317e+00 -4.820540e+00 -2.267608e+00 -1.206990e+00 -4.136904e+00 -3.999143e+00 -3.314750e-01 -3.963089e+00 2.871976e-01 5.258781e+01 1.152271e-02 4.006214e-03 8.024896e-03 2.258581e-02 1.849477e-02 1.522820e-02 1.439561e-02 6.841165e-03 2.011137e-02 1.104088e-02 1.406443e-02 7.732699e-03 -4.190698e-02 2.834898e-04 2.269000e-05 -5.089508e-05 8.341183e-04 1.193968e-04 -2.245602e-04 -8.465617e-05 -6.615362e-05 4.426782e-04 2.047501e-04 -6.483131e-05 2.312362e-04 -3.236917e-04
<VARIANCE> 39
 2.763296e+01 5.623337e+01 4.897442e+01 1.015857e+02 4.847190e+01 3.758143e+01 5.580287e+01 4.395755e+01 4.463887e+01 4.358929e+01 6.955585e+01 2.962914e+01 1.818333e+02 1.296167e+00 1.360243e+00 1.414594e+00 2.143239e+00 1.852148e+00 1.778407e+00 2.331227e+00 1.827170e+00 1.936726e+00 1.996756e+00 1.962582e+00 1.578996e+00 2.872635e+00 2.265121e-01 2.185921e-01 2.383947e-01 3.094879e-01 3.143534e-01 3.211736e-01 4.088302e-01 3.184263e-01 3.366134e-01 3.659707e-01 3.303366e-01 2.918526e-01 3.962132e-01
<GCONST> 1.158112e+02
<STATE> 4
<MEAN> 39
 -7.910075e+00 6.124040e+00 5.238321e+00 -3.544358e+00 -4.427847e+00 -2.066253e+00 -1.170230e+00 -3.963042e+00 -3.770669e+00 -2.418239e-01 -3.829365e+00 3.515972e-01 5.186060e+01 1.357097e-02 3.053755e-03 5.441006e-03 3.147151e-02 2.070167e-02 1.499894e-02 1.454012e-02 8.421051e-03 2.383043e-02 1.391543e-02 1.671273e-02 1.025817e-02 -4.809307e-02 3.274682e-04 6.315779e-05 -1.095908e-04 5.103252e-04 -5.648997e-05 -2.964684e-04 -6.707537e-05 -1.075371e-04 4.107131e-04 7.088692e-05 -2.551171e-04 3.123700e-04 -1.107191e-04
<VARIANCE> 39
 2.747780e+01 5.447689e+01 4.607942e+01 9.829996e+01 4.725934e+01 3.736178e+01 5.522916e+01 4.341236e+01 4.478637e+01 4.185474e+01 6.995365e+01 2.972472e+01 1.811997e+02 1.263064e+00 1.358399e+00 1.387506e+00 2.048351e+00 1.805565e+00 1.753787e+00 2.302211e+00 1.799551e+00 1.915254e+00 1.931722e+00 1.929759e+00 1.529246e+00 2.734981e+00 2.215165e-01 2.211568e-01 2.375825e-01 3.011597e-01 3.086179e-01 3.189153e-01 4.096641e-01 3.158472e-01 3.328726e-01 3.557936e-01 3.276184e-01 2.828836e-01 3.800624e-01
<GCONST> 1.150995e+02
<TRANSP> 5
 0.000000e+00 1.000000e+00 0.000000e+00 0.000000e+00 0.000000e+00
 0.000000e+00 8.197846e-01 1.802153e-01 0.000000e+00 0.000000e+00
 0.000000e+00 0.000000e+00 8.197838e-01 1.802162e-01 0.000000e+00
 0.000000e+00 0.000000e+00 0.000000e+00 9.571049e-01 4.289505e-02
 0.000000e+00 0.000000e+00 0.000000e+00 0.000000e+00 0.000000e+00
<ENDHMM>
~h "f"
<BEGINHMM>
<NUMSTATES> 5
<STATE> 2
<MEAN> 39
 -6.860407e+00 2.253270e+00 -2.257951e+00 -3.970381e+00 -4.268278e+00 -1.858758e+00 2.885050e-01 -2.581043e+00 -4.091931e+00 -8.657971e-01 -2.471295e+00 8.047508e-01 5.532836e+01 5.856524e-03 4.695531e-03 -4.405407e-02 -5.212120e-02 -1.515627e-02 3.834933e-03 -1.195429e-02 -1.939806e-02 -1.734214e-02 -1.173638e-02 -2.461866e-02 -2.530195e-02 7.541247e-02 -2.147764e-04 -1.327469e-03 8.285180e-06 -1.884421e-03 -1.510815e-03 -1.139547e-03 7.456576e-05 -5.129523e-04 -1.090216e-03 -1.229097e-03 -5.491966e-04 -1.554507e-04 2.757627e-03
<VARIANCE> 39
 4.795937e+01 4.787638e+01 6.020994e+01 1.391591e+02 5.680074e+01 4.198446e+01 4.094240e+01 4.424426e+01 4.365590e+01 4.690527e+01 5.400346e+01 3.137338e+01 1.794540e+02 1.883759e+00 1.407020e+00 1.350737e+00 2.864017e+00 1.791986e+00 1.789582e+00 2.037712e+00 1.860505e+00 1.842118e+00 2.029517e+00 1.758861e+00 1.585099e+00 2.241483e+00 2.788053e-01 2.291648e-01 2.138598e-01 4.232985e-01 2.917339e-01 3.221880e-01 3.550837e-01 3.271653e-01 3.290685e-01 3.591503e-01 3.063166e-01 2.919491e-01 2.450560e-01
<GCONST> 1.163286e+02
<STATE> 3
<MEAN> 39
 -6.814260e+00 2.239022e+00 -2.511994e+00 -4.332474e+00 -4.391205e+00 -1.866087e+00 2.107566e-01 -2.706920e+00 -4.218341e+00 -9.677647e-01 -2.630296e+00 6.543882e-01 5.581231e+01 8.142838e-03 -3.448935e-03 -4.332112e-02 -6.367034e-02 -2.206514e-02 -2.153253e-03 -1.411359e-02 -2.215095e-02 -2.250020e-02 -1.878639e-02 -2.801692e-02 -2.609066e-02 8.491059e-02 4.603257e-04 -1.424531e-03 1.338860e-04 -1.989931e-03 -1.142940e-03 -1.030374e-03 -4.019687e-04 -4.509062e-04 -8.581763e-04 -1.224765e-03 -5.758395e-04 -1.024315e-04 1.486372e-03
<VARIANCE> 39
 4.925798e+01 4.951779e+01 6.164384e+01 1.422029e+02 5.738651e+01 4.188831e+01 4.083932e+01 4.444199e+01 4.367847e+01 4.718095e+01 5.400012e+01 3.149504e+01 1.809587e+02 1.910165e+00 1.415892e+00 1.362016e+00 2.938562e+00 1.798666e+00 1.771088e+00 2.039131e+00 1.854087e+00 1.840582e+00 2.027917e+00 1.747923e+00 1.578941e+00 2.244184e+00 2.804841e-01 2.294142e-01 2.141725e-01 4.314036e-01 2.907410e-01 3.177828e-01 3.536930e-01 3.242665e-01 3.280502e-01 3.580773e-01 3.036132e-01 2.895056e-01 2.431793e-01
<GCONST> 1.164633e+02
<STATE> 4
<MEAN> 39
 -6.369865e+00 2.295796e+00 -2.861962e+00 -5.638700e+00 -4.825460e+00 -2.020177e+00 -1.272207e-01 -3.080389e+00 -4.602614e+00 -1.391322e+00 -2.974365e+00 2.792009e-01 5.648476e+01 1.426665e-02 -6.287396e-04 -1.904127e-03 -4.032500e-02 -1.488879e-02 -6.580003e-03 -1.643124e-02 -2.054162e-02 -1.420076e-02 -1.448121e-02 -1.625676e-02 -1.269676e-02 2.305910e-02 1.533074e-04 1.422940e-04 1.606723e-03 9.951572e-04 2.780381e-04 -1.955924e-04 -4.589552e-05 1.042128e-04 3.465640e-04 1.847363e-04 4.651069e-04 5.473922e-04 -2.349503e-03
<VARIANCE> 39
 4.885076e+01 5.300003e+01 6.626900e+01 1.494051e+02 6.135207e+01 4.351757e+01 4.126627e+01 4.623078e+01 4.514335e+01 4.878630e+01 5.533346e+01 3.300947e+01 1.839069e+02 1.768163e+00 1.395717e+00 1.344285e+00 2.979112e+00 1.848944e+00 1.743944e+00 2.042341e+00 1.848456e+00 1.852170e+00 2.027153e+00 1.737412e+00 1.569686e+00 2.204651e+00 2.592278e-01 2.211610e-01 2.083650e-01 4.277387e-01 2.916171e-01 3.078067e-01 3.510560e-01 3.181065e-01 3.268142e-01 3.553105e-01 3.009338e-01 2.846854e-01 2.395259e-01
<GCONST> 1.165901e+02
<TRANSP> 5
 0.000000e+00 1.000000e+00 0.000000e+00 0.000000e+00 0.000000e+00
 0.000000e+00 8.269489e-01 1.730511e-01 0.000000e+00 0.000000e+00
 0.000000e+00 0.000000e+00 8.269479e-01 1.730521e-01 0.000000e+00
 0.000000e+00 0.000000e+00 0.000000e+00 9.643960e-01 3.560399e-02
 0.000000e+00 0.000000e+00 0.000000e+00 0.000000e+00 0.000000e+00
<ENDHMM>
~h "k"
<BEGINHMM>
<NUMSTATES> 5
<STATE> 2
<MEAN> 39
 -9.680955e+00 3.322618e+00 2.147733e+00 -2.083955e+00 -6.849086e+00 -2.586428e+00 6.829363e-01 -3.455020e+00 -3.532218e+00 1.111548e+00 -2.016078e+00 1.809864e+00 5.442870e+01 1.802285e-02 6.834968e-03 5.346568e-03 -7.194321e-04 1.844881e-02 1.628725e-04 -2.640170e-03 -3.372143e-03 6.117818e-03 -1.197362e-02 -5.331071e-03 -6.086860e-03 -1.415695e-02 6.980367e-04 8.084950e-05 -2.262844e-04 1.703151e-04 8.670252e-04 2.052815e-05 -4.760153e-05 1.369472e-04 -4.608289e-05 -3.051248e-04 1.388475e-04 -1.177452e-04 -8.516448e-04
<VARIANCE> 39
 4.798095e+01 4.116674e+01 6.350321e+01 1.085793e+02 6.962651e+01 4.176781e+01 6.126810e+01 5.047293e+01 3.946114e+01 4.001316e+01 6.222055e+01 2.710638e+01 1.793365e+02 1.680619e+00 1.691767e+00 1.803379e+00 2.585706e+00 2.037517e+00 2.214152e+00 2.585299e+00 2.000412e+00 2.126986e+00 2.014018e+00 2.159684e+00 1.596544e+00 3.307001e+00 2.527379e-01 3.068238e-01 2.668876e-01 3.767130e-01 3.372942e-01 4.046104e-01 4.435946e-01 3.544818e-01 3.856347e-01 3.711442e-01 3.699807e-01 2.983578e-01 4.233166e-01
<GCONST> 1.200204e+02
<STATE> 3
<MEAN> 39
 -9.567504e+00 3.361526e+00 2.177354e+00 -2.095523e+00 -6.736890e+00 -2.587513e+00 6.638193e-01 -3.477272e+00 -3.502238e+00 1.036301e+00 -2.051763e+00 1.770011e+00 5.434728e+01 2.171621e-02 7.262266e-03 4.379501e-03 -6.545138e-04 2.243265e-02 9.072572e-05 -3.527634e-03 -3.074076e-03 5.508807e-03 -1.341183e-02 -5.179514e-03 -6.813298e-03 -1.774912e-02 6.226820e-04 3.812482e-05 -1.641838e-04 1.625973e-05 6.700220e-04 2.265902e-05 -1.337668e-04 7.466540e-05 -9.154732e-05 -1.984909e-04 6.873600e-05 -1.108248e-04 -6.479408e-04
<VARIANCE> 39
 4.776881e+01 4.188686e+01 6.319821e+01 1.077144e+02 6.933045e+01 4.236726e+01 6.060424e+01 5.055732e+01 3.953115e+01 4.002099e+01 6.206152e+01 2.727384e+01 1.799250e+02 1.663795e+00 1.683248e+00 1.767347e+00 2.555151e+00 2.027349e+00 2.207202e+00 2.557764e+00 1.992686e+00 2.113916e+00 2.004123e+00 2.149003e+00 1.599983e+00 3.289783e+00 2.501970e-01 3.040213e-01 2.624716e-01 3.747327e-01 3.347470e-01 4.023102e-01 4.394805e-01 3.537512e-01 3.824218e-01 3.689799e-01 3.691585e-01 2.984328e-01 4.205466e-01
<GCONST> 1.198524e+02
<STATE> 4
<MEAN> 39
 -9.140402e+00 3.415140e+00 2.281638e+00 -2.320091e+00 -6.379547e+00 -2.598495e+00 5.877672e-01 -3.488393e+00 -3.419303e+00 7.738256e-01 -2.177505e+00 1.637326e+00 5.406226e+01 2.641344e-02 6.971570e-03 5.900163e-03 -8.158739e-03 2.248177e-02 -1.854046e-03 -1.075521e-02 -7.402176e-03 1.232828e-03 -1.482434e-02 -1.062356e-02 -8.602493e-03 -1.418839e-02 3.365983e-04 -2.789575e-05 -6.004717e-05 -6.833036e-06 3.518834e-04 7.286255e-05 -2.301438e-04 4.111591e-05 -6.924014e-05 4.819011e-05 9.581770e-05 1.143693e-05 -4.482965e-04
<VARIANCE> 39
 4.653661e+01 4.435626e+01 6.168451e+01 1.064157e+02 6.874400e+01 4.509837e+01 5.918995e+01 5.077276e+01 4.045773e+01 4.092336e+01 6.185646e+01 2.779789e+01 1.845927e+02 1.611573e+00 1.653883e+00 1.625714e+00 2.449996e+00 2.006356e+00 2.204574e+00 2.460699e+00 1.957892e+00 2.075344e+00 1.967229e+00 2.096051e+00 1.611211e+00 3.275083e+00 2.433450e-01 2.942451e-01 2.455500e-01 3.670968e-01 3.292766e-01 3.990632e-01 4.252246e-01 3.494606e-01 3.728557e-01 3.601212e-01 3.634427e-01 2.988679e-01 4.168337e-01
<GCONST> 1.193762e+02
<TRANSP> 5
 0.000000e+00 1.000000e+00 0.000000e+00 0.000000e+00 0.000000e+00
 0.000000e+00 8.244113e-01 1.755888e-01 0.000000e+00 0.000000e+00
 0.000000e+00 0.000000e+00 8.244119e-01 1.755881e-01 0.000000e+00
 0.000000e+00 0.000000e+00 0.000000e+00 9.613109e-01 3.868914e-02
 0.000000e+00 0.000000e+00 0.000000e+00 0.000000e+00 0.000000e+00
<ENDHMM>
~h "l"
<BEGINHMM>
<NUMSTATES> 5
<STATE> 2
<MEAN> 39
 -5.080320e+00 3.222346e+00 2.605647e+00 -4.412295e+00 -5.649734e+00 -3.106232e+00 6.309491e-01 -5.108975e+00 -3.786820e+00 -6.338511e-01 -4.636261e+00 2.206271e-01 5.461683e+01 -5.585037e-03 3.336247e-02 2.451719e-02 3.950178e-03 -9.728475e-04 -1.900004e-03 -2.390289e-02 -2.063229e-02 -1.256452e-02 8.851364e-03 -4.330421e-03 4.701500e-03 1.895629e-02 -7.924177e-05 3.783138e-04 1.393012e-04 1.496966e-03 1.629038e-03 1.090187e-03 8.779729e-05 1.496705e-04 8.240826e-04 6.109905e-05 1.364285e-03 1.235960e-04 -2.874086e-03
<VARIANCE> 39
 2.646386e+01 4.169339e+01 6.305448e+01 8.372464e+01 8.368037e+01 5.958310e+01 4.944313e+01 5.285654e+01 4.245135e+01 4.276357e+01 6.736503e+01 3.036700e+01 2.096888e+02 1.269681e+00 1.335527e+00 1.603163e+00 2.343230e+00 2.463930e+00 1.994446e+00 2.174057e+00 2.384105e+00 2.170453e+00 2.139273e+00 2.561977e+00 1.770346e+00 3.358924e+00 2.074654e-01 2.060804e-01 2.290101e-01 3.532873e-01 3.699580e-01 3.428415e-01 3.860375e-01 3.865178e-01 3.641658e-01 3.756641e-01 4.294637e-01 3.230975e-01 4.434859e-01
<GCONST> 1.190476e+02
<STATE> 3
<MEAN> 39
 -5.113581e+00 3.407809e+00 2.742655e+00 -4.382474e+00 -5.645542e+00 -3.106522e+00 4.955075e-01 -5.218044e+00 -3.855006e+00 -5.843781e-01 -4.653394e+00 2.465118e-01 5.470436e+01 -5.869730e-03 3.514945e-02 2.517915e-02 1.238886e-02 7.976959e-03 4.080466e-03 -2.330563e-02 -1.947930e-02 -7.827425e-03 9.221073e-03 3.259726e-03 5.314200e-03 2.805720e-03 4.545116e-06 9.756959e-05 -1.188572e-04 1.682521e-03 1.896668e-03 1.333454e-03 3.628114e-04 5.602330e-04 1.022968e-03 8.677341e-05 1.615070e-03 2.232090e-04 -3.501599e-03
<VARIANCE> 39
 2.676923e+01 4.238799e+01 6.504739e+01 8.318787e+01 8.341283e+01 6.034347e+01 4.907747e+01 5.352812e+01 4.261093e+01 4.200372e+01 6.663670e+01 3.021326e+01 2.082955e+02 1.261324e+00 1.326698e+00 1.619028e+00 2.309335e+00 2.441715e+00 1.976657e+00 2.168665e+00 2.374633e+00 2.174631e+00 2.108975e+00 2.513392e+00 1.754911e+00 3.305286e+00 2.047590e-01 2.048932e-01 2.307182e-01 3.477744e-01 3.647724e-01 3.364367e-01 3.840623e-01 3.828538e-01 3.643663e-01 3.699633e-01 4.210477e-01 3.187482e-01 4.353238e-01
<GCONST> 1.188379e+02
<STATE> 4
<MEAN> 39
 -5.187678e+00 3.551436e+00 2.633537e+00 -4.203813e+00 -5.205778e+00 -2.543027e+00 5.973033e-01 -5.084117e+00 -3.880372e+00 -5.405654e-01 -4.319056e+00 3.137643e-01 5.426910e+01 -5.869247e-03 3.392803e-02 2.507474e-02 2.521997e-02 2.046281e-02 1.341174e-02 -2.421295e-02 -1.217001e-02 -2.410570e-03 1.060916e-02 1.319398e-02 4.914333e-03 -2.119658e-02 7.348950e-05 -2.512411e-04 -3.079529e-04 1.595274e-03 1.880997e-03 1.266249e-03 6.396661e-04 1.059251e-03 1.107056e-03 1.934337e-04 1.702971e-03 2.932047e-04 -3.674143e-03
<VARIANCE> 39
 2.686758e+01 4.452381e+01 6.771489e+01 8.294114e+01 8.272638e+01 6.103927e+01 4.825327e+01 5.363451e+01 4.304623e+01 4.160938e+01 6.498689e+01 3.071597e+01 2.084114e+02 1.214921e+00 1.301599e+00 1.610962e+00 2.240287e+00 2.356750e+00 1.897871e+00 2.140944e+00 2.271292e+00 2.148547e+00 2.027689e+00 2.392136e+00 1.735910e+00 3.228427e+00 1.957966e-01 2.011306e-01 2.347344e-01 3.397878e-01 3.509730e-01 3.212219e-01 3.791951e-01 3.655740e-01 3.589810e-01 3.558608e-01 4.006908e-01 3.127215e-01 4.189552e-01
<GCONST> 1.181745e+02
<TRANSP> 5
 0.000000e+00 1.000000e+00 0.000000e+00 0.000000e+00 0.000000e+00
 0.000000e+00 8.185169e-01 1.814831e-01 0.000000e+00 0.000000e+00
 0.000000e+00 0.000000e+00 8.185165e-01 1.814835e-01 0.000000e+00
 0.000000e+00 0.000000e+00 0.000000e+00 9.551947e-01 4.480532e-02
 0.000000e+00 0.000000e+00 0.000000e+00 0.000000e+00 0.000000e+00
<ENDHMM>
~h "m"
<BEGINHMM>
<NUMSTATES> 5
<STATE> 2
<MEAN> 39
 -5.186225e+00 2.174708e+00 1.834307e+00 3.676622e-01 -2.775079e+00 -9.355135e-01 8.001005e-01 -3.492644e+00 -3.322282e+00 -2.527863e+00 -1.398849e+00 1.342212e+00 4.980201e+01 -2.252639e-02 7.193225e-02 2.634975e-02 2.138020e-02 1.517555e-02 1.638758e-02 -1.049527e-02 2.694348e-02 3.715189e-02 7.477342e-02 3.010196e-02 2.086653e-02 -1.006611e-01 -3.901726e-04 -7.135950e-04 -1.654210e-04 -7.827862e-04 -3.064549e-04 1.538754e-04 4.577797e-04 -9.740618e-05 -3.952434e-04 -5.887971e-04 -4.486464e-04 -3.866973e-04 1.837639e-03
<VARIANCE> 39
 2.426548e+01 6.766746e+01 2.651193e+01 5.619963e+01 3.899721e+01 3.470656e+01 3.808023e+01 4.407180e+01 4.426157e+01 5.932150e+01 4.349940e+01 2.888037e+01 1.841662e+02 7.017438e-01 1.329994e+00 8.017674e-01 1.372680e+00 1.379223e+00 1.615652e+00 1.879196e+00 1.799016e+00 1.876045e+00 1.742128e+00 1.831667e+00 1.561524e+00 2.124849e+00 1.160222e-01 1.988341e-01 1.399545e-01 2.205553e-01 2.363431e-01 2.867985e-01 3.320669e-01 3.103112e-01 3.228800e-01 2.931338e-01 3.282137e-01 2.818298e-01 2.662725e-01
<GCONST> 1.080104e+02
<STATE> 3
<MEAN> 39
 -5.321053e+00 2.589673e+00 1.989973e+00 4.850962e-01 -2.691248e+00 -8.399870e-01 7.384656e-01 -3.338281e+00 -3.111181e+00 -2.097599e+00 -1.230345e+00 1.460974e+00 4.923066e+01 -2.465592e-02 6.757429e-02 2.517593e-02 1.685392e-02 1.363056e-02 1.710850e-02 -7.967170e-03 2.617806e-02 3.485440e-02 7.111035e-02 2.728459e-02 1.848143e-02 -8.968566e-02 -3.409907e-04 -9.193248e-04 -3.616839e-04 -7.267149e-04 -1.054796e-04 -2.252823e-04 2.737156e-04 -3.411679e-04 -3.913626e-04 -7.126699e-04 -8.342011e-04 -5.127552e-04 2.241214e-03
<VARIANCE> 39
 2.401810e+01 6.386787e+01 2.709794e+01 5.578379e+01 3.867342e+01 3.355344e+01 3.709370e+01 4.308977e+01 4.318355e+01 5.717542e+01 4.380287e+01 2.840494e+01 1.789495e+02 6.786876e-01 1.269193e+00 8.012461e-01 1.357671e+00 1.368504e+00 1.586831e+00 1.834921e+00 1.779857e+00 1.840415e+00 1.719480e+00 1.806930e+00 1.533375e+00 2.002011e+00 1.114869e-01 1.928314e-01 1.392792e-01 2.203112e-01 2.354122e-01 2.836177e-01 3.256778e-01 3.099745e-01 3.198690e-01 2.914945e-01 3.253886e-01 2.779068e-01 2.517077e-01
<GCONST> 1.072843e+02
<STATE> 4
<MEAN> 39
 -5.600578e+00 3.233669e+00 2.224204e+00 5.358813e-01 -2.599008e+00 -7.231569e-01 6.441725e-01 -3.137684e+00 -2.861403e+00 -1.525944e+00 -1.109889e+00 1.627920e+00 4.856728e+01 -2.829267e-02 6.215856e-02 2.523886e-02 9.152425e-03 1.176026e-02 1.553000e-02 -9.006867e-03 2.258202e-02 2.914549e-02 6.548287e-02 1.853750e-02 1.418303e-02 -7.105911e-02 -2.848792e-04 -1.047864e-03 -3.885872e-04 -6.725485e-04 1.415215e-04 -7.822262e-04 -2.158222e-04 -6.597136e-04 -7.217057e-04 -7.858148e-04 -1.329301e-03 -4.733966e-04 2.491665e-03
<VARIANCE> 39
 2.382491e+01 5.877987e+01 2.793209e+01 5.500430e+01 3.913312e+01 3.246761e+01 3.630237e+01 4.220586e+01 4.235247e+01 5.350628e+01 4.567702e+01 2.830813e+01 1.723924e+02 6.467246e-01 1.183247e+00 8.070888e-01 1.349517e+00 1.382018e+00 1.547237e+00 1.787018e+00 1.752237e+00 1.798055e+00 1.685401e+00 1.787735e+00 1.495567e+00 1.866894e+00 1.056671e-01 1.840613e-01 1.389865e-01 2.221306e-01 2.398038e-01 2.784755e-01 3.199524e-01 3.089128e-01 3.164375e-01 2.888874e-01 3.240336e-01 2.718925e-01 2.370513e-01
<GCONST> 1.065171e+02
<TRANSP> 5
 0.000000e+00 1.000000e+00 0.000000e+00 0.000000e+00 0.000000e+00
 0.000000e+00 8.270152e-01 1.729848e-01 0.000000e+00 0.000000e+00
 0.000000e+00 0.000000e+00 8.270156e-01 1.729843e-01 0.000000e+00
 0.000000e+00 0.000000e+00 0.000000e+00 9.639879e-01 3.601211e-02
 0.000000e+00 0.000000e+00 0.000000e+00 0.000000e+00 0.000000e+00
<ENDHMM>
~h "n"
<BEGINHMM>
<NUMSTATES> 5
<STATE> 2
<MEAN> 39
 -6.384917e+00 1.281883e+00 1.632087e+00 -3.115821e+00 -4.223176e+00 -3.577681e+00 -9.271355e-01 -3.550247e+00 -6.175211e+00 -4.315931e+00 -4.676769e+00 2.225500e-01 5.515945e+01 -9.041665e-03 1.146526e-02 8.945620e-03 -3.257989e-03 -3.891140e-03 1.321581e-02 -2.688226e-03 -1.126455e-02 9.401841e-03 1.737428e-02 4.248895e-03 1.251715e-04 -3.828087e-04 3.859407e-05 3.432107e-05 -3.290129e-04 -3.886064e-04 -2.937476e-04 -8.568051e-05 -1.150514e-04 -1.740497e-04 2.326315e-04 2.090502e-04 -4.381177e-05 -2.584454e-04 5.788984e-04
<VARIANCE> 39
 3.262056e+01 6.133243e+01 4.923675e+01 7.927326e+01 5.125803e+01 5.751121e+01 5.535130e+01 4.468708e+01 5.902286e+01 8.683319e+01 7.966020e+01 3.427916e+01 1.874641e+02 1.353651e+00 1.562938e+00 1.298380e+00 2.032812e+00 1.873744e+00 2.158443e+00 2.274926e+00 2.004325e+00 2.212306e+00 2.141054e+00 2.077134e+00 1.594790e+00 2.491157e+00 2.156606e-01 2.300509e-01 1.952459e-01 3.076583e-01 3.009528e-01 3.595334e-01 3.807192e-01 3.553424e-01 3.887573e-01 3.521099e-01 3.354055e-01 2.881422e-01 2.821768e-01
<GCONST> 1.177079e+02
<STATE> 3
<MEAN> 39
 -6.437819e+00 1.346005e+00 1.675310e+00 -3.145919e+00 -4.253389e+00 -3.504151e+00 -9.458684e-01 -3.619334e+00 -6.120245e+00 -4.213707e+00 -4.656252e+00 2.148131e-01 5.517702e+01 -9.163588e-03 1.095882e-02 7.107586e-03 -5.651975e-03 -5.657024e-03 1.280540e-02 -3.201216e-03 -1.229643e-02 9.829985e-03 1.797954e-02 3.494558e-03 -1.519658e-03 3.695704e-03 -8.648203e-06 -1.235154e-04 -3.150772e-04 -4.253091e-04 -3.144285e-04 -9.224040e-05 -7.598882e-05 -1.858604e-04 4.578677e-05 6.677372e-05 -1.611853e-04 -3.034480e-04 7.534369e-04
<VARIANCE> 39
 3.295541e+01 6.180536e+01 4.976959e+01 8.010796e+01 5.191146e+01 5.699329e+01 5.542249e+01 4.492026e+01 5.853193e+01 8.630685e+01 7.936642e+01 3.427079e+01 1.877795e+02 1.360802e+00 1.566693e+00 1.308540e+00 2.042484e+00 1.880840e+00 2.154079e+00 2.284104e+00 2.005123e+00 2.207491e+00 2.136712e+00 2.078735e+00 1.596685e+00 2.505259e+00 2.163753e-01 2.312348e-01 1.963769e-01 3.085502e-01 3.020993e-01 3.595013e-01 3.823276e-01 3.552555e-01 3.884766e-01 3.519397e-01 3.353238e-01 2.884591e-01 2.840112e-01
<GCONST> 1.178012e+02
<STATE> 4
<MEAN> 39
 -6.691204e+00 1.579567e+00 1.798231e+00 -3.354816e+00 -4.471189e+00 -3.270421e+00 -9.318191e-01 -3.863297e+00 -5.866133e+00 -3.753033e+00 -4.513966e+00 1.638430e-01 5.528930e+01 -1.115028e-02 1.345572e-02 6.679145e-03 -8.522284e-03 -9.917652e-03 1.086344e-02 -1.818453e-03 -1.204602e-02 1.037373e-02 2.431321e-02 5.057507e-03 -2.106322e-03 5.004390e-03 -1.184654e-05 4.105654e-05 -4.726845e-05 -1.123745e-04 -1.651653e-04 -1.049372e-04 8.139492e-05 1.168612e-05 2.430730e-05 1.720673e-04 2.837693e-05 -3.704178e-05 7.544245e-05
<VARIANCE> 39
 3.453582e+01 6.289980e+01 5.205096e+01 8.485679e+01 5.499356e+01 5.612197e+01 5.598819e+01 4.607841e+01 5.642986e+01 8.391541e+01 7.777092e+01 3.442780e+01 1.893044e+02 1.398180e+00 1.562351e+00 1.334962e+00 2.085704e+00 1.890054e+00 2.107718e+00 2.289711e+00 1.982709e+00 2.151968e+00 2.096477e+00 2.057642e+00 1.590388e+00 2.531783e+00 2.204455e-01 2.341621e-01 2.006488e-01 3.123246e-01 3.007276e-01 3.536714e-01 3.818223e-01 3.485900e-01 3.787220e-01 3.492793e-01 3.331852e-01 2.864274e-01 2.910450e-01
<GCONST> 1.179668e+02
<TRANSP> 5
 0.000000e+00 1.000000e+00 0.000000e+00 0.000000e+00 0.000000e+00
 0.000000e+00 8.246844e-01 1.753155e-01 0.000000e+00 0.000000e+00
 0.000000e+00 0.000000e+00 8.246859e-01 1.753140e-01 0.000000e+00
 0.000000e+00 0.000000e+00 0.000000e+00 9.618818e-01 3.811819e-02
 0.000000e+00 0.000000e+00 0.000000e+00 0.000000e+00 0.000000e+00
<ENDHMM>
~h "p"
<BEGINHMM>
<NUMSTATES> 5
<STATE> 2
<MEAN> 39
 -8.615245e+00 7.917484e+00 5.548775e+00 -4.948761e+00 -3.544014e+00 -5.973980e-01 -2.275303e+00 -4.805034e+00 -3.893249e+00 2.136459e-01 -4.578698e+00 -8.165705e-02 5.284331e+01 -4.614775e-03 7.516085e-03 2.062098e-02 1.458629e-02 -6.952260e-03 9.299101e-03 -6.434455e-03 -1.397116e-03 -5.334307e-03 2.534278e-03 9.276769e-04 4.303246e-03 -2.657428e-02 9.178779e-04 -1.318689e-03 -1.323220e-03 1.216005e-03 4.814172e-04 3.377459e-04 1.264990e-03 7.789673e-04 8.196509e-04 -8.985198e-05 1.114781e-03 6.161461e-04 -1.493782e-03
<VARIANCE> 39
 3.595968e+01 5.825380e+01 4.488793e+01 1.056085e+02 3.497711e+01 2.500760e+01 5.636543e+01 3.427105e+01 4.165886e+01 3.439967e+01 7.289034e+01 3.167405e+01 1.958049e+02 1.159447e+00 1.219248e+00 1.375373e+00 1.993363e+00 1.808300e+00 1.526946e+00 2.140419e+00 1.706738e+00 1.933869e+00 1.629107e+00 1.962277e+00 1.373787e+00 3.574544e+00 1.955498e-01 2.000266e-01 2.656984e-01 3.047271e-01 3.412178e-01 3.089017e-01 3.355588e-01 3.217442e-01 3.311744e-01 2.898722e-01 3.266769e-01 2.438591e-01 5.059858e-01
<GCONST> 1.137110e+02
<STATE> 3
<MEAN> 39
 -8.636874e+00 7.955268e+00 5.666345e+00 -4.859324e+00 -3.582547e+00 -5.424623e-01 -2.304797e+00 -4.812057e+00 -3.917838e+00 2.264240e-01 -4.567586e+00 -5.336195e-02 5.268027e+01 6.891738e-04 -1.640236e-04 1.295734e-02 2.180522e-02 -4.051199e-03 1.128765e-02 9.610904e-04 3.207673e-03 -4.687207e-04 2.080410e-03 7.630933e-03 7.973657e-03 -3.540168e-02 8.603149e-04 -1.202783e-03 -1.244598e-03 1.120929e-03 5.118427e-04 3.314546e-04 1.197512e-03 8.235931e-04 8.413910e-04 -4.287518e-05 1.133906e-03 6.330987e-04 -1.433410e-03
<VARIANCE> 39
 3.554532e+01 5.794820e+01 4.332756e+01 1.048247e+02 3.496766e+01 2.437647e+01 5.621507e+01 3.383034e+01 4.146398e+01 3.439460e+01 7.216325e+01 3.149975e+01 1.940141e+02 1.160664e+00 1.219545e+00 1.363835e+00 1.995933e+00 1.782547e+00 1.518971e+00 2.120397e+00 1.697970e+00 1.910094e+00 1.618635e+00 1.934342e+00 1.376926e+00 3.459378e+00 1.959168e-01 1.993889e-01 2.634510e-01 3.053740e-01 3.367948e-01 3.082594e-01 3.327605e-01 3.192190e-01 3.282216e-01 2.886526e-01 3.219243e-01 2.462752e-01 4.867055e-01
<GCONST> 1.133808e+02
<STATE> 4
<MEAN> 39
 -8.567450e+00 8.018707e+00 5.796917e+00 -4.694317e+00 -3.507574e+00 -4.951220e-01 -2.218234e+00 -4.770648e+00 -3.934739e+00 1.580295e-01 -4.507468e+00 -4.257536e-02 5.235351e+01 6.713946e-03 -8.260289e-03 6.742625e-03 3.159358e-02 -2.096561e-04 1.279782e-02 1.177976e-02 7.415409e-03 8.002084e-03 1.497972e-03 1.800892e-02 1.433458e-02 -4.847689e-02 7.580292e-04 -1.086074e-03 -1.208747e-03 1.138300e-03 6.074538e-04 3.027460e-04 1.096607e-03 8.443233e-04 8.663931e-04 8.145551e-05 1.221556e-03 6.888064e-04 -1.395154e-03
<VARIANCE> 39
 3.512926e+01 5.768763e+01 4.237321e+01 1.018951e+02 3.416418e+01 2.359621e+01 5.286583e+01 3.411175e+01 4.145143e+01 3.515462e+01 7.054878e+01 3.222689e+01 1.925330e+02 1.144295e+00 1.203899e+00 1.336536e+00 1.983626e+00 1.694879e+00 1.508636e+00 2.031125e+00 1.688230e+00 1.855423e+00 1.598119e+00 1.861514e+00 1.371534e+00 3.273360e+00 1.922761e-01 1.979673e-01 2.586729e-01 3.084452e-01 3.218189e-01 3.071392e-01 3.233988e-01 3.158823e-01 3.210486e-01 2.841159e-01 3.103113e-01 2.486990e-01 4.579813e-01
<GCONST> 1.126721e+02
<TRANSP> 5
 0.000000e+00 1.000000e+00 0.000000e+00 0.000000e+00 0.000000e+00
 0.000000e+00 8.277139e-01 1.722861e-01 0.000000e+00 0.000000e+00
 0.000000e+00 0.000000e+00 8.277137e-01 1.722863e-01 0.000000e+00
 0.000000e+00 0.000000e+00 0.000000e+00 9.652707e-01 3.472932e-02
 0.000000e+00 0.000000e+00 0.000000e+00 0.000000e+00 0.000000e+00
<ENDHMM>
~h "r"
<BEGINHMM>
<NUMSTATES> 5
<STATE> 2
<MEAN> 39
 -7.522633e+00 3.315047e+00 2.469368e+00 -4.443704e+00 -6.260923e+00 -4.516560e+00 -2.816124e+00 -3.974617e+00 -5.270230e+00 -2.458565e-01 -3.655995e+00 1.413850e-01 5.556232e+01 -6.444752e-05 2.340092e-02 3.194953e-02 -1.693383e-02 -1.323260e-02 6.998227e-03 -1.941052e-02 -1.747766e-02 -2.043005e-04 1.475059e-03 -1.561205e-02 -3.471417e-03 -1.564551e-02 1.410855e-05 -8.431744e-05 4.912536e-05 6.320854e-04 6.942665e-04 9.394630e-04 1.212112e-03 4.452354e-04 3.350297e-04 -1.481899e-05 4.758390e-04 4.253093e-04 -1.751892e-03
<VARIANCE> 39
 4.589936e+01 4.919658e+01 7.848165e+01 1.092427e+02 7.369624e+01 7.148532e+01 8.710373e+01 5.455774e+01 4.759547e+01 4.242474e+01 6.704564e+01 3.199059e+01 1.757153e+02 1.695713e+00 1.580403e+00 1.578461e+00 2.404261e+00 1.918317e+00 2.514502e+00 2.516238e+00 2.096284e+00 2.055919e+00 1.985584e+00 2.093755e+00 1.485731e+00 2.088168e+00 2.344023e-01 2.560345e-01 2.197147e-01 3.535013e-01 3.141941e-01 4.178388e-01 4.116018e-01 3.616554e-01 3.711756e-01 3.498560e-01 3.491949e-01 2.725458e-01 2.380138e-01
<GCONST> 1.196431e+02
<STATE> 3
<MEAN> 39
 -7.523565e+00 3.446751e+00 2.644238e+00 -4.517365e+00 -6.310034e+00 -4.446905e+00 -2.886946e+00 -4.055301e+00 -5.257907e+00 -2.388612e-01 -3.726776e+00 1.354904e-01 5.542173e+01 -6.854017e-04 2.278528e-02 3.074952e-02 -1.188193e-02 -8.122543e-03 1.255853e-02 -1.094284e-02 -1.400807e-02 2.488638e-03 1.336998e-03 -1.173177e-02 -6.098477e-04 -2.523184e-02 -5.725959e-05 -1.674869e-04 -3.455829e-04 9.134753e-04 9.653833e-04 9.442861e-04 1.459470e-03 6.505974e-04 4.615453e-04 -7.765999e-05 6.397100e-04 4.841684e-04 -1.584931e-03
<VARIANCE> 39
 4.509665e+01 4.903640e+01 7.735191e+01 1.098433e+02 7.348994e+01 7.076953e+01 8.731392e+01 5.367049e+01 4.777523e+01 4.257863e+01 6.777905e+01 3.179771e+01 1.764455e+02 1.675161e+00 1.570581e+00 1.565046e+00 2.405132e+00 1.911392e+00 2.485006e+00 2.498260e+00 2.077385e+00 2.050753e+00 1.973643e+00 2.089600e+00 1.485292e+00 2.088256e+00 2.332876e-01 2.542677e-01 2.186788e-01 3.522400e-01 3.127488e-01 4.139556e-01 4.082128e-01 3.588385e-01 3.700780e-01 3.481276e-01 3.471717e-01 2.727521e-01 2.390116e-01
<GCONST> 1.194749e+02
<STATE> 4
<MEAN> 39
 -7.445302e+00 3.663084e+00 2.687759e+00 -4.384002e+00 -6.078315e+00 -3.963996e+00 -2.576143e+00 -4.005450e+00 -5.019200e+00 -2.902748e-01 -3.650459e+00 2.138555e-01 5.470821e+01 -2.319710e-03 1.782133e-02 1.336944e-02 6.090760e-03 7.570183e-03 2.126618e-02 1.745765e-02 1.613111e-04 1.163502e-02 -1.573836e-04 3.803955e-03 6.012101e-03 -3.604453e-02 -4.729896e-06 -2.872141e-04 -7.374198e-04 7.262889e-04 6.211865e-04 2.032905e-04 9.909568e-04 4.867022e-04 2.889949e-04 -1.119854e-04 4.860249e-04 2.287994e-04 -2.192949e-04
<VARIANCE> 39
 4.357617e+01 4.970384e+01 7.646534e+01 1.098872e+02 7.110717e+01 6.709411e+01 8.437884e+01 5.155329e+01 4.787005e+01 4.434575e+01 6.822299e+01 3.189746e+01 1.779769e+02 1.630319e+00 1.547680e+00 1.500967e+00 2.400201e+00 1.869630e+00 2.382189e+00 2.425957e+00 2.013816e+00 2.027986e+00 1.941514e+00 2.053911e+00 1.494161e+00 2.179637e+00 2.352666e-01 2.516695e-01 2.149004e-01 3.514269e-01 3.055288e-01 4.018876e-01 3.974200e-01 3.487327e-01 3.642163e-01 3.434229e-01 3.403988e-01 2.751363e-01 2.541008e-01
<GCONST> 1.190275e+02
<TRANSP> 5
 0.000000e+00 1.000000e+00 0.000000e+00 0.000000e+00 0.000000e+00
 0.000000e+00 8.260073e-01 1.739927e-01 0.000000e+00 0.000000e+00
 0.000000e+00 0.000000e+00 8.260066e-01 1.739934e-01 0.000000e+00
 0.000000e+00 0.000000e+00 0.000000e+00 9.631033e-01 3.689668e-02
 0.000000e+00 0.000000e+00 0.000000e+00 0.000000e+00 0.000000e+00
<ENDHMM>
~h "s"
<BEGINHMM>
<NUMSTATES> 5
<STATE> 2
<MEAN> 39
 -9.269406e+00 2.699300e+00 9.125857e-01 -1.774830e+00 -6.141421e+00 -3.360011e+00 7.617621e-01 -2.454701e+00 -4.181799e+00 -5.853152e-02 -2.089069e+00 1.617813e+00 5.446534e+01 -3.348077e-04 1.118509e-02 -1.040429e-02 -8.549757e-03 -1.412614e-03 -7.844568e-03 -1.307106e-02 -3.240229e-03 -9.635324e-05 -1.050225e-02 -1.784456e-02 -8.318497e-03 2.450563e-02 -2.166783e-05 -6.593584e-04 5.412376e-06 -7.005957e-04 -9.067984e-04 -2.048250e-04 -2.489865e-04 -6.554104e-05 -4.419433e-04 -1.959321e-04 -4.897483e-04 -2.536282e-04 1.533346e-03
<VARIANCE> 39
 4.931045e+01 4.205179e+01 6.015883e+01 1.021926e+02 5.789071e+01 4.873499e+01 6.306354e+01 4.449916e+01 4.281025e+01 5.042578e+01 6.671347e+01 2.796606e+01 1.677502e+02 1.770658e+00 1.591969e+00 1.709982e+00 2.504786e+00 1.976159e+00 2.207236e+00 2.540139e+00 1.978309e+00 2.116334e+00 2.022345e+00 2.036935e+00 1.545623e+00 2.803507e+00 2.576297e-01 2.692647e-01 2.502692e-01 3.561596e-01 3.328958e-01 3.974779e-01 4.262244e-01 3.519948e-01 3.797275e-01 3.633344e-01 3.465252e-01 2.882175e-01 3.339913e-01
<GCONST> 1.190773e+02
<STATE> 3
<MEAN> 39
 -9.261833e+00 2.744450e+00 8.685060e-01 -1.848508e+00 -6.168652e+00 -3.414078e+00 6.794862e-01 -2.474413e+00 -4.195214e+00 -1.258808e-01 -2.210845e+00 1.567204e+00 5.463082e+01 2.311941e-03 6.965217e-03 -7.797978e-03 -1.343964e-02 -5.059966e-03 -9.554556e-03 -1.467738e-02 -3.722918e-03 -2.541317e-03 -1.218302e-02 -2.152904e-02 -9.026615e-03 2.918811e-02 4.934102e-04 -7.752344e-04 4.949161e-04 -8.747291e-04 -6.613958e-04 -3.456691e-04 -2.946216e-04 -7.991362e-05 -4.546568e-04 -3.171246e-04 -6.943903e-04 -1.169682e-04 8.129933e-04
<VARIANCE> 39
 4.966393e+01 4.217846e+01 6.051146e+01 1.027155e+02 5.846254e+01 4.957350e+01 6.301645e+01 4.458546e+01 4.322033e+01 5.132013e+01 6.710679e+01 2.802058e+01 1.689601e+02 1.781111e+00 1.598933e+00 1.724278e+00 2.536589e+00 1.994711e+00 2.226213e+00 2.547695e+00 1.982974e+00 2.131294e+00 2.033971e+00 2.043154e+00 1.550228e+00 2.815564e+00 2.584383e-01 2.701330e-01 2.523139e-01 3.593073e-01 3.357576e-01 4.003558e-01 4.261727e-01 3.520789e-01 3.816524e-01 3.641501e-01 3.466590e-01 2.888421e-01 3.346229e-01
<GCONST> 1.192971e+02
<STATE> 4
<MEAN> 39
 -9.125773e+00 2.819750e+00 9.421657e-01 -2.073480e+00 -6.163105e+00 -3.600560e+00 4.305016e-01 -2.496372e+00 -4.252594e+00 -3.291179e-01 -2.561325e+00 1.481053e+00 5.483026e+01 1.494133e-02 4.094484e-03 6.327327e-03 -1.059649e-02 5.893999e-03 -7.638097e-03 -1.462041e-02 -4.039598e-03 -1.661148e-03 -1.170520e-02 -1.698671e-02 -4.521327e-03 3.052328e-03 5.734058e-04 -1.762897e-04 5.276304e-04 2.192894e-04 4.558655e-04 7.408694e-05 2.035708e-05 -4.208606e-05 6.580752e-05 2.594749e-05 2.476311e-04 2.097583e-04 -1.177678e-03
<VARIANCE> 39
 4.979147e+01 4.324276e+01 6.054386e+01 1.037732e+02 6.012601e+01 5.278558e+01 6.265701e+01 4.532217e+01 4.544685e+01 5.469641e+01 6.878590e+01 2.824982e+01 1.734565e+02 1.743803e+00 1.607466e+00 1.708045e+00 2.566270e+00 1.984238e+00 2.276018e+00 2.539622e+00 2.005067e+00 2.175981e+00 2.058443e+00 2.065558e+00 1.569102e+00 2.864290e+00 2.532685e-01 2.720881e-01 2.517317e-01 3.618089e-01 3.326102e-01 4.077559e-01 4.238105e-01 3.549379e-01 3.874846e-01 3.655025e-01 3.480636e-01 2.916745e-01 3.429058e-01
<GCONST> 1.197540e+02
<TRANSP> 5
 0.000000e+00 1.000000e+00 0.000000e+00 0.000000e+00 0.000000e+00
 0.000000e+00 8.237592e-01 1.762408e-01 0.000000e+00 0.000000e+00
 0.000000e+00 0.000000e+00 8.237585e-01 1.762415e-01 0.000000e+00
 0.000000e+00 0.000000e+00 0.000000e+00 9.605922e-01 3.940785e-02
 0.000000e+00 0.000000e+00 0.000000e+00 0.000000e+00 0.000000e+00
<ENDHMM>
~h "t"
<BEGINHMM>
<NUMSTATES> 5
<STATE> 2
<MEAN> 39
 -7.829482e+00 3.860863e+00 3.787901e+00 -3.451494e+00 -5.827488e+00 -4.242530e+00 -1.008592e+00 -4.205997e+00 -3.768869e+00 7.303605e-01 -2.313738e+00 1.057020e+00 5.367342e+01 -3.075535e-03 4.639022e-03 -4.278373e-03 2.599606e-03 1.466411e-03 -1.344259e-02 -1.407312e-02 -1.114886e-02 -6.995890e-03 -1.223822e-02 -1.282693e-02 -1.016670e-02 2.978713e-02 -2.755344e-05 -2.305282e-04 -6.112771e-04 7.561526e-04 5.758100e-04 8.115452e-05 9.145582e-05 3.035423e-04 -9.457275e-05 -3.660872e-04 -1.210318e-05 -2.099760e-04 -9.579526e-05
<VARIANCE> 39
 3.463628e+01 3.679646e+01 4.526806e+01 1.008858e+02 6.866325e+01 6.833860e+01 6.808983e+01 5.223687e+01 4.545700e+01 4.067276e+01 6.629609e+01 3.154280e+01 1.981135e+02 1.715562e+00 1.429293e+00 1.368894e+00 2.333797e+00 1.989322e+00 2.102805e+00 2.532206e+00 1.860463e+00 2.045419e+00 1.870562e+00 2.039965e+00 1.586475e+00 4.146100e+00 2.756909e-01 2.491798e-01 2.293324e-01 3.647900e-01 3.168823e-01 3.620565e-01 4.230106e-01 3.298056e-01 3.489392e-01 3.402908e-01 3.478949e-01 2.868985e-01 5.407273e-01
<GCONST> 1.189749e+02
<STATE> 3
<MEAN> 39
 -7.845722e+00 3.880450e+00 3.748967e+00 -3.417366e+00 -5.803998e+00 -4.323850e+00 -1.089376e+00 -4.264938e+00 -3.814309e+00 6.455482e-01 -2.391222e+00 9.906249e-01 5.384209e+01 -2.184454e-03 2.599593e-03 -7.754757e-03 6.733743e-03 4.456950e-03 -1.320655e-02 -1.288968e-02 -9.281197e-03 -7.479146e-03 -1.479586e-02 -1.281530e-02 -1.117236e-02 2.763903e-02 1.628966e-04 -3.497629e-04 -5.705088e-04 6.723560e-04 4.838050e-04 2.291123e-05 1.960637e-04 3.112852e-04 -8.693556e-05 -4.364303e-04 -1.371419e-05 -1.613600e-04 -3.757176e-04
<VARIANCE> 39
 3.522907e+01 3.734257e+01 4.585265e+01 1.001144e+02 6.862266e+01 6.934393e+01 6.861764e+01 5.247665e+01 4.586617e+01 4.112580e+01 6.638134e+01 3.162617e+01 1.982307e+02 1.737808e+00 1.447124e+00 1.379426e+00 2.335572e+00 1.985204e+00 2.121877e+00 2.555314e+00 1.873253e+00 2.051874e+00 1.877461e+00 2.038789e+00 1.590033e+00 4.129171e+00 2.780848e-01 2.523436e-01 2.305299e-01 3.653755e-01 3.167198e-01 3.645090e-01 4.261386e-01 3.318170e-01 3.495166e-01 3.407184e-01 3.474703e-01 2.873754e-01 5.376980e-01
<GCONST> 1.191691e+02
<STATE> 4
<MEAN> 39
 -7.784203e+00 3.834825e+00 3.360239e+00 -3.062085e+00 -5.512934e+00 -4.601217e+00 -1.300631e+00 -4.283538e+00 -3.893843e+00 1.788902e-01 -2.662912e+00 8.243514e-01 5.408567e+01 4.765198e-03 -4.257728e-03 -1.791543e-02 9.838121e-03 1.294850e-02 -3.754288e-03 -5.428306e-03 3.214397e-04 -3.686354e-03 -1.924466e-02 -1.181951e-02 -6.055843e-03 9.584367e-03 2.772397e-04 -2.678160e-04 -3.874715e-04 1.155909e-04 2.750505e-04 4.244765e-04 3.607008e-04 4.119791e-04 1.846059e-04 -1.049430e-04 9.745162e-05 2.371710e-04 -7.484016e-04
<VARIANCE> 39
 3.686176e+01 4.046184e+01 4.855990e+01 9.668726e+01 6.745370e+01 7.381279e+01 6.934499e+01 5.329012e+01 4.735748e+01 4.386432e+01 6.697053e+01 3.200595e+01 1.950378e+02 1.757512e+00 1.497166e+00 1.390414e+00 2.315528e+00 1.957443e+00 2.170851e+00 2.538155e+00 1.896331e+00 2.051272e+00 1.894154e+00 2.011290e+00 1.583526e+00 3.797424e+00 2.804695e-01 2.605849e-01 2.316230e-01 3.640301e-01 3.155160e-01 3.712363e-01 4.236491e-01 3.352118e-01 3.512155e-01 3.411933e-01 3.426018e-01 2.867315e-01 4.912546e-01
<GCONST> 1.194154e+02
<TRANSP> 5
 0.000000e+00 1.000000e+00 0.000000e+00 0.000000e+00 0.000000e+00
 0.000000e+00 8.285853e-01 1.714147e-01 0.000000e+00 0.000000e+00
 0.000000e+00 0.000000e+00 8.285851e-01 1.714149e-01 0.000000e+00
 0.000000e+00 0.000000e+00 0.000000e+00 9.660447e-01 3.395528e-02
 0.000000e+00 0.000000e+00 0.000000e+00 0.000000e+00 0.000000e+00
<ENDHMM>
~h "v"
<BEGINHMM>
<NUMSTATES> 5
<STATE> 2
<MEAN> 39
 -7.219713e+00 2.368264e+00 5.621439e-01 -3.487241e+00 -4.972729e+00 -4.177994e+00 -9.955428e-01 -3.727892e+00 -4.977468e+00 -2.380935e+00 -4.527203e+00 2.299589e-01 5.602223e+01 2.169228e-03 2.733232e-02 2.958026e-02 4.538429e-03 3.233912e-03 2.315179e-03 -3.269131e-03 -1.366693e-03 5.542815e-03 1.393351e-02 6.417854e-03 1.047373e-02 -3.463877e-02 -2.945213e-04 1.155876e-04 -7.668752e-05 5.515789e-04 1.524194e-04 6.863712e-04 5.246277e-04 3.695185e-04 6.063528e-04 7.439756e-04 9.421874e-04 3.324891e-04 -6.771938e-04
<VARIANCE> 39
 3.784288e+01 5.745185e+01 5.755152e+01 9.643549e+01 5.483146e+01 5.722353e+01 4.972346e+01 4.898093e+01 5.203927e+01 6.269782e+01 7.164971e+01 3.181315e+01 1.822204e+02 1.647579e+00 1.473176e+00 1.441206e+00 2.686873e+00 1.926051e+00 2.183635e+00 2.306027e+00 2.078610e+00 2.134197e+00 2.206823e+00 1.940250e+00 1.625962e+00 2.522347e+00 2.567284e-01 2.260409e-01 2.205669e-01 3.888453e-01 3.073626e-01 3.800796e-01 3.880892e-01 3.581914e-01 3.668829e-01 3.742787e-01 3.236490e-01 2.957672e-01 2.924336e-01
<GCONST> 1.187430e+02
<STATE> 3
<MEAN> 39
 -7.214951e+00 2.526133e+00 7.275001e-01 -3.456779e+00 -4.953062e+00 -4.151182e+00 -1.004070e+00 -3.728697e+00 -4.933962e+00 -2.287993e+00 -4.473808e+00 2.935652e-01 5.582240e+01 8.742264e-04 2.682742e-02 2.829953e-02 6.422977e-03 3.628009e-03 5.933065e-03 -6.877726e-04 3.701870e-04 8.519342e-03 1.715905e-02 1.070510e-02 1.161262e-02 -3.615264e-02 -2.147494e-04 -1.131217e-04 -2.644539e-04 2.914251e-04 3.610585e-05 6.291717e-04 4.418932e-04 2.977258e-04 5.087722e-04 5.541130e-04 7.326343e-04 1.710192e-04 -1.916818e-04
<VARIANCE> 39
 3.776486e+01 5.707333e+01 5.758648e+01 9.690074e+01 5.489013e+01 5.714996e+01 4.960725e+01 4.882009e+01 5.190209e+01 6.207024e+01 7.171867e+01 3.170533e+01 1.819619e+02 1.632793e+00 1.469624e+00 1.438316e+00 2.664022e+00 1.921636e+00 2.187901e+00 2.297822e+00 2.075963e+00 2.127728e+00 2.195220e+00 1.951120e+00 1.622942e+00 2.541009e+00 2.547062e-01 2.263830e-01 2.202160e-01 3.861535e-01 3.072871e-01 3.805335e-01 3.881384e-01 3.585912e-01 3.663442e-01 3.736637e-01 3.253368e-01 2.953028e-01 2.959211e-01
<GCONST> 1.186926e+02
<STATE> 4
<MEAN> 39
 -7.225864e+00 3.052007e+00 1.222793e+00 -3.490343e+00 -4.909143e+00 -3.953204e+00 -1.004771e+00 -3.725435e+00 -4.712879e+00 -1.880682e+00 -4.192498e+00 4.432949e-01 5.524735e+01 -2.754563e-04 1.995172e-02 2.242967e-02 9.971336e-04 1.047038e-03 9.677388e-03 1.863163e-03 5.150619e-04 1.049491e-02 1.693490e-02 1.135374e-02 8.842337e-03 -2.431801e-02 5.905138e-06 -4.195817e-04 -3.881190e-04 -1.190111e-04 -1.337312e-04 2.579225e-04 1.703620e-04 5.656005e-05 1.397702e-04 4.863005e-05 1.257669e-04 -1.037743e-04 4.114136e-04
<VARIANCE> 39
 3.814598e+01 5.640944e+01 5.859838e+01 9.971330e+01 5.520626e+01 5.654725e+01 4.946555e+01 4.820915e+01 4.995233e+01 5.880884e+01 7.103680e+01 3.174465e+01 1.828708e+02 1.599744e+00 1.479944e+00 1.431965e+00 2.606427e+00 1.909329e+00 2.194196e+00 2.264686e+00 2.047112e+00 2.081864e+00 2.140251e+00 1.970495e+00 1.610636e+00 2.605683e+00 2.500231e-01 2.310953e-01 2.203964e-01 3.805161e-01 3.073455e-01 3.817336e-01 3.863199e-01 3.560661e-01 3.615983e-01 3.688449e-01 3.291320e-01 2.929999e-01 3.081335e-01
<GCONST> 1.185275e+02
<TRANSP> 5
 0.000000e+00 1.000000e+00 0.000000e+00 0.000000e+00 0.000000e+00
 0.000000e+00 8.240255e-01 1.759746e-01 0.000000e+00 0.000000e+00
 0.000000e+00 0.000000e+00 8.240250e-01 1.759751e-01 0.000000e+00
 0.000000e+00 0.000000e+00 0.000000e+00 9.608207e-01 3.917922e-02
 0.000000e+00 0.000000e+00 0.000000e+00 0.000000e+00 0.000000e+00
<ENDHMM>
~h "w"
<BEGINHMM>
<NUMSTATES> 5
<STATE> 2
<MEAN> 39
 -4.723229e+00 2.576848e+00 -6.184089e-01 -4.592312e+00 -3.772001e+00 -3.541770e+00 -1.392270e+00 -3.180538e+00 -5.435745e+00 -3.468126e+00 -4.534793e+00 -1.256250e-01 5.420789e+01 2.733346e-02 -1.496935e-02 -1.198909e-02 -3.702892e-02 1.296210e-03 -1.430437e-02 -1.289567e-02 -1.478028e-02 -3.871197e-02 -4.753776e-02 -4.077610e-02 -2.857386e-02 5.710969e-02 -8.290950e-04 -9.178013e-04 6.322945e-04 2.547133e-04 2.171760e-04 -5.297760e-04 1.243620e-04 -1.205655e-04 -1.130516e-03 -5.050987e-04 -3.713591e-04 3.543900e-04 1.081659e-03
<VARIANCE> 39
 3.654676e+01 5.948217e+01 5.841093e+01 1.007561e+02 4.957284e+01 5.795472e+01 4.420558e+01 3.887033e+01 5.764821e+01 7.375211e+01 7.826527e+01 3.413541e+01 1.947653e+02 1.516362e+00 1.748154e+00 1.410784e+00 2.522541e+00 2.208162e+00 2.608143e+00 2.182380e+00 2.117964e+00 2.128563e+00 2.180547e+00 2.290419e+00 1.724042e+00 2.491389e+00 2.502942e-01 2.442579e-01 2.112075e-01 3.830606e-01 3.640645e-01 4.146965e-01 3.789272e-01 3.805747e-01 3.776393e-01 3.834938e-01 3.942983e-01 3.162426e-01 2.608729e-01
<GCONST> 1.198243e+02
<STATE> 3
<MEAN> 39
 -4.600535e+00 2.464206e+00 -6.629050e-01 -4.777577e+00 -3.749148e+00 -3.642487e+00 -1.456986e+00 -3.266998e+00 -5.684200e+00 -3.753095e+00 -4.773802e+00 -2.775226e-01 5.455339e+01 1.948024e-02 -1.896524e-02 -6.217125e-03 -3.049718e-02 4.251899e-03 -1.764665e-02 -1.089600e-02 -1.489017e-02 -4.279692e-02 -4.790543e-02 -4.045367e-02 -2.532898e-02 5.869642e-02 -1.400670e-03 -6.184485e-04 1.037663e-03 1.272960e-03 5.687919e-04 -5.460040e-04 3.932535e-04 2.605870e-05 -6.389929e-04 1.550512e-05 1.351915e-04 6.173726e-04 5.702418e-05
<VARIANCE> 39
 3.597157e+01 6.062261e+01 5.936745e+01 9.884489e+01 4.929784e+01 5.842191e+01 4.405298e+01 3.859671e+01 5.859744e+01 7.528900e+01 7.824043e+01 3.405342e+01 1.973699e+02 1.483799e+00 1.756372e+00 1.399849e+00 2.507370e+00 2.206070e+00 2.577878e+00 2.167210e+00 2.106628e+00 2.120485e+00 2.178059e+00 2.279471e+00 1.720943e+00 2.514805e+00 2.438135e-01 2.423183e-01 2.078706e-01 3.814001e-01 3.624993e-01 4.086339e-01 3.762228e-01 3.781586e-01 3.743966e-01 3.815977e-01 3.904182e-01 3.151502e-01 2.615033e-01
<GCONST> 1.196944e+02
<STATE> 4
<MEAN> 39
 -4.763906e+00 2.218312e+00 -2.336121e-01 -4.635086e+00 -3.567295e+00 -3.900509e+00 -1.315827e+00 -3.402218e+00 -6.204970e+00 -4.201018e+00 -5.055245e+00 -3.197294e-01 5.483744e+01 -9.859942e-03 -6.383878e-03 2.460441e-02 8.875743e-03 5.981695e-03 -1.030160e-02 3.720196e-03 -7.921013e-03 -1.914181e-02 -1.096776e-02 -8.937408e-03 -1.947022e-03 1.062997e-02 -1.156073e-03 6.654349e-04 1.178113e-03 1.536323e-03 8.317092e-05 3.880181e-04 6.062883e-04 3.208244e-04 1.021004e-03 1.624071e-03 1.313231e-03 9.729965e-04 -2.092113e-03
<VARIANCE> 39
 3.449400e+01 6.065088e+01 5.975759e+01 9.252862e+01 4.809665e+01 6.003894e+01 4.426417e+01 3.878990e+01 6.184132e+01 7.980430e+01 7.987437e+01 3.343863e+01 1.968965e+02 1.409462e+00 1.697637e+00 1.363669e+00 2.371249e+00 2.085898e+00 2.459031e+00 2.104860e+00 2.049639e+00 2.134085e+00 2.144590e+00 2.230846e+00 1.674780e+00 2.539608e+00 2.291125e-01 2.305633e-01 2.006787e-01 3.621720e-01 3.416874e-01 3.899926e-01 3.653416e-01 3.674197e-01 3.701521e-01 3.699496e-01 3.756247e-01 3.065921e-01 2.721837e-01
<GCONST> 1.189115e+02
<TRANSP> 5
 0.000000e+00 1.000000e+00 0.000000e+00 0.000000e+00 0.000000e+00
 0.000000e+00 8.263339e-01 1.736661e-01 0.000000e+00 0.000000e+00
 0.000000e+00 0.000000e+00 8.263336e-01 1.736664e-01 0.000000e+00
 0.000000e+00 0.000000e+00 0.000000e+00 9.636034e-01 3.639665e-02
 0.000000e+00 0.000000e+00 0.000000e+00 0.000000e+00 0.000000e+00
<ENDHMM>
~h "y"
<BEGINHMM>
<NUMSTATES> 5
<STATE> 2
<MEAN> 39
 -6.583672e+00 5.204615e+00 3.918625e+00 -2.941292e+00 -5.658896e+00 -3.941512e+00 -1.267010e+00 -7.053886e+00 -4.239883e+00 1.857516e-01 -4.130256e+00 8.205283e-01 5.461830e+01 1.583041e-02 1.908994e-02 -1.495793e-03 2.910618e-02 3.966796e-02 2.261727e-02 6.077014e-03 -3.452735e-03 1.260689e-02 -1.867700e-03 2.693020e-02 9.033063e-03 -5.499458e-02 1.738075e-05 -3.970194e-04 -2.992154e-04 5.561116e-04 1.076187e-03 1.627474e-03 6.714267e-04 2.112177e-03 8.871404e-04 7.327800e-05 1.192108e-03 6.714062e-05 -2.887500e-03
<VARIANCE> 39
 4.059891e+01 3.452565e+01 6.518335e+01 6.806796e+01 7.137474e+01 5.771054e+01 4.781342e+01 7.204885e+01 4.806304e+01 3.604604e+01 6.540060e+01 3.168706e+01 1.941749e+02 1.326760e+00 1.438461e+00 1.713825e+00 2.023866e+00 2.156568e+00 2.054948e+00 2.293393e+00 2.433715e+00 2.257293e+00 2.028278e+00 2.268467e+00 1.751316e+00 2.478434e+00 2.031512e-01 2.487598e-01 2.449196e-01 3.046612e-01 3.218684e-01 3.395053e-01 3.942959e-01 3.799248e-01 3.707353e-01 3.544587e-01 3.814168e-01 3.203857e-01 3.171194e-01
<GCONST> 1.180849e+02
<STATE> 3
<MEAN> 39
 -6.491854e+00 5.306880e+00 3.909474e+00 -2.779293e+00 -5.435784e+00 -3.812250e+00 -1.232025e+00 -7.064907e+00 -4.168955e+00 1.733547e-01 -3.981074e+00 8.685697e-01 5.430721e+01 1.588710e-02 1.681683e-02 -3.163164e-03 3.211811e-02 4.538421e-02 3.145022e-02 9.912698e-03 8.424411e-03 1.751509e-02 -1.334107e-03 3.350995e-02 9.338376e-03 -7.063622e-02 -1.964680e-04 -4.542394e-04 -2.020234e-04 4.154200e-04 7.748355e-04 1.474427e-03 7.114941e-04 2.170468e-03 8.595721e-04 2.185132e-04 1.064083e-03 1.354213e-05 -2.449826e-03
<VARIANCE> 39
 3.997879e+01 3.511060e+01 6.441741e+01 6.706262e+01 7.043589e+01 5.792771e+01 4.715178e+01 7.218129e+01 4.741051e+01 3.561204e+01 6.452807e+01 3.176836e+01 1.934995e+02 1.301929e+00 1.427204e+00 1.699938e+00 1.971159e+00 2.115964e+00 2.039144e+00 2.269601e+00 2.403182e+00 2.227664e+00 2.011517e+00 2.228956e+00 1.745036e+00 2.396843e+00 1.992639e-01 2.460981e-01 2.443457e-01 2.966630e-01 3.151395e-01 3.362641e-01 3.904281e-01 3.748417e-01 3.665347e-01 3.519372e-01 3.747686e-01 3.189246e-01 3.051469e-01
<GCONST> 1.176184e+02
<STATE> 4
<MEAN> 39
 -6.504369e+00 5.569103e+00 3.898888e+00 -2.562282e+00 -5.029769e+00 -3.436153e+00 -1.299988e+00 -7.021837e+00 -4.101810e+00 1.220707e-01 -3.749125e+00 8.596551e-01 5.370304e+01 1.666773e-02 1.132554e-02 -4.648860e-03 3.281191e-02 4.734368e-02 3.657468e-02 1.392183e-02 2.179270e-02 2.088250e-02 -1.213114e-03 3.580592e-02 7.555122e-03 -7.825793e-02 -3.688713e-04 -4.467048e-04 -1.310565e-04 3.454409e-04 4.941974e-04 1.138778e-03 7.165396e-04 2.041842e-03 8.194875e-04 3.204812e-04 8.638575e-04 3.568828e-06 -1.812436e-03
<VARIANCE> 39
 3.941067e+01 3.662062e+01 6.426241e+01 6.695255e+01 6.750874e+01 5.705006e+01 4.705580e+01 7.305836e+01 4.706937e+01 3.501441e+01 6.409333e+01 3.323097e+01 1.910333e+02 1.231857e+00 1.400213e+00 1.648829e+00 1.880369e+00 2.013803e+00 1.980446e+00 2.215919e+00 2.325380e+00 2.149809e+00 1.950016e+00 2.146168e+00 1.728002e+00 2.236039e+00 1.884995e-01 2.415485e-01 2.406641e-01 2.805485e-01 3.023915e-01 3.289113e-01 3.815481e-01 3.637328e-01 3.537695e-01 3.420531e-01 3.607210e-01 3.145263e-01 2.802612e-01
<GCONST> 1.166616e+02
<TRANSP> 5
 0.000000e+00 1.000000e+00 0.000000e+00 0.000000e+00 0.000000e+00
 0.000000e+00 8.219618e-01 1.780382e-01 0.000000e+00 0.000000e+00
 0.000000e+00 0.000000e+00 8.219609e-01 1.780391e-01 0.000000e+00
 0.000000e+00 0.000000e+00 0.000000e+00 9.592726e-01 4.072740e-02
 0.000000e+00 0.000000e+00 0.000000e+00 0.000000e+00 0.000000e+00
<ENDHMM>
~h "z"
<BEGINHMM>
<NUMSTATES> 5
<STATE> 2
<MEAN> 39
 -6.662509e+00 4.557340e+00 2.843709e+00 -3.897889e+00 -6.303826e+00 -5.647955e+00 -1.092478e+00 -4.474257e+00 -5.345775e+00 4.526442e-02 -4.004659e+00 7.788223e-02 5.376471e+01 4.459083e-03 9.383270e-03 -1.278298e-03 -1.843195e-02 2.433573e-03 -2.319097e-03 -2.664939e-03 -1.042813e-02 3.104903e-03 1.550021e-02 -3.434463e-03 -1.735758e-03 6.932929e-03 -7.658149e-06 -3.335127e-04 -2.777750e-04 -4.693010e-05 2.816847e-04 3.842954e-04 2.525199e-04 1.985933e-04 1.426881e-04 -2.272298e-04 2.252593e-04 3.795652e-05 1.716384e-05
<VARIANCE> 39
 3.332927e+01 3.763554e+01 6.668316e+01 1.154663e+02 7.268066e+01 6.725186e+01 5.852612e+01 5.454081e+01 4.799754e+01 4.504136e+01 6.845029e+01 3.608120e+01 1.619384e+02 1.227660e+00 1.144590e+00 1.521690e+00 2.262635e+00 1.984282e+00 2.443570e+00 2.202643e+00 2.057441e+00 2.180256e+00 2.035616e+00 2.296169e+00 1.498910e+00 1.931266e+00 1.879983e-01 1.819482e-01 2.034172e-01 2.810391e-01 3.166753e-01 3.946490e-01 3.725935e-01 3.444831e-01 3.771802e-01 3.466620e-01 3.657676e-01 2.733244e-01 2.266665e-01
<GCONST> 1.167607e+02
<STATE> 3
<MEAN> 39
 -6.638477e+00 4.606818e+00 2.831308e+00 -4.002467e+00 -6.286816e+00 -5.655882e+00 -1.104207e+00 -4.529809e+00 -5.327643e+00 1.311041e-01 -4.021046e+00 6.889796e-02 5.380608e+01 4.367916e-03 7.548579e-03 -2.794209e-03 -1.826977e-02 4.270394e-03 -2.390100e-05 -1.168048e-03 -9.126405e-03 3.954715e-03 1.401783e-02 -2.059978e-03 -1.503544e-03 6.674186e-03 -1.878449e-06 -3.523566e-04 -2.946966e-04 1.366024e-04 3.431170e-04 4.217515e-04 3.028727e-04 2.612686e-04 1.671464e-04 -2.653455e-04 2.846314e-04 7.987331e-05 -1.333874e-04
<VARIANCE> 39
 3.317378e+01 3.782564e+01 6.743219e+01 1.161244e+02 7.264621e+01 6.719051e+01 5.792136e+01 5.466842e+01 4.791034e+01 4.415499e+01 6.804485e+01 3.599173e+01 1.620633e+02 1.215596e+00 1.146107e+00 1.527873e+00 2.263890e+00 1.983682e+00 2.435910e+00 2.188920e+00 2.060645e+00 2.171355e+00 2.035373e+00 2.288489e+00 1.494437e+00 1.929426e+00 1.862645e-01 1.821556e-01 2.034118e-01 2.793170e-01 3.172332e-01 3.930669e-01 3.702843e-01 3.443497e-01 3.748958e-01 3.464656e-01 3.650300e-01 2.720559e-01 2.274441e-01
<GCONST> 1.166825e+02
<STATE> 4
<MEAN> 39
 -6.478364e+00 4.582354e+00 2.554614e+00 -4.198615e+00 -6.113771e+00 -5.731534e+00 -1.071519e+00 -4.646030e+00 -5.224983e+00 3.903111e-01 -3.946263e+00 1.137782e-01 5.385878e+01 2.782994e-03 5.240341e-03 -5.039680e-03 -1.338009e-02 9.610233e-03 7.193197e-03 2.083611e-03 -4.033914e-03 5.974822e-03 9.467047e-03 1.437254e-03 -2.568553e-05 2.180354e-03 -2.891087e-05 -2.855283e-04 -1.859463e-04 4.470273e-04 3.878458e-04 4.855999e-04 3.216538e-04 3.476837e-04 2.315419e-04 -3.104106e-04 3.348358e-04 1.486878e-04 -4.588753e-04
<VARIANCE> 39
 3.347033e+01 3.825928e+01 6.971739e+01 1.169437e+02 7.292168e+01 6.955788e+01 5.656779e+01 5.623556e+01 4.782769e+01 4.163149e+01 6.642065e+01 3.611489e+01 1.633248e+02 1.177564e+00 1.157588e+00 1.538911e+00 2.259310e+00 1.968457e+00 2.446317e+00 2.141548e+00 2.066854e+00 2.141910e+00 2.020161e+00 2.244012e+00 1.481032e+00 1.878826e+00 1.779526e-01 1.843722e-01 2.006298e-01 2.775359e-01 3.161097e-01 3.918381e-01 3.617145e-01 3.427434e-01 3.684532e-01 3.433269e-01 3.607074e-01 2.678349e-01 2.210316e-01
<GCONST> 1.164263e+02
<TRANSP> 5
 0.000000e+00 1.000000e+00 0.000000e+00 0.000000e+00 0.000000e+00
 0.000000e+00 8.243811e-01 1.756188e-01 0.000000e+00 0.000000e+00
 0.000000e+00 0.000000e+00 8.243807e-01 1.756193e-01 0.000000e+00
 0.000000e+00 0.000000e+00 0.000000e+00 9.613861e-01 3.861392e-02
 0.000000e+00 0.000000e+00 0.000000e+00 0.000000e+00 0.000000e+00
<ENDHMM>
~h "aa"
<BEGINHMM>
<NUMSTATES> 5
<STATE> 2
<MEAN> 39
 -3.859154e+00 -2.180774e+00 -6.536545e+00 -1.362089e+00 -3.535838e-01 1.544869e+00 -9.543353e-01 -2.956322e+00 -4.648100e+00 -2.748445e+00 -1.404215e+00 -1.208056e+00 5.505496e+01 1.904347e-02 -9.123711e-04 -1.301340e-02 1.714742e-02 2.997782e-02 9.121810e-03 2.518998e-03 2.699504e-02 1.613982e-02 -1.398156e-02 4.073984e-03 6.234560e-04 -2.764136e-02 -1.688031e-03 2.988673e-03 4.398695e-03 1.570733e-04 -1.356397e-03 -9.052014e-04 7.752101e-04 -2.650504e-04 1.041560e-03 1.895753e-03 3.372135e-04 1.280815e-03 -3.071917e-03
<VARIANCE> 39
 3.495380e+01 8.434818e+01 1.120677e+02 5.492764e+01 4.268003e+01 4.759703e+01 3.846008e+01 6.281512e+01 5.137827e+01 5.487117e+01 4.286031e+01 4.003054e+01 2.296895e+02 8.662937e-01 1.837243e+00 1.437677e+00 1.523965e+00 1.165015e+00 1.605874e+00 1.710151e+00 2.134439e+00 1.754117e+00 1.815344e+00 1.611309e+00 1.422152e+00 2.854524e+00 1.382395e-01 2.847503e-01 2.101440e-01 2.431207e-01 1.887718e-01 2.818874e-01 2.888387e-01 3.345072e-01 2.911967e-01 2.998430e-01 2.721612e-01 2.423944e-01 3.384392e-01
<GCONST> 1.131130e+02
<STATE> 3
<MEAN> 39
 -3.759853e+00 -2.170912e+00 -6.585312e+00 -1.264638e+00 -1.914525e-01 1.590557e+00 -9.360768e-01 -2.803243e+00 -4.549336e+00 -2.820850e+00 -1.381470e+00 -1.198258e+00 5.488407e+01 9.248320e-03 1.621337e-02 1.238210e-02 1.795751e-02 2.198939e-02 3.939703e-03 6.972504e-03 2.520823e-02 2.209460e-02 -3.031651e-03 6.125556e-03 7.969846e-03 -4.508913e-02 -1.764729e-03 2.814900e-03 4.366454e-03 4.707048e-05 -1.526697e-03 -8.362567e-04 7.708258e-04 -5.322131e-04 9.561752e-04 1.902125e-03 4.651997e-04 1.232909e-03 -2.742420e-03
<VARIANCE> 39
 3.496770e+01 8.246206e+01 1.113073e+02 5.351786e+01 4.323364e+01 4.649532e+01 3.775087e+01 6.226558e+01 5.078931e+01 5.529748e+01 4.245861e+01 4.012971e+01 2.303795e+02 8.621389e-01 1.755243e+00 1.408491e+00 1.470235e+00 1.152313e+00 1.570545e+00 1.689988e+00 2.104317e+00 1.720279e+00 1.800431e+00 1.601412e+00 1.426960e+00 2.756905e+00 1.357245e-01 2.715479e-01 2.048013e-01 2.343163e-01 1.854295e-01 2.747317e-01 2.872818e-01 3.301919e-01 2.858304e-01 2.959644e-01 2.704718e-01 2.436715e-01 3.250716e-01
<GCONST> 1.125176e+02
<STATE> 4
<MEAN> 39
 -3.749497e+00 -2.026658e+00 -6.382031e+00 -1.072041e+00 -1.107039e-01 1.562942e+00 -8.232358e-01 -2.701989e+00 -4.295995e+00 -2.921176e+00 -1.365720e+00 -1.215643e+00 5.458572e+01 -5.245382e-03 3.712577e-02 4.729418e-02 1.570045e-02 7.698147e-03 -4.001000e-03 1.128938e-02 1.940963e-02 2.907801e-02 1.005307e-02 7.171107e-03 1.647083e-02 -6.057452e-02 -1.670096e-03 2.454566e-03 3.891479e-03 -3.237430e-05 -1.462598e-03 -7.020225e-04 6.525645e-04 -7.346290e-04 7.780130e-04 1.727007e-03 5.007990e-04 1.071224e-03 -2.160010e-03
<VARIANCE> 39
 3.511955e+01 8.086806e+01 1.087946e+02 5.090471e+01 4.420420e+01 4.557105e+01 3.643005e+01 6.129617e+01 5.040184e+01 5.582679e+01 4.179014e+01 4.163800e+01 2.321113e+02 8.584399e-01 1.634982e+00 1.358916e+00 1.382759e+00 1.121409e+00 1.503685e+00 1.674242e+00 2.070475e+00 1.667073e+00 1.783371e+00 1.590392e+00 1.428606e+00 2.636361e+00 1.321969e-01 2.525564e-01 1.974658e-01 2.205205e-01 1.782602e-01 2.616971e-01 2.881968e-01 3.286588e-01 2.767296e-01 2.914702e-01 2.721477e-01 2.455457e-01 3.133916e-01
<GCONST> 1.116946e+02
<TRANSP> 5
 0.000000e+00 1.000000e+00 0.000000e+00 0.000000e+00 0.000000e+00
 0.000000e+00 8.269541e-01 1.730459e-01 0.000000e+00 0.000000e+00
 0.000000e+00 0.000000e+00 8.269539e-01 1.730461e-01 0.000000e+00
 0.000000e+00 0.000000e+00 0.000000e+00 9.643865e-01 3.561348e-02
 0.000000e+00 0.000000e+00 0.000000e+00 0.000000e+00 0.000000e+00
<ENDHMM>
~h "ae"
<BEGINHMM>
<NUMSTATES> 5
<STATE> 2
<MEAN> 39
 -8.716976e+00 7.497951e+00 6.292886e+00 -4.337176e+00 -6.436378e+00 -3.034828e+00 -1.938727e+00 -4.482473e+00 -4.608167e+00 4.444387e-01 -4.652788e+00 1.674521e-02 5.347271e+01 -9.061834e-04 -2.623947e-03 -2.964308e-03 -1.453531e-02 2.393509e-02 1.619382e-02 1.324813e-02 4.990271e-03 1.954509e-02 4.170925e-03 9.844284e-03 -1.795897e-03 -1.258905e-02 7.345906e-04 -1.011114e-03 -1.070462e-03 1.952890e-03 8.192078e-04 5.739790e-04 1.072919e-03 6.386164e-04 4.638025e-04 6.348749e-05 1.329485e-03 7.736697e-04 -1.953954e-03
<VARIANCE> 39
 2.267557e+01 4.123148e+01 4.150021e+01 1.220903e+02 4.846762e+01 2.812373e+01 5.275758e+01 3.458285e+01 4.557559e+01 3.592376e+01 8.019073e+01 3.023074e+01 1.647747e+02 1.200921e+00 1.287198e+00 1.554212e+00 2.122025e+00 1.972728e+00 1.771507e+00 2.315802e+00 1.930480e+00 1.960426e+00 1.966738e+00 2.176384e+00 1.587965e+00 2.665704e+00 2.157729e-01 2.080493e-01 2.547048e-01 2.481963e-01 3.383633e-01 3.130409e-01 4.027754e-01 3.534746e-01 3.423925e-01 3.574654e-01 3.449138e-01 3.037179e-01 3.805802e-01
<GCONST> 1.146394e+02
<STATE> 3
<MEAN> 39
 -8.720926e+00 7.477425e+00 6.271636e+00 -4.404000e+00 -6.297144e+00 -2.941198e+00 -1.855941e+00 -4.451499e+00 -4.494412e+00 4.712247e-01 -4.587506e+00 1.179683e-02 5.338931e+01 3.238587e-03 -8.096065e-03 -8.866006e-03 -3.143165e-03 2.863658e-02 1.939848e-02 1.909766e-02 8.685779e-03 2.225692e-02 4.751765e-03 1.756923e-02 2.557311e-03 -2.409306e-02 7.000681e-04 -6.916155e-04 -8.106404e-04 1.963515e-03 7.491014e-04 5.521324e-04 7.521878e-04 5.425513e-04 4.010065e-04 1.875084e-04 1.230787e-03 6.903044e-04 -2.021032e-03
<VARIANCE> 39
 2.243203e+01 4.194038e+01 4.111374e+01 1.212060e+02 4.771096e+01 2.794108e+01 5.222311e+01 3.447916e+01 4.565328e+01 3.643015e+01 7.891904e+01 2.992705e+01 1.657525e+02 1.213208e+00 1.308418e+00 1.571701e+00 2.119117e+00 1.958478e+00 1.774564e+00 2.308804e+00 1.926204e+00 1.951063e+00 1.978513e+00 2.139264e+00 1.586313e+00 2.716631e+00 2.194249e-01 2.116519e-01 2.598071e-01 2.523905e-01 3.378377e-01 3.152449e-01 4.018297e-01 3.523662e-01 3.411523e-01 3.614601e-01 3.417037e-01 3.029777e-01 3.918811e-01
<GCONST> 1.147120e+02
<STATE> 4
<MEAN> 39
 -8.796797e+00 7.641520e+00 6.280888e+00 -4.397581e+00 -5.936852e+00 -2.764446e+00 -1.823215e+00 -4.400362e+00 -4.264665e+00 4.748287e-01 -4.558215e+00 2.031690e-02 5.309448e+01 7.620758e-03 -1.294198e-02 -1.365626e-02 1.689710e-02 3.686732e-02 2.393995e-02 2.612035e-02 1.373968e-02 2.833844e-02 9.370164e-03 3.113853e-02 8.723013e-03 -4.603371e-02 6.902161e-04 -3.027789e-04 -4.974704e-04 2.041921e-03 7.749090e-04 5.472901e-04 3.296993e-04 4.508807e-04 4.674272e-04 3.475194e-04 1.146793e-03 5.862046e-04 -2.174833e-03
<VARIANCE> 39
 2.187996e+01 4.300349e+01 4.013262e+01 1.194084e+02 4.634520e+01 2.760924e+01 5.027373e+01 3.452982e+01 4.506721e+01 3.613525e+01 7.788195e+01 2.970422e+01 1.677148e+02 1.201523e+00 1.329359e+00 1.576895e+00 2.067542e+00 1.904979e+00 1.755732e+00 2.271826e+00 1.917367e+00 1.915399e+00 1.952661e+00 2.060029e+00 1.569871e+00 2.705402e+00 2.199294e-01 2.160400e-01 2.626763e-01 2.527924e-01 3.311180e-01 3.135106e-01 3.952036e-01 3.508503e-01 3.355173e-01 3.601541e-01 3.328091e-01 2.989025e-01 3.948553e-01
<GCONST> 1.143436e+02
<TRANSP> 5
 0.000000e+00 1.000000e+00 0.000000e+00 0.000000e+00 0.000000e+00
 0.000000e+00 8.198564e-01 1.801436e-01 0.000000e+00 0.000000e+00
 0.000000e+00 0.000000e+00 8.198562e-01 1.801437e-01 0.000000e+00
 0.000000e+00 0.000000e+00 0.000000e+00 9.563286e-01 4.367140e-02
 0.000000e+00 0.000000e+00 0.000000e+00 0.000000e+00 0.000000e+00
<ENDHMM>
~h "ah"
<BEGINHMM>
<NUMSTATES> 5
<STATE> 2
<MEAN> 39
 -5.091012e+00 2.534235e+00 1.058240e+00 -4.278652e+00 -4.371006e+00 -4.361812e+00 -1.134496e+00 -3.657474e+00 -5.997128e+00 -3.392467e+00 -5.211993e+00 -1.724446e-01 5.472853e+01 -7.277349e-03 3.080363e-04 2.571839e-02 1.285431e-02 -1.723784e-03 -1.435801e-02 6.359102e-03 -8.453328e-03 -8.358390e-03 3.831200e-03 -4.740456e-03 3.477679e-03 2.476030e-03 -6.705577e-04 4.780178e-04 6.500222e-04 9.501280e-04 -8.700754e-05 4.681643e-04 4.825037e-04 1.309225e-04 8.901517e-04 1.286308e-03 1.054370e-03 6.649195e-04 -1.414085e-03
<VARIANCE> 39
 3.261902e+01 5.434684e+01 6.089412e+01 8.624538e+01 5.394397e+01 5.940868e+01 4.881809e+01 4.356982e+01 5.954904e+01 7.465273e+01 7.888958e+01 3.184939e+01 1.950436e+02 1.449956e+00 1.596607e+00 1.417216e+00 2.316701e+00 2.086123e+00 2.373843e+00 2.164095e+00 2.150087e+00 2.194967e+00 2.245235e+00 2.341240e+00 1.714583e+00 2.787250e+00 2.387843e-01 2.263978e-01 2.084879e-01 3.602477e-01 3.430564e-01 3.868364e-01 3.811429e-01 3.753205e-01 3.727133e-01 3.918941e-01 3.925314e-01 3.191319e-01 3.297063e-01
<GCONST> 1.195549e+02
<STATE> 3
<MEAN> 39
 -5.151075e+00 2.549747e+00 1.221932e+00 -4.184376e+00 -4.385303e+00 -4.428643e+00 -1.087853e+00 -3.699852e+00 -6.017298e+00 -3.334019e+00 -5.208575e+00 -1.372746e-01 5.470197e+01 -1.038892e-02 3.068969e-03 2.862596e-02 1.693983e-02 -2.970344e-03 -1.141462e-02 8.816512e-03 -7.796371e-03 -2.781220e-03 1.144052e-02 1.237705e-03 6.730252e-03 -4.769765e-03 -5.208863e-04 4.804847e-04 4.679572e-04 6.826642e-04 -1.969260e-04 5.364493e-04 4.159175e-04 1.067790e-04 9.657993e-04 1.294652e-03 1.038291e-03 5.480322e-04 -1.247614e-03
<VARIANCE> 39
 3.247338e+01 5.371033e+01 6.051485e+01 8.485101e+01 5.432295e+01 5.979112e+01 4.912587e+01 4.396907e+01 5.977342e+01 7.440250e+01 7.907153e+01 3.161954e+01 1.941104e+02 1.451669e+00 1.583908e+00 1.423514e+00 2.294053e+00 2.069448e+00 2.362175e+00 2.161612e+00 2.156802e+00 2.208330e+00 2.238638e+00 2.347707e+00 1.710543e+00 2.795667e+00 2.388833e-01 2.255493e-01 2.091935e-01 3.568362e-01 3.399848e-01 3.860052e-01 3.804404e-01 3.760399e-01 3.743401e-01 3.902078e-01 3.926508e-01 3.188426e-01 3.339454e-01
<GCONST> 1.195106e+02
<STATE> 4
<MEAN> 39
 -5.577437e+00 2.650903e+00 1.671900e+00 -3.815610e+00 -4.386850e+00 -4.372349e+00 -7.964956e-01 -3.654580e+00 -5.813885e+00 -2.918525e+00 -4.791120e+00 7.744557e-02 5.426907e+01 -1.602735e-02 7.361866e-03 2.803312e-02 1.383608e-02 -1.041440e-02 -1.401668e-03 9.771206e-03 -9.109078e-03 1.245212e-02 2.853209e-02 1.237506e-02 8.592522e-03 -8.058270e-03 -9.487879e-05 1.420406e-04 -1.908000e-04 -1.698774e-04 -2.305251e-04 4.119383e-04 2.513488e-05 -9.445759e-05 5.343068e-04 5.447158e-04 3.632888e-04 6.440637e-05 -7.925264e-06
<VARIANCE> 39
 3.346869e+01 5.184525e+01 5.751894e+01 8.303522e+01 5.615445e+01 6.056617e+01 5.031285e+01 4.512011e+01 5.855964e+01 7.262513e+01 7.957352e+01 3.151535e+01 1.919127e+02 1.481817e+00 1.534629e+00 1.406650e+00 2.236196e+00 2.002841e+00 2.308099e+00 2.150585e+00 2.123198e+00 2.210297e+00 2.180057e+00 2.305262e+00 1.686206e+00 2.822030e+00 2.419373e-01 2.244542e-01 2.086292e-01 3.471998e-01 3.273042e-01 3.811966e-01 3.752795e-01 3.704351e-01 3.753468e-01 3.796484e-01 3.825437e-01 3.146912e-01 3.440045e-01
<GCONST> 1.191660e+02
<TRANSP> 5
 0.000000e+00 1.000000e+00 0.000000e+00 0.000000e+00 0.000000e+00
 0.000000e+00 8.222492e-01 1.777508e-01 0.000000e+00 0.000000e+00
 0.000000e+00 0.000000e+00 8.222482e-01 1.777517e-01 0.000000e+00
 0.000000e+00 0.000000e+00 0.000000e+00 9.596687e-01 4.033129e-02
 0.000000e+00 0.000000e+00 0.000000e+00 0.000000e+00 0.000000e+00
<ENDHMM>
~h "ao"
<BEGINHMM>
<NUMSTATES> 5
<STATE> 2
<MEAN> 39
 -5.164715e+00 4.158026e+00 -3.727955e+00 -8.164436e+00 -5.354557e+00 -2.731317e+00 -5.233408e-01 -2.409035e+00 -5.456577e+00 -1.707128e+00 -2.796641e+00 5.036665e-01 5.653982e+01 1.305066e-02 -2.371407e-03 8.604237e-03 -3.259062e-02 -8.055551e-03 -2.226396e-03 -1.449937e-02 -1.924689e-02 -1.250469e-02 -1.532794e-02 -5.484386e-03 -8.425375e-03 2.438668e-03 -3.046825e-04 -3.620253e-04 1.906954e-03 2.382021e-03 1.084367e-03 5.161121e-04 3.866240e-05 -1.095411e-04 7.947610e-04 4.582411e-04 5.126633e-04 4.678285e-04 -2.929828e-03
<VARIANCE> 39
 5.354461e+01 3.534785e+01 7.276083e+01 1.774224e+02 6.221218e+01 4.571580e+01 4.031460e+01 4.003841e+01 4.742942e+01 4.708077e+01 5.460061e+01 3.293042e+01 1.721577e+02 1.636927e+00 1.342839e+00 1.173040e+00 2.993265e+00 1.857593e+00 1.662548e+00 1.800180e+00 1.698540e+00 1.881933e+00 1.946228e+00 1.713228e+00 1.482798e+00 2.031442e+00 2.289968e-01 2.238653e-01 1.877354e-01 4.122664e-01 3.011723e-01 2.867738e-01 3.183267e-01 2.993725e-01 3.274503e-01 3.408142e-01 2.937048e-01 2.648340e-01 2.124564e-01
<GCONST> 1.149852e+02
<STATE> 3
<MEAN> 39
 -5.109915e+00 4.138281e+00 -3.614964e+00 -8.262659e+00 -5.362944e+00 -2.725645e+00 -6.020892e-01 -2.520877e+00 -5.501693e+00 -1.773103e+00 -2.810704e+00 4.741492e-01 5.646406e+01 8.975360e-03 -3.691728e-03 2.040951e-02 -1.517838e-02 -8.633072e-04 1.336639e-03 -1.337312e-02 -1.930330e-02 -7.174020e-03 -1.099672e-02 -2.047319e-03 -5.019540e-03 -1.459814e-02 -7.435253e-04 -2.002317e-04 2.043198e-03 3.055815e-03 1.260085e-03 6.333524e-04 2.166195e-04 8.935167e-07 9.375834e-04 7.878209e-04 5.992168e-04 5.887788e-04 -2.944865e-03
<VARIANCE> 39
 5.248022e+01 3.609703e+01 7.448588e+01 1.752811e+02 6.257206e+01 4.614275e+01 4.099343e+01 4.087057e+01 4.764797e+01 4.777722e+01 5.521479e+01 3.327720e+01 1.730516e+02 1.583516e+00 1.344929e+00 1.177274e+00 2.939027e+00 1.862675e+00 1.672768e+00 1.818247e+00 1.712237e+00 1.884089e+00 1.955980e+00 1.717679e+00 1.485943e+00 2.051345e+00 2.227948e-01 2.232115e-01 1.882282e-01 4.042271e-01 3.012588e-01 2.881828e-01 3.208662e-01 3.004131e-01 3.273591e-01 3.419821e-01 2.940372e-01 2.646802e-01 2.166522e-01
<GCONST> 1.150894e+02
<STATE> 4
<MEAN> 39
 -5.386520e+00 4.089231e+00 -2.432671e+00 -7.367931e+00 -5.113174e+00 -2.687794e+00 -7.351558e-01 -2.802435e+00 -5.286338e+00 -1.603019e+00 -2.730071e+00 5.811363e-01 5.546533e+01 -1.522922e-02 -6.756821e-03 5.082354e-02 3.934120e-02 8.357767e-03 1.526735e-03 -7.338153e-03 -1.671308e-02 6.442044e-03 6.206980e-03 -1.438723e-04 3.395045e-03 -3.171596e-02 -8.349784e-04 -9.750170e-05 9.589255e-04 1.815205e-03 2.970853e-04 2.620218e-05 2.546847e-04 1.365074e-04 5.001285e-04 5.874038e-04 6.479581e-05 2.314578e-04 -5.468326e-04
<VARIANCE> 39
 4.879499e+01 3.815318e+01 7.761793e+01 1.619405e+02 6.411706e+01 5.070625e+01 4.513437e+01 4.535202e+01 4.917696e+01 4.874073e+01 5.765505e+01 3.395147e+01 1.750665e+02 1.470250e+00 1.359130e+00 1.227544e+00 2.700736e+00 1.873073e+00 1.752886e+00 1.915325e+00 1.787612e+00 1.905967e+00 1.973576e+00 1.743451e+00 1.508126e+00 2.235004e+00 2.126876e-01 2.235593e-01 1.973054e-01 3.750128e-01 3.015493e-01 2.997691e-01 3.355651e-01 3.102833e-01 3.309174e-01 3.466411e-01 2.983197e-01 2.682963e-01 2.474835e-01
<GCONST> 1.158865e+02
<TRANSP> 5
 0.000000e+00 1.000000e+00 0.000000e+00 0.000000e+00 0.000000e+00
 0.000000e+00 8.285068e-01 1.714932e-01 0.000000e+00 0.000000e+00
 0.000000e+00 0.000000e+00 8.285063e-01 1.714937e-01 0.000000e+00
 0.000000e+00 0.000000e+00 0.000000e+00 9.662769e-01 3.372299e-02
 0.000000e+00 0.000000e+00 0.000000e+00 0.000000e+00 0.000000e+00
<ENDHMM>
~h "ay"
<BEGINHMM>
<NUMSTATES> 5
<STATE> 2
<MEAN> 39
 -6.766509e+00 -2.163193e-01 1.884220e-01 -3.545026e+00 -4.216356e+00 -1.983537e+00 -1.040368e+00 -4.730123e+00 -5.189685e+00 -3.917053e+00 -4.771774e+00 -3.154964e-01 5.683995e+01 -1.619823e-03 1.433350e-02 1.220984e-02 -1.887569e-02 -1.733480e-02 -5.533227e-04 -7.756117e-03 -1.722675e-02 -8.616250e-03 6.213633e-04 -1.505872e-02 -1.053100e-02 1.205363e-02 -2.472545e-04 1.100690e-03 9.294478e-04 7.993907e-04 -1.674933e-04 -2.287306e-04 5.324142e-04 6.319823e-04 4.457009e-04 1.366786e-03 1.075630e-03 7.858508e-04 -2.240155e-03
<VARIANCE> 39
 3.175097e+01 7.454883e+01 5.730151e+01 8.137383e+01 5.599187e+01 4.378543e+01 5.191071e+01 4.962708e+01 5.398113e+01 8.165630e+01 7.071787e+01 3.417132e+01 1.944181e+02 1.436321e+00 1.593686e+00 1.421699e+00 2.334130e+00 1.957846e+00 1.987812e+00 2.439227e+00 2.042453e+00 2.012241e+00 2.158411e+00 1.952889e+00 1.614451e+00 2.402544e+00 2.272861e-01 2.200236e-01 2.054381e-01 3.497329e-01 2.935154e-01 3.411224e-01 3.914251e-01 3.484735e-01 3.597103e-01 3.587147e-01 3.185368e-01 2.892967e-01 2.604958e-01
<GCONST> 1.177901e+02
<STATE> 3
<MEAN> 39
 -6.782450e+00 -9.593201e-02 2.885165e-01 -3.630133e+00 -4.322046e+00 -1.991101e+00 -1.070155e+00 -4.809404e+00 -5.221148e+00 -3.872290e+00 -4.825891e+00 -3.536198e-01 5.684219e+01 -3.339150e-03 2.173866e-02 1.750835e-02 -1.289182e-02 -1.775560e-02 -1.737573e-03 -4.170618e-03 -1.245677e-02 -4.978818e-03 9.498381e-03 -7.818295e-03 -5.269533e-03 -2.415513e-03 -2.754352e-04 1.217751e-03 8.879200e-04 1.036787e-03 -5.571979e-05 -2.111467e-04 5.936227e-04 8.131056e-04 6.617929e-04 1.507168e-03 1.254799e-03 8.986654e-04 -2.435944e-03
<VARIANCE> 39
 3.187824e+01 7.439978e+01 5.748856e+01 8.211387e+01 5.657169e+01 4.364994e+01 5.172168e+01 4.946543e+01 5.431699e+01 8.135638e+01 7.072795e+01 3.410132e+01 1.938530e+02 1.420451e+00 1.576228e+00 1.417230e+00 2.337720e+00 1.960196e+00 1.975544e+00 2.426399e+00 2.035004e+00 2.006944e+00 2.145133e+00 1.951131e+00 1.606460e+00 2.388325e+00 2.243818e-01 2.180798e-01 2.043020e-01 3.486232e-01 2.931548e-01 3.388850e-01 3.890363e-01 3.463532e-01 3.577089e-01 3.571141e-01 3.179637e-01 2.876340e-01 2.600687e-01
<GCONST> 1.176744e+02
<STATE> 4
<MEAN> 39
 -6.925144e+00 6.493471e-01 7.173499e-01 -3.681792e+00 -4.659015e+00 -2.042510e+00 -9.842213e-01 -4.760625e+00 -4.997095e+00 -3.300288e+00 -4.577910e+00 -2.376078e-01 5.628731e+01 -8.110321e-03 4.111986e-02 2.343374e-02 4.366984e-03 -1.194887e-02 -3.844945e-03 5.212590e-03 6.727923e-03 9.637656e-03 3.255326e-02 1.397338e-02 9.529402e-03 -3.513694e-02 -1.491501e-04 4.905122e-04 8.538185e-05 7.802692e-04 3.551981e-04 -1.514297e-04 3.341345e-04 7.529504e-04 5.382145e-04 8.042371e-04 8.459873e-04 6.021027e-04 -1.147949e-03
<VARIANCE> 39
 3.319177e+01 7.130875e+01 5.716468e+01 8.706989e+01 5.778951e+01 4.456741e+01 5.107381e+01 4.883983e+01 5.359586e+01 7.657549e+01 7.003545e+01 3.381871e+01 1.911797e+02 1.412640e+00 1.537456e+00 1.404930e+00 2.342278e+00 1.947172e+00 1.969132e+00 2.371972e+00 2.012483e+00 1.974307e+00 2.099445e+00 1.955251e+00 1.581677e+00 2.377057e+00 2.216402e-01 2.184448e-01 2.047530e-01 3.458806e-01 2.927384e-01 3.388495e-01 3.819702e-01 3.424545e-01 3.484636e-01 3.549698e-01 3.204421e-01 2.835809e-01 2.647844e-01
<GCONST> 1.174310e+02
<TRANSP> 5
 0.000000e+00 1.000000e+00 0.000000e+00 0.000000e+00 0.000000e+00
 0.000000e+00 8.253856e-01 1.746144e-01 0.000000e+00 0.000000e+00
 0.000000e+00 0.000000e+00 8.253877e-01 1.746123e-01 0.000000e+00
 0.000000e+00 0.000000e+00 0.000000e+00 9.624883e-01 3.751171e-02
 0.000000e+00 0.000000e+00 0.000000e+00 0.000000e+00 0.000000e+00
<ENDHMM>
~h "ch"
<BEGINHMM>
<NUMSTATES> 5
<STATE> 2
<MEAN> 39
 -1.260605e+01 5.265819e+00 6.120588e+00 -4.245705e+00 -6.988753e+00 5.681129e-01 9.478003e-02 -3.656156e+00 -1.734558e+00 9.791967e-01 -9.471476e-01 1.412594e+00 5.414054e+01 1.517026e-02 -1.884336e-04 -1.251181e-02 5.639827e-02 4.657573e-02 1.678510e-02 1.790864e-02 1.857943e-02 1.669914e-02 -6.120846e-03 1.810972e-02 -3.673905e-03 -4.647477e-02 2.335123e-03 3.713336e-04 -5.492223e-04 5.318152e-04 8.633747e-04 -8.646776e-04 -4.740829e-04 5.640105e-04 -1.383053e-04 2.926203e-04 -2.566587e-04 1.748159e-04 -2.060228e-03
<VARIANCE> 39
 7.827250e+01 3.642609e+01 4.987589e+01 9.166466e+01 7.104780e+01 3.055617e+01 4.900504e+01 3.568897e+01 3.410872e+01 2.779832e+01 5.783600e+01 2.194943e+01 1.984184e+02 2.522724e+00 1.655137e+00 1.594952e+00 2.375074e+00 2.330933e+00 1.823715e+00 2.104845e+00 1.867492e+00 1.926345e+00 1.774447e+00 2.101964e+00 1.482444e+00 4.624883e+00 3.327284e-01 2.976398e-01 2.338342e-01 3.751320e-01 3.792484e-01 3.539217e-01 3.719624e-01 3.483247e-01 3.631867e-01 3.549107e-01 3.600997e-01 2.766798e-01 5.841452e-01
<GCONST> 1.182851e+02
<STATE> 3
<MEAN> 39
 -1.250484e+01 5.266259e+00 6.043704e+00 -3.920492e+00 -6.716977e+00 6.574309e-01 1.950961e-01 -3.547183e+00 -1.639720e+00 9.441354e-01 -8.471763e-01 1.390671e+00 5.386610e+01 2.833592e-02 1.926616e-03 -1.552835e-02 5.921195e-02 5.120320e-02 1.173450e-02 1.516374e-02 2.175942e-02 1.585649e-02 -4.428966e-03 1.643215e-02 -2.590705e-03 -5.779217e-02 2.158575e-03 2.100905e-04 -4.059020e-04 3.147728e-04 4.129321e-04 -1.055656e-03 -4.739664e-04 3.790510e-04 -2.604740e-04 2.876652e-04 -4.764176e-04 2.863649e-04 -1.502055e-03
<VARIANCE> 39
 7.719070e+01 3.757573e+01 4.915755e+01 8.932771e+01 7.001071e+01 3.045846e+01 4.849661e+01 3.513923e+01 3.488176e+01 2.808925e+01 5.688206e+01 2.208111e+01 1.981660e+02 2.463277e+00 1.633162e+00 1.572595e+00 2.282095e+00 2.273988e+00 1.802376e+00 2.105485e+00 1.849637e+00 1.932434e+00 1.752554e+00 2.075581e+00 1.476254e+00 4.386147e+00 3.254255e-01 2.932395e-01 2.313964e-01 3.598968e-01 3.714995e-01 3.491330e-01 3.728167e-01 3.454282e-01 3.645217e-01 3.495840e-01 3.563135e-01 2.766572e-01 5.520152e-01
<GCONST> 1.178149e+02
<STATE> 4
<MEAN> 39
 -1.227743e+01 5.273526e+00 5.896120e+00 -3.434921e+00 -6.309289e+00 6.629107e-01 3.553806e-01 -3.311408e+00 -1.554178e+00 8.466758e-01 -7.094479e-01 1.346913e+00 5.339353e+01 4.352050e-02 3.983517e-03 -1.735492e-02 5.715016e-02 5.046636e-02 1.600306e-03 1.116023e-02 2.268264e-02 1.356317e-02 -2.686275e-03 9.606501e-03 -1.484500e-03 -6.221488e-02 1.827574e-03 1.646153e-04 2.007175e-04 2.017648e-05 -4.094695e-04 -1.256090e-03 -4.508790e-04 -2.566534e-04 -3.850803e-04 4.718857e-04 -7.049844e-04 4.879896e-04 -7.255536e-04
<VARIANCE> 39
 7.533295e+01 4.002690e+01 4.752243e+01 8.521097e+01 6.934822e+01 3.084464e+01 4.780410e+01 3.440530e+01 3.655846e+01 2.876058e+01 5.595403e+01 2.283754e+01 1.993560e+02 2.390656e+00 1.626950e+00 1.530339e+00 2.149876e+00 2.214966e+00 1.789003e+00 2.104687e+00 1.822306e+00 1.952296e+00 1.723839e+00 2.028045e+00 1.475718e+00 4.017904e+00 3.195495e-01 2.911226e-01 2.292141e-01 3.380021e-01 3.635485e-01 3.459835e-01 3.749825e-01 3.408793e-01 3.663076e-01 3.419493e-01 3.487805e-01 2.772210e-01 5.051343e-01
<GCONST> 1.172857e+02
<TRANSP> 5
 0.000000e+00 1.000000e+00 0.000000e+00 0.000000e+00 0.000000e+00
 0.000000e+00 8.277397e-01 1.722604e-01 0.000000e+00 0.000000e+00
 0.000000e+00 0.000000e+00 8.277392e-01 1.722607e-01 0.000000e+00
 0.000000e+00 0.000000e+00 0.000000e+00 9.646201e-01 3.537988e-02
 0.000000e+00 0.000000e+00 0.000000e+00 0.000000e+00 0.000000e+00
<ENDHMM>
~h "eh"
<BEGINHMM>
<NUMSTATES> 5
<STATE> 2
<MEAN> 39
 -7.147886e+00 1.184044e+00 -3.286791e-02 -2.216609e+00 -4.720779e+00 -3.061766e+00 1.421027e+00 -2.447667e+00 -4.775349e+00 -3.188924e+00 -2.932429e+00 6.540030e-01 5.504849e+01 1.056359e-02 9.632997e-03 5.857210e-03 5.900610e-03 1.275654e-02 -7.472783e-03 -1.348124e-02 3.187276e-03 -2.768791e-03 -8.425923e-03 -1.466607e-02 1.719021e-03 -1.041517e-02 4.897497e-05 8.906308e-04 1.136973e-03 1.647707e-04 4.794766e-04 2.214045e-04 -4.585767e-04 -2.106979e-04 2.192124e-04 1.003354e-03 3.953856e-04 4.738024e-04 -1.799103e-03
<VARIANCE> 39
 4.028991e+01 5.646461e+01 4.188998e+01 7.989733e+01 5.128738e+01 6.090085e+01 5.071973e+01 4.183833e+01 5.449922e+01 6.934351e+01 6.338632e+01 3.370742e+01 1.997037e+02 1.424896e+00 1.735726e+00 1.234417e+00 2.211437e+00 1.827622e+00 2.094284e+00 2.179131e+00 1.901647e+00 2.263093e+00 2.165975e+00 1.924921e+00 1.640202e+00 3.158565e+00 2.190808e-01 2.669843e-01 2.022134e-01 3.268873e-01 3.066871e-01 3.692102e-01 3.822947e-01 3.313588e-01 3.823414e-01 3.519563e-01 3.306629e-01 2.950944e-01 3.895358e-01
<GCONST> 1.179181e+02
<STATE> 3
<MEAN> 39
 -7.091534e+00 1.253564e+00 1.871824e-02 -2.169583e+00 -4.636415e+00 -3.093016e+00 1.346398e+00 -2.434050e+00 -4.783569e+00 -3.214811e+00 -2.998054e+00 6.756812e-01 5.495035e+01 9.565021e-03 1.534713e-02 1.167041e-02 7.614784e-03 1.531694e-02 -5.235816e-03 -1.544896e-02 2.043267e-03 -8.047502e-04 -1.826390e-03 -1.129823e-02 4.550268e-03 -2.057925e-02 -1.991139e-04 9.677086e-04 9.819411e-04 3.308703e-04 4.492632e-04 4.541723e-04 -2.956268e-04 -2.096170e-04 3.543141e-04 1.117369e-03 6.324415e-04 4.830295e-04 -1.747088e-03
<VARIANCE> 39
 3.984259e+01 5.634584e+01 4.180635e+01 7.937875e+01 5.125928e+01 6.160192e+01 5.049032e+01 4.166472e+01 5.505669e+01 6.960107e+01 6.389574e+01 3.344846e+01 1.994563e+02 1.399796e+00 1.709943e+00 1.222555e+00 2.186115e+00 1.814957e+00 2.091285e+00 2.165535e+00 1.905997e+00 2.263613e+00 2.159322e+00 1.926189e+00 1.638161e+00 3.118808e+00 2.150079e-01 2.628684e-01 2.004710e-01 3.233123e-01 3.041551e-01 3.677975e-01 3.798391e-01 3.322783e-01 3.823441e-01 3.512504e-01 3.307023e-01 2.946094e-01 3.842430e-01
<GCONST> 1.177422e+02
<STATE> 4
<MEAN> 39
 -7.049120e+00 1.498950e+00 2.328416e-01 -1.937347e+00 -4.325353e+00 -2.847434e+00 1.324289e+00 -2.431163e+00 -4.632442e+00 -2.989356e+00 -2.836937e+00 8.430447e-01 5.432465e+01 2.357432e-03 2.503619e-02 2.002432e-02 1.176669e-02 1.581566e-02 6.469626e-03 -1.306694e-02 -3.938954e-04 9.100746e-03 1.712048e-02 2.202675e-03 9.430880e-03 -3.524961e-02 -3.298437e-04 6.762857e-04 5.714397e-04 3.473515e-05 2.030260e-05 5.734355e-04 -1.293729e-04 -1.459796e-04 4.819141e-04 9.693217e-04 5.686455e-04 2.024820e-04 -8.179449e-04
<VARIANCE> 39
 3.870537e+01 5.738668e+01 4.170265e+01 7.835947e+01 5.139543e+01 6.149435e+01 4.905524e+01 4.214034e+01 5.492624e+01 6.818715e+01 6.310495e+01 3.318279e+01 2.000782e+02 1.333056e+00 1.671299e+00 1.201187e+00 2.106944e+00 1.781941e+00 2.064660e+00 2.122035e+00 1.912322e+00 2.241208e+00 2.122926e+00 1.925299e+00 1.640983e+00 3.093592e+00 2.053105e-01 2.581301e-01 1.985388e-01 3.154553e-01 2.981346e-01 3.617281e-01 3.753390e-01 3.341587e-01 3.816308e-01 3.496487e-01 3.322303e-01 2.954563e-01 3.829841e-01
<GCONST> 1.173074e+02
<TRANSP> 5
 0.000000e+00 1.000000e+00 0.000000e+00 0.000000e+00 0.000000e+00
 0.000000e+00 8.244798e-01 1.755203e-01 0.000000e+00 0.000000e+00
 0.000000e+00 0.000000e+00 8.244798e-01 1.755202e-01 0.000000e+00
 0.000000e+00 0.000000e+00 0.000000e+00 9.613621e-01 3.863792e-02
 0.000000e+00 0.000000e+00 0.000000e+00 0.000000e+00 0.000000e+00
<ENDHMM>
~h "ey"
<BEGINHMM>
<NUMSTATES> 5
<STATE> 2
<MEAN> 39
 -8.484221e+00 4.522017e+00 5.287872e+00 -5.163898e+00 -6.998718e+00 -2.123141e+00 -4.487969e-01 -4.042211e+00 -2.733382e+00 1.443408e+00 -2.323818e+00 1.171291e+00 5.259652e+01 -3.677322e-03 4.218664e-03 2.778992e-03 -5.757954e-03 5.346255e-03 6.449087e-03 -5.545882e-03 -4.661216e-03 5.690077e-03 8.269464e-04 -1.606402e-03 2.726982e-03 2.576955e-03 -2.885233e-04 -4.684123e-04 -5.223876e-04 -1.202304e-04 5.230916e-05 -6.135259e-04 -7.120694e-05 1.863364e-04 -2.583479e-04 -5.399791e-05 -2.323417e-04 -1.049451e-04 1.045335e-03
<VARIANCE> 39
 3.144143e+01 3.515351e+01 4.614951e+01 1.149576e+02 8.138754e+01 4.211406e+01 6.293360e+01 4.520161e+01 3.617068e+01 3.539272e+01 6.599096e+01 2.778407e+01 2.025169e+02 1.507380e+00 1.373417e+00 1.358560e+00 2.493187e+00 2.204856e+00 1.913897e+00 2.268805e+00 1.726276e+00 1.915254e+00 1.786252e+00 2.027576e+00 1.553930e+00 4.145768e+00 2.461373e-01 2.331442e-01 2.264921e-01 3.790849e-01 3.454106e-01 3.552356e-01 3.825741e-01 3.093699e-01 3.429261e-01 3.307903e-01 3.426746e-01 2.773891e-01 5.286114e-01
<GCONST> 1.171739e+02
<STATE> 3
<MEAN> 39
 -8.517635e+00 4.542000e+00 5.304019e+00 -5.205367e+00 -6.972882e+00 -2.103605e+00 -4.918922e-01 -4.071193e+00 -2.708984e+00 1.442049e+00 -2.345130e+00 1.181792e+00 5.264386e+01 -5.271873e-03 1.776089e-03 1.427009e-04 -3.936868e-03 6.651768e-03 3.267500e-03 -5.780973e-03 -3.227873e-03 4.282112e-03 6.315674e-04 -1.754546e-03 2.362320e-03 6.121801e-03 -2.896579e-04 -3.300305e-04 -3.209332e-04 2.193446e-04 9.873611e-05 -6.432072e-04 -1.258001e-04 1.545364e-04 -2.411375e-04 -7.998584e-05 -1.660268e-04 -6.670324e-05 7.686734e-04
<VARIANCE> 39
 3.180085e+01 3.535569e+01 4.605186e+01 1.149074e+02 8.144913e+01 4.229495e+01 6.324007e+01 4.554561e+01 3.630013e+01 3.515524e+01 6.599603e+01 2.782751e+01 2.033795e+02 1.513003e+00 1.373247e+00 1.376135e+00 2.502207e+00 2.207767e+00 1.919926e+00 2.295145e+00 1.735510e+00 1.928575e+00 1.789684e+00 2.044290e+00 1.559794e+00 4.220852e+00 2.461392e-01 2.331709e-01 2.291642e-01 3.797237e-01 3.458341e-01 3.562888e-01 3.865717e-01 3.105875e-01 3.441193e-01 3.314997e-01 3.449970e-01 2.783853e-01 5.373775e-01
<GCONST> 1.173533e+02
<STATE> 4
<MEAN> 39
 -8.764410e+00 4.526925e+00 5.296260e+00 -5.164790e+00 -6.920438e+00 -2.266108e+00 -5.807532e-01 -4.048977e+00 -2.691301e+00 1.326768e+00 -2.395671e+00 1.178418e+00 5.296984e+01 -4.671602e-03 -1.851635e-03 -1.146050e-02 2.426944e-02 2.720132e-02 5.158049e-03 1.152273e-03 8.259585e-03 3.049580e-03 -3.259715e-03 9.310939e-03 3.858740e-03 -1.115543e-02 1.424713e-04 -1.174867e-04 -4.974208e-04 1.131089e-03 7.407890e-04 -1.170063e-04 2.910949e-04 3.931792e-04 -3.157023e-05 -1.455667e-04 3.079538e-04 1.432670e-04 -6.153532e-04
<VARIANCE> 39
 3.362087e+01 3.727472e+01 4.703165e+01 1.129194e+02 8.118844e+01 4.318555e+01 6.502482e+01 4.619647e+01 3.689296e+01 3.616818e+01 6.638695e+01 2.815313e+01 2.024595e+02 1.615373e+00 1.408623e+00 1.451885e+00 2.433328e+00 2.180776e+00 1.973833e+00 2.387145e+00 1.766649e+00 1.989412e+00 1.805430e+00 2.063608e+00 1.589956e+00 4.286036e+00 2.587372e-01 2.396992e-01 2.407911e-01 3.700036e-01 3.442890e-01 3.655145e-01 4.002455e-01 3.170327e-01 3.497142e-01 3.328178e-01 3.480998e-01 2.851331e-01 5.457602e-01
<GCONST> 1.181014e+02
<TRANSP> 5
 0.000000e+00 1.000000e+00 0.000000e+00 0.000000e+00 0.000000e+00
 0.000000e+00 8.278715e-01 1.721285e-01 0.000000e+00 0.000000e+00
 0.000000e+00 0.000000e+00 8.278700e-01 1.721300e-01 0.000000e+00
 0.000000e+00 0.000000e+00 0.000000e+00 9.652141e-01 3.478588e-02
 0.000000e+00 0.000000e+00 0.000000e+00 0.000000e+00 0.000000e+00
<ENDHMM>
~h "ia"
<BEGINHMM>
<NUMSTATES> 5
<STATE> 2
<MEAN> 39
 -7.381522e+00 3.330936e+00 2.047153e+00 -3.046288e+00 -4.874629e+00 -2.964739e+00 -5.433913e-01 -3.441086e+00 -4.156183e+00 -7.898898e-01 -2.925678e+00 8.747759e-01 5.354753e+01 4.188114e-03 7.886445e-03 8.638212e-04 -3.319199e-05 4.583947e-03 2.944113e-03 -4.185917e-03 -2.407409e-03 4.110487e-03 -9.366490e-04 -2.847919e-03 -1.119324e-03 -3.485081e-03 -2.780182e-04 4.271456e-06 2.111308e-05 2.157945e-05 -1.623377e-04 6.947975e-04 6.310043e-04 2.858052e-04 2.109315e-04 1.335133e-04 3.614691e-04 -5.897314e-04 -3.645968e-04
<VARIANCE> 39
 3.956010e+01 5.039151e+01 5.962346e+01 1.002791e+02 6.064148e+01 5.444832e+01 5.840739e+01 4.790145e+01 4.806982e+01 5.399290e+01 6.658193e+01 3.143701e+01 1.841879e+02 1.501115e+00 1.479264e+00 1.419895e+00 2.272107e+00 1.880642e+00 2.105628e+00 2.280031e+00 1.936650e+00 2.018196e+00 1.963827e+00 1.997587e+00 1.559135e+00 2.571761e+00 2.319898e-01 2.408473e-01 2.210669e-01 3.404900e-01 3.085047e-01 3.687871e-01 3.892777e-01 3.406794e-01 3.576038e-01 3.468189e-01 3.398416e-01 2.856025e-01 3.133720e-01
<GCONST> 1.177766e+02
<STATE> 3
<MEAN> 39
 -7.381522e+00 3.330936e+00 2.047153e+00 -3.046288e+00 -4.874629e+00 -2.964739e+00 -5.433913e-01 -3.441086e+00 -4.156183e+00 -7.898898e-01 -2.925678e+00 8.747759e-01 5.354753e+01 4.188114e-03 7.886445e-03 8.638212e-04 -3.319199e-05 4.583947e-03 2.944113e-03 -4.185917e-03 -2.407409e-03 4.110487e-03 -9.366490e-04 -2.847919e-03 -1.119324e-03 -3.485081e-03 -2.780182e-04 4.271456e-06 2.111308e-05 2.157945e-05 -1.623377e-04 6.947975e-04 6.310043e-04 2.858052e-04 2.109315e-04 1.335133e-04 3.614691e-04 -5.897314e-04 -3.645968e-04
<VARIANCE> 39
 3.956010e+01 5.039151e+01 5.962346e+01 1.002791e+02 6.064148e+01 5.444832e+01 5.840739e+01 4.790145e+01 4.806982e+01 5.399290e+01 6.658193e+01 3.143701e+01 1.841879e+02 1.501115e+00 1.479264e+00 1.419895e+00 2.272107e+00 1.880642e+00 2.105628e+00 2.280031e+00 1.936650e+00 2.018196e+00 1.963827e+00 1.997587e+00 1.559135e+00 2.571761e+00 2.319898e-01 2.408473e-01 2.210669e-01 3.404900e-01 3.085047e-01 3.687871e-01 3.892777e-01 3.406794e-01 3.576038e-01 3.468189e-01 3.398416e-01 2.856025e-01 3.133720e-01
<GCONST> 1.177766e+02
<STATE> 4
<MEAN> 39
 -7.381522e+00 3.330936e+00 2.047153e+00 -3.046288e+00 -4.874629e+00 -2.964739e+00 -5.433913e-01 -3.441086e+00 -4.156183e+00 -7.898898e-01 -2.925678e+00 8.747759e-01 5.354753e+01 4.188114e-03 7.886445e-03 8.638212e-04 -3.319199e-05 4.583947e-03 2.944113e-03 -4.185917e-03 -2.407409e-03 4.110487e-03 -9.366490e-04 -2.847919e-03 -1.119324e-03 -3.485081e-03 -2.780182e-04 4.271456e-06 2.111308e-05 2.157945e-05 -1.623377e-04 6.947975e-04 6.310043e-04 2.858052e-04 2.109315e-04 1.335133e-04 3.614691e-04 -5.897314e-04 -3.645968e-04
<VARIANCE> 39
 3.956010e+01 5.039151e+01 5.962346e+01 1.002791e+02 6.064148e+01 5.444832e+01 5.840739e+01 4.790145e+01 4.806982e+01 5.399290e+01 6.658193e+01 3.143701e+01 1.841879e+02 1.501115e+00 1.479264e+00 1.419895e+00 2.272107e+00 1.880642e+00 2.105628e+00 2.280031e+00 1.936650e+00 2.018196e+00 1.963827e+00 1.997587e+00 1.559135e+00 2.571761e+00 2.319898e-01 2.408473e-01 2.210669e-01 3.404900e-01 3.085047e-01 3.687871e-01 3.892777e-01 3.406794e-01 3.576038e-01 3.468189e-01 3.398416e-01 2.856025e-01 3.133720e-01
<GCONST> 1.177766e+02
<TRANSP> 5
 0.000000e+00 1.000000e+00 0.000000e+00 0.000000e+00 0.000000e+00
 0.000000e+00 6.000000e-01 4.000000e-01 0.000000e+00 0.000000e+00
 0.000000e+00 0.000000e+00 6.000000e-01 4.000000e-01 0.000000e+00
 0.000000e+00 0.000000e+00 0.000000e+00 7.000000e-01 3.000000e-01
 0.000000e+00 0.000000e+00 0.000000e+00 0.000000e+00 0.000000e+00
<ENDHMM>
~h "ih"
<BEGINHMM>
<NUMSTATES> 5
<STATE> 2
<MEAN> 39
 -9.383366e+00 3.182873e+00 1.299980e+00 -2.246738e+00 -7.595791e+00 -4.400649e+00 4.170191e-01 -3.581838e+00 -4.562671e+00 1.589627e+00 -2.168712e+00 1.612007e+00 5.501241e+01 -1.368229e-03 9.937221e-04 -2.700509e-03 -3.408663e-03 -1.963162e-03 1.905306e-03 2.294835e-04 -7.822035e-04 6.911288e-03 2.037151e-03 -2.712061e-03 1.035287e-03 1.021404e-02 9.619682e-04 -2.039740e-04 2.113180e-04 3.701968e-04 1.278546e-03 2.901777e-04 1.581427e-04 4.527394e-04 2.563890e-04 -7.172698e-04 3.054331e-04 -2.551562e-05 -1.701525e-03
<VARIANCE> 39
 5.405283e+01 2.952677e+01 7.246849e+01 1.195734e+02 7.366048e+01 5.547960e+01 6.637662e+01 5.639651e+01 4.045183e+01 3.888784e+01 6.417872e+01 2.877268e+01 1.567921e+02 1.728318e+00 1.483709e+00 2.136399e+00 2.834370e+00 2.134688e+00 2.482000e+00 2.738758e+00 2.176733e+00 2.244169e+00 2.039303e+00 2.306205e+00 1.495739e+00 2.597574e+00 2.429258e-01 2.675890e-01 2.819376e-01 3.684744e-01 3.518581e-01 4.288173e-01 4.502552e-01 3.657205e-01 4.063364e-01 3.735720e-01 3.765887e-01 2.795799e-01 3.095662e-01
<GCONST> 1.205070e+02
<STATE> 3
<MEAN> 39
 -9.366698e+00 3.184454e+00 1.284209e+00 -2.247787e+00 -7.567698e+00 -4.380338e+00 4.289286e-01 -3.571240e+00 -4.514629e+00 1.583855e+00 -2.169058e+00 1.618413e+00 5.501870e+01 3.834968e-03 1.343144e-04 -2.530918e-03 -2.659326e-04 6.189255e-03 3.983149e-03 1.914960e-03 2.208010e-03 8.560331e-03 -2.268771e-03 -2.862550e-04 7.894692e-04 -6.753555e-05 8.988663e-04 -1.446917e-04 6.338087e-06 5.987661e-04 1.450861e-03 3.698258e-04 3.196133e-04 5.351356e-04 3.012025e-04 -7.457993e-04 4.533384e-04 -3.017025e-05 -1.836249e-03
<VARIANCE> 39
 5.422370e+01 3.007531e+01 7.246550e+01 1.197906e+02 7.370374e+01 5.545113e+01 6.588092e+01 5.642625e+01 4.042087e+01 3.883303e+01 6.403058e+01 2.887492e+01 1.577392e+02 1.720438e+00 1.498660e+00 2.132757e+00 2.839874e+00 2.116725e+00 2.477656e+00 2.734416e+00 2.179623e+00 2.246934e+00 2.044809e+00 2.312828e+00 1.503017e+00 2.637362e+00 2.421025e-01 2.705886e-01 2.825949e-01 3.705155e-01 3.489832e-01 4.284378e-01 4.504108e-01 3.670466e-01 4.068533e-01 3.749009e-01 3.780048e-01 2.807537e-01 3.164612e-01
<GCONST> 1.205959e+02
<STATE> 4
<MEAN> 39
 -9.045734e+00 3.192588e+00 1.209627e+00 -2.156215e+00 -7.098161e+00 -4.313053e+00 5.846444e-01 -3.369039e+00 -4.281395e+00 1.427580e+00 -2.019556e+00 1.604888e+00 5.453867e+01 1.607504e-02 -7.698517e-04 -4.057911e-03 1.529059e-03 2.378156e-02 8.604693e-03 4.897456e-03 6.997622e-03 8.306718e-03 -1.485602e-02 1.346499e-03 -3.030148e-03 -1.645984e-02 4.899323e-04 -4.907136e-05 -3.353758e-05 4.170743e-05 7.043141e-04 1.972527e-04 6.346323e-05 1.668527e-04 -2.305026e-05 -5.602701e-04 -1.856155e-06 -1.799738e-04 -6.292957e-04
<VARIANCE> 39
 5.405510e+01 3.224598e+01 7.000307e+01 1.180484e+02 7.194355e+01 5.713982e+01 6.295373e+01 5.605453e+01 4.095590e+01 3.907116e+01 6.277842e+01 2.953047e+01 1.624518e+02 1.677131e+00 1.523045e+00 1.986938e+00 2.747627e+00 2.026051e+00 2.469212e+00 2.652542e+00 2.139432e+00 2.217096e+00 2.025983e+00 2.273658e+00 1.530570e+00 2.728833e+00 2.368785e-01 2.734393e-01 2.663554e-01 3.696821e-01 3.339827e-01 4.264886e-01 4.430422e-01 3.648522e-01 4.007329e-01 3.719836e-01 3.765749e-01 2.851260e-01 3.317466e-01
<GCONST> 1.203137e+02
<TRANSP> 5
 0.000000e+00 1.000000e+00 0.000000e+00 0.000000e+00 0.000000e+00
 0.000000e+00 8.244324e-01 1.755676e-01 0.000000e+00 0.000000e+00
 0.000000e+00 0.000000e+00 8.244326e-01 1.755674e-01 0.000000e+00
 0.000000e+00 0.000000e+00 0.000000e+00 9.613836e-01 3.861635e-02
 0.000000e+00 0.000000e+00 0.000000e+00 0.000000e+00 0.000000e+00
<ENDHMM>
~h "iy"
<BEGINHMM>
<NUMSTATES> 5
<STATE> 2
<MEAN> 39
 -8.497158e+00 6.275040e+00 5.423374e+00 -4.584932e+00 -5.137332e+00 -2.648523e+00 -2.842830e+00 -4.513679e+00 -4.487838e+00 -5.373460e-02 -4.222697e+00 1.853377e-01 5.341168e+01 2.170184e-02 -1.700362e-02 -2.425680e-02 3.857465e-02 2.378569e-02 2.823799e-02 3.724024e-02 1.589077e-02 2.715713e-02 4.036030e-03 3.086922e-02 1.384500e-02 -5.820100e-02 3.541188e-05 -4.499225e-04 -8.852608e-04 6.266107e-04 3.278185e-04 8.029869e-05 7.037963e-04 4.730147e-04 4.384815e-04 2.754151e-04 5.754101e-04 3.496611e-04 -1.212616e-04
<VARIANCE> 39
 3.609742e+01 5.649238e+01 5.723963e+01 1.115289e+02 5.397550e+01 4.592735e+01 7.295149e+01 4.198195e+01 4.347783e+01 3.784753e+01 7.241507e+01 2.938605e+01 1.736851e+02 1.527226e+00 1.543272e+00 1.432483e+00 2.317210e+00 1.760026e+00 2.068459e+00 2.325122e+00 1.811389e+00 1.879018e+00 1.788283e+00 1.923014e+00 1.469733e+00 2.220987e+00 2.422737e-01 2.555071e-01 2.320877e-01 3.436204e-01 3.005284e-01 3.767574e-01 3.897806e-01 3.268132e-01 3.375730e-01 3.250285e-01 3.170128e-01 2.693338e-01 2.765656e-01
<GCONST> 1.164581e+02
<STATE> 3
<MEAN> 39
 -8.370968e+00 6.169653e+00 5.267040e+00 -4.352175e+00 -4.994117e+00 -2.485324e+00 -2.613110e+00 -4.413132e+00 -4.325710e+00 -3.007436e-02 -4.034135e+00 2.686368e-01 5.307812e+01 2.188367e-02 -1.943468e-02 -2.901317e-02 4.148086e-02 2.514157e-02 2.811048e-02 4.039850e-02 1.818338e-02 2.930079e-02 5.610463e-03 3.357990e-02 1.559371e-02 -5.784890e-02 -3.991535e-05 -2.784877e-04 -6.448592e-04 3.052801e-04 2.349764e-04 -1.990224e-04 3.540605e-04 2.816902e-04 2.557590e-04 1.923844e-04 2.285448e-04 2.436737e-04 3.607075e-04
<VARIANCE> 39
 3.583016e+01 5.595993e+01 5.716306e+01 1.100553e+02 5.386079e+01 4.542690e+01 7.152145e+01 4.171382e+01 4.350829e+01 3.838358e+01 7.155762e+01 2.929948e+01 1.742494e+02 1.504646e+00 1.529282e+00 1.414224e+00 2.281627e+00 1.743519e+00 2.057497e+00 2.294541e+00 1.800668e+00 1.875091e+00 1.785234e+00 1.912462e+00 1.469390e+00 2.193044e+00 2.398980e-01 2.534749e-01 2.297339e-01 3.394382e-01 2.979458e-01 3.757331e-01 3.857822e-01 3.256040e-01 3.375797e-01 3.247150e-01 3.168094e-01 2.698226e-01 2.731392e-01
<GCONST> 1.162040e+02
<STATE> 4
<MEAN> 39
 -8.143368e+00 6.062257e+00 4.821797e+00 -3.935170e+00 -4.615475e+00 -2.114551e+00 -2.022754e+00 -4.132869e+00 -3.983984e+00 -4.923826e-02 -3.659709e+00 4.137315e-01 5.246550e+01 2.197046e-02 -2.287999e-02 -3.475995e-02 4.170894e-02 2.467979e-02 2.409823e-02 4.064974e-02 2.034915e-02 2.991613e-02 6.753456e-03 3.447122e-02 1.711959e-02 -5.058162e-02 -1.289637e-04 6.097394e-05 1.848741e-05 -1.848397e-04 -1.955828e-05 -4.710602e-04 -2.644936e-04 -7.135305e-05 -6.526339e-05 8.397183e-05 -3.289775e-04 1.327259e-04 7.269393e-04
<VARIANCE> 39
 3.589694e+01 5.554471e+01 5.893919e+01 1.081889e+02 5.295678e+01 4.348946e+01 6.599204e+01 4.160454e+01 4.314900e+01 3.977832e+01 6.955957e+01 2.988078e+01 1.761510e+02 1.456035e+00 1.504622e+00 1.374057e+00 2.224118e+00 1.710033e+00 2.017308e+00 2.220235e+00 1.764231e+00 1.848830e+00 1.764874e+00 1.884699e+00 1.474650e+00 2.180526e+00 2.354724e-01 2.506529e-01 2.256379e-01 3.334930e-01 2.927525e-01 3.712567e-01 3.776457e-01 3.199314e-01 3.327427e-01 3.203394e-01 3.162746e-01 2.711593e-01 2.728612e-01
<GCONST> 1.157000e+02
<TRANSP> 5
 0.000000e+00 1.000000e+00 0.000000e+00 0.000000e+00 0.000000e+00
 0.000000e+00 8.265595e-01 1.734404e-01 0.000000e+00 0.000000e+00
 0.000000e+00 0.000000e+00 8.265606e-01 1.734394e-01 0.000000e+00
 0.000000e+00 0.000000e+00 0.000000e+00 9.637435e-01 3.625652e-02
 0.000000e+00 0.000000e+00 0.000000e+00 0.000000e+00 0.000000e+00
<ENDHMM>
~h "jh"
<BEGINHMM>
<NUMSTATES> 5
<STATE> 2
<MEAN> 39
 -9.417628e+00 6.319752e+00 7.614779e+00 -6.038052e+00 -7.039101e+00 -3.137214e+00 -1.489439e+00 -5.814731e+00 -3.675015e+00 -5.199889e-01 -4.468021e+00 -5.737522e-01 5.502310e+01 1.464809e-03 2.207313e-02 2.882441e-02 -1.827200e-02 -2.718982e-03 1.406988e-02 -1.424215e-02 -1.114765e-02 1.919857e-02 5.578430e-03 -7.928647e-03 -5.980053e-04 -6.840657e-03 9.783765e-04 -5.081658e-04 -1.902861e-03 2.507122e-03 2.248444e-03 1.164721e-03 8.272674e-04 1.508448e-03 5.503083e-04 8.095647e-05 1.295410e-03 8.420578e-04 -3.298773e-03
<VARIANCE> 39
 4.696490e+01 4.794278e+01 5.366106e+01 1.046559e+02 8.160796e+01 4.090841e+01 5.564862e+01 4.994994e+01 3.950908e+01 3.230662e+01 6.220153e+01 3.179025e+01 1.971778e+02 2.711443e+00 1.796437e+00 1.477100e+00 1.805144e+00 2.118868e+00 1.979149e+00 2.090389e+00 1.840251e+00 1.760661e+00 1.734692e+00 1.824762e+00 1.538682e+00 2.335062e+00 4.298028e-01 3.115977e-01 2.645113e-01 2.650926e-01 3.299016e-01 3.662347e-01 3.701035e-01 3.060641e-01 3.042165e-01 3.111615e-01 2.856626e-01 2.719913e-01 2.806608e-01
<GCONST> 1.172981e+02
<STATE> 3
<MEAN> 39
 -9.400984e+00 6.441771e+00 7.766397e+00 -6.128989e+00 -7.040753e+00 -3.051129e+00 -1.569924e+00 -5.870201e+00 -3.562211e+00 -4.903712e-01 -4.508603e+00 -5.737205e-01 5.496885e+01 7.093145e-03 1.897966e-02 1.767341e-02 -3.626752e-03 1.026263e-02 2.083985e-02 -9.197729e-03 -2.361455e-03 2.245305e-02 6.148718e-03 -1.779243e-04 4.255029e-03 -2.603032e-02 9.533310e-04 -7.057375e-04 -2.103968e-03 2.723843e-03 2.252048e-03 1.169559e-03 1.057377e-03 1.608379e-03 5.490363e-04 1.886186e-04 1.477530e-03 8.458523e-04 -3.375978e-03
<VARIANCE> 39
 4.528840e+01 4.827517e+01 5.247883e+01 1.047978e+02 8.140508e+01 4.026977e+01 5.526665e+01 4.943570e+01 3.923793e+01 3.183305e+01 6.159251e+01 3.139419e+01 1.972258e+02 2.614043e+00 1.771963e+00 1.469083e+00 1.800510e+00 2.079170e+00 1.946686e+00 2.090240e+00 1.804562e+00 1.740810e+00 1.717574e+00 1.807578e+00 1.531556e+00 2.302141e+00 4.158934e-01 3.047676e-01 2.627634e-01 2.643984e-01 3.238201e-01 3.614353e-01 3.699151e-01 2.998731e-01 3.012830e-01 3.089000e-01 2.842225e-01 2.702832e-01 2.764771e-01
<GCONST> 1.168451e+02
<STATE> 4
<MEAN> 39
 -9.341650e+00 6.684395e+00 8.037088e+00 -6.013532e+00 -6.967340e+00 -2.914548e+00 -1.665137e+00 -5.799345e+00 -3.313067e+00 -4.542739e-01 -4.522685e+00 -5.138910e-01 5.455760e+01 1.524870e-02 1.218236e-02 -8.534414e-04 1.636528e-02 2.702848e-02 2.838817e-02 -2.391252e-03 9.486279e-03 2.591710e-02 5.922026e-03 1.047121e-02 9.484231e-03 -4.826742e-02 8.035448e-04 -7.820706e-04 -2.068475e-03 2.602685e-03 1.973292e-03 1.076289e-03 1.179365e-03 1.489858e-03 5.040145e-04 3.074351e-04 1.568042e-03 7.865543e-04 -3.091721e-03
<VARIANCE> 39
 4.286721e+01 4.880499e+01 5.042374e+01 1.036804e+02 8.111268e+01 4.017753e+01 5.523420e+01 4.834554e+01 3.889521e+01 3.069199e+01 6.040553e+01 3.096939e+01 1.964135e+02 2.465450e+00 1.739433e+00 1.479596e+00 1.788969e+00 2.016364e+00 1.908551e+00 2.097254e+00 1.750921e+00 1.717370e+00 1.692401e+00 1.776628e+00 1.510537e+00 2.212242e+00 3.941327e-01 2.943383e-01 2.650299e-01 2.643337e-01 3.150083e-01 3.559040e-01 3.707720e-01 2.925738e-01 2.967860e-01 3.052745e-01 2.842133e-01 2.660674e-01 2.661781e-01
<GCONST> 1.161601e+02
<TRANSP> 5
 0.000000e+00 1.000000e+00 0.000000e+00 0.000000e+00 0.000000e+00
 0.000000e+00 8.275633e-01 1.724366e-01 0.000000e+00 0.000000e+00
 0.000000e+00 0.000000e+00 8.275627e-01 1.724373e-01 0.000000e+00
 0.000000e+00 0.000000e+00 0.000000e+00 9.648647e-01 3.513528e-02
 0.000000e+00 0.000000e+00 0.000000e+00 0.000000e+00 0.000000e+00
<ENDHMM>
~h "ow"
<BEGINHMM>
<NUMSTATES> 5
<STATE> 2
<MEAN> 39
 -5.258080e+00 4.706396e+00 6.459121e-01 -4.912821e+00 -4.507487e+00 -3.665424e+00 9.654063e-02 -3.963588e+00 -4.245026e+00 -5.231408e-01 -3.132409e+00 8.383049e-01 5.306733e+01 -1.541378e-02 1.316885e-03 3.109266e-02 4.239902e-02 1.010468e-02 3.107963e-02 9.313241e-03 5.563254e-03 1.502160e-02 -1.562684e-03 8.633199e-03 6.379673e-03 -3.952871e-02 -4.881138e-04 -3.739379e-04 2.410697e-04 5.182369e-04 1.181549e-04 9.432691e-05 -1.588176e-04 9.992889e-05 1.621946e-04 4.522886e-04 4.615407e-04 1.181500e-04 -3.663556e-04
<VARIANCE> 39
 3.974743e+01 4.648921e+01 6.347276e+01 1.268713e+02 5.947492e+01 6.541678e+01 5.090985e+01 5.167215e+01 4.786346e+01 4.455925e+01 5.727284e+01 3.348190e+01 1.754979e+02 1.142235e+00 1.395065e+00 1.329564e+00 2.486876e+00 1.830803e+00 2.228005e+00 2.097147e+00 1.930872e+00 2.034842e+00 1.890075e+00 2.077338e+00 1.615248e+00 2.439844e+00 1.734147e-01 2.248235e-01 1.907601e-01 3.557036e-01 3.074844e-01 3.741886e-01 3.623641e-01 3.313480e-01 3.489216e-01 3.287571e-01 3.558767e-01 2.844389e-01 2.996206e-01
<GCONST> 1.167635e+02
<STATE> 3
<MEAN> 39
