~o
<STREAMINFO> 1 39
<VECSIZE> 39<NULLD><MFCC_D_A_0><DIAGC>
~h "proto"
<BEGINHMM>
<NUMSTATES> 5
<STATE> 2
<MEAN> 39
 -7.381522e+00 3.330936e+00 2.047153e+00 -3.046288e+00 -4.874629e+00 -2.964739e+00 -5.433913e-01 -3.441086e+00 -4.156183e+00 -7.898898e-01 -2.925678e+00 8.747759e-01 5.354753e+01 4.188114e-03 7.886445e-03 8.638212e-04 -3.319199e-05 4.583947e-03 2.944113e-03 -4.185917e-03 -2.407409e-03 4.110487e-03 -9.366490e-04 -2.847919e-03 -1.119324e-03 -3.485081e-03 -2.780182e-04 4.271456e-06 2.111308e-05 2.157945e-05 -1.623377e-04 6.947975e-04 6.310043e-04 2.858052e-04 2.109315e-04 1.335133e-04 3.614691e-04 -5.897314e-04 -3.645968e-04
<VARIANCE> 39
 3.956010e+01 5.039151e+01 5.962346e+01 1.002791e+02 6.064148e+01 5.444832e+01 5.840739e+01 4.790145e+01 4.806982e+01 5.399290e+01 6.658193e+01 3.143701e+01 1.841879e+02 1.501115e+00 1.479264e+00 1.419895e+00 2.272107e+00 1.880642e+00 2.105628e+00 2.280031e+00 1.936650e+00 2.018196e+00 1.963827e+00 1.997587e+00 1.559135e+00 2.571761e+00 2.319898e-01 2.408473e-01 2.210669e-01 3.404900e-01 3.085047e-01 3.687871e-01 3.892777e-01 3.406794e-01 3.576038e-01 3.468189e-01 3.398416e-01 2.856025e-01 3.133720e-01
<GCONST> 1.177766e+02
<STATE> 3
<MEAN> 39
 -7.381522e+00 3.330936e+00 2.047153e+00 -3.046288e+00 -4.874629e+00 -2.964739e+00 -5.433913e-01 -3.441086e+00 -4.156183e+00 -7.898898e-01 -2.925678e+00 8.747759e-01 5.354753e+01 4.188114e-03 7.886445e-03 8.638212e-04 -3.319199e-05 4.583947e-03 2.944113e-03 -4.185917e-03 -2.407409e-03 4.110487e-03 -9.366490e-04 -2.847919e-03 -1.119324e-03 -3.485081e-03 -2.780182e-04 4.271456e-06 2.111308e-05 2.157945e-05 -1.623377e-04 6.947975e-04 6.310043e-04 2.858052e-04 2.109315e-04 1.335133e-04 3.614691e-04 -5.897314e-04 -3.645968e-04
<VARIANCE> 39
 3.956010e+01 5.039151e+01 5.962346e+01 1.002791e+02 6.064148e+01 5.444832e+01 5.840739e+01 4.790145e+01 4.806982e+01 5.399290e+01 6.658193e+01 3.143701e+01 1.841879e+02 1.501115e+00 1.479264e+00 1.419895e+00 2.272107e+00 1.880642e+00 2.105628e+00 2.280031e+00 1.936650e+00 2.018196e+00 1.963827e+00 1.997587e+00 1.559135e+00 2.571761e+00 2.319898e-01 2.408473e-01 2.210669e-01 3.404900e-01 3.085047e-01 3.687871e-01 3.892777e-01 3.406794e-01 3.576038e-01 3.468189e-01 3.398416e-01 2.856025e-01 3.133720e-01
<GCONST> 1.177766e+02
<STATE> 4
<MEAN> 39
 -7.381522e+00 3.330936e+00 2.047153e+00 -3.046288e+00 -4.874629e+00 -2.964739e+00 -5.433913e-01 -3.441086e+00 -4.156183e+00 -7.898898e-01 -2.925678e+00 8.747759e-01 5.354753e+01 4.188114e-03 7.886445e-03 8.638212e-04 -3.319199e-05 4.583947e-03 2.944113e-03 -4.185917e-03 -2.407409e-03 4.110487e-03 -9.366490e-04 -2.847919e-03 -1.119324e-03 -3.485081e-03 -2.780182e-04 4.271456e-06 2.111308e-05 2.157945e-05 -1.623377e-04 6.947975e-04 6.310043e-04 2.858052e-04 2.109315e-04 1.335133e-04 3.614691e-04 -5.897314e-04 -3.645968e-04
<VARIANCE> 39
 3.956010e+01 5.039151e+01 5.962346e+01 1.002791e+02 6.064148e+01 5.444832e+01 5.840739e+01 4.790145e+01 4.806982e+01 5.399290e+01 6.658193e+01 3.143701e+01 1.841879e+02 1.501115e+00 1.479264e+00 1.419895e+00 2.272107e+00 1.880642e+00 2.105628e+00 2.280031e+00 1.936650e+00 2.018196e+00 1.963827e+00 1.997587e+00 1.559135e+00 2.571761e+00 2.319898e-01 2.408473e-01 2.210669e-01 3.404900e-01 3.085047e-01 3.687871e-01 3.892777e-01 3.406794e-01 3.576038e-01 3.468189e-01 3.398416e-01 2.856025e-01 3.133720e-01
<GCONST> 1.177766e+02
<TRANSP> 5
 0.000000e+00 1.000000e+00 0.000000e+00 0.000000e+00 0.000000e+00
 0.000000e+00 6.000000e-01 4.000000e-01 0.000000e+00 0.000000e+00
 0.000000e+00 0.000000e+00 6.000000e-01 4.000000e-01 0.000000e+00
 0.000000e+00 0.000000e+00 0.000000e+00 7.000000e-01 3.000000e-01
 0.000000e+00 0.000000e+00 0.000000e+00 0.000000e+00 0.000000e+00
<ENDHMM>
