~o
<STREAMINFO> 1 39
<VECSIZE> 39<NULLD><MFCC_D_A_0><DIAGC>
~h "b"
<BEGINHMM>
<NUMSTATES> 5
<STATE> 2
<MEAN> 39
 -6.304959e+00 5.500028e+00 4.342916e+00 -5.140393e-01 -3.045438e+00 -1.965912e+00 6.853534e-01 -2.842342e+00 -1.877409e+00 -2.412799e-01 -2.466232e+00 2.451464e+00 4.768151e+01 -4.210235e-01 6.545821e-02 7.381728e-02 -7.868753e-02 9.269840e-02 -3.693037e-02 8.852236e-02 3.876555e-01 8.866564e-02 2.221942e-01 4.553624e-01 3.921269e-03 4.797792e-01 -8.020521e-02 -1.284204e-01 -1.671609e-02 -4.270939e-02 -2.278675e-02 -1.143350e-01 -1.022640e-04 -3.568249e-02 -7.920450e-02 -3.995363e-02 -5.885095e-02 1.282097e-03 3.171801e-01
<VARIANCE> 39
 3.543826e+01 2.879307e+01 2.221405e+01 4.719804e+01 3.881866e+01 3.279712e+01 4.443390e+01 4.064051e+01 3.166635e+01 2.440485e+01 6.163541e+01 2.182316e+01 1.048699e+02 2.570446e+00 1.813817e+00 1.187777e+00 2.187062e+00 1.769639e+00 2.277679e+00 2.347925e+00 2.052444e+00 2.007024e+00 2.419046e+00 3.035565e+00 1.946519e+00 5.291487e+00 4.515159e-01 3.013587e-01 2.664754e-01 4.061032e-01 3.804047e-01 4.392741e-01 3.923234e-01 4.013524e-01 3.770567e-01 4.600047e-01 5.270001e-01 4.126378e-01 8.900807e-01
<GCONST> 1.179484e+02
<STATE> 3
<MEAN> 39
 -7.018565e+00 5.563985e+00 4.853530e+00 -2.500720e-01 -2.954071e+00 -2.633068e+00 1.112426e+00 -2.213046e+00 -2.300170e+00 6.891590e-02 -2.196319e+00 2.210068e+00 5.004902e+01 -5.580635e-01 -3.416854e-01 1.715166e-01 -3.620038e-01 -2.285372e-01 -2.348137e-01 8.369935e-02 1.741402e-01 -1.518666e-01 1.035256e-01 2.189263e-01 -4.475171e-03 1.439203e+00 2.454589e-02 -8.291417e-02 -2.945085e-02 -1.619206e-01 -1.723748e-01 -8.315879e-02 -9.188581e-02 -7.731375e-02 -6.717113e-02 -1.128522e-01 -1.657015e-01 -3.442236e-02 1.441929e-01
<VARIANCE> 39
 3.514079e+01 2.909436e+01 2.927824e+01 5.220904e+01 3.485808e+01 3.846859e+01 4.508804e+01 3.579653e+01 3.332076e+01 2.765065e+01 5.308776e+01 2.495218e+01 1.398963e+02 3.516729e+00 2.423100e+00 2.428240e+00 4.324503e+00 3.042510e+00 2.910155e+00 3.122219e+00 2.399050e+00 2.710506e+00 2.569559e+00 3.787595e+00 2.250447e+00 1.108029e+01 6.163922e-01 3.771327e-01 4.435323e-01 6.761782e-01 5.629465e-01 5.953698e-01 5.391718e-01 4.347661e-01 4.764673e-01 5.618076e-01 6.437348e-01 4.720915e-01 1.460749e+00
<GCONST> 1.273227e+02
<STATE> 4
<MEAN> 39
 -7.300597e+00 5.336364e+00 4.714770e+00 1.531674e+00 -2.226795e+00 -4.153926e-01 1.857127e+00 -1.413398e+00 -9.940283e-01 1.944779e+00 3.546095e-01 2.186309e+00 4.610083e+01 -1.928460e-01 2.199573e-02 1.869987e-01 -5.127288e-01 -3.635451e-01 -1.196258e-01 -3.340608e-01 -1.569300e-01 -2.766072e-01 -3.722364e-02 -3.112966e-01 -2.365733e-01 7.788253e-01 1.854424e-02 2.178913e-02 -6.224759e-02 -5.007583e-02 -7.994351e-03 -3.491337e-02 -6.660277e-02 -1.296732e-02 -4.372002e-02 -8.024137e-02 -8.277391e-02 -6.355366e-02 -4.439397e-02
<VARIANCE> 39
 1.962723e+01 2.468414e+01 3.720212e+01 4.377467e+01 3.193055e+01 2.971807e+01 4.458316e+01 3.636926e+01 2.818449e+01 2.571962e+01 3.623151e+01 2.575894e+01 1.391027e+02 2.161450e+00 2.077395e+00 3.179971e+00 3.967411e+00 2.592937e+00 2.895375e+00 3.478693e+00 2.534691e+00 2.564289e+00 2.248892e+00 2.744894e+00 2.076882e+00 7.358148e+00 4.093427e-01 3.754189e-01 6.502897e-01 5.722778e-01 4.601787e-01 5.671234e-01 5.919545e-01 4.805393e-01 4.211905e-01 4.358858e-01 4.405199e-01 3.728542e-01 1.120769e+00
<GCONST> 1.227308e+02
<TRANSP> 5
 0.000000e+00 1.000000e+00 0.000000e+00 0.000000e+00 0.000000e+00
 0.000000e+00 6.722337e-01 3.277663e-01 0.000000e+00 0.000000e+00
 0.000000e+00 0.000000e+00 6.765858e-01 3.234142e-01 0.000000e+00
 0.000000e+00 0.000000e+00 0.000000e+00 9.308717e-01 6.912836e-02
 0.000000e+00 0.000000e+00 0.000000e+00 0.000000e+00 0.000000e+00
<ENDHMM>
~h "d"
<BEGINHMM>
<NUMSTATES> 5
<STATE> 2
<MEAN> 39
 -7.443885e+00 4.739219e+00 4.704915e+00 -2.688797e+00 -4.724295e+00 -2.017016e+00 1.457452e+00 -3.495919e+00 -2.701373e+00 2.973363e-01 -1.865894e+00 4.819687e-01 4.995935e+01 -9.207056e-02 -1.960394e-01 -2.082169e-01 3.721698e-01 -1.376768e-01 -2.485831e-02 6.289139e-01 2.684724e-02 -2.029595e-01 1.711209e-01 2.426729e-01 -3.557014e-02 5.830153e-02 6.951369e-02 9.006511e-02 1.663303e-01 -1.830873e-04 -4.255392e-02 -4.257486e-02 -1.895752e-01 -6.738192e-02 -1.083867e-02 -3.726209e-02 -7.979912e-02 1.168071e-02 -1.049462e-01
<VARIANCE> 39
 2.281376e+01 3.432928e+01 4.063814e+01 5.792921e+01 3.022276e+01 2.619301e+01 6.902673e+01 3.712418e+01 2.906937e+01 4.036655e+01 4.667216e+01 2.748988e+01 8.117886e+01 2.317283e+00 2.283140e+00 3.273617e+00 2.227023e+00 2.218159e+00 2.495048e+00 5.187816e+00 2.583548e+00 2.538438e+00 2.901228e+00 2.792629e+00 2.978470e+00 7.520457e+00 4.658054e-01 3.813050e-01 6.161994e-01 3.696463e-01 3.931807e-01 4.645115e-01 8.784028e-01 4.776730e-01 4.605787e-01 5.467510e-01 4.713927e-01 5.609152e-01 1.295067e+00
<GCONST> 1.251133e+02
<STATE> 3
<MEAN> 39
 -6.941980e+00 4.496941e+00 5.251936e+00 -4.173062e-01 -4.735831e+00 -2.480657e+00 2.254297e+00 -2.990498e+00 -2.912911e+00 6.027255e-01 -9.261124e-01 9.713548e-01 4.739042e+01 1.261051e-01 -7.694379e-02 1.136748e-01 3.368479e-01 9.105118e-02 -5.031968e-02 -1.352455e-01 1.795097e-01 6.246867e-02 4.661797e-02 2.023547e-01 2.412128e-01 -6.343596e-01 1.620784e-03 1.510318e-02 -1.871647e-02 -2.965559e-02 4.889237e-02 1.388044e-02 -7.726093e-02 2.944891e-02 7.500114e-02 2.467902e-02 6.784633e-03 4.520846e-02 -5.545565e-02
<VARIANCE> 39
 2.081503e+01 3.131160e+01 2.989000e+01 4.561737e+01 2.589467e+01 2.997218e+01 5.342913e+01 3.771609e+01 2.804247e+01 3.400307e+01 3.677353e+01 2.587430e+01 6.110191e+01 2.190865e+00 2.010340e+00 2.392436e+00 2.174124e+00 2.247240e+00 2.599430e+00 3.957004e+00 2.043718e+00 2.305756e+00 2.514091e+00 2.088144e+00 2.160474e+00 3.886090e+00 4.816791e-01 4.013842e-01 4.766010e-01 3.685421e-01 3.960679e-01 5.534410e-01 7.645906e-01 3.883789e-01 4.180589e-01 4.749990e-01 3.592110e-01 4.087919e-01 7.261653e-01
<GCONST> 1.191068e+02
<STATE> 4
<MEAN> 39
 -6.372815e+00 5.424229e+00 4.261466e+00 1.825389e+00 -2.368206e+00 -2.099307e-01 1.878499e+00 -1.014641e+00 -9.265566e-01 2.970818e+00 1.569590e+00 2.282035e+00 4.192779e+01 -1.471552e-02 7.582838e-02 2.269136e-02 -4.924921e-02 2.042517e-03 4.612904e-02 -1.588182e-01 -3.062430e-02 5.051078e-03 6.526709e-02 -3.665622e-02 -5.895250e-03 8.594896e-02 -1.700697e-03 6.456397e-03 5.275053e-03 -4.205105e-02 -2.261875e-02 -9.926138e-03 -1.966034e-02 -2.080853e-02 -3.394309e-02 -2.825884e-02 -3.465908e-02 -1.748828e-02 5.565694e-02
<VARIANCE> 39
 1.284134e+01 1.815314e+01 1.509641e+01 1.925804e+01 2.082141e+01 1.859711e+01 2.564296e+01 2.592166e+01 2.294427e+01 2.506546e+01 2.618665e+01 2.099538e+01 3.969281e+01 1.223519e+00 1.156378e+00 1.310723e+00 1.536542e+00 1.911143e+00 1.582989e+00 2.548748e+00 1.523447e+00 1.838794e+00 2.066227e+00 1.850574e+00 1.622193e+00 2.417818e+00 2.379159e-01 2.170627e-01 2.467995e-01 2.504375e-01 3.636979e-01 3.014741e-01 4.715650e-01 2.858360e-01 3.301613e-01 3.974966e-01 3.633071e-01 3.104802e-01 3.695290e-01
<GCONST> 1.032623e+02
<TRANSP> 5
 0.000000e+00 1.000000e+00 0.000000e+00 0.000000e+00 0.000000e+00
 0.000000e+00 7.171234e-01 2.828766e-01 0.000000e+00 0.000000e+00
 0.000000e+00 0.000000e+00 6.955273e-01 3.044727e-01 0.000000e+00
 0.000000e+00 0.000000e+00 0.000000e+00 9.486198e-01 5.138019e-02
 0.000000e+00 0.000000e+00 0.000000e+00 0.000000e+00 0.000000e+00
<ENDHMM>
~h "f"
<BEGINHMM>
<NUMSTATES> 5
<STATE> 2
<MEAN> 39
 -1.035419e+01 3.056071e+00 -1.633673e+00 4.514592e+00 -2.089806e-01 9.532690e-02 2.178807e+00 -8.441544e-02 -4.686706e-01 2.188617e+00 1.241280e+00 3.067411e+00 4.921333e+01 -2.612198e-01 -4.224812e-03 -1.202061e-01 2.331375e-02 -6.280303e-02 3.570357e-02 5.813901e-02 2.248349e-02 -4.569352e-02 5.250435e-02 -8.348299e-02 -4.321630e-02 4.906097e-01 5.612931e-02 -1.615102e-03 -2.504130e-03 -6.503184e-02 -2.161333e-02 -7.386968e-03 -1.908850e-02 -2.336079e-02 -1.763007e-02 -2.748871e-02 -1.816872e-02 -2.007440e-02 2.978150e-02
<VARIANCE> 39
 4.515834e+01 1.755006e+01 1.865925e+01 2.408337e+01 2.007501e+01 2.286837e+01 2.083781e+01 2.444427e+01 2.124010e+01 2.166759e+01 2.298953e+01 1.817517e+01 8.806292e+01 2.423732e+00 1.402153e+00 1.352986e+00 2.192953e+00 1.631584e+00 1.825756e+00 1.701892e+00 1.928299e+00 1.729820e+00 1.985379e+00 1.755879e+00 1.686225e+00 2.192575e+00 3.968630e-01 2.648257e-01 2.543552e-01 4.343348e-01 3.183942e-01 3.512877e-01 3.341941e-01 3.846056e-01 3.423644e-01 3.846461e-01 3.386572e-01 3.450063e-01 2.576718e-01
<GCONST> 1.069344e+02
<STATE> 3
<MEAN> 39
 -1.376326e+01 2.530047e+00 -4.498624e+00 2.134872e+00 -3.108952e+00 -1.940240e-01 2.763404e+00 -5.000474e-01 -3.039623e+00 1.611761e+00 -1.412246e+00 1.587631e+00 6.192539e+01 1.379712e+00 -3.340292e-01 -6.849056e-01 -1.763703e+00 -3.986754e-01 -4.682799e-02 -3.390107e-01 -4.307396e-01 -3.789761e-01 -6.731653e-01 -4.899503e-01 -4.705776e-01 1.111924e+00 1.702773e-01 -1.152692e-01 -1.366433e-01 -2.911142e-01 -6.855326e-02 2.981193e-03 -7.652652e-02 -9.166291e-02 -5.762114e-02 -1.233715e-01 -8.028449e-02 -8.453193e-02 4.942945e-02
<VARIANCE> 39
 6.671568e+01 2.109365e+01 2.363112e+01 6.889957e+01 1.997299e+01 1.904839e+01 1.873955e+01 2.022270e+01 1.867885e+01 2.215632e+01 1.913890e+01 1.836320e+01 6.242529e+01 6.520016e+00 2.081556e+00 2.268319e+00 7.987363e+00 2.115576e+00 1.887593e+00 2.034503e+00 2.103282e+00 1.775602e+00 2.372442e+00 1.721418e+00 2.010409e+00 1.879073e+00 8.497279e-01 3.229003e-01 3.698311e-01 1.134587e+00 3.731850e-01 3.289542e-01 3.515191e-01 3.462562e-01 3.409500e-01 3.743577e-01 2.885573e-01 3.344611e-01 2.228975e-01
<GCONST> 1.136128e+02
<STATE> 4
<MEAN> 39
 -2.630129e+00 -2.828115e+00 -1.031127e+01 -1.335572e+01 -6.438765e+00 -2.358778e-01 -8.886791e-01 -5.375105e+00 -6.218898e+00 -4.746212e+00 -5.972967e+00 -3.231440e+00 7.033281e+01 8.504841e-01 -8.372203e-01 -9.205887e-01 -1.577836e+00 -3.360113e-01 -2.219903e-01 -6.006365e-01 -6.660026e-01 -5.012645e-01 -8.183201e-01 -5.845054e-01 -5.762755e-01 7.086958e-01 -5.140164e-01 1.695284e-01 2.614229e-01 7.025421e-01 1.367080e-01 -5.550163e-02 9.451038e-02 1.173123e-01 7.130852e-02 2.141063e-01 1.243645e-01 1.363189e-01 -3.087406e-01
<VARIANCE> 39
 2.936347e+01 6.410586e+01 4.594238e+01 8.287792e+01 4.932219e+01 4.834510e+01 3.219545e+01 3.347711e+01 2.129677e+01 2.753417e+01 2.359048e+01 2.959523e+01 8.285389e+01 3.696986e+00 2.653512e+00 1.801106e+00 8.918494e+00 2.682952e+00 2.165540e+00 1.971473e+00 1.893721e+00 1.903156e+00 2.043599e+00 1.545636e+00 1.768732e+00 1.725966e+00 6.537387e-01 3.349430e-01 3.003641e-01 1.159889e+00 3.372861e-01 3.360093e-01 3.529960e-01 2.904171e-01 3.195859e-01 3.548016e-01 2.711022e-01 3.367110e-01 2.035046e-01
<GCONST> 1.174165e+02
<TRANSP> 5
 0.000000e+00 1.000000e+00 0.000000e+00 0.000000e+00 0.000000e+00
 0.000000e+00 9.435499e-01 5.645015e-02 0.000000e+00 0.000000e+00
 0.000000e+00 0.000000e+00 8.607947e-01 1.392053e-01 0.000000e+00
 0.000000e+00 0.000000e+00 0.000000e+00 6.667234e-01 3.332766e-01
 0.000000e+00 0.000000e+00 0.000000e+00 0.000000e+00 0.000000e+00
<ENDHMM>
~h "k"
<BEGINHMM>
<NUMSTATES> 5
<STATE> 2
<MEAN> 39
 -1.226117e+01 2.483634e+00 1.453277e+00 2.735779e+00 -6.560347e+00 -2.301028e+00 4.008009e+00 -1.713921e+00 -1.703332e+00 3.013231e+00 9.400728e-01 3.472962e+00 5.172686e+01 -3.540402e-01 -1.196929e-01 -1.435287e-01 3.777862e-01 7.102769e-04 -1.157088e-01 3.486961e-01 1.974918e-01 6.757434e-02 2.335282e-02 2.094449e-01 -1.898461e-02 3.613876e-01 -9.853473e-03 5.101573e-02 6.962485e-03 -5.040698e-02 -1.401624e-02 1.229287e-02 -5.644831e-02 -2.593950e-02 -2.163797e-02 -2.733628e-02 -4.306534e-02 -1.928082e-02 4.578735e-02
<VARIANCE> 39
 4.572524e+01 3.740074e+01 5.476888e+01 6.334272e+01 4.199222e+01 2.781868e+01 4.885376e+01 3.610377e+01 2.544588e+01 2.633191e+01 3.384370e+01 1.851953e+01 1.156672e+02 3.436024e+00 4.115634e+00 3.460257e+00 4.280349e+00 2.703306e+00 3.333352e+00 4.734340e+00 2.416171e+00 2.430880e+00 2.667441e+00 2.810036e+00 1.930015e+00 6.691733e+00 5.137531e-01 8.222498e-01 5.243504e-01 6.631169e-01 5.451171e-01 6.692433e-01 9.073721e-01 4.377267e-01 4.852930e-01 5.174598e-01 5.018455e-01 3.922341e-01 9.954760e-01
<GCONST> 1.280897e+02
<STATE> 3
<MEAN> 39
 -1.337586e+01 2.835427e+00 9.918981e-01 3.420899e+00 -5.532990e+00 -2.235236e+00 4.592495e+00 -9.429779e-01 -1.583570e+00 2.138721e+00 1.563134e+00 3.184257e+00 5.287540e+01 6.209202e-02 1.946680e-01 1.194662e-01 -9.835827e-02 1.087792e-01 7.866655e-02 -1.299060e-01 -6.230027e-03 4.029227e-02 -1.072182e-01 3.250888e-03 -4.371412e-02 -7.981081e-02 5.838703e-02 3.726919e-03 -3.053215e-03 -3.955830e-02 7.164560e-03 2.742357e-02 -3.340088e-02 -2.470993e-02 -2.417951e-02 -5.891124e-03 -2.456399e-02 5.845292e-03 -8.068741e-02
<VARIANCE> 39
 4.493841e+01 2.534333e+01 4.293032e+01 5.419590e+01 3.758344e+01 2.611452e+01 3.152082e+01 2.981120e+01 2.603725e+01 2.478506e+01 2.895483e+01 1.936977e+01 1.357335e+02 2.486928e+00 2.874606e+00 2.101921e+00 2.605393e+00 2.459978e+00 2.643419e+00 3.253075e+00 2.156745e+00 2.244579e+00 2.417846e+00 2.272619e+00 1.804936e+00 4.245230e+00 3.864141e-01 5.859497e-01 3.779795e-01 4.692666e-01 4.638420e-01 5.433840e-01 6.665133e-01 4.321314e-01 4.419090e-01 4.701679e-01 4.517671e-01 3.524269e-01 6.294720e-01
<GCONST> 1.202387e+02
<STATE> 4
<MEAN> 39
 -1.010004e+01 4.261804e+00 2.788681e+00 2.399667e+00 -3.152523e+00 -8.460963e-01 3.135918e+00 -1.189751e+00 -1.784496e-01 2.683432e+00 2.073362e+00 3.464669e+00 4.714983e+01 3.223760e-02 8.591148e-02 6.213488e-02 -1.760132e-01 -4.468016e-02 6.180991e-02 -9.390360e-02 -9.364849e-02 -3.552319e-02 -2.024603e-02 -1.118764e-01 -4.966788e-02 1.138340e-01 3.638162e-03 -2.661963e-02 -5.330297e-03 -9.971601e-03 -3.434032e-02 -2.144605e-02 4.021261e-03 -1.367388e-02 -3.287736e-02 -4.793269e-03 -2.297645e-02 -8.097212e-03 2.896449e-02
<VARIANCE> 39
 3.593184e+01 1.890601e+01 2.317609e+01 4.232883e+01 2.871004e+01 2.524971e+01 2.662452e+01 2.622575e+01 2.536068e+01 2.043674e+01 2.719323e+01 1.790737e+01 1.431854e+02 1.481188e+00 1.726519e+00 1.204865e+00 1.663475e+00 1.932245e+00 2.063039e+00 2.263447e+00 2.035511e+00 1.936491e+00 1.793541e+00 1.974861e+00 1.654553e+00 2.988856e+00 2.593641e-01 3.341041e-01 2.250154e-01 2.954515e-01 3.539338e-01 4.100162e-01 4.437273e-01 4.199902e-01 3.789254e-01 3.506902e-01 4.022804e-01 3.358194e-01 4.255842e-01
<GCONST> 1.100518e+02
<TRANSP> 5
 0.000000e+00 1.000000e+00 0.000000e+00 0.000000e+00 0.000000e+00
 0.000000e+00 8.530264e-01 1.469736e-01 0.000000e+00 0.000000e+00
 0.000000e+00 0.000000e+00 7.843813e-01 2.156187e-01 0.000000e+00
 0.000000e+00 0.000000e+00 0.000000e+00 9.073384e-01 9.266158e-02
 0.000000e+00 0.000000e+00 0.000000e+00 0.000000e+00 0.000000e+00
<ENDHMM>
~h "l"
<BEGINHMM>
<NUMSTATES> 5
<STATE> 2
<MEAN> 39
 -4.267353e+00 -1.347660e+00 3.592694e+00 -8.390471e+00 -1.191261e+01 -6.053706e+00 3.442683e+00 -4.462478e+00 -3.115486e+00 -9.525830e-01 -7.710089e+00 -2.163117e+00 6.210028e+01 -4.572545e-02 -1.242628e-01 4.432903e-01 -5.630602e-01 -1.042914e+00 -1.216396e-01 4.044968e-01 -5.592520e-01 -7.320213e-01 -3.497723e-03 -6.479983e-01 -3.378693e-01 1.499337e+00 -8.862180e-02 -1.476941e-02 -1.112127e-02 -1.061109e-01 -1.238290e-01 1.960372e-02 -1.041959e-02 -6.893149e-02 -6.941914e-02 -5.515960e-02 -4.503489e-02 -9.750114e-02 1.766024e-01
<VARIANCE> 39
 1.901319e+01 2.580929e+01 2.601010e+01 9.717455e+01 1.250548e+02 4.279392e+01 4.693731e+01 2.646268e+01 3.035696e+01 3.691439e+01 6.812675e+01 4.414199e+01 2.117066e+02 1.096260e+00 1.956671e+00 2.992709e+00 9.214554e+00 7.102782e+00 2.666628e+00 3.900176e+00 2.703130e+00 2.657057e+00 2.845756e+00 5.090810e+00 2.808294e+00 1.352973e+01 1.577471e-01 2.684563e-01 3.676674e-01 1.346215e+00 1.061520e+00 4.082811e-01 8.147418e-01 5.613618e-01 4.153298e-01 4.543283e-01 8.525918e-01 4.324158e-01 2.072240e+00
<GCONST> 1.310479e+02
<STATE> 3
<MEAN> 39
 -3.831857e+00 -1.934348e+00 4.177780e+00 -9.598244e+00 -1.508379e+01 -6.518301e+00 4.277357e+00 -6.667665e+00 -5.689701e+00 -3.429490e+00 -9.996622e+00 -4.324817e+00 6.939552e+01 -3.434750e-01 1.813139e-01 4.657982e-01 -1.497231e-01 -4.099540e-01 4.128576e-01 1.875963e-02 -8.762516e-01 -5.951227e-01 1.065721e-01 -5.648264e-02 -1.673586e-01 5.569490e-01 -8.429041e-02 9.816729e-03 -2.579933e-02 -1.454121e-01 7.251343e-02 2.927437e-02 -1.341639e-01 -8.486298e-02 7.401734e-02 -1.042413e-02 -2.252741e-02 4.283002e-04 -1.072965e-01
<VARIANCE> 39
 1.624029e+01 2.952785e+01 5.544445e+01 8.395597e+01 1.087997e+02 3.472620e+01 4.170824e+01 3.596613e+01 3.727760e+01 4.343668e+01 4.046421e+01 3.829046e+01 8.119205e+01 1.305247e+00 1.269420e+00 3.856529e+00 4.300701e+00 5.179390e+00 1.863520e+00 3.017562e+00 4.023105e+00 3.396217e+00 2.341245e+00 3.724558e+00 2.051903e+00 5.056201e+00 1.159571e-01 1.607092e-01 4.088117e-01 7.035723e-01 6.380460e-01 3.311272e-01 5.315033e-01 6.971729e-01 4.656662e-01 3.521314e-01 7.132328e-01 3.334826e-01 7.237983e-01
<GCONST> 1.234394e+02
<STATE> 4
<MEAN> 39
 -3.117304e+00 1.204930e+00 -9.575272e-01 -5.849413e+00 -2.532143e+00 -5.546182e-01 4.825883e+00 -6.466835e+00 -2.117333e+00 -2.149017e+00 -3.566785e+00 -4.765586e-01 5.476628e+01 -9.099942e-02 1.522356e-01 1.366031e-01 8.082445e-02 8.126500e-02 1.259891e-01 -1.046126e-01 -4.894681e-02 -4.498275e-02 9.818074e-02 4.560855e-02 9.227138e-02 -2.616591e-01 -1.136138e-03 3.636270e-03 8.202466e-04 1.210688e-03 9.195548e-03 -1.323715e-02 -1.212373e-02 2.189009e-02 1.356719e-02 -2.029189e-03 3.790703e-04 1.082149e-02 -1.944666e-02
<VARIANCE> 39
 1.921051e+01 3.419928e+01 4.844946e+01 7.837083e+01 1.044043e+02 3.247091e+01 3.606239e+01 4.664779e+01 3.309405e+01 5.300528e+01 5.202166e+01 3.849768e+01 2.126030e+02 7.114968e-01 9.029369e-01 1.211558e+00 1.793238e+00 2.617934e+00 1.513696e+00 1.923076e+00 2.186534e+00 2.014808e+00 1.797625e+00 2.173490e+00 1.800582e+00 1.841303e+00 1.013873e-01 1.164517e-01 1.920393e-01 2.631226e-01 3.615433e-01 2.719375e-01 3.272477e-01 3.282818e-01 3.318499e-01 3.181767e-01 3.824587e-01 3.077025e-01 2.059286e-01
<GCONST> 1.108603e+02
<TRANSP> 5
 0.000000e+00 1.000000e+00 0.000000e+00 0.000000e+00 0.000000e+00
 0.000000e+00 8.520842e-01 1.479159e-01 0.000000e+00 0.000000e+00
 0.000000e+00 0.000000e+00 7.489946e-01 2.510054e-01 0.000000e+00
 0.000000e+00 0.000000e+00 0.000000e+00 9.491913e-01 5.080865e-02
 0.000000e+00 0.000000e+00 0.000000e+00 0.000000e+00 0.000000e+00
<ENDHMM>
~h "m"
<BEGINHMM>
<NUMSTATES> 5
<STATE> 2
<MEAN> 39
 -4.330355e+00 -3.125031e+00 -1.063039e-01 -1.198334e+00 -3.895534e+00 -9.916143e-01 2.565213e+00 -3.784117e+00 -5.891549e+00 -6.763959e+00 -2.202478e+00 1.401618e+00 5.535094e+01 7.923454e-02 1.375647e-01 2.727981e-02 9.823507e-02 8.426615e-02 -5.908386e-02 -8.642862e-02 -1.173254e-01 6.780772e-02 1.468293e-02 3.779521e-03 8.454902e-02 -7.625181e-02 1.611047e-04 6.199202e-03 8.983960e-03 -6.952444e-04 -9.517855e-03 5.808311e-03 1.459681e-02 3.054158e-03 7.102627e-04 -8.831623e-03 -1.898417e-02 -1.683990e-03 -7.589605e-03
<VARIANCE> 39
 1.786047e+01 8.769137e+01 9.858909e+00 3.129946e+01 3.762077e+01 4.419602e+01 4.261308e+01 6.118740e+01 6.160406e+01 5.974306e+01 4.435030e+01 3.303193e+01 2.327872e+02 4.976556e-01 1.813639e+00 4.656253e-01 1.042764e+00 1.266026e+00 1.529728e+00 1.635391e+00 1.925910e+00 1.850301e+00 1.777794e+00 1.662925e+00 1.677195e+00 3.329019e+00 8.846139e-02 2.230538e-01 7.939185e-02 1.591907e-01 2.126954e-01 2.676896e-01 2.870297e-01 3.186229e-01 2.422468e-01 2.893334e-01 2.734256e-01 3.034852e-01 3.957239e-01
<GCONST> 1.057723e+02
<STATE> 3
<MEAN> 39
 8.762589e-01 4.731299e+00 1.743408e+00 3.112317e+00 1.674461e-02 -5.568447e+00 -4.528756e+00 -1.077986e+01 -2.903763e+00 -9.177101e+00 -4.556694e+00 4.913897e-01 5.178277e+01 -1.327848e-01 4.977985e-01 2.446847e-01 3.364372e-01 1.176597e-01 5.664670e-01 2.115206e-01 2.974190e-01 -1.479483e-01 2.476196e-01 -2.510391e-01 1.549878e-01 -9.391760e-01 -3.326814e-02 -6.981141e-02 8.938584e-03 -2.467819e-02 -8.642051e-03 3.784839e-02 4.825900e-02 1.220385e-01 6.816329e-03 1.952218e-02 1.504034e-02 -7.403759e-02 3.001488e-03
<VARIANCE> 39
 7.744723e+00 1.534910e+01 1.101062e+01 9.488477e+00 1.562345e+01 2.830007e+01 2.060038e+01 3.282336e+01 1.864552e+01 1.937024e+01 2.329275e+01 2.105060e+01 3.254030e+01 3.796324e-01 5.072975e-01 5.602430e-01 6.486452e-01 6.962170e-01 1.173336e+00 1.480168e+00 1.795996e+00 1.426725e+00 1.506467e+00 1.446178e+00 1.669727e+00 2.585573e-01 6.396674e-02 6.864426e-02 9.616346e-02 1.206191e-01 1.319330e-01 2.167051e-01 2.820919e-01 2.173519e-01 2.419274e-01 2.587627e-01 2.275783e-01 2.822425e-01 3.774341e-02
<GCONST> 8.266466e+01
<STATE> 4
<MEAN> 39
 -4.614450e+00 5.093472e+00 1.754713e+00 3.571051e+00 4.316146e-01 1.011514e+00 1.167349e+00 -6.429813e-01 -8.373756e-01 -9.765147e-01 5.215913e-01 3.553838e+00 4.110764e+01 -1.657508e-01 2.549235e-03 1.990547e-02 1.914449e-03 1.161359e-02 1.817760e-01 1.777674e-01 2.037135e-01 5.434188e-02 2.362689e-01 1.523226e-01 4.056168e-02 -2.517860e-01 2.309359e-03 -1.516392e-02 -1.222736e-02 -1.720448e-02 -1.095759e-02 -3.374459e-02 -9.465184e-03 -8.956152e-03 9.574768e-03 6.169151e-03 1.135488e-02 5.232127e-03 2.838999e-02
<VARIANCE> 39
 1.337175e+01 1.201779e+01 1.001329e+01 1.069667e+01 1.379919e+01 2.027513e+01 2.352901e+01 4.045124e+01 2.096690e+01 3.846073e+01 3.086618e+01 1.989722e+01 2.328681e+01 3.530870e-01 5.854636e-01 6.824184e-01 8.288434e-01 9.912782e-01 1.353743e+00 1.380950e+00 1.585972e+00 1.746717e+00 1.791991e+00 1.606590e+00 1.496945e+00 4.697770e-01 6.327842e-02 1.061854e-01 1.311142e-01 1.464202e-01 1.863580e-01 2.678681e-01 2.769742e-01 2.949128e-01 3.606295e-01 3.269058e-01 3.205923e-01 2.942937e-01 7.024720e-02
<GCONST> 8.876613e+01
<TRANSP> 5
 0.000000e+00 1.000000e+00 0.000000e+00 0.000000e+00 0.000000e+00
 0.000000e+00 9.703910e-01 2.960900e-02 0.000000e+00 0.000000e+00
 0.000000e+00 0.000000e+00 8.348469e-01 1.651531e-01 0.000000e+00
 0.000000e+00 0.000000e+00 0.000000e+00 9.672661e-01 3.273395e-02
 0.000000e+00 0.000000e+00 0.000000e+00 0.000000e+00 0.000000e+00
<ENDHMM>
~h "n"
<BEGINHMM>
<NUMSTATES> 5
<STATE> 2
<MEAN> 39
 -4.357563e+00 2.877607e-01 1.736240e+00 -5.906231e+00 -4.882266e+00 -8.478403e+00 -3.602000e+00 -3.657580e+00 -1.170413e+01 -1.193725e+01 -1.098493e+01 -1.548954e+00 6.030520e+01 1.232133e-01 1.361742e-01 8.601901e-02 3.188444e-01 1.522185e-01 -8.817653e-02 -7.378834e-02 -3.215333e-03 -1.346218e-01 -1.851069e-01 8.564873e-02 3.251599e-02 -3.938370e-01 -1.642502e-02 -8.770324e-03 -1.156371e-02 2.380812e-02 2.187183e-02 3.242761e-02 1.617717e-02 8.846698e-03 5.295371e-02 7.917831e-02 3.784161e-02 6.681364e-03 -2.598774e-02
<VARIANCE> 39
 1.418447e+01 4.556126e+01 3.211608e+01 5.461302e+01 3.710891e+01 9.365243e+01 6.094283e+01 4.498105e+01 7.791055e+01 7.204932e+01 8.171287e+01 3.459006e+01 1.550553e+02 6.870656e-01 1.096643e+00 9.011546e-01 1.415663e+00 1.608246e+00 2.050644e+00 2.088528e+00 2.110118e+00 2.826563e+00 2.494416e+00 2.234820e+00 1.521144e+00 2.030850e+00 1.136962e-01 1.460888e-01 1.319302e-01 1.987441e-01 2.565215e-01 3.062041e-01 3.115327e-01 3.614106e-01 4.275362e-01 3.309721e-01 3.035796e-01 2.674302e-01 1.508297e-01
<GCONST> 1.110082e+02
<STATE> 3
<MEAN> 39
 -3.982418e+00 2.058231e+00 3.354204e+00 -1.870415e+00 -3.555782e+00 -6.217795e+00 -2.629979e+00 -4.022120e+00 -8.638228e+00 -8.943441e+00 -7.003209e+00 -4.160524e-01 5.342150e+01 -3.137789e-02 -1.165978e-01 -1.318944e-01 2.088751e-01 1.558134e-01 2.061121e-01 1.694194e-01 1.792948e-01 2.567822e-01 2.897537e-01 3.333118e-01 1.357893e-01 -2.830545e-01 -3.954387e-02 -3.707223e-02 -1.956439e-02 -1.793725e-02 2.637866e-02 5.140658e-02 3.406741e-02 1.093701e-02 1.314039e-02 5.455216e-02 2.927068e-02 1.436701e-02 2.043716e-02
<VARIANCE> 39
 1.588437e+01 4.280049e+01 2.304446e+01 3.627551e+01 3.080363e+01 7.647282e+01 5.602821e+01 3.797353e+01 6.990207e+01 8.526206e+01 7.892863e+01 3.135241e+01 1.356500e+02 7.899476e-01 1.610081e+00 1.096137e+00 1.336909e+00 1.708322e+00 2.396350e+00 2.217476e+00 2.334981e+00 3.345893e+00 2.778273e+00 2.569787e+00 1.698361e+00 2.522094e+00 1.351642e-01 2.074889e-01 1.573174e-01 2.115723e-01 2.916774e-01 3.830249e-01 3.707236e-01 4.216994e-01 5.811930e-01 4.176654e-01 3.744335e-01 3.050785e-01 1.802852e-01
<GCONST> 1.137537e+02
<STATE> 4
<MEAN> 39
 -5.803844e+00 2.179819e+00 3.128710e+00 -1.039264e+00 -3.922110e+00 -3.900731e+00 -6.523882e-01 -3.421220e+00 -5.243026e+00 -3.759147e+00 -2.997544e+00 9.469036e-01 5.157092e+01 -9.259401e-02 -9.986480e-02 -1.456942e-01 7.579590e-02 1.560218e-01 1.296182e-01 1.307025e-01 1.440418e-01 1.507688e-01 2.306281e-01 1.842692e-01 1.049163e-01 -4.806239e-02 -1.412376e-02 -5.554703e-03 -3.802249e-03 -1.766618e-02 2.245614e-03 -1.603596e-03 7.744079e-03 -1.562817e-02 -8.274801e-03 -1.990711e-03 -3.893241e-03 -2.153829e-04 2.651030e-02
<VARIANCE> 39
 2.254715e+01 4.330713e+01 2.759192e+01 4.760825e+01 3.938538e+01 5.670477e+01 5.168574e+01 3.656194e+01 4.798812e+01 7.688799e+01 6.418079e+01 2.883067e+01 1.478970e+02 9.914500e-01 1.744771e+00 1.182808e+00 1.491546e+00 1.774450e+00 2.185532e+00 2.256873e+00 2.101163e+00 2.638973e+00 2.444808e+00 2.185571e+00 1.637908e+00 1.869535e+00 1.662112e-01 2.495003e-01 1.821673e-01 2.498917e-01 2.872057e-01 3.607584e-01 3.972255e-01 3.831698e-01 4.840307e-01 3.971021e-01 3.450055e-01 3.038163e-01 2.130938e-01
<GCONST> 1.136503e+02
<TRANSP> 5
 0.000000e+00 1.000000e+00 0.000000e+00 0.000000e+00 0.000000e+00
 0.000000e+00 8.829837e-01 1.170163e-01 0.000000e+00 0.000000e+00
 0.000000e+00 0.000000e+00 8.208553e-01 1.791447e-01 0.000000e+00
 0.000000e+00 0.000000e+00 0.000000e+00 8.741672e-01 1.258327e-01
 0.000000e+00 0.000000e+00 0.000000e+00 0.000000e+00 0.000000e+00
<ENDHMM>
~h "p"
<BEGINHMM>
<NUMSTATES> 5
<STATE> 2
<MEAN> 39
 -8.845620e+00 6.383108e+00 5.533939e+00 -1.197795e+00 -2.979611e+00 2.330160e-01 2.441978e-01 -3.272601e+00 -1.404920e+00 3.173077e+00 -1.185988e+00 1.363489e+00 5.263792e+01 -3.051782e-01 1.702672e-01 1.431763e-01 -4.631496e-01 -1.352470e-01 -2.294475e-02 -2.513081e-01 -1.721909e-01 -3.131636e-01 -4.531532e-02 -4.433660e-01 -2.436049e-01 9.257907e-01 -3.625763e-04 1.596738e-02 -1.437825e-02 -2.016939e-02 2.648589e-04 8.515996e-04 -9.873230e-03 -1.859313e-02 -2.715309e-02 -1.999728e-02 -3.170956e-02 -1.815462e-02 1.989692e-02
<VARIANCE> 39
 3.897283e+01 2.115617e+01 2.018353e+01 6.137678e+01 2.825851e+01 1.606993e+01 4.357168e+01 2.617215e+01 3.920470e+01 1.959629e+01 4.825439e+01 2.233673e+01 2.504093e+02 1.917091e+00 1.368851e+00 2.878612e+00 1.951623e+00 2.888726e+00 1.609402e+00 2.921566e+00 2.370318e+00 2.349475e+00 1.679957e+00 2.752177e+00 1.343530e+00 1.076934e+01 3.307240e-01 2.526233e-01 6.245102e-01 3.588499e-01 6.073668e-01 3.155016e-01 5.156482e-01 5.169281e-01 4.237621e-01 3.223167e-01 5.603320e-01 2.616430e-01 1.763864e+00
<GCONST> 1.187456e+02
<STATE> 3
<MEAN> 39
 -1.281301e+01 1.016312e+01 7.554065e+00 -1.087539e+01 -6.534191e+00 -4.724373e-01 -6.071542e+00 -6.528154e+00 -7.928617e+00 5.196442e-01 -9.593064e+00 -3.232767e+00 6.238165e+01 -1.831407e-02 2.202589e-01 1.270083e-01 -3.719698e-01 -3.444098e-02 1.441934e-01 -2.963158e-01 -1.656079e-01 -3.585256e-01 -1.233292e-01 -5.537021e-01 -3.005370e-01 -1.119731e-01 2.170837e-02 -3.230780e-02 -2.375954e-02 7.134283e-02 7.176069e-02 -1.382719e-02 1.351886e-01 2.459783e-02 1.072185e-01 -1.533399e-02 7.088007e-02 3.620236e-02 -2.637815e-02
<VARIANCE> 39
 3.342823e+01 1.620578e+01 1.373929e+01 1.027878e+02 3.554255e+01 1.915976e+01 6.952496e+01 2.311440e+01 7.542024e+01 2.040307e+01 1.004932e+02 3.412668e+01 1.944839e+02 1.553842e+00 7.547725e-01 1.527282e+00 1.740777e+00 2.709095e+00 1.377408e+00 3.101876e+00 1.916656e+00 2.948250e+00 1.523139e+00 2.702370e+00 1.147729e+00 3.041684e+00 2.614804e-01 1.406593e-01 2.820216e-01 2.770794e-01 4.860609e-01 2.526261e-01 4.717286e-01 4.070412e-01 4.536964e-01 2.804645e-01 4.973480e-01 1.667413e-01 5.138770e-01
<GCONST> 1.130461e+02
<STATE> 4
<MEAN> 39
 -1.088618e+01 1.201656e+01 8.485174e+00 -9.633722e+00 -3.806243e+00 -8.026707e-01 -4.596469e+00 -5.877975e+00 -4.970260e+00 9.570912e-02 -7.411343e+00 -1.426941e+00 5.588296e+01 1.101353e-01 8.667279e-02 4.061692e-02 1.077892e-01 1.097130e-01 -4.693755e-02 -9.268839e-04 -3.114375e-02 1.216614e-01 -6.082517e-02 8.725309e-02 7.709490e-02 -1.867954e-01 2.305413e-03 -1.259589e-02 -2.313765e-03 2.622069e-02 -1.261806e-03 -1.785131e-02 -8.795718e-03 7.208521e-03 -7.012473e-03 -1.220812e-02 1.081421e-02 -1.187741e-03 -1.117008e-02
<VARIANCE> 39
 2.330948e+01 2.593992e+01 2.246640e+01 1.115899e+02 2.390622e+01 1.860968e+01 4.700862e+01 2.954663e+01 3.671415e+01 1.947230e+01 7.827595e+01 3.235228e+01 1.716665e+02 7.244215e-01 6.801639e-01 9.163045e-01 1.283556e+00 1.158403e+00 1.098783e+00 1.342652e+00 1.249345e+00 1.394253e+00 9.898246e-01 1.361325e+00 9.773622e-01 2.779227e+00 1.201555e-01 1.382957e-01 1.945799e-01 1.913570e-01 2.231941e-01 2.272698e-01 2.065124e-01 2.407353e-01 2.448663e-01 1.727779e-01 2.402899e-01 1.594462e-01 4.077375e-01
<GCONST> 9.994773e+01
<TRANSP> 5
 0.000000e+00 1.000000e+00 0.000000e+00 0.000000e+00 0.000000e+00
 0.000000e+00 9.443005e-01 5.569955e-02 0.000000e+00 0.000000e+00
 0.000000e+00 0.000000e+00 8.417628e-01 1.582372e-01 0.000000e+00
 0.000000e+00 0.000000e+00 0.000000e+00 9.766741e-01 2.332588e-02
 0.000000e+00 0.000000e+00 0.000000e+00 0.000000e+00 0.000000e+00
<ENDHMM>
~h "r"
<BEGINHMM>
<NUMSTATES> 5
<STATE> 2
<MEAN> 39
 -7.143513e+00 1.218550e+00 6.303381e+00 -6.207939e+00 -1.382683e+01 -1.291587e+01 -5.922775e+00 -7.827399e+00 -9.002798e+00 -3.807432e-01 -7.290763e+00 -3.665777e+00 6.435352e+01 -6.354056e-02 2.243944e-01 1.146020e-01 -4.721052e-01 1.205876e-02 2.953098e-01 -2.008846e-01 -1.899183e-02 4.679789e-02 1.137680e-01 -5.839421e-02 -2.854026e-02 -2.854091e-02 -2.326194e-02 -1.805072e-02 -1.002773e-02 3.306551e-02 5.307461e-03 4.920857e-02 4.816160e-02 3.997962e-02 -3.071820e-03 3.215040e-02 2.409541e-02 1.814457e-02 -7.895366e-03
<VARIANCE> 39
 3.803223e+01 4.442422e+01 9.337547e+01 1.054803e+02 7.403569e+01 7.577908e+01 7.227934e+01 4.916137e+01 3.456604e+01 3.550967e+01 5.078320e+01 2.555939e+01 1.051108e+02 1.285233e+00 1.309397e+00 2.149151e+00 2.381286e+00 2.192204e+00 2.826537e+00 2.210249e+00 2.377543e+00 2.025555e+00 2.002575e+00 1.805284e+00 1.294596e+00 8.379120e-01 1.512788e-01 1.638471e-01 2.112840e-01 3.107433e-01 2.921235e-01 4.242682e-01 3.419301e-01 3.846696e-01 3.899373e-01 3.503618e-01 2.920156e-01 2.328807e-01 8.019831e-02
<GCONST> 1.140183e+02
<STATE> 3
<MEAN> 39
 -7.796629e+00 1.529417e+00 8.074795e+00 -1.010184e+01 -1.400436e+01 -1.145110e+01 -6.862019e+00 -8.731213e+00 -8.570593e+00 9.805794e-01 -8.120173e+00 -3.292369e+00 6.471518e+01 4.603100e-02 2.825639e-01 -1.747203e-01 -3.137728e-01 4.037245e-01 3.616544e-01 -2.864616e-01 3.084020e-02 1.233194e-01 1.061078e-01 -3.786027e-02 1.025564e-01 -2.470237e-01 9.559577e-03 -2.660757e-02 -4.557544e-02 5.139157e-02 2.562330e-02 -7.097795e-03 4.238167e-02 5.362262e-03 -2.589652e-02 1.107910e-02 2.319626e-02 -8.605573e-03 8.020755e-04
<VARIANCE> 39
 2.931933e+01 4.037833e+01 7.805077e+01 9.810966e+01 7.867360e+01 7.456497e+01 7.044748e+01 4.427223e+01 3.843020e+01 2.989112e+01 5.300983e+01 2.681189e+01 1.022614e+02 8.812035e-01 1.090718e+00 2.138529e+00 2.042744e+00 1.990121e+00 2.410073e+00 1.980376e+00 2.200922e+00 1.995490e+00 2.011696e+00 1.896269e+00 1.248527e+00 5.081192e-01 9.002961e-02 1.374826e-01 1.633448e-01 2.344934e-01 2.635156e-01 3.228118e-01 2.801521e-01 3.455887e-01 3.573918e-01 3.330078e-01 3.047946e-01 2.253097e-01 6.279316e-02
<GCONST> 1.093740e+02
<STATE> 4
<MEAN> 39
 -7.440044e+00 4.138799e+00 5.984231e+00 -1.143245e+01 -9.674343e+00 -7.359701e+00 -8.719796e+00 -7.618184e+00 -7.380335e+00 9.521552e-01 -7.818280e+00 -1.654192e+00 6.066299e+01 2.901953e-02 3.493664e-01 -2.345555e-01 -9.349158e-02 5.144113e-01 4.768358e-01 -7.181029e-02 1.051573e-01 -3.137124e-02 9.385272e-02 6.325430e-02 9.169463e-02 -4.248320e-01 4.301206e-03 -4.829818e-02 3.498847e-02 2.821223e-02 -3.636558e-02 -4.577693e-02 9.315637e-02 -8.745788e-03 -2.342287e-03 -1.005260e-02 2.238577e-02 -7.165457e-03 1.164114e-02
<VARIANCE> 39
 3.284251e+01 4.001986e+01 8.939517e+01 1.108786e+02 7.331985e+01 5.665628e+01 7.927698e+01 3.759024e+01 4.063992e+01 3.452573e+01 6.849060e+01 2.666978e+01 1.325596e+02 5.180578e-01 9.031908e-01 1.029759e+00 1.537661e+00 1.219871e+00 1.797321e+00 1.750170e+00 1.545348e+00 1.753945e+00 1.905348e+00 1.711372e+00 1.089721e+00 6.049609e-01 7.873353e-02 1.381110e-01 1.357550e-01 1.888985e-01 2.028566e-01 3.087934e-01 2.182862e-01 2.637627e-01 3.266554e-01 3.120792e-01 2.837507e-01 1.919137e-01 9.311124e-02
<GCONST> 1.054648e+02
<TRANSP> 5
 0.000000e+00 1.000000e+00 0.000000e+00 0.000000e+00 0.000000e+00
 0.000000e+00 7.177643e-01 2.822358e-01 0.000000e+00 0.000000e+00
 0.000000e+00 0.000000e+00 6.973141e-01 3.026860e-01 0.000000e+00
 0.000000e+00 0.000000e+00 0.000000e+00 6.023725e-01 3.976275e-01
 0.000000e+00 0.000000e+00 0.000000e+00 0.000000e+00 0.000000e+00
<ENDHMM>
~h "s"
<BEGINHMM>
<NUMSTATES> 5
<STATE> 2
<MEAN> 39
 -1.174748e+01 3.397503e+00 -9.614437e-01 4.179100e+00 -3.881363e+00 -1.792353e+00 4.539796e+00 3.723314e-01 -1.903109e+00 2.128752e+00 2.654156e+00 3.696134e+00 4.909117e+01 -3.636682e-01 -3.692731e-04 -2.505828e-01 1.197712e-01 -8.542787e-02 6.465192e-02 1.275395e-01 7.105734e-02 -2.868807e-02 3.516715e-02 4.248327e-02 1.382164e-02 3.116000e-01 1.192703e-02 -1.772007e-03 6.125915e-03 -1.990001e-02 -3.286455e-03 4.380292e-03 -3.201276e-02 -1.882944e-02 -8.543881e-03 -1.997911e-02 -2.344067e-02 -1.935211e-02 2.180234e-02
<VARIANCE> 39
 4.996474e+01 1.847685e+01 3.733202e+01 2.112009e+01 2.597912e+01 2.635827e+01 3.117122e+01 2.258362e+01 2.469133e+01 2.234863e+01 2.173026e+01 1.665522e+01 8.826491e+01 2.257058e+00 1.511835e+00 1.615907e+00 1.567417e+00 1.728912e+00 2.050069e+00 2.507421e+00 1.847614e+00 2.015414e+00 1.973394e+00 1.701495e+00 1.440800e+00 2.461293e+00 3.385819e-01 2.722235e-01 2.535863e-01 2.932690e-01 3.265710e-01 3.897283e-01 4.545410e-01 3.662974e-01 3.887489e-01 3.786072e-01 3.360233e-01 2.847568e-01 2.876078e-01
<GCONST> 1.087331e+02
<STATE> 3
<MEAN> 39
 -1.489362e+01 3.743483e+00 -3.350702e+00 4.786808e+00 -5.161529e+00 -1.014449e+00 4.927997e+00 2.611749e-01 -2.373190e+00 2.067277e+00 2.069151e+00 3.030672e+00 5.315647e+01 -1.078799e-01 -4.128226e-02 -1.014640e-01 -1.073338e-01 -1.996260e-01 -1.014355e-01 -8.201657e-03 -3.861754e-02 -1.372051e-01 -7.541323e-02 -1.582072e-01 -1.112203e-01 5.389388e-01 1.206171e-01 -1.871925e-02 6.280312e-02 -9.291660e-02 -2.856214e-02 -5.244871e-02 -4.971546e-02 -2.525682e-02 -2.224956e-02 -3.401488e-02 -4.658203e-02 -2.497804e-02 1.160906e-02
<VARIANCE> 39
 5.680421e+01 1.721172e+01 4.043939e+01 2.425200e+01 2.613991e+01 2.601857e+01 2.717011e+01 2.125051e+01 2.194258e+01 2.041950e+01 2.045840e+01 1.649712e+01 9.194791e+01 2.879271e+00 1.342031e+00 1.811432e+00 2.001427e+00 1.916625e+00 2.388874e+00 2.439848e+00 1.850688e+00 2.029295e+00 1.977945e+00 1.789631e+00 1.465244e+00 2.204878e+00 3.637654e-01 2.743711e-01 2.605398e-01 3.502256e-01 3.765432e-01 4.322415e-01 4.632214e-01 3.729846e-01 4.065987e-01 3.783047e-01 3.528111e-01 2.917182e-01 2.742638e-01
<GCONST> 1.098828e+02
<STATE> 4
<MEAN> 39
 -1.275974e+01 3.009793e+00 -2.264661e+00 2.385869e+00 -6.551502e+00 -2.624754e+00 3.936956e+00 -3.962135e-01 -3.410376e+00 1.004863e+00 2.313812e-01 2.018636e+00 5.572506e+01 6.418554e-01 -3.447548e-01 2.482295e-01 -8.838952e-01 -4.917527e-01 -4.426703e-01 -2.169356e-01 -1.948916e-01 -3.357674e-01 -3.310950e-01 -5.463579e-01 -2.820036e-01 7.275811e-01 -1.613821e-02 -5.476948e-02 -4.051098e-02 -6.270134e-02 -1.629071e-03 6.119387e-02 -1.564351e-02 -3.852839e-03 -2.258350e-03 -4.727529e-02 -4.417282e-02 -4.064099e-02 2.906021e-02
<VARIANCE> 39
 6.325098e+01 2.793616e+01 3.925417e+01 5.797743e+01 4.833744e+01 4.923111e+01 3.199620e+01 2.902016e+01 3.101421e+01 2.873886e+01 3.236726e+01 2.004339e+01 1.236540e+02 3.640619e+00 2.526752e+00 2.083725e+00 4.201914e+00 2.918761e+00 3.931113e+00 3.118429e+00 2.396770e+00 2.565004e+00 2.443346e+00 2.525525e+00 1.778277e+00 2.919115e+00 5.548714e-01 3.882069e-01 3.318279e-01 5.652364e-01 5.300459e-01 7.416074e-01 5.294053e-01 4.649649e-01 4.928694e-01 3.934697e-01 3.932251e-01 3.298148e-01 3.338551e-01
<GCONST> 1.225026e+02
<TRANSP> 5
 0.000000e+00 1.000000e+00 0.000000e+00 0.000000e+00 0.000000e+00
 0.000000e+00 9.023113e-01 9.768868e-02 0.000000e+00 0.000000e+00
 0.000000e+00 0.000000e+00 8.418366e-01 1.581634e-01 0.000000e+00
 0.000000e+00 0.000000e+00 0.000000e+00 8.196596e-01 1.803404e-01
 0.000000e+00 0.000000e+00 0.000000e+00 0.000000e+00 0.000000e+00
<ENDHMM>
~h "t"
<BEGINHMM>
<NUMSTATES> 5
<STATE> 2
<MEAN> 39
 -8.628813e+00 4.663104e+00 3.896847e+00 1.401389e+00 -2.727539e+00 -2.794187e-01 1.823208e+00 -1.205250e+00 -5.990701e-01 4.002189e+00 2.684304e+00 3.458178e+00 4.579926e+01 -3.707026e-01 -2.395037e-02 3.763448e-02 -1.316387e-01 -2.180374e-01 2.905266e-02 1.482529e-01 2.807647e-03 -1.223254e-01 2.007630e-02 -9.683958e-02 -1.080603e-01 8.703293e-01 -2.541690e-02 1.260004e-02 9.745708e-03 -3.044178e-02 -4.736982e-02 -5.686081e-03 3.690167e-03 -2.822419e-02 -4.221569e-02 -2.732887e-02 -2.907503e-02 -2.494065e-02 1.260867e-01
<VARIANCE> 39
 2.889828e+01 2.105404e+01 1.631260e+01 3.654789e+01 3.285928e+01 2.794311e+01 3.474634e+01 2.706273e+01 2.710430e+01 2.074172e+01 2.840033e+01 2.047118e+01 1.356687e+02 2.493636e+00 1.728065e+00 1.531316e+00 2.436078e+00 2.063552e+00 2.299694e+00 2.772281e+00 1.901910e+00 2.314971e+00 2.032893e+00 2.003462e+00 1.719571e+00 8.616488e+00 4.183608e-01 3.339590e-01 2.878122e-01 4.467793e-01 3.556159e-01 4.365012e-01 5.145452e-01 3.646760e-01 4.272687e-01 3.988209e-01 3.749686e-01 3.419212e-01 1.279199e+00
<GCONST> 1.155584e+02
<STATE> 3
<MEAN> 39
 -1.275570e+01 5.064845e+00 4.474903e+00 2.924585e-02 -5.603607e+00 -9.584141e-02 3.395025e+00 -1.710007e+00 -2.373236e+00 3.525195e+00 1.159277e+00 1.833961e+00 5.639507e+01 -3.626455e-01 -5.634141e-03 1.724818e-01 -9.476340e-02 -5.974365e-01 -3.410724e-01 2.841143e-01 -2.781115e-01 -4.934665e-01 -1.929717e-01 -2.235294e-01 -3.118920e-01 1.405864e+00 1.456397e-01 -5.611473e-03 1.276840e-02 1.282619e-02 -6.335497e-03 -1.021739e-01 -8.361904e-02 -5.095265e-02 -3.905342e-02 -5.776049e-02 -4.361801e-03 -1.618179e-02 -2.052125e-01
<VARIANCE> 39
 4.841916e+01 2.353343e+01 2.145711e+01 4.587816e+01 5.104625e+01 3.967187e+01 4.634449e+01 2.894443e+01 3.187659e+01 2.299578e+01 3.103825e+01 2.425693e+01 2.459575e+02 3.703933e+00 2.342470e+00 1.676962e+00 3.377375e+00 2.645198e+00 3.374721e+00 3.993619e+00 2.355489e+00 2.648925e+00 2.378814e+00 2.315576e+00 2.024821e+00 1.257134e+01 5.177677e-01 4.436234e-01 2.950354e-01 5.957815e-01 4.391891e-01 5.479538e-01 6.706033e-01 4.355354e-01 4.663325e-01 4.443599e-01 4.365715e-01 3.868600e-01 1.858851e+00
<GCONST> 1.247940e+02
<STATE> 4
<MEAN> 39
 -1.097783e+01 3.992715e+00 4.478371e+00 7.821131e-01 -7.786583e+00 -5.284281e+00 2.953703e+00 -3.723764e+00 -5.195520e+00 7.377603e-01 -4.263997e-01 3.547976e-01 5.887922e+01 6.305022e-01 -1.904909e-01 5.790070e-02 -4.271901e-01 -4.488683e-01 -8.220245e-01 -6.479170e-01 -5.367873e-01 -5.557241e-01 -3.814658e-01 -3.540068e-01 -3.568912e-01 6.539875e-02 7.266390e-03 -3.009534e-02 -3.896097e-02 -9.069418e-02 2.567959e-02 5.671849e-02 -1.172442e-01 8.084772e-03 2.183913e-02 3.381746e-02 -1.838823e-02 1.890906e-02 -1.586803e-02
<VARIANCE> 39
 5.098154e+01 2.855977e+01 3.169693e+01 6.036121e+01 8.982113e+01 7.078229e+01 6.364583e+01 5.249226e+01 5.218499e+01 3.472071e+01 4.090201e+01 3.401418e+01 1.971313e+02 3.225852e+00 2.215433e+00 1.686808e+00 3.873617e+00 2.769228e+00 4.569967e+00 5.363343e+00 3.018891e+00 2.994711e+00 2.818530e+00 2.336804e+00 2.241362e+00 3.510983e+00 5.011203e-01 4.126001e-01 2.758736e-01 6.436268e-01 4.875795e-01 6.714987e-01 8.363066e-01 5.350109e-01 5.023971e-01 5.249490e-01 4.258896e-01 4.029985e-01 5.285246e-01
<GCONST> 1.286653e+02
<TRANSP> 5
 0.000000e+00 1.000000e+00 0.000000e+00 0.000000e+00 0.000000e+00
 0.000000e+00 8.714423e-01 1.285577e-01 0.000000e+00 0.000000e+00
 0.000000e+00 0.000000e+00 8.147161e-01 1.852839e-01 0.000000e+00
 0.000000e+00 0.000000e+00 0.000000e+00 8.380842e-01 1.619158e-01
 0.000000e+00 0.000000e+00 0.000000e+00 0.000000e+00 0.000000e+00
<ENDHMM>
~h "v"
<BEGINHMM>
<NUMSTATES> 5
<STATE> 2
<MEAN> 39
 -5.510381e+00 5.869111e-01 -6.025827e-02 -7.396572e+00 -1.104177e+01 -7.742282e+00 -2.857103e+00 -8.373354e+00 -5.300547e+00 -2.874506e+00 -9.750458e+00 -2.896810e+00 6.285166e+01 2.159938e-02 4.853321e-01 -1.898748e-01 1.176259e+00 6.117821e-01 2.174703e-02 -5.429476e-01 1.777241e-01 1.545918e-01 3.853799e-01 2.321897e-01 2.300544e-01 -8.385147e-01 -4.387001e-02 -4.375641e-02 -6.347725e-02 2.593064e-03 6.098627e-02 6.692632e-02 1.151849e-01 1.568098e-01 -8.418288e-03 -7.204120e-02 9.806463e-02 1.907827e-02 1.607187e-02
<VARIANCE> 39
 1.794451e+01 2.908511e+01 4.739314e+01 8.349625e+01 5.917273e+01 3.796772e+01 3.353695e+01 5.879301e+01 3.381259e+01 4.115194e+01 4.201629e+01 2.619177e+01 9.645673e+01 1.116551e+00 1.579326e+00 1.556138e+00 4.565143e+00 2.060956e+00 2.478706e+00 2.469225e+00 3.172812e+00 2.486172e+00 2.953669e+00 2.181349e+00 1.601152e+00 1.917463e+00 1.988853e-01 2.412942e-01 2.637026e-01 6.559427e-01 3.415305e-01 4.634216e-01 4.097861e-01 4.601862e-01 4.605141e-01 5.224837e-01 3.876988e-01 3.002785e-01 2.042764e-01
<GCONST> 1.169789e+02
<STATE> 3
<MEAN> 39
 -6.028740e+00 1.942843e+00 -7.192142e-01 -3.381750e+00 -8.416239e+00 -6.820880e+00 -3.390501e+00 -6.323400e+00 -4.377916e+00 -1.812041e+00 -7.795417e+00 -1.434402e+00 5.932185e+01 -9.693407e-02 1.345384e-01 -2.060483e-01 4.908636e-01 4.997300e-01 1.236495e-01 -3.767955e-02 6.029465e-01 2.324240e-01 1.200799e-01 3.298863e-01 3.670009e-01 -5.044940e-01 -4.262689e-03 -8.955799e-02 2.147552e-02 -2.058881e-01 -5.566923e-02 8.488515e-04 1.144806e-01 5.881856e-02 -6.001059e-03 -5.917073e-02 -1.165851e-02 3.140849e-02 8.511149e-02
<VARIANCE> 39
 1.886137e+01 2.281324e+01 3.293271e+01 6.666294e+01 4.505352e+01 4.751955e+01 3.494513e+01 4.922937e+01 3.251878e+01 3.475468e+01 4.513522e+01 2.606706e+01 9.750739e+01 1.347989e+00 1.504541e+00 1.662311e+00 5.116540e+00 2.319273e+00 2.788870e+00 2.351955e+00 3.134950e+00 2.518146e+00 2.839314e+00 2.191762e+00 1.713614e+00 2.396396e+00 2.457655e-01 2.372211e-01 2.670031e-01 6.514359e-01 3.543851e-01 4.546787e-01 4.254395e-01 5.046581e-01 4.593916e-01 5.314206e-01 3.953895e-01 3.210141e-01 2.181505e-01
<GCONST> 1.171603e+02
<STATE> 4
<MEAN> 39
 -6.354546e+00 2.738922e+00 1.876652e-01 7.206521e-01 -4.003780e+00 -3.015918e+00 -1.002743e+00 -3.178745e+00 -1.780331e+00 1.188934e+00 -1.717084e+00 1.531366e+00 5.040496e+01 2.618223e-02 -6.571105e-02 5.850213e-02 -1.096353e-01 1.096432e-01 -9.732036e-03 6.087914e-02 2.187003e-01 3.196881e-02 -5.699637e-02 9.675000e-02 1.227380e-01 -1.774017e-02 3.692616e-03 -8.826505e-03 1.965351e-02 -4.473472e-02 -3.500168e-02 -1.557592e-02 2.310051e-03 -1.274494e-02 -5.038201e-02 -5.106496e-02 -3.202302e-02 -2.346425e-02 3.899390e-02
<VARIANCE> 39
 1.874293e+01 2.439983e+01 2.435920e+01 5.041874e+01 3.679115e+01 4.627714e+01 2.898395e+01 3.781751e+01 2.954439e+01 3.492604e+01 4.868016e+01 2.134559e+01 1.219877e+02 1.637336e+00 1.382007e+00 1.604607e+00 2.836980e+00 2.080039e+00 2.346418e+00 2.117850e+00 2.651279e+00 2.269234e+00 2.440244e+00 2.018290e+00 1.744040e+00 2.505013e+00 3.150742e-01 2.359568e-01 2.729596e-01 4.669903e-01 3.424462e-01 4.108270e-01 3.885092e-01 4.611829e-01 4.117746e-01 4.523667e-01 3.700507e-01 3.321877e-01 3.234926e-01
<GCONST> 1.143308e+02
<TRANSP> 5
 0.000000e+00 1.000000e+00 0.000000e+00 0.000000e+00 0.000000e+00
 0.000000e+00 7.573074e-01 2.426925e-01 0.000000e+00 0.000000e+00
 0.000000e+00 0.000000e+00 7.415768e-01 2.584232e-01 0.000000e+00
 0.000000e+00 0.000000e+00 0.000000e+00 8.994156e-01 1.005844e-01
 0.000000e+00 0.000000e+00 0.000000e+00 0.000000e+00 0.000000e+00
<ENDHMM>
~h "w"
<BEGINHMM>
<NUMSTATES> 5
<STATE> 2
<MEAN> 39
 -8.148820e-01 7.997400e+00 -1.418391e+00 -4.744675e+00 -5.408408e+00 -3.557140e+00 -1.692453e+00 -3.196930e+00 -3.766953e+00 -1.282243e+00 -3.890483e+00 -3.826266e-01 4.824735e+01 6.986555e-01 1.137703e-01 -5.081827e-01 -1.238606e+00 -6.326963e-01 -6.564639e-01 -4.224267e-01 -2.559455e-01 -4.369645e-01 -4.301960e-01 -7.507620e-01 -4.499164e-01 1.268186e+00 -5.599713e-02 -9.302303e-02 -6.309537e-02 -6.593696e-02 7.210879e-03 6.136402e-02 5.633723e-02 4.613401e-02 1.553790e-02 1.335296e-02 3.089078e-02 1.728742e-02 1.297442e-01
<VARIANCE> 39
 5.398685e+01 3.142015e+01 2.751638e+01 1.103757e+02 4.274846e+01 5.507339e+01 3.125160e+01 2.732998e+01 3.265842e+01 3.207314e+01 5.478084e+01 2.820836e+01 9.180650e+01 3.301130e+00 2.260618e+00 1.766369e+00 4.610053e+00 3.347508e+00 4.319063e+00 2.703375e+00 2.984493e+00 2.475728e+00 3.041551e+00 4.144658e+00 2.611102e+00 2.687863e+00 5.347878e-01 3.642588e-01 3.148175e-01 8.603194e-01 6.207240e-01 6.177374e-01 4.723289e-01 5.612385e-01 4.555925e-01 6.164507e-01 7.333183e-01 5.161434e-01 3.378302e-01
<GCONST> 1.261634e+02
<STATE> 3
<MEAN> 39
 1.783721e+00 3.008828e+00 -8.633897e+00 -1.692394e+01 -9.215847e+00 -4.692377e+00 -3.428785e+00 -4.128351e+00 -6.847083e+00 -5.578201e+00 -8.280778e+00 -4.837760e+00 6.524852e+01 -3.931266e-01 -1.218861e+00 -7.719899e-01 -4.647615e-01 3.697772e-01 5.778254e-01 9.578124e-02 -1.728773e-01 -3.573401e-02 -4.898943e-01 -2.150186e-01 -3.647831e-01 1.572795e+00 -5.570167e-02 -7.119218e-02 6.169325e-02 1.759665e-01 1.500281e-01 4.528384e-02 1.054459e-02 -1.864919e-02 3.393014e-02 4.954670e-03 -2.213991e-02 3.625156e-02 -1.251944e-01
<VARIANCE> 39
 2.033223e+01 8.502597e+01 3.840031e+01 5.542457e+01 3.879143e+01 6.015889e+01 2.677486e+01 2.696035e+01 2.304876e+01 2.904640e+01 2.761017e+01 2.637961e+01 1.281310e+02 1.155058e+00 3.420685e+00 1.259624e+00 3.446410e+00 3.666364e+00 3.680439e+00 2.258980e+00 2.746172e+00 1.948092e+00 2.373270e+00 3.120130e+00 2.332720e+00 2.108794e+00 1.731793e-01 4.973104e-01 2.039443e-01 5.215221e-01 5.527051e-01 5.435967e-01 4.315259e-01 5.036174e-01 3.735114e-01 4.869186e-01 5.646574e-01 4.685881e-01 2.251898e-01
<GCONST> 1.186678e+02
<STATE> 4
<MEAN> 39
 -2.254428e+00 -3.854018e+00 -4.739206e+00 -9.747438e+00 -1.627247e+00 -8.273426e+00 -3.937294e+00 -3.344679e+00 -1.300723e+01 -1.512688e+01 -1.515431e+01 -3.820461e+00 6.814150e+01 -6.806845e-03 3.245397e-01 5.697070e-01 5.128856e-01 1.614194e-01 -3.909094e-01 -9.272798e-02 2.342238e-02 -3.442737e-01 -1.924100e-01 -1.667852e-01 1.312612e-01 -5.667574e-01 1.371434e-02 5.415690e-02 1.703076e-02 1.861698e-03 -4.174202e-02 3.314961e-03 8.534397e-03 2.847229e-03 1.745390e-02 4.707308e-02 4.408757e-02 8.240733e-03 -6.235768e-02
<VARIANCE> 39
 6.701169e+00 5.320787e+01 6.479169e+01 3.489054e+01 2.544370e+01 6.813697e+01 2.661618e+01 3.180656e+01 4.522485e+01 3.061335e+01 2.758813e+01 2.232724e+01 6.183467e+01 3.396892e-01 1.286096e+00 8.034595e-01 1.143822e+00 1.585326e+00 1.821446e+00 1.378172e+00 1.742102e+00 1.521537e+00 1.820636e+00 1.417337e+00 1.425055e+00 8.026595e-01 5.335137e-02 1.294411e-01 1.078104e-01 1.884945e-01 2.266815e-01 2.442907e-01 2.552224e-01 2.754468e-01 2.576378e-01 3.006737e-01 2.384247e-01 2.428520e-01 6.509782e-02
<GCONST> 9.722394e+01
<TRANSP> 5
 0.000000e+00 1.000000e+00 0.000000e+00 0.000000e+00 0.000000e+00
 0.000000e+00 8.946059e-01 1.053940e-01 0.000000e+00 0.000000e+00
 0.000000e+00 0.000000e+00 8.863401e-01 1.136599e-01 0.000000e+00
 0.000000e+00 0.000000e+00 0.000000e+00 9.524082e-01 4.759177e-02
 0.000000e+00 0.000000e+00 0.000000e+00 0.000000e+00 0.000000e+00
<ENDHMM>
~h "y"
<BEGINHMM>
<NUMSTATES> 5
<STATE> 2
<MEAN> 39
 -9.462546e+00 5.824190e+00 1.069246e+01 -8.405532e+00 -1.569249e+01 -5.865368e+00 -5.139232e+00 -1.341994e+01 -8.816477e+00 4.618035e-01 -1.031393e+01 -2.286556e+00 6.556897e+01 1.642612e-01 -5.129611e-02 2.626287e-02 -1.985071e-03 -2.947286e-01 -3.649549e-01 -1.928369e-01 -2.409906e-01 -3.145828e-01 3.239014e-03 -2.731912e-01 -9.315687e-02 1.086452e-01 3.082155e-03 -2.645708e-02 -9.145799e-02 6.068654e-02 9.858701e-02 -1.772379e-03 6.341310e-02 9.292041e-02 7.006237e-02 -4.106625e-04 7.548723e-02 4.539311e-02 -1.427817e-02
<VARIANCE> 39
 2.708566e+01 1.541823e+01 5.316964e+01 4.694464e+01 7.966321e+01 5.703941e+01 4.155411e+01 4.860338e+01 5.876292e+01 3.521695e+01 6.013918e+01 3.621921e+01 1.175110e+02 1.143506e+00 1.038287e+00 1.957777e+00 2.240715e+00 3.062169e+00 2.104648e+00 2.765482e+00 2.818812e+00 3.024290e+00 2.231552e+00 2.914329e+00 2.145850e+00 1.555360e+00 1.632101e-01 1.778659e-01 2.172460e-01 2.860522e-01 3.559414e-01 2.981886e-01 3.802464e-01 3.936790e-01 4.324772e-01 3.754342e-01 3.970128e-01 3.299285e-01 1.758652e-01
<GCONST> 1.153571e+02
<STATE> 3
<MEAN> 39
 -7.161716e+00 5.450063e+00 7.195605e+00 -5.469346e+00 -1.304969e+01 -1.048378e+01 -4.421370e+00 -1.305271e+01 -8.603481e+00 4.141058e-01 -9.433561e+00 -1.081007e-01 6.474410e+01 3.350752e-01 8.674365e-02 -6.408752e-01 2.486585e-01 7.046086e-01 -1.061144e-01 -1.334884e-01 8.770405e-02 3.495407e-01 5.034207e-02 2.156267e-01 1.945208e-01 -4.137700e-01 2.142186e-02 1.047984e-02 -1.701505e-02 -6.233824e-03 4.748419e-02 6.951525e-02 3.603475e-02 -1.028328e-02 1.456231e-02 1.023000e-02 2.955455e-02 -1.505392e-02 -3.777330e-02
<VARIANCE> 39
 2.730911e+01 1.570952e+01 7.585284e+01 4.064567e+01 9.167094e+01 6.648268e+01 4.241142e+01 5.711884e+01 5.161271e+01 3.128832e+01 4.407000e+01 2.936138e+01 8.980072e+01 8.236246e-01 8.872274e-01 1.686325e+00 1.408357e+00 1.965224e+00 2.355670e+00 2.090728e+00 2.916468e+00 2.765987e+00 2.096660e+00 2.190513e+00 1.931276e+00 8.653252e-01 1.205210e-01 1.475530e-01 1.829446e-01 1.799785e-01 1.939862e-01 2.796130e-01 2.915186e-01 3.943138e-01 3.987864e-01 3.331890e-01 3.579688e-01 3.174412e-01 9.544980e-02
<GCONST> 1.092143e+02
<STATE> 4
<MEAN> 39
 -4.447586e+00 7.368187e+00 3.303613e+00 -3.195415e+00 -5.083763e+00 -4.953997e+00 -3.052370e+00 -1.110380e+01 -5.429213e+00 4.999864e-01 -4.918946e+00 7.497432e-01 5.461167e+01 1.105351e-01 3.285693e-02 -3.993615e-02 1.550096e-01 2.163621e-01 1.546619e-01 1.015901e-01 1.229167e-01 4.102793e-02 -4.154535e-02 1.694546e-01 1.892998e-02 -4.026788e-01 -3.286695e-02 -2.987582e-02 3.302044e-02 1.579796e-02 -1.301218e-02 -1.721696e-02 2.563056e-03 3.764520e-02 -2.594889e-03 -5.909291e-03 4.254570e-04 1.069776e-02 6.917955e-03
<VARIANCE> 39
 3.432682e+01 1.583098e+01 7.250205e+01 4.958794e+01 6.881338e+01 6.155157e+01 4.541348e+01 8.179837e+01 4.746535e+01 2.895046e+01 6.605007e+01 3.425731e+01 1.531189e+02 7.537193e-01 7.819411e-01 1.528955e+00 1.505648e+00 1.719129e+00 1.696890e+00 2.097722e+00 2.546370e+00 2.179313e+00 1.864141e+00 1.886618e+00 1.558929e+00 1.000555e+00 1.026947e-01 1.277394e-01 1.965235e-01 1.998569e-01 2.399128e-01 2.410759e-01 3.348605e-01 3.541208e-01 3.400517e-01 3.019483e-01 3.068428e-01 2.878828e-01 8.814887e-02
<GCONST> 1.085626e+02
<TRANSP> 5
 0.000000e+00 1.000000e+00 0.000000e+00 0.000000e+00 0.000000e+00
 0.000000e+00 9.285235e-01 7.147649e-02 0.000000e+00 0.000000e+00
 0.000000e+00 0.000000e+00 8.462920e-01 1.537080e-01 0.000000e+00
 0.000000e+00 0.000000e+00 0.000000e+00 9.684780e-01 3.152208e-02
 0.000000e+00 0.000000e+00 0.000000e+00 0.000000e+00 0.000000e+00
<ENDHMM>
~h "z"
<BEGINHMM>
<NUMSTATES> 5
<STATE> 2
<MEAN> 39
 -5.881736e+00 6.632370e+00 3.894532e+00 2.426163e+00 -7.022126e+00 -8.789143e+00 7.160418e-01 -2.334107e+00 -6.989896e+00 -1.331980e+00 -3.661762e+00 1.890214e+00 4.944840e+01 -4.013312e-02 1.141367e-01 -4.582296e-02 1.508290e-01 -4.791414e-01 -4.182802e-01 -1.278928e-01 -6.648013e-02 -3.737203e-01 -1.584540e-01 -4.313846e-01 -7.611048e-02 6.574780e-01 -6.762061e-02 -1.760416e-02 -2.744789e-02 1.816301e-02 2.160081e-02 8.929854e-02 3.445897e-02 1.539962e-02 2.718757e-02 1.339296e-02 3.965298e-02 4.910562e-03 3.417721e-02
<VARIANCE> 39
 2.001671e+01 1.616591e+01 1.913297e+01 3.786394e+01 5.697034e+01 7.388091e+01 3.346705e+01 3.750549e+01 5.541562e+01 3.652031e+01 6.181192e+01 2.942203e+01 1.049802e+02 1.466771e+00 8.322582e-01 1.378695e+00 1.693805e+00 2.366910e+00 4.324221e+00 2.384677e+00 1.813446e+00 3.514954e+00 2.628711e+00 4.213190e+00 1.832233e+00 1.781622e+00 2.298962e-01 1.489895e-01 2.108164e-01 2.850762e-01 4.245539e-01 6.393909e-01 4.368231e-01 3.324605e-01 5.580739e-01 4.110732e-01 6.105564e-01 3.313928e-01 1.902401e-01
<GCONST> 1.148282e+02
<STATE> 3
<MEAN> 39
 -7.267521e+00 6.557554e+00 3.866965e+00 2.476260e+00 -9.797239e+00 -9.529411e+00 -8.556688e-02 -3.480829e+00 -8.451221e+00 -1.504739e+00 -5.498619e+00 8.167416e-01 5.466647e+01 -2.696608e-01 -6.820436e-02 1.291209e-01 -6.803688e-02 -3.677546e-01 5.664306e-02 -1.341701e-01 -2.328271e-01 -8.900259e-02 1.402151e-01 -1.459736e-01 -1.266206e-01 6.013342e-01 -1.254010e-02 -2.272949e-02 4.377741e-02 -5.658400e-02 2.191179e-02 5.059831e-02 -6.154451e-03 -2.902386e-02 2.873938e-02 2.812617e-02 1.852464e-02 -1.715986e-02 -1.585514e-02
<VARIANCE> 39
 2.230440e+01 1.824811e+01 3.116794e+01 5.249855e+01 6.136676e+01 5.966056e+01 3.340111e+01 4.890183e+01 4.924711e+01 3.199360e+01 5.351017e+01 2.783052e+01 1.210169e+02 1.116238e+00 8.830684e-01 1.789221e+00 2.329860e+00 2.099487e+00 3.030291e+00 2.059503e+00 2.163892e+00 2.430858e+00 1.890817e+00 3.134583e+00 1.497547e+00 1.313136e+00 1.615556e-01 1.503391e-01 2.177842e-01 2.763596e-01 3.728885e-01 4.605019e-01 3.826170e-01 3.482957e-01 3.912008e-01 3.196888e-01 4.880787e-01 2.765775e-01 1.196481e-01
<GCONST> 1.117463e+02
<STATE> 4
<MEAN> 39
 -5.483969e+00 3.960282e+00 2.890792e+00 -4.393782e+00 -9.258040e+00 -1.038153e+01 -2.824775e+00 -7.217384e+00 -7.934415e+00 9.358180e-01 -6.301261e+00 -1.259983e+00 5.872297e+01 4.058374e-02 2.531735e-02 -2.108496e-02 -2.318254e-01 4.858666e-02 1.301629e-01 -8.762622e-02 -1.092773e-01 1.317451e-02 8.956341e-03 -4.186049e-02 -5.417616e-02 3.056928e-02 -6.372236e-03 -1.124570e-03 -1.173469e-03 1.014789e-02 1.226076e-02 1.863069e-03 5.427782e-03 2.825945e-02 1.257955e-02 -8.559286e-03 1.484691e-02 3.655848e-03 -1.858750e-02
<VARIANCE> 39
 3.195482e+01 2.636975e+01 8.850236e+01 1.104529e+02 9.244083e+01 7.388134e+01 5.122861e+01 6.624828e+01 4.273783e+01 3.257825e+01 5.230494e+01 3.708868e+01 1.351347e+02 6.961178e-01 7.660233e-01 1.701006e+00 2.339334e+00 1.820069e+00 2.482123e+00 1.795040e+00 2.268833e+00 2.060185e+00 2.062015e+00 2.200002e+00 1.387765e+00 9.820175e-01 8.284633e-02 1.120802e-01 1.577628e-01 2.260710e-01 2.817782e-01 3.442548e-01 2.899972e-01 3.444768e-01 3.370019e-01 3.215218e-01 3.363014e-01 2.384999e-01 7.039719e-02
<GCONST> 1.104360e+02
<TRANSP> 5
 0.000000e+00 1.000000e+00 0.000000e+00 0.000000e+00 0.000000e+00
 0.000000e+00 8.381551e-01 1.618449e-01 0.000000e+00 0.000000e+00
 0.000000e+00 0.000000e+00 8.206218e-01 1.793782e-01 0.000000e+00
 0.000000e+00 0.000000e+00 0.000000e+00 9.638900e-01 3.610998e-02
 0.000000e+00 0.000000e+00 0.000000e+00 0.000000e+00 0.000000e+00
<ENDHMM>
~h "aa"
<BEGINHMM>
<NUMSTATES> 5
<STATE> 2
<MEAN> 39
 -5.836479e+00 -1.774531e+00 -3.579694e+00 -1.440819e+00 9.368933e-01 5.655529e+00 1.097254e-01 -3.828153e+00 -3.150930e+00 6.771846e-01 1.056196e+00 1.229543e+00 4.976848e+01 1.804577e-01 -8.976156e-01 -7.967725e-01 -5.573655e-01 -8.815964e-02 2.834896e-01 -2.263967e-01 -6.212737e-01 -5.443704e-01 -4.562098e-01 -4.350630e-01 -5.287216e-01 1.592310e+00 -7.990656e-03 9.276306e-02 5.394891e-02 6.228499e-02 -3.414066e-02 -3.847004e-02 -4.838469e-03 3.855202e-02 4.252106e-02 -3.945522e-02 1.041596e-02 8.502216e-03 -8.873299e-02
<VARIANCE> 39
 7.858964e+00 1.024287e+02 6.541860e+01 5.330770e+01 1.558091e+01 2.632934e+01 1.987417e+01 6.715356e+01 5.129575e+01 3.226652e+01 3.254609e+01 3.566632e+01 2.592901e+02 5.701178e-01 5.337134e+00 3.019081e+00 2.672047e+00 1.243611e+00 2.386756e+00 1.534064e+00 3.082448e+00 2.367006e+00 2.078768e+00 1.741528e+00 1.794210e+00 9.968842e+00 1.145538e-01 8.727928e-01 4.409725e-01 4.648200e-01 2.115054e-01 4.584558e-01 2.699557e-01 5.361283e-01 3.601213e-01 3.282277e-01 2.936260e-01 2.956752e-01 1.483791e+00
<GCONST> 1.183002e+02
<STATE> 3
<MEAN> 39
 -2.818504e+00 -1.284895e+01 -1.519190e+01 -7.957316e+00 -1.667449e+00 7.683078e+00 -2.077626e+00 -1.263832e+01 -1.207688e+01 -5.640902e+00 -5.233878e+00 -6.095906e+00 7.221297e+01 1.544727e-01 1.387013e-01 -2.842228e-01 3.949292e-01 -1.419539e-01 -2.839746e-01 1.307301e-01 1.649280e-01 -7.990083e-02 -2.420741e-01 1.072234e-02 -1.291816e-01 1.097120e-01 -1.038445e-03 2.155961e-02 5.385571e-02 1.444098e-02 5.509394e-02 1.105698e-03 7.956956e-02 8.054272e-02 7.665235e-02 1.313878e-01 7.903747e-02 9.531923e-02 -1.633200e-01
<VARIANCE> 39
 6.005819e+00 2.345015e+01 2.414606e+01 1.543024e+01 2.114000e+01 2.172430e+01 2.489441e+01 2.910485e+01 1.929462e+01 3.558400e+01 2.729104e+01 2.503572e+01 7.797330e+01 2.028406e-01 4.952581e-01 4.382817e-01 5.953645e-01 7.673982e-01 7.451528e-01 9.631402e-01 1.098750e+00 9.567600e-01 1.122114e+00 9.440123e-01 7.992781e-01 6.243072e-01 4.104590e-02 1.317303e-01 1.009750e-01 1.377945e-01 1.210375e-01 1.324996e-01 1.624156e-01 1.944740e-01 1.753071e-01 1.628607e-01 1.553809e-01 1.459001e-01 2.506179e-01
<GCONST> 8.204036e+01
<STATE> 4
<MEAN> 39
 -9.811735e-01 -5.762165e+00 -1.195110e+01 -8.133163e-01 1.306906e+00 1.430044e+00 -1.872881e+00 -1.843750e+00 -5.731380e+00 -5.342577e+00 -2.181292e+00 -3.329604e+00 5.843552e+01 -2.238563e-02 1.890171e-01 1.874898e-01 1.437056e-01 8.504290e-02 -6.891764e-02 3.329170e-02 1.916424e-01 1.634941e-01 4.987147e-02 7.026883e-02 9.448001e-02 -3.999617e-01 -1.115396e-02 1.937486e-03 9.890008e-03 -1.225165e-02 1.315895e-03 5.497005e-03 3.803854e-03 -2.996321e-03 -5.240529e-04 7.553011e-03 8.627031e-03 7.820901e-03 -5.624926e-03
<VARIANCE> 39
 2.682176e+01 5.932367e+01 8.418575e+01 3.398857e+01 2.444770e+01 3.092928e+01 3.852697e+01 6.548406e+01 5.023925e+01 5.630408e+01 3.669268e+01 4.248333e+01 2.116732e+02 4.952192e-01 6.047984e-01 8.267329e-01 7.989472e-01 7.326124e-01 1.107568e+00 1.580423e+00 1.861769e+00 1.250144e+00 1.485277e+00 1.328243e+00 1.171594e+00 9.355410e-01 6.084831e-02 9.168706e-02 1.041370e-01 1.252856e-01 1.154440e-01 1.769868e-01 2.542863e-01 2.737125e-01 2.041834e-01 2.274013e-01 2.208243e-01 2.010906e-01 9.798601e-02
<GCONST> 9.777788e+01
<TRANSP> 5
 0.000000e+00 1.000000e+00 0.000000e+00 0.000000e+00 0.000000e+00
 0.000000e+00 9.357749e-01 6.422506e-02 0.000000e+00 0.000000e+00
 0.000000e+00 0.000000e+00 7.926450e-01 2.073550e-01 0.000000e+00
 0.000000e+00 0.000000e+00 0.000000e+00 9.854183e-01 1.458166e-02
 0.000000e+00 0.000000e+00 0.000000e+00 0.000000e+00 0.000000e+00
<ENDHMM>
~h "ae"
<BEGINHMM>
<NUMSTATES> 5
<STATE> 2
<MEAN> 39
 -1.209240e+01 1.056676e+01 1.134647e+01 -1.374370e+01 -1.343064e+01 -2.921049e+00 -9.901537e+00 -8.458365e+00 -9.099993e+00 -1.564046e+00 -1.375571e+01 -3.711846e+00 6.524380e+01 -5.088137e-02 3.087128e-01 6.797045e-02 -6.259655e-01 5.321016e-01 2.249092e-02 -3.011692e-01 1.859108e-01 1.398911e-01 -1.900382e-01 -8.194952e-02 -9.963654e-02 -1.214033e-01 3.973467e-02 -2.906842e-02 -2.390764e-02 1.008173e-01 -6.764908e-03 -6.302109e-02 9.524963e-02 -2.526935e-02 -2.297928e-02 6.146214e-02 4.293874e-02 2.022112e-02 -3.504603e-02
<VARIANCE> 39
 1.242967e+01 1.126869e+01 2.841099e+01 1.431353e+02 4.499090e+01 1.488529e+01 4.116842e+01 2.457636e+01 2.302052e+01 1.755630e+01 5.069098e+01 1.946582e+01 9.143595e+01 2.959885e-01 4.145758e-01 7.190855e-01 1.847782e+00 1.661563e+00 9.806451e-01 1.792290e+00 1.706118e+00 1.373195e+00 1.323380e+00 1.454266e+00 9.596831e-01 7.561350e-01 3.605021e-02 5.831127e-02 1.003788e-01 1.623196e-01 2.095927e-01 1.615405e-01 2.624732e-01 2.690496e-01 2.585127e-01 2.179301e-01 2.290253e-01 1.570440e-01 5.104113e-02
<GCONST> 9.071684e+01
<STATE> 3
<MEAN> 39
 -1.159212e+01 1.222108e+01 1.246864e+01 -1.789978e+01 -9.520471e+00 -2.932210e+00 -1.057527e+01 -8.322639e+00 -7.512192e+00 -1.708556e+00 -1.380375e+01 -3.848208e+00 6.343200e+01 1.796554e-01 6.113226e-02 -1.133741e-01 1.439595e-01 5.334403e-01 -5.224203e-02 3.273839e-01 1.450496e-01 3.071274e-01 1.617714e-01 3.507517e-01 1.295940e-01 -5.852585e-01 1.356864e-02 -3.749048e-02 -1.269384e-02 8.402312e-02 -3.687390e-02 2.630637e-03 5.418958e-02 -1.752821e-02 3.556461e-03 4.267162e-02 5.079666e-02 2.424053e-02 -2.088767e-02
<VARIANCE> 39
 1.705335e+01 1.505226e+01 1.546524e+01 7.542105e+01 2.749244e+01 1.157411e+01 2.903133e+01 1.328303e+01 2.171637e+01 1.751793e+01 4.191148e+01 1.996029e+01 7.601388e+01 7.028698e-01 6.111959e-01 6.493178e-01 1.590203e+00 1.096988e+00 9.777064e-01 1.455472e+00 1.264242e+00 1.080309e+00 1.429414e+00 1.417273e+00 9.825485e-01 1.199069e+00 1.059008e-01 8.866990e-02 9.719346e-02 1.627998e-01 1.699093e-01 1.805179e-01 2.405012e-01 2.466922e-01 2.016040e-01 2.932397e-01 2.123198e-01 1.906244e-01 1.668254e-01
<GCONST> 9.087036e+01
<STATE> 4
<MEAN> 39
 -9.694352e+00 1.136732e+01 9.883904e+00 -9.948416e+00 -5.220739e+00 -2.733354e+00 -5.033558e+00 -6.149922e+00 -4.650702e+00 5.940498e-01 -8.251089e+00 -1.318902e+00 5.475379e+01 1.126449e-01 -1.630553e-01 -1.585488e-01 4.068170e-01 1.182322e-01 1.575587e-02 2.439545e-01 1.033147e-01 1.592270e-01 7.355133e-02 3.252384e-01 1.125017e-01 -3.878717e-01 -1.856141e-02 -3.000405e-02 -3.372598e-02 1.501233e-02 -7.445258e-03 -2.381161e-03 3.158250e-02 6.548743e-03 -1.424048e-02 -1.873866e-03 8.041397e-03 -3.193719e-03 3.809650e-02
<VARIANCE> 39
 1.873777e+01 3.203654e+01 3.085430e+01 1.224482e+02 2.766403e+01 1.715932e+01 4.304354e+01 2.666730e+01 2.986799e+01 2.190635e+01 7.569534e+01 2.858410e+01 1.175738e+02 1.150558e+00 1.180212e+00 1.623679e+00 1.802846e+00 1.838435e+00 1.350727e+00 2.159204e+00 1.790093e+00 1.541448e+00 1.726494e+00 2.041155e+00 1.496323e+00 2.594466e+00 1.981688e-01 1.916631e-01 2.620622e-01 1.937917e-01 3.393089e-01 2.571866e-01 3.838273e-01 3.428797e-01 2.731574e-01 3.344018e-01 2.889397e-01 2.990155e-01 3.977323e-01
<GCONST> 1.086590e+02
<TRANSP> 5
 0.000000e+00 1.000000e+00 0.000000e+00 0.000000e+00 0.000000e+00
 0.000000e+00 9.242758e-01 7.572421e-02 0.000000e+00 0.000000e+00
 0.000000e+00 0.000000e+00 8.309299e-01 1.690700e-01 0.000000e+00
 0.000000e+00 0.000000e+00 0.000000e+00 9.711140e-01 2.888591e-02
 0.000000e+00 0.000000e+00 0.000000e+00 0.000000e+00 0.000000e+00
<ENDHMM>
~h "ah"
<BEGINHMM>
<NUMSTATES> 5
<STATE> 2
<MEAN> 39
 -2.570519e+00 2.488018e+00 1.057349e+00 -4.867837e+00 -3.713112e+00 -9.243202e+00 -1.762477e+00 -4.036627e+00 -9.928354e+00 -9.154322e+00 -1.001976e+01 -1.570407e+00 5.744640e+01 1.301399e-01 -1.786547e-01 -2.356826e-01 -9.799810e-02 -1.566269e-01 7.302368e-02 5.062324e-02 -1.335285e-01 3.013692e-01 5.039713e-02 -1.035430e-01 -1.307938e-01 1.629957e-04 -8.986007e-03 4.865257e-03 -5.520386e-03 1.957618e-02 3.948878e-02 1.007177e-01 5.366967e-02 1.205322e-02 8.489649e-02 1.132490e-01 6.691455e-02 5.497974e-02 -8.756303e-02
<VARIANCE> 39
 1.955576e+01 4.767479e+01 4.689255e+01 6.811794e+01 4.084978e+01 7.697358e+01 4.478825e+01 4.211936e+01 7.367139e+01 6.009324e+01 5.707003e+01 2.536012e+01 1.791585e+02 1.542654e+00 1.822253e+00 1.714993e+00 2.820466e+00 2.441083e+00 3.968374e+00 2.102566e+00 2.858234e+00 3.086430e+00 3.887528e+00 4.412246e+00 2.496293e+00 4.891759e+00 2.591365e-01 2.504909e-01 2.428708e-01 3.673410e-01 4.365021e-01 6.188437e-01 3.910086e-01 4.959852e-01 4.758900e-01 5.332347e-01 6.008404e-01 4.320145e-01 4.284343e-01
<GCONST> 1.245184e+02
<STATE> 3
<MEAN> 39
 -2.580520e+00 2.242610e+00 1.389596e+00 -3.680419e+00 -3.308362e+00 -8.865038e+00 -1.745305e+00 -4.321305e+00 -8.799911e+00 -8.333920e+00 -9.886149e+00 -1.414185e+00 5.581252e+01 -1.874235e-02 -5.297060e-02 -3.680082e-02 9.335679e-02 -7.773273e-02 3.189951e-01 2.755564e-01 7.058956e-02 5.922308e-01 6.155888e-01 3.554336e-01 2.372210e-01 -4.067631e-01 -4.923885e-02 1.308409e-02 3.874964e-02 2.080105e-02 2.236501e-02 6.429587e-02 5.524240e-02 6.148372e-02 2.035042e-02 1.019107e-01 1.169569e-01 6.919726e-02 -2.369490e-02
<VARIANCE> 39
 2.017953e+01 5.545936e+01 4.371849e+01 5.410212e+01 3.865197e+01 6.344469e+01 4.081959e+01 4.410366e+01 7.440703e+01 5.301548e+01 5.168885e+01 2.756692e+01 1.855991e+02 1.635688e+00 1.463156e+00 1.418643e+00 1.945349e+00 1.936041e+00 3.221550e+00 2.335444e+00 3.225640e+00 3.392030e+00 3.606292e+00 4.327967e+00 2.315142e+00 3.601424e+00 2.426044e-01 2.331749e-01 2.249620e-01 3.385569e-01 3.615904e-01 5.263597e-01 4.197925e-01 5.628842e-01 5.503974e-01 5.411729e-01 5.727288e-01 4.399112e-01 4.182461e-01
<GCONST> 1.223497e+02
<STATE> 4
<MEAN> 39
 -5.023515e+00 3.298974e+00 3.068263e+00 -9.931104e-01 -2.258413e+00 -4.579947e+00 8.945134e-01 -2.375120e+00 -5.057987e+00 -2.206469e+00 -3.080678e+00 1.473481e+00 4.858881e+01 -1.619878e-01 -1.579520e-01 2.808206e-02 4.485644e-03 -7.658588e-02 2.647368e-01 3.379470e-01 1.072862e-01 2.904365e-01 4.438542e-01 3.869108e-01 1.596556e-01 -2.389489e-02 3.021886e-03 -1.321822e-02 1.776777e-03 3.262974e-02 1.777149e-02 1.108157e-02 -1.795233e-02 -1.857959e-02 -4.701639e-02 -4.491079e-02 3.621055e-05 -2.730306e-02 1.425723e-02
<VARIANCE> 39
 2.801986e+01 3.273298e+01 2.488867e+01 4.068162e+01 3.165485e+01 4.749210e+01 3.367843e+01 3.165018e+01 5.026772e+01 4.528848e+01 6.534673e+01 2.450044e+01 1.166362e+02 1.766041e+00 1.717195e+00 1.355574e+00 2.151515e+00 1.867225e+00 2.510910e+00 2.191326e+00 2.691787e+00 3.123852e+00 2.723021e+00 2.975461e+00 1.891018e+00 3.564826e+00 3.342169e-01 2.716616e-01 2.344956e-01 4.042206e-01 3.466854e-01 4.632679e-01 3.931525e-01 5.237865e-01 5.633389e-01 4.732029e-01 5.008313e-01 3.904198e-01 6.092957e-01
<GCONST> 1.185989e+02
<TRANSP> 5
 0.000000e+00 1.000000e+00 0.000000e+00 0.000000e+00 0.000000e+00
 0.000000e+00 7.320657e-01 2.679343e-01 0.000000e+00 0.000000e+00
 0.000000e+00 0.000000e+00 7.192047e-01 2.807953e-01 0.000000e+00
 0.000000e+00 0.000000e+00 0.000000e+00 8.423047e-01 1.576953e-01
 0.000000e+00 0.000000e+00 0.000000e+00 0.000000e+00 0.000000e+00
<ENDHMM>
~h "ao"
<BEGINHMM>
<NUMSTATES> 5
<STATE> 2
<MEAN> 39
 1.361069e+00 5.713415e+00 -1.290352e+01 -2.407009e+01 -1.352765e+01 -6.698571e+00 -1.120463e+00 -2.065804e+00 -9.865322e+00 -5.679275e+00 -8.767163e+00 -3.878475e+00 6.940788e+01 2.091257e-02 1.484590e-01 -6.582195e-02 -2.815907e-01 3.027116e-02 -8.544417e-03 -3.508481e-02 -1.702671e-02 -1.348282e-01 -5.349856e-02 -1.582490e-01 -1.095969e-01 -1.544099e-01 -5.596507e-02 4.438010e-03 5.761982e-02 1.329191e-01 8.074018e-02 4.052084e-02 2.593715e-02 1.777663e-02 2.068825e-02 3.887255e-02 4.203016e-02 4.352668e-02 -4.255719e-02
<VARIANCE> 39
 4.246955e+00 3.232415e+01 9.438537e+00 4.110603e+01 2.814775e+01 3.063053e+01 2.101618e+01 1.917511e+01 2.535667e+01 2.019177e+01 2.136832e+01 2.065050e+01 2.808150e+01 2.235212e-01 5.314795e-01 3.873740e-01 1.261429e+00 9.671947e-01 8.094626e-01 8.807711e-01 9.170327e-01 1.103003e+00 1.145367e+00 1.082848e+00 9.168662e-01 2.452844e-01 7.877050e-02 9.313656e-02 7.928624e-02 2.847501e-01 1.412398e-01 1.281880e-01 1.595750e-01 1.715254e-01 1.861687e-01 2.012154e-01 1.782809e-01 1.445957e-01 2.981789e-02
<GCONST> 7.972721e+01
<STATE> 3
<MEAN> 39
 1.540533e+00 6.737802e+00 -1.259609e+01 -2.453780e+01 -8.804385e+00 -4.053676e+00 -1.798284e+00 -3.489315e+00 -1.133713e+01 -7.082576e+00 -7.230568e+00 -2.711496e+00 6.487662e+01 3.539890e-02 4.712517e-02 1.296399e-01 2.872278e-01 4.835639e-01 2.801705e-01 -8.512775e-03 -1.516889e-01 -1.004047e-02 -9.594067e-02 2.597895e-01 9.777455e-02 -6.894209e-01 -1.434162e-02 -1.848717e-02 3.011223e-02 8.646712e-02 -5.107163e-04 9.717616e-03 1.496312e-02 1.094135e-02 4.044650e-02 2.600758e-02 2.651308e-02 1.471610e-02 -5.472454e-02
<VARIANCE> 39
 6.581507e+00 2.433236e+01 1.178365e+01 4.962400e+01 5.392804e+01 3.362157e+01 2.469408e+01 2.856178e+01 2.964118e+01 2.997887e+01 3.325618e+01 2.611416e+01 6.677628e+01 3.272214e-01 7.799677e-01 5.184541e-01 1.938614e+00 1.327813e+00 1.001009e+00 1.108969e+00 1.156787e+00 1.419134e+00 1.644502e+00 1.198187e+00 1.083983e+00 6.875157e-01 5.203557e-02 1.222949e-01 8.867252e-02 2.387058e-01 2.174786e-01 1.753743e-01 1.916994e-01 1.983538e-01 2.321155e-01 2.871441e-01 2.091383e-01 1.875985e-01 4.356322e-02
<GCONST> 9.032242e+01
<STATE> 4
<MEAN> 39
 -3.037403e+00 2.891006e+00 -3.336500e+00 -3.509622e+00 7.184229e-01 1.084431e+00 2.978153e-01 -2.568259e-01 -2.718960e+00 -7.454159e-01 2.126214e+00 3.836014e+00 4.403503e+01 -2.554089e-01 -9.050333e-02 3.881293e-01 6.932327e-01 4.102546e-02 1.910968e-02 1.096091e-01 2.144735e-01 3.424633e-01 3.510385e-01 1.734178e-01 1.926378e-01 -4.219250e-01 -4.257840e-04 8.418286e-03 -1.045401e-02 -4.812629e-02 -1.248193e-02 -1.916201e-02 -3.260839e-03 -8.573563e-03 -2.533365e-02 -8.949264e-03 -2.055053e-02 -1.235205e-02 5.956100e-02
<VARIANCE> 39
 1.577418e+01 2.265592e+01 2.776168e+01 6.611810e+01 2.861935e+01 2.205168e+01 2.536564e+01 4.103374e+01 3.438927e+01 4.033006e+01 2.540247e+01 2.514941e+01 3.261525e+01 5.345696e-01 1.238663e+00 8.347490e-01 1.605088e+00 2.023727e+00 1.623650e+00 1.920225e+00 1.996165e+00 1.999897e+00 2.476062e+00 1.682229e+00 1.797401e+00 8.992205e-01 9.624564e-02 2.040369e-01 1.527700e-01 2.471913e-01 3.556908e-01 2.945918e-01 3.535084e-01 3.480918e-01 3.561402e-01 4.585412e-01 3.095313e-01 3.382328e-01 9.948749e-02
<GCONST> 1.027250e+02
<TRANSP> 5
 0.000000e+00 1.000000e+00 0.000000e+00 0.000000e+00 0.000000e+00
 0.000000e+00 9.348624e-01 6.513755e-02 0.000000e+00 0.000000e+00
 0.000000e+00 0.000000e+00 9.484779e-01 5.152208e-02 0.000000e+00
 0.000000e+00 0.000000e+00 0.000000e+00 9.592202e-01 4.077972e-02
 0.000000e+00 0.000000e+00 0.000000e+00 0.000000e+00 0.000000e+00
<ENDHMM>
~h "ay"
<BEGINHMM>
<NUMSTATES> 5
<STATE> 2
<MEAN> 39
 -4.302919e+00 -1.323196e+01 -8.897745e+00 -7.987118e+00 8.899927e-01 -1.306564e-01 -4.294493e+00 -7.623412e+00 -9.009336e+00 -1.310675e+01 -1.113533e+01 -3.856573e+00 7.230132e+01 -7.890788e-02 -2.622623e-01 1.600504e-01 1.254617e-01 -7.264572e-02 3.234024e-02 4.752221e-02 -1.551596e-01 -1.097930e-01 -1.354841e-01 -1.020085e-01 -2.026463e-02 6.956724e-02 -2.842982e-03 1.346005e-01 8.720639e-02 4.815369e-03 -9.805638e-02 -6.076511e-02 4.616065e-02 5.186247e-02 4.105196e-02 4.778619e-02 2.835229e-02 1.833011e-02 -7.640228e-02
<VARIANCE> 39
 1.048784e+01 2.806251e+01 3.690183e+01 2.550293e+01 3.616888e+01 3.014099e+01 4.181815e+01 3.642575e+01 3.273925e+01 4.980988e+01 3.362351e+01 2.675643e+01 4.491589e+01 3.285148e-01 1.189453e+00 8.229122e-01 1.196818e+00 1.522657e+00 1.288771e+00 1.925140e+00 1.479640e+00 1.508207e+00 1.241687e+00 1.144445e+00 1.119743e+00 1.293379e+00 6.023077e-02 1.482464e-01 1.042369e-01 1.952288e-01 1.969807e-01 1.922421e-01 2.701391e-01 2.512072e-01 2.784552e-01 2.147684e-01 1.915511e-01 1.982810e-01 1.669377e-01
<GCONST> 9.597929e+01
<STATE> 3
<MEAN> 39
 -5.714817e+00 -1.170372e+01 -4.620057e+00 -9.192300e+00 -3.730044e+00 -9.754246e-01 -1.019713e+00 -8.774249e+00 -1.114401e+01 -1.309067e+01 -1.162176e+01 -4.555325e+00 7.232007e+01 -2.018134e-01 5.244121e-01 6.767932e-01 -3.217432e-01 -7.203849e-01 -1.165412e-01 3.809270e-01 -1.925749e-01 -6.320062e-02 2.274126e-01 -1.344491e-02 -1.515784e-01 -1.993877e-01 -3.021937e-03 8.319715e-02 4.149704e-02 -3.694943e-02 -2.112303e-02 -7.017022e-03 -6.407652e-02 -2.450824e-02 4.442826e-02 5.737599e-02 -8.276248e-03 -4.498752e-03 -3.752274e-02
<VARIANCE> 39
 1.122803e+01 3.918204e+01 5.128682e+01 2.608348e+01 5.874859e+01 2.560408e+01 6.638506e+01 3.043482e+01 4.417582e+01 3.829465e+01 3.118462e+01 2.868875e+01 2.929526e+01 2.698339e-01 8.643249e-01 7.258314e-01 1.082048e+00 1.721604e+00 1.039263e+00 2.883934e+00 1.310379e+00 1.486819e+00 1.477772e+00 1.240231e+00 1.423768e+00 3.022892e-01 3.683925e-02 6.236901e-02 7.800712e-02 1.306056e-01 1.815590e-01 1.494311e-01 3.333465e-01 1.880991e-01 2.297143e-01 2.211375e-01 1.827267e-01 2.238641e-01 2.938872e-02
<GCONST> 9.112793e+01
<STATE> 4
<MEAN> 39
 -7.368816e+00 -2.980826e-01 4.750736e+00 -1.099154e+01 -1.014536e+01 -1.615751e+00 -1.568210e+00 -1.094709e+01 -6.822852e+00 -5.251952e+00 -8.882500e+00 -3.686842e+00 6.275996e+01 1.454757e-02 7.251304e-01 4.690756e-01 1.774079e-01 1.736809e-02 -1.087583e-01 -5.540500e-01 -1.300292e-01 2.269083e-01 4.203541e-01 4.538546e-03 2.414774e-01 -7.890380e-01 3.531172e-02 -7.480769e-02 -7.810116e-02 1.279151e-01 8.686168e-02 -9.403686e-03 2.132840e-02 6.579109e-02 -4.802665e-02 -4.445133e-02 2.932657e-02 5.845702e-02 -3.814471e-02
<VARIANCE> 39
 1.270795e+01 5.694883e+01 2.841410e+01 6.073487e+01 6.153598e+01 2.798938e+01 6.594399e+01 3.882894e+01 5.732610e+01 5.014099e+01 6.607203e+01 3.791282e+01 1.049439e+02 5.194500e-01 1.116153e+00 1.070552e+00 1.665824e+00 1.765613e+00 1.257518e+00 2.766515e+00 1.710065e+00 1.625357e+00 1.950686e+00 1.608055e+00 1.680988e+00 5.252931e-01 7.741629e-02 1.001478e-01 1.280209e-01 2.013558e-01 2.218792e-01 2.188151e-01 3.625683e-01 2.653542e-01 2.756854e-01 3.120134e-01 2.581881e-01 2.897908e-01 4.906052e-02
<GCONST> 1.034023e+02
<TRANSP> 5
 0.000000e+00 1.000000e+00 0.000000e+00 0.000000e+00 0.000000e+00
 0.000000e+00 9.091446e-01 9.085540e-02 0.000000e+00 0.000000e+00
 0.000000e+00 0.000000e+00 9.146833e-01 8.531668e-02 0.000000e+00
 0.000000e+00 0.000000e+00 0.000000e+00 8.935286e-01 1.064714e-01
 0.000000e+00 0.000000e+00 0.000000e+00 0.000000e+00 0.000000e+00
<ENDHMM>
~h "ch"
<BEGINHMM>
<NUMSTATES> 5
<STATE> 2
<MEAN> 39
 -1.339012e+01 5.852862e+00 8.223963e+00 -8.696320e+00 -8.916177e+00 -7.812506e-02 -3.169725e+00 -3.666090e+00 -1.643302e+00 1.022874e+00 -1.597438e+00 5.710686e-01 5.556660e+01 -1.189405e+00 1.991506e-02 -8.404216e-01 4.289382e-01 3.987576e-01 1.547973e-01 2.845897e-01 3.544343e-01 1.762485e-01 -1.478371e-01 5.278501e-01 -6.089256e-02 7.493674e-01 -1.139535e-01 7.948679e-02 5.330964e-03 9.012958e-04 2.606047e-04 -3.067294e-03 2.725553e-03 -3.438956e-02 -4.866049e-02 -1.327698e-02 -5.482789e-02 -3.170508e-02 1.615071e-01
<VARIANCE> 39
 1.093266e+02 2.489829e+01 6.048128e+01 6.074836e+01 5.277195e+01 2.745605e+01 4.164707e+01 2.579987e+01 2.394036e+01 2.354970e+01 5.004565e+01 2.186486e+01 1.618797e+02 8.225612e+00 2.803673e+00 3.163805e+00 2.099399e+00 2.725433e+00 2.209136e+00 1.743479e+00 1.928960e+00 2.010549e+00 2.546200e+00 2.599233e+00 1.895424e+00 1.113334e+01 1.118637e+00 5.407093e-01 4.569606e-01 3.057402e-01 4.658352e-01 4.472202e-01 3.070862e-01 3.752649e-01 3.755462e-01 5.464883e-01 4.448639e-01 3.713432e-01 1.552576e+00
<GCONST> 1.250056e+02
<STATE> 3
<MEAN> 39
 -2.877101e+01 9.228662e+00 2.959136e+00 -4.817505e+00 -5.679577e+00 2.909661e+00 -1.236729e+00 -1.943710e+00 -3.428103e-01 -9.607902e-01 2.838152e+00 -8.772953e-01 6.673060e+01 -4.679432e-01 3.325743e-01 2.776971e-01 3.574171e-01 -5.301103e-02 2.155528e-01 4.579386e-01 -2.315700e-02 1.939003e-03 -6.772963e-03 6.671745e-02 -1.697975e-01 3.132427e-01 3.306792e-01 -1.370082e-01 1.891254e-01 -4.619576e-02 -7.377761e-02 -4.458147e-02 -3.117957e-03 -4.020886e-02 8.995579e-03 8.052104e-03 -1.545068e-02 3.764210e-02 -2.901358e-01
<VARIANCE> 39
 5.839806e+01 1.910231e+01 3.177063e+01 1.434228e+01 2.012970e+01 1.900276e+01 1.971432e+01 1.627950e+01 1.401494e+01 1.235907e+01 1.600029e+01 1.155822e+01 6.376754e+01 4.025161e+00 2.621290e+00 2.249686e+00 1.080813e+00 1.781359e+00 1.208765e+00 1.139719e+00 1.488043e+00 1.306626e+00 1.318696e+00 1.390358e+00 1.087899e+00 3.746071e+00 4.689481e-01 4.516627e-01 3.582205e-01 1.977171e-01 3.299091e-01 2.454801e-01 2.223230e-01 3.086808e-01 2.621805e-01 2.856938e-01 2.565473e-01 2.136465e-01 4.736808e-01
<GCONST> 1.022476e+02
<STATE> 4
<MEAN> 39
 -1.601607e+01 5.208699e+00 5.715019e+00 8.896663e-01 -4.053882e+00 2.367655e+00 3.543488e+00 -1.616732e+00 8.735490e-02 1.739217e+00 3.380495e+00 2.264819e+00 5.079497e+01 4.960149e-01 -1.478642e-01 8.317146e-02 1.258252e-01 3.713808e-02 1.758961e-02 1.240802e-01 4.102921e-03 1.361883e-02 3.064734e-02 -3.361668e-02 1.144664e-01 -4.789039e-01 1.213478e-02 -6.685629e-03 -2.655744e-02 -1.596527e-02 -5.157635e-03 -1.446980e-02 -9.313600e-03 -1.438597e-02 -1.267872e-02 -3.797642e-03 -9.746706e-03 -2.373307e-03 1.382586e-02
<VARIANCE> 39
 8.520341e+01 2.535769e+01 2.325268e+01 2.532486e+01 2.286120e+01 1.999700e+01 2.921821e+01 1.983399e+01 2.183851e+01 2.053062e+01 1.605162e+01 2.160964e+01 1.399715e+02 1.728480e+00 1.768064e+00 1.446143e+00 1.657712e+00 1.614684e+00 1.580222e+00 2.528845e+00 1.822540e+00 1.845523e+00 1.693851e+00 1.681347e+00 1.403329e+00 2.090965e+00 2.796342e-01 3.327177e-01 2.627761e-01 2.905315e-01 3.233353e-01 3.127180e-01 4.725570e-01 3.681997e-01 3.607041e-01 3.576024e-01 3.478349e-01 2.815087e-01 2.435718e-01
<GCONST> 1.075373e+02
<TRANSP> 5
 0.000000e+00 1.000000e+00 0.000000e+00 0.000000e+00 0.000000e+00
 0.000000e+00 9.405301e-01 5.946995e-02 0.000000e+00 0.000000e+00
 0.000000e+00 0.000000e+00 8.141788e-01 1.858212e-01 0.000000e+00
 0.000000e+00 0.000000e+00 0.000000e+00 9.747815e-01 2.521857e-02
 0.000000e+00 0.000000e+00 0.000000e+00 0.000000e+00 0.000000e+00
<ENDHMM>
~h "eh"
<BEGINHMM>
<NUMSTATES> 5
<STATE> 2
<MEAN> 39
 -6.909397e+00 -5.959736e+00 -1.611152e+00 -6.002288e+00 -8.668153e+00 -2.364470e+00 5.979802e+00 -3.362817e+00 -7.028018e+00 -5.815958e+00 -3.371741e+00 -1.462496e+00 6.248901e+01 -6.892306e-02 -9.630845e-01 -3.494148e-01 -4.358218e-01 -2.990245e-01 2.051189e-01 2.549658e-01 -2.201147e-01 -3.998469e-01 -7.581500e-01 -4.784292e-01 -4.840103e-01 1.280802e+00 -2.131687e-02 1.852161e-01 1.659961e-02 1.456914e-01 8.912306e-02 4.701808e-02 -9.010816e-02 -2.777573e-02 4.719515e-02 3.832531e-02 2.362245e-02 2.107145e-02 -1.247963e-01
<VARIANCE> 39
 1.944912e+01 8.344802e+01 2.878409e+01 6.701303e+01 5.801855e+01 5.353623e+01 3.671552e+01 3.489753e+01 5.323968e+01 6.497032e+01 4.066627e+01 3.931893e+01 2.607464e+02 1.436902e+00 4.734992e+00 1.382245e+00 3.205490e+00 2.494636e+00 2.185886e+00 3.150962e+00 2.107718e+00 3.509400e+00 3.386354e+00 2.145917e+00 2.102936e+00 1.140550e+01 3.312569e-01 7.560224e-01 2.417833e-01 5.445059e-01 4.357338e-01 4.653932e-01 5.969027e-01 3.296565e-01 5.497559e-01 5.219036e-01 3.617885e-01 3.527864e-01 1.781621e+00
<GCONST> 1.269687e+02
<STATE> 3
<MEAN> 39
 -5.639812e+00 -7.306810e+00 -2.719610e+00 -7.384340e+00 -9.414785e+00 -3.786913e+00 5.047273e+00 -3.501754e+00 -7.311197e+00 -8.781823e+00 -5.817273e+00 -2.957416e+00 6.652615e+01 1.580570e-01 1.000971e-01 -8.954918e-02 1.865836e-01 2.514515e-01 5.409279e-02 -2.650472e-01 6.292664e-02 3.006035e-01 -1.238257e-01 -1.579384e-01 9.930108e-03 -2.480006e-01 1.670352e-02 1.756132e-01 3.872355e-02 1.241358e-01 6.540802e-02 -4.852206e-02 -1.121360e-01 -1.246125e-02 8.979350e-02 1.460979e-01 5.734875e-02 8.496944e-02 -1.923784e-01
<VARIANCE> 39
 1.784522e+01 5.872807e+01 2.718232e+01 5.070365e+01 5.197001e+01 5.753050e+01 4.067433e+01 3.455366e+01 4.932928e+01 6.094773e+01 4.013610e+01 3.305871e+01 1.700476e+02 9.043133e-01 1.746344e+00 8.553029e-01 1.812805e+00 1.766786e+00 2.245025e+00 2.009503e+00 1.597363e+00 2.503869e+00 2.235165e+00 1.638772e+00 1.544284e+00 3.362259e+00 1.730532e-01 2.771534e-01 1.477999e-01 3.027079e-01 2.856256e-01 4.054639e-01 3.526155e-01 2.929329e-01 4.107844e-01 3.349159e-01 2.787970e-01 2.697560e-01 4.530559e-01
<GCONST> 1.128166e+02
<STATE> 4
<MEAN> 39
 -6.743864e+00 -1.801141e+00 -1.820068e-01 -1.290919e+00 -3.463825e+00 -4.156125e-01 3.971985e+00 -1.726524e+00 -3.531413e+00 -2.842849e+00 -7.336268e-01 1.158639e+00 5.301712e+01 2.849973e-02 1.097517e-01 -2.465807e-02 7.354365e-02 3.773239e-02 -2.276769e-03 -1.127099e-01 -5.754801e-02 9.215577e-02 3.600605e-02 -3.331053e-02 -3.150708e-02 -6.902438e-02 -2.181381e-02 3.798578e-02 9.887366e-04 2.731862e-02 5.829982e-03 -1.367003e-02 -2.581160e-02 -1.902054e-02 -1.132050e-02 3.660568e-02 3.968921e-03 6.438612e-03 -1.545092e-03
<VARIANCE> 39
 1.789680e+01 7.326926e+01 2.383412e+01 5.030993e+01 3.936317e+01 3.961357e+01 3.219656e+01 3.568190e+01 4.787274e+01 7.087344e+01 4.358851e+01 3.228344e+01 2.347514e+02 8.061882e-01 2.019139e+00 8.606136e-01 1.748306e+00 1.483156e+00 1.733776e+00 2.230416e+00 1.846311e+00 2.512964e+00 2.135175e+00 1.738949e+00 1.642627e+00 3.631119e+00 1.507000e-01 3.098265e-01 1.565255e-01 3.012685e-01 2.564261e-01 3.251076e-01 3.975472e-01 3.340409e-01 4.294881e-01 3.630763e-01 3.268615e-01 2.939147e-01 5.033675e-01
<GCONST> 1.129465e+02
<TRANSP> 5
 0.000000e+00 1.000000e+00 0.000000e+00 0.000000e+00 0.000000e+00
 0.000000e+00 8.098731e-01 1.901269e-01 0.000000e+00 0.000000e+00
 0.000000e+00 0.000000e+00 7.373325e-01 2.626675e-01 0.000000e+00
 0.000000e+00 0.000000e+00 0.000000e+00 9.263078e-01 7.369223e-02
 0.000000e+00 0.000000e+00 0.000000e+00 0.000000e+00 0.000000e+00
<ENDHMM>
~h "ey"
<BEGINHMM>
<NUMSTATES> 5
<STATE> 2
<MEAN> 39
 -7.440066e+00 4.343235e+00 4.797844e+00 -2.732666e+00 -5.951739e+00 -5.061631e-01 1.300265e+00 -3.022737e+00 -1.028095e+00 3.925409e+00 -3.119144e-01 2.099759e+00 4.739912e+01 -4.936549e-02 -2.066162e-02 1.142975e-01 -2.807280e-01 -2.088544e-01 -5.208009e-02 -7.053836e-02 -1.299836e-01 -3.507120e-03 4.675983e-02 -1.416961e-01 -1.962999e-02 2.919511e-01 -1.456904e-02 -1.898922e-02 7.663870e-04 -3.129957e-02 -2.450226e-02 -2.270729e-02 -5.779336e-04 -1.690992e-02 -1.160151e-02 -1.598870e-02 -3.096917e-02 -6.273675e-03 8.086693e-02
<VARIANCE> 39
 9.842025e+00 2.049273e+01 1.595706e+01 1.076498e+02 8.939757e+01 2.262588e+01 3.111290e+01 3.369389e+01 2.194827e+01 2.049587e+01 5.668856e+01 2.105069e+01 1.906564e+02 7.617307e-01 1.112387e+00 9.298559e-01 2.932921e+00 2.481586e+00 1.550034e+00 1.969259e+00 1.570578e+00 1.603164e+00 1.678806e+00 2.109994e+00 1.386726e+00 4.196912e+00 1.470510e-01 1.910810e-01 1.649224e-01 4.760970e-01 3.955265e-01 2.997272e-01 3.554211e-01 2.938725e-01 3.091507e-01 3.188074e-01 3.809080e-01 2.514087e-01 6.165230e-01
<GCONST> 1.086011e+02
<STATE> 3
<MEAN> 39
 -8.161370e+00 3.784937e+00 6.544736e+00 -9.766087e+00 -1.160389e+01 -2.481545e+00 -7.160046e-01 -6.303724e+00 -2.756707e+00 2.860459e+00 -4.637691e+00 8.619620e-01 5.652093e+01 -9.731179e-02 -9.526716e-03 1.947120e-01 -5.317973e-01 -3.872161e-01 -1.697312e-01 -2.475873e-01 -2.522923e-01 -1.667728e-01 -8.305351e-02 -3.639073e-01 -7.935676e-02 7.055107e-01 -3.982385e-03 8.888781e-03 -1.782204e-03 1.660266e-02 1.434297e-02 1.284262e-04 -1.585284e-02 3.791346e-03 -6.379916e-03 -1.169842e-02 -5.831120e-03 -8.708066e-03 -3.529451e-03
<VARIANCE> 39
 1.111706e+01 2.549757e+01 2.198155e+01 1.604064e+02 1.240648e+02 2.933492e+01 4.917943e+01 4.498502e+01 2.883343e+01 2.330025e+01 7.284238e+01 2.491798e+01 2.844569e+02 7.763812e-01 1.370636e+00 9.190990e-01 4.565520e+00 3.853572e+00 1.703219e+00 2.210506e+00 1.512075e+00 1.508407e+00 1.682761e+00 2.545376e+00 1.496318e+00 8.123534e+00 1.404105e-01 2.129255e-01 1.620714e-01 6.785728e-01 5.390346e-01 3.095869e-01 3.761639e-01 2.507633e-01 2.689193e-01 3.066500e-01 4.131036e-01 2.465730e-01 1.095989e+00
<GCONST> 1.154493e+02
<STATE> 4
<MEAN> 39
 -9.306114e+00 5.205396e+00 7.907191e+00 -8.589372e+00 -9.603159e+00 -2.983184e+00 -2.390163e+00 -5.768226e+00 -3.040284e+00 2.413999e+00 -4.129259e+00 1.000137e+00 5.562901e+01 -9.289743e-03 8.932767e-03 -3.887904e-02 1.577765e-01 1.407823e-01 3.537912e-02 6.439315e-02 7.620139e-02 3.050578e-02 4.056843e-03 1.024420e-01 1.522218e-02 -1.436668e-01 2.543854e-03 -5.224748e-03 -1.810327e-02 1.280187e-02 5.037788e-03 4.375018e-03 1.143608e-02 7.717634e-03 -1.323915e-03 -3.582625e-03 1.290769e-02 8.451397e-04 -4.199121e-03
<VARIANCE> 39
 2.209160e+01 2.631466e+01 3.693944e+01 1.154471e+02 8.267198e+01 2.854000e+01 8.364561e+01 4.143011e+01 3.248555e+01 2.651619e+01 7.137231e+01 2.553964e+01 1.972989e+02 1.749340e+00 1.424606e+00 1.760652e+00 2.532184e+00 2.296491e+00 1.855893e+00 2.796767e+00 1.735212e+00 2.080877e+00 1.793063e+00 2.146237e+00 1.712584e+00 6.301514e+00 2.987783e-01 2.483571e-01 2.909984e-01 3.835591e-01 3.594038e-01 3.482726e-01 4.459962e-01 3.115691e-01 3.433351e-01 3.266612e-01 3.378169e-01 2.911415e-01 8.090800e-01
<GCONST> 1.182011e+02
<TRANSP> 5
 0.000000e+00 1.000000e+00 0.000000e+00 0.000000e+00 0.000000e+00
 0.000000e+00 9.106669e-01 8.933304e-02 0.000000e+00 0.000000e+00
 0.000000e+00 0.000000e+00 9.057595e-01 9.424049e-02 0.000000e+00
 0.000000e+00 0.000000e+00 0.000000e+00 9.724389e-01 2.756107e-02
 0.000000e+00 0.000000e+00 0.000000e+00 0.000000e+00 0.000000e+00
<ENDHMM>
~h "ia"
<BEGINHMM>
<NUMSTATES> 5
<STATE> 2
<MEAN> 39
 -7.381522e+00 3.330936e+00 2.047153e+00 -3.046288e+00 -4.874629e+00 -2.964739e+00 -5.433913e-01 -3.441086e+00 -4.156183e+00 -7.898898e-01 -2.925678e+00 8.747759e-01 5.354753e+01 4.188114e-03 7.886445e-03 8.638212e-04 -3.319199e-05 4.583947e-03 2.944113e-03 -4.185917e-03 -2.407409e-03 4.110487e-03 -9.366490e-04 -2.847919e-03 -1.119324e-03 -3.485081e-03 -2.780182e-04 4.271456e-06 2.111308e-05 2.157945e-05 -1.623377e-04 6.947975e-04 6.310043e-04 2.858052e-04 2.109315e-04 1.335133e-04 3.614691e-04 -5.897314e-04 -3.645968e-04
<VARIANCE> 39
 3.956010e+01 5.039151e+01 5.962346e+01 1.002791e+02 6.064148e+01 5.444832e+01 5.840739e+01 4.790145e+01 4.806982e+01 5.399290e+01 6.658193e+01 3.143701e+01 1.841879e+02 1.501115e+00 1.479264e+00 1.419895e+00 2.272107e+00 1.880642e+00 2.105628e+00 2.280031e+00 1.936650e+00 2.018196e+00 1.963827e+00 1.997587e+00 1.559135e+00 2.571761e+00 2.319898e-01 2.408473e-01 2.210669e-01 3.404900e-01 3.085047e-01 3.687871e-01 3.892777e-01 3.406794e-01 3.576038e-01 3.468189e-01 3.398416e-01 2.856025e-01 3.133720e-01
<GCONST> 1.177766e+02
<STATE> 3
<MEAN> 39
 -7.381522e+00 3.330936e+00 2.047153e+00 -3.046288e+00 -4.874629e+00 -2.964739e+00 -5.433913e-01 -3.441086e+00 -4.156183e+00 -7.898898e-01 -2.925678e+00 8.747759e-01 5.354753e+01 4.188114e-03 7.886445e-03 8.638212e-04 -3.319199e-05 4.583947e-03 2.944113e-03 -4.185917e-03 -2.407409e-03 4.110487e-03 -9.366490e-04 -2.847919e-03 -1.119324e-03 -3.485081e-03 -2.780182e-04 4.271456e-06 2.111308e-05 2.157945e-05 -1.623377e-04 6.947975e-04 6.310043e-04 2.858052e-04 2.109315e-04 1.335133e-04 3.614691e-04 -5.897314e-04 -3.645968e-04
<VARIANCE> 39
 3.956010e+01 5.039151e+01 5.962346e+01 1.002791e+02 6.064148e+01 5.444832e+01 5.840739e+01 4.790145e+01 4.806982e+01 5.399290e+01 6.658193e+01 3.143701e+01 1.841879e+02 1.501115e+00 1.479264e+00 1.419895e+00 2.272107e+00 1.880642e+00 2.105628e+00 2.280031e+00 1.936650e+00 2.018196e+00 1.963827e+00 1.997587e+00 1.559135e+00 2.571761e+00 2.319898e-01 2.408473e-01 2.210669e-01 3.404900e-01 3.085047e-01 3.687871e-01 3.892777e-01 3.406794e-01 3.576038e-01 3.468189e-01 3.398416e-01 2.856025e-01 3.133720e-01
<GCONST> 1.177766e+02
<STATE> 4
<MEAN> 39
 -7.381522e+00 3.330936e+00 2.047153e+00 -3.046288e+00 -4.874629e+00 -2.964739e+00 -5.433913e-01 -3.441086e+00 -4.156183e+00 -7.898898e-01 -2.925678e+00 8.747759e-01 5.354753e+01 4.188114e-03 7.886445e-03 8.638212e-04 -3.319199e-05 4.583947e-03 2.944113e-03 -4.185917e-03 -2.407409e-03 4.110487e-03 -9.366490e-04 -2.847919e-03 -1.119324e-03 -3.485081e-03 -2.780182e-04 4.271456e-06 2.111308e-05 2.157945e-05 -1.623377e-04 6.947975e-04 6.310043e-04 2.858052e-04 2.109315e-04 1.335133e-04 3.614691e-04 -5.897314e-04 -3.645968e-04
<VARIANCE> 39
 3.956010e+01 5.039151e+01 5.962346e+01 1.002791e+02 6.064148e+01 5.444832e+01 5.840739e+01 4.790145e+01 4.806982e+01 5.399290e+01 6.658193e+01 3.143701e+01 1.841879e+02 1.501115e+00 1.479264e+00 1.419895e+00 2.272107e+00 1.880642e+00 2.105628e+00 2.280031e+00 1.936650e+00 2.018196e+00 1.963827e+00 1.997587e+00 1.559135e+00 2.571761e+00 2.319898e-01 2.408473e-01 2.210669e-01 3.404900e-01 3.085047e-01 3.687871e-01 3.892777e-01 3.406794e-01 3.576038e-01 3.468189e-01 3.398416e-01 2.856025e-01 3.133720e-01
<GCONST> 1.177766e+02
<TRANSP> 5
 0.000000e+00 1.000000e+00 0.000000e+00 0.000000e+00 0.000000e+00
 0.000000e+00 6.000000e-01 4.000000e-01 0.000000e+00 0.000000e+00
 0.000000e+00 0.000000e+00 6.000000e-01 4.000000e-01 0.000000e+00
 0.000000e+00 0.000000e+00 0.000000e+00 7.000000e-01 3.000000e-01
 0.000000e+00 0.000000e+00 0.000000e+00 0.000000e+00 0.000000e+00
<ENDHMM>
~h "ih"
<BEGINHMM>
<NUMSTATES> 5
<STATE> 2
<MEAN> 39
 -1.336327e+01 3.139896e+00 2.032605e+00 -4.467409e+00 -1.404632e+01 -5.491400e+00 -1.165959e+00 -6.204511e+00 -6.973095e+00 4.257972e+00 -3.767547e+00 1.522110e+00 6.390943e+01 2.443287e-01 -1.488769e-01 6.750975e-01 -7.649521e-01 -4.637352e-01 -3.187340e-01 -5.292786e-01 -4.636525e-01 -1.629739e-01 1.621949e-01 -4.010902e-01 2.194821e-02 4.231101e-01 2.111085e-03 -1.378659e-02 1.849586e-02 -6.436867e-03 3.310043e-02 1.895247e-03 -1.736811e-02 -2.786344e-04 2.093960e-02 -3.700497e-03 -1.342815e-02 1.410899e-02 -3.554856e-02
<VARIANCE> 39
 5.668511e+01 1.599360e+01 9.690958e+01 1.540178e+02 6.985891e+01 5.171363e+01 8.135964e+01 6.680081e+01 3.039370e+01 2.628557e+01 5.959518e+01 1.700960e+01 8.736462e+01 3.163259e+00 1.436952e+00 3.358412e+00 4.569352e+00 3.731130e+00 4.061455e+00 3.638060e+00 3.025323e+00 2.648593e+00 2.191264e+00 2.772921e+00 1.548217e+00 2.320046e+00 4.425311e-01 2.613759e-01 4.342731e-01 5.186212e-01 6.211386e-01 6.999043e-01 5.949627e-01 4.520867e-01 4.762128e-01 4.300441e-01 4.483609e-01 2.972553e-01 2.690029e-01
<GCONST> 1.256761e+02
<STATE> 3
<MEAN> 39
 -1.174610e+01 2.377511e+00 5.907522e+00 -7.509716e+00 -1.484549e+01 -5.752242e+00 -3.452240e+00 -7.925550e+00 -6.029555e+00 4.466238e+00 -5.665375e+00 2.932615e+00 6.250695e+01 -2.554018e-01 -8.491228e-02 -3.102212e-01 5.303555e-01 1.647671e-01 7.072057e-02 2.909519e-01 2.912531e-01 1.543481e-01 -6.240433e-02 2.596328e-01 5.482083e-02 -1.315180e-01 -8.142145e-03 3.429746e-02 -6.250424e-02 3.581626e-02 3.077111e-02 3.221247e-02 1.683212e-02 2.509016e-02 1.157013e-02 -2.004066e-02 2.499708e-02 -1.874049e-02 -1.781753e-02
<VARIANCE> 39
 4.328399e+01 2.460959e+01 1.044581e+02 1.600896e+02 5.266938e+01 3.777423e+01 7.950176e+01 6.666457e+01 3.306547e+01 2.877627e+01 7.490441e+01 2.153867e+01 1.015195e+02 2.635207e+00 2.876726e+00 5.250413e+00 5.665032e+00 2.394099e+00 3.249831e+00 4.571245e+00 3.072295e+00 2.879822e+00 2.849812e+00 3.943515e+00 1.795247e+00 4.847997e+00 3.736917e-01 5.523798e-01 6.889269e-01 6.439711e-01 4.053957e-01 6.151158e-01 7.466707e-01 4.767566e-01 5.209624e-01 5.754241e-01 5.624180e-01 3.419761e-01 6.257376e-01
<GCONST> 1.310266e+02
<STATE> 4
<MEAN> 39
 -1.477179e+01 3.471379e+00 -1.559973e+00 3.781711e+00 -7.399578e+00 -3.590602e+00 3.340909e+00 -5.704589e-01 -2.786854e+00 2.096428e+00 1.416178e+00 3.593220e+00 5.453839e+01 1.263487e-01 5.850578e-02 2.530189e-02 9.235826e-02 2.382198e-01 7.060701e-03 5.585213e-02 9.926799e-02 1.515477e-01 -4.404967e-02 9.314270e-02 -1.706308e-02 -3.879196e-01 7.431469e-02 -9.146865e-03 4.784754e-02 -4.180241e-02 -7.370952e-03 -1.208171e-02 -1.998748e-02 -2.231688e-02 -9.156346e-03 5.247688e-04 -1.611314e-02 -3.956439e-03 -3.447133e-02
<VARIANCE> 39
 5.551955e+01 1.976885e+01 6.545522e+01 7.450176e+01 4.899431e+01 3.773140e+01 4.520734e+01 4.620225e+01 2.889647e+01 2.387867e+01 4.530964e+01 2.075084e+01 1.030809e+02 1.689404e+00 1.731486e+00 2.146559e+00 2.500799e+00 1.571429e+00 3.282365e+00 2.932000e+00 2.244377e+00 2.585498e+00 2.311810e+00 2.453177e+00 1.647252e+00 2.304626e+00 2.514811e-01 3.399027e-01 3.256547e-01 3.817496e-01 2.898138e-01 6.527087e-01 5.473464e-01 4.224567e-01 4.989226e-01 4.476120e-01 4.289484e-01 3.268737e-01 2.955692e-01
<GCONST> 1.182964e+02
<TRANSP> 5
 0.000000e+00 1.000000e+00 0.000000e+00 0.000000e+00 0.000000e+00
 0.000000e+00 9.049704e-01 9.502951e-02 0.000000e+00 0.000000e+00
 0.000000e+00 0.000000e+00 8.931528e-01 1.068473e-01 0.000000e+00
 0.000000e+00 0.000000e+00 0.000000e+00 8.925170e-01 1.074831e-01
 0.000000e+00 0.000000e+00 0.000000e+00 0.000000e+00 0.000000e+00
<ENDHMM>
~h "iy"
<BEGINHMM>
<NUMSTATES> 5
<STATE> 2
<MEAN> 39
 -1.152975e+01 1.340283e+01 1.234214e+01 -1.591717e+01 -8.722178e+00 -4.406710e+00 -1.184717e+01 -9.299462e+00 -9.355881e+00 -1.920771e+00 -1.310228e+01 -2.909664e+00 6.295045e+01 1.383432e-01 1.236270e-01 7.106960e-04 2.012858e-01 3.139036e-01 -2.932194e-02 9.248175e-02 5.275051e-02 1.569597e-01 -1.146489e-01 9.475066e-02 7.288009e-02 -4.861591e-01 1.656744e-02 -4.357381e-02 -2.495480e-02 8.016808e-02 1.847735e-02 5.838660e-04 7.352480e-02 1.320879e-02 3.664916e-02 2.448096e-02 5.737700e-02 2.175109e-02 -3.842340e-02
<VARIANCE> 39
 1.682081e+01 2.230913e+01 1.452102e+01 6.083564e+01 3.450410e+01 1.990466e+01 4.128067e+01 1.628384e+01 2.525816e+01 1.926575e+01 3.157556e+01 2.361407e+01 6.495580e+01 5.945626e-01 9.371086e-01 7.638415e-01 1.947968e+00 1.185655e+00 1.076764e+00 1.607965e+00 1.039286e+00 1.152292e+00 1.072746e+00 1.307831e+00 9.725416e-01 9.641979e-01 9.518392e-02 1.445462e-01 1.402281e-01 2.435605e-01 2.068527e-01 2.100395e-01 2.498326e-01 1.876170e-01 1.898549e-01 1.861579e-01 1.940398e-01 1.604077e-01 9.306031e-02
<GCONST> 9.234652e+01
<STATE> 3
<MEAN> 39
 -7.726539e+00 1.183387e+01 1.121143e+01 -7.217413e+00 -3.827637e+00 -4.028926e+00 -7.442595e+00 -7.477299e+00 -5.019745e+00 -1.783930e+00 -7.490471e+00 -2.745558e-01 5.169423e+01 1.421087e-01 -4.758576e-01 -2.695661e-01 8.937349e-01 2.550625e-01 1.876249e-01 6.099578e-01 3.477328e-01 3.701700e-01 1.716870e-01 6.783062e-01 1.854778e-01 -8.229098e-01 -9.719062e-03 -1.201359e-02 -3.615680e-02 -5.009322e-02 -2.163070e-02 4.582518e-02 1.091371e-02 2.256774e-02 -4.009998e-03 3.146200e-02 1.484468e-02 1.741068e-02 2.262606e-02
<VARIANCE> 39
 1.887490e+01 4.737753e+01 2.140237e+01 8.436827e+01 2.534894e+01 2.807990e+01 4.897380e+01 2.352047e+01 2.657167e+01 2.410493e+01 4.491170e+01 2.048287e+01 6.934208e+01 1.338330e+00 2.058690e+00 1.250301e+00 2.484247e+00 1.410979e+00 2.547325e+00 2.514014e+00 1.579368e+00 1.868845e+00 1.828423e+00 1.788235e+00 1.529927e+00 1.105094e+00 2.583418e-01 3.722610e-01 2.396392e-01 4.400261e-01 2.650176e-01 5.307010e-01 4.351664e-01 2.914611e-01 3.423404e-01 3.220576e-01 3.098509e-01 2.800454e-01 1.858094e-01
<GCONST> 1.093046e+02
<STATE> 4
<MEAN> 39
 -7.262977e+00 6.001745e+00 5.349764e+00 1.493247e+00 -2.125301e+00 -1.874975e-01 5.133173e-01 -2.363072e+00 -1.137600e+00 2.296548e+00 1.081296e+00 2.583158e+00 4.273465e+01 9.090048e-03 -1.111812e-01 -1.783198e-01 1.818688e-01 5.333563e-02 1.173023e-01 2.255931e-01 1.426257e-01 8.744332e-02 9.589791e-02 1.889768e-01 7.207237e-02 -1.739808e-01 3.427452e-03 1.395823e-02 -5.513515e-03 -2.917113e-02 -9.319117e-03 -1.762198e-02 -2.203731e-02 -1.414931e-02 -2.107071e-02 -1.286297e-02 -3.161431e-02 -7.362238e-03 4.185838e-02
<VARIANCE> 39
 1.540600e+01 2.996186e+01 2.301785e+01 3.269348e+01 1.810629e+01 2.356591e+01 3.416880e+01 2.655189e+01 2.232154e+01 2.568029e+01 3.202140e+01 1.976644e+01 3.291407e+01 1.276036e+00 1.466372e+00 1.221062e+00 1.675531e+00 1.356642e+00 2.121580e+00 2.172137e+00 1.706918e+00 1.850609e+00 1.835827e+00 1.706299e+00 1.627548e+00 9.727144e-01 2.529941e-01 2.567904e-01 2.277204e-01 3.042643e-01 2.689173e-01 4.253171e-01 4.015563e-01 3.342803e-01 3.598182e-01 3.488831e-01 3.065516e-01 3.175648e-01 1.723809e-01
<GCONST> 1.037816e+02
<TRANSP> 5
 0.000000e+00 1.000000e+00 0.000000e+00 0.000000e+00 0.000000e+00
 0.000000e+00 9.475544e-01 5.244554e-02 0.000000e+00 0.000000e+00
 0.000000e+00 0.000000e+00 8.371357e-01 1.628643e-01 0.000000e+00
 0.000000e+00 0.000000e+00 0.000000e+00 9.539315e-01 4.606856e-02
 0.000000e+00 0.000000e+00 0.000000e+00 0.000000e+00 0.000000e+00
<ENDHMM>
~h "jh"
<BEGINHMM>
<NUMSTATES> 5
<STATE> 2
<MEAN> 39
 -1.328978e+01 6.796081e+00 7.750992e+00 -3.765332e+00 -9.851917e+00 -5.791566e+00 1.220366e+00 -7.275228e+00 -6.827316e+00 -2.898607e+00 -4.522246e+00 -3.691875e+00 6.145458e+01 -5.751967e-01 -3.860652e-02 2.091234e-01 -8.502939e-01 -7.611437e-01 -4.384906e-01 -2.243906e-01 -3.335715e-01 -1.611319e-01 -8.319218e-02 -2.399934e-01 -2.911403e-01 1.554662e+00 5.817313e-02 -4.762380e-02 -1.406365e-02 -3.291472e-02 -8.325876e-03 -4.693487e-03 1.706134e-02 -2.666514e-03 3.797752e-02 5.168812e-02 -2.467418e-02 3.181757e-02 -6.366289e-02
<VARIANCE> 39
 1.570630e+02 4.614462e+01 3.139471e+01 4.756195e+01 7.421867e+01 4.011497e+01 3.006625e+01 3.103753e+01 3.057581e+01 2.033770e+01 3.464640e+01 2.041960e+01 1.438347e+02 1.459786e+01 5.489040e+00 3.802621e+00 1.794757e+00 6.247770e+00 2.971377e+00 2.601344e+00 2.806807e+00 2.838933e+00 2.079177e+00 3.058181e+00 1.890005e+00 4.019603e+00 2.238190e+00 1.070890e+00 7.546376e-01 3.018516e-01 9.490261e-01 4.898742e-01 4.942329e-01 4.309621e-01 4.547936e-01 3.917559e-01 4.390742e-01 3.505020e-01 6.614395e-01
<GCONST> 1.298818e+02
<STATE> 3
<MEAN> 39
 -1.235382e+01 3.003081e+00 1.027309e+01 -1.537299e+01 -1.953308e+01 -9.805588e+00 -1.009711e+00 -1.106774e+01 -7.670955e+00 -2.361934e+00 -1.099773e+01 -6.071891e+00 7.285097e+01 4.810760e-01 -2.512451e-01 1.409303e-01 -8.891832e-01 -3.416955e-01 1.642700e-01 -6.550186e-02 -2.713474e-01 5.600770e-02 7.716580e-02 -8.121684e-01 -8.120571e-02 1.307472e-02 -1.345578e-01 1.146247e-01 -5.760273e-02 9.195213e-02 2.060957e-01 1.245536e-01 -3.389665e-02 1.081297e-01 5.274051e-02 1.519616e-02 7.988792e-02 2.578709e-02 -6.931715e-02
<VARIANCE> 39
 3.947663e+01 4.297314e+01 2.850648e+01 4.095527e+01 5.029337e+01 2.831300e+01 4.437745e+01 2.450225e+01 2.664775e+01 1.312518e+01 3.184016e+01 1.442510e+01 1.794063e+01 1.621274e+00 1.343567e+00 1.288665e+00 1.082618e+00 1.968720e+00 1.229742e+00 1.722301e+00 1.741022e+00 1.090651e+00 1.032282e+00 1.362617e+00 1.266389e+00 3.242191e-01 2.998985e-01 1.884499e-01 1.878376e-01 1.449896e-01 2.608549e-01 1.763237e-01 2.381641e-01 2.661981e-01 1.534667e-01 1.835810e-01 1.963874e-01 2.083560e-01 3.537793e-02
<GCONST> 9.551321e+01
<STATE> 4
<MEAN> 39
 -1.081236e+01 8.740007e+00 1.307000e+01 -1.416312e+01 -1.161560e+01 -4.791471e+00 -5.400407e+00 -9.461134e+00 -3.859854e+00 -1.675844e+00 -9.276276e+00 -2.200169e+00 6.259818e+01 8.982400e-02 1.953761e-01 6.956754e-02 2.380195e-01 3.521558e-01 1.760492e-01 -9.896206e-02 8.209591e-02 1.220875e-01 -7.515887e-03 1.441253e-01 1.070441e-01 -5.178689e-01 -3.147622e-03 -1.218825e-02 -2.054168e-02 3.802666e-02 9.118536e-03 -6.505342e-03 1.517600e-02 1.593088e-02 1.129902e-03 1.221716e-02 3.341659e-02 1.505339e-02 -2.126440e-02
<VARIANCE> 39
 2.613517e+01 4.560904e+01 2.398388e+01 5.949028e+01 8.057925e+01 2.887906e+01 5.229243e+01 2.527796e+01 3.631604e+01 1.891015e+01 4.103715e+01 2.542235e+01 1.137807e+02 1.050678e+00 9.361960e-01 9.570714e-01 1.123319e+00 1.088262e+00 1.114742e+00 1.583074e+00 1.049839e+00 9.942955e-01 1.094854e+00 1.192815e+00 1.136897e+00 9.232194e-01 1.815723e-01 1.446185e-01 1.786931e-01 1.581504e-01 1.862179e-01 1.996797e-01 2.595643e-01 1.724078e-01 1.673006e-01 1.897594e-01 1.841302e-01 1.857818e-01 1.062145e-01
<GCONST> 9.757391e+01
<TRANSP> 5
 0.000000e+00 1.000000e+00 0.000000e+00 0.000000e+00 0.000000e+00
 0.000000e+00 9.353007e-01 6.469934e-02 0.000000e+00 0.000000e+00
 0.000000e+00 0.000000e+00 8.188090e-01 1.811909e-01 0.000000e+00
 0.000000e+00 0.000000e+00 0.000000e+00 9.769143e-01 2.308562e-02
 0.000000e+00 0.000000e+00 0.000000e+00 0.000000e+00 0.000000e+00
<ENDHMM>
~h "ow"
<BEGINHMM>
<NUMSTATES> 5
<STATE> 2
<MEAN> 39
 -9.685392e-01 4.224721e+00 -8.144002e+00 -1.756378e+01 -3.746707e+00 -5.099412e+00 -7.254900e-01 -7.125660e+00 -6.954773e+00 -2.426867e-01 -4.667451e+00 -9.395844e-02 6.310260e+01 1.673353e-01 3.607062e-01 -4.508395e-02 -2.793762e-01 6.922199e-02 1.131841e-01 1.906826e-01 -6.435362e-02 -9.176796e-02 -2.615463e-01 -1.990427e-01 1.921368e-01 -1.578467e-01 -6.707591e-03 1.832495e-03 3.532802e-02 6.418510e-02 -1.231937e-02 -2.769978e-02 -6.072605e-04 2.633777e-02 2.269314e-02 -1.655523e-02 3.978899e-03 4.222733e-03 -4.243894e-02
<VARIANCE> 39
